-5.173079496794987 -0.5224670383619952 5.625626124316056 -0.39623687559541065 0.9889472643698269 -4.021880887418337 -1.5666252750212655 -1.0781322072909578 -1.0381708642448988 -1.1594849983723308 0.01272478771402108 -0.13989448606182897 -0.048395217048962325 -0.21356519090985182 0.5085746769510611 0.6937398253434319 0.6649053708633357 0.0815952535479385 0.3901026695646166 0.14818574867600592 -0.5127326219702315 -0.6370140796282082 -0.5481869863981778 1.4286812120352477 0.1337240538208868 0.09753900703947871 -0.8989006680113932 1.5634842223332102 0.28063773573482353 0.07622950830584697 0.009324942085612853 0.7434087826230703 0.5680026238278517 0.16492428352447241 -0.29313140187949716 -0.2829428098253366 0.43544373423046423 -0.12440938480262992 0.2577156307620615 0.463103759152407 0.45594457805530864 -0.6168531087898415 -0.21163960867891363 0.25600730125407534 0.4729808568027374 0.4371728608479011 -0.15410921577597486 0.5495837416943916 -0.05182090099244112 -0.03448942904022023 0.8449587960950952 0.5500589725206373 -0.09286283866753092 -0.1529618080547259 0.23626065509526895 0.550448912264584 0.013074114016319305 0.049258556880794224 -0.3123848586463197 -0.6832802575913406 0.2419926329157221 -0.46930064556087414 0.30676192743800335 -0.37629993988593663 0.039662753275886864 -0.10668146963013736 0.0014662396455324411 0.3968699986624586 0.48106202059644754 -0.14132450935434354 0.8880074740436794 -0.33887222468421174 -0.3701644150059658 0.43624965629468804 0.22385245477376137 
4.375120942939093