-3.449138982346316 3.131141814067398 -3.781906415164966 -1.680704172371844 1.960700475819424 5.769121043782885 -0.13446583873938778 0.5924825858645211 3.271099037431325 0.4597204013260896 1.1993852492158479 0.5326950159652766 -1.7477791122014885 0.5176182793911995 -0.22675631334298307 1.2392469481969317 0.051236642745317695 0.9294366445333229 0.5370371288370217 0.037772841058592715 -0.7572155729839523 -0.6876214444370388 -0.42185983742757327 0.24774445610923806 -0.19398933948493347 0.05979055510077125 -0.39070036689132437 0.058711271867072035 1.476175826008984 -1.0833528456501251 0.7405020641434863 -1.0417239771499038 0.43044202523428865 -1.52024869759985 0.4489886335223925 -0.7660153124503151 -0.003087581185394317 -0.30297990244679096 -0.8453950383643035 -1.152813191195085 0.13943242246387821 -0.38150729841499137 0.7673592470627756 1.2757220339331945 -1.0754143617602545 -0.34599188906638556 -1.1384772235583387 0.3079134135328512 0.6511859678585179 -0.04805080202080614 -0.3453865479025472 0.4749189456845596 -0.8684072369928888 -0.8700465252193659 0.20618944707657016 0.4057782635629296 -1.116559745425956 0.4997425035936218 -0.1337552787002255 -0.299061573433407 0.40958070861942986 0.4730466475633423 -0.44759678836270167 0.04769586784782209 0.13678318557394983 -0.37080948187887647 -0.09165847307046004 -0.2848136025486653 0.890455280098351 -0.8010220548636376 -0.5706835479438781 0.13226465920191155 -0.35517668377542744 0.20502325046284864 -0.9819677279855439 
-2.773386705021055