-2.741948449080779 0.4121257026016525 -2.274643014078056 4.261016655071604 -0.4146099293609343 -0.17329259209755504 -0.15000265487471143 0.8321182671497983 -0.38942450882725 -0.5846148645754725 0.6902117525051124 1.7035050054325227 -0.14238915943406333 -0.6301308185291361 -0.8071615807558676 -0.31609272202144767 0.1501298480960357 0.984616451150042 0.11615022867039293 -0.09308151854023511 0.306243981346688 0.38014270719824117 -0.3619345051647763 0.011502802629662481 -0.3516535778368671 0.4560220086275336 -0.3100785795091983 0.4823253578798313 0.07383302967356858 -0.050476078534633345 -0.22567230294897178 -0.3478142927853788 0.018934538162314815 0.42292600179103595 -0.3643516396585289 -0.07853367930477631 0.031224850622635254 0.3557054136928504 -0.13377406618991944 -0.1842129209474075 0.23662088227261105 -0.11850563111732462 -0.1505811160656876 -0.28064744104541417 -0.15873956741817008 0.06622142352483287 0.18456540159255067 -0.15944684223571481 -0.0011786605655747032 -0.02324814309325375 0.09516880242014239 0.15124809357328053 0.03346915473199251 -0.25532879269061703 0.07049312462397017 -0.013748034807720834 0.24673915964397095 0.084174289980769 -0.12182919126404262 -0.03416851995927109 -0.11922801410568307 0.08870696247649987 0.20831055082720262 -0.1907955362916889 0.08903014772027122 0.0176242132704843 -0.24449011042543037 -0.08578202964209919 -0.029388699652665634 -0.01048988872616742 0.016880086808299534 -0.004132080456601968 -0.32097311141652973 0.013170490095316983 0.15743748017191458 
2.128219873538052