-0.09763704551128427 -0.984821573555962 -4.296135806308916 0.731278786833828 2.3486926218846635 0.7277802467967744 -4.059536883065964 0.9779710639925882 3.010234097287497 0.02144280294134926 -0.3461768053888624 -1.683485730029893 1.107070786302133 1.2581846050685008 1.2497594856194505 -0.40520663582718075 -0.9398719159437355 -0.23420028934184012 -0.055871454869022785 -1.2302704679310672 -1.2476237342130527 0.659735705100139 -0.17099941065319568 -0.07648889178142317 1.013126901375725 0.9821926946000811 -0.9951188731948892 -0.8623461374364311 0.3147016455934732 -0.1058222509725478 0.23334977163181286 0.6659166227718716 0.3102848531973838 -0.21846198386029791 0.15040528127475322 0.5917180974681888 0.31581163346870883 0.17545484147882923 -0.08884975636339754 -0.13921961079605127 -0.19619365435651948 0.19725775946895935 0.2359811461058262 0.2800076019217321 -0.3199927059842445 -0.06365158888830069 0.4539748391403834 -0.07054810473791867 -0.5232427890809368 -0.16782961740393026 -0.42410118377120276 -0.037436330442261134 -0.21647409659500155 -0.1972372794337612 0.37799608177728583 -0.06127174264446539 0.3500613263515017 0.49666364306292654 0.14479605078379226 0.024034884596244768 0.17074339469701416 0.3641504544181162 -0.3605955687660962 -0.06142519080368805 0.1307469670166623 -0.025219855791799806 -0.028965233657833434 0.17488666882073967 -0.19579461018614228 0.4972097077077357 -0.11359243643779632 -0.12382321796608259 0.23641100355037628 0.3819475474372774 0.06355884244865376 
-2.730611294797631