2.804710403973356 -3.367129395549119 -6.061289194148491 -0.8824827841350222 -0.9312938187065729 1.0275794493301134 -4.735585414754411 -2.492043087746362 1.1647636906019105 2.5583236863003527 0.9081792400270094 -3.3722101361416397 -0.7059567196871981 3.1510661542317937 0.5098801504191955 -0.6387377690062792 1.6877770566568193 2.712096625818574 0.265348892974788 1.5510244883245514 0.1134195188228646 0.2329334724479204 1.868602291253217 -0.10898013020117062 -1.7988700389229146 0.03599671981961372 -1.8038749985483402 0.9876473262776311 3.021708912043508E-4 0.2945060290510354 -0.9097013836579741 -0.1241843225405624 -0.39662621340942916 0.3106716921526791 0.48643841941351695 0.15483237364571523 -0.21957373160607332 -0.3689872549788216 0.468197578454706 -0.15682302050707553 -0.4281734815206672 0.7499429850425308 0.26294238761767996 -0.36705061276828865 -0.5896450110084597 0.6849465299261633 0.3579587578854324 0.21730973164724127 0.20100875202701568 0.09897748616981827 0.14818213588275891 0.13369266585462747 -0.4418911386495042 -0.2909308801602909 -0.16103623058699915 0.3003546664639535 -0.143681286235387 0.39897209735097644 0.21312164608210865 0.10818027702743598 0.13056320772798144 0.5706709436352789 0.41373031100786845 0.9095717832199381 -0.3645672848520025 0.16460837890636132 -0.29289459815308533 1.0117082715221908 0.2693395861833662 0.10941260195915367 -0.4107746798268077 0.0776083265930938 0.5122380129959094 0.26362095858680196 0.962034685804686 
-2.309491403258851