-5.399253309465399 2.845728978436478 -1.3003005706126647 5.013909468375719 1.335596608140909 0.11332012096206201 -2.245989688415059 0.6122323505817333 -0.30641601745454317 1.1300285984915406 0.6455020038746677 1.1461095224541173 -2.9842422733480136 -1.2968525774906916 -0.7258826715066551 0.05835326337669433 -1.7536236900197875 0.7589062094975094 1.5094592829416187 -0.3539796932796243 0.7404472524806938 -0.5584167245370955 0.2625812131591858 0.6021598352862362 0.11496811265848805 1.3062881810377585 -0.36638821460268706 0.18687651166245117 -0.452434755924523 -0.2634615818238004 -0.4537004312365903 -0.04109011446222968 -0.7848166515756191 -0.20467215863429256 -0.10012945632256146 -0.3000367959931409 0.8129188789154442 -1.1536988040506795 1.2590605481408028 -0.7814826728742714 0.5662581308784741 0.27029734065345756 0.20739023119309818 -0.34147317085865114 -0.34565746786402973 0.18460001559515393 0.3871377620031437 -1.009410686933689 0.22193711597092208 0.8605023477564111 -0.5408763983985362 0.625070774637245 -0.14367134310323343 -0.14297864379199898 -0.36337516013574145 0.24554423894548205 0.5288054032259626 0.2266629504563593 0.4254687727438651 -0.1008648189527176 0.5296398340662787 -0.02558959629599622 0.4553832912010486 -0.46178178649388213 0.09657071058504132 0.08839555525872372 -0.8292192582868826 0.16935840050321 -0.20677576258048025 -0.28522898000534014 0.033802524583012084 0.3189062051021387 -0.23573610583173532 -0.1509116917190092 0.11424117904874331 
0.26500634251151345