2.0255522561738806 1.5427813834963713 -1.8903995831896108 -1.7838294085174287 3.661721771643613 0.9301724227048851 -3.064557825506418 0.28332821340145525 2.154403778374635 0.11027617098374382 0.5476549774008193 -1.3128652369332465 0.4172335883099786 -0.22475654284580793 -0.8840845680984956 -0.7012200635911718 -1.1761691805971362 0.18966714691460634 0.5333876231045598 0.46634361538582675 -1.6521585629578912 -1.8651257853354348 0.4379452244351956 0.25429604574269155 -0.03788050036298268 1.5416940969050714 -0.61184986060635 -0.6359725129885222 -0.5434712427652008 -0.3930608678294345 -0.5930311906299273 0.9375683593828725 -0.16188395475285716 0.23654842193096892 0.5099221041404722 0.2645253791596467 0.5116249397278771 0.770941586100997 0.10032231563762606 -0.46447474349575013 0.31190770039740245 -0.0028389149198649877 0.7122016128992212 -0.6269594872379058 0.1412510304804187 -0.2542059305964316 0.11066574082744465 0.03946455244004046 -0.3766076987956756 -0.22190696851935274 -0.3400591861428644 -0.15948471558737953 -0.09599136441333886 -0.5409521450379514 -0.01228561788268101 0.046639704822511896 -0.25177565063041707 0.26908081609542883 0.264558459900025 -0.16370034008063622 0.002465427719896114 0.05020145702669207 -0.41031886773188475 0.3347141195066332 -0.00823829767810609 0.5510345827926928 0.46639203829502246 -0.029599669502541087 -0.10913777669701985 0.14341266959167584 -0.03315470752165378 -0.0644452421922499 0.48045194486499077 -0.2758032640743293 -0.37809580247194385 
-6.013371930789119