-4.148050968459863 1.2774014051030669 -1.2347149701626785 1.6540996555800946 -0.08155954174927071 -0.3063488831302119 3.5816406280195077 3.0213614792190793 -0.42195127682748623 -2.5200854793336864 1.928134052025686 2.1145342229659443 0.2790498459812085 -0.2692392856888838 -2.3270198686850887 0.4282297505667385 -1.7306269044769929 3.783691810301684 0.07954597916846207 0.24065718402958008 -1.2479717513407658 2.034674603682486 -2.6062939404854486 -0.795266792853973 -2.960272550030143 0.6851132079921809 0.24059633635875377 1.7031470185810997 0.976338157210987 1.2566641172906028 0.1706908959646749 0.8157936585855283 -0.3264652677942564 -0.2874267674712977 -0.9825847931156063 1.6134684741110596 -0.5626349521864773 1.1782864571123137 -1.737260811718936 0.3871283506381329 -0.7971082815295791 0.2457453687761495 -1.1779627459765063 -1.0060661455836926 -0.3797991014324287 0.5941872477950216 0.7279282061070458 0.022702679072155507 0.17604912984519383 -0.3292845825834489 0.3424306093504881 0.12447993281715547 0.43088407645848353 -0.7677083731325818 0.5117648314743705 -0.12425491958936274 0.3051521471523988 -0.7180890761186332 0.048237435083671475 -0.14659231634770734 -0.22432024092508984 -0.6510390109033248 0.673875992864073 -0.015709474673753943 -0.1893529818393651 -0.690860458740591 0.032074772669183016 -0.4669667577074643 -0.24092324288100836 0.08643966332987946 0.4126168192630346 -0.10970226128416516 -0.9304201593463505 -0.45886236928770874 -0.21401889715337374 
3.9342524721789953