-2.687905848503526 3.9260076572883964 0.46683595690527335 0.35287989276909704 -1.4083060820026456 3.2044132127317146 -1.2533097812964817 -0.6273689652455975 1.7485586182048007 2.3545987550925136 0.8273784384370264 -2.0335402375374882 0.7737058697332273 0.10456432536216076 0.036596441512634637 -1.822114537737099 -1.099054242795052 0.14959805070159887 0.5821608163255052 -0.12462347019220434 -1.2057292348273914 -0.23299084734134923 0.15453766176359693 0.09127143813331891 -0.14703422358865886 -0.7062785232582298 0.7986383684827556 0.5291584242742633 -0.3927581985602454 0.8582026739332154 -0.41317075392112396 -0.37633441339318185 -0.36440771864511345 -0.7520477503101974 -0.2221796016767421 -0.17243637203710588 0.230696530455771 -0.21254318363653996 0.18606996203007667 -0.35204106916876676 0.6851746134695709 -0.11496175729713404 0.63258518761928 -0.3475492184876804 -0.46368102105617504 0.02085356033533825 0.3132101467079299 0.3709662440615462 0.05033022562736407 0.1464256398401257 -0.5610021177690092 -0.15856231539410676 -0.09464780798928467 0.052687113731471114 0.013535421587388796 -0.19535034482011723 0.20907218770312913 -0.06914047534625822 -0.2114833139531129 -0.19245330759770488 0.05421515952440609 -0.05947583711136567 -0.43876564398598566 0.20286579145695918 0.09755930435125082 0.060184943581690964 0.2510139854119689 -0.4229438551272744 -0.3539524224848023 0.05516994935599977 -0.05419338972601609 -0.1771659133532116 0.23968081116580398 -0.1891469109536561 -0.12075267154052396 
-2.6566579476953973