-3.5295203522201275 -0.8522963084765083 1.1804492689104178 2.3716463173223064 -3.123491038937904 -0.7258320078610396 1.6288224733348953 0.13849587694362303 -3.667640707828744 -0.40394346615229215 -0.6127588916429939 0.1684675227481074 1.0630989746329855 0.8344142813954547 1.0407412432446104 1.3385118606857078 0.9113304438576262 0.26027021829065194 -2.304443711702446 0.09116965899434723 1.6582086396819866 2.1036858736062367 -0.09506942823257075 -0.6302484847106593 0.09575718628200769 -0.3146144581800481 1.3878796925617956 0.873832380714658 0.8858922314341362 0.3597096257458796 0.6147915091470191 -0.9029748863238429 -0.28119154068855134 0.19363217578739594 -0.3456598597665126 -0.6970514240132788 -0.23203409523922827 -0.9177633234112491 -0.7257437705500248 1.1873565838033848 -0.2859795799364736 -0.0297025448147846 -1.1196617917310823 0.9519057119709172 0.26692351983048435 0.10587896815120612 0.07159904201203338 0.2865360388534922 -0.34285215506522854 -0.12244233606880518 0.04716016324562533 0.21339982584891798 -0.25262155152001425 0.10782042655604125 0.3415541393444379 0.2239895437672994 0.22937688425076452 -0.20059124363007597 -0.2822930134748416 -0.19962426573554715 0.3700165813968746 0.09889219732969545 0.4892257118738677 -0.46640005003530405 -0.15502856060083797 -0.21118861087325905 -0.639699373595964 -0.1085267857772842 -0.24897987481265 -0.09748570557896709 -0.09560694734429356 0.36709348461587243 -0.10873865239795702 0.551278085259291 0.21888643549935116 
6.558376450906249