-3.04088825370878 2.089749730755769 -0.31493029219162705 4.43486420393515 -0.28830405990988583 -0.04902799315782225 2.9440758029837655 -2.212486699043523 0.46406957617030464 -1.309469149038271 -0.19904630334577766 -2.079101020868199 0.17071219937639065 -1.4458744551329488 0.09523236720420203 -1.7436932123024074 -1.4485582470741747 -0.41136684337880697 0.08715448683910376 0.10531457884583616 0.9383844823477085 -0.999276391953716 0.5082501010633713 0.7576814653288428 -0.8256634000524613 0.5611761021517685 -0.9385480484957992 0.3526357301821875 0.39705090524317616 0.12104889133248342 0.23469729569389391 0.31301713570014184 0.31271256682332044 0.43245739499828073 0.08044527793383258 -0.5061228954983055 -0.42352233745549445 -0.5133202473941556 0.5774120733869516 0.2858515402535462 -0.4563143503738822 0.125604056356369 -0.4675237747908717 0.690225902487692 -0.3538930643725833 -0.16689535040842945 0.2556626856721306 0.5164350579683971 0.3059279089458506 0.2592559254604797 0.08156927919589144 -0.1977182854408033 -0.02332966841775396 0.2166475905060694 0.035434501694094844 -0.12099213815566338 0.25811295867029577 -0.04742399125085631 0.46610927759149745 0.0029500300934473603 0.38125518444837087 0.25624376480145183 0.25450068799143954 -0.1850533603387756 0.09497947255164393 0.19537002485866678 0.574247236081432 0.2390855696071052 0.02960607139889032 0.30876228213591894 -0.6216772982840348 -0.012944054851951367 -0.12474588157385466 -0.17969285934825824 -0.10457544945728922 
0.4480028724823153