0.46809412532822225 0.9835113261718007 3.5549796657958783 0.7283557872888228 -3.785638265615232 -2.5193998038543084 -2.448436077375287 -1.7912977281098066 3.8500188284714905 -4.504851760677964 0.6185745385547485 1.3753484598503012 -0.22020701257898456 1.9902503906257927 -0.250431907007066 -1.3762179207037122 -2.9508947072803253 2.7561687180189645 -2.3505553526314316 -2.88074804644491 -3.5765167739261257 -0.37554765484480335 -0.17181024987374816 -1.489260953743644 4.716378777476817 -0.45546984459212336 1.1983139114617056 1.8323640890979909 5.1224575813431965 -4.704708851621745 -1.074351241181302 -0.7440432397783273 -3.6359903918406467 2.5007934287713223 1.895060333445078 0.49157083927855916 -1.7682567230818982 -1.593439980921608 1.6450617613101768 0.3667361505957828 0.6972870631314614 -0.8450968229263679 1.3282507650606798 -2.6721412144562473 -2.5543897351636375 0.5319042504535048 0.7436306574608076 3.295191959297161 0.2661324176839696 0.1043962174431422 0.035812340935379994 -2.320403038114163 3.1807329604882457 -0.15646723665943707 -1.7410110756979214 1.0878255437203193 -0.06446794056507596 -3.1994026008540395 0.23621255009412312 1.4304760529659344 -0.03311873646509908 0.3971858645126537 -1.6948686849891308 1.46577436038959 0.6679335761504308 1.4774891243991042 0.22260350944721802 1.4251485199069365 1.6538465415167731 0.18370774436974274 1.0762069278264401 0.29059188204379943 1.6093022727913844 0.3416644162383874 0.1060953423622363 
-1.0330960366368946