-0.8168414506214638 -3.0025617913523126 -2.5242457081013288 0.9232470829785717 3.218075547945049 1.202670321131885 0.4521827078887406 -3.1143338906280698 -5.191199278393497 2.5630158654749726 -0.17191032302756648 -1.7119203808021943 -1.0248589144046403 -1.711734943686669 -1.4922338057653597 -0.4135093610877939 1.1677962996878823 0.4328622001512153 0.10866607150880957 -0.45319400716377517 -0.027698874078985858 1.3264893828198165 -1.8494253788571624 0.31259272453312886 0.9401208985150473 0.03089709777555148 0.9156559922659178 -0.44495032521884176 0.7939219346995519 -0.38000157272614565 -0.168877408976202 0.6094215932254216 1.2178543251644178 1.1367893062403964 0.05981504416295519 -0.4226173847574387 -0.11305511822210759 1.1898366064298909 -0.20638053421560132 1.0019256722494325 1.2267088308235645 0.8839840221728784 -0.25442453313083035 0.9161960760360371 -0.45210686862036487 0.616972436289611 0.3028155936369002 -0.6092858581048606 0.10540219342403329 0.32499178112218186 0.39167631765919253 -0.11763979423900252 0.3986417629071297 -0.6949625952340183 0.2116340705343599 -0.45514523320646744 -0.40379255342503284 -0.2346450693819724 1.057785779717504 0.5122021907451109 0.5061810756027972 -0.045583119594626846 0.1086747233127844 -0.4416593288733764 -0.8231450169760635 0.2892524615069716 0.358402608026725 0.026563609546582066 0.1744578937410734 -0.039926755092937534 0.07149032968066592 0.13682948519903743 0.09282214189109746 0.669088510827524 0.8272566087143428 
2.330248043839308