2.915761729439561 -1.0928795217784284 -2.115996446570813 -2.658661758203658 2.112594273901025 2.014275487507528 -5.233654098354482 0.3163061863734079 -0.7531117849719937 0.8731015962749238 6.137539738161877 2.0976133401022734 1.6430215481423276 1.8804361328922834 -1.4789028336916323 0.47194836312595273 -0.007729031885551407 -1.2574031117695603 -0.5581802942882005 0.10630775335563408 -2.592831389820631 -0.18530852423894606 -1.327700798225041 -1.2529938180275233 1.3361583192223079 -1.1004522023453915 0.25352825522948813 -0.3231736214414873 0.7737417785269944 0.40792087719250225 0.4486567899861884 -0.010589035980463013 -1.7441453028923564 0.09830833745903145 1.213511470069398 0.25880749287982285 -1.0631837696264848 -0.8158704514825135 -0.09086993864873359 0.0011684746165412374 -0.2730953151981665 -0.5415031879351685 1.2052072321076241 -0.7265742604831997 -0.45228095787099826 -0.35047416791365404 0.10201973327681713 -0.3606167225912056 0.2811017480368491 -0.519127128093314 0.9049391436664681 0.4949598849566052 2.0542622314104158 -0.41596509495006534 -0.9420084232037729 -0.3133401140324378 -1.0747701487262482 -0.42741994287374657 -0.602016491090749 -0.535465544972001 0.00852288549373681 -0.04785598884953485 0.28830162531837256 0.628932955148455 0.4891695678974507 -0.7459077560786468 0.30929864532752493 0.1289565995210264 0.6119276178760276 0.18909627195676637 -0.25838436244828866 0.19854839800900842 0.6812841050172949 0.8094837736125962 -0.49627702153705056 
-3.3904209850939155