-3.028590910755307 0.07008929039969836 -0.7992579208040815 0.12596843468502283 -1.803469785379912 -1.411785924261304 3.376614698888069 -0.04028801352041311 -1.0655006200083452 -1.7477181953784227 0.015092106991173138 0.07779974330166928 2.5343544855766695 0.8205650750520951 -0.591217907586604 2.5051241443466896 0.4189051177630432 0.11320787078995023 0.7063111029258596 -0.6549840669461819 2.6716475637857995 -0.11507864333957163 0.12929453827255766 -0.6537633592005488 0.43083327748562583 -0.44016288117024255 0.32383023503700376 -0.30297207640360313 -0.17343521184281366 0.2357821405621594 -0.01307529931151441 0.025885665597075475 0.1381317810548346 0.8151476769822205 -0.49339678160404676 0.21513596749146702 -0.5541103196643311 0.6081088927167103 0.1639695978602483 0.6125298684891676 -0.027033468900441185 -0.07351417188818832 -0.08824223924235552 -0.11366128738736714 -0.7090483561187522 0.020856826995179878 -0.1418968046880707 -0.6394809840091015 0.15987320708442182 0.38139811394771095 0.9296891138599532 0.11476944460520311 -0.30586145559722916 -0.04092309931764285 0.11908871578716784 -0.6400347258414261 -0.3423406886712035 -0.4408654784365245 -0.3651779748951025 -0.8466471646640017 0.11204982473519084 -0.6294873963825941 0.0919785027812795 -0.33052726226101903 0.010087199511116182 -0.11313093536459051 -0.3660622509602552 -0.1614757882779971 0.3312878415029662 -0.4292711569830088 0.3234061632346662 0.4446387999581667 -0.09828933208928928 0.12662439681644333 0.49170251227915646 
4.84289026599558