2.5544816859923234 -4.5128941295630405 -2.2957726640995566 0.15582120973752978 0.44055647546249777 -0.29958289828287943 2.041390449530608 -0.9969116412941847 -0.888843115255916 1.7314954762344121 -0.015995266023119625 1.6110804741527038 0.33640721458558065 -0.577176004526988 1.2217043206387586 0.9344286740998009 -0.5834551794655682 0.31568497672421914 -0.021509866808511746 0.5909719316870641 0.652477412613621 -0.2707607106633554 0.14791373763016935 0.4422967581352699 0.1055973097119508 -0.08449837263696947 -0.5628176071027763 0.3037201261305613 -0.30020686413092 0.3614296047328246 -0.9728010985364454 -0.5808969285302623 0.2718544078805979 0.19852153362006097 0.1304293746342473 0.44197496268200387 -0.06538959669104488 -0.19113534299762863 -0.8740305811944725 0.4057484650819927 -0.09594271031104143 0.42477876209924115 0.26778313908722506 0.16007539690984873 -0.0021160957567883387 0.048386059065276044 -0.5246150523528071 0.36637806115091553 0.6341345443713043 -0.18879984805029043 0.016957634251734355 0.06948701193653456 0.19731310443773192 -0.20619731245755601 -0.04962079329599289 -0.15262192487572646 0.5070746377128017 -0.0308055353871049 -0.14795794029578355 0.18461105527321722 -0.19115672012839327 -0.6324051482046401 -0.4101239182884969 -0.46245061596545817 -0.2168997064141036 -0.29616044292636023 -0.13350257357737189 0.016501706347786527 0.1038558965763916 -0.143148266464097 -0.28587836888180224 -0.23675103984078585 -0.3976307987715772 0.07352991853996771 0.4326091705910523 
2.2505409057049377