2.6519478242624075 -4.64365358486031 3.2339330620671167 1.0133037719365832 1.33126402139181 -5.679352521987607 1.502289932184226 0.7578028298887207 -3.538212429964137 -1.4866955773517665 -1.25051990656186 2.008704866325644 -0.43204303288107615 -1.2779998061916678 -0.5912040983200803 1.6763688791250544 0.8220603820820478 0.478280737117462 -1.801471084120242 -0.17565400957921157 0.9983884129863263 -0.13013153000239486 -0.36914264739592384 0.6798065589710969 0.6364357715731886 0.9287689924193248 -1.8390969604137668 0.17824983270942635 0.2329465323402498 0.20715856662373416 1.5839916814322788 0.009819092476946845 0.8497881629571433 0.6723832183095309 0.6971475595864911 -0.42612870802266256 -0.8579121722025038 0.4840622883317026 -0.6093415476500548 1.4132559094611485 -1.0776394476378346 -0.39753417309412753 0.1673384100871832 0.9398725711486159 0.9134058527865835 0.42665757250775327 -0.6291783999141519 -0.5726474918482349 -0.5178080829672804 -0.3496622381772768 0.19161167647819666 0.23520796322682558 -0.44248404309132655 0.1780124667449302 -0.17797856153906672 -0.32502998938704936 0.32319701360731123 0.180761209053933 -0.38623145482476656 0.015239710843469256 -0.26880838602163004 -0.31139695477293616 9.889553927693306E-4 0.25649132652417794 -0.06537342403873272 0.9081303466216173 -0.7435218144068592 0.832187201374276 0.41073220470173355 0.11780348075756966 -0.09692200696335929 0.26708997924391664 -0.4918872041859585 0.6197494765554599 -0.06997301384010746 
4.880038258708535