-5.548417813430186 3.1816954034587037 -1.8924000585290632 -1.0037614220569455 2.848424701240082 0.1763154173538475 0.6300488431538176 -0.9003350311451991 1.7256560578349869 0.32868809932903675 -0.7473602345758962 -0.09462684470916388 1.065009269713604 -0.3218942294683036 -0.6490222961838703 0.6194138626611623 0.086150116283774 0.9701509750311823 -0.17076194503922315 -0.5453644114088845 1.3857664471018867 0.15751907018577532 0.2195065674502601 0.5561702669495197 0.7038054421137468 -0.05068450869998371 0.2956190877271323 -0.6095525687309739 -0.31536667605191504 0.5571186067284327 -0.21748299369793847 0.05561847471629187 0.7206794954317595 -0.09126070238553434 0.16723062451815557 -0.3137200325079816 -0.07897160090427832 0.27960161083782226 -0.2560164590695678 0.29475488944733924 -0.4089337233089575 -0.08935510636190022 -0.3463229278775931 -0.7108250702144583 0.0733987835459209 -0.1527663626401209 -0.47563068289820537 -0.24097197250241947 -0.17884249716631997 0.24977591879891628 0.32973580553071113 -0.16806376025861552 0.40296555322235844 -0.06142001546854349 -0.07431621209970937 0.19086374749252705 0.2990659845691009 -0.32880738608404053 -0.5774169465270154 -0.3771185538972056 0.04894530376218273 -0.28880780394919203 -0.16414470566253112 0.12111393900411954 0.14238013958220486 -0.2617839496774109 0.062177237061800075 0.42893354338422207 -0.22181008787403317 -0.24098791742992076 -0.0724142562244637 0.17437345255947717 -0.08128089099233585 -0.09118917174184413 -0.12846290833010426 
0.123690619844251