3.1791771444016685 -4.637175050172061 -3.98484548527879 -0.44832099245390544 1.8387965411487577 2.2472303525111226 0.09723808826981184 -2.2919082977222094 -1.1813362873238975 0.4714672311544166 -1.1201358006820508 -0.7458189989065707 -0.31019670175641445 -0.06235179380524197 -2.0593277841005913 0.12939403179574072 0.0765977384899108 -0.5203728950395193 0.1807399773765458 0.017315447424995578 -0.9668307025719529 -0.26371597036019456 -0.13483338450923177 0.5725327849358883 0.4792967114027369 -0.16120944692838646 0.2656613609601096 0.23816972911604273 1.2074009481140633 0.32356124478071013 -0.22693712891376228 0.10949002064740904 0.12783317009344963 0.20369258064174767 -0.38224320089855673 0.15228134830505413 0.5005169389521411 0.09951630075279494 0.26009926363108593 0.16615950371115007 0.4656687815306344 0.41780730760997564 0.26289583621334084 0.19571145593942724 0.26523088076686735 -0.3040765333800429 0.17967270530937451 0.31441341450164306 0.24357385622516103 -0.038488649174331646 0.022781022546403018 0.3466207015730937 0.18539532298840128 -0.039830064422487474 0.3020840896193072 -0.034545423424938965 0.14848098882227673 0.07628461972565165 0.8266827863831494 0.10039744159820985 0.45562729198979784 0.025115043350419752 0.16830845728681626 0.200887945767452 0.002912716980614294 0.2636010459234747 0.010920056095422292 0.21051241021480005 0.3128587637156656 0.13141788945284763 0.20498314044189164 -0.0430484967339439 0.2808238897615809 0.1983893737030366 0.19332139390500347 
-0.6007816316376831