0.7273369766584342 2.91529784754152 -6.328847267197369 -2.8824583218094744 0.5493239164833379 -4.050315095481023 2.962188603078655 -1.1717491878541209 3.0194681458468464 0.5958015527762986 -5.430673976840292 -1.230010135867327 0.5992110035938621 0.2649288395835062 -0.043586867242414916 0.48584308882738825 0.3104710254714401 1.8390857695085443 -0.7432632229111256 1.422843698770122 -1.8422902656278912 -0.8946805870831284 0.3624767550957917 -1.9273016422916749 -0.048960039994274035 0.9243834732760796 0.03602360586763177 -0.1575986605938409 1.8757319689129726 -1.9479044981553577 0.3603742796923715 -1.6979272822390967 -1.849048854306466 0.6643155207700305 1.1709129615252574 -0.7674552910081067 0.4140452528838605 -1.957078949011259 0.6974701271077014 -0.8943369244258534 1.7159615638873824 1.3260224021581168 1.5095626331385357 -1.7740919931577916 -0.36816113164989794 0.46126879274728855 0.6617731148770631 2.1077341724534797 0.03968695384317895 -1.0762311904334059 -1.2630505676051575 0.22599572442559496 0.8328576490985702 -0.7621796442070592 0.2693732027340177 1.232964492615296 0.14198472465215461 0.2830399311609756 1.3339757197974662 0.8094929462193078 2.5637579196927107E-4 1.0316706877758264 -0.2963870168832037 0.3685028546942281 -0.8173480739306096 0.5988456874234311 1.2996316206954441 1.6979797833340722 0.732893824625609 -1.1472788381719403 0.5841274970599418 -0.15662106027405084 1.3273156924754372 0.45320868094445504 0.2831754443527307 
-4.576963222114974