3.117684592561277 -4.459154361666692 0.49418900718331216 0.9966090505856102 1.8978555876263092 -1.7250171342905805 2.1742602094283443 -0.44487233792280945 0.28236017670066804 -0.0901144963591285 0.3493393086297021 0.6049280353604942 0.731866684659523 1.028250236486469 -0.25401140793418864 -1.0088316928795136 0.6250256850731206 -0.05477281523159938 -0.9041373647396876 -0.7777160582367564 0.883351832643428 0.16195983561642402 0.09487271084355597 -0.38336443258590885 0.02326259078887194 0.450994926687549 0.34496663721646137 0.31438498944817767 -0.9181059328692902 -0.4145569430958482 0.08491613101824685 -0.4509042617607633 -0.04180380608390322 -0.5940823989481346 0.5929079906607321 -0.026057324746534383 -0.06270927710326019 0.347197780493439 -0.08517919595042403 0.05616270580796989 -0.22161536295845377 -0.03861883001231936 0.20159226456112733 0.2257230128758787 -0.08348023997531451 0.0995456531987996 -0.2576335559591949 0.07739611359035115 -0.19844363295077377 -1.2384843515751518 0.533361634541138 -0.37057841813719855 -0.24159320042502053 -0.1346680173241418 0.2892897149007017 0.43416444813100014 -0.29096651999241036 0.21709337931550926 -0.3773718560274595 -0.2544084609402566 -0.28510883241485435 -0.14180542736693252 0.07146280439398667 0.06717001684232732 -0.0705555509670332 0.12754861922299118 -0.02992687524059484 -0.5025016031759879 -0.2486464806475773 -0.23773703515254907 0.016315333469585358 -0.3761193368111226 -0.022004096572787013 0.23404940441418665 0.0655998220548899 
1.8830712123909943