1.2229656904995974 -4.824090831002046 -2.7761175771841122 0.6878332558525433 -0.021099421398962148 0.3742314523008877 -1.9445525396265466 -0.429192356766406 -2.744908499787189 -0.5751484110560734 0.5297622953750691 -0.45062838435769303 1.8129332420867565 0.9255276377934897 1.6288006391853422 -0.7402885719884708 0.833647970104532 1.587044787606851 0.384709528704798 0.6054249214651419 0.7858351499204528 0.5650704621765288 -0.23251133857837214 -0.38886765516816635 -1.5436009246843285 0.1995327132966847 -0.20666278140932173 -0.4588100229191326 -0.8828454419694172 -0.454140583210369 0.156320836199799 -0.708055526906659 0.6294075159432313 -0.4861839019264291 -0.38310444166968116 0.2730958160583752 -0.8014301110362219 0.25513402526884243 0.6483837675062886 0.8045839026415555 -0.467196875409866 -0.34173057164082826 -0.3682221578428516 -0.07408921564980869 0.9216653588546992 0.9260507797978621 0.3769694825617123 1.0084727238475069 0.8661743137677453 0.004756548114184189 0.43385008539617215 -0.12915652636769803 0.1027761337554263 0.37600158917657306 -0.14829474166372003 0.2429191097919765 0.223843330694602 0.5060338483225899 -0.0853901559485675 -0.05119089680873696 0.3081572366590112 -0.06994270037722658 -0.1335578033855434 0.046715316762201115 -0.21301184058376424 -0.3511306246483174 -0.528115951122649 0.3226544430312617 0.24168867602125838 0.2435621686176354 0.39097892104702414 0.36812215742570614 0.344137128975046 0.14578465954414915 0.7017097619440419 
3.205051437021071