1.1542225678269364 -4.8922511063274 -4.337304715140053 2.305572526641197 -0.06428766393338403 2.0639684136149166 1.3122614697141461 0.828360966328731 -1.2206332689922155 -1.8986678091506377 -1.2669237833373161 0.9799777798558833 3.3428328687331876 -0.22046293824464647 0.7006941543683745 -1.3234393828161386 0.980353797683351 -0.03864153534143866 0.8727319295638762 1.9594290608881344 0.9083971187911128 1.659803472729602 -0.2029699150413523 -1.569805736036687 -1.1916440871491982 -0.19631815465754715 0.9239156313698811 -2.0350370675196086 -1.9754826529685832 -0.22806764148728323 -0.30386432199676855 -2.811443449317517 -0.6724390761565384 -0.11877823404823062 -0.7217338575522974 1.145401436004769 -1.7466617204461037 0.8228826469875653 0.6216015480013808 0.5709779086033824 -1.283932276954519 0.35416671487739637 -0.9099355757028584 0.4184197855207164 0.6638132908063155 0.8499501037150485 -0.2239622212840538 0.6240816935817167 1.387451455831071 0.5530860430277782 -0.0469668642508152 0.20072548561457304 0.3295132139262697 0.18463585645758096 0.15522480679288442 -0.260124917341245 -0.11439891939578295 0.9782147566336654 -0.0874197438085838 0.7718838810348037 0.2924055000049379 1.0710830529853657 -0.6052992143585216 0.08593848364229795 -0.3875813621673625 -0.09881587822710816 -0.6244816785460223 0.013893521509271811 0.23051552704120215 -0.4847783209525262 0.06157545117136409 1.311703181229578 0.2740596164297492 0.009911187839898306 0.18891718327046358 
3.9627381854054153