2.543031823358252 -4.655741044623374 -3.3470962249757914 3.8646809739924657 2.131362708902171 -0.6264194647275634 -2.1475405061228323 0.8458092709040588 -1.1103733228659332 -0.3510873653383051 2.313739294731234 3.22562933955634 -2.237574096742573 -0.6812214752665632 0.9577702281245826 -2.4832846247739617 -1.1838504488469006 0.343976095247172 -0.4803390828287043 0.45160127514879467 0.3003275863254743 0.35385116143959283 0.07404583973879891 0.6391988068361909 0.2004009689111903 0.038873883616641916 0.3532256546154349 0.19542137951158162 -0.08665042783989754 -0.6289843744446815 0.013545529770730522 -0.5486149133937558 -0.33103320273517367 0.9271893813724692 -0.5226604101133052 -0.002999754484900974 0.15670364997134018 -1.0622454172846474 0.23004475231881194 -0.5693269380595687 0.8623838961168853 0.4759588415625896 -0.3287973199290426 0.5154296987185003 0.546468595549005 0.9490784436364349 1.1233268700928658 -0.5256577701595998 0.01916991233365923 -0.12381642063194084 -0.9517668571767329 0.3336804713381041 -0.0023980845851813218 -0.983075640700652 3.63989494670168E-4 1.1852998227123324 -0.3917815372289004 0.23875979475836845 0.37985885182932805 -0.3854276824653939 0.3736701465212412 0.5007543555685949 0.0038420398756423557 0.11775811377619623 -0.25759079279899444 -0.7672125979112538 0.24685869581453476 -0.5075736848586001 0.4474696599049519 0.068110057141885 0.30862448189883773 -0.708643689170418 0.10461828352682728 0.11066889561535842 -0.08179834909497688 
1.0086918165971437