0.20445198560972866 -1.1877092466502281 -0.7052084519799954 1.5370309160352802 -1.855159552581842 -0.9519831422193337 3.627697852840437 0.5337789489123861 -2.5290722289435794 -0.311287358606821 -0.12151961015098434 0.9425912627980582 1.5220784096284492 1.163576010435551 0.24463230976291328 0.691910047598946 0.50839375081923 0.01962588585942554 0.08508822878595773 -0.4844028203860272 1.3481454026834012 -0.5407130406444258 -0.382821898841176 0.006608855993004592 0.1784717625171675 -0.14899701165059123 0.061728036609306286 -0.20512900014501156 -0.13678344288727617 -0.19204197904947004 -0.11663660405440013 0.23530114979945993 -0.20119236506374794 0.32991102060042243 -0.5372503075409891 0.2793052074549383 -0.5686852698723983 0.2380292764490195 0.08468592925272041 0.3687813876053033 -0.03800329523847021 0.060792496223944975 -0.3844286100361785 -0.08285454380746049 -0.4743250392117853 -0.09337400983977284 -0.09712655508781745 -0.212510814754526 -0.08161676746575147 0.4375900124330777 0.5279684510114551 0.3329214861072477 -0.32991854917773245 -0.19028429851547973 -0.07374674444659013 -0.03780167036780485 -0.31931816348751296 -0.24721888521377336 -0.3365116848572632 -0.6186705896251313 0.011823436973141227 -0.3386597381622766 -0.07464950225440103 -0.347929752805132 0.03726406462491249 -0.17113971349938836 -0.435235599721062 -0.2737239695418304 0.3745968935448856 -0.25679845192422485 0.04081107840780607 0.269545036342025 -0.03141725953972359 0.24889777498856777 0.1698231711412398 
3.698591749267938