1.7387046751214346 -3.722290514943264 -3.446439986001081 4.575267378476732 -1.8450939882346944 -0.5600205510998677 -0.7614391361330188 -1.0435894236196677 -0.7120335803447828 -0.5213531232313819 -0.3480523665489994 1.8678345960540077 2.9733056924820285 -0.4387643287836802 0.7532927797818507 -1.4955468343920664 4.206603552960805 -1.0878219045465123 -1.131029860151192 -0.7023674633047683 1.5045092866999967 -1.1459246088335946 1.1935324816998374 0.3179866456452899 1.165665797473426 -1.0319078906494776 -0.31482451036690046 -0.5631213479998861 0.07058853962597197 -0.9704821639429757 -0.00844900447401592 -0.625146777812327 0.45880672187621285 1.0619430968897525 0.32201738693504267 -0.6676708484486044 0.1838569526668713 0.8943915687711768 -0.1552991013550988 -0.002497059426177284 0.5423746972718979 -0.9617915423095829 0.3427949590961693 0.9079776373597552 0.39741338916218194 -0.16890485149890289 -0.3941968551627344 0.6396864062866577 -0.16790779023708788 -0.627890268941846 0.19189524744359243 -0.18383398522776728 -0.2940914835848745 0.21071330805151225 -0.23641375378333654 0.15774539311903718 -0.04917151512337958 0.6198697843250396 -0.38521233120448783 -0.13561531387781414 -0.4417206553417618 -0.25018067143598655 -0.5018053917106908 0.18155560597850462 0.04235903274804964 0.4620511869480703 -0.46767593621361236 0.23349044648898098 0.19110813427769552 -0.14273469900317176 -0.3111278830026895 -0.08366102105754414 -0.175814463524896 0.5556835128036127 0.3158908923650079 
2.7160013110429886