1.135957452581751 -2.2225644970425122 3.600110100781523 -2.760442321207771 -1.0720471441792734 3.2460190638985686 -1.2002797743200042 2.525763901415129 -0.5944586658722413 0.27205752818990625 -1.3263279595858044 2.562707440699335 -0.7285441111382812 0.6593685253593161 0.14052922174097093 1.8076755244516265 0.8110989187032145 0.6591056026136491 0.9405413621508445 -0.24400814809629107 0.0488499755382481 0.6780177108605769 -0.5384323562563292 -0.5424844718768624 0.5266539157081316 -0.6057638468928044 0.6085495121105815 0.31817420601334345 -0.11468694061601356 -1.0941051955868581 -0.47016811171991935 -0.2841800994954278 0.5126042215974848 -0.523437536486014 0.5871118335986905 0.34436392395906223 0.2019396046425347 0.1319958040724344 -0.6262039080156597 0.3904126139832991 0.4157827197855523 -0.14034971785906825 -0.23574108893528012 0.028769715171175658 -0.25081573667657775 0.16965563733999356 -1.0765450377825183 -0.4272395951341736 -0.3813683009056062 -0.5228529090902878 -0.17149820480279004 -0.17996910241869044 -0.7721358892101746 -0.8479417603654775 0.059767634595780106 0.545532623359279 -0.3249133560651791 -0.22394941152429665 -0.366961939260149 -0.013691500549682913 -0.6976970411339494 -0.21946713065964807 -0.49953363487822866 -0.2804874019910675 -0.2795559499726578 -0.2917097224692468 -0.8580697796886603 -0.2696493429663453 -0.18765776237068155 -0.1960008823123337 0.47674600891175967 0.3802309218109413 0.0742727922991169 -0.149856621362278 -0.04657210917067489 
2.2323238765660482