1.7483449194277814 -4.631880304734887 0.0025863606448437437 1.612285087690381 0.8994100806735892 -3.3466907306484917 1.9522640508537616 -0.8613672565711827 -1.2948818310088788 1.4085063846193782 1.2258374582737845 1.2843189298439768 1.045683913891087 1.8335029557821683 0.2745540971274356 0.003053232017048657 -0.14840233724287688 0.11584590829701713 -0.022277921086710784 -0.5722519298355861 0.6225757122141506 1.3188199502666098 -0.47953625518403364 -1.357227264758503 0.5421085391979229 0.8974128165536952 0.8798413097300698 -0.04313599001897317 -1.4375664260719887 -0.5421894687742527 0.2648765524160579 -0.5280753367415756 -0.36834287805577937 -0.9101717140417476 1.3837575910550304 0.21261744586646508 -0.03357285274724483 0.10987586417737583 0.32882759116052385 0.3221784076925833 -0.3877371109306249 0.18514344847939684 0.7185706831846926 0.1809012838310209 -0.3744193892345301 0.37546457979037595 -0.9391365934827246 -0.18003757176964474 -0.21817751822344356 -0.9545695873184346 0.2668003297656417 -0.1944962838884454 -0.06020807570194564 -0.7558247292216693 0.28891998155339343 0.9663363269591752 -0.45555660870701153 0.47008004309289897 0.0979228689417897 -0.5477944383468785 0.1498861053674025 -0.7753881764515109 0.5169023752624202 -0.3486117756628494 0.3571711355172604 -0.01149490088429539 -0.06092197727507487 -0.9891399895730669 -0.5693498032086889 -0.2857506301563234 0.14234691484565326 -0.5905475159834733 -0.14559506757916074 0.20471912427745376 0.2120778807811864 
3.9265842909575484