-3.8425346788124988 3.22594186625317 -0.7003677582904182 0.14358793865515618 1.6480387333560094 1.069921961927222 0.01678999474084869 2.567065931187923 -3.450848781140193 -1.4839779776774826 -0.6911074301720266 -0.34919637795553665 0.5134842848193819 0.6798754434599944 0.12065707467092529 -0.34803240721034934 0.33950828253259846 -0.23562426402222247 -1.1999906561638094 0.4982585011642263 0.6186981263682318 0.7185193943657793 0.7630289261612047 0.11590797051028762 0.19344333674000852 0.25721408347033614 0.11720409917564314 0.9594888125300598 0.08958110223451579 -0.013672435883166145 -0.17918127126924618 -0.2118116274173464 0.04958331511758651 -0.10551782328053391 -0.6268421790011144 -0.2847097845629115 0.3661054851755259 -0.6498780815118519 -0.1236156657359367 0.19337563980431724 -0.18789055676282637 -0.07559602709056443 0.26287374748984493 0.32017628802085585 0.3731389637545957 0.2875528417323642 -0.5743406619379526 0.21201081808927197 -0.2369301569430891 -0.2822050820192667 0.34951912356593207 0.019606435068185393 -0.06393341477504488 -0.43779513668127357 -0.47861409845895286 -0.3242072123173492 -0.11422517868220777 -0.17217391811290317 0.2108658982138822 -0.22112821037796163 0.3285867921007013 -0.48601750205767685 0.1318521303524094 0.09871853985916403 -0.44485554743028927 0.32650224372034303 -0.08130223553087523 0.3809997719429943 -0.30870198766174806 0.05212712077254032 0.030686377846817506 0.06686192653771561 0.2640106114090516 9.309842408852936E-4 0.00452520780812754 
1.3526415866158115