-1.0587101273941144 0.9816072238323343 -5.40372569531873 -0.8362324793071543 3.636734623409289 9.270015136698394 -1.0622783473837085 -0.15635880490774579 1.205681466082332 0.20161016764766337 -0.4488113406123211 1.681707439838287 0.21473327543689624 -0.4051307260034902 -0.027720069677963366 2.889747926467076 -0.5472937339657289 -0.3606321788079794 2.405434686258261 1.9002151333246982 -1.7678460142100159 -1.9468850108955293 -1.3061726638757805 -6.322249320036555E-4 0.21368644994404518 -0.3200872758801766 -1.0780438096021208 0.7523369405877548 1.8321787098440339 -2.2657769288690495 0.6331822355605325 -0.6704444684381055 -0.24372995211359472 -0.8281222398027435 2.2858362581437293 -0.8324212494999221 0.2344485428115274 -2.297559577584028 -0.47466562417304514 0.34633811677657445 0.1197956192623309 0.8375080736589324 1.3144629827469143 -0.14441988369650227 -2.1137198284004945 -0.6690631860433531 -1.1115908941187476 0.19422316162458064 -0.11890282157584386 -1.389177167387972 -0.6759577109081985 0.7520214622583364 -1.5298687048028343 -1.1697527658055513 0.962530650684005 0.17213195630962275 -0.6612319605347721 0.40901469914902333 0.5004085308505055 0.3886325113257554 -0.22364526820126374 0.3185433415105211 -0.2407571211645514 0.25494150238480445 -1.0780266296990275 -0.3175179721058863 -0.02412811653233904 -0.0925022026030492 0.6918708504245228 -0.7772084558139457 0.09026172856523718 -0.31676995459466517 0.2997758993743926 -0.37438805288541155 -0.6237080626634028 
-3.7729530224819707