-2.241694526587085 0.3500787987586127 -0.386602685240396 5.462996892648825 2.8774301126986273 -0.9212919130618337 0.8487735640939724 2.1811294964356707 2.424822983651337 -0.7841459251635841 -1.1175533557654476 2.800521427351203 -1.2697924990701899 -2.757536514726544 -1.280258500112123 -1.466950078072416 -1.4085426205655753 -1.1150458206421052 0.9088075468016651 0.22499172339142615 0.7342318246463337 -0.8583301670281968 0.6449931278013872 0.6020961090227438 1.2402455099430185 0.0648086663696151 1.1952115546515898 0.7286821045962968 -0.10958504473304977 -0.17107470288225343 -0.2305752429042583 -0.5280030430855692 -0.743472043946302 0.4745520458364568 0.1535267240802189 -0.5816410630579458 0.35503274984427635 -0.35677849819706076 -0.2980359889803545 -0.8081484178482156 0.8075902627568523 -0.14710352337851737 -0.34323595915124866 0.03961140600590218 -0.547548736548497 -0.3532900853264153 0.3783313244050042 -1.376774494786966 0.060938921237456416 0.1966043593739161 -0.4131784899851076 0.3302302288607469 -0.2533536044538085 -0.5754325785594562 0.13561941347083045 0.09701331091535337 -0.34383278208777185 -0.16893289845150028 0.05438816837448837 0.005019545412801875 -0.1125841743680806 0.24326210847895058 0.23213957488521317 -0.5642566367474362 -0.37974237662340166 -0.039664735335570876 -0.1331034554808212 -0.06145090005430902 0.07799942197102236 -0.5276434338345222 0.10363482707675349 -0.23101794590369484 -0.48227878860863777 0.28307226904323113 -0.8289038535355009 
0.2595813228757734