4.219239670936684 -5.6489110437258585 -1.2984409712784055 -0.007882173365651557 0.9152496749738654 0.031028110557866362 0.06464650936269978 0.7086771341944066 -0.6688283906696015 -0.2468661970277059 0.22148301946136012 0.8476183605535761 0.5746016534101293 -0.07701889563371955 1.0625269373443995 -1.6579160602954284 0.9064538571549934 -0.43758819806226423 -0.3367856833951266 0.23433373350138592 -0.09839010282430305 -0.43015087645430444 -0.07283783279844658 0.021438022685865477 -0.05134819413146552 -0.44672473018981707 0.31584761833195363 0.4745461536919741 0.08476327576071083 -0.03690504694041177 0.5220557553743438 -0.13201290589604464 -0.3679694733645391 0.43853973046472605 -0.2556074476285688 -0.06589322080522553 0.011474693770546468 0.4076611793467927 -0.10932367023368932 -0.015215769624702391 0.19996826279763652 -0.22230315092502057 -0.18658682139936605 0.47644327566151884 0.07086313951007772 0.3830694084110884 0.11136995409580008 0.7416671077518519 -0.3883978340837131 -0.6584497903993278 0.08868821871117061 0.07922131839433488 0.002120853899074099 -0.13978378735763103 0.0015299909101781917 0.1961450559075384 -0.3154923660749733 -0.048000966927549044 -0.28137306474471346 0.19200373128857603 -0.1967078840349083 0.18683392042859953 -0.07288365409554426 0.15371994515195794 0.07817044218084565 0.022443998887950345 0.07863926314336539 -0.20755523223021416 0.24207329014064166 0.05416702602706789 -0.03600833823150387 -0.02048512101585903 -0.322341883055853 0.15909545396154273 -0.021431969217637903 
1.3312192272114665