-2.9400194732246074 3.06350247577617 -4.2509756440052255 -4.0682178152378095 -0.7341840459551845 -3.855335355789732 -1.0830381976886607 0.5516395169927228 1.5418964538310966 1.064278066632479 -1.2314372945518932 -1.318137296177857 0.012423334266779884 0.6632008968787122 0.4439896706260025 0.027046238139769696 -0.36493600345092836 2.2154739116478765 -0.22725837834242513 -1.3556421391335653 -0.4712716133232755 -1.2961522778362065 0.2677798635626013 -1.2874126479822152 0.915490771107861 1.6315710802560357 0.7574834010092322 0.1394724958982292 0.834808620215326 -1.1460802385005129 -0.14009009996645855 -0.6108529390476066 -0.6906605548258857 1.4135013937245742 0.6642602738085547 0.8368497514143626 0.25142537374480345 0.4524302625157143 0.322900372227324 0.5336488921148783 0.5222804917681725 -0.1601517306413998 0.87331540772905 0.0883010038050005 0.5828542259887345 0.0850890049677191 0.43608896207520087 0.9456580435540825 0.05096967115992029 -0.15999293970943523 -0.9913132329556096 -0.14225413148869046 0.672481470901182 -0.12391886631618164 0.13802457284224756 0.7196486963875958 0.4075325818974814 0.33086630718024124 0.30625270514753034 0.5606740748337097 -0.49170669365511793 0.5149259951048784 -0.0626528234823247 -0.33137876321353765 -0.20353519110316262 0.5290322771595259 0.5014588341022767 0.6832984647129781 0.10628160195252784 0.01304227193439278 -0.036967797558737525 0.6070491133617574 0.4204378075628686 0.8597449132324817 0.21519256941157183 
-1.4778405470751645