-8.645308933493675 0.5310684211901862 -0.9557092961139446 -0.9147250911484897 0.8179269082353411 -0.9584981274408637 -1.4115695586008972 -3.210917995686667 0.6348460263062305 -5.295115117467107 -0.9707006733673419 0.4874497147556607 2.1287755834443662 0.37399763449266044 -0.18229452067547647 2.052437085637224 0.9187361196711767 -0.16786815060487087 0.03955909291735604 -0.9187917841509299 -1.1609128318437367 -0.2629117141762203 -2.590688946104231 1.1718261733568485 -1.8073051731764078 1.190856332114291 -0.36273350575665675 1.1317853189688662 -1.1468112364844778 0.8609908880383634 -1.0750519012652375 -0.1614821419852477 1.606177065927968 0.3079767608267894 0.33160430638203303 0.006331958890047118 0.9671969726287525 -0.5790204674440251 1.1517157768816513 1.9153142124826579 0.34333242165528 0.978345404102827 0.4030099296751206 1.8044209176465293 1.0629440563580252 0.3792824315281622 0.7440060118971517 0.5764749472648434 -0.3025468293928754 -0.5267804884445064 -0.32136295947688753 2.4171966123208315 -0.24317767272447555 0.46944558038859685 -0.36752555420643085 0.41057919902484047 0.7965160236691542 0.885487464340172 0.2431112794030139 -0.4705566981428854 0.5465542534967277 0.19482990563807023 -0.0845916563423309 0.5799687975395955 0.7055252542704445 0.5119756836414635 0.1736433779461128 1.313806713102092 0.8646277441361738 -1.4058682406120302 0.811352834926095 -0.038010141111750995 0.22127350582634508 0.13265326834203373 0.34190143615246915 
4.24080840076712