2.6363509122609 0.29731897574275745 3.391273342957013 0.5098201252684313 -3.171334467573118 -1.2667146829471332 -0.5763654800191746 -0.5564441186764524 4.6509889081894595 0.9384937839827578 0.9519699272934566 0.530934467531734 0.5198141016487586 -0.7548014056413948 1.5636746216295134 0.6972375754666287 -0.46939392586206696 0.9748962664614765 0.15002021702537577 0.5383128736134266 0.1234826732555021 -0.6434968679485281 -0.9638659639419397 0.20841920374782405 -0.8446759531277159 -0.12565117514721955 -0.1050378366595537 -0.7246674888095739 -0.5212181830101469 -0.7032547545748542 0.29450375592788575 0.027270186245013744 -0.8104876717921263 -0.06536478199394424 0.09535228334204314 -0.5823144989847759 -0.34901289570857297 -0.5745422589528516 -0.3820594484327269 -0.22306637677237673 -0.08340634190113878 -0.19751231798787822 -0.013125931334119822 -0.23774037735962314 -0.1429669642191403 -0.4143686295431959 0.45129938576051354 -0.27439514963629263 -0.33372179134813 -0.43916837302299494 -0.27242062121218125 -0.14532343894803323 -0.15494525942879891 0.2677569135066451 0.22287978648918277 0.09933202213889909 -0.41526057107784675 -0.03441379338117562 -0.22957039853324995 0.0046803801510999915 -0.15976964988163683 0.16392001866132921 -0.3641322014326547 0.07005650786360176 0.03849227900027128 -0.41126051990211254 0.003210821192979052 -0.6329094153748752 -0.28376296807003476 0.010320722702612747 -0.16488582398052692 -0.09306888795139928 -0.06142544229645338 -0.1880049578301194 -0.2707529768272592 
-2.2221934938653183