-1.3159894801832674 4.868189187966452 0.7937758068948195 -0.8072030871010265 -1.0960313074733294 1.1471894344805849 -1.2839225932340987 -0.3927311688981143 2.0163276559818115 2.860628632851636 0.16152487278092198 -1.4225632281305987 -0.9199862288100691 -0.22563479003348208 -1.471776543208978 -0.4403554758593663 -0.923642231334279 -0.0835599499302343 -0.5385108654861652 -0.7313228317980948 -0.9128267747006458 -0.4574324981966834 0.17058376785250284 0.721233185235741 0.31968251758420774 -0.5206283731248 -0.4320708324181426 0.6222447383825717 0.3545006735359466 0.7269774305429582 0.6929897365527256 0.24799494274071943 -0.4391860510366422 -0.2853589639297369 0.7800827859263532 -0.3249136417783617 0.522674096765987 -0.34607429099296544 -0.13950024973422076 -0.546374647890632 0.8790770985625355 0.16333463399886006 1.0409694185401297 -0.0621763376103463 -0.5590886205303859 -0.06639039207338349 0.16167159844244267 -0.30118235887758693 -0.7575630688385775 0.059111231492369076 -0.6187658764931336 -0.12061492889862438 -0.09147658187950126 0.10634832355173876 -0.20385155228858193 -0.14447964551506115 0.43232224660398966 -0.1865538161441473 -0.03302549963334116 -0.18732730764038513 -0.15812948301690632 -0.38996937627793066 -0.13344618453520873 0.3009600135189554 0.23551233745487868 0.4853068868603635 0.3220994023125759 -0.3042214017830748 -0.28662684196419697 0.10239184246637256 -0.37655769942517253 -0.1372779388493539 0.1244328630423266 -0.13871429083352194 -0.10510205453110988 
-4.238128491447994