-0.7702410330169664 -3.3369308803312396 -4.327953381380904 -2.9945703678794704 -0.5685269716139202 -0.7687332241424323 -4.499806578684598 -1.2334762397592307 -1.038585582830287 1.1686807090774123 1.6717436589446826 -2.0267816663603577 -0.28485047177944056 2.076592378948281 1.0051938615302942 0.10994486195514963 0.4818646409116673 2.655636124413218 0.09973695199899829 -0.20972781833196158 1.1731745042928268 -0.3950328173920228 0.47104381957826696 -0.012351155333938268 -0.7237481920849484 1.5122466425566448 -0.4965633691379615 0.013901228902878648 -0.007234253678657515 0.49304599210212546 -0.38836101018291685 0.5411003122497371 0.3221911578354824 0.8725459293535776 0.8747660540820671 0.885423828509933 -0.3853377875254448 1.2678481870995135 0.530150499639364 1.1585183925820945 -0.5724271508815376 -0.025416910030170797 0.24509522038907966 0.2137134948935247 0.1298293701963319 0.4450624945708519 0.2604852808803151 0.7768081561792273 -0.2509925260706581 0.1900137013002845 -0.4666603632963411 -0.2706938788512089 -0.4304045589213965 -0.5393676230226205 0.8962456155580116 0.04008454817916282 0.7213104171268617 0.6823395661078258 -0.19452403147124037 -0.1186561104396355 0.4781035695264461 0.37429698007626727 -0.15783460289307144 0.39721579526093015 -0.0851769383686694 0.3361729964061032 -0.3569424953928031 0.5452703907115821 0.051073277454313004 0.14631143310286376 0.006416417425298415 0.5317566744172536 0.40870880940915066 0.7159996139297927 -0.03975356857966231 
1.55590547328823