-4.276572055643719 4.428902551047475 -2.502752828420761 -2.009642938270014 -0.8310240812879366 -2.6733284750494803 0.597293459521814 -0.08201287336717367 -0.46794073775635425 1.7417254701721605 -1.3978059129732605 -0.7753534883078701 -1.375572974309308 -0.9403262040208042 1.724050708153056 -0.49254361451957385 0.9905821716448465 2.044961976094994 -0.7531082922228919 0.02502640747664331 -0.5939597690098419 0.4821571047545691 -0.9270981566592279 -0.6108267106319853 1.2749633772562898 0.5625203151522019 0.6773410778094944 -0.2080739150463316 0.4834846745188002 -1.8920516547412445 0.3110326196085975 0.0126392724820093 -0.4293647234902003 1.0228901858758257 0.5527540558585661 -0.03809281353116284 -0.20750091420967487 -0.03248623712348825 -0.3786844157781456 0.6485162742255749 0.5170292047144377 1.0465916234669967 0.519473976470116 0.003869743513600865 -0.4793804124854252 0.4988729586894581 0.7164500262530713 0.23274679881831686 -0.4259556263588497 0.36226267404166274 0.3808800109014147 -0.1976594838159943 0.13448848824596105 -0.43071705166692886 -0.46642707925830895 -0.13691385145696178 0.2893635384539262 -0.19130067096876538 0.8598112875974884 0.5625397258385245 0.3262233412238942 0.47624480755941284 0.2649902723074287 -0.14802243862297804 -0.5458062835699118 0.33936175635561566 0.10262154970803657 0.004067446714392908 0.6497334107346853 0.10720864132756275 0.3993335237783338 0.32269300751512664 -0.056615060267115505 0.04681885820110332 0.23040337075822637 
-0.20946368897131354