1.9622329975131905 -5.235715383567122 2.483377916378381 0.18077315606759503 0.34463143369253046 0.8713490704094702 -3.1070469109114995 2.8628430445370148 0.10889937730355292 0.11901470074895748 -1.2623417236030412 4.717429541227892 -2.124855855092574 0.09001857770768829 -0.23036955151713556 -0.7525089628193657 0.013177082049228517 0.827846969341521 -0.4302007167168289 -0.4137183041396257 0.9374042084832559 1.6568892723070237 0.5646798843886659 -0.061547788448472085 0.3397558075788274 0.19734487027665568 0.877715666345353 -0.4765149135901252 -0.012710692766698006 -0.5891953846569581 -1.554946945080478 -0.24296878344052364 0.0654416267217377 0.7964855892792397 0.7073629809325301 0.02984977495711072 0.20553586706470373 0.13033961784056203 -0.15140835649597717 -0.2749384623648905 1.3859224896890443 0.5512350546500763 -1.0571727738955914 0.06178521398461578 0.5448246303708184 0.7445169904867797 0.26252811415314525 -1.2012649618608147 0.3127597019131232 -0.5151110916314636 -0.6658531014692602 -0.6934900908837309 -0.1468854745328747 -1.0497520308972765 0.4954924142929252 0.564460677770217 -0.18152819249986452 0.1489578421784885 -0.3211706625909747 0.0640861961802542 -0.6478339261224422 -0.606088564007857 -0.04330844108628962 -0.06247224936730472 -0.6108992814500842 -0.43535242913552147 -0.9792735427875501 -0.3848953917615515 -0.16852693853202516 -0.3549808134859705 1.0371372587905716 -0.21847984522039898 -0.04382007148363476 -0.25844368091200765 0.30348667321309575 
3.3435146591875977