-1.860225760375135 -6.132075710930355 -3.429346372222672 -2.692911105063722 0.45520061374167575 -4.701892545675811 0.1979895406747305 -0.9237542424395279 -0.7603224332213925 2.6746281313752465 1.632982189069355 2.274696163354334 0.578688022125453 0.4131699956335283 1.14556053048799 -0.1939427589984677 0.42153414670210565 -0.46144365878642624 3.3576200805391228 -0.09895092203210398 0.17407445143369715 0.06638123404386986 -0.9052630946938511 -1.1959460633151984 0.7815200018972335 -0.891493925708324 0.40548582910270975 -0.609059832219503 -0.025392861702879105 -0.184158488637233 0.1374409963398745 0.20808362788967855 0.8062372502018391 0.4283881879983955 1.1815550635291754 1.886411862335893 -0.9742068025447951 1.5159958851638178 0.9868687597692396 0.15930320299704714 0.10621375772070307 0.15731106424498725 -0.19931971002445603 -0.16677287776187094 -0.876314548715188 0.8117391673419869 -0.16421426719422894 -0.3128420233534416 0.4826111542166713 0.9978980403940035 -0.7050902989382861 0.7544500349108572 0.6193962986499126 0.1728940163193149 0.349284733959333 0.6734230810284614 0.3279247694377556 0.6735163197343906 -0.04079632806341371 0.1970188733281913 -0.1916075862060576 -0.7415092740180023 0.4506065018010821 -0.3853236124369825 1.1150194115727041 -0.011225187222201172 0.334348732509232 -0.14347453271381314 0.6435352212953838 -0.17620710608768414 -0.031039551128720755 -0.5746150209039289 -0.9941745780234429 0.4264516762399687 0.5714544602481701 
5.997482602473995