3.64448844214121 -1.1453607634203955 5.467367937811195 3.8985687485311233 -0.3419335162442563 3.091498223480716 1.20278701147907 -1.390212174625849 -0.05344426677796221 -1.7568427019197093 1.0997376970291617 1.7060752791185583 0.37165691879334095 0.015959308494316482 -1.086626862505996 -0.45718497408431913 -0.5466719321919018 -0.8719923631057587 -0.4706713661625118 0.6759603529090605 0.011557100749953086 1.0962416342271313 -1.2545127989887477 0.8960686877276696 0.8217635069698425 -1.799214703668837 -0.5539605304244619 0.9163420753284763 0.9358262894645841 -0.44895336320450147 -0.3563253560592295 0.19121553030105404 -1.853880285713526 0.5198901941764009 -0.23933634876028761 -0.48152356754060266 -1.3001725956653396 -0.9856141577595865 0.24189236627658442 -0.5914095442722309 -0.5962621024266471 0.23500265005768417 -0.2673000047174514 -0.19108793595134932 -1.3546572848798064 0.010427353353414937 -0.4893109276756108 0.014754668766852275 0.5695286224140677 -0.4221279934897926 0.4835936397664987 -0.7766354910673049 0.12927183794962532 0.118498097479134 -1.5177075547727408 0.10733386823199942 -0.8830873527616199 -0.8882007307712301 -0.798843901539751 -0.3394507043411328 0.10903842179522805 -0.5348022136483115 -0.1615195999755109 -0.023655497641765166 -0.12407344941464793 -0.37134989617760594 -0.08440834628294314 0.3291395831352426 0.28296622872879107 -0.0016030278319639699 -0.12782223718270913 -0.7948291505153324 0.3844507305356568 -0.6698998605992612 -0.17442357046311596 
-0.21578354096268593