-2.02357618262608 -4.5644464893628225 -1.3956910705217926 0.6361820683290991 -1.2280468695856719 -1.310876178416184 2.344931644903282 0.3437513481797224 -1.7924354387050636 -0.22515552343276657 0.017979145451430867 0.94392360901782 1.0709717445613645 0.7831759963803288 1.2622241295395393 -0.17998320796144296 1.8314357243837813 -0.060553386409829435 -1.303313593273869 -0.7590679171963003 1.9923055315661067 1.3582073566886537 -0.38050776625436816 -0.45285383121898604 0.22746307771603824 -1.4757330385314915 1.1922028727663876 0.9078979118292112 0.9851244098118053 0.17228980718354675 0.8160409063720041 -1.2292661851953135 0.5257974751240508 0.44255268609240006 0.1541757816374256 -0.2528296016908349 -0.7054088532211615 0.3107861415682862 -0.2457212540354289 0.857768897529348 -0.1273128682803743 -0.5699504408503971 -1.0046069635813422 1.0522678402460004 0.26745378955854304 0.23385324665522234 0.11336496255626266 0.3292735633070231 0.15621362142187645 -0.5471698293138847 0.06402229482375543 0.045731622641853154 0.1986338276166929 0.7402857593908074 0.1075070674941771 -0.03336144289543552 0.4427178313347919 -0.1434103059049312 -0.566429214048688 -0.33580554203189866 -0.29804216565901515 0.1952053598412674 0.4178518136174031 -0.06780900686608243 0.009759243902563285 -0.23835463876768936 -0.8627470705022885 -0.1450831627087972 0.577966838997991 -0.25262347726695666 -0.28279747240033976 -0.06120943188015521 -0.3086015080112442 0.9113662826158109 0.39011769595525525 
7.077486814218319