5.084146225341318 -3.0268080155789843 -2.5288650390169423 -2.800577751353498 -3.2199198964555222 -5.21968031384933 0.5475604773554015 1.9566094180750706 -1.2329883681560614 0.633677602423332 -2.7632264167417797 0.5962872458854418 -1.925849143749599 0.22325107330067828 3.5842438603057314 -1.2941488263606846 0.3889130136719232 1.7037401345947136 0.5331274536827223 -1.0943160697916194 -1.8347920821469392 -0.35953851993888564 -0.7460362706566562 -1.4018687385540938 0.7972211725138245 0.8101996411152133 0.7918630073981464 0.6051228908145388 1.3557575282056384 -1.8311453349839333 0.5247848522743265 -1.1113162889828077 -3.3037781193891425 2.18596643313587 -0.18264828449024348 -0.0771202255898008 0.7999366190867542 -1.325483399540371 1.5516156552320457 -0.2556323744490103 1.1415147419224658 -0.4798944755398097 0.3754853140062573 -0.10291473785434962 0.01266740095116245 1.5926484872367759 1.0600002705315283 2.888380418237722 0.16339802913018864 -0.7016588645324068 -0.362005804371619 0.4468028443142514 0.8187349693844944 -0.9391542506340798 -0.3266514215900303 0.8251310233657838 -0.2286918554020438 -0.38740845981610433 0.21093269212046623 1.1282368630768669 0.3184751214989785 0.41377733284570695 -0.012075796616610568 0.31159091051651366 1.1558461733248966 0.6320875240867896 0.826551805344187 0.19348600702774452 0.4128798728365711 -0.2168952499042882 0.921737624736877 -0.4473678506480703 0.3706634431622909 0.27551412256863717 0.5698909500454666 
0.29148651081433163