3.8600423766066694 -3.026526990917212 -2.359215174572875 2.031807689621622 -4.43520194736055 -2.073613576819257 3.1892944669388488 -2.000567140653664E-4 -0.9507225021068937 -1.5225084791896364 -1.5258679814216654 -0.28491890731348385 1.6188878544247698 -0.3531784009483762 0.2108531958164353 -0.7693931362017247 0.07303790588913553 0.2587301417148321 1.607693669093822 1.8820005227438017 2.1851412950913436 1.1924621490969731 -1.3189123815781818 -2.471797921612647 0.7686684798008497 0.10789998262413153 0.6344927551581899 -1.8980509356424697 0.25037662709572656 0.5107309924980588 0.38912788458931363 -1.921359339958685 -0.9916106406970545 -0.3576329027456613 -0.08527587729294044 1.6333047748453358 -0.3238893043892153 0.8660993065070983 -0.4491825148934233 0.27983706419543075 0.4565977352511735 1.5661605812735253 0.27060606850769 0.24433686438117663 -0.0017647633256600848 0.30229617007826876 -0.6841758979275389 -0.9655400796941808 0.8964508795972554 -1.4490066902474297 -0.513594430034393 -0.674432649382368 0.7225117463255663 -0.720967646520495 -0.18457083037085154 -0.16999740757937926 0.595492384644773 0.5876055551666264 0.3894080139281466 0.5179154025974194 0.22114736512279096 0.6904805854100828 0.5973537353156387 1.0835577352288797 -0.31079415786367964 0.1750383881259847 -0.6911737255817403 0.37365091298464276 -0.14542280908268768 -0.004546492114568042 -0.6277083337281034 1.3634140119211087 0.741376696315296 -1.0543721781906454 -0.028762902508697313 
3.049624746473121