-3.574308325999448 -0.19546114089461497 -1.8535827649025443 2.31871637796063 -1.857896530545597 0.19962077924976462 3.056757933983614 -0.8413305212139168 -1.7376094825297974 0.09205571539626156 -1.7976087793374909 0.496386216935675 2.299028405812804 0.09302379340663447 0.062310911615079734 2.628444762480893 0.4426642660848228 -0.1674206554635846 0.33680134972409514 -0.6570081758715445 2.483955767399081 -0.005579783160404084 0.5390616605740023 -1.4533494718978677 0.2807134902897238 0.1012792085647859 0.039790145125460086 0.6429988118723866 -0.8534010716717639 -0.19731513259712424 0.6004843307022588 0.7429036006869139 -0.3107702886326774 0.538098848714003 -0.7436392809047204 1.2130227110787108 -0.7713039368037907 0.5391902320115451 0.5147528468725439 0.17227051624258816 0.035452452892568945 -0.44180278839233084 -0.1794352585721919 0.5661648826314074 -1.1481398798869134 -0.17293324716108227 -0.22339545970237612 -0.48223300777981726 -0.1441246753283874 -0.12985034543083385 1.0354620361839832 0.6268054620488855 0.10516664398992248 -0.0323478005363686 0.09037430824465015 -0.3722462495161758 -0.7671613352446622 -0.8863206607701113 -0.18061259590790843 -0.9411468069976766 0.25136501010476664 -0.4706163951651707 0.14892638947894127 -0.26928782426387426 0.10098620582549908 -0.27212973607643687 -0.4433749315869424 -0.08665876744807574 0.5706523512607724 -0.37386540395757617 0.4845114607833869 0.6497657518541389 -0.44445810849406564 -0.01404373597329156 0.39380471853597343 
5.016557883278876