0.2533605364909297 3.917631601737617 3.84706528660218 4.44112914454319 -4.2998272218691245 3.0531131535511955 0.4825926444627502 -0.38391941807613783 0.7393242841724486 4.0639408554997045 -2.3608890638385835 -0.8373320137562013 1.3262573326221183 -0.9245902488108165 -1.8664498460487577 -1.2247746275795361 -1.6051289740660808 -0.4729164912019138 -0.15266391906654952 1.0260028318631993 -0.5656752644029344 0.7093608588347745 0.6108185342702944 1.1730075409754042 -0.5045858522583523 -2.572967998889237 -0.47480861082770354 1.262159269817986 -0.18316658385703774 1.345871766536285 1.1765611274301995 -0.4681151035990498 -0.8429812392909374 -0.7091929753798101 -0.5377258979544496 -2.021092880434151 -0.06381300669459922 -1.5405211033494919 0.3855764895993747 -1.135317933986463 0.07101742756092855 0.5607187812636741 1.1089156021637976 -1.1770348206658308 -0.33574239589254423 -0.16264964531879822 -0.5976635252168572 -0.8217859791078479 0.8369226257351627 0.8101210758873774 0.007333587037867462 0.1966572942047634 -0.2477897296557831 0.5661222520404562 -1.238466662269277 -0.22193887384527858 -1.3314860557108954 -0.41069826369657675 -0.5241528532736394 -0.2851778717576491 -0.11868309249672856 -0.6464750642956522 -0.33084033101405497 0.7085162020290945 0.15233088602470202 0.23690208682003616 0.9565942476150607 -0.3982950889214091 -0.4152723085652761 -0.14488668007251018 0.16206376988635462 -0.3083851829586504 -0.0014627375869301212 -1.080549207678544 0.35990354795973717 
-2.501889379424746