0.673780044419326 2.400999057266332 0.8226914280932227 -5.473324175739026 -3.1461176737888223 -1.9891102443618978 1.7753051862645572 -0.4668493071619677 0.4999185656896303 -0.7438332667383868 -2.8396381798582615 -1.9607110586521115 1.034931105472013 0.642420280038195 1.4135784305287202 1.4142934169979955 0.3016443260019879 1.175706424972465 -0.5789340664837482 -1.1403817578698303 -1.484573093368706 -0.027358057112420002 0.11281940412259288 -1.0057413119675012 0.4814664420057147 0.41596494627163383 -0.21139900504102538 -0.002351123738380156 0.7353041781235143 -0.25220512900286524 -0.24824351514796655 0.5706967066546732 -0.9348888515418485 0.2011225490670403 0.27054372051279885 -0.22772534022522148 -0.11008848342531086 0.26692710266246 0.3381873225787914 -0.07614717490720925 -0.3378930213286373 -0.22412823851769798 0.7006413532185857 -0.4680931463114205 -0.6793339996139963 0.23599036707104867 -0.49257256114173503 1.677937874462791 0.002584274932316394 0.013743293212521842 0.3672488085217462 0.1931567216944986 0.28650888254329226 0.4618310320249058 0.03424026826520844 -0.7293916659018338 0.6559223208532866 -0.7271512787503597 -0.06330177828131364 0.7802830708481425 0.5990289014551082 0.08521662169203525 0.09580027972715843 0.9323467036097571 1.476805550706415 1.170536715109261 -0.03223673397787536 0.0914869807120708 0.010180431052753895 0.18042640627122358 0.5382007501077198 0.20609736871984055 0.018224404335834662 0.02368293014547668 0.28730029092069415 
-1.1996344753312778