-2.099997859878803 -1.1044320166820398 0.8525491010954909 3.5616344289025403 -2.798839442640877 -1.431622979462202 5.345958424375089 0.2085068886287309 -0.3852755969030408 -3.8673063290335126 1.212472954538943 -2.992257241547954 0.9379667151432621 1.0098231525049026 0.5287714449458059 0.043302894015247784 0.39032297021935225 1.5997988781540826 0.4768681771218761 0.6816149343121811 1.9435527353375779 0.8579670525294709 -1.1376946678137123 -0.6261625701352942 0.8529106217139057 -1.3212216629367965 -0.0630499079033909 -0.36395870795509033 1.0191689319787987 0.14365113982582867 -1.0761420321506028 0.003231687248370807 0.5041129025961628 -0.21362040164646245 0.8447899970234201 0.03451362480019826 0.30597478605592754 0.6706794224513097 -0.4415404593245882 1.0274853383133289 0.9478020077719912 -0.3872541016394753 -0.746465148446916 -1.2220252515822787 -0.17224986107065654 0.036677402764419886 -1.313143914848059 -1.0542171349030953 0.3065234606400701 0.5444639417392021 0.7314778238931108 -0.15439062538128415 0.09442076093583768 0.46070023060667914 -0.5717180465380572 0.014905192597396089 0.2940265852229004 0.9212191703462295 0.02738851741888952 -0.9745968618486516 -0.3057091141565632 -0.6067168958080978 -0.05478167960959057 0.08766248155799328 -0.9515173177481329 -0.5167063190133947 -0.3695539110488605 0.2851095614176849 -0.18716437699313682 -0.943678838600079 0.02940315884727951 0.5087323700261532 0.025660485312659867 0.4087845263852351 -0.32757560606487135 
5.936228307309518