-1.0055371983940908 -4.484956325281651 -1.3944348614155828 2.7150248457690407 0.14640985739060852 3.9890280936929736 -0.866018502411837 1.9049242283451728 -2.9337597352140143 -2.7677886648887107 -0.5037012371954444 2.106540334359906 2.816423589362006 -0.9045379537862551 1.8783135891956637 0.7060120783572115 -4.5116699018121764E-4 0.5628414730992595 2.9721729449753895 1.46712255453902 0.9609417959615065 0.05630656076508833 -0.3509986360884113 -1.2173576482263928 -0.6328826264095022 -0.4392631049939718 0.6577325051558552 -0.10035135024493685 -1.1740843074098593 -1.4380514241774658 0.08117963590719757 -1.5503044335756286 1.1162167448561406 -1.1139573033250199 0.2377545056778691 0.009016743111915027 -1.691527034298627 -0.20333012535854822 -0.24583036222148508 1.3927990262558785 -1.2723782375521469 -1.2022163516443196 -1.3637984194678472 -0.12569112354975898 -0.2172966587233076 1.1867744610021504 -0.5245291455469777 1.037786702077967 1.3109186618411934 -0.29605857850684014 0.6942082320707539 0.31151371772781894 -0.6863687435092148 -0.30846329856769406 0.23680164049240282 0.6968909920230738 -0.730118245013991 0.8245497017684194 -0.31170533613758095 0.4111969544389695 0.13916598374425937 0.3077641370802441 -0.16271877948562397 -1.070575864000118 -0.8903132964112679 -0.610807687246659 -0.8547597574120376 0.1539122366771506 0.4446945895218526 -0.47769824896304947 1.0667655442445771 0.8544999107469591 0.49651906506610916 0.5635767504146052 -0.3896786140701529 
5.58600340307926