-2.931972218026818 1.2123072945159823 -3.5163693084541086 0.5802843950083478 2.0211096757923537 0.7286645910007541 -1.633704639652489 2.0217907031880142 -0.3867603262512578 -1.641446440886372 -1.432576623906536 -0.2835607232687485 0.4541392185597453 2.4373714799703903 1.12009807308297 -1.1946756485175662 -0.42390553147029264 -0.6347936472487344 0.04914289439304842 -0.4968864001096641 -0.5117897299281053 1.3217015022641676 0.24141192965024738 0.42883470144087815 1.7095446022714356 0.39231127059086335 -1.1605292738577135 0.40473971471258613 -0.11098347088824156 0.5275020635207432 0.4359227969368743 0.0652073486446653 0.403289022407021 -0.22197315388129124 -0.4302599094339035 0.4323423509886015 0.5839336380750265 -0.40398259672814485 -0.17342690721318738 -0.21710788177633833 -0.2654304417182781 0.06248797525408725 -0.02275130201057113 0.37514202004682895 -0.4474172490508964 0.3372074906401944 -0.25618539376765553 -0.0465180678909094 -0.26748917318846543 0.18578102272700744 0.0908161587990085 0.10353624728101196 -0.14138550058348814 0.15127542544669942 0.025891570139618125 -0.4403296476390737 -0.018938017548710273 0.2905927988661331 0.14484266454740585 -0.17268807728070257 -0.2336047518141541 -0.19184264428696346 0.08837130840690943 -0.019059964650660705 -0.2274363955635722 0.06490611167301924 0.23049807995800886 0.921338814164637 -0.24325365503275015 0.21921590187684864 -0.18846713265655202 -0.08705179994300766 -0.011177745455407881 -0.06776042777088287 0.29193896251009377 
0.13738449229102656