-1.571335422414485 2.9339356493315236 0.931837607589237 -3.8127335149101413 -2.581802431990969 -3.8548306197221867 2.6098190216779553 -0.5409693624003307 -1.9958616379880425 0.25181101750058144 -0.2713139762715773 0.5568519071241154 -1.265992764960345 -0.6810964715401812 -0.7324341568846428 0.4492342996033074 0.687393551987654 2.090240880745821 -0.5603657013841312 0.9189774555666101 0.05932479215567854 -0.9821797321954908 1.5847218394199987 -0.8204339540131466 0.3702020225740136 0.7017290744956126 1.5247009309851864 0.37312030505188687 0.4039479528851224 -0.8063322446433958 -0.004881330905832176 -0.8835734627696873 -1.057427291698621 0.7628806299631261 0.6956795357723722 0.49537859884542207 -0.21557393040285133 -0.0937779071437087 -0.08615924397041372 0.3430856486231606 0.13734991519631667 -0.2924082467461256 0.10019313459940471 -0.3475518447446868 -0.1610169460088101 0.5038963721112975 0.050612910706721026 1.2185945078669826 -0.24170052572201098 0.1711268756077477 0.3984496241184868 0.16699909824150105 0.052346644321122404 0.23897370525699743 -0.212199605387422 -0.010836915177052542 0.5114159938903298 -0.09433778333302767 0.24274812362045278 0.45278624316402716 -0.1481842447663913 0.20041063625638578 0.525120060677479 0.44157132619324085 0.5728908113513982 0.21670429838614683 -0.6933626386866518 -0.4068582738416655 0.7114577636984828 -0.18225613748159672 0.34846070985561944 0.030260626815237335 -0.007780020819485679 -0.4397081526826717 0.020034389774019168 
1.341482616431332