1.403215944770571 4.033227339430178 -0.07254732925407037 -1.3661170881067808 4.2187348624601455 1.4772235356048022 -2.4382151189092482 -0.3148809524561409 0.6789317589924437 1.1891414588320004 0.5133690814950775 -1.7105296249320188 -0.3869992317988742 -2.1171597496565413 -0.41060460294361484 -1.8344217059083905 -0.5695714213593032 0.6347431501333632 0.7728562353992142 1.1810498815369481 -1.4345341280390684 -1.2228163330877089 -0.9271145355919248 1.2443452165362825 0.24052025501461305 0.9720292175525216 -0.8854527623236669 -1.1629447180186305 -1.5294001652889435 -1.3252014927984719 -0.714442326294038 1.607847687359548 -0.1637742000886377 0.3346272923614114 -0.07061649585392342 -0.13309937620442608 0.5411678453451436 0.6978217660741299 -0.7770321330107646 -0.0963103885251208 0.6365804188956231 1.2466251567797464 0.8640477039301583 -0.5634033636360833 -0.6739986067389743 -0.3252353604162768 0.8025782427520618 -0.6478173515898801 -0.5184100005370534 -0.4437694483567159 0.615637737950154 -0.022376048490345454 0.11848483426499312 -1.2828660756902193 -0.6996821113718509 -0.5416239221558731 -0.6249303947093804 0.31721060569751236 0.3884811640665362 0.657896899575867 0.06617076387297821 -0.16587247568939034 -0.7716851203769985 0.2815774042696727 -0.5598605630499418 0.9073363240889373 1.35875168692999 -0.018505226264340716 -0.013609637056949647 0.24315724076630024 0.21431263793964617 0.15947067624683736 0.12033765579129474 -1.0007229555690529 -0.20135514056704698 
-7.013849181574841