-0.8930368711448864 -2.645812550437843 -1.8638338122992752 0.04002921402109583 -1.541703507432417 -1.0704575141625678 2.2166113159839504 0.06683009060949141 -2.352883812794261 -0.4278816164096655 0.6127026434024607 1.1924019158745902 1.7754895968326636 0.2866414081830994 0.7200401131926919 1.1675786634183802 0.4891236397382852 0.19295331281940128 0.3553184583062293 -0.28995114973639546 1.346449049575135 0.2600545470412235 -0.39181011055488646 -0.8338595619050273 0.5105951467204036 -0.39946838485425573 0.36386031679411157 -0.08216646450972809 -0.27748852163197063 0.08463973335449859 0.35584947116994253 0.11326845870128388 -0.0425811821918588 0.5017839999173878 -0.11166319876189212 0.48604220138255755 -0.38752062576889795 0.25283766121457196 0.22514952012626563 0.584131664509522 0.10339333916503149 -0.09730289213043616 0.05507761820527707 0.06605749922662224 -0.3601203210452262 0.3463882352118356 -0.3632514350431268 -0.3088972600763259 -0.026088461615439387 0.22793843547537082 0.21079613707348255 0.29298718200297136 -0.029155014152340605 -0.20218838353921226 0.07723313674107674 -0.06329970464807555 -0.37616183558689587 -0.14350630418785795 -0.021824654291751372 -0.5728527072894486 0.25615653167441554 -0.3898361807394697 0.3452907350545805 -0.16620036769345978 0.1996013407183116 -0.025066498877152454 -0.07417755530617998 -0.33067833321648454 0.37251828159358713 -0.14027602477795895 0.14839185245409156 0.12090117491972585 -0.2739174859400017 0.2337848808999738 0.32002178144709376 
4.96942291655792