-1.9715959341346077 0.6492581543668603 0.7832291988151943 4.725028033670679 -2.6819613283323815 -1.0281316001128762 0.6644012072238201 1.1096497188017964 -2.617666608506062 -0.7973070433591513 0.3682742619389754 1.8595194108619717 1.604101184685896 -0.8100647042336832 -0.5502442485065415 0.29761550641732215 0.8073587934281667 1.026724234751791 0.5798580193493739 -0.4654458376651928 -0.16304043718645622 0.9284717466243024 -0.6601284914193877 -0.684169176945238 -0.4672713213069844 0.2393980868217912 -0.22807060661303202 0.5245931127398056 -0.05945880705941109 0.24680578778640755 -0.1842091364545657 0.3450079476172572 -0.021187112113451978 0.8137909248981311 -0.48293784517033733 0.6451964307861672 -0.2599383547176434 0.13616450937191282 -0.614055371703996 0.1629538006486596 -0.2383417536797142 -0.07650613833151017 -0.44795054787372524 -0.6937802794676089 0.0733942093096806 -0.14218410045749075 0.12431738656534289 0.2907626123522021 -0.3399439162316277 -0.36593533417043533 0.1361969384308532 0.1442182999842405 0.0574136486093378 -0.47054357306349137 0.3912744338136167 -0.24559123384953682 0.45739232074842817 -0.2334244453420174 -0.10644877990340765 -0.027724583951811294 -0.33517861052973386 -0.5235848358808177 0.15670256077443712 -0.12293260263155517 -0.3253341939542599 -0.3455914032638055 -0.1856285555754814 0.061292329827886405 0.06491258779254802 -0.15296227520217145 -0.30067613052862996 -0.06607504657336724 -0.25448540823729143 0.13207885246115464 0.14035146196447568 
3.8488980915122517