-2.2632257932405793 -0.18587249703088027 -2.5840775233351105 0.06491286012269448 -0.26812033993286644 2.8074938096199675 -4.060774982072694 1.2735034709410713 -2.1235751047143183 -3.7326007539909605 -2.171300918381499 0.5007857734606289 2.4992849104430075 -2.678815914196676 2.1462565664385593 -0.10935503061632595 -0.054326569842021666 0.9757251910884142 0.9670390969849687 2.5395748577754533 -0.7084527011623776 -0.9229428759577029 0.3569002684416474 0.087397496509244 -1.0648650723282187 -1.1807400956570673 0.9903807032172358 -0.551325041015008 -0.08057716354765992 0.4977301517999818 -0.04305985021822645 -0.8413015964076989 0.6552736831660536 0.23181852051434215 -0.7360255600122104 0.18855923848517092 -1.090476422852237 0.4548296824612196 0.001193265170373211 0.20567170866934914 -0.47503589879729574 -0.009795420239599145 -0.6532935712604981 0.15031151735558118 0.5686834999846642 0.1966717417774444 0.4848393792814141 0.5359896532132025 0.989637154097813 1.5309845489251033 0.17219660996673225 0.1594853254590421 0.5372340646860574 0.8518944283437536 0.09545469073607424 0.16135185208195138 -0.20051455255024492 0.7508173934475648 -0.27648222376580994 0.5690246776529257 0.5180978762377844 0.4081074735258835 -0.23428542698311694 0.12480815494890127 0.10222179539982634 -0.27990223712161255 0.10829071594082068 0.4221119669076051 0.38505433590313537 0.3784951662338677 0.35162353140586955 0.45606277713207033 0.1205417561835731 0.4703030224716791 0.5364947726207979 
0.8395001198801856