-1.2089120417769905 0.5756798547796365 5.288929829076649 3.6595024460623105 -2.355868510648648 2.3986016392161984 3.2743411063880306 -0.3516658578683576 -1.5540550288317823 -2.047930005526182 -2.2208431650617357 -0.616232492167013 0.5665271109421819 -0.7584901888907478 -0.1794332227372215 -0.17780998624980004 -0.6083781645355382 0.7194346035651804 -2.4170062483157544 0.3638153763030908 1.2595617815965583 0.6937910302251539 -0.03646376564961251 1.109807439462506 -0.6634082423075668 0.43646020813220865 0.010641904881663916 0.6953185636092022 -0.2716405017920184 -0.8141405732594797 0.20670423626933615 -0.30128084798419374 0.2557063502771093 -0.10454868573401743 -0.11191955905948325 -0.5426354863575775 0.37439300949456283 -0.6099676416057227 -0.20315765456397808 1.1412846888178045 0.07482673474893634 0.6094679950748274 -0.2759272520192204 0.39320320969519895 0.41667677156687644 -0.2603166617627919 -0.881191066903285 0.2097069239915373 -0.3903541426565641 -0.4357001598781144 -0.8075384233338432 -0.6482866814887647 -0.639870352872509 -0.8954307075431441 0.28632408371857787 -0.013843612198835065 -0.3797642622297298 -0.5428095101665797 0.03499014569856586 -0.5778295698485191 -0.024044459594431633 0.17857626930513204 -0.0347333071537006 -0.3113321139609709 -0.5053746378350183 0.10800522727746753 -0.0017037345686591043 -0.17120654473074404 0.02501337635801426 0.28656755944288903 -0.15277997699232454 0.39178388353113675 0.34196581474501425 -0.34963763568921946 0.06785351009685714 
3.087707887371776