5.273638081430364 1.4618299793719571 2.267090867954141 -0.8588367773313801 -6.430206718211658 -4.7911476939609265 2.06999650629289 -0.346928594925636 -0.36644825328488295 0.14655035438340924 -0.32361060270980574 -2.0964162106018285 -2.867441664693537 -0.9533390078554494 -1.036450515610082 0.035215898340827695 -0.6957336559217503 0.0507861021805585 1.3087243579260333 -0.43212987817904797 1.4641165579010567 -0.31865781664968423 -1.7389090574467554 0.15279890513642816 2.438755842637409 0.42642352504235437 -0.6957152344771754 -0.2569579540281172 2.5976517231760217 1.317942747220948 1.3603648572929872 0.6140476416376006 -0.0666607045511165 -0.08473629091717899 0.7498248210922888 0.7646636338988132 2.0891141386690664 0.04369175197629424 -0.27609126656306354 0.09876551887535989 1.597506086472055 0.877408806377527 1.072101349090375 -0.19088491925448556 -0.30482126928718856 -0.5406968148985832 0.28308528471205596 -0.9202499003905531 -0.3421381828477547 -2.2898144246836143 -0.4283054536598522 -0.4835656861742275 0.18311448977410014 -1.4378430342707913 -0.4081523171732907 0.14213687902118816 0.45849092027643257 -0.38625491061412187 -0.015801670442558834 -0.01129292168726199 -0.4597454270124447 -0.1520800697522002 1.1508642287234268 0.5525367329374611 0.4257634613516626 0.5682966260621286 0.2054003597378401 0.402678822266721 -0.3199459266887888 0.0452188687204906 -0.6164320907517707 0.14806852757951816 0.4609770346726994 -1.0185356283351097 -0.34266374436880437 
-1.2151167739101245