-3.4446871196842377 1.5834277460721955 0.7811575282018353 4.747180392157262 -1.3748286672461432 -0.906300995474409 1.6811983734703064 0.39456528774429306 -1.6843557992232565 -1.0891413077175045 0.9436182909787402 1.8500862214058955 0.5266323627736985 -0.5861029022207934 -0.1276440255705042 0.5177162021574584 1.0535150743780073 1.480127505249024 -0.20862446335964058 -0.6470390467901287 -0.38970127805002663 0.7228322252840943 -0.9285269106661056 -0.6705660657247148 -0.5685370430169447 0.6698704524610343 -0.7290786661702477 0.3448182171041513 0.15798174497221645 0.6843274959375418 -0.15996042211984055 -0.2579618399129574 0.07003604137803024 0.3341835563269491 -0.6058199405505341 0.05694697271832638 -0.29574412836558006 0.8946571078063554 -0.7322056354087851 0.4202625623710402 -0.2717432416681691 -0.4841153325980943 -0.4112952195214149 -0.23574780266130846 -0.09117477456866957 0.19875514176047382 -0.0032867609725400204 0.15211655770565388 -0.13563720027343298 -0.0876281374770084 0.020334040121083252 -0.2201278325824177 -0.28361507116714246 -0.536886340775076 0.05360295381339103 0.07790113560233627 0.14186568995370158 -0.18560735866543998 -0.1702474553520471 -0.06575146781165774 -0.22758537954275254 -0.60254247908785 0.1506385091744596 -0.29040472986370464 -0.16729675513172537 -0.1328751953604963 -0.3142141722257083 0.050218992526658346 -0.16353400778628996 0.06364858274053965 -0.0635056247551265 -0.08776008681356806 -0.35811686407219656 0.059435170516323355 0.11386741314311227 
3.864049030773491