-5.8500311715410716 4.538837216197019 -0.546092248665409 -1.054832926826891 1.7626843925156028 -0.7679194423750615 0.5530095020454118 -0.9225705261569062 -0.10836257832670926 0.7728301150421877 -0.052273681028038366 -1.0198495135985488 0.5326664264836714 -0.6813473901859848 -0.5595396138323235 0.36836579984692475 0.2741566389423472 1.281218196955603 0.10839445899889832 0.18736773932944684 0.6333665677144185 0.7650508666142531 -0.9600564871092623 0.4545018560273622 0.6504886278825972 -0.1547234144596914 0.28938933235759035 -0.6479804311260441 -0.4972569772027524 -0.770690993237458 -0.3741760374674592 0.2640382003076118 0.8290228963025312 0.3029667710516464 0.3430770392843615 -0.5299086382995765 -0.37557429722773555 0.29796512076470705 -0.5861083911478784 0.8046788265028395 -0.06817847482166084 0.6136620147160912 0.09689806542780088 0.1789859242563942 -0.4820690666151364 -0.41574191228843144 0.3517713099852462 -0.7759226447518833 0.24484450785405118 0.2647635638140197 0.39412835640173083 -0.4341770941800142 0.17302496766873962 -0.01942263169165187 -0.09520607902689865 -0.6460383467556575 0.048651509184574115 -0.02011733437468033 0.47612519932727004 0.145682655829402 0.06818892763943768 -0.06692206182031858 -0.11396891884310101 0.021569262421416796 -0.4733981730063461 0.3119564527027571 -0.01264074718688335 0.25786814664006485 -0.12902693457000336 -0.0820080443653326 0.268651325469913 0.12970617936148457 -0.04634255249027122 0.14935671320512545 0.1305641035305281 
0.1644755874597933