3.9557520348029165 -3.2419161785936446 -2.794953012078815 0.050969650232319585 1.1694585401800173 -3.128432670826447 0.13700615439470276 0.38433724329052776 -1.127042952977161 0.5413625717382307 -0.7633282859540363 1.49228663842548 0.28189097978148225 -1.0484211023696732 0.10144794323359263 2.3146590202222503 -0.810541697180029 -0.14201891893324947 -0.7670491834313176 -0.2217271746622241 0.6152327517104794 0.12571378629992558 0.6105933302189231 0.9073086982731609 -0.1935838527782352 -0.47243530563244224 -1.3948002345223636 0.20456117764185922 -0.0419745421970214 -0.15500257131030873 0.200415795868516 -0.08898035961771189 -0.1234581230677192 0.2738654118900028 0.8523496928627131 0.2183341717327506 0.04172295740083215 0.0590829391344716 -0.5842582635072109 0.09560379803863572 -0.040242128073060865 -0.033335057405332685 -0.26986857352668314 0.5559839219241539 0.20047800408561522 0.11103044786202454 -0.23111251943052513 -0.15733612871082975 0.0373967513043523 -0.01588472335798191 0.2719236944967529 0.08927469699233309 0.2082488007528973 -0.06487062756484967 -0.06824710302361003 0.024690376408885717 0.20924160703981887 0.010757457068554799 0.04438646941042208 0.09352632578867795 0.17682545513364364 0.123893500498234 -0.10468276936535015 -0.03670643605806667 0.016581760633585234 0.28459238630729183 0.0430960299458345 0.04111374241294369 0.06160882758834463 -0.02725036120615698 0.04755185512667126 0.2562430264216082 -0.1184378459469505 0.3218673489402485 0.40363092979232346 
0.09054487663795618