3.925079516831113 -2.598393923327066 -0.7965380785992422 -4.360150281107763 1.8324395029422385 0.9459476038586901 -0.8654632912043521 -1.5842914191361526 1.4784452142168285 -0.2771986353662126 -1.3357273340257154 -2.4064038791528772 0.22914516643082794 0.7733347554345131 1.0315404839326883 0.6679816083760866 -1.5255994779781812 -1.9122028694531157 0.10698352451441784 -0.21098906975884188 0.17321711580781862 -1.2088000159478787 0.480152560493556 0.7959839181304055 -0.16761622318352248 0.23541808885648363 1.3805389055876667 -0.04759257480661609 -0.8231058991003356 -0.2628159137289555 -0.2672513402495249 0.10372268178025161 0.860875892394958 -0.14226293782079918 0.42158633276993296 -0.5662260543513347 0.7395500857880921 -1.0572032248488605 1.1254908532213126 0.33645242907208484 0.024824758795814472 0.36439516360457985 0.763769637767714 0.7752787404297761 -0.47509147254065415 0.42023593334373205 0.3216460562791639 -0.24187550014860237 -0.5145860808213343 0.36495006705367383 -0.1308984227500466 0.21486213459217512 0.08893780753816524 0.3802018174007238 -0.5413556738896974 0.22587974827545343 -0.06236402933219132 0.5206980221997497 -0.07531090702155405 0.19652920312078198 0.11030602006008194 0.5625388574820325 -0.10047904386845874 0.42986002841287335 0.3758314768231423 0.25900018335820746 0.21768176828827313 0.23860961419237417 0.27437874448761745 -0.35913126186400235 0.04287241438751907 -0.014323039657977654 0.3041376877361719 0.09169872822532796 -0.2817629792532103 
-3.3795689096559887