4.817231603837288 -4.285085344259391 -2.7579834578863665 -0.01679885572794282 1.1165857842770477 -0.9022236607849098 0.12076124189122184 0.1670594953987412 -1.5305113345336019 1.453717505828728 0.6419608248383323 1.0267716315240145 0.2751978055393761 -0.5423815514120331 2.04213046551899 0.7822503830537604 -1.0491574672937003 -0.5920152799763829 0.16519465802973404 0.01671930788092099 -0.277100642376382 0.13743162465479353 0.1416543834730706 0.37499365658266226 -0.37472028596112905 -0.7003342426128369 -0.629710041330248 0.6428733997320953 -0.14056677037987125 0.15543636829799407 -0.5427362965820468 -0.18713870118926842 -0.9934111437482156 0.3917595282447534 0.05599005138926412 0.257638859122086 0.5852886339546699 -0.13614905381404319 -0.07062901741279914 -0.13605918655801286 0.4890725647787299 -0.08465389703522874 -0.38089755713985013 0.5563150724003856 -0.06440914526740726 0.0903414613873052 0.12478036512788199 0.8274673569976672 0.06916781418192611 -0.4299989370659804 -0.015354768393726514 0.07990947726587003 -0.16124136264207042 -0.37426889229024596 -0.25736002936895647 0.07399865358637336 -0.023895067182822582 -0.13993533158735277 -0.05025549406233543 0.28178835260337964 0.03394040312859552 0.10126377901587919 -0.09258499544045676 -0.1397378256319214 0.2664155215385201 -0.02401357752518829 0.17025729983151944 -0.3439264336201406 -0.2117204986228077 -0.05960987511555589 -0.003937670246095981 -0.06473125581803457 -0.2734564344230579 0.17517785104296618 0.3521581963618965 
-0.143886113952301