-0.14757336409464017 2.2499255108305007 -6.713511216818947 2.2811428688051123 0.7327373007956046 -0.036247633914473276 5.413264217558421 1.2587420622790235 1.2104719379124624 2.3599271910428175 -0.045402682747367695 1.5429581595327901 -1.211302051891061 4.628849899185246 -0.2511041368707465 -1.2305049517947715 0.7345166738300821 1.290421852480733 -2.2461595905996257 0.062456941801028065 -1.4861853294064717 -1.1395545499902346 -1.3359711369162333 3.9736763873836685 -2.2158253438657405 0.530182297795988 -0.11819275854646838 -0.9002134022916319 2.1855787928555017 -1.367248079687773 -0.4468596850985842 -1.146348522741644 0.6062194125370166 -2.3857114623653057 -1.4962868884348133 -0.18320545983867564 -1.276173769025759 -0.12619776687134454 0.29068955528996687 -0.7620279174027098 -0.379798918414038 -0.32804927990260097 0.2506587676882992 0.5104168761668981 -1.113632300740734 -0.5004518051375848 -0.7845672129267216 -0.26550678755602175 0.8359041694849578 1.2319117828394042 -0.15296713752765767 -0.242522295623943 -0.18194077756130567 0.33112636016700664 -0.6649678149454918 0.6216138953542136 -1.715591617968763 1.2290217574584825 -0.6388275968525076 -1.200166137122938 0.611239823745571 0.001363849820209706 -0.3025904264604209 -0.5150551484441065 0.12697221742406384 0.29067353747034974 0.06829532071382571 -0.7299259705733314 0.9697033668870847 -0.8945826306690337 0.6868782341636904 0.5721873465675502 0.03315154247291353 0.33873198620300715 -1.1826603369012723 
-1.905222432750259