-0.9875699900741286 2.246528751833163 1.969119299467567 -1.4418929115050105 -3.4461590013095726 -8.201582024901455 -1.5031781521528258 0.9426190619865202 0.6296582432005597 -0.3794980150639313 -2.8675146817612553 -0.8943206180094786 -1.8261207981795897 0.5663909166504599 1.8441597036485287 0.9392816969165861 0.05530483490835336 3.0394721332997 -0.4897139526929791 -2.0027949507279885 -1.768569957417195 -2.2138965597914693 1.0414757323714456 0.13009152379946637 1.7465853636589135 0.7685225387633133 0.9313613059845934 2.3251509071725356 1.830748844885608 -1.7211692113555632 0.1944302163964382 0.7462775561284407 -0.2958584812987266 0.3830180871728706 -0.059384603326310736 -0.6261559280120866 0.36186850060627695 -0.9447287220587608 0.2785492898589811 0.12584531161904972 0.9713661748743164 -0.637659614007814 0.8159646585779724 -1.0327474194629476 -0.07116976501562682 0.8468841435048449 0.33848846997855886 1.3631803273059557 -0.0500615167675581 0.13344784925100053 1.1357834573642611 -0.018306799839490587 0.411276153012027 -0.11381986682168173 -0.3178506133883397 0.7872380216366957 0.5280884930284959 -0.16487750979725338 0.5957138108653155 -0.010725172596715592 0.07157776859288839 -0.04267995150225385 0.68202359218773 -0.20529429685599285 -0.12140273554787903 0.29276958951740706 0.23723737006391532 0.5295472421132055 1.0351253172862487 0.022493381802547063 1.0078207898018894 -1.0497214870013567 -0.1244367822560818 0.559558405922245 0.1688172534823818 
0.04672049494059971