-4.615271822261828 2.624147674478746 0.6004725276388285 -0.21772317488858967 2.543275394067894 -0.5819897345739146 1.1111261707015967 1.6937391706793847 -3.4652862903024735 -1.32438382827287 -0.3914573835220534 0.27573262473934 -0.3346001117417576 0.7827911023633163 0.8044316969793611 -0.5538737789725592 0.5209157250850857 -0.2709253766265488 -0.32898528596703847 -0.22562134679952733 0.19190077038927356 0.34063905229861524 0.6714721520002405 -0.17273920399736875 0.46372606314823106 0.2674414429352005 -0.48041223139297173 0.5408582681947909 -0.25932219499547 0.7498496197303959 -0.16504745664835002 -0.2847525185128787 0.18318312454606334 -0.07841349296693956 -0.16655767652577003 0.13764659397135648 -0.03497414189618539 0.5754753445257778 0.09982162263106875 0.5570581702473538 -0.32750808019129657 -0.15662343520037805 -0.029903927595453628 0.1518914511565835 -0.24094461850733365 0.5805612154867303 -0.3971034258749827 0.17066898932454574 0.09033028794665862 0.06511375952264647 0.06395460208533199 -0.1757780648666089 -0.15585506478938016 -0.2751227855043148 -0.3027031859339772 -0.09516736370780024 0.08985998966870946 -0.11928501234985935 0.09686924276799572 -0.11496019073080548 -0.20345450785901176 -0.4324919874656956 0.05480802094183804 -0.16356618073299983 -0.2626046964887379 0.05805786796302753 -0.13478723607459359 0.3297182352952821 -0.012391021764228183 -0.07340666305456187 0.08652792576104557 -0.0011659818671408972 -0.16817096416707433 0.06922291400697045 0.1520426323120565 
2.718965801455866