-3.8755567622168985 -2.1205965821447847 -1.553152351526223 3.846883112164092 -0.4704682008005723 -2.0123580169719792 0.2624716756373715 -0.06838694245635515 -1.5791583268549927 -0.04583474629400772 0.13782654178675977 1.3676373013843692 -0.8535349477928957 0.22747728333665676 0.5604607812695085 0.042824586930586106 -0.041625515190517604 0.320925600847868 -0.5381921294884414 -0.23169988577194228 1.804821160544652 1.1733768886418967 0.2927388335789193 -0.03180556715523285 0.3741467505591012 -0.45143670933534064 1.0468799220092073 0.5221857621177334 0.6784521753642639 0.18591936054432073 0.13083938117086566 -0.7490386755530862 0.19666942329494588 0.3317902127350403 0.09020325837428346 -0.3868630020092564 -0.15716905635093711 -0.3224011353601022 -0.13642945967991552 0.3555224108074693 -0.24421219341828834 0.17637329417383746 -0.8479716277709357 0.49186510891397067 -0.2635692785794066 0.37174772138286216 0.5234531870768965 -0.2537732492496364 0.34298404785887937 0.227293287517787 -0.1000824400100247 0.3007745282820896 -0.2595755878159958 0.2347756348441191 0.38761243215162744 0.16036247209069576 0.48487606408451484 0.011069900209047662 -0.3724911350662279 0.15866992736259905 0.033511795089096554 0.00462927478949976 0.4973347915737719 -0.3973528786844718 0.10498062555689298 -0.12118256956868423 -0.39187601496748425 -0.1423256612914696 -0.0034540653934609644 -0.054083292602530725 0.07604959852052338 0.31958049783275777 -0.36873484713062477 0.3836522366081656 0.20474400548321048 
5.470467509657369