-2.1106676255578343 -1.7926958635078343 7.498253644136433 1.9302236958460723 1.0354694918022673 -4.66938301682346 0.020566160205307327 -0.13874247573331866 -3.033670168000726 -0.9044233555774035 1.2707458843631836 -0.5164862881366927 -0.04210841972690327 -0.0670103425395775 1.9853936386910689 0.9836259684007049 -0.19634839129502435 0.7714461326019928 -0.3576027623706446 -1.1943329448645847 -0.25845429611111914 -1.4441494246491189 0.32552521008208907 0.5598698089972671 0.8593385130170746 0.6293806637490966 -0.3424357545192097 1.5641821483558886 0.44200447146643157 0.6715074095487579 0.19741274208992976 1.0217956995638167 1.2002603054545897 -0.32927539072431666 -0.9184401372377162 -1.1903489314508147 -0.04961870946618693 0.5164316210267086 -0.6445077517817992 0.8848359324658412 -0.08629737093955633 -1.1985004128645154 -0.3611196896969704 0.2514586405024452 -0.4538726818317462 0.949762011827381 -0.36205147528935977 -0.15508954169839306 -0.3994562963985956 -0.31690873446171564 0.6620576961269002 -0.4241312569705775 -0.45957374557146935 -0.3710354850641954 -0.20597127371504942 0.6451353013018435 -0.010567627960499926 -0.3150475998356173 -0.3723920049419861 -0.5171589603588205 0.124023396711743 -0.9274457245807045 0.20308764622028241 -0.5145573621572429 -0.29650302403443957 -0.35422473613604993 -0.28595484796090176 0.8085447782464277 0.2766188615869287 0.12470968524178064 0.46960155394308567 -0.8207154061680938 -0.07482830165340992 0.9665468990031609 -0.36571000221232897 
5.143218306176406