2.0101484377799483 -4.5272643307527165 -1.0856957621840166 0.7095661997534823 0.45808099063128704 1.1616780091083385 1.3764048105892202 -1.570597770465173 -1.4728962577430273 0.87259832728999 -0.6258202878603886 0.47226475753738395 -0.24066267973781652 -0.22271693018845962 -0.7322219100796297 -0.2086850047840642 0.540313100988129 0.20900675290676185 0.18178411808573897 0.11226702349465983 0.05979995461534848 -0.2646545324849937 -0.12814706779519763 -0.04001640712997008 0.38775953947399033 0.26604083157125913 0.15644623180021577 0.07228012675734824 0.10281098439215444 0.3793177360166511 -0.31585032516510225 -0.28067868980320254 0.4791269908046374 0.26378342428182 -0.1751984397855823 0.2406207015448012 -0.18234939177055157 0.011388380539003762 -0.4095123183595921 0.5571746665986934 -0.24442363383276183 0.3775119806533516 0.32943052181110943 0.05486372185875177 0.19712324171533627 0.14782906597819379 -0.5378452959686789 0.10507808746125818 0.46405938976259875 0.07715877705217555 0.12065509796629942 0.08314633157226328 0.13343875064568383 -0.1109739674511126 0.1352364834640195 0.03309465983845894 0.44499557267716294 0.02857194257602469 -0.033118938347540205 0.2633807629239082 -0.021984364826485567 -0.4859231866080772 0.014533562712272463 -0.48001487927007147 -0.15198048360886152 -0.10818451159906749 -0.057533826586210424 0.1499974746737785 0.41500643239775437 -0.04862186174131153 -0.07802922002169108 0.016377539192742208 -0.15724828415264336 -0.017406597760116993 0.34410566437010626 
2.305698201787273