-5.200516739512315 2.1983971086892264 1.388980755773865 -0.6720545465554427 -2.1818718715112073 -4.517200607982089 -0.7532875927499214 2.4748212002463377 0.4950461294173558 0.6573674834081342 2.2718137007107098 3.0589473961103657 2.3035649556061157 0.1181109643868733 5.015296523038591 0.583957082732993 0.2277367651842035 0.6968868999158798 -0.49456160294136603 1.855225763246046 0.6615588797677279 0.5920076818453086 -1.4503583149395398 -0.4733736089296335 -0.36472189955890416 -0.11740817346582696 0.32329138005472513 -0.022812035720772783 -1.2664058678861205 -1.611583956583066 0.703490491770778 0.06319427997343988 -0.19372772237736147 -1.0003483211105326 1.0464218789793651 -0.17299738016935173 -0.30460670792063105 -0.3266166315673537 -0.34389415915526755 0.1418939401436421 -0.6570443941484848 0.5848308059667666 0.5062970410941594 -0.8842624914445352 -0.5967927389385275 0.11714616795768784 -0.6347559881306326 -0.03264808599668256 -0.5374682124921586 -0.21563628822266726 -0.7844911906546397 0.23654623408736997 -0.3490803991812927 0.08559924057506273 -0.4690881222853367 0.15866546513436675 -0.688467579433601 0.2895964825752719 -0.5708543987478263 -0.3821545746036073 -0.5249465129242845 -0.3508956367116058 0.4324580934161404 0.024033496466788706 0.399876886032428 0.1228357322124419 0.5223913536459204 -0.11386441313564855 -0.0654698459413649 -0.10062746340448159 -0.032451566317271974 0.09013642299015151 -0.4987509550191078 -0.24299664966647727 -0.2473294351192895 
4.079801324762875