4.1868478111163725 -3.4685381945722558 0.8194661240415546 1.2836240394561391 -2.6185678457840895 -1.6402240446152048 0.26579001488083176 0.4688933491944511 0.22693048867819018 -1.849996250868365 -0.6220835913129174 0.22381795440601107 0.7897948293746796 0.308571993738638 -0.23456180923237163 0.26172529628752883 -0.3578779048660101 -0.2507142667921115 0.9160228539855879 0.04540054913673706 0.584983851174666 -0.6370024105485189 0.5416654669227517 -0.6870623985619744 0.12807865186105477 0.11462159421614967 -0.08985544621827729 0.2310836568639912 0.7156845501734789 0.6076858421699471 0.20119976003827308 -0.5501608930726968 -0.07973496881598077 -0.541140009571245 -0.21699325636971203 0.47879596376108013 0.1448268375006877 -0.08502322329929236 0.15795997778017848 -0.24238308257743507 0.04451054563784444 -0.04360013709616862 -0.02448852475803221 -0.37145621404507284 0.31023755219761967 0.22635261295625217 -0.7269663571818662 0.10278815710757376 0.3108338963147999 -0.3144968563305452 -0.07085987877578169 -0.13635520483358518 0.20301775620767323 -0.006791378264395096 0.22092428436673853 0.3811527888695119 0.22639709412657985 0.1568629744750164 -0.10237196991909721 -0.3007163002977834 0.011552100291592454 -0.07122059014053014 0.5499311018515319 0.5384476119438809 0.2768103855837526 -0.29501802890594575 -0.31995827364819135 0.11511246810510119 -0.0941840512727834 -0.03833116643006115 0.0013684703905561487 0.029290134963341072 0.1968810338238277 -0.35565456726656713 -0.16155332972732311 
1.299074588408258