0.5115061173214368 0.2464400361301884 -2.7571333932705193 -5.279921861608759 2.5259769188797434 2.794133753188947 1.3300733843252974 0.5994406117477918 3.806081463308786 -2.9698329777506114 -0.4439054777691129 -3.7488720295294384 0.4934633347008439 0.810634756696326 -0.8675417793703311 1.8500401327527494 -2.8072916187732213 0.2637092917701689 0.6721473355819382 0.34923372172334927 -2.020378818889746 -0.06732421162479452 -1.6723106763481699 1.3858474792537174 -2.0840207534268407 1.1899234332951765 2.777791058721669 1.3327597995532532 -0.4467831899966424 1.57921523421301 -1.7776197406639538 -0.07003094437408526 1.986166467893385 -1.202660183193186 0.07773735563116654 0.3847362402553859 0.5526535155357012 -0.5859151922318728 -0.017543703239241815 1.8097369965557848 -1.1735931965321258 1.2571642591218557 0.07293511022012023 -0.05363774538033361 -1.2296611693358697 0.9679927566270201 1.612945745948858 -0.05471834507851933 -0.32792540084095734 -0.5477402755187788 -0.260374387605529 -0.061431553801901045 1.0423090404073405 0.22622146006080496 -0.09321396315312291 -0.6115840580985326 -0.21091133633258707 -0.778197231879792 0.2064258942626426 0.25491182891265113 -0.19179951232871129 0.7493708137993793 0.8250157487770928 1.6404528381485926 -0.155857699384635 -0.8130314160788603 0.9595529449883985 -0.6041347261510088 0.11149145414460115 -0.2560962857156822 0.39304435758207407 -0.6585550107271338 -0.637143177372905 -0.6480926336636665 -1.4624970149961172 
-3.7548680257845324