-2.316164983803411 -1.4623836406193895 -2.4168444370962137 -1.0459642882203446 -0.44953555290911673 4.571469763194842 -1.2858980107875517 -0.8630410643890417 -0.9976402970083695 -0.4410682351986148 -2.772757375006405 2.2908922082969587 -0.9218492280631774 -3.7551055527893578 2.2642960537897663 1.0737914687675545 0.23553330758065893 1.5108344116037118 1.1779565916111663 3.911352390784405 0.44595869044179715 -2.925529883240102 -0.54915988103071 -0.03366792167961942 0.7965813744149832 -0.006035469850376729 0.363699582957285 -0.03370022299887421 1.5909298836999655 2.1061662708180657 -0.36841851281103605 -0.8007929389944639 1.500371215093367 0.8624285745614699 -0.5929437107712864 0.6224679780523847 -1.0536349141343127 0.23829188931290557 -2.1852637618111133 0.17390425897094097 -0.8909749871366848 1.5256551440514734 1.1792045068126287 0.054972660668396345 0.24546059073492543 -0.35057513128670137 0.1169292848596315 0.6405294816340004 0.6615130788915999 1.104935504807559 -0.4960636892410869 0.32134379644951094 1.1390847798762729 0.6180549803894094 -0.5848056743800237 -0.13202617900409774 0.8561529905909505 0.3705683511029466 -0.5407267174606908 0.12306025151046412 -0.3371631065020783 -1.0789567196624845 -1.432864556772472 -0.22373628661640543 -0.1465577026218743 -0.9969576412562098 -0.7761101595437415 0.6470789536224846 0.393531013517177 0.01793281590452215 -0.36159823076403796 -0.39508760873085325 -0.3323765396320253 -0.06996422102162503 0.6710109354697872 
1.8386664466212794