2.791235658840865 1.9620428121788738 4.5931497727132715 -3.094653893371863 -2.990407254913781 2.423053206227549 1.3695005557875852 0.43786160037380584 -2.0108194963050865 -0.3265960730495442 -0.9983131777010626 -2.388524407927009 3.136618294183317 0.6878257151415583 0.5270886118672922 1.9164973760608137 1.4296095113448715 -0.022925916169770022 -2.0763949253254563 0.537585305893901 -0.8426015904177526 0.4291991797665733 -0.5900144295594439 -0.6470368343424542 -0.8684301830033831 0.32524689459097916 0.13164371476464035 0.4336071856246888 0.09309373172831195 -0.09602080587513606 0.5063033330698308 0.10337760352650666 -0.832957898889404 -0.5872544351367064 -0.7266394112627215 -0.4993040403314253 0.07121099542642884 -0.6884420602581881 -0.9356664277130831 0.6177611737575202 -0.3875084358060732 -0.3996433066649323 0.16314311401492998 0.26436703417788515 0.9337253270854691 -0.24420581778237294 -0.9766213217060546 0.7755713695011299 -0.9179166471288976 -0.535948510163557 0.4574558255928489 -0.3668077378175898 -0.09626052771665466 -0.52430850030822 -0.19026793858611057 -0.18678940373888608 -0.7018446755505623 -0.40487430626051063 0.3464062383957962 -0.3719773386737555 0.6677782419984722 -0.06444860147583042 -0.24179291528129904 0.06524688743388246 -0.5121185447404023 0.05652270146483432 -0.0770554048069269 0.32182958114094784 -0.5859665825549227 0.21800759857457305 -0.11971351357081045 0.16920858561744445 0.4243773466847725 -0.07150766147136378 -0.18657113119318747 
-1.0402040299811506