4.046661493922725 -4.197450073263701 -1.583479795261891 0.9291974489529219 2.934496428836203 1.2583834407927275 0.20892693341456275 -0.7043690488577481 -1.6055262219443147 1.854138553302716 2.8246549799482783 0.9713798478773523 1.63358470250254 -0.8799186515676158 0.5210978344358528 2.004590636768961 -1.6007153766369504 -1.5309856509538025 0.14467593001488122 0.4003296546577895 0.6006199100579575 0.3711287078137032 0.42016376916128984 1.4405639584150116 -1.0779190798547882 -1.540325087276249 -1.4054140986128858 0.29379984151920907 -0.8889537632751113 1.0901218640354906 -0.8978259724591486 -0.3705715848621366 0.532601422150765 -0.5062489157529748 0.13505076563637264 0.45733024760801344 0.6842442549769537 0.29980047109354024 -0.8502115065774741 -0.11536988752962082 -0.017284311645313438 0.10733013770833119 -0.8256013814324665 0.7455005778853674 0.014687726749982102 -0.7293290127194059 -0.12970978946891382 -0.6254646464752288 0.12725185001537648 -0.3987831317010707 0.04707392712849537 -0.20625604723523566 -0.16700116497892542 -0.2549212243405728 -0.07916278943871469 0.02965285683896484 -0.20319173340217622 0.10868503243976652 -0.3061050454886947 -0.4125310671704646 0.10744282090979507 -0.02627947103992092 -0.3386780583731167 -0.6518509957457206 -0.5806519837218446 -0.24450302452918038 0.25488528042676656 -0.2665243035519613 -0.5397544259143426 -0.15610979906703976 -0.6412087388417786 0.060521577340864996 -0.4562400411156937 0.2010662579761855 0.1507857587685032 
-0.15239327597320151