-2.686938163087202 -1.5060391214277131 -3.2612602657025556 -2.581265546582974 -0.964620291380258 -0.5269842028353334 -2.512269906233488 -2.496702724832434 -3.6364913733845623 2.391705152776008 1.7938022573089312 -1.1730621773821974 -1.0133732223176062 0.49993387965309144 2.203327176282209 -0.7964040659283224 2.4607826467475324 3.6283798744272544 -0.09667701137781733 0.7393409681289159 1.8217834826749357 0.9501028131139183 -1.6679761738720917 0.35312443254917114 -0.4535322657195928 -0.0463397588735112 -0.5362981957018959 0.41796196615836184 -0.4393860366214579 -0.8420460813628329 0.40354280514190577 0.4950729609793618 0.7976853729267318 1.759134557195809 0.09014891155408612 -0.2192624384192854 -0.2677006613080056 0.37552763362583796 0.7292084325372807 1.3755348660540485 -0.18338299472628966 1.8431787149817898 -0.12259421693570084 0.8236578378940521 -0.9606686873684315 0.09127763795962389 -0.11896431698094982 -0.17547861285338048 -0.23304731156264794 0.4264129745638988 0.39141631560015444 -0.07442291370044218 0.1780008023632824 -0.5925687393911628 0.15088967716045726 -0.2592411363581724 -0.09465612271976662 -0.16840751786489788 0.8816716976936055 0.3681136288602056 0.5752242486181638 0.2889049572671471 0.11981709796630947 -0.0941467769312466 -0.7497275192149963 0.051238882710853494 0.19003853101807874 0.37370431385470715 -0.16315646300654849 -0.21212539868837368 0.6140938077411553 0.027238428923408903 0.20934519974895155 0.6063488823717562 0.43054458552116504 
3.1905478410835393