4.281273751056665 -1.9468169821869257 -3.0893594010984122 -3.3095342679312565 1.643700813654872 -2.240097887355661 -1.1628579140988862 1.0383998303437831 -0.9294055318628525 -0.06125262098211637 3.2265940420948938 0.4162637861183658 0.5821766475962955 0.1552735117156328 0.044270813798299835 0.17989818897349535 1.1262343490207392 0.04654091482366246 0.6005811449614171 0.8897671131469573 -1.4201931309906746 0.1284935111993461 -0.47185590582848114 -0.6870261386724926 1.5386144502820998 -0.6251990959315619 0.16171493859638042 -0.7239214646801062 0.5100027008865717 1.5126466041426516 0.07775189698280113 -1.1542164267373367 -1.188023374167782 -0.00437324574896647 -0.009456999390960119 -0.6595611111726276 0.6767955937016207 -0.09611189651853902 -0.670050072856031 -0.31738526036164505 -0.6215967332311614 0.18446078469212823 1.079067396166584 -0.8499525234210771 0.41793409541949883 0.3345021949447645 0.5358057719507093 -0.22040046798565094 -0.08638742049137055 -0.17879949864291028 0.33799343561829265 0.4837533107933152 -0.44335196328736687 0.07544048734032996 -0.19393524194426157 -0.07160763730185576 0.4672238112390485 0.8048699277845972 -0.18835192675086992 -0.08679220287787268 -0.03656604071460618 -0.020440170654877382 -0.45103539143382 0.025661906035194054 0.14053016499410936 0.08330245720607257 -0.006993203943357007 -0.11946979952239316 -0.10384246445740405 -0.30430596812098737 0.4360064003993698 -0.09795992357967273 0.32905403801986866 0.6442952034107006 -0.36840868217636497 
-1.9143705130454898