5.210749020965549 2.1647803287168585 1.5257503553136231 -3.5320814874416815 0.28133278431054265 0.35279265762531664 -0.33699409928015456 0.16172838812019918 0.6708775268884892 5.408325324832523 2.317092979510651 -0.8549463516048776 -6.390620799598179 0.36968173945119454 0.7496754966184755 0.5780615632333899 -0.4515996686835546 -2.171307978141515 -0.9836859391851178 -1.8268366208066624 -2.1096152987766907 -1.5919469675142448 -0.6405347088935149 1.2559026648054707 1.5270139495866346 0.3121302367933149 -1.6978109291427899 1.3158639556770908 2.71493261503125 0.2208693718039556 1.3248477076027254 2.087940568877086 -2.8625677408728283 1.964779928356963 0.5131108752492036 0.43116037565104137 2.953013969661205 -0.973778874400999 -0.12491829330451691 -1.4053808441090325 0.8826466574343803 0.45746598543802364 1.730926163438548 -0.081040254936951 -1.031333408513107 -0.23533657602466818 0.6535304027919853 0.6991027437348398 -2.656156370896668 -0.9876970744443309 -1.2858350751674303 -0.05637436925141587 0.3544551068094307 -1.6285553562352217 0.13379331143671747 0.2747329085511848 -0.19087133119912142 -0.8629338450652585 0.2113654696185725 -0.08925524701657774 -0.48745622472697353 -0.30312202015130213 0.42335652394689804 -0.2968193162543994 0.9692671178806447 0.1472687068844597 1.225496514580977 -1.365125544709695 -0.5628787826962903 -0.22641340646568187 -0.7592555413314841 -0.8060645894085225 -0.625843394721778 -1.303675513502804 -0.7791521527532858 
-6.925710025394533