-0.3552575150539443 1.727805007762075 2.6469021952507816 -2.2581721221697872 1.700528235400192 2.022357012855953 -3.699536842250737 -2.1281548432923856 1.5665504223264817 0.3649507555738718 0.6217008082704291 2.421024003508045 0.40028663967483813 0.597612889758441 -1.423387130304862 0.32999463300941756 -0.8346336592863987 -0.8449778694446606 -1.0667491033873644 -0.6065184273845374 -0.9955661404523596 -0.7494134464228753 0.017002427473003928 0.7254510426259713 -0.1048560339123728 -0.06827655937360255 0.40311203260925044 -0.29665731127528006 -0.34420069190358227 -0.27385405870981855 -0.3201660703904994 -0.3752161219759664 -0.5469563795424579 0.20195189715887119 0.46812753581107264 0.17448263391926766 -1.3503130310622549 -0.7589282512971417 0.5851492785242736 -1.1321911326893945 -0.8420371969927393 0.41030418399925667 0.8031985315889179 0.5711458182554017 -0.2386488530208793 -0.40840316475070926 0.9951193615013518 0.4148628865183457 -0.1294357785505691 -0.10641645588328139 -0.16488266051869302 0.031243160434666233 0.7303399933111759 -0.8507334994763519 0.008529597624071966 -0.3276491653887815 -0.19134141487453826 -0.8612997153469005 -0.05437368430024364 0.3808361035867592 -0.2392357965776512 0.0891689469433571 0.20075897693279254 0.2542282448504386 0.44783545135491515 0.056919200155205865 0.157344237596436 0.4735077420024491 -0.058522254207534985 0.9894682407592396 -0.08267220345213731 0.12253769212125148 0.3916410097535575 0.6161983138994154 -0.030542559777938738 
-3.451566713234159