-3.3312539270500423 2.8056210273747677 0.2135211151495593 -2.6005652679785873 -4.256586199408494 -2.0761080612347254 -3.4052549339189353 1.6986771175328936 1.2052753441292792 0.7256342991542022 2.706459654750194 -0.1857462066077411 0.6180634866053916 2.4164174285258646 4.0669522402253895 -0.4890938530077854 1.4042861811737473 2.5342875984641697 -0.6253519979245779 1.3809054417391557 1.8022831759817857 -0.27252121753145375 -0.6189668756136137 0.38059877544036447 -2.0637381380098816 0.2368734586550822 -1.0562772093577761 0.27216784015385365 -1.317421095440688 -0.3791757130760481 0.10619613602844774 0.4274992950692404 -0.3314607208394198 -0.2063193711128044 1.2117010806684057 -0.23615271776139868 -0.7954792197686479 0.28654626162164787 0.7791494384187734 0.460124807471463 -1.2268321231143242 0.6232285339569785 0.07005167706242421 -0.9914594588216219 -0.5162749841215996 0.3264307745155979 0.27307133765772795 0.35376006080651673 -0.485226607612933 -0.32365329971455803 0.13420158685249806 -0.2577924617963751 -0.5075572057565327 0.015371266513090953 0.03879750540532689 -0.44621851491683784 0.11072186853914934 0.3985025584227022 -0.5078467551055106 -0.5672100611970374 0.34443167281643483 0.2433312760135018 -1.24229112488245 0.7449506368633348 -0.2534081436865807 0.20460611118224403 0.5276841252076754 0.10271444058105952 -0.3526868007926037 0.3164354692457172 -0.1979734855503412 0.12702712254089366 0.15086027548194714 -0.8681440047838476 0.14662825349726394 
1.1830083751606337