-1.2964810646284644 4.62494815159145 -1.7472563050167 -2.25354379184187 -0.024537343730921535 -1.8095704521426477 -3.209240074098961 2.312777565837412 2.421922343604721 0.007400671000524772 2.0315610081231434 1.2395040530330048 0.38026563957386306 1.0679996045153248 2.4712962818938564 0.8800809846892517 0.05429832252596789 0.3170065460397702 -0.6049473705426553 1.2297272567157744 -0.8753388684760735 -0.40117963797806944 0.014497091082857239 -0.45782649013960314 0.2233199505578516 0.0033073664658751084 -0.027160532287598238 -0.5318865561315136 -0.6805379848968545 0.37406982566365204 0.1673103792686882 0.32154892836568544 -0.8690650384694025 -0.10768150604910498 0.1156512032047872 -0.7186449729703595 -0.01406162339022865 -0.44912407902656604 -0.57903543416327 -0.9515697656343092 -0.0951624640709032 -0.521344154435104 0.5641725553961926 -0.6289392532040362 -0.5488949486964647 -0.024225720373518445 0.5979560724735795 -0.07154878810701726 -0.14481346112959068 -0.3704794480846456 0.8308733255482756 0.17631058962648863 0.15460738190737106 0.633613723750597 -0.7453834503616472 -0.13676648256482324 -0.3502744524476218 0.3923768032826564 -0.33801224064433905 0.14687264848075077 -0.3251749581445714 -0.1465018118502573 -0.09931504769107513 0.5244526202020532 0.06672979134536944 -0.21949920411592638 -0.14332180701669228 -0.3258620895445834 -0.512492972046075 -0.25499158044388603 -0.060032445162369164 -0.3093542967733506 0.18233536118333724 -0.08011525607639758 -0.46759882235007716 
-3.5883371134958777