-3.5415265320284233 1.179163884180043 3.45820309885907 -2.180050676573929 -0.29498465664247364 -1.8396869694334876 1.6068504008908915 -1.6071330884565005 -2.0875554279160737 -0.18441094628913446 0.70859322461724 0.7331636522932414 -0.20350075289823302 -0.755417171084569 -0.8116641343666815 0.18143342688640396 0.8810382066272084 0.3145579590589869 0.04402822532188838 1.0207522708445285 0.25068028328918146 -0.3434923506682129 -0.13728622532154652 0.11837295814683174 -0.4132559104906877 0.11363062838707 0.28130518566885476 0.48620519274456675 -0.334670186185253 0.0845507363274633 -0.20243416895771335 -0.5432567245051043 -0.28662908919932384 0.5362638652496405 0.237472742775522 0.34369443474887684 -0.044948620610039514 0.33422067252905807 0.10237290174070326 0.33322794135054257 0.23903831070352258 -0.279541632169382 -0.21031394913601092 0.3859730558977084 0.3813437388495137 0.1804200202380597 -0.1538642290174462 0.3331216755555617 0.14671087551530843 -0.058775027167200705 0.24572313309831179 0.4492607833315774 0.06836569096421946 0.058728756421444255 0.004337446217835994 0.33779707532795233 0.11089606061532997 0.059604957287331894 -0.20514987508175564 -0.13343398235404091 -0.04304423966534368 0.0039851486369394395 0.11001066058191511 0.04786449206732771 0.0446245639195289 0.14100903032410073 -0.13866407707838427 0.012191354446006254 0.3207844632200728 -0.49814839607312034 0.16796190551343135 0.17322471118467125 0.002117571840923182 0.017382073779777463 0.1405795912938663 
3.2018072460967835