-1.6123502878362723 1.279060745147142 -1.329938748698087 4.223270007054818 -2.150457228074755 -0.5941624518034945 1.856249323156321 1.0254991399666622 -1.7348961383192816 -0.0903167398839918 0.3288152637662095 1.753236749479308 0.8454275101376938 0.6696494559193029 -0.543739703579278 -0.07642964241979466 0.7504367753171725 0.870544399026789 -0.14412220061475517 -0.17880532637891097 -0.29631416041995196 0.3086781268377195 -1.0227027289590138 0.27460455294929764 -0.8462547755691827 0.4321560698987652 -0.346226070742294 0.265577437312773 0.35369615325502124 -0.1935154818149471 -0.36430774291214296 -0.09543685532877538 0.18431435249047934 0.08378918809023245 -0.4900457757680584 0.2771400077143133 -0.4654196653366724 0.35979379397584094 -0.2836549170402896 0.16235825594803432 -0.18538718151139066 -0.3484863068182943 -0.5238189306562919 -0.4771954172664168 -0.15194241860739838 -0.1906852711082811 0.010661865927832387 -0.10889557144459364 -0.08608938643731937 0.1415660276272553 0.11375571385733493 -0.028590934505277027 -0.1098392094927953 -0.29210428916447195 0.0015124064443274715 0.1434181343095528 0.04157564238994016 0.06167635651262414 -0.20126586249244593 -0.11338125528266942 -0.11426721359980276 -0.4647321771167655 -0.0320948599376957 -0.21069311264583893 -0.13179123981992172 -0.07254983706145593 -0.13426494874387998 -0.05939904239286925 0.03741819658003366 -0.08087762961840612 0.02265914850803047 0.09064921112339433 -0.07997262506520522 0.08861984453532248 -3.8849297009552197E-4 
2.43756583298425