4.114237303303632 -2.6337956470289576 -3.4123308751856483 -2.678035480358333 0.2882474622474671 0.44562800334696195 5.455220872239598 0.28806869100166743 0.7024815832614433 -1.6660938348079273 1.9961534291940182 0.8422197673117315 0.9728471461045263 0.8948398372102395 -0.19742753540557034 -1.2795903744145336 0.7973364890336554 0.15037540880609557 -0.2511328185877555 1.2454004251041388 0.32823722067183425 1.2354131492613647 -1.3700379630240604 -1.8540050447925296 0.8121513477541151 -1.744319864453675 0.4946063293803281 -2.496814528065662 -0.3508540578536258 1.6650130618888634 -0.34913905832429226 -3.0219070277134064 -2.030822210255807 1.4709313519217926 0.28219917541986117 0.0283446106574039 0.3382871320500143 0.9115183259686307 -0.4039499465355917 -0.15554913847092644 -0.6881502507936447 1.7748442627864243 0.657910077475804 0.10927648923908795 0.7303483147836136 0.3421640213081163 -0.2936794708082293 -1.0883638298706573 0.4108564937827214 -0.2589993405123583 -1.5274454484289037 0.2876378081215666 -1.273759038801944 -0.8338818078207393 -0.5684502949621615 -0.3375045347349792 1.0657436915211842 0.9676032015472207 0.10424874515133153 0.930447292899492 -0.34010430128350083 1.0080739516277668 -1.0001661481538422 0.025815814447167407 0.03316642768696648 0.7167115043719896 -0.30654625015764836 -0.2910769023281078 -0.6998486554997734 -0.34258144824527414 -0.7421223000556396 1.126511258733117 0.9269726977659323 -0.09262321830699549 -0.3969815303461979 
0.2953894948849751