-3.158274737839295 -0.40434780304905615 -1.2984956553109066 -0.026058334175207865 -2.4978532667780833 1.0151940443120602 4.068635904958816 -0.2986044256473174 -1.4251047779255277 -0.7481267723451197 1.3272893725079777 0.4550609110991988 1.9356610879019918 0.9810013782287471 1.03151306599049 0.47760242210289516 0.3639947537099091 0.0723160677766069 0.9104665349262883 -0.7347778917917418 1.6814987625278566 -0.18722671268988667 -0.37117023911873465 -1.4396687528945376 0.5712530853309199 -0.7288507744160269 0.7328408567891556 0.06222490532317715 -0.49240505671423446 0.6047343562573084 -0.5004030781916182 0.18246698845936085 -0.18868564116114717 0.5566072573171186 -0.9964706832839749 0.6229471847323196 -0.15836528561245405 0.33325147605928707 0.53242579869485 0.39911725240558704 0.445881528548825 -0.14250787352606858 -0.1806971038629801 -0.1268402695802212 -0.6604338399521503 0.14235225087053982 0.0873363186771314 -0.08237184324392974 -0.05382031697580364 0.17610481328910965 0.48146475951337653 -0.06546731085428792 -0.48952496559969905 -0.1125700836403927 0.3158541483696187 -0.3240463168218254 -0.5674738719690163 -0.5733067081823872 -0.22533861055671375 -0.75550108401195 0.3163898052926064 -0.34616471027037543 -0.08175764847931688 -0.2538549488805608 0.0056613790873211375 -0.30594867377231394 -0.1734312187835877 -0.4130097842534571 0.39923475355291793 -0.22360344727200232 0.11840788704438338 -0.036013803233370334 -0.01095431183336796 0.07046944403270672 0.3822680788102175 
5.09391426128018