0.5800361040710458 -1.1491993726894183 1.1070600782026436 1.9693867893460655 -7.190872612833451 -5.216186853654836 1.6658570910960782 0.2158439180623256 -1.4069164136890429 -3.9636115605990305 -1.6843534679034589 -1.4445359951829402 2.030745136367576 -0.09410903138586368 -1.9934937772622938 0.06839980067179557 -0.3728555080452949 1.6325208457498166 2.193106193238064 0.8411791768942412 3.412135574034712 0.6296977017690328 -1.432931696530757 -0.026212599811029358 1.5714508461610903 0.43617372934899024 1.2193335999257462 -1.366040799079555 0.47130693451530326 0.859946203281349 0.003309783487283391 -1.0716200564955707 1.5725924708759176 -0.8013410676976344 0.16447262424522016 0.48316545654566967 0.054031742143279896 0.9658130329952201 0.38911302361655487 0.8642176505069281 0.6226468553012897 0.766842398774028 0.28374816172198525 0.3251805511492819 0.2783553441010651 -0.20145978194833758 -0.9574229942255243 -1.6271690048620293 1.0543333716637655 -0.6271187128768696 0.987809553361894 -0.49409640619722917 0.49925613426706517 -0.463628732260929 -0.06468530294296099 -0.6226336242172735 0.8044215522978007 0.24833360748492467 -0.30920007576497854 0.13465468393785215 0.2037387433322257 0.22870517330269263 0.7675224405911386 0.34705392855328404 -0.07289059646631649 0.4513494724813146 -0.16760807383345347 0.7915323283374902 -0.1634116074249879 -0.015439631358693251 0.09642266512589082 0.8124235716621487 0.6926308337312173 -0.7582847655455097 -0.03852675554503926 
5.488808487166451