3.3654072191494535 -4.988475578227529 -2.266979056579169 -2.475763825649482 0.008872353831453239 -1.360642009464371 -0.40094931972554626 -1.109201194477051 -2.7339598493851067 -0.44633024146764066 2.780674021431931 -0.708514375744854 0.9164155328241046 1.493709352010926 0.9049188055471544 -0.9467236794569712 1.259663433708397 1.6876652601895692 0.6490334022856539 0.5015055384579841 0.15828120418815317 0.658517819376315 -0.9393876263836968 0.30255407966077386 -0.11654539268680297 -0.36046709234375773 -0.9845379503232891 -0.3053855322683091 0.3041175103883078 0.593280552407157 0.3888837777120957 -1.6659144366264613 -0.4324789190590137 0.07459442261491445 0.664289288260589 -0.44286977814454587 0.8093401226429822 0.292038660400054 0.24321761084261995 0.3632122308686756 -0.27703158251743826 0.7612456959074398 0.957032972932254 -0.07981795307129658 1.2965647389943367 0.6244259352926684 0.2573899906544397 0.61612675520223 -0.24220747419868763 -0.2629604206752263 0.19791303689224904 -0.14994034211609686 -0.7180720658383466 -0.1970397800973574 -0.6923006458846954 0.13014015427617398 1.0070174226426138 0.902873980358783 0.013627829865489938 -0.4312095359476551 -0.3549571041916025 -0.5619057066597406 -0.332058506536127 -0.17854783274880082 0.749262823640084 -0.32887603214384886 -0.21827156484805654 0.22456241680995725 -0.2823015045408265 0.006367343068997167 0.7060960079984474 0.263565849195188 -0.015394518680933018 0.379408000789653 0.49420527539000847 
2.218509041872666