2.0630136738725753 -4.119029055929108 0.7251123385866753 2.9264986559123685 -0.17841460356643069 -1.4328499913727333 5.825658714532923 -1.2459287341944658 -0.5593792099037467 1.1544458079526652 -1.7140903513454764 0.464821083654658 0.9454970042309643 -2.1253335709051338 1.4028224745579843 1.701145183041256 -3.2969872026007456 0.20180780440712287 -0.34270619233803745 -1.1104050555934875 1.973182375055809 0.36909632558213223 1.1357788099683304 2.419093745442809 -1.58737001108859 -1.606037230482377 -2.042175246097239 1.545799381966285 -0.5645971739361875 -1.2737183481130536 -1.5760760047238 -1.1890608460482586 0.4713946918788643 -0.1419511827841693 1.1368465121265943 1.2578999240747182 0.5850578558667323 0.5052660110616081 -0.014300437609620631 0.9868416305255372 0.3901260175046337 1.1055810452481958 -1.5796592917988639 1.2468539521707014 0.08934025843131455 -0.49930997708974556 -0.6139271824231612 0.599273307190977 0.29498997169733976 -0.42635799892861503 -1.2201455773096703 -0.9925830909545112 -0.6324999391117812 -1.1214895641555223 0.5972858058430206 -0.37567978714731454 0.46335393388156754 -0.8317630296022716 -0.023396227859905555 -0.11189153779965352 -0.011161144814719637 0.36523488791345304 -0.888209313677669 -0.6053680837691622 -0.3364864250895317 0.32550901763077633 0.7293656426250645 -0.13679691784681847 0.00884457513181447 0.23032933311129294 -0.6627092253670532 0.10058075455344706 -0.39934457464705114 0.16046107363368023 1.0849797571598416 
3.5403068010573255