2.4293619400222077 -3.265987754057589 3.28255675759928 2.1943074512310563 -0.21984253326428194 -2.658902993058886 1.7930827714517297 -0.026519566214081358 -1.7803137677480936 0.39973535757497336 0.3446064628218468 0.6679629879395885 0.706871805966818 0.8543876783155288 -0.3665118527065794 -0.22186383269189236 -0.02861552151555813 -0.5224580535178505 0.09174136431867774 -0.9101731260920473 0.8864608208907061 0.6636885697441092 -0.005221548515359886 -1.0304576345143783 0.3329094787038419 0.8485754555135185 0.19397468178011412 0.2693952852174493 -1.5004708946932273 -0.22746596926553697 -0.29215166786947105 0.0417918271891917 -0.17902694970262578 -0.08229114704982557 0.6322684825422371 0.35234193747463427 -0.100545313085046 -0.35341118984924336 0.4512370629012611 0.7653186258234109 -0.2796798013914715 0.11063199024141884 -0.33059859272129655 -0.2505953027557388 -0.041237968261482016 0.323654488852247 -0.3904315762067319 -0.33341980248814473 -0.4328855020086533 -1.0210589268435841 0.6798623482971149 -0.4832899579836351 -0.39470656426707074 -0.2349607757197845 0.2933634187766644 0.3570842482170242 0.21049643103162183 -0.1133640263222428 -0.23366541648139139 -0.14012028240024021 -0.48305167531215787 -0.4673490736283239 0.190079886489102 -0.28901041547185236 -0.22887519178302088 0.30743377915206416 -0.1640087444562917 -0.41974137711942144 -0.6531039000521304 -0.051844420840361255 0.13976341832211314 -0.3242714718064627 0.26431322114151923 0.056063606768845586 0.3981784394211586 
3.192982333043698