-3.486631571311939 -1.4332679912030635 2.39674730355191 1.7596039921126079 -1.1902350823462893 -2.1101730591415535 2.252093086560172 -0.48477685758026334 -2.7992462007582324 0.15979043061230935 -0.008072759315895905 0.612099790877765 -0.16332684736979008 0.6221561121773909 1.6298635706557985 0.9694537500046563 1.0743335081276673 0.25597586331010336 -0.6504708281114997 -0.8735778744234746 1.155498774039378 1.3686409901076657 -0.40709205555924444 -0.7571325754110956 0.32125477832003313 -0.45701227840761344 0.5953578518396515 0.4895921826846563 0.5479504021713286 0.8097383641174539 0.4986071697411624 -0.8974651130945444 0.21879548708376756 0.09994050035306778 -0.101583032864022 -0.384005738695026 -0.741435958577926 0.07192347231845037 -0.29934559954183027 1.0109555694342522 -0.4141471548535362 -0.29509932643478604 -0.9895201402759458 0.7075312828317115 0.004714351241592252 0.5027729132385836 -0.03397879982049859 0.1012673219969833 0.20273173688302892 0.06864829808095115 -0.09643731878340278 -0.17307170672914085 -0.2556959951710954 0.14610410511649366 0.10894829177237494 0.09041475908024033 0.34020908968699254 -0.19764347746843858 -0.32026770572837326 -0.1655760909853281 -0.12316982755791817 -0.14927343887761943 0.37173553801905984 -0.5323482846982603 -0.09046783656515049 -0.2902858331895243 -0.7065828439408701 0.046665558352317046 0.07647653166085905 -0.06340055741754781 -0.10993182112296244 0.09820800924346287 -0.3728069377107487 0.5074540328945938 0.3303017507439592 
6.4849003787291455