2.735858738934116 0.10217988659261934 -4.990415582276395 5.262547547343082 -1.4334964024164742 -0.36734902342652487 3.6690217979887567 -0.07013250623157224 -3.0264578953040724 -0.6723889584846381 -2.410349138380999 0.5467740436002737 2.017920533052166 3.285316075039668 0.4302207392629436 0.1742218878040438 0.5971759401950458 -0.14719448701887783 -0.12827312070009533 -1.5334074196902467 -0.9234245250504127 -1.0520167963253049 -2.168018702781386 2.997086358327589 -2.149408346869919 1.0457003489462369 1.4520893395166714 -0.009014638850703971 0.23680931434404773 -0.22377875473599823 -2.04497281451211 -0.4120034832852307 2.170426619434209 -0.32102306959378035 -0.027140923615261818 0.2503276399110612 -0.08624107542355042 -1.673932316606817 1.044650849168769 1.2595303380938667 -0.9210460355208436 -0.6065272291252641 0.5091992762273353 0.018408406341295258 -1.0052824613207194 0.7884773672391825 0.5112444483058243 -0.6757309033922739 -0.5802640738905536 -0.014400814357076075 -0.2636217568505652 0.1612170638666215 -0.006485335396610892 0.3138831078994486 -0.5024435478946485 -0.23266122298620523 -0.39379436406855683 0.3463967028752427 -0.5809462606615095 -0.09388799850145135 -0.42756218642110266 -0.10222246863944623 -0.3302630518514791 0.21445104196009748 0.07932386821905214 0.21538757855513901 -0.20391500457982992 0.16638211337798087 0.5933196192192026 -0.6725759181793175 0.7013083697989037 0.34609707646581284 0.37381862333864574 -0.5297428913149174 -0.6029591547121672 
-0.2728043562524647