3.1499179834648245 0.5307889499650642 -3.8103794055319686 0.12420687338158776 0.36561513877897767 7.9786093659056325 -1.1487464076643743 0.15535173700087967 -0.737691060556104 -2.8997539708276685 -2.2070813263229425 -1.8297155256137092 3.320932125580624 -1.4585090348942376 -1.239362107628577 0.74200832874571 -0.9018798443951113 -0.7395942520329362 -6.209161737180754 4.010427802790887 -0.9149567344862923 -0.3636379791362727 0.33148638798585717 2.327218734469009 -0.1447008374420069 1.6370694850956813 0.5941132867881829 1.1314677090542102 1.2910890545896443 -0.9768909921363214 -0.1211393366146094 -0.2446814889101403 -1.9034201010124014 -0.4183149937278605 -1.3792955524675683 -2.312660192326855 2.935755415323702 -3.116623129801726 -1.2012595493208804 1.240959046101179 0.5185060007207585 1.5035818305267121 1.0193671674107243 -0.035825354457494685 0.7577600733645473 -1.7652849877710945 0.4934396527637481 1.3918944734127583 -1.832414398169635 -3.0135446015108047 0.540222324852393 0.9217717402249709 0.07189315326519186 -0.8821133415693475 -0.26400843878402225 6.959973151918208E-4 -0.35619422323232397 -0.13308286707496841 2.3098140073629727 -0.8918946856196669 1.6809747710969047 1.1216755433892924 0.30727457429174887 0.7556390377774787 -0.9433443864086556 -0.3943448511479978 -0.724748457621512 0.6555385120117396 -0.9004569922767927 1.0030159939173124 0.49764347899732786 -0.15587708254395732 1.4783346055335507 0.10991709298081687 -0.4333872280181832 
-4.8362420479747374