-3.549976904247857 2.661448372021571 -3.3402568233502525 0.7653191113427491 1.9421393829429912 0.19235643784190426 -1.1700041509071615 -1.7701772328439274 1.9423453412057006 -0.9626420988870372 1.3569185942079398 -2.6193401502329925 -0.16992650721545582 -2.195021362943115 -0.6445497755571504 -0.2183970187468779 -0.6893911070859922 -0.26691250854625614 0.17295775526393642 0.11929571357404758 0.20367264492686532 -0.47978434356043054 0.6997906727786205 -0.3868718758265368 0.19921511536989395 0.08580975968749352 -0.45115681062072555 0.44068142495752405 -0.2572138545125065 0.7156171563157689 0.9373136991780369 0.31757327763761356 -0.40616271569930046 0.3089071198637421 -0.06170683078015792 -0.7341943409590149 0.7098276464108142 -0.4066688294173504 0.10420856328346759 -0.1497479079633166 -0.41200589370897045 0.3183056359733728 0.5841230271085617 0.1580557447774046 -0.34657826035959 -0.17329820069367607 0.511938129859097 0.6908467953530124 0.597415612907246 -0.0033257096786330487 0.6930290431687269 0.22592485599527287 0.37267553338649373 0.6564424809426164 0.2789459626902031 -0.3450336341624094 0.051748822547773715 0.2341349612509741 0.3326568762867994 0.21641621924830756 0.34182660325726383 0.3222911338111318 0.6373444729306763 8.214007397455703E-4 0.46447131123364227 0.17040668838194128 0.6767949749603949 -0.12211963215723656 0.2244139809507596 0.2528989653123407 -0.7067383013805841 0.006601131895267398 0.02496613732364825 0.306663781743551 -0.18835529080242974 
-2.3623190749524765