0.003468792560386902 4.745354193571355 -3.512708053238029 -0.3916824772768619 -0.0014478773383466148 -2.171766568649669 0.5777698494805197 -1.3047517368720358 -2.041923785079586 4.303635456388355 1.0116901910291811 0.697578968141026 -0.9451568768932695 -1.4758434958887763 2.0771086977834807 6.240687438924844 -4.973046654227685 -0.30235093036884675 1.1699541145723402 -0.8066241656363068 -0.6318996071099736 1.2109142950837608 0.8660641121369634 0.8407511888934074 -0.6325850398572721 -0.45170317946010874 -2.498552262968333 0.47909854676303043 -0.7932731147278255 0.5150505519174331 -2.456019677822658 0.3406358048440589 -1.034275185964044 -0.08370053074877992 0.6586693077948161 0.890290688059828 1.381261317091468 -1.4401944875518913 0.389708229378754 -0.028424797656834144 0.5558320292306284 0.4104012909724168 -0.420551624505906 0.07191281980260145 -0.3307524715379726 -0.7901627155883233 -0.03476540245167936 0.31031078457396755 1.1199143830810983 0.6364153789873297 -0.21486888290842043 -0.023942009134036546 -0.38955649225379113 -0.12077238489442196 -0.8590582294514797 -0.11419156411810927 0.6067624051280227 -0.11452178797171064 0.9070328363497946 0.1321346004076701 0.7274449001398271 -0.3335595269287055 -0.32352735683289335 -0.8268088789074585 0.5865504831822355 -0.07075861355569801 -0.29123923656757844 -0.14179927578143003 -1.458920193580896 -0.5707874976811143 -0.1225752796757843 -0.0963612144077104 0.06297987125224047 0.03805218077163364 1.0619754357778326 
-3.5520221465387207