1.150899776914219 -0.262583062341573 -0.7629979144588162 -3.3507001204434004 -0.5540699909051967 -2.5684545305339643 3.365369086232218 -2.0683015712713755 -4.128399454522473 1.7166556032477303 2.0302670823791975 1.587088094094036 0.07055266991796505 -2.0034478576228185 -0.07623014353528357 2.4669143223515144 -0.713374234374822 0.5249370970064877 -0.19893113120994466 0.7958436677579315 1.0885959366279943 -0.8470693993519016 1.1190919541385207 0.6984921236602744 -1.1943914117304062 -0.6683947235550451 0.5231864771259855 1.3298958828817442 -0.6555694355869903 -0.15609711698286893 -1.600871737668618 -0.8113736989544227 -0.5954641332741044 0.07704324041713329 1.1573123146707818 0.17425864447145784 -0.0889813823683906 0.9311325275172466 -0.6182240853034964 -0.09415927544876079 0.900669078253103 -0.19922886638300785 -0.6184884129601108 0.5607771457844806 0.574063557548671 0.18150915461322725 -0.3087021745353339 0.541816579075084 0.6605649879801405 0.0703055389402438 0.3277310220537943 -0.008948067576303509 0.02959455197877836 -0.08608482143946261 -0.21211459451856735 -0.006340464315741645 0.47196943609482533 -0.8290310990767191 -0.12405164219925718 0.23814736042312695 -0.1183540771708082 -0.010369854359371655 -0.018252317326965528 0.3983285854096932 0.2500613688350282 0.11702669200857535 0.35101944193376844 -0.6207524495905054 0.22401437494877052 -0.40275511878489934 0.1490777960181262 0.09625556521582629 0.2166924617462181 0.307251534403735 0.10714763700410107 
1.8065768418026613