1.303452993754589 -3.0210048987822145 -2.1334478705147104 3.736995934964763 -0.6216859413088942 0.76005100715271 0.6707891263887151 1.8908251814615218 0.8671328530730031 -1.1304263730316795 -0.5254043473994272 -1.796632957763276 -0.33764481929415147 0.3051312551980343 1.7242640640805562 -0.23192213111082688 0.12850848589755515 -0.08805581426133069 0.13525897491829753 -0.45834682089578144 -0.08786139564071416 0.820091209403742 -0.8018815978144327 -0.19564990816220723 0.5202179243483159 -0.5301915086226927 -0.7992244435973579 -0.06150166466896573 0.404736000215825 0.09288895097901434 0.06750284728478123 0.6143469321570785 0.10832121782691273 -0.1273211777389195 0.0915398706984041 -0.025011348453050974 0.17544927755842266 0.19786936806495858 0.10766805204500601 0.43263627823251594 0.299740551511598 0.008844448225820506 -0.07915012600986715 -0.41994565566145897 0.056175714647742125 0.09039657770267895 -0.47188984686711843 -0.21510456657195648 0.07691755999750227 0.06790582259098901 0.1439881057598476 -0.10834659504964185 9.623090952138591E-4 -0.05447127916101338 -0.1511096081476444 0.02812948116587155 -0.03571760678845204 0.26904151070882837 0.04942989061516047 -0.32913906522729347 0.09004011922536292 -0.21635791991558873 -0.153033076432548 -0.14918497920611837 -0.23766652947894146 -0.13341944766099104 0.013966310203774701 -0.05865054831439381 -0.18826471715037413 -0.09369137840271863 -0.018833910774478102 0.058172927032083016 -0.10604145668767789 4.002376507628025E-4 -0.21655603926906014 
1.5153467995903833