-4.063233286824268 3.366398088717659 -1.1357862225335484 0.9470155964993692 -3.33127113794226 5.588841048389302 1.1124922535345858 -1.9217863099230206 0.44797334831988067 1.3886041640392317 1.1856116582052223 -2.1997662388104122 2.3059205520554604 2.2383298500710187 2.1008141748077227 -1.9768982857871893 -2.29465951577272 0.5492973144365438 1.6065667838796807 0.2228858782036414 -0.7027168877424055 -1.419701455619967 -0.6926419110910885 -1.4440065975645846 1.2882577668726434 0.31487033548626775 1.3005237399871956 0.13083425356002115 0.761339949323691 0.14380206920140748 -1.7800147061124785 -0.7456389329067776 0.011941487718253985 -1.2697472121248419 -1.5240082246109878 0.22511760260886082 1.5458176520681124 0.8110643424232504 0.647633147208335 -0.16488461955874656 -0.2168938675490989 0.5424091230070178 0.4124457312061299 -0.2639534021965182 -0.4211222437182748 -0.45118959466805414 1.4226847832748168 0.12341565298710061 0.6859198958813169 -0.7450916212924353 -0.5739714114826158 -0.6793655007718307 -0.026853051828629237 -0.228262803037352 0.41087950453537037 0.2479404163834677 -0.8238479928267534 -1.142895020009539 0.12224187651996714 -0.4531310501948647 0.10266599597916523 0.07559923413355307 -0.1296252005504997 0.03853229994848656 0.27784084681740046 -0.4488095373398219 0.5757480650930833 -1.0295849783319946 -0.27005948057626006 0.4347678931109774 -0.5939800439110575 -0.6719120740274055 0.23779183344412608 -0.029630366315659462 -0.08589542438532222 
-0.8744598961677299