-2.86708518894892 2.9266570485045342 -4.242516580008401 0.9041768116175982 1.5790304764550744 -0.7619924714205424 -0.7583781728669279 -1.2151703756902654 0.8709408397225435 -0.056655511461309316 1.676134752251388 -2.178776292014769 0.2976022984626905 -0.7717731944763517 -0.022443598947425203 -0.648306971313313 -0.9315520579718559 -0.2858794702160803 0.068167990056759 -0.2756520322375975 -0.32388946704027344 -0.9286010998162173 0.2779046805587987 -0.008458598025053471 -0.134544347441388 0.915676335584999 -0.14748119915214408 -0.25222680279650944 6.190362388170667E-4 0.4052419974826452 0.3698957770924153 0.3095241652753997 0.024849506988004255 0.21920096129113875 0.4165092857349146 0.012894755827932869 -0.16419954018316 0.22867593950808895 0.3305759616732076 0.15526177832341448 -0.37678894722524536 -0.23730615808536054 0.15941653719669746 0.40140294441255486 -0.13212478525708082 -0.07349383647298335 0.5925140023060774 0.47959614127455963 -0.15992730118562246 -0.04881359777434641 -0.03914446055570378 0.23646134927288234 0.18103814769236096 0.2845000407007846 0.16458878429351387 0.0012554684829603757 0.5651825834127839 0.3531209274192542 0.36057569330137973 0.20324645381682202 0.41025782251535753 0.5067808930922906 0.20255369198957063 0.11861269745940622 0.10373380267957769 0.06102076103297166 0.31131486577927403 -0.00807593388110503 0.21352718890036054 0.1559810469801927 -0.3166359747380815 0.07726467118041463 0.12686134191184056 0.4001785662694909 -0.2926328548197165 
-2.3914853841146853