3.3408850992803165 0.6270441587789248 2.754934753328376 2.273018214945137 -3.180137016121384 0.42023165018683817 -1.0740600429436005 -2.4030363218451645 3.4379374306244457 2.1451433732907406 0.762680053323909 -0.2921107157741234 -0.8433844790155687 -1.1108106022043966 -0.28756187572853653 2.2640956722135988 -1.7466664546939321 0.9295693611569479 0.9227431509219783 0.16967672090169364 -1.2599997848705258 -0.1993898277094106 -1.0144189154788945 -0.21340627433238968 -0.39883323020128636 0.49102140785352705 -0.05500361850197878 -1.1814041144117335 -0.7426647997944702 -0.15858500607465711 -0.14818096213251994 0.36355572857520113 -1.0024216504217864 -0.2189589580884091 -0.09137558835072876 -0.5300569035186382 0.05927974045767899 -0.9743637877417324 0.19097050552852018 -0.6211563097434661 0.2141116714758805 -0.003559116892657886 -0.19420741396860025 -0.4336650012106129 0.5364178997788476 -0.6364364988619904 0.40817668806668617 -0.30204318924632234 0.10634607950398176 0.08619932927003471 -0.3659536690354946 0.028320269194451075 -0.19903075722542102 0.03969547172092471 0.22765536384501453 0.35609604864198974 -0.16310651853315938 -0.22375431710883753 0.3332484186202701 0.12363291948663757 0.6347791135480036 0.6778616201854704 -0.4422306980294712 -0.26218127051729856 0.2067699245730109 -0.558042669497459 -0.3674642496456516 -0.4045964975967385 -0.033639759122858076 -0.02140224408889257 -0.3143797036116615 -0.0013012645505585396 0.12360365581026508 -0.4165464554247376 -0.16417296122153335 
-3.741069487603649