1.1045401795239727 1.1937854249864301 -8.06510160666069 -0.7031119127985832 -1.0970109203061984 4.045478300373544 1.672744888518153 -1.8947856219068024 1.8550068516043199 -2.11390705910683 -1.5402193146205396 -0.42080213311891823 0.8113976372499229 0.009102297084134348 -1.0708679255638236 0.22524569178336185 0.8847729762091956 -0.7951804144563275 0.25408172535529294 -0.780067075008607 0.018829664842194394 1.2773921277185516 -1.443201226557563 -0.0699097765174625 -0.8968054472527633 0.9613370984518722 1.0692056568403663 -1.3643385939719228 -0.7437587449917604 0.8086781817394006 -1.536306085616539 -1.6983367807174203 0.4361537692478077 0.5417581910734797 1.4748873408764034 0.599999229614427 0.8624473427591764 -0.774917302954718 1.0552618153202316 1.0477450394564638 -0.39277196042526996 0.27763229948184254 1.3111325664063311 0.8985215435018667 -0.16665883296905992 0.4024688358878956 1.1509782188667619 -0.037603597880599804 -0.4026569429651883 -0.0761978236893519 -1.0884794124794843 0.6138542973416306 0.05131675540181513 0.10271764916372436 -0.23175733684804578 -0.7422518386145203 0.032510033614831346 0.25887109921811424 0.06323133238325634 0.9733283987627189 -0.4370973866716884 0.7900016694170865 -0.09835735277324731 1.020022189906172 0.5757210131561475 0.43894248973170874 0.11176735573085572 0.08788459722473457 -0.014927636761154717 -0.24779470924991603 -0.44507885596230345 0.904834328674056 0.1892751169163383 -1.1634325028892318 0.08883091088998041 
-3.024950492176215