-2.9420519734092494 2.903090564815912 0.8934003486308164 3.494605763768101 7.73136175784656 -0.9264837531174148 2.1731060160106814 -5.20674304345504 7.80249002977239 3.0164732402139958 2.694938959666435 -5.509652150596585 3.5903292248945347 -0.5955985249969675 3.1505159517310632 -0.531942925360827 0.5519962625893609 -0.302545115473948 -3.702509365397172 3.304883333995699 -7.014385550670397 -3.14051148991693 3.7652089511061106 -1.2509384788221567 2.6514283865553887 2.5731016220461473 -3.9421712301693885 2.0722482385294283 -1.0312181517131096 2.5536026786283563 -1.9888877365693869 -3.2728010590977843 -2.9526653025664835 0.9977328653180564 1.1954111992076575 -0.7655299241960849 0.12337042178897417 1.9531493025615623 -3.0698818825593133 1.3560835421918584 -3.213380561833404 -2.371955839058918 1.7640467302754121 0.203904712782482 -1.085380922487614 2.3713263778748406 -1.1270244372120115 -5.078192028632171 0.1654402696904571 -2.9113992901864467 -0.09701429817385598 0.918928387130999 -1.5387096953956694 -0.6488130050656581 -2.143859918777853 1.198436709009742 -0.42778279814249 -2.430374205831312 0.8946992971449422 2.392069451750368 -0.46039311467941335 -0.8197605516288955 1.0476228469567301 -0.41335271814155616 -2.0229957245137697 -1.365404947273312 -1.9219433101316303 3.0949996327765783 -0.5475185135480927 0.8459897544251975 -1.4522270333284466 0.6094157274683254 0.7398115060304131 1.7400400901148165 1.6887404168304085 
-4.588632380423101