0.06290413692067176 -2.991571929614693 0.6870440358019065 1.5535319035930515 -0.6210959830065779 1.8141936233522808 4.354307264499038 3.440272469761394 0.19931953431243166 -1.036442096324148 1.159706363889509 -3.779779435764755 -1.081442816240239 0.2600054778210573 1.3703250735558241 -0.2689402897296319 -0.06625987482396711 0.8311281401577884 0.5175459625610395 1.3001678259862373 -0.8717078616355058 0.31316352666240244 -0.7945619854567167 -0.07384119774007925 0.1669923947095855 -0.299742859584773 0.057946117485378146 0.8718898608671871 0.3967793489177124 0.5487916787656024 -0.16261072119129716 -0.3561953035231303 0.474397786167151 -0.5968552333698842 0.09870810097351358 0.38715378494155406 0.3795842922124484 0.6147164671655201 -0.8917965166842252 2.0294144208368476 -0.06783943774977708 0.01202362532324569 -1.5666836114640033 -1.20466384735204 -0.3204108093791377 0.4295381419319364 -0.6125116024664268 -0.9105584376781201 0.047627329833957566 -0.542790066659815 -0.04661493056761379 -0.8917961957708169 0.5532652427118148 0.5736679821561417 -0.37643636284293425 -0.4200213364565294 -0.1838717096001301 -0.46860391496261256 0.21134373933197279 -0.14393927541471274 0.22505585409410273 -0.09563732577528683 0.21153296228698498 0.03755480924001264 -0.01475112003216432 -0.5925669055327258 -0.25269743127591293 -0.5335278469328723 -0.09701317647005259 -1.3213822263392037 -0.3739267544760088 -0.41314850762960786 -0.24189015285043403 -0.03325155994741524 -0.5722206285113471 
3.664842316318706