-3.688037652062353 -0.37721848812002 4.896592092392533 2.879296646056206 -2.0718955740503744 5.01061135005804 2.861712672760888 0.07853583449165902 -0.010367664067270521 -1.8055198407585178 -1.3955016722296123 0.9018917201724974 -0.6767079257314182 -0.6069290580689698 0.01756666365632087 0.7391951708763546 -1.15066146031985 0.5904597366198685 0.7944583186926859 -0.28078173378365595 1.2789313785787177 -0.6417246673406715 0.016676201437493765 0.7882034545243151 -0.42730888579309967 -0.12830571576286154 -0.7394848114166106 0.6118990657364631 0.08738628196147392 -2.039454933102758 0.17425486311843624 -0.659779371141906 1.107195101997177 0.06774243760348503 1.0764388093900215 0.20979079917426974 -0.4514158802305934 -0.0694165369756331 -0.04389847844871851 1.2314199336401832 -0.18483904654190456 0.2241495882720393 -1.1575908919586415 0.6588595453313089 -0.9817111382893688 0.16059743290681672 -1.1062614282714092 0.13875064544833135 0.07310464087269287 -0.36816522269162405 -0.8885346736834163 -0.2585469140389026 -1.3705370493161917 -0.9856800316697634 0.6119070877752006 0.32767428125121134 0.07094946389434587 -0.4295168080870131 -0.10409876423766598 -0.10851618038079806 -0.40774092321177524 -0.028233333829727453 -0.6434602214904082 -0.41080867380952235 -0.4991929505743573 0.46985996556833315 -0.1345452530848131 0.014768190457205899 0.061809107999103496 -0.06616119781534102 -0.4797100768928475 -0.0839045865338478 -0.19666012433448415 -0.10562419832266312 0.03176155575575795 
4.666617442788569