-4.361485625440182 0.3025624037750739 1.3268879857014133 -0.46842433899464236 2.277599073451956 -2.1459213879922463 1.3990239405213936 0.22806500176405525 -7.002144134638742 2.019309883218558 0.011522794530423625 0.7063679362017662 2.1476779703751294 -3.430205716976122 1.7110689726245607 -0.9717721029329366 1.4248573448625914 1.8158444852657925 2.219703825473737 0.08918974698191752 0.5181836622612347 1.4249839885652857 -1.6439273163328887 -1.017081874551785 2.2433912947886143 -0.015350851916149275 0.1477274184797849 0.12607704205131245 -1.8245787467931138 -1.514523342022437 0.19894900175022842 1.685497832212341 0.27495446515399513 1.9986742587881432 0.3274434567146625 0.3730922359725996 -0.5794531831221422 -1.3984117492221746 -0.012318769393236121 2.024539360713295 -0.2989662603053411 1.2845373517060545 -1.5333406475464921 -0.06972783468235681 -0.15509327366034134 -0.4769173018411167 0.6560401359322532 -0.98758774101581 -1.2097289563484976 0.01235237845516074 0.3844273595581228 -0.49029807281554844 -0.037871398189897314 -0.7217300052356331 -0.35436332910618035 -0.26982488852968245 0.43729912523217196 -0.814437961551132 0.316009547027163 0.296751567823196 0.053579950685014886 -0.2058591679533042 0.2793607311618225 0.9675600917845988 -0.4860544389918729 0.3960890813811391 -0.3133838206706758 -0.29723338831496576 -0.2909921627008274 0.13212028698170705 0.5208606027042116 -0.5233142159910887 0.13961844227149045 0.2921362484229511 0.730385722452716 
5.477675415459665