-3.9507742437588487 2.083754587992642 0.8313274576538837 -0.1772830212547786 1.2614216948232373 -0.7902433279791479 0.3743921654566258 2.5697603142886005 -5.1581244599470475 -1.3514691830209624 -0.8408871131946033 0.3594415882918328 0.6577091228367062 0.5674976984871841 0.4232214203056844 -0.6918299191922814 0.2258451488378006 -0.899388588710491 0.45086374211334856 -0.11371902468672843 0.532620805672646 0.6962986926820824 0.9696740225617428 -0.3072971071415069 0.65694693948988 0.05905113074577906 0.05558207894440887 0.9466202091518892 -0.44691318842248745 0.3168110091562129 -0.35524425435298623 0.35154757802579817 0.21788229438679113 0.5118777619434443 0.06538540731196364 0.5896625536408036 0.03347572975348989 -0.13125089090014735 0.22451159799741546 0.1962555605203276 -0.3438477281556672 0.21852040262043013 -0.003023429047823635 -0.3724421100895451 -0.09539214535422241 0.3020800635335262 -0.34694233465552393 0.3976073271360188 -0.3671026026689007 -0.1538500716611946 0.22291826012691596 0.3535538092211586 0.1992018063164855 -0.20577528008269974 -0.11771954644826113 -0.41140746326128413 0.5005732746101397 0.012345127546338926 0.07537794469815312 -0.14250043322316744 -0.3810804287314182 -0.38693448856311535 0.148275985823352 0.14157058995255103 -0.40525164233236005 -0.05340224418731014 0.0925201779330346 0.5594741274910238 0.15294799108757826 -0.1875914637374112 -0.4792857852802567 -0.12367127444889778 -0.14951436987589695 0.18319753674673192 0.15155642645132636 
3.396212759799816