-2.4796000358228056 -3.9643280635198597 -2.821917098572888 -0.7771492724248803 4.2549002066583705 -1.1649576991271422 0.6727307009801491 -0.19293706547603195 -3.5859480445820386 1.5676023093164386 1.136935402472168 -0.3583385877401257 1.612271728092093 -2.068993418097133 2.11307001062416 -3.606520707090903 3.372859696433431 1.2018265894972515 -1.900707047469006 1.1336334923901945 1.8487776010259016 0.8525558363301502 -2.46228793349882 1.525171545593117 0.627280926796426 -0.8810854023994715 1.0407346956784729 -0.8186538408624943 -0.3215806148890546 -2.111822626899648 1.0889359691429512 0.5530346003533914 1.6064726155528748 1.4867329180002176 0.5463639653091518 -1.1245278330352164 -0.34698940730836525 2.3395911964106033 -2.037750521042822 1.2138878481734088 1.1713104585168639 1.1173370639546447 -0.21163711735850244 1.3054908837446695 -1.1186992242719642 0.8292710952369771 1.3323966758771848 -0.4477800003805483 -1.075078167859431 -1.5021516896940643 1.1297861777209173 -0.7724604562614135 0.427230036773453 -0.4769486555013246 -0.6351369225260822 -1.1166249670070345 -0.6331357036267112 -0.43555846303332973 -0.6204851632749322 0.27979389847609665 -0.15225881588392304 0.344982307704965 -0.3162331647496681 0.20042202463126396 -0.4095353613269277 0.47302906242426523 0.39170230609314916 0.11271133311286818 0.9281407071242331 -0.18641137413303233 0.1333147905504759 0.4284709344882087 -0.7184220158749252 0.8258522267764852 0.6280406445849632 
4.825511734031325