-2.3689435482205052 4.680533296300944 -4.184689271717089 -1.1011970746455626 2.527313843927336 4.033639803001756 -7.127184073925324 1.7454434908029575 -1.249702111717882 -0.617077616221666 -0.3878633234838318 -4.8363017872630545 3.1947376848113995 -0.4191988721142324 -0.47372203723093204 0.9271148367212817 -0.6303479806910783 1.5288487122705199 -5.900888769693921 0.4662821282402656 0.019500371355501978 -0.15561427475132547 0.2180730251452476 0.47360075883037533 -0.16108504394782025 4.000897116788907 2.2667830108128344 0.5829402349630087 -0.5070130388931757 -0.15500684048665014 -0.3186553729269105 1.361071798710928 -0.7927807138590828 1.1934742974145232 -0.4981355513571033 -0.36501628657537094 0.9980701769302103 -0.6391039499482598 -1.8688989060620453 1.3569999599493408 0.23167580527685547 -1.2150927902154498 1.2609598617910445 1.7538778297304005 2.5759219297407854 0.09015693623560331 0.21515789003751168 1.4762676732172442 -1.7665988540932347 -2.164699692094891 -1.580471451374736 -0.4126391852360779 -0.7411554150148429 -1.4572559400749863 0.6497848129589165 0.44536929948292425 0.5056232934261129 0.11914599551590635 0.5936149831933324 -0.24958440498132628 1.9474942992004982 0.34455554831645263 -0.08718016310537938 0.3643169715463146 -0.8219939886982094 0.6781928840852571 -0.9251226049285407 -0.3329999691436516 -0.851616838954234 1.0824812952927352 -0.7753316595006254 1.0524080291070146 1.3321061015774989 1.0385931365826704 -1.1928597201434514 
-4.968904227022559