0.6726238245978085 -5.482784056900705 -1.7635822443101357 0.25591275120832724 -0.7932181690096107 -0.13624055213734465 1.4326193009906985 -0.5813490485420952 -1.785674181540823 1.8035300434434087 0.3754694429950105 1.8289298844493356 0.9720589882369046 0.15628840431815932 0.9989051400079079 0.04760478216910724 0.43720922653452265 0.5065337263109184 0.25139307436681324 1.2067135337642894 0.7076488130949752 -0.15396726220595913 -0.647343241930328 -0.5361272283461489 0.7668987770974016 0.33733230924631 0.5804879344662399 -0.11026025499574371 -0.2902273528390862 0.17886268063027516 -0.1264821487017636 -0.5802238011793708 0.3842143386469321 0.4126993978295762 0.22471210366255406 0.6539931792506581 -0.6527204448006727 -0.27061148802800417 -0.6453752499439946 0.8499545100401691 -0.2972025588072324 0.4103159014431198 0.8367428357531806 0.0021153422570663882 -0.08775062719285309 0.5264276061640489 -0.9484849979654086 0.13157821964032196 0.4663141254723351 0.09689300982211363 -0.33979213514828865 0.35655687164028366 0.4851690014247122 -0.5490725506818568 -0.0027507467621082915 0.24431766443229894 0.3030660975232017 0.3182779815627013 0.0806342887348267 -0.056491392779371374 -0.019223970714283268 -1.1475430057782778 -0.011851307948983258 -0.6142885577032713 0.032424795923584604 -0.5104870165383184 -0.2121759035410039 -0.1289783658325161 0.29061359985046475 -0.10214173484846512 -0.211280928352545 -0.4224692201634169 -0.7104554460630301 -0.022977061240488483 0.32756074447092787 
4.97454553782567