-4.043646540551174 4.452318246692098 4.947155123125774 -0.8622058946129807 -1.2958647386071607 -0.08390564273379342 -0.20260223139443534 2.4445937585072963 1.3024001187466654 -0.9409910896513017 1.214949398543264 0.4303826089382419 1.1952261340951735 0.9153762557333327 2.3808681205899163 -0.057497633143951066 -0.8683003523477527 0.6733151168698739 -0.697092905809098 0.6329172137186385 0.7548067485052508 -0.45942962577497004 -0.01894111016763217 0.049363426461569826 -0.5482863028077807 -0.030633859817371933 -0.34558386967888155 -1.2246480890464682 -0.8374474959094571 -0.899803672880735 0.26072660903417266 -0.5848573907886753 -0.7225662502863276 -0.11875767802815584 0.7383427778169973 -0.8776571665404491 -0.15039731170050208 -0.5598567012726785 -0.7356456718660321 -0.006815917280852624 -0.042653587489797216 -0.136967239760913 -0.22628287377610695 -0.31330864130220976 -0.5249500370838862 -0.1364212852264033 -0.1314325255722798 0.358956913541112 -0.3669508437049142 -0.32886392722658886 0.29870468238370707 0.33664352055599617 -0.17077591012032695 -0.003278462922737424 -0.26762370097424465 -0.4397780980641394 0.1600119986267721 0.3628475904017265 -0.3236674589098622 -0.07722949764447545 0.05628204607816881 -0.20444949805838955 -0.3683439011266532 -0.19879570827588133 -0.1801700231966309 -0.21565463363129422 -0.16339726164576354 -0.23777915164679284 0.20247862593219684 -0.1810983201077186 -0.0014180352339595702 -0.279578341262956 -0.8162292237334665 -0.3382133750208865 -0.3199203294800466 
0.8542646310835772