-2.4879827748739594 2.2248442261092025 -2.230027761131999 2.7400986695075558 -0.712468729977628 -0.2572870398112476 0.8169859358839316 -0.37198310629176523 -0.2888350425123217 -0.5084398030922153 1.0657524074802793 -0.01095497373379467 0.5046847960227979 -0.6526954158185967 -0.44206670105735957 -0.2306457471861345 0.08387475403049244 0.193757883249881 -0.009089569246185536 0.0036358665179177033 -0.1324650473129898 0.08906974889083778 -0.3104947324650701 -0.27934962514969036 -0.5069211017123522 0.5123297476925566 -0.6352330629495107 0.30216090717044364 0.2835164933721902 0.42504041793359404 0.07279928625464975 0.06953324974979735 0.06494363905122183 0.3360395183066504 -0.15807207191757316 -0.3150142568165462 -0.20719033499881093 0.08281049142952533 -0.04015664586065562 -0.21394846324973185 -0.18568404781124268 -0.22046208920603935 -0.1393129301468328 -0.12768024833431743 -0.17899498345493273 -0.12444048684516379 0.2707033478095997 0.1329223404793905 0.08543757391418735 -0.06194829774028521 0.18045653892169478 0.08259319853642957 0.18948019808815517 0.027371323370643866 0.07900392336911057 -0.06412804061172417 0.11043613566133298 0.1981132663425417 0.11921193516172303 0.1366916607834981 0.22250223798790286 -0.01077544436450073 0.2855217936902412 -0.013597948046525747 0.043890055794836215 0.0017208600573349886 0.2300294862284029 -0.04588260577423026 0.11909703176884644 0.0903185237952226 -0.147738139447695 -0.010884681997519331 -0.11536427712526551 -0.008393905386915798 -0.02076933695529816 
0.33832126009224883