-6.219877701501888 1.7203371433597248 0.6834096889554897 -1.5321739066915745 1.8421183284397835 -1.5084415404198284 0.5757528697869096 -1.2632284934575182 -1.1594800611998384 0.48760227215028484 0.030645946223387566 -0.10627327754672022 0.035568415610512716 -0.8400415987927177 0.5155678454205052 -0.24150532982485848 1.039251773599349 0.6521295746460227 0.33745640020120726 0.7488667174027128 -0.058177096090974656 0.7597769117026529 -1.4153472895388357 0.4480852106113287 0.5174769795083416 0.008068652051095498 -0.41567782267952175 0.05134556303288226 -0.5099563552527333 -0.47396231515625575 0.02093744906716473 0.2038955714898389 0.0052427110845618685 0.6369704232186768 0.060799297392300736 0.07839986063934479 -0.0455817814645183 0.05754206915468385 -0.020320468135572978 0.815431876618463 0.19099182946803697 0.3871816839635095 -0.18259490803722656 0.7155094108623417 0.21158992362640514 -0.007957609097804075 0.3244936005691663 -0.12472457557672181 0.009409759667033587 -0.03133859025763455 0.3457936645500874 0.15433262217544047 -0.005093669222830999 -0.3711626932009099 -0.11744616377759215 -0.007750085495716388 0.0029991031881070884 0.10606675084472006 0.1372233631978001 0.0786176724728063 0.2764777777258918 0.11528694693487003 0.0011262511335908554 -0.00772569767083317 -0.17947103025492178 0.41278200334899234 -0.14919399643809336 0.13088843407002643 0.23139396011016702 -0.07716112173011942 0.41450587048808407 0.15295211752392385 -0.12313218884306301 0.18731442584274277 0.2751806442258554 
2.9198424984833906