-3.0559996503081557 2.7413002472186694 -1.4367092661206682 3.9773307389837207 -1.4938756371219064 -4.421904642195974 -0.16130952509559737 -3.5854319399699124 -1.5949773587544502 -2.085995166486289 -1.2357594934779859 1.434130470722726 2.645093205451147 0.042361819790860566 -2.258626106468287 1.639863233221202 0.4275511985076559 1.4050914617049821 -0.5058902416816645 -1.968796284914625 3.849189549547345 1.0205747252055017 0.8151573091753158 -0.48721959505286416 0.5057305267779492 -0.7270111424155937 -1.5309731162810896 -2.0187141737512273 0.2929296811137725 -1.198821076711787 0.43926445401896996 0.903984761691652 0.9875834887203672 1.1153095783321323 1.1564335889118178 -0.6017547200289062 -0.15537275464246858 -0.0644497200758023 0.18194239202945026 -0.9388741015023752 1.2453024251554512 -1.3531978261708193 1.713535448859407 0.21897216350978832 0.34456976778194404 -0.7856111203550961 -1.0924606214156654 -0.45068052978202405 0.6973141887231342 1.4544548228986303 0.6696094738195741 1.1259652300017589 -0.6505066138870661 0.04197597851087133 -0.2453845384430689 0.5390184395849642 0.5042634689983029 1.8001224194832592 -0.19000646858173798 -0.7082513778406654 -0.5258459707453854 -1.1569414234532556 -1.132490776844734 -0.6358930304808201 -0.008650930448651228 0.7438304477657347 -0.6174728581565895 1.233022193161994 -0.007606531455794596 0.33241552105985084 0.2618790670050917 0.7076876779363812 0.690274859989062 0.03935076652110425 1.1450795392275195 
2.275844940759537