0.5227402500695888 -2.262953101311382 0.5400043621203299 2.4924743463034313 0.8462007549703436 -11.629058771333519 5.183414772631767 -2.2486574964912793 -2.714334085504607 0.9790974826314693 0.8384438776269074 4.115603600368955 -1.9559012046310977 -5.171008839200253 2.2910100303938092 -0.7444769613058342 4.609116034290921 -0.9312766465557929 -0.3389059138169239 0.20492082825082614 -0.3887180282052167 0.7730637380634695 -2.165715328245869 0.6471344401680006 1.507576853413262 1.940234140711674 -2.4490053761139414 5.627483654758366 -1.1622052831363372 4.068295819448154 -0.2350959618044437 1.5384247479859563 2.005733990084002 -0.978402216851677 -1.7344732504323925 0.5725691427616129 -0.9586073261740815 2.2140907585033407 1.099398027739935 2.010027758950579 -2.8705089504778742 -0.743511349396654 1.5608285315144008 1.4772397688581105 -0.4300864966953779 2.1261101414531822 -0.06773735035185813 -0.7904301369657682 -0.48939450070045787 -1.0583013094508964 -1.434886832218627 -4.495607626339776 -0.9447445710824991 -0.8648540178257591 -1.1444946184221525 1.0715023719104364 0.32774780998914377 -0.6558681922336518 0.6912443873328341 -2.1486634365544566 -2.3926484471636846 -0.5539882602060335 1.0339453955974216 0.13458459798877093 -0.42503777489583305 -0.3667446932416393 -0.7122746985693439 1.5680545146553375 -1.1342425394237226 1.4196158102958552 -1.3481297607190712 0.47108893126698925 3.339276797805694 0.762960172674493 0.5296927104602736 
5.33783472811753