1.2216645590784507 -0.6522442697724156 4.685265486675292 -2.1432013102786582 2.899091249816735 4.315544482267943 -0.72027404296932 0.7354118180160705 2.8193172800548925 -0.8311182262033128 2.128849558691001 -0.9928810479146404 -0.5925207260160494 1.1786026528690439 -1.0681124984634114 -0.46488294943385955 -2.4177531822436844 -0.10824861375268607 -0.5001536682597567 1.0629003082654962 -2.3552172127183675 -0.23223361498361728 -1.1824721193081054 0.6059307968029394 -0.15496621349392758 -0.6732133648344577 0.7350834973269469 0.9626708740429551 0.5309018543386066 0.4436998564978901 -0.44797685068178394 -0.33469981192745824 -0.8370396435448898 -0.10770571830627917 0.5903169537361047 0.8124381919632897 -1.335327267289739 0.03753029819332815 -0.31164413419103804 0.8455268263977538 -1.0464796142428552 0.7139329769772906 -0.7892871060330364 -0.5186239849067615 -1.2317675416505336 -0.07673013312248878 0.6203853837121314 -0.23143306679067444 0.10518986661180918 -0.9326501860699671 -0.19041957372632795 -1.2173203549848606 1.2031364433667928 -0.29671166698465723 -0.5011530586695335 -0.5970701539706067 -0.35006088584778566 -1.7947409864910628 -0.2887104193480829 -0.1231906317469731 -0.027284265636449062 0.1441550376357401 0.5747840856296331 0.5471814441781475 0.00936565359062412 -0.8172042728673051 0.19115729120971026 -0.10376446251849036 0.12681505514578678 0.20889066521731228 -0.1599269212215318 -0.5059643778303609 0.3447529695763198 -0.05383274178594338 -1.0822805248522986 
-2.475783185040573