-0.8233298037926282 3.7875817565397902 -6.153182066708739 -2.0391711820762333 -3.4913849219582134 -1.0228680150972544 1.1548432547230032 -1.090212225163852 1.468411227308101 -1.6734904111011308 -3.596834480085405 0.28252218360278425 0.0013014284006065413 0.8608898871713737 1.041135097220138 1.097258195814979 -0.09933416594325717 1.4133375433994146 -0.4750365863864634 -2.4589935289162606 -1.4316032964777818 -0.9464115375691351 -0.6064260508817504 -0.7464622190938304 -0.8161586928666276 1.2861201547704812 1.7548238428258394 0.8967852938454822 0.414008475690876 -1.1780412131071412 -0.39194291464274106 -1.0111764586340868 0.38818351695223763 0.9465845303641236 0.533093182579632 -0.19466440388984618 1.1475174098391248 -1.3151480109102311 0.6420738026019763 0.3725126139713657 0.2602722872240284 0.5239068415435367 1.5366064067643894 0.1983368189167516 0.21754957510281803 0.8289119340754723 1.4815814421377262 0.6215155130647477 -0.40835138749250544 -0.4710105137442302 -0.5124150045114155 0.641705070154772 0.7542052572231381 0.4247858771767769 -0.6551804221650882 0.32253814228823174 0.394421324652016 0.4836816699818888 0.7587247320535991 0.935064520151653 -0.29460760386202134 0.5102267970695971 -0.4576756907096907 0.6045110044671717 0.40381875212791235 0.6575833326797107 0.41270192656728455 1.4834002087477374 0.7630339030067452 -1.0235476105271257 0.2857174764133177 -0.45004234203700827 0.9654736708883137 -0.084413274724771 -0.04014184702421497 
-2.6861452195288815