2.6328420113820883 -3.66280117835543 0.7596724794742826 -3.0396386589032347 -0.1643220921627666 2.6077776336280465 2.877221738814196 2.7091060297493845 -2.6793713258140066 -3.1852428874718535 3.8286082979582092 3.1171766600031736 -0.28268763323098867 -0.4693502625606283 0.779322896022006 0.6167423856887424 0.806203353564535 0.023362115960014584 4.746387412844356 0.8628939993155598 -0.402576307559686 -0.8661710693165716 -2.471734439251922 -1.0255882436107682 2.3459379344682203 -1.7306235925268885 0.1354734943304039 0.6324680663463884 1.3973541087628019 0.7435116220148139 -0.12468118680306595 -2.7600921862317467 -0.3772168767051993 0.2943642163237108 2.6354215182246508 -1.6808558774201001 0.7168062715093431 -0.6763713037677546 -1.0689450314005802 0.6743677094330298 -0.6439213153616437 0.7453270353716036 0.3116131009136671 -0.0508429518386857 -0.4366073704620943 0.3223700738295512 -1.1040806433981585 -0.5656279809724902 -0.960664636247293 -0.7973561321732767 0.1202415164706303 0.33840462203013544 -2.9201610309048514 -1.5004749980656258 -0.03217395713726312 0.8934411601701719 0.17573859122839552 1.0477755937013566 -0.7454606819369147 -0.1870799126942042 -0.9008919784621657 -0.08836925842636356 -0.6870952870715861 -1.5975615057278016 0.16215652833556338 -0.42647314127752645 -0.2311135423130395 -0.3004766151252509 -0.18645151180190656 -0.7427382552160097 1.1991537164784565 0.3447477468563068 0.48022343230323616 0.6173425651151483 -0.9276647789148944 
3.6518082773495806