-2.7449122015389733 -6.247779387396273 3.1323819814509672 5.640851541827434 -2.911270055945664 -0.3287459873135574 2.874958873207908 -0.9778016980254317 -2.5114735542233833 0.20821912462351222 -1.5665838620044565 0.19714391898796557 2.3423945489332594 -0.03686590510716504 1.9546518172127458 -0.6910774995589243 -1.3488197131204267 1.347682373139558 0.009101754846899401 0.3307364241591118 1.4218786494220932 0.9003165054366438 -0.29178851146253715 0.04933562845763542 0.008412925381904232 -0.9486421554925261 0.8655504435233822 0.2192628278686241 -0.6113288423776635 -2.014604620859461 0.6744941853602051 -1.2347428033335945 0.589999941641806 0.6523563173877114 1.5792402243290133 1.9288169884821453 -1.312393665023584 0.5199374327553922 0.7573581884441435 2.1623199948168597 -0.22696080259459495 0.8478599999227536 -0.12756032295741315 1.1484607174718795 -0.5678394613399197 1.0725334309538832 -1.4376266347045386 0.18304835819499876 0.001497082822644595 0.16307904402619527 -2.4694359351773993 -0.5369746071227651 -0.048809850147854765 -1.9610111794053169 0.49665642077277716 1.0403475950001524 0.05362788301860963 -0.027872436993327185 1.4204487674046635 -1.0465846763818134 0.4659378140607381 -1.1032340559195808 -0.015523367832027624 -0.5189099848908562 0.43232893773109904 0.0016275606336973447 0.22053180432955757 -0.5730327546800975 0.1608714656337622 0.6225510267253013 -0.5917174221897776 -0.4590962661914486 -1.3799869417397308 -0.5396803094867675 0.7118769521392072 
9.759420853851868