0.6298089356846042 3.620643048190943 -1.9043896198894705 4.0788044694854175 -0.05516455228463535 1.3121200433751132 -0.9841766128027216 1.1277869579797342 1.4613596813490926 -1.5885282548987252 1.1041225677249562 1.458954693433396 1.1005422946199983 -1.4040594097189336 -2.4560300970719644 -0.6618126445780639 -0.07667580612213643 1.6550240720161629 0.62216997766099 0.2626877019869227 -2.2497111178404623 -1.1949791066204396 -0.2992806816426745 0.16083960403885544 -1.326720593811415 1.2995356596202707 -1.6856915910460715 -0.4538031868596056 -0.6024259509905092 -0.20989686522583043 -0.8712283146734352 1.304850882669759 -0.4835903455864172 0.1506415065905316 -0.8045712256662648 0.9870517256298634 0.5070273217314607 0.8640999447066018 -0.9703564991186366 -0.7064243376150465 0.06792747932436044 0.22263014282429003 0.6644876376071819 -1.1769293354077446 -0.3774929917383961 -0.37323991039059035 -0.11234198484943042 0.30857115160664395 -0.28450541115485617 -0.09338713835634116 0.3734042816794257 -0.0296761806797525 -0.061981652844991325 -0.7960653704872276 0.04433874236661842 0.04427246846788724 -0.17825505571269207 0.1588516764884783 0.0859203697764958 0.29614600583252787 -0.3019629160578349 0.1359635557270149 -0.46475308699017254 0.12400699152993189 0.05398406866537522 0.01889967435930054 0.8819376524973446 -0.19918231769593378 -0.7228911615440763 0.160488982739905 0.19573663454249077 -0.08772719287492642 -0.051846437514612834 -1.023725910504392 -0.22015773566253022 
-3.7688864663809003