2.2692223048573616 -3.295694713078049 -4.039073118234051 1.5845048558488122 -0.9863648631262274 -1.2108626242773246 1.1111205085539577 2.7167231939585452 -2.0948816769383205 0.17266041510262875 2.9872242509092097 -1.8352602068167974 -0.08221243361577257 0.5308617956938886 1.1487981460790868 0.1814697518646926 1.235942998182531 0.5214211401468376 0.5875023871128899 0.9105868842245306 -0.2513705266293398 0.6063387368701756 -0.680484384503406 -1.5082457540210905 0.9168881092518435 -0.6536848848658792 -0.4780924999330071 -0.12805842661842404 0.8351314209441194 0.7501152762610969 0.6285082333789717 0.24332831205911676 -0.2695969510859242 -0.423857720550185 -0.050612931162241664 0.2690501352911536 0.8687902269578474 0.22042890276140015 -0.4269433342611326 1.1827360783961915 0.6503163197173133 -1.0060384430844995 -0.22745539319278363 -1.4735246080741433 0.0745874984370799 0.49531851477906996 -0.7227190172830009 -0.7309039284639414 0.40236824773962465 -0.38400212271022055 0.738646820743474 0.09966159830763455 0.4568118703506243 0.7652327141397912 -0.44954421916215814 0.12157785747159688 -0.13007721427351904 0.7470181736331448 0.013863950553056857 -0.5382914380867 0.2478794058055089 -0.20089612409150404 -0.3059596728369848 0.023547000028510623 -0.2637942795450992 -0.2285021436174312 -0.17433656465665198 -0.3042992295599413 0.10600454844743645 -1.016130313830075 -0.23134273277270068 -0.11670013969971826 0.16679333311442984 -0.17048366249386349 -0.49868362082310386 
2.497121798869233