0.523518115182716 -3.3490273542539444 -1.85167224885809 -0.13538032346912526 -0.9663580468563637 -0.5650573034549768 2.749550713805253 0.4636854893617109 -1.3796788783023115 -1.1933813567388203 0.19234416359823048 0.9456636891331475 1.8952860862065957 0.2643162176568837 0.2603402990014748 0.29381550799659506 0.9575238390256814 0.10562137496254709 -0.08404829956705051 -0.5215980104243725 1.7353318180425892 -0.19743859000265906 -0.10503831803373481 -0.46373414792551143 0.27683958172956796 -0.7049212021092459 0.2197486444730929 0.15117568247161287 -0.23604689481008523 0.03206654017801318 0.3342936053807348 0.005684354301894179 0.0075359372311643025 0.6660576676756053 -0.26003742703286997 0.3322352137195079 -0.38289377641309075 0.5458608751247518 -0.09292011014947545 0.5102821457511864 0.10969720530647459 -0.28556345417364165 -0.13239376032411895 0.24140828043146983 -0.2758103810423114 0.15293156597437768 -0.07767096373276747 -0.2077855074542104 -0.058122569044336006 -0.1721528600317416 0.4501100657220578 0.07791657152932652 -0.05590288741620879 -0.03328363342897463 0.09439085464569773 -0.2984955029201463 -0.25175511025735087 -0.20339497077009036 -0.3165824774345904 -0.47485007864214723 0.04003880994306554 -0.11417391136480529 0.20578782525427503 0.03989786122516761 -0.02223058463891668 -0.0017543011945140158 -0.010996527524527122 -0.27405295769006077 0.4758446703703862 -0.17242338563955253 0.0931669182336643 0.09596033782090932 -0.19173266104111827 0.31159082408281075 0.262841421617635 
4.20496263707487