-5.521166897164877 5.4157939408389435 5.777351326265536 2.2339518488926657 -2.9485360811190366 1.3487947042272814 -1.5552725331464914 -0.1638968775905803 0.027364072398231198 5.516059969555607 -0.15738215946383569 -3.0992679641433893 2.2858761632074778 -2.0373075568430683 -0.7528019351897927 -1.4419815696734997 -1.6900134622088154 0.4679862958457323 -1.0236701005298492 -1.127538845737778 -1.8073845900755245 0.014088824715177277 1.0313219041584132 0.9355726608070547 -0.09134633239927238 -0.2498607123358932 -0.08261537440671504 0.5072570901613829 -0.7125821644744759 3.0979251946099318 1.2493645115804695 -0.33032394345445626 -0.8723581542483263 -0.16601390323925683 0.263292862830659 -1.8464092485832815 -0.23193882130079416 0.7892851271198198 -0.35928859962149456 1.1203429292065878 -0.6326106491655673 -1.4575969577109946 1.120134850982352 0.5578494336773582 -0.8904032225898242 0.6375499670575684 -0.46086644153060713 -0.8547074275422814 0.03583732893939649 0.39174140136585667 -1.0372760494469828 -0.3201002153874584 -0.442829341267755 -0.6082043691623575 -0.7065191490477689 0.6306761191717823 0.7278898346211559 -0.14103822134884209 -0.5631943239166315 -0.4019864095504459 -0.36251899269274684 -0.1637073852251405 -1.1076320144129945 1.1529000456185288 -0.056729404198630984 0.23386104455348683 0.09590838824898185 0.3264589227344158 -0.6891028778028374 -0.16936483714600659 0.26946271598372407 -0.18753861993413484 0.7064662305500892 0.3360347383691892 0.2184842877356708 
-0.013467935026000855