1.9123142737679766 -3.942774583097381 -1.0875135826890343 2.119630394688663 -0.3993057344907007 0.5497227782167284 1.732516743073268 -0.07385933243055509 -1.899745889147953 -0.485653063348505 0.10964262012292458 -1.3289267020814797 -0.4094604873682678 -0.18581758275591215 -0.2667865654628816 -0.08489999296219414 0.44174123063633675 0.2243576427132512 0.2713454704811469 -0.14223302405949534 0.001962017241122105 0.4138597219985856 -0.17513282382534123 -0.2909059186131284 0.4535655430002058 -0.3241389691507144 -0.008838355538319714 0.08937961912353265 0.42439193391000446 0.23150974461325682 7.537057259882074E-4 0.1530618868521914 0.30644014525673025 0.2672092101102368 0.034318106927655787 0.2561632119216367 0.2162481471999125 0.3271100682582365 -0.11005236461332021 0.5727706988271253 0.37295415302234114 -0.183077752096873 -0.38232353270487335 -0.19946756194754683 0.1837120900250256 0.1600565029297225 -0.4959136918883331 -0.12281284453261349 0.14711320455133076 0.09545995475482646 0.1986305865198606 0.028159546460575197 0.037623344635584616 0.09260070545090546 -0.10995575754481356 0.17980853317837003 0.07613464699469569 0.18472309212289753 0.07824504468261848 -0.16678982209357782 0.10679212022653103 -0.16776726689376387 0.07461530619795886 -0.13937844904635094 -0.03332612798497858 -0.006400290624245769 -0.10134439213845951 0.00717805871214864 0.13256813378102308 -0.26538933215015026 0.106859748179368 0.13551999467630232 0.010007679372146295 0.08826198423155399 -0.017047552090740603 
2.6924815162873394