1.1017893747413634 -3.8290137903221533 -2.9320403654330525 3.18663667692545 0.8882531612821054 1.1414698768093323 -1.7873897078089347 1.5806231131582629 1.2770897139504584 -1.4117493007454431 -1.4578419561002032 -0.032590567970980366 1.533070819812503 0.3926464840534533 1.9634245542617121 -0.6708443614972875 -0.568785003058969 -0.2052299409002073 0.07728642528761065 -0.3184349307452895 -0.1802294572794525 0.9029674822900298 0.05207007735640043 -0.5104730351745023 -0.4912217107729852 -0.48210219783612496 -0.5245696004138594 -0.5460080720317884 -0.4469475108072845 -0.4204999505669067 -0.27985833591687737 0.08198349030121829 0.38484256857654275 -0.36594135422277585 -0.545427763217525 -0.09636019103073101 -0.6587073615204269 0.1566918818033722 0.4877494455654961 0.5282581223054355 -0.43095263654462923 0.17640909885722683 0.03431588715818357 0.04209400989495139 0.21058301523540246 0.23995160226256124 -0.17935955821703464 0.10459374648112119 0.13004705322760052 0.5995295699573606 0.19179238401904994 -0.14354219262818146 0.24612300193034847 0.023855792043401502 0.1699046877987553 0.008338181240711923 -0.12470598759552559 0.5349938010295175 -0.01593601407706101 0.08514321481265982 0.4108723489607092 0.059076276574615144 0.20896915073403438 -0.3865350096614878 -0.29924533296128597 0.11376533983758116 -0.06624117813886449 0.03164545684969991 -0.10194739826405574 0.5083436148746874 0.28164061145080355 0.24489027211463693 -0.07128665437489182 0.29558914358638055 -0.1073021015759566 
0.9114901934665461