1.4116322374891728 -1.4522711953654075 -2.2013309672994184 4.792498855639886 -3.776021614312376 -0.2505003905446087 3.789936382601339 1.4717586196357784 -4.8918192854923745 1.659245986104795 -1.4378976324588773 1.4324482126382776 2.747636108266664 2.910155107246431 0.1595509318248713 -1.0094883655283455 -0.9348899196086342 0.8474272106980468 -0.5268733082737275 0.04311960123614362 0.6349668940145482 -1.874964248859238 -1.413947990129081 0.7790056332237127 -0.11744067315353429 0.6360575484634021 -0.2210152381732627 0.08693162697854492 1.3108761133558895 -1.2490125575716315 -0.7013866182201636 -0.6348775482263558 0.7981160857399469 -0.9478791700821356 -0.7341256115267005 0.6103867876860011 -0.16737799469341397 0.05376387446273001 0.8137927398058015 0.8079798854361728 -1.5257290568079052 0.3050806822184425 -0.4826601725794193 -0.01658809853340773 -0.08475760383928732 0.2924957085843087 0.48888951022008614 -1.4063257109951357 0.3235878336262218 0.13920144179137225 -0.0627363075255884 -0.5753623188850951 0.05387392911901649 0.350919421951326 -0.18923414452227655 0.534325800466921 -0.6869121875332355 -0.017139384164909552 -0.30193848744003315 -0.8750042687450384 0.02038114423854051 -0.2668418079318826 -0.14368858222157482 -0.2692843952598867 -0.35978353415104103 0.4934490720952013 0.44453312460885425 -0.3729397246635942 0.3113284405503921 -0.5066429227842929 0.20705271112219914 0.15567738372619663 0.3374530778287537 0.41541830727046336 0.015735006136537416 
3.12363433329669