-2.706641225398231 3.4861055762785575 -0.6195589786042364 -5.15071869248302 -1.578818054735065 -1.9242493522220006 -1.9053656175909484 -0.9762171843488152 3.751661624796877 -1.1079781988952289 -2.065549860771416 -1.5483481081616417 -1.562007260857486 -1.672281711804226 -0.1871661038949044 0.7864033670908722 -0.06179234058507732 1.6765721577566528 -0.1032534984079777 -1.2422373439261767 -0.29202784606712084 0.3281031295193899 0.8916244611389428 -2.0090566386002795 1.6716519170144006 0.03269630690828334 0.5303988479396771 0.5676863587039411 -0.10356987295898043 -1.0187791498569296 0.4278435685346316 -0.3876968686122384 -1.6231909525389239 1.0255112513035138 0.5894810618105475 -0.4706766295129159 1.505346651010094 0.19230670908034575 -0.18677062075370449 -0.3779893503985856 1.0774509465195585 0.8298348223622305 1.1406141995769272 -0.09365209697757859 0.11340650621445836 0.13162153596922 0.7581684107513346 1.7573794524266266 0.7417810809084617 -0.29123547474211914 0.19910017703356542 0.42746344824074556 0.7945647434859857 -0.11061981911448968 0.10131785913257063 0.4775986017408543 0.2873268396899652 -0.04459273977332601 0.5360777493330259 1.0063953562575776 -0.21580838366900199 0.31197768980511836 0.10678988599260542 0.25419591800458163 0.7565042596152153 0.39542859607469294 0.2954204280360242 0.605974248656068 0.15031291928987434 0.06377055205359 -0.4080944781076681 -0.13771973800751447 0.3495934198244979 0.5978008892561404 0.45240066723952355 
-2.3524133354688685