-2.59147069094983 4.633001782697317 0.8389266083979878 -2.85249229499878 0.28161334735548316 -2.2445346800505264 -0.4797620790159627 1.9685005519998304 4.501540644733189 -1.0667703021396322 1.7461282973049765 1.310545764003027 -0.8365470614624257 -0.6320237964911435 3.496818368267644 -0.0930161133304026 0.6712092865846313 -0.7868485299445296 0.17659277064311707 0.5812454585667965 -0.655371921249337 0.9386378216449878 0.4833836281847974 1.388539848717729 -2.0466100500719238 0.565070801084439 0.4444253863638696 0.03845832686047279 -1.0823106160774758 -0.5693711199951442 0.8064670610193642 0.019066297483765187 -1.1408995823118095 0.23900824449840985 0.4921353656040775 0.017386235452831356 -0.9029169537957483 -1.1004533464621185 -0.22364540506776515 -0.37105034821582317 0.6506561116627352 -0.288273678450623 0.4046698212354034 -1.0753803133907587 -0.7102217387558932 -1.0054673873998172 -0.6195394485819316 0.11458902249622427 -0.41024888591462577 -0.2543264714810905 0.004803712934924986 -0.001571025294332562 -0.6208473939105583 0.33327141627560364 -0.7051649875595811 -0.6753295040574184 0.25305467329344067 0.35166740111825434 -0.73612513787321 -0.23139576663304082 0.06507200687352471 0.1424635674605516 -0.16407392286143052 0.1955256098034147 -0.09396895401567168 -0.283883372233768 0.04922736639749414 0.263770583096568 -0.32916939836587433 0.04223417177569488 -0.06367569721434196 0.052126538016436186 0.18178196323721538 -0.5660253680023961 -0.23283251951949824 
-2.038839171010704