0.6324578154051856 -4.69809327890891 -2.6015961457863166 -0.6377869578595037 -2.797015534959039 -2.113660348028088 3.935416764589286 -0.8124269922160265 0.21248096982575237 1.4922238559053227 -2.9618982160800393 1.9989987508185743 -1.58102133702844 -0.27060153926842634 1.7765950164251862 -0.10582551944675428 0.4770800338976051 2.0771319158317656 -0.1175813831966196 0.9213660891731186 0.948701393478256 -0.8297915717126296 -0.05721578174150799 -1.2562966509963889 1.6803514071974581 1.6959413873362053 0.47818695151016855 0.0020304496359202506 0.7418507641920896 -0.3990590445612476 -0.8509987731325267 -0.8613204376874977 0.31386981946204684 1.1619260572411452 -0.026986875755336273 0.6805144563923086 -1.088660148376535 -0.7570084161273892 -0.8780982188463091 0.7587434805608466 -0.10950839133279738 0.6109037572327811 1.2655269109591347 -0.6693352437253439 0.07518167654551511 1.0646736210584327 -0.3754679499349468 1.7186760219967003 0.695897035875487 0.018801660005917542 -0.08083743283695077 0.4602718615505292 0.5442095552824695 -0.2805248941405941 -0.45014934643391125 -0.21618614697595756 1.13382493973988 -0.1693439987950507 0.06693639986924682 0.268561032930917 -0.2454372346261807 -0.9368269849523994 -0.5054436471467024 -0.05825080118108583 -0.016800351552817033 -0.02422907432173893 -0.5041252746864648 0.2935402665916415 0.48802083246032335 -0.24577095766777013 0.20814911315479206 -0.5343581695614845 -0.3620470222601962 0.26620325415779283 0.3223407755581127 
5.100965485780693