1.3238556984037366 0.5532934979262691 -0.25598012498333134 5.784310245288626 -3.71851430014826 0.29602034176173797 -0.9908039099324348 -1.5727157104942948 -4.346850017042156 -2.2019946806203987 -0.774264120996637 1.251216817777454 2.1674300789435637 -1.254538614594378 -0.20343210841261072 0.3872481585282591 1.4953963294250334 0.012980492091149265 -3.268873527492244 -0.39535267813154273 1.803317473836545 0.9209044924116839 0.9938762777575425 -0.13193252918542533 0.8190778587762695 0.8046022761646692 -0.7611400908149194 -0.9442455986252042 -0.3656051097707404 -0.58555420173965 0.6560110443793448 0.3748186405181773 -1.0939585908079987 1.1073399620203257 -0.24929622727559594 -1.1946288740746596 0.943547267289949 -1.16514080168711 0.021330213179316437 0.12182637940801566 1.1198431838216283 -1.0301701571976856 0.9769030808766148 0.97762315732458 0.670366693104995 -0.39740783134959123 -0.6459534762198198 0.6975359623020142 -0.7370966726057491 -0.0022710349532719665 0.13125517399885434 0.9827234696141373 -0.5164549827108622 -0.7707632349740166 -0.4422736787601795 0.9927739371979751 -0.1339085154091264 0.9745654356404658 0.17677066527462693 -0.5402035464359616 -0.026785628289412056 -0.3184984063159445 -0.592496718547632 -0.9500377352169809 -0.004154594991759353 0.43714500303534204 -0.9446466784748266 0.5985375255731693 -0.15381055416257639 0.41404737072133313 -0.06939554030980621 0.49891067935377065 0.8142753183452431 0.37463699048465204 1.0748336111977719 
1.7576161630159528