3.5657947460814245 -5.03431337865889 0.9650049268736858 1.2635389944855382 -1.738954338187388 0.9035357514268156 1.5325292628287404 -0.6797765122452539 0.3812088469802424 0.015376241053664308 -0.752172368923632 1.6560159998756876 -0.07603946899906466 0.7342376571001424 0.05370839048929077 0.08568416676917151 0.23712830783527972 -0.18032934434972359 -0.172960992253685 0.6265333182715485 0.630336176446733 -1.130076477315809 0.568593620211969 0.02263320437524967 -0.38736135464552257 0.5516973262145168 -0.20823258679917023 0.2150578909729191 0.31337147631330536 0.8058944086275952 -0.3078222917808824 -0.8925210802058781 0.24911707960131557 -0.3197840274740027 -0.050351022552745525 0.587854906527665 -0.11508105417246517 -0.331558021846297 -0.42192035256916793 -0.04660385369041453 -0.4822088420452831 0.03486141426270273 0.6836405166972728 -0.6000954655891751 0.2663188467229011 0.33627118666989486 -1.1309798821459751 0.23637390566724492 0.5994919223976928 -0.11256629777585275 -0.2516840143052259 0.3001231427828098 0.2910491905310235 0.05906498135085253 0.3450579724965296 0.20881721219852312 0.5570376194914511 0.09440411276732374 -0.6024635242647709 0.011395616278663756 -0.35455992429963573 -0.9802545004190197 -0.19992380647498187 -0.7007998498196298 -0.03137133085811239 -0.8006900118648338 -0.19257104100512684 0.14590187585004705 0.4607854650173564 -0.2018417375161093 -0.6047618726677071 -0.2808090905814075 -0.21454204646546343 -0.352904137812202 0.34543822203570795 
2.5096846247829263