-3.708909246504252 3.703358862761881 4.478100634073677 -0.8258790872461347 -2.5600413374299444 -2.1928059624378466 0.5830251395410464 2.917976928004957 -0.16040541216774207 -0.9691279054932551 0.7293267614130008 2.0660557356292024 0.04402833268689321 0.3100337540244034 2.4319016822416186 -0.01761958188398688 0.06299470596251 0.5916375090942464 -0.15387065977985998 -0.17584923330606894 1.146521682864319 -0.24381759148616056 -1.1608455239634072 0.09235715390459381 -0.7346027331481727 -0.20643045747976727 -0.11203045886473001 -0.09763869089006419 -0.9464199002297895 -0.6052999672903944 0.6706263208053191 -0.04119679265666158 -0.00998324131097178 -0.1999114796298257 0.0929480296915233 -0.24754881494148873 -0.22974073354231658 -0.18141529524863106 0.0700341190876726 0.2595060488294719 -0.36494085305349927 0.24844289063109726 -0.2319851888582939 -0.12260728320637074 -0.1741684335684892 -0.3152463453909232 0.12933688572444818 0.6008029632567908 -0.6264081208016701 -0.22371261927859246 0.05225941397467149 -0.8742395894786448 -0.5026763816507582 0.17875363394569072 -0.2985471011923342 -0.41776152891711077 0.021300148918362405 0.2626338199605106 -0.7357768953784827 -0.45249713682082443 -0.1616815455663293 0.07962183118348687 -0.1587890867678961 -0.16234417208128368 0.3030764165371123 0.047542568314418526 0.3383359946140902 -0.1258931751137645 -0.09042924775742534 -0.20204888518575978 0.12775576597611532 0.14169363442680566 -0.21592012207907083 -0.12412760919808313 -0.41879793980288416 
2.5001328839629986