-6.031224142905687 1.5351498312624818 1.6034925589118971 -0.6933341256375993 3.9207140766029163 -1.5452080160907602 2.7715438550581517 -1.0569369314782067 -3.871424212778701 1.6683811251043013 0.8844603258570667 -0.0913287258150006 -0.26830352025619647 -1.6953757568992942 1.9545466325575493 -0.5092013991951014 1.619657343861339 2.1436008577160046 0.32416721449652547 -0.1542491838586008 -0.06450862755452003 0.808364242639445 -1.8082985573130015 -0.05622340274343301 1.338306842285303 0.438944780997707 -0.2976998252899563 -0.29871067405833435 -1.338281156163733 -0.22485578063557013 0.22343289485428072 0.31014157445239304 0.08555676723108818 0.6315720324670937 -0.37656804327228505 -0.7518824963398277 -0.6308924162395656 0.5139882831850827 -0.8780594296210038 1.972117799938996 -0.37890609245172757 0.299555687582656 -0.6368840359580055 1.0956566481336236 -0.5629470887670333 0.18327157416040038 0.4320510098898857 -0.44298471799296507 -0.0030679893816112774 0.12419573374747545 0.40024062584292575 -0.9956619069539548 -0.42126981629680416 -0.9195540521899853 -0.5602256606415098 -0.15613976132740576 -0.23248993398597592 -0.3491344156598851 0.49169883119806645 0.2030041995959458 0.11775424329653117 -0.07120145807454667 0.033134511541695166 0.042533126179561856 -0.4391731034128373 0.4858163328406765 -0.6194228497614085 0.3144520538075323 -0.0874974559049816 0.17934982798416327 0.33462735502010776 -0.14410634984861395 -0.4385788746050257 0.38016526630165437 0.23616592075814108 
4.405077887904542