-1.6563648610366357 3.1996946092559924 -4.5255170389329304 0.266334721810507 3.478426041655526 -0.30819219693069577 -2.352461303149152 -0.1946877667991116 4.530000206719592 -6.001405930597862 1.3276853679862022 -0.8225561679696973 -1.3998740161476584 -0.022581473517453432 -1.6609442161725188 3.424710191258693 3.295471144159679 -1.8738477401475602 -0.22857045879197013 -3.128163980384837 -2.575283927224218 1.2489379178485502 -2.136120411239983 2.4742667969693684 -5.372550694858733 -1.1214274975712777 2.6352370180188496 0.32154334665072715 -4.829595207212207 2.5540941432896815 -3.151914877448197 2.595527956845282 3.957005868831918 1.283411878720976 1.4694537960174587 -1.1912424176026428 -0.7217635949783329 -4.097968174329061 0.6811686073802451 1.3581252805413428 1.3349658676286915 -1.7587684472523848 0.7468842834603177 1.259295868732108 -1.2031069721931233 1.7381392105595412 -0.5778970459260605 2.5938312888095765 -2.7104229276745833 1.1364256617049266 -0.22390852881762013 2.3550533082450276 0.17680534690851313 0.2621397547869516 -0.8311855243027451 -0.7014840778219639 0.6528118354630418 2.63155919056736 -0.2546323271316249 1.9646543530942902 -0.8764509437739505 0.043967638707833934 -0.6468321966822674 1.376514043596973 0.5330947497345002 -0.22903235062443772 -0.4109670564332938 2.012361079414559 0.9643717669099585 -1.033180740334677 1.7773600442530166 -0.4798305635260315 0.11326292784450315 -1.1164836516190682 -1.347375807225781 
-3.8573695942188846