3.678719004166034 -2.531536337965669 3.466397827241237 3.043835253329914 -1.4613147805193516 -1.511117731689677 4.375215070499429 -1.0909183902734239 -1.1858411200577494 -0.5440600144146297 0.42075633420194847 0.3212968110495389 -0.002052078442345895 2.0435816738620862 -1.475134166205515 -0.564448385474563 0.3083655214831451 -0.8164224063595182 -2.711728674733078 -0.4317657706368433 0.8717456329092945 2.4675682857689627 0.6763871179661265 -0.3051610058123687 0.46994725463360987 2.2997825685537006 -0.051313202303616134 0.4942558370641791 -2.214925740268712 -0.18112306413007792 0.1143623802502104 0.23108069155268696 -0.89114223116679 -0.7746812169150104 0.0769687535406205 -1.3822532434762047 0.995596036790492 -0.09054698429471641 -0.430433917592952 1.4249020894387083 -0.44753029217615065 0.07365799718033439 0.4064882186266128 0.4125506339618781 -0.18081441024825773 -0.12812979153453252 -0.7134942387057557 0.22918168897822855 -0.5464794912784374 -1.6622900194967962 0.011874353634472978 -0.18056458988531693 -0.04094040120380127 -0.5327460235186152 0.12296171662061994 0.8053555979318758 -0.6502733134894714 -0.08545410239541151 -0.07366358535033846 -0.9539521539067958 -0.03239619495724916 -0.33350909794101996 0.17653256821939967 -0.3835697533362183 -0.40928719376363626 -0.0037644583695068956 -0.6495357560127119 -0.9505034938999043 -0.37259378837891866 -0.36310093138477256 0.04094367112114228 -0.17474191310404769 0.6027080496156295 0.07360835640859564 -0.21937153953023514 
2.720265008006522