-4.028110010363299 3.3874590687594366 -1.9124618993734996 -1.6700959767876238 0.2460270368247066 1.3722962402300578 -1.777433007534537 0.4652711201209351 -1.011615048700937 0.5220091217572613 -0.18384633556909952 -0.628656447856872 -0.00521194367004299 -1.9903980764454783 0.9443714717854652 -0.14435804121535684 0.4124685205040314 0.6521003239502904 0.42889873022380953 1.0032212729096055 -0.5656478153769219 -0.14516788928542113 -0.9154074048994253 0.6450848342299635 0.293738625688379 -0.8986450703998332 0.05351543550398742 -0.2676099281993393 0.6695978964582323 -0.30302509475591116 0.1806772169425768 0.5290137310598282 0.4296707649732683 1.092503410664843 -0.3640523897622793 -0.440346527242134 -0.07508851097627188 0.34795819746443546 -0.4627020761443631 0.4125959259472033 0.23074985051084698 0.48599793832204247 -0.12919781458577173 0.2817894005775067 -0.2659568385414127 -0.18870575262529188 0.6303713733478118 -0.12388829490276268 0.029612480621658242 0.8159311165446822 -0.32321529806168436 0.16715811163408037 0.37472178214576024 0.1076338476275148 -0.30887728888868626 -0.6389579341679834 0.05625021557353048 -0.22593182032192155 0.4947144746309093 0.4034999470939634 0.29745826809420184 0.2548807805593986 -0.18293313416810325 0.1008619251292244 -0.24066304911123593 -0.055904371569539035 0.18209317257148777 0.4520822373366643 0.25385328437756555 0.196426995989116 0.1411116713322616 0.34709015012096667 -0.08949924521706548 0.016106015983303218 0.1547363505973023 
-0.8372884390707418