-3.1106205011910664 7.080568832422971 1.4615311781982765 -2.260519363018358 0.7145293372724706 -0.12215574853267364 -0.7266307118698885 -1.6657230149411038 1.5129940732091658 0.6416625608738081 1.1742276720067297 -0.638110373417424 -4.771615179974854 -1.2807954670129154 1.0851179852864803 2.6360157772799973 -0.050030633257242885 -1.6801501845691256 2.3916430747795463 -0.9543763149174028 -2.5623411080647562 3.193081898438272 0.5018847087652026 1.1498163854104542 -2.1524403781595467 2.0885951743628275 0.4719650142277774 -0.39508753538528646 -0.3288511979820956 0.5380085091092699 0.08997491363814203 0.9458337479062312 -1.5710860457772609 0.30961726709452086 0.4455631546652406 1.0319425966010973 -0.8129147791627556 -2.700963236725213 0.8544828253038599 0.2961213529918909 1.2264568426067315 -0.5022465933394046 0.1286968928636173 -1.6583004856578487 -0.5364672891884084 -1.473909560987103 -1.1437084618007667 -0.4980432525607177 0.2247758885727706 1.263962089203726 0.08759621735725975 0.066998702637182 -0.9736983371989673 0.04845735390124363 -0.5848590401318107 -0.44847130363881016 0.5112101946903301 0.536777116590456 0.5798087195155478 -0.3795892928304403 0.3467295730967964 -0.2593637880821938 0.38902012867580726 -0.5269963529889157 -0.2671764176731229 -0.2007906667144463 -0.10878284719646228 0.25840051583944545 -0.6220148242219152 0.5529539026364801 0.10776347142230425 0.06977276593402554 1.1212317664025881 -0.465093202267118 0.2981333086468619 
-3.8436496666054483