1.2025313045611146 -2.099053218195742 0.3918665109986388 3.5919770348800992 -2.780821539579654 0.9981315382452083 3.1090008805531566 1.1914854106409922 -2.4110142327311337 -2.1334819138664565 0.10075886122685263 -1.8237756513570456 -0.1383174887891936 -0.37813358496626426 0.8261244622606592 -0.18006700895137961 0.6955052181145396 0.3695003087687486 -1.2411052816550352 1.0442579801241063 0.46223510449091965 0.9801563656691682 -0.20094626651769998 -0.0826975281771195 0.5556536348066946 0.012222421401996683 -0.2895880328541789 0.3639865132256844 0.021202192088069394 0.5086275782055191 0.2662386696043373 0.42343658747270585 -0.3197946925396362 0.30520461340077676 -0.12565940910409093 -0.13298201408921606 0.7333035447070418 -0.0324954456969605 -0.5068093826610731 1.440114662200289 0.6860304672140269 -0.33077074117570837 -0.5659173232721418 -0.5306738575966454 0.06432394958681148 0.2117479221468508 -0.7890387825317053 -0.18339847875892878 0.036348020730739394 -0.43362319841156755 -0.00244547565758102 -0.043734920629679805 0.03603745180414325 0.18559196458738525 -0.3829009213316932 0.4711322423439792 -0.37921308427994355 0.37262785516849006 0.07602474753908062 -0.7043915269235526 0.09186757768702775 -0.344921146758404 -0.23189254654830083 -0.16035368188146237 -0.09401821435696635 -0.23520009431786365 -0.2297343804647938 -0.3264869763837704 -0.03777269261421057 -0.5277252063967889 -0.1862934200440335 0.09486365757829335 0.04556693686924904 -0.07006169136170293 -0.2983731374740788 
3.783738243842963