1.7457967917017694 -1.0348062480682039 2.3140275833320927 -5.301437282783558 1.1669443588988235 1.2829983438832082 2.6911409437274285 2.715625764553441 2.1251657710871363 -0.9987992454570693 2.5196616257587827 -1.4839393869109152 -0.3767029294046066 0.06081306604896619 0.20984810295544687 -0.7405072245312427 0.3855126611976909 -0.3116754005764677 1.183104470073863 1.613799438208813 -2.42818879186824 -0.6359075313856577 -0.9646690542553925 1.0900144652152004 0.9135720184304666 -0.49488866881139315 1.0765199284403169 0.46366242461187596 0.2447005501070269 2.094602146262825 -1.2557800927249758 -2.602208328992311 -0.21923813348066035 -0.6333697899138688 0.1191636700798579 -0.8905553441773337 0.48541550479999834 0.3695257512170544 -1.1796260162211856 1.1901183316162074 -1.7409705141664995 1.8213541953226113 -0.5943383985940127 -1.0245280839938955 0.09545424483790743 0.3917862124371434 0.7299592778934636 -0.7994439940066 -0.42386136796925644 -0.5164085690978251 -0.7028219356678811 -1.3436282669623791 -0.3871057061582656 -0.1063567727514168 0.05988553608248659 -0.9416456568346739 0.45826217455493684 -1.0757447167248686 0.10518350984454206 0.4427289364284508 0.2833713449630516 0.41495760240903634 0.5361775990452871 0.08120745077951835 0.3925025524968788 -0.31628504787622086 0.271103598229333 -0.4905884278904271 -0.43935450936039355 -0.8884841121859889 0.16632515612443627 -0.5119597772550636 -0.22870711960584605 0.6054186716805738 -0.8328793286734275 
-1.0613179492581284