0.7238627409620983 -3.3399550203542665 -1.9393753290401363 0.5406493978507563 -0.7219796183790632 0.24880714674036586 2.3731051811991706 -0.764520579714866 -2.52479643624067 -0.504331786169181 -0.057687735104801074 0.2740696875189923 0.9817304833657885 0.10099708605202595 -0.7960054265798482 0.9103689094785685 0.6041461021357568 -0.021027217334662424 0.3352753739048587 -0.8897535305857232 0.9855897628585588 0.05413294229823484 -0.014977463258103972 -0.742833799225853 0.5438850625951197 -0.40883197324629134 0.1584994019466196 -0.07242896365602292 -0.09493036331458997 0.278143064039018 0.1855816482261968 0.17964920499229892 0.16627548959445887 0.6619879753373324 -0.5424494697315426 0.5057868652178339 -0.24316178220120604 0.2808013724065845 0.1431046203055873 0.4993275347714534 0.05875601005820944 0.016542883376033657 -0.10364895716463701 0.09448837175385871 -0.05010379319718338 0.09910717820130732 -0.1592979246217957 -0.267574680596573 -0.017294066840096503 0.21450839172652533 0.4960398408055293 0.13653351699518806 -0.22131314924556933 -0.014024890364541492 0.022687091820370653 -0.18429965934944376 0.10301310036490677 -0.2968262498660993 -0.12432942637954586 -0.4209497168259544 0.4311310059759932 -0.07226023909646187 0.3789268787905549 -0.2248836769455867 0.17777675960321834 0.07130205080546154 -0.018662956662346963 -0.08113094749889306 0.5345784399467746 -0.1500470195274159 0.43667894043409894 0.4748050446848244 -0.022189323094333652 0.31834955290928046 0.30688105936350596 
3.6773345260458545