2.47985243064252 -4.289255260114071 2.9826428701142085 -1.557424258864488 -1.0481388991092802 -2.3843126955459817 2.6688333556296078 0.7943673623759735 -3.2655510555101213 -2.2386378796432673 1.770736435436023 1.504147891205288 0.20595297940990953 -0.16296808871332347 0.3599279877637409 -0.350144869615437 0.7307191611299046 0.395673966929599 1.0341035504513285 -0.38606112948645455 1.0884683804051427 0.5163418388609486 -1.2692193231086468 0.1935197287502411 0.7447395092996463 -0.6913525989564302 0.30366040987095055 -0.4195286400510513 0.3871674005598125 1.0084406752967738 0.3304585748651906 -0.9644025638714278 -0.10376026342498657 0.49632536229754187 0.09855519694509435 -0.7671850183101122 0.48053160715114973 0.30184625119766917 -0.2784423372481768 0.5696044495821924 -0.28158820614763136 0.470163156274119 0.09337585985338859 0.011822202184241681 0.633660977599543 0.2120696120383445 -0.1055172352931768 0.3853262934883829 -0.2786790158202927 0.3998289408743844 -0.09526348887360725 -0.2978785114101654 -0.9413904299704425 -0.7471383986959418 0.04124228034264277 -0.12359724750250367 0.5425845395672686 0.5004947385967338 -0.2638823086225309 -0.538826006580923 -0.17925217638691487 -0.32956815530459377 -0.4413008098504917 -0.5486259410779123 0.5798500088676852 0.11055640256352467 0.07133941462720528 -0.09224295156234741 -0.2309509492647588 -0.26917987297710816 0.676829535348467 -0.06422361209070226 -0.09627127302413424 0.42897243270933205 -0.5029722990763466 
4.885894674505358