-0.6508892080143962 -2.785984245489164 -0.9216600103109629 5.8916850206628215 2.054896953235396 1.7262733280871627 -2.6959825702149036 0.2180958496355363 1.0018215551200829 -0.7029616835964552 2.005230018343415 3.04553147425523 -1.5241994717208123 0.2959260992129643 -1.1742819272137872 -2.331046960964221 -1.8902561382416843 0.0334064671089106 -0.25199022770613944 0.43539706272747697 0.20239869690922996 -0.6798632728972969 -0.38898231340090605 0.8859400426248715 0.3863322695119238 -0.7840284928041225 0.36687672984918074 0.40517231751443117 0.12461760122748111 -0.779295695646927 -0.013134069237674587 -0.12442968872939464 -0.9304822562682299 1.4521657902872627 1.1773534319173165 0.20253915734938333 -1.1603433761536786 -0.5087800986265829 0.3181598340299219 0.2803312272333709 0.8966156215009939 0.029876439659372006 -0.23391357913971556 0.4591054897363259 -0.46591571283428795 0.213983628699981 0.6237777755744321 -0.4340073617532152 0.7744389597909016 -0.5699589606136373 0.11824930424387758 -0.412443779428877 0.5236060631100374 -1.0158035980894757 -0.7078694373795533 0.41814754347739597 -0.39657460187634974 -0.5005611241792303 -0.27255058591195536 -0.8325692792010617 -0.2973464716574942 -0.33760460752938465 0.2362279227511348 0.13987910086208827 -0.1864395099823929 -1.104556171207811 -0.3656614628426862 0.5185005225484607 0.3323490656591923 0.6039423927503674 0.044287641268798805 -0.23468595714241247 0.3652825090060179 0.19244670715535195 -0.3338137066311765 
0.9886030202908804