-2.7700480446298457 -0.30437852745871297 -0.6404460243853798 2.75952874158753 -0.9462936357289049 6.905208921348517 -0.6454788351269833 -2.590995248037131 -0.410839340526735 -6.841805734990453 -1.2068932601691857 -4.696802402460332 2.626255033727836 5.175709009445982 -0.4181775644358212 4.5751334046259835 -1.0276075459007101 0.654221216278424 1.211448395408711 -4.515220234923462 0.9270540806789329 -1.209850690289422 -1.081755396956758 0.07484847466842301 -1.3723038601790212 1.116279846993764 3.135000209400775 -3.7488340714826505 -1.3698347041599872 0.38013731660426503 -2.55700881493196 -1.4495766687633804 1.9700661429912336 0.7765755118904898 1.1005345069978867 -1.45258692260628 1.352961536248619 -1.54860379396893 -0.18189627082573617 2.9276890777777846 0.9489151950987881 -1.240225452985153 0.6785506484473186 0.8564010068816599 -1.1064771347967528 1.242742501650382 1.2194875233929807 2.1418959514691607 0.12210039919101506 -0.5359466381924579 0.40731178831933734 3.156395509929477 -0.6466958886749659 -0.24806755821929044 -0.5145218039054115 -1.613329420153871 -0.6758459770799612 0.06610142471141067 -0.19101304114227113 1.5240923562793944 1.1418339502743868 -0.10057469668515606 -0.3995522674900336 1.0013414116893307 0.18712298999187846 -0.542011787495333 0.6061080295808468 0.3901054656404739 0.5358568490585502 -0.49820577679382594 0.9583388930114087 -0.70746218979577 -2.1822364940371743 -1.133052111235892 0.4691025103282753 
1.7804000913564195