2.0462800498245706 2.3110009695984957 -2.940160805394833 4.240643041315477 -1.3828197402126525 4.140879837588292 -0.7836951479523524 -1.298594365169852 -1.4296082212223231 -5.066387496703783 -2.446546694803675 -3.200999407562673 3.557813990405319 -0.32785494069567456 -0.7538330612778679 2.717316585171775 0.1849839922139651 0.30928071661706735 -3.371572955708488 -0.041935267644660275 0.03346105808140898 0.7565926310724231 -0.8524017193653283 1.4156476337736137 -1.1850922834493784 1.9870640778772977 2.4572876039006095 0.2226818917173201 -0.5612191922929918 0.6573276678945048 -1.7134452460463292 -0.40318634900719647 0.6474810607170505 0.09549343334989313 -0.41960249075143846 -1.5805601491470773 2.1047026332271095 -2.781760239427105 -0.11748757314974478 1.9305654117619735 -0.004182798623473677 -0.5649012756268869 1.606977347997924 1.3015674503629304 -0.003854282274551757 0.7102902135608802 0.5752008432503232 0.8966099064574287 -1.6257308371357044 -1.0179537410536916 0.006693586888820491 0.8786046659043305 0.14640556962956064 -0.9401298304442729 -0.8342653482730304 -0.16903381180121146 -0.9232969360320784 -0.18012335666517132 0.39111588930015073 -0.001396423331877561 0.2517667547092412 0.3811555245628931 0.23466367975100155 0.8249547057449336 -0.5048590765580415 0.07531198110612092 -0.13136395179540272 0.0360990389516862 -0.6158658974097224 0.27653463662619504 0.0659202831668475 0.041039986759037084 0.5831041378885164 -0.5520936716760138 -0.3727059030404325 
-3.0448628011332293