-0.03567858080631581 -2.214004093992169 0.4885768196995417 0.6913094454327682 -1.9988939807324897 -1.223904772711481 2.4858723632665973 0.7108888832248794 -2.9102423035794027 -0.8740250710069641 -0.006151785747510963 0.9784502782615323 1.9577855087251592 -0.1413922857708771 0.3901692191664792 0.9213025972993167 0.48688856416533666 0.02128032643977082 0.6488957558170589 -0.7252665254111619 1.550050589781582 0.08439537444223294 -0.05141782497206089 -0.8626177281589005 0.5232513068946117 -0.4072337098471967 0.10646440490007039 0.045940648298176456 -0.5420616713091738 0.2569674145536376 0.23539338951480976 0.3840531780451064 -0.11496865574608556 0.9140653340978871 -0.46869661270418705 0.7051268346242591 -0.45587086705042773 -0.1786111557213672 0.17255028332873223 0.6167569881324851 0.0028826874310323228 -0.027213171075453346 -0.2470898190267975 -0.1207917591885489 -0.2558560308678286 0.0344658282246153 -0.0673624303257433 -0.2488043757116423 -0.24170288495888984 -0.015630971526381682 0.4466384487773154 0.1758918286935646 -0.07143285511395675 -0.17160027715883922 0.2851085928564536 -0.43859565747222884 -0.0633006905319787 -0.40649997644058306 -0.2511268056326808 -0.471698697195827 0.04796824753693793 -0.35022554551663687 0.2492997163572355 -0.10006732047262065 -0.19147898104976735 -0.19026911790834894 -0.13911429023793473 -0.15266010503356903 0.47737805629798324 -0.35132173809458517 -0.03501578794991289 0.1233898829654568 -0.06914889004573431 0.35863646747653033 0.31095053907512393 
4.8484581776438915