3.3848824360213072 0.6109740773969676 -2.0762525314755687 -1.8100871843713588 2.365800060730068 2.3958245439187946 -1.4792773046346799 0.09271272487982385 2.6845461176586864 -0.16954475890284715 -0.417036372120686 -0.44641423654758317 0.003912830185471838 -0.4864949495428128 -1.210304104502047 -0.9872869213034616 -0.9911499046783288 -0.6856626472623982 0.5010358865576263 1.1349033917306137 -1.502996488721815 -1.9591091413321218 0.11739012467535259 0.8621010214964429 -0.1818826536419078 0.5617505880318773 -0.9288155940133883 -0.3113557837343669 -0.42000836781758966 -0.4350924925479477 -0.5796148308012095 0.8530054892053958 -0.24669995950319368 -0.23027752085071163 -0.15522656894316234 -0.005740593818206907 0.792393583600338 0.15685108071733422 0.2002011345122195 -0.6741996545945075 0.3423300271490716 0.35777236224458253 0.7496511052004607 -0.8371179569773437 -0.029431410445408313 -0.4969669545022286 0.05361984655983462 0.21705919787296607 -0.35540615069498077 -0.6316158700791871 0.27304942384236464 0.3247624472592215 -0.004144106085780808 -0.1576887823149009 -0.27301598822070605 -0.018786812845126455 -0.36987902926774263 0.2274602441546365 0.7305835448957002 0.0960936428391351 0.3024856532461511 0.18305279284663542 -0.37483853463908656 0.5609138598657888 0.05798528422670221 0.3123685792068124 0.5210315304244142 0.10381125679096315 -0.19489711917147834 0.22748975499044682 0.1439525911366064 -0.10110067497551445 0.517745077238108 -0.3921730120132906 -0.39391034541424114 
-6.018757151931994