4.351352061482209 -1.9656319883705713 -0.010873181091718975 1.1960200955550024 -0.7741606568872448 0.36016252076895006 -0.816914119773311 -2.0859771862284933 3.9457027962396225 1.781137054067175 0.10340872718840399 -0.9135712762366351 0.4310354214612625 -0.5948494486139873 -0.4114039146939728 0.45820229318368627 -0.2877892360930753 0.3080484996232466 0.21267711329087607 0.36210699429873167 -1.1156004478596575 -0.5215784568258873 -0.2766291005806647 0.01365255445966862 -0.40695855969920225 -0.17809697239541833 -0.005838732796235868 -0.3715863537719651 0.012662275459089628 -0.22396799160527994 -0.1671119636951744 -0.017654168138026907 -0.6837220752746729 -0.14357727121209046 0.22465803676563095 -0.44675986888106856 0.016603863497778967 -0.2569222025196624 -0.3721207373343161 -0.2644137787074382 0.03723505341131626 0.032653578643882436 0.10078335027019925 -0.2762027516697141 -0.18191725640030745 -0.2130185876963231 0.38617571444325205 -0.47232032813203484 -0.10508145963511116 -0.22631078321189152 -0.03925845201591416 0.1398410590903152 -0.02998846955193471 0.2305638805954111 0.1936924617026228 0.17613671162034483 -0.3227936314433451 -0.19366566862080228 0.06759383364673457 0.18045355200850524 0.011392718358095612 0.22425041377778077 -0.09791637700923944 0.11896122687908874 0.048361598456043646 -0.21973502080543994 0.03689927757082408 -0.3402924313871708 -0.07979665941020819 0.2691799655339526 -0.014254831744648644 0.0985257260193709 0.057406498550240104 0.007616279709291518 -0.06889080960877031 
-3.5234644422714387