0.32320611440145974 2.6065149709070985 5.346052774743922 3.3538815482192783 0.7132899192102276 -1.131903663267452 2.165505168643219 2.7752992803237624 -1.4498871810917389 -1.4260709886067453 -1.7452987952148113 1.3510684182677042 2.4960247216789595 -2.6523774909812783 -1.0721138433482296 0.25557680563732466 -1.3837491888602167 -3.303401818340024 1.0281368514891769 -0.47693870847070935 -0.5950097660107668 -0.3468337194558953 -0.5422783528692035 -1.326143999973962 1.4218797505593257 -0.3607462143602997 1.0939317887125402 0.3992333977793674 -1.5584646083084994 -0.2953748185167451 -0.40017537746400383 0.4041292477691457 -0.144849547553194 1.1100791471604852 0.6965318042113217 -0.37141911644858766 0.5922045422974648 -0.6624711871930546 -0.2522864615086183 0.5871693348544618 0.3522275589188011 -0.5526921042348236 -1.109226949974044 -0.8118794425812192 0.6269854469974704 0.10705345868000399 -0.12794555446651718 -1.1148381158856504 -0.6858057412454073 -0.7951043942213583 -0.008078580740917746 -0.3891044274263753 0.19063046146621573 0.60586662145686 -0.791732959898855 -0.01683104784164302 0.7593901567606745 -1.1640220414629898 0.37920829430718483 0.4975239004517276 -1.3815858598079434 -0.39137404750250915 0.39326209586120636 -0.9962438257381713 0.058460052365140146 0.1720917024761726 -0.3273488379068953 -0.4647460330611264 -0.6812787206693844 0.40090120359796844 -0.17913576683164664 -0.06819742574138668 -0.3249824403261622 0.1314487150325989 0.48518391017086526 
0.11487091468351052