-2.1593804031688197 3.020640519303031 -4.158545919504792 -2.4163549867693033 1.9504956511218836 -1.0431909135904007 -3.4938755730000706 0.15282201083261504 -2.21168541363111 2.662297033218678 2.4070225306649915 -0.32998919085015155 -0.12345090997728655 -0.6066424914417171 1.5111520250931463 0.07576478129634384 0.9655812390871874 0.23726703667553906 -0.34185060680608903 1.0151744560245033 -0.8129036097314617 0.9497872696739305 -1.8001873439283949 -0.33807295670058163 0.9979497198975995 0.10165080428687173 0.6382306789806889 -0.9003486515592206 -0.08720918045573033 -0.19955077125119053 0.024771361768060635 0.9097373646343807 -0.038440013208850266 0.8160788965032431 -0.052824153133473384 -1.090858631550117 -0.024091777809447157 0.21289775032464386 -0.980484550494907 -0.09682796602878074 0.742375375658689 0.24714174857429444 0.7779503808016103 0.13414620895558238 -0.7975973016258069 0.442558179186631 0.844003545285442 -0.5221027754867498 -0.16917465028626635 -0.07545625166975736 1.1576314489100246 0.13063215236777206 0.47438442495260247 0.2053607585990297 -0.6894529627998897 -0.4666685066676878 -0.2393714287437158 0.08009388929770594 0.5611543034142168 0.4953166205392025 0.6272242562030295 -0.08689996121614982 0.22215358847023642 -0.04383574297496595 -0.2778760914076327 -0.19372355451923196 0.11046468484888486 0.16336818774497788 -0.31810818034482014 -0.13491293552389694 0.628285720468335 0.24322410777548442 -0.09123540629334573 0.3913769837979625 0.08501406891276786 
-2.069706620594912