-2.243101094277521 0.006997962442373051 -3.5520595125314767 3.1053170245887824 -3.277644470733876 0.059933864777832024 -0.837231155998837 -0.37400011334008487 -1.8375663293676672 -0.4184308828715104 1.6195967281921249 1.0663578511783673 0.5249947282799423 1.0470162449681946 -0.27993762629067265 0.2948294605189544 1.8998207419985593 2.4430860342557867 0.028284042450433144 0.012555488303586632 0.44306502023881067 0.8861617323965558 -0.9189329648162067 -0.3673506089048457 -1.6425130980688283 0.525102974236838 -0.7324402555276672 0.523879489392624 0.3380016810046694 0.41102986813968745 0.022503254142102663 0.1379054815465422 0.14125864047501827 0.37056884756134517 -0.202687868607898 0.5327901056064215 -0.008517094230013449 0.7207578305836375 -0.06658645140593039 0.2602978832570175 -0.17894717565145365 0.15298146664299508 -0.34718002048691887 -0.49812943536304655 -0.1005822156010005 0.04674841808984476 0.15813136563681857 0.25672792857098875 -0.023035754464812958 -0.0065471458024209395 0.19105876524292736 0.12990833910186755 0.019804687792282963 -0.25309018193469984 0.3695482268121361 0.32040488102346953 0.5130231840658913 -0.2920332562327479 -0.2179155071711757 0.019128542136513688 0.19834432189822332 -0.44005454346605355 -0.4216099669453107 0.04981072789017177 -0.32486574522107337 -0.023899782620027912 -0.06252895716736656 0.10831752041038425 -0.2207512401322609 0.3616471056304935 0.17367488807111964 -0.17888199314938674 -0.15977664803308828 -0.17631113449031283 0.19376688135384584 
3.2272668773891686