1.7461840036864054 -1.3435154388870316 7.275559651737671 1.1161387551032842 1.3192892431054872 1.1329699263411723 -1.372590429440784 0.16868655060383797 0.21647371820663963 0.6957433960926607 3.36308905109179 1.2782947752122227 -0.08762817556936398 0.22411120805333673 -1.3520109473248105 -1.992991016712519 -1.532197956600363 -0.013739980469542612 -0.7990453816742085 1.430806857626967 -0.19864559633099255 0.6840130190682052 -0.5423877644235657 -0.019858685281729627 2.226426669598673 -1.6911554520374605 -1.2632623707577952 0.22250418470697775 1.3956447011653192 -0.884627410805958 0.19203671675888878 0.6069336630465632 -3.240509253140229 1.3669251842260648 0.48116471380732206 0.7401097941442432 -2.5391209225506377 0.7436292047542309 -0.1565602792357963 -0.4906309894332068 -0.07816346699999216 -0.14264349465570308 -1.0316761454427537 -0.08979540946098563 -0.9602270855381285 -0.8063918447720324 -1.1591260507972359 0.6443463532741428 0.8440720741425525 -0.474678877219163 0.41388515010549276 -1.4700167731418927 0.3576724581451156 -0.3734762479818883 -0.8452262862121094 0.7483542797235423 -0.37805411555082347 -1.0552978578755359 -1.0438791999085832 -0.9031912692230928 0.11731445916488559 -0.46339725287065425 0.14485968062937937 -0.5665673553698598 -0.5562454882844867 -0.5941593908615139 -0.3261675117041011 -0.05966231616882223 0.13154088251071228 0.8956211917781614 -0.4360229855295441 -0.148414785234822 0.36579871750622783 0.2893098890712503 -0.09655086270968183 
0.4382071897151656