-1.1041367855700344 4.985148653303121 -0.291146209124733 -1.4212757622825025 -0.27724831848620823 1.5385378914390277 -4.547108035879822 -0.22697435646744668 4.918821629549529 4.264212896732944 0.18569249117778153 -2.352303165712564 -0.16042871152028626 -1.8445642886598221 -1.1273896456901744 -1.9177475633377385 -0.8543209626880788 -1.0487255362988797 0.42985360383412285 -0.6107499135988826 -3.3402378794249636 2.4398630384907913 1.8022946799147848 2.6804559311435106 -2.18267919662087 -0.909281891044264 1.400049200958096 0.49491953201196803 -1.3733548174043901 2.0984577869721672 2.0578424323909377 0.07458417156332986 -1.1250013565001018 0.22713911650583207 1.3185102689954782 -0.7234846333549037 -1.6526920977390733 -0.9863310646291643 0.28739551606336267 -0.43124292613347803 1.7206383556012295 -0.902244766996741 1.276296259752666 -1.1222962254907247 -0.8549781366219633 -0.36183056456221907 -1.1162225419572638 0.1601138988973223 -0.6128283951034259 0.7067175122808874 -0.3834499497412106 -0.47911230512413056 -0.6411377206599389 0.5507640309298323 -0.5002745544241497 -0.32162453133431723 0.8148080077441635 0.4803575814415868 -0.2084867930235424 -0.08388117074056639 0.019343771230197038 -0.6557527545004441 -0.6707365033668957 0.7161147143805261 0.03415996390396376 0.3061230306622035 0.30342086304265037 0.05010324094753307 -0.18582774414586034 0.29812233742298966 0.19716700986923602 0.3187305137925148 0.5510358911188616 -0.07905635483206286 -0.019629693271327686 
-6.284716150278538