2.1944098314993106 -3.2680726744409743 -0.6283731546301492 3.8218550602545163 -0.7945557719324317 -0.9000478123533747 2.185643563578811 0.913282344359725 -3.2729771991242496 -0.4231843270287299 -0.835156722217836 1.296718082726183 2.395288892108028 1.1247227239149957 1.4135804455599006 -1.2998911617134392 0.013105001683275996 0.3442005428852384 0.53274209544131 0.9404988679284085 0.2808867958084852 -0.24030889141103495 -0.4722799583844546 0.2874011472158311 -0.9353110841827361 0.34433656646711436 0.4672084748917778 -0.6277025539286005 -0.3296351165995449 -0.6003418872535128 -0.697922697692345 -0.803329284397531 0.4867075300445947 -0.43284068662426556 -0.4898981970847405 0.13752488568128649 -1.5319696028924048 -0.011095989561562686 0.21418820193131752 0.4110669506076716 -0.5738567295486213 -0.6118740285014579 -0.9447221612338444 -0.02455429819763505 0.37574043196339146 0.219575431073196 -0.13064149639618283 0.1772850113519785 0.3068477496307608 0.6220370222880391 0.1583663300942478 0.2284343731509617 -0.09348791200851171 -0.031841285786694436 -0.359571204018307 0.18362130837273496 -0.05957404651367294 0.22880331448736002 -0.24872221979919112 -0.1730094312767739 0.22954520002022738 0.0285263444708789 -0.20700291471412616 -0.4246606776929462 -0.4318336141859569 -0.25898815609015735 -0.48427591262064584 0.08364169090452081 0.13208870333324316 -0.12338405560062941 0.41898876761210646 0.19332508426474698 0.2588495235587721 0.13751891443698522 -0.011668287962648655 
3.3917431254294867