1.478209463842015 -3.2972030427774697 0.0940649852432683 3.3455524855117056 -2.131000329197223 2.093319304534632 0.10103143155994528 0.20906129242935226 -3.850340924197818 -4.461116858122731 -1.8232542947221275 0.19942865945078356 3.572987872176084 -1.3104501950676273 0.8198597104193832 -0.6542256980457201 0.6892927163385203 0.078383153979633 -2.1095032353456347 2.4611506423607334 0.7642214913411159 1.5229843857014778 0.7663935100756545 0.3024265739367419 -0.4223705091108893 1.143367858031568 0.938573340211079 -0.17057122735105562 -2.127248615310263 0.4322077157199368 -0.18613827492006663 -0.8237024256332895 -0.3229699359466897 -0.2322144090553845 -1.4069513408235426 -0.30558426349278045 -0.8000687966935505 -0.26914824069508303 -0.27890162948226055 1.655330347552775 -0.8036833443254358 -0.34247735124353085 -0.7953279432446478 0.07492631947210962 0.7512781623224919 0.9352518419783697 0.3012582968886128 0.9443966037332847 0.9886351869594799 -0.12460578619187428 0.02020565605564374 0.05156438181668733 0.3045793428413279 0.1040891414715718 0.2798718908498671 0.7825252260610215 -0.5538611376645538 0.6521072722364888 -0.019564010626419003 -0.44996550068437713 0.7168416490419549 0.30204377362545115 -0.212320083462001 -0.5507749339025934 -0.3442864471342233 -0.5720936886779187 -0.6349488515204289 -0.006467434625895564 0.5822502223831226 -0.07781847200053099 0.5077788858656416 0.5383545719558533 0.3951909635208926 0.5666891998443097 0.003473701955051048 
4.111455107091837