0.5014392053580714 -1.1994756833453941 1.6692377818522268 5.177075698218573 -3.367241667236568 -2.0143503830001177 -1.2835874016217534 -0.28503198192358326 -3.7900108134409347 0.09072481082532757 -0.5849610610466656 1.6134881695827898 2.1412445840959853 -1.1277579504315338 0.6467152804344933 0.013909703677674967 1.7731283416385786 -0.8441604086703595 0.620220634694319 -1.13098139152283 1.0237853835800839 -0.13243721354297877 0.7301451258611781 -0.7602393808641364 1.079244041574083 -0.16295246016153925 -0.5329978226469381 -0.5992053464315866 -0.552571281981748 -0.5175091698895502 -0.049393400781167385 0.4679185269948047 0.060730032151993685 1.2021209430004227 0.11455345361266091 0.08906732965713104 -0.054159585460356985 -0.641017141573511 0.42370547571800093 0.1727274103801557 0.39421030237132537 -0.6271267079534548 0.17832021900882955 0.1275061055285922 0.27769488620854876 -0.32189984560459606 -0.22899856870970936 0.34787499632087 -0.7506331472079744 -0.055816225247870666 0.09432070946740045 0.44550460439756945 -0.4623123290645504 -0.20671355683049783 -0.19214291611155437 -0.0272552965885281 0.4459080520668751 0.2676041177433244 -0.025047801020853064 0.31960683333547857 -0.39809168773838477 -0.5850222481262587 -0.35965297303407084 -0.5958528807607484 -0.0967517386991989 0.3990528400693994 -0.47869600361600967 0.46698395201810494 0.04527895071720245 -0.21685275695958348 -0.48633912018173453 0.1538630930745402 0.5669886373824622 0.476861958776837 1.1264851576329509 
3.512021130527576