-5.744666007537228 3.7112605882022223 2.7746498246245137 -0.4224792691260637 -0.5750537464398686 -1.1329033003793336 -0.15521509891064866 -0.8770511989596022 -0.4137728402718608 0.2662494140496774 -0.1697460508948574 -0.443120794717323 -0.8591505461533087 0.04211747154500628 -0.14623360408758868 1.2309937235524397 -0.16105347154358407 -0.3257010330968396 0.7393345290286772 0.6615843401552455 -0.1965395360313389 0.5620130826544553 -0.781288610084227 0.04008051304217686 -0.1570327453017023 0.39188756600265673 -0.7912924067810342 0.10708183088372764 -0.11500138611570171 0.1398910946873316 -0.4387228109353514 -0.07994605622392231 -0.5290590628459557 0.1138894935967224 0.012195760161987017 0.5330947169942776 0.28568636894507327 -0.6203119792770143 0.56538601694473 0.2325735396610269 0.11558965623180695 0.07768975426318919 -0.009089890227938158 0.07907073131941578 0.5023292573654272 0.058724114226986646 -0.021909240079278303 -0.14083329000603342 0.4031625426110146 0.24322326191612087 -0.004196153139879255 0.5233416478893045 -0.15730184295545652 -0.18098747308137536 0.002423279734167727 0.18047508411031937 0.3549904397392065 0.2034407120654409 0.09832959472365942 -0.19996212391549884 0.3226623077237506 -0.12060567212387757 0.1592549714272189 -0.3701489956221505 -0.03975316878124101 0.0026398730617326893 -0.10979581249333714 0.17250776885460717 0.08871510051046227 -0.11109525339771666 0.18336067906208248 0.12598157725691614 0.2944246289241756 -0.15200255094278303 0.1507161647319598 
1.5232258506307759