-7.043224373714313 0.5397592650670138 -0.46185720514530293 -4.2294979902459096 4.637470727662981 3.499182762265826 -5.182693483421579 0.3008394013255248 -0.6738070934733309 0.4751690233220913 2.1074631202846237 -3.254020332484069 1.3722471511821779 3.4202302676522205 0.45334344588061715 0.7193009730124607 -2.61227654224755 1.5255493484557552 -0.9965038027990116 -1.7216389671045729 0.4425382122811454 -2.0274224947767303 0.816208626258736 -1.3636881176216653 0.02291629611539947 2.1537557037611776 0.9056086811582745 -3.3403530931317347 -0.3090277048824639 -0.8179322088022902 0.0516288274060594 -0.19863801520849833 -0.1653176191942165 1.2718169804838702 2.3266002551092004 -0.06836525478618677 0.23836817921942713 1.7548647771265693 -1.7301263000181915 1.8725907460187574 1.201295265793142 -1.379718336948973 -0.6109400250294504 0.4871318829496286 0.4672907965864632 -0.16211887922258006 0.09122245049562927 2.1403559330817346 -0.46841352483524196 -0.47136883355547016 -0.3449576039169425 0.5510342528071868 -0.49462329550012235 -0.5399436882421186 1.2046659489355473 -0.05975318759093401 1.8174650052548413 1.003794350022858 -0.23651027276467904 0.7834176990748855 0.8850498449260082 0.40942004682591826 -0.00977234648652825 -0.38039102334356967 -0.8055482396380381 -0.148940465580238 -0.698951200598156 -0.1708630359869508 0.5832522650832769 0.18759136686433997 0.3280467248092659 0.4318755879968468 -1.19780116685647 1.2084703306512043 -0.31182679805454294 
1.406767143605537