-1.9118989322889153 1.800323890256422 -0.9123189321584841 -1.2575875135074108 -2.1870591728987314 -1.6654518815669317 5.209156313350126 -0.3310733880732535 -1.3973097523637241 -0.29041382244473457 0.47895218956466046 -0.01408693586306109 0.3984817031072829 0.7169532048263199 -0.697898107443526 3.2202409646321084 1.1817131121998816 -0.6425745713315466 0.597338567215943 -1.7131670327973856 2.5488648115440227 -0.8102940791137627 -0.5302390653960306 -0.4928680233565864 1.320793929524836 -0.8367191007471313 -1.0226521204489343 -0.16751030198576244 0.660836073879746 1.1073865362092348 1.3188361250467409 0.8671414396599624 -0.40220537955550373 0.7084368213297361 -0.8422703993612046 0.6346796062043465 0.10723671470260854 0.5434485784149611 0.27335792403289305 0.2755209566689789 0.6173987444530888 0.0982042558959832 -0.1532105448219978 -0.49366453150676703 -1.0930132843350904 0.22499409425362882 0.8516622427335241 -0.05036560715712677 -0.026322990067582597 -0.9207033895658758 0.33145292584877684 0.25143701869220086 -0.8748825249532242 -0.5463430833056113 -0.04260803316515782 -0.25408852744091914 -0.6172476414767207 -0.6930090559864075 -0.43148484183103486 -0.9237819355360488 -0.32232043319838793 -0.4992653454684445 -0.44293341269521413 -0.030562751596452276 0.10860771213681662 -0.3577540776399598 -0.35930650329284397 -0.06519588941803922 0.710496501799573 -0.7215183333304436 0.14770070772083588 0.21381306283210788 -0.2305172190572906 0.2781645608929069 0.4720671799190016 
3.206018204078524