0.5656859837371861 -0.7185509168762128 -2.916302855130144 4.7641056309965135 -0.14338054681187007 2.1171269827094443 -2.951077203550308 1.913122433132479 2.805530889678156 0.05907268705555824 -2.7621858135583617 -1.3729725090618392 1.7071132432563703 2.0691253911554 1.2939775637564552 -0.20333560099827042 -2.020096809058553 0.20951463314515328 -0.5565243240770936 -1.005974012072807 0.04658193651540943 -0.008964657586463032 -1.0737068615351446 -0.973207426757782 2.011875796218983 -0.4470241081431183 -2.2981901720377516 -0.8321722851826843 0.7775033791076709 -0.1286244087571803 -0.06925394427031129 0.4552385012318252 0.4742443081485622 -0.9885593893629854 -0.8835010026331591 -0.4562955449976456 1.2235880234454457 0.0789164038547322 0.5663830926887402 -0.00820124579137782 -1.2717048102888262 0.9433357799504742 0.3348717806038718 0.3636946708259112 0.017714052291332494 0.39403616515102713 0.9932397537079116 -0.5112049080479343 -0.13185490766746416 -0.14126336614869975 -0.6071531132278656 -0.37252823737545754 0.23405763986616296 -0.2506214351445079 0.513395760871014 0.058702697691396966 -0.2441156011225667 0.05477821974765229 0.4172979481772425 -0.1401493994361337 0.07656679938292493 -0.095255164768416 -0.23296600125588585 -0.3100686943894817 0.045477944566024775 -0.29208388160264986 -0.03911955524293603 0.049941854711042455 -0.32562044046533645 0.5985890740638851 -0.03157585711481853 -0.09246338227409995 -0.5044220595764992 0.1761665176322732 0.0016989143263973494 
-2.3579007013272877