3.611570897603265 -4.866828565622047 -4.730601971754631 0.25728101559439054 2.497717997206598 0.9490236481195264 0.6991840757252001 -1.9069914172639741 1.1893342835012017 -2.5533111120554017 -1.7092977865677847 -0.46522515090830385 2.332944498296645 0.2697384458878622 0.5686179937138611 -0.724363381482314 1.7279835376688686 -0.5509752107956519 -0.9000701502434876 -1.0680093324790418 0.2905215978252569 -0.9518149321349119 -0.49890304279056574 1.1242889019314195 -0.8836789257846888 -0.30280998927819947 1.5624068908332251 0.5578651793132321 0.09238049215846394 0.14963904714287152 -0.3872706387082064 -0.513624439875858 1.6154029739710039 0.6333882624317937 0.5377409095242904 -0.24465163510992838 0.9299419160617262 0.4340425340026281 -0.24577590409548183 0.568356157688612 -0.35158972244093983 -1.0531071347577439 1.131396787937241 0.8772201579875198 -0.4754779913188478 1.080269798484492 0.8590902946294374 0.2820921306306816 -0.9014376375840338 -0.9624425878813927 0.001985304566736401 0.062471271518358074 0.35957671024299626 0.14184799631825773 -0.11876672819142098 -0.47595893078013823 -0.47081079257526937 0.08950643737830599 -0.5012745418800115 0.789683972490599 -0.7182490144627489 0.40969394089748795 -0.17284320535219577 0.9841389561263238 0.2818279450683781 0.15427646321174848 0.05272638180805478 0.07961044233108217 0.370603270064329 -0.05122775318804258 0.10271972836800014 -0.07214154335085782 -0.21170803140745015 -0.41719815716566555 -0.2516718869747254 
-0.43184498962620554