-1.7863008764745096 -0.2402063307525868 -4.105418540612247 4.5913759671033425 0.9203847752437984 -0.7247485536639163 0.6381628724894526 -1.36296455114405 -1.3545140773380604 -2.1309637665478594 1.6596873147863276 -1.3065517785809777 1.8752665877774606 -1.261854352812398 0.8804757302424522 -1.332349180749236 -0.5589637161349965 -0.7652462795786196 0.8621373371763925 0.967970510649982 0.1789153527781311 -0.3086902617406784 0.3964224567242188 -0.7231165214627906 -1.1073078247732224 0.3675500909106364 0.1836113246083098 -0.14060199440938626 -0.8254803525087816 0.3819754650820809 0.24630635809365098 -0.3529918801229741 0.033763516021607765 0.3895791523503864 -0.15745012730543972 -0.7702715980272105 -1.1297044126382283 -0.3841934905899742 0.6500028538227494 0.03693184916295311 -0.9530340949446782 -0.26500886398973683 -0.5774691009866109 0.6179237813057266 0.12845556833090643 0.3335173374579039 0.10768290956348955 0.27873024999427054 0.6229044064061883 0.37688380871445126 0.23641600633128174 0.2820903423106051 0.49515711077869606 0.7643055211967477 -0.1275402924282015 0.08463301472647627 -0.09169959115503215 0.6413807059269068 0.24799056342216363 0.19055394123986993 1.0572488741638197 0.4257801348434338 0.5954395704895439 0.06291096310321409 -0.047332219876784314 0.054312278112855356 0.4010103441551577 0.11927420143734163 0.5795091263272218 0.29870023980599336 0.22272446809132135 0.09885020114098064 -0.038818796020055446 0.23052998430038696 0.11535825866833732 
1.0017103973805002