0.3677932005016231 0.17814908911776595 -3.292338581968013 4.3413607083224965 -2.2307014281877096 -3.0558571015696185 1.448390452839564 -1.3264309116552724 -1.6392494619910762 -1.7990655001628348 1.4242252103955317 -2.2198341377436055 0.48076735777318746 -1.4302773497019623 0.2454159906057372 -1.2438490545901157 -0.8013821743777452 -0.6826753447740816 1.3620669586904657 0.7795538217912847 0.9640138322861482 -0.7637939244840102 -0.44994438714841456 -0.3118520840467552 0.24573184076672827 0.6625430459360967 -0.1266482966949046 -0.29736462025850735 0.5189680442277171 0.9920444766615245 0.9904707546636554 -0.07050152152333025 -0.07019200374477652 0.17993327926056385 -0.11816515289963164 -0.3260438045942139 -0.07750825941204231 -0.2519823367867445 0.6910070888993017 0.052602032853545144 -0.29182857426404585 0.21968375106561 -2.3711203062171116E-4 0.486314455745351 -0.10291729606454736 0.21335020210446565 0.1535474794503096 -4.680080442645007E-4 0.4308705055635386 -0.5060262436707406 0.38579838503153663 0.1020902370990838 0.5897214759884362 0.06762795562073755 -0.15380826412536558 -0.06422780102675063 0.1767335421613334 0.45910534311321927 0.23668533794383084 0.2440424635127788 0.7865939695168493 0.5205539173482865 0.8877379697279209 0.2991860016027694 0.20744461191506017 0.17434762512217158 0.6379413993187556 0.19296440830966194 0.34956529913706136 0.16800219400485605 -0.11144526990542225 0.2225914803501737 0.12739871312781026 -0.3235158285673612 -0.12480407346007266 
0.8230394828097669