-2.40937579124655 0.5102758694072715 -5.371930709278977 2.8582171307420854 3.552242912668383 0.994617348051549 -1.095823348030537 -0.379045906946022 2.7223342862122033 0.30600084519582493 0.5197766158738637 0.8428473056649044 -2.564893848277016 0.15918401035838936 -0.8856434049053865 -1.2593507653688292 -0.693475016852432 1.003772175735033 -0.3794532377899831 0.24262073694450229 0.46297766643772986 -0.2605039911469358 0.3474792514500391 1.5277820774938504 0.011659627115339077 0.0891953565453962 0.11692695335127387 -0.14562146561470882 0.2564479266623665 -0.21833020506913164 -0.03117266358253734 -0.7032173646012322 -0.16678551491336457 -0.26502495503760004 0.014866835673812251 -0.8671498609109681 0.3582833935084716 0.06725542710048416 -0.07384749167221544 -1.4313315183565898 0.44167968579278627 0.23867434017271938 0.6375805989569296 0.3135794347215314 -0.26936441657394955 0.07487409197667605 0.21130536350813528 -0.23870952279186886 0.510342380649675 0.23007063361519964 -0.5043283687335189 0.4077784895363119 0.18236055251480449 -0.012811680460922764 -0.01666936216901793 0.12170502798038524 -0.21293068040051188 0.37865405764992444 0.007204047709290784 -0.23106171760295277 0.4101660144433964 0.3020012625451985 0.27144572333735084 -0.08408206383190014 0.19602492372685698 -0.07764235113452153 -0.3607316771262735 -0.12229802428050762 0.35087787258610503 -0.21448563172504612 -0.06286219427924161 0.0046594635240277404 -0.2594222417882122 -0.0048089497722724195 -0.38156177486833776 
-1.8826827441792944