-3.3141694529965675 2.4624530174365775 -3.108025636188651 1.1421308159326573 2.272747144629924 -0.3182978657056313 0.7465050138098467 -1.4631680410630046 0.4930502881499035 0.06700136555159955 0.8996900467407255 -0.8191406414103988 0.3579918900956519 -0.9143044593854773 0.25773514305546835 -0.494181759589438 -0.22472455051421097 -0.3909158371305239 0.06848216807631718 -0.2217031773440491 0.4665357898808865 -0.4483218346833338 0.19716863835392667 0.11095429600250531 0.08674167358897134 0.11919042358362583 -0.08258758282950035 -0.19572764669409978 -0.09549942662658957 0.7611749501593669 0.33851905480414507 0.31360938263699434 -0.03644995561411343 0.2975624035676019 0.03405314661351645 -0.47208456506671426 -0.1973181365777213 -0.1862633197265447 0.1702150555831459 -0.056131635472654484 -0.520180219627247 -0.08035460387533619 -0.31194653461773975 -0.17209965394196125 -0.07669441075093528 0.04235342350455443 -0.02139018199446205 0.2680231568927649 -0.2640990821027055 -0.02896833032699088 0.10016139012312905 0.06511467928889857 0.3908996040995565 0.05638053799313464 -0.07330166690934478 0.3109677213928158 0.15082006160972566 0.13359182742019632 0.09785242353450987 -0.048769905631378466 0.41055819620494377 0.1458136532351654 0.21382432440434337 0.040635085160258724 0.21264602961735815 -0.167174065066646 0.4185410019366443 0.15137276241589362 0.25892045145931974 0.033292783187787466 -0.015061219276951365 0.011401737126857294 -0.1590687084000138 -0.06048362162299417 -0.13807483009728375 
-0.9147305325080517