3.6971438512066133 -4.853415522259313 -1.3478784087992806 -0.7777860699130188 0.43972880716930046 0.016067921320913413 1.2708925886015972 -0.8994876357169016 -2.129688983059486 -0.799557113754835 0.9904551904046611 -0.09878890528995668 0.018250873609512046 0.1010878489715184 -1.1876931417921064 -0.515754125180005 0.4488708471915426 -0.10486473007234176 0.37954332535805047 -0.5131101239764335 -0.4983781363160733 0.09762359720884038 -0.32229175410365996 0.09078626754304839 0.642481591844596 -0.4614455881600773 0.2464706315484707 -0.20204887109157624 0.6958068279578649 0.6528745008344065 -0.11315640059606685 -0.631303363963708 0.22938078655453153 0.4195647558057557 -0.02725282652158181 -0.14188222030698483 0.3535014539742243 0.3803598125619781 -0.13491874933944872 0.3565720001494519 0.20420606534158164 0.6445646026909392 0.04877487382193669 -0.11839091342224589 0.606806360388727 0.20010096539576405 0.06458919163339136 -0.048430971678861484 -0.09075968479572948 0.3317570260887285 0.1785118997542519 -0.14325442914949568 -0.5822966137950893 -0.05533189777636538 0.03705460272657809 0.2335598684575409 0.47375579961625824 0.27959770250161736 -0.1589186358206642 -0.033385201807912906 0.27097890737648705 0.03674088271992815 0.07047053556005473 -0.2514728944749516 0.16402315422627411 0.125230967940184 0.1778322052849046 0.12029875203838314 0.2282503284831742 0.020171235921719682 0.4231833786170228 0.021282756107414726 0.2997260286053076 0.34422049184009584 0.10979184997902461 
1.5972298454385472