4.205297137315532 -3.7390035289079444 -0.21782164536940096 0.13786345875583783 -0.3068157415037416 -0.8655805447736683 -2.6212448038272154 -3.051067969696335 3.3235908887618204 2.364943749151968 1.475694541299861 -1.3994871836281784 1.0506979637871945 -0.30416221709277147 -0.03897115835485121 1.0542290378714971 -0.732242249880747 1.1186896456578574 0.44802880158054026 -4.246211620234086E-4 -0.9907841088747469 -0.968914379030861 -0.6724184124125874 -0.32797859047017003 -0.19743174677570602 1.0724626185219588 0.5197980410108218 -1.0908244697418732 0.5811548045309418 -0.9317102243981699 0.11268769573267538 0.6647817125538172 -0.15780101696519366 0.4475674708043944 0.6361162588070746 -0.2559977274076601 -0.3347006024378908 0.28983855927378344 -0.6565685761545073 -0.24042481101060598 0.3107942610121245 -0.18696733064256296 -0.11445277785398844 -0.06384987841053572 0.27288618927992153 -0.5286264122050441 0.7925293063262069 -0.14229855852409418 -0.25270822219817646 -0.3041030168380219 -0.6167114314648943 -0.22019145881208502 -0.4485240275534372 0.06339814017384264 0.6370069720845024 0.4759935771667163 -0.16547757506308744 0.15588269094331345 -0.018916701595562718 -0.32351671582201164 0.31134863404416346 0.5152823110267286 -0.2436274166481126 0.03469880792518654 0.4196028407597894 0.09554638002274018 0.12682128868388845 -0.6979642171868383 -0.17044406410875212 0.30841282415274635 -0.1352791240758788 0.10334370658082309 0.4800557442389366 0.2605106140043542 -0.1315214149636476 
-2.6599998908916507