-3.449791393253893 -4.145231952469171 1.218547041997355 1.0394430020705658 0.05658371973198406 0.5491338958661958 5.2883540092865715 -3.6830678102630356 1.354010265088391 1.031243642477969 -1.421839039421939 1.9097116134303516 0.7960157876876555 0.04005482175621777 -1.2671129264479255 1.565906174415406 0.41025294194843376 1.7474637664478874 0.6956268969385595 2.4973652321688737 4.04903921989538 -0.8414160701928177 -0.34572924850176934 -0.4633704664198453 1.1315519284347821 1.52735619312981 0.04695691165442861 -1.1538407232647874 0.22862430809334447 0.8755204706038753 -2.328729701073867 -1.5242876667716376 2.6613178598410405 0.22124814063530174 0.1341566745594896 0.3987455052303537 -1.7442937612126188 -0.5042239236932844 -2.471458565093167 1.5720210032630826 -1.220066230920731 1.0771704932495214 1.3699369869078417 -0.9749207714497619 -0.15374020468362715 0.17782992870697267 -1.577834291005663 -0.26444095564573655 1.3848643479716067 0.509236247792456 0.18319575365676233 0.11425809492890804 0.6947733822310168 0.1410967576183995 -0.5195543798325448 -1.0834310175933817 1.6269735851598877 0.2891427013819208 -0.49715742533873075 -0.5078549067674415 -0.7469175874339518 -2.1982958101268806 -0.7341624345837588 -0.9335118809339745 -1.2334961934227437 -0.7856298118734497 -0.7570011254305807 0.6880339334691904 0.18927100641017836 -0.6454945064642541 -0.4074305936946236 -0.5241741759012508 -0.8619986274435751 0.23770085335681002 0.2417710791316392 
7.485336891317732