-3.4125210972568674 1.001318497630539 -2.8614237874400437 -0.9950138334699792 -1.7518406831840134 0.5989023337891002 1.325115327468473 0.770826967956359 -2.1150735999001986 -2.64107986556126 -0.7933083277587902 0.9981228141427154 1.968864810022865 -1.0847252062781672 0.8252843822184815 2.1421229242588344 0.5049563036751225 0.5580880622544369 0.8654018051635497 0.3802690689101077 1.4684027597022105 -1.2455038287851812 -0.2765383929925268 -0.9497840737940485 0.5425564553069052 -1.4271430285888902 0.37875602386806106 0.30011780856797676 0.6923547815296539 0.8662517977361104 0.5944368227530414 0.44771433414936557 0.06294475271634137 0.7762260955075295 -0.21371464849869054 0.20043513251273593 -0.3415035488198048 0.9829012202658122 -0.11395516352242216 0.2853107947187923 0.2634223208254399 0.49534510287717914 0.23519785659455905 0.13558196831273628 -0.49881251247270614 -0.2733773002776212 0.32080066191718687 -0.311697237998967 -0.2203304609511384 0.9311480876419902 0.6654065124552402 0.17117972819943594 -0.3691580788354881 0.388770240659155 -0.02342412392549098 -0.41463707661679855 -0.6298540138418297 -0.38388495297562875 -0.09912665231146137 -0.5905829620542717 0.3968283710596239 -0.24963101160328116 -0.47726464781496025 0.08906456810363506 -0.10740991085404691 -0.3770208679812803 -0.38307567771978934 -0.0013493003550152372 0.23859009593970643 0.04808124753525698 0.25042929247974366 0.22693022434495835 0.2455228930099842 0.1498780577004606 0.8439065679592739 
3.28672838173312