1.073316523712494 1.7055220122257433 -2.19963872051944 -2.2199918934005156 0.37677204130425856 4.183809142728085 -6.123290245845077 1.3831548215204643 -2.1292060502687864 -1.3824833518834179 -1.5722276370893034 0.22935125219902175 -0.6590752913477176 -3.240753716671301 3.2927352736914655 -0.21474416540812233 0.1102994617599129 -0.016776001507803645 0.9678832191432991 2.2364970197733762 -2.097164992375345 -2.299148047722267 -1.0146015445597645 0.5980333406782274 -0.44765690271458297 -1.554263038362651 0.40337027588687513 0.3103947946463485 1.893327196529679 1.375194177795308 0.7798180928393671 -0.09826796890291184 -1.518509933601985 1.3468316041464834 -1.1589395368921989 0.3894855863585884 0.37998604427335586 -0.33314426744834397 0.1915069608046607 -0.9486585643506644 0.552506741949651 0.18051905297249576 -0.23581770792139553 0.5753959450825199 0.2909006826041019 0.1789435198430232 1.2993231139839165 1.1371948178083628 -0.08651955314665757 0.8789818712012185 -0.6152300929847516 0.3399894960689578 0.523820855690623 0.1499740339754143 -0.17868079677430806 0.35120258096063217 -0.32765116587619125 0.13459995260714935 -0.2628827461194617 0.8118103909559067 0.17311225663093663 0.4728945051950899 -0.4716307727729104 0.21901720924027304 0.926306093887188 -0.4420276111644904 0.23839062280785744 0.21920204848561842 0.5435148731853081 0.4778638418346005 -0.0314388362801388 0.20058056248780942 -0.2608552195235874 -0.365662441990328 0.40360490395074 
-4.458459649810548