1.3161236729629016 -1.2121566879155572 0.23142284586367035 4.489059438783462 -3.591887109308004 -0.12996691680960293 0.3227108985783931 -1.291466538175225 1.790594727888029 0.5027150457507963 1.2099938897452398 1.286863396371292 0.4809370158376563 -1.1503289727622064 -1.0696280415362371 1.0710304797727694 0.49221053985042 1.6379306614462723 0.23205066236754332 -0.3410481063544041 -0.6494330297439612 0.2759332315289605 -1.410316665882419 -0.3532455766951126 -1.0047064425722259 0.30901495614237856 -0.1865592468061676 -0.18736707607447686 0.24503505204597492 -0.02339542237390828 0.04322040447095912 0.08103776992705544 -0.1937238370138303 0.19793829933539583 -0.548465246551874 -0.18692521979385845 -0.26387772941118204 0.195804780956512 -0.6880616130044036 -0.039602450158523816 0.10213307980605088 -0.20910502183920926 -0.3449878239367382 -0.24441632683313017 0.16057009070242406 -0.2698747749750449 0.17345461057261025 0.14651479406803875 -0.27752703213897273 -0.21841761501521173 0.15587656198442956 -0.09547532581507549 -0.12321981580330721 -0.07297035019433473 0.2643097428295504 0.0042088096555287224 -0.014331056344577459 -0.001788333897311381 -0.2513135149998178 -0.0657745901848795 -0.13226049808860202 -0.0427241848289909 0.12501865030593182 -0.08068953422302906 0.10412883690897613 0.020447731615395794 -0.04480277591248864 0.012445199238710083 -0.20476275760111207 0.22615439428965892 -0.3624165735988065 -0.09636625139672499 -0.25031973690581993 -0.04734772344386634 0.06616327531722832 
0.8483797817088204