-2.064940115170275 3.4704958319062778 5.411914149227988 1.2583619951386158 -1.1751963631771982 0.8015070906822259 2.8228592887875736 -1.6946279030563023 1.9539687783180968 -0.10640470185995354 -1.7906276073825529 -1.0508791984430939 -2.651206840976796 -0.003465744055774305 -0.8973657676048209 0.17127597114749737 -0.852554595894253 -0.44426234051382635 -0.6364420790885128 -1.39477701928867 0.5089614562954203 -0.5814729262657774 -0.0717868764438851 1.7352832745516054 0.4949074819158938 0.19699296637636504 -0.73510851949432 0.9078764179255328 1.0964560985881295 -0.18592414627092962 -0.09361021333925637 1.0406857894829642 -0.06823506447236788 0.8793394108986401 0.673952566525256 -0.20124754126765432 0.7390244102367982 -0.10827186743501449 -0.297961520428808 -0.45888151749035566 0.975670715814833 1.0976428783020515 0.08954596056115494 0.6459905727844095 -0.8228991333141934 -0.8204847338389889 -0.5594230317499551 -0.29332158189334867 -0.7771659547530793 -0.10263813676049821 -0.9087510258126592 -0.4179765744491035 -0.6462976271999287 -0.8521560257723635 -0.1488493424657124 -0.027420604086697525 0.32503308348873483 -0.895765329236464 0.27096346263428317 -0.11959599954809123 -0.5740250679243227 -0.2309198545361151 -0.28895136501247154 0.17876604872484086 0.7639182852770403 -0.18651144229401118 0.1750402909798647 -0.06201571669601663 -0.48885232004081663 0.09397465964837838 -0.24234281572869903 -0.15984763677965266 -0.7790572738179357 -0.7466638218548038 -0.06322605123410824 
-0.6631741664536229