3.3484132847046477 -0.6373045513370166 1.3839989216118491 1.3817091430504924 -2.557645864604194 1.0306513056890931 -1.5569120663123879 -1.7000343430677693 3.095700530222035 2.7053990026281642 -0.036040573782123775 -0.8864710167136836 0.726217851457449 -1.043443197989958 -0.6387997310989642 0.17809720468457466 -1.0781951509913983 0.6620693338854561 -0.02533022771963092 0.05562003342168009 -0.8464102700569814 -0.14287762007218816 -0.41680440050087575 0.3004301599039102 -0.6047780825367156 -0.5840142200738714 0.46517119370185595 -0.8226899740148688 -0.054145894885049235 0.114948832781119 0.5187232730812461 0.0392461565843503 -0.57667239090044 0.037735143822391126 0.1482442718546142 -0.6167364608080939 -0.11811626206954154 -0.15369153353050302 -0.13515565065114216 -0.5100116168680593 -0.1374438871518454 -0.25436373804504825 0.26982150568472363 -0.03204063061909469 -0.0860530081854793 -0.39349942095430823 0.17494509460438112 -0.28482111221076767 -0.02272429362099736 -0.015291314959915675 -0.3468313891253185 -0.09910472981561268 -0.1906402947312949 0.14199557556391584 0.19603897501846174 0.37821865590819803 0.15529556778453518 -0.08777439622951072 -0.03379740298042096 0.028250365322118817 0.019413778465583335 0.23501424970673737 -0.23788294820996903 0.3330394248408681 0.2445570526618639 -0.021909201405356418 0.3450556097490918 -0.42332756516606823 -0.11761472594826392 0.11460020492119521 -0.021498378768766976 -0.08373663191628121 0.04757987070456984 -0.1562602416076996 -0.08730516178370076 
-3.206428905404117