-3.8629391286995283 1.2704714444275595 -3.998011621976617 2.657127553385351 3.0986055585811236 -0.44189086415038314 4.093863421941813 0.8679583980066419 -2.348195362438023 3.0898767155691016 -1.431251784984439 2.0118260640557777 1.7666749722544677 1.6802842414835943 1.1970844483572098 -1.27428239691579 0.7184252747869634 0.9591305187198355 -0.2909781718007488 -1.0344667802547556 1.4448947426533563 -0.7774622990667384 -1.1491210202815734 2.496559918351722 0.2674095648056415 0.5491802981585687 0.4522799285159519 -0.8625237612213777 -0.06565275172116089 0.3518762305802421 -0.7031132375419226 0.10359240209493115 0.26811147593303797 -0.12003857020309908 -0.816353496393333 0.08720775978192769 -0.7771225290233683 -0.3692448778179484 0.020633448700924872 0.5992230278584307 -1.050313980522796 -0.15156825436419655 -1.6279097395386322 -1.2387375693535443 -0.06931805309912412 0.01964838724853059 -1.0522133680615757 0.19323413874072132 -0.6374512098492008 0.5198376688275275 0.5450961741534723 0.10357228073394877 0.3480595754052448 -0.481643440764359 -0.5686791785988151 1.2162854009178299 -0.0929554330302377 -0.612018430181652 -1.9494148121382624 -1.0558432028791949 -0.06766314573861734 -0.6291636455776868 -0.34193630046393936 -0.20278653117680373 0.2522593103020031 -0.37619184968134023 -0.35640293664657724 0.27034714000959814 -0.08835792647781289 -0.6127754217803385 0.0798211099859136 0.6232225096536667 -0.20813561524783342 0.09876652532611828 -0.5283189306453587 
2.632241195707805