3.0675478938340115 -6.601434777260248 -1.3012378150815525 -0.3305451873653082 -0.3364576704912603 -1.1658553321348752 -0.8737389037585008 0.7540661473996477 -3.348042462708281 1.3403066452584917 1.380279942806981 1.4604421417703253 1.1268568141723443 0.08645640490915715 2.142720734603652 -0.43804755711938204 0.32146646315651395 -0.4160235169823271 0.6626480452821658 0.8928378844070146 -0.28621724082508715 0.4899429916580457 -1.0341745067220405 -0.9000024859617 0.31433901311823365 -0.16344440793227377 0.7070646970530325 0.03848936297995975 0.10758254299791564 -0.1793769552902224 0.6276637057911073 -0.15593974285065249 -0.998838580109543 0.6460562486815955 -0.039372616818586004 0.5202770602501983 0.08407097362952604 -0.26787724747036423 0.41974014939573673 0.36245362344047427 0.3416407441607376 -0.2200548734632118 0.06414733365929637 0.3866427990852348 -0.11783643909960956 0.9346318337005552 -0.38537407851295913 0.6908322511518186 -0.28076869481057504 -0.0071995561199665326 -0.4848394897933458 0.534732597127351 0.18870989429124807 -0.9040845396381495 -0.04934581667567908 0.714369349305249 -0.38943666945214794 0.2232031144577532 0.06145548690886065 -0.06713122379836434 0.3365683503460036 -0.33155952012463474 0.5606061898251722 -0.37971895062723005 0.5901191953122216 -0.1791811530281081 0.1619270063191663 -0.5792355773999522 0.17522367891332843 0.12910386224810716 0.11761979602678926 -0.27368722748433194 -0.5104913241443989 0.08795960950509624 0.14376956211474698 
4.027716753799944