3.759301747738851 -3.0229071218688492 1.0559172918219932 0.8036987809925074 -0.9348221251633313 -0.25846585994647087 0.10788522104668052 -4.35512708420319 2.5955100649039746 3.9641793220410904 1.2762943369735933 -0.730593643058763 0.09805924703203484 -3.163535221957303 0.5604426984120758 0.4860315432071064 0.39835662579943043 2.1817221200760395 0.641518420419767 0.3832914417620936 -0.2245955027480382 0.31520982332768255 -3.165321760960401 0.2641940707139069 0.14299674818072128 0.05540164072719239 0.643830211500065 -1.8782091059923227 -0.8988143302812839 -1.318985476630076 0.35844987737825246 0.9883611422920183 -0.5506079506683526 0.7897506740764664 0.21041185087439748 -0.6487753642498568 -0.24030397799879455 -0.4667663324412922 -1.2786995500018736 0.6224216029850913 0.43195785700437184 0.7328929426293578 -0.6419792816072203 0.525515075128122 -0.1421205611685686 -0.8261723046524931 1.7041109829123333 -0.5958517838936506 0.33511978566125505 -0.02216029185466306 0.4106872712004902 -0.611968227985116 -0.026869760491603945 -0.62028824562743 -0.2543457604156187 -0.22273323410519533 -0.31008344022433 0.05385544213936683 -0.27177640382197626 0.3737859426108595 0.2807940009599134 0.8981419629435243 -0.212155218062556 0.14151451128054737 0.24306342550165141 0.4404142280548582 -0.5714859918301793 -0.8256849309767298 0.3766043483479645 0.28832003870915174 0.15871855606305865 -0.0556185860122172 -0.3838120082907171 -0.06434267064379207 -0.30275376559559836 
-1.8092836236163508