-6.184232458107111 -1.4871828191376935 0.33898697553714463 0.8713901938916189 4.097291563658768 -0.4253568248242443 0.30602070894966715 0.41899026545379003 -4.306952486911688 1.7874324571055489 -1.8773013370484297 1.933567870534298 3.674256393849417 -2.432235398446 1.8341114457456973 -0.617987444769925 0.7007146966246594 0.564527939191042 1.5253132047910691 -1.9215395303363383 3.3806780243647694 0.3105841651266601 -0.21173648224402442 -0.23612663619664798 2.415791201168126 0.2509943508985 1.1817709169451005 -0.28988718491388343 -2.2853351290775668 1.9735037802030497 -0.03487451338390718 1.5797281833601462 -0.0440012829585914 2.1590627085706453 -0.45922178237479233 0.7496108386290932 -0.17965868062786244 -1.015583358879942 0.2008941757952718 1.6715409779177364 -1.0544003424154358 0.025671312462087092 -2.237133101166615 -2.127364098113194 0.9758260158489844 0.9689650801095477 -1.1778635534151356 0.6451638650477898 -1.6829357600577661 -0.4899124145699384 0.8927385352676807 0.4748209850711632 0.8343606105329371 -0.8581369040467167 -0.18084111531311886 0.802955812481984 1.3026176393014994 -1.809150227641775 -2.525139267998656 -0.5457721297073574 -0.41456521622538134 -1.1192841326892355 0.27505141872676586 0.35730740160882696 -0.1466510794180222 -0.803176019998329 0.01968850236035402 0.6546461432052111 -0.6602459494268549 -0.40139131055023725 -0.8141925355723505 0.3807370601714153 -0.08893739190411154 -0.025400944366379186 0.6343934243272025 
6.85148954472892