2.917118717942352 -3.304870891820835 -2.146468887104421 3.9945960651894694 -1.2028852859160413 -0.8656021535500817 -1.5720644823675882 1.9187898343351013 1.4937483562620604 -1.2654471437544128 -1.8582284402158424 -0.9200091387314391 0.11661812566297289 -0.12382992648866109 1.6629403358660544 -0.014783210949288916 -0.6042400669038822 -0.6210342185927027 0.7521951842101273 -0.45673838698258973 0.7693185552936999 0.5819965970376939 -0.7190364764034931 -0.7978077887879576 0.3467406601468301 -0.40090963915202193 -0.8407778739071126 -0.699071446794049 1.165275065064699 0.14774893672816292 0.07727847621759576 0.6073158484845946 0.08504288755250727 -0.9126860412639358 -0.34932642563177924 -0.05339516225540297 -0.11074171858749914 0.22481053723752725 0.40716392139320984 0.5041858879594513 0.2815015245580335 0.8340472913308181 0.6343183376725021 -0.28303553200495374 0.060087439359912065 0.11315672597896176 -0.08616829842730594 -0.30444747939594946 -0.09120777802447547 -0.38134718287172276 0.10952496188357258 -0.6648160754101485 0.2978502492095003 -0.5767985390574667 0.13065184637603058 -0.02070622665203284 0.33698571771904273 0.21508550294898082 0.05204935572095114 0.08131523127476448 0.45797404361127025 -0.020956496171487232 0.44864255860554275 0.25488858241337375 -0.11180427106055105 0.028004754562150902 -0.14085147538750822 0.2729003524575261 -0.28714840268876596 0.5097790775657994 0.18748079164638312 0.22865729753940897 -0.13976848002 -0.21295333318571613 -0.14582125849952382 
0.22541380360208588