5.71834398780716 -4.153098240117387 -0.05644877217742561 1.5790615758773874 -2.6160229110449045 4.900212126218157 6.870452316457113 -1.0653961402377303 2.301256504763673 -1.1780755116293946 -3.8692718976700906 2.508432726439146 -0.01863295508295959 -0.4347267789888656 -1.246462055636139 0.9897106825565252 2.057371953416473 -2.665682862829714 -0.10669719563783664 4.205398385516487 -0.3998936682871719 -0.0342507956703626 -0.8692571087371141 3.0763557636347687 -0.6935799753348 -2.9858078992824915 -1.966849023593353 1.5220652693366221 1.2775856727998576 -0.37116538405919064 0.35772958053220205 -0.47611372045533595 -1.7238348630713922 -1.4271559647030152 -2.4022108573170358 -2.2689009250691172 0.9724971483438489 -3.2147232290337175 0.7329310613997644 -1.8605206111497794 -0.33164143613278513 2.844174288756637 0.09657478433370159 -1.5328050045050112 -1.3605006519459781 -0.3435774283049169 0.31129770182103833 -0.005877890373477634 0.3523782145532327 -0.6780571588594239 0.734034521708868 0.7300183963022279 -0.6114759040773492 -0.3018463884840955 -1.3179159423794213 -1.254393471488768 -1.516890561480889 -0.4573306892964979 1.692268207132672 -0.06766472105101576 1.2627757246437126 -0.741990050146845 -0.10116177851830277 0.9710509123708132 0.5597266081386771 0.39514025568641764 0.46759289000645876 0.5459728296835898 0.09221392126104622 -0.7472763705220882 0.42130234933188127 -1.4779067264604833 0.5919558090088254 -0.4332330961130082 0.24844244711767915 
-0.40102769825189766