-2.968245615598434 1.3399129352443566 -2.4018615190846564 2.0235056379682184 -3.8621732697501994 8.073557109886025 -0.062041546567499495 1.7191350096058298 -2.5949381005968704 0.05670076168268867 -0.7328901100612291 1.279616268650404 2.2412958724620835 0.3895577632079785 0.25565925613483564 2.547862997817239 -1.9577381370318965 1.0359368299777703 3.0256755745219297 0.3832838889276201 1.6648931796090496 -2.2799420477396213 -1.1232282648715377 -2.6058248142611924 2.2296614393651537 1.0055012748819983 -0.17699709963852217 0.8357419483549263 1.9524584718676599 -2.0666555511394993 0.577835975740856 -0.82751366402368 0.999350549988161 -1.1909640623784812 1.0079839432579871 -1.180418301294095 1.5031371437645327 0.3213563756595659 -0.6872715387452838 0.8253176378052771 -1.8679489054639564 0.26670291113025557 0.19037018719915189 0.9544431715392196 -1.350604248161935 0.39423844060053703 -0.5443382102291016 -1.70810513151226 0.5146816471633362 -1.8354393827692101 -0.49874840700218415 -0.22142612150988994 -0.8233955385033336 -1.819674472312778 0.7553532092968117 1.3156617918833184 -1.2360647699148402 -0.7838412266848155 0.2922297791267958 -0.8420102053467557 -0.015316939558457365 0.17459717911870287 -0.5214660554484585 -0.6752364212583821 0.38473409772127565 -0.8131370706458145 -0.43565520570193217 -0.7564462767191924 0.483556366472667 -0.28259536720284073 -0.48611175707780463 0.8322096190862944 -0.37660070288277014 0.9585735260069763 -0.19942371403801262 
1.7370288640239773