0.7216373936991971 0.03290274641902613 -0.03644214955512215 4.233098236636097 1.810290970851046 0.6597821976097711 -0.4413624614082412 1.994923912764832 4.854946587451091 -1.279406325318524 -3.098021731024038 0.3623031674748467 0.7453619186057 -0.3468967204932126 0.7251244348907859 -0.39731420273956697 -1.9877645015324021 -2.0873398888870653 0.2237027042594294 -1.1450551342117556 -1.6866058205307888 0.8958296969264323 -0.6724273146769456 0.16225309009880884 2.3801800135288635 -0.15251708465103703 -0.6780200671514145 -0.3351924871787353 0.23223936718040505 0.40874751584761576 -0.0011323830876893703 0.556817325987836 -0.20429819111125413 -0.19690429082599348 -0.3753103072495898 0.0029433332256718625 0.16152883774256682 -0.5478382587024551 -0.9681070245234884 -0.7301254272167759 -0.39803239838092547 -0.17989486593536325 -0.040159281382163625 0.1041308416103689 -0.6433465889615183 -0.31491760278314196 0.09192035202141136 -0.5682033907262709 -0.15248951912684566 0.3313156408659962 -0.285679545702321 -0.22946077570138296 -0.5159228484813221 -0.39630005383997935 0.4041726682470521 -0.7461254126473883 -0.48976047258916555 0.37529773335713346 0.10054690221827789 -0.012766920130098829 0.11947674469547429 0.13941110177569982 0.2655107331161304 -0.255938311429315 -0.0576089102364533 -0.0711787783985704 0.2132792625018481 0.2512267602781614 -0.2079092819420847 -0.010685227451106338 -0.1963224760692072 0.033467741250557126 -0.07871626558605276 0.07855766453507462 -0.45342689809644354 
-2.6379708032560183