1.1155468257626104 -3.5445702050653907 -0.38037567941126094 1.578433360216852 -0.4637654666064006 -0.8976394685074061 2.8947019194767156 0.9219443663742923 -1.612236962835044 -1.9527245788219232 0.6306873486000688 -0.2919723945324535 -0.6640404371699127 0.30288119066327557 1.254054993624373 0.43332444929262576 0.824288056118519 0.2518248257137068 0.2199616991912685 0.36099501704758136 0.6557684568698878 0.47580491755367604 -0.4639358950811008 -0.5891193612523095 0.35253792184763366 0.01961629008052744 -0.2355308135064874 -0.19637988478230445 0.4282388263526335 -0.3156993464690211 -0.22309068498543527 0.3538995962118575 0.2848526517956563 0.46291170440484014 -0.08932693193451119 0.29052769842669474 0.34581826502520957 0.3587337782307016 -0.09625686340590228 0.744932199104573 0.06890637573333958 -0.1868813862262794 -0.8289825286505217 -0.3180375009413104 0.16782822093193112 -0.1028466565360393 -0.6394639564729053 -0.198359566481139 0.22998948587176637 -0.27303505671477435 0.3987074208315382 -0.008895047671297618 -0.010060237177144993 0.03275862508998849 -0.17089414366882624 0.19159002503919642 -0.32041063275860837 0.1709101879203262 0.07842528499073473 -0.15110966249656832 -0.11895994147026262 -0.09581717170239296 0.05911220961245567 -0.17039707082957534 -0.09776543065876706 -0.3413267902711571 -0.16365797305586113 0.037278449591544374 0.07085499174977516 -0.36525739177424704 -0.03632293660932834 -0.03742891528742437 -0.20845753353400293 -0.0962498944628436 -0.11136523553024422 
3.9978498931912267