-1.808339955837262 -1.4089068467049408 1.8836788992576614 6.042124777513363 -2.679832759163318 -3.2317636804311975 0.7985286999948258 -2.1519807036100467 -4.32690465650551 -0.2308566719693399 0.43236646272779944 2.236892698688342 1.4260166585707679 -0.44032376653180505 1.3375688894510618 0.3026240343654478 3.027882021384654 -0.08533235928730787 -0.3558789204075181 -1.7834262081071577 1.4962328743850395 -0.34258817833626254 0.4827409084489382 -0.6722325972713263 1.165044876317075 0.2414273020110862 -1.6003391937286868 -0.9770896698974891 -0.3233951040536093 -0.039917273347544746 0.50126494718785 -0.17235289893686007 -0.031199410828833152 1.1181756317852356 -0.010027769717308788 -0.9408086740354396 -0.045774560606524406 0.5391028913467844 0.11107534378997566 0.45664734781676963 0.5690287867621158 -1.6789512736508567 0.5291969900778037 1.1339188735390198 0.2791364333284745 0.3823983201326757 -1.0113364038073531 0.37447909679068764 -0.20233497712807144 0.3875362838971626 0.15989686119594848 -0.05617274929502597 -1.1490583472159617 -0.7001359768411167 -0.5745736800518702 0.6877514217970433 0.18108400830237203 0.7268494293424881 -0.14575341942353642 -0.10833691710270368 -0.2818135538427414 -0.8297671762945369 -0.6137150515384874 -1.031986537664092 -0.03183098008999952 0.41796057945395565 -1.0231753559271803 1.1732383322047713 0.009217227334321176 0.12577114456290545 -0.3392367661432729 0.29077438637925407 0.5407644084442633 0.7385447322569256 1.1305084444872489 
6.299254869296581