-2.5711601548205714 1.6940618487538686 -4.456063764054129 -1.3954069326063643 2.2047127491062413 -1.167558027559006 0.8250235377808357 1.8831879262304847 -3.2142222571077212 0.13102735522796527 0.28203795220125827 0.604423922343742 -0.14173978853070224 0.3995564402964129 0.9289881321734631 0.8707024809582269 -0.8237901563258576 -0.6747159079911729 -0.588433344975801 -0.1787213931405519 0.030369576218936878 0.5518326281587231 1.2584871599576921 0.5729631961268974 0.3832871733572859 -0.7465556475016888 -0.8801205021698446 1.279710244469292 -0.37251190062763384 0.525766856628983 -0.7833055854127013 -0.6353713718010727 0.5349332296187315 -0.35092972639893405 0.1415763976844545 0.4904687755526681 0.6727112335397746 0.1824596046742416 0.27012119727804046 0.1276535782318824 0.15261249262105497 -0.17810711575719126 -0.2292155472602952 0.46037339845889574 0.1422106919429853 0.30362320817620514 -0.15322133147472167 0.6050762093755777 0.19286102940280256 0.2066724939620068 0.5694133181185522 -0.31280066025137326 0.3495733239048396 -0.4093778985221951 -0.3001704930700214 -0.19810277575203034 0.25662401217858377 -0.004751034641224283 0.2634443847642946 -0.3369935662152909 0.0694321055082997 -0.09226755595991454 -0.20524032783343604 -0.2674634777998163 -0.34376408434688704 0.36611742200394864 0.41980567456596285 0.8020069407091451 0.07309150002584758 -0.17005708501864475 0.01004683190826447 0.23840887125758026 0.33779490394666195 -0.32045343633318524 -0.16265915814160936 
1.0269176641027589