3.473587448753033 -3.426989990088538 -0.9129923524009458 1.0918943167929585 1.6395402332415205 -2.7517417478724053 2.3893882634513415 -0.9244869521532072 -0.29375427227745643 1.4521928121108911 0.8219438145921794 0.8923903155666275 0.3600409914374463 0.8323314580248368 0.41346834981786723 0.9849265919112375 -1.114384156346392 -0.16823435734028347 -0.43011153093122934 -0.9891916914862928 0.6004006901532157 0.7784868807791985 0.4037029146001691 -0.08706432082980553 -0.13584622042189842 0.2604186301920788 -0.4964575503649591 0.4546952485285908 -1.1724406343778706 -0.23993300463015427 -0.7398589675234379 -0.45520069699133525 -0.36464305910020534 -0.7070721486783844 0.8024484069029673 0.13724854519406307 0.3791504462187813 0.011002208587822748 -0.09549970827324475 -0.03127170521531486 0.06698043234821444 0.162383493326596 -0.026889023431189707 0.3555444407314465 -0.13840679005951895 -0.09745192253174928 -0.4168601175448191 0.12011215503833989 0.053292872440416944 -0.9565851471111521 0.5065648825911647 -0.4053611209250688 -0.28251752250118084 -0.35029789188728955 0.13441896251986662 0.260758069922071 -0.04609397471219423 0.025285744158179413 -0.18948566217764168 -0.1260970114223384 -0.07403721982872671 -0.1584154472134312 -0.020619953862963336 -0.1839889694869921 0.00900114284296237 0.1289629700092511 -0.010045677933514352 -0.5675643993076712 -0.5205433825386838 -0.25323129722915344 0.052826872918525836 -0.293692662826704 0.046354281335082015 0.26381869441059713 0.28979668038581796 
0.9295889187115199