3.5612960166398704 -3.9220872443335466 2.7001342362292107 -0.449244180577711 -1.5137135566861453 -2.4206405894998593 1.2101338846892515 1.2896401973231173 -3.067648080483765 -1.5594813064943038 1.3584672847851063 0.7382889379177642 1.5171410493337047 -0.3979180331230811 0.3553462613465712 -0.6426448747280133 0.35075237959492744 -0.3295590166400756 1.1465742411484894 0.08129613292642701 0.31557687976984594 0.1388538493068494 -0.4969672775220609 -0.31825605000463 0.8763968165674716 -0.6383612295076229 0.16656102860047795 0.0623460252492799 -0.20594216062299397 0.8355735549589081 -0.3438422201593947 -0.5172107286656735 -0.31057543244898866 1.205034858727997 0.49434013369128527 -0.21383193507711196 0.32920870557583704 -0.20880164866487028 -0.1277219861253303 0.8287372090551421 -0.31697999734461785 0.6310499503700371 -0.2860193393774376 -0.731403803745081 0.5492415313812526 0.39798226027627537 0.1536416024646215 -0.32111373454726305 -0.5033258573755023 -0.10975199648920109 0.09768566178530225 -0.17977684250557685 -0.7644812600758899 -0.28758853056279543 0.08589089239058456 -0.03893543909375036 0.7775266183491056 0.014820358222541241 -0.21746287493348843 -0.08354592053537863 -0.4571655497316647 -0.3622726552651975 -0.2525041821591092 -0.3509352054567155 -0.001834968783422819 0.1065143281673199 -0.07032375497286819 0.08281199978590409 -0.3291259612063527 0.045740401979678824 0.24266996509866612 -0.17612097364198775 0.2521638908387809 0.29466992818344395 0.23100732643742494 
3.39603729797137