-3.9053838494867397 -1.5937264944767988 -2.116005567617106 0.23034615987164997 -3.468648973352116 -0.832243903567783 3.2344378851085174 -0.6662472234052079 -2.120335940872706 0.6459402519275665 -0.4476046685932966 1.055819574630342 0.6476941426719629 0.9205150814060883 0.8051742106952327 0.39741869368979654 1.3341959597115456 -0.34366583450447163 -0.7127436327151838 -0.24644047003608 1.949296461517789 2.5922266971078285 -0.32085746537884613 -1.2824996165027902 0.1792666052542716 -0.7918773276682911 0.9401100309249689 0.05206681712951586 0.8240360324932345 0.38135026441867825 0.5127988005859286 -1.3043767847715344 -0.09010704628108668 0.4075031188520094 0.5558546412390706 0.47820526347554154 -0.8437031842808462 -0.3926642232505714 -0.5460914532300936 0.7711941136090572 -0.7081465825133761 0.5965705221879579 -0.909802897501835 1.0067464900632042 0.009091866217968314 -0.06887305801916016 0.5669808318150988 0.04430266042300195 0.24619334932098752 0.4731734623289733 -0.5424696082419251 0.2265867445016916 -0.41249525525206576 0.4344453094327083 0.6453333941766255 0.03281150026764372 0.6777858573797284 0.25900440068692154 -0.42461909841862655 0.6181164321912946 0.06299114509587203 0.4141585567266546 0.2761322907319923 -0.2136542655588613 0.20326228454165812 -0.1844668653149135 -0.3344990720299321 -0.23342794142293746 -0.18539064964403995 -0.09201164408945671 -0.3108857108954908 0.9613928334989085 -0.2814557287184685 -0.019055777642632776 0.27594707734582224 
6.847010114466957