4.614868923586239 -2.1817386644526167 -1.0723701143617679 2.170406966595506 0.1811767191281315 2.1416617825127586 1.6640528421965755 2.1059765374926833 0.8398797264149067 -1.7889721779563026 0.9661495386423011 -2.4811592747265716 -0.4495982289063081 -0.9036544320676803 0.24624627369844154 -0.8091555467754122 -0.4747951528819421 0.6576745171352693 0.502990973291547 0.9277236465994115 -1.1409455503335066 -1.0806641283365837 -0.25372355865230833 0.3499903451319957 0.16956939688632988 0.18100380210721956 -1.269525470716769 -0.611505088890917 -0.7164344237591171 -0.5526535474573786 -0.47354905586094065 0.8269626532841068 -0.1713823401262481 0.5282683537030558 0.25535173701638736 0.5393895879907564 0.8019825290696468 0.49951235715926817 0.19178089361180167 0.3582685860345969 0.7868606188673205 -0.5002954690521442 -0.04608674328573292 -1.2005533697882698 0.3573373572134101 0.00768482373948598 -1.0151943087628823 -0.5569082604577898 -0.25901926270752845 -0.10580086867058877 0.17242916286980658 -0.05957579886751062 0.376896615416756 -0.1858414630152423 -0.5032507814288298 0.1521782555509441 -0.5154924987714561 0.43535378173886413 0.0433696924837338 -0.36792068540403366 -0.12935292219190883 -0.5399087142455227 -0.36218845165401076 0.3115416542208147 -0.18651514750113204 0.16189856459752028 -0.019438934026053956 -0.09201926739048856 0.21856019265464866 -0.6196759372646337 -0.2423363527812583 -0.6002816676656493 0.3061107371914053 -0.2955776809855147 -0.2160488036531138 
-1.548546242735671