-3.5812118101108634 3.5652228528180547 -2.038413668598761 -1.1709161845971408 0.8001911842557297 3.354941064395464 0.40565506245404226 -1.000268588791687 3.30569848824464 0.9889970214489932 1.3973890730695515 -1.1560553611513518 -0.9830286140776263 1.3380289915354888 1.0175935942520637 -1.177127902491328 -0.4230558773075821 0.2387048285723783 0.23111985818474795 -0.1519791126033856 -1.3516262446256548 -0.1415626749714598 -0.16802470895359517 0.07573237373184061 -0.17623117206922068 -0.13470485188113102 0.6963013331329324 -0.3491028554548218 0.39708982216581684 0.40413368231631586 -0.7210198113350296 -0.7819330332219621 -0.3791577214769082 -1.1958885563459911 -0.89499719147406 -0.2592746432443205 0.4652089921937853 0.3177175442029513 0.19717614433179032 -0.7592914151656371 0.4729779740990896 -0.007867349925412687 0.5268002483861918 0.2473849648972165 -0.6182986562440623 -0.38551863890615046 0.5002860738573844 0.6354498776938612 0.5426032067075476 0.29480590210367397 -0.46129244914383594 -0.08541791337828475 -0.22667194682554787 -0.1671706802041682 0.13701672376985452 0.14387722122443108 -0.7433031702617735 0.012158070265627652 -0.06272788193795373 -0.12180062579320602 0.615956070714181 0.24624080088524192 -0.022569376577852962 0.038262148514198596 0.1780389911640135 -0.5759294538369685 0.2901225238713625 -0.3494422196165417 0.20683669055639553 -0.11985640955994864 -0.2539829519412819 -0.30986603909945837 0.1488738080500684 -0.16607942056816216 -0.7619260242968134 
-2.761987506094617