4.510550992895398 -3.886176441867539 -1.0162527919593418 -0.38376109698596106 1.1453454070691702 3.235183518343584 0.7410813287664082 0.40849998804466614 2.0550916076586248 0.6736285898643797 0.06683204327950154 0.7369460439538558 -0.7503494415331974 -1.216075191519007 -0.9240634173535538 -0.6040746216062577 -0.3760249397218145 -0.00884717252390299 0.7487661771493834 1.725143370913263 -0.5712861870519328 -2.433286253469705 -0.1298308709795974 0.25325394359983183 0.38004640523574895 1.5575830667457198 -1.122280621576132 -0.4187164306697432 -1.1936959151820141 0.17121362317143596 -0.8380869862647188 -0.02092184377789119 -0.1383425188708476 0.5037520244588722 -0.4398139594525738 0.6203141203086837 -0.10693280605044636 0.1771807827567452 -0.11484073906849829 0.33770246388792313 -0.3288088628233339 0.41897192012933954 0.9255339345623382 -0.7033118554483109 0.10395253576028712 0.09262980281273103 -1.035030096850992 0.08198753274844722 -0.027381138589797183 -0.36184576412541225 0.4121891429253597 0.09691084137180422 0.545330364714189 -0.3789488576450497 -0.790083770430961 -0.15914960570314896 0.243991271887324 0.2530997535062759 0.1028581187233816 -0.047951452196247496 -0.4530262532726293 -0.7922018674235292 -0.533135964003933 -0.07691101379330822 -0.373792545620637 0.2285715631724698 0.18563953402522843 0.02741002562136985 0.38368796999081295 -0.11479113495610233 -0.16425586832324973 -0.5439290745862784 0.10182534565282667 -0.6925054080669348 0.018015625637149313 
-1.529566671785445