2.5110802086694974 -5.054263911855557 -2.677963294196269 0.18541982206972074 0.4454757181073834 -3.756369906536546 -0.8535948516450134 0.26239553693769535 -2.8481407703472446 0.18509222930472102 -0.7258494835214073 2.1847302311954904 1.4842383885093426 -0.9147414926517795 -0.023469732590452486 1.5307536292834487 0.38406484110300676 0.37711254756750545 -0.9437115475820335 0.4780294982271868 1.1061066229484897 0.7906757320542153 -0.07904209434472381 -0.46353234177392355 0.5338579277484636 -0.10728319219665905 -0.32989634363791587 -0.15082222061361572 0.16045765225772257 -0.7069941978323905 1.6985082895660073 0.23797485322530404 -0.005975495475458725 0.7018989746783808 1.4018354993900446 0.3777869366753168 -0.7321698179626036 -0.041331362107507985 -0.37089471543142155 0.3585275657377789 -0.24076069749610457 0.0029197902837704848 0.46743296921394895 0.540410463688487 0.17562801921740157 0.7941685521069062 -1.0669393848547213 -0.7300252933236767 -0.501206882927163 0.3291195826157839 -0.18964410290554246 0.6187784261277871 0.677582210791746 -0.5227028157623708 -0.18948545269131867 0.5808827129487169 -0.1387518126961964 0.7096188031085434 0.6569298258222335 -0.382861735588417 0.22545410922850528 -0.6653854233596365 0.6039385258291293 -0.29411574880826663 0.4952297749764299 0.3389580150867265 -0.22209095406215063 0.04875948031740229 0.3142286103706261 -0.1404772912987886 0.5373374384146472 0.24773292657124135 -0.6725070061233621 0.4571442483843058 0.5247241838391479 
3.4660150590986323