-2.631754672754955 1.720256723502425 -3.4026137466340787 2.780212492161777 -2.878429046914392 1.3234185149159692 1.7205272790144668 0.6664285715887245 -0.47035431922697546 -0.7751668745166806 0.8687618155863388 2.350249229745024 0.8162674196104276 -0.7039523902735403 -1.2943905185460487 -0.2130824444358037 1.258243772387046 0.8493725898843263 0.3480221521978557 -0.12651421334404628 -0.0964673144536361 1.33988139433903 -0.8898034798276357 -0.5002916992909667 -0.8983076558133749 0.41119482933489054 -0.5182728941156222 -0.21275092967980194 0.284288654033576 0.17001163493699661 -0.18755665716104075 -0.4832667015035219 -0.31647780706164813 0.5292685399429764 0.1952083225332395 0.5786779287089576 0.008904799824923378 0.3106543226765386 -0.4079256511381132 0.16355443824374394 -0.3147845454913841 0.02555570998182133 -0.2251765970813886 -0.21595466072997271 0.3409499543533015 -0.2669354749982398 0.38266839132668057 0.25723922254018317 -0.14326927019051947 0.18203892461532548 -0.2494325091910261 -0.06279032051994865 -0.16737615467411796 -0.34832427462475124 0.26891667873290664 -0.15382974226443807 0.13053467204196623 -0.16904565737367852 -0.012615741503279407 0.083707637745626 -0.17101828435497968 -0.5778105819825263 0.152519069000638 0.0763165556319747 0.05823541079019018 0.03148276804185314 -0.19837168914255682 -0.14240218135978316 -0.12845952204730618 -0.07748667458553046 -0.19556904345682075 0.2903645666707856 -0.26245058231399937 -0.16463330333030213 0.28118084126594173 
2.3147048073721757