-3.6289118168255126 2.1871824899140844 0.6244008892618245 -3.1352525190908866 0.8149431456753387 5.665752042609749 -3.865290933413817 0.26877405250601616 2.8762519195922884 -1.100742875438504 1.2569251564691177 -0.20634706113540502 -1.1024333248901037 -1.994311626520746 -0.4150301333065824 2.361135839675134 -0.6422488936518709 0.06427735508569325 2.2600090414820446 0.05183733456321432 0.14285663899618706 -0.38362292254148844 0.21054724788553877 -2.091369244715291 1.4471870689636794 -0.38036021787662866 -0.4901857543306121 0.5749449479346933 0.11363677632212893 -0.334439618508479 0.6121358662755233 -0.5036875924708362 -0.023903876005099828 0.21388642923560158 1.4809464235133516 -0.7319493972909833 0.7311445045157375 -0.05717950442304765 -1.039657679135675 -0.6376243207345842 0.6087873778246387 0.07955514633524219 0.5960612817634238 1.0545649150191223 -0.894966808630487 0.011771110192355508 -0.516958120195058 0.8280551991931442 0.1753008447297002 -0.8760548890277916 -0.12262912739018024 0.7050050394092943 -0.8167993508615728 -0.9125116935693465 0.5392032647748055 0.12884223030270872 0.20460422194297942 -0.4835767838873851 0.17351676769113344 0.5710096406381214 -0.19116418306859145 0.29152536215679836 0.14314641910072196 0.090812620183927 0.31753012718468765 -0.2330836147026773 -0.5545466748856163 -0.13561623033011028 0.03849697264084844 0.003967296270889332 -0.8479570652138106 -0.2967410486190833 -0.4712261079703693 -0.21666482686500355 -0.18548517030827505 
-1.6679625756939493