-3.5707070428775864 3.3398439483163935 -2.073407465027635 -1.7135289537963287 0.09388050575369022 -1.1411391474625827 0.4874195623074855 1.6288837452580271 -1.2347343138809186 -0.7854837355488744 -1.239286671007564 0.022770211414416597 -0.6165731929315417 0.8052673178849601 0.42476281008780814 -0.4641266322848465 0.38336132194240813 0.11162029952006819 -0.5175960121153484 -0.15178890143113125 -0.1868044875368784 0.1713253033981882 0.7955692467148702 -0.4668731732393307 0.7502800851850377 0.38976811095349273 0.05254294399205246 0.6177116252225878 0.3444316917939753 -0.1869203620041964 -0.022736577680101414 -0.3346811289455744 -0.1530137515643365 0.12620011472353476 0.2098664093885973 0.47369708608629785 0.15858029990203004 0.002946821220338791 0.3798053673773255 0.16110377158850486 0.002426039675660671 0.1834767975510429 0.3192214021293953 -0.0857863235509625 -0.033359663080359925 0.3535438108651128 -0.06751262168187411 0.5136959250082351 0.0328571076051868 0.2552078698190246 0.2074824956291409 0.051981344270198904 0.15542300881072846 -0.12762138488795052 -0.39032465033450536 -0.0014954073240078802 0.37014270301716845 0.13192700607449173 0.3129773750052289 0.07755174609549301 -0.16592727103237764 -0.11857220268512397 0.15307879902819416 0.00356630205934734 -0.21594237334195193 0.32015923822213677 -0.07141654109921497 0.3150179733498349 0.3477664771614911 -0.0955961875438071 0.04641443472807748 0.058760835024091185 0.07129112058384765 -0.048795900879470555 0.06614366503116476 
0.5838963232223545