-0.48726194120926714 0.18974581002409252 -1.754507181231208 4.767848902262289 -3.6330947198006416 8.196024972173532E-4 0.9534982286662692 1.2174518517996338 1.021183949487638 -2.472539134300783 0.4381383508618877 2.6339869223008687 1.4343897570219064 0.5147190800868444 -1.913359744135812 0.9515527071674776 0.41077840411916466 0.8454317967844138 0.11562925923769629 -0.8184254732293824 -0.755351697708275 0.09657996791317147 0.3656934581494539 -0.8166796476242102 -1.167923090724509 0.292621819456781 -0.6904863796705871 0.960795100050804 0.6375367878860058 1.042476833593409 -0.27918042057263676 -0.43369265271048807 -0.20513076168077393 0.02526512775959061 -0.7219471464572514 0.702324591756339 -0.08383540402719547 0.5065311993858393 -0.18299387456224886 -0.4081788335952943 -0.502859350280629 -0.9234578517770193 -0.3619398826668365 -0.6901844812663949 0.452036690385499 -0.15672216723749532 -0.4900640181417124 0.7037667739603588 0.20793656020242227 0.009032764067148202 -0.09397677442103203 0.23501505784568796 -0.0743673329720444 -0.07241216960739816 0.5240268171410195 0.40926242220918374 0.3796407777676402 0.0799381163988826 -0.1752278104611333 -0.14741772679821696 -0.3851115056190304 -0.5640323555958355 0.1707823702134676 -0.030800769762251823 0.2393426890772356 -0.2675347482367539 -0.40174235239770334 -0.08850139706823487 -0.3442959328042279 0.013814617924299194 -0.19570719640738654 -0.22791757200219215 -0.15983472165028118 -0.21616371364516251 -0.15473523140213297 
2.12828774651394