3.2319314091931792 -4.776881766068321 2.3877069836729676 1.000654460108406 3.254646342386808 0.6102450450952892 0.7943188430743657 -1.0310691719935186 -0.7747474434406527 -4.320088179733877 2.609992911665917 2.2791552502702945 -0.29898721350658347 1.710259255310107 0.36541617663062587 1.2074427251263167 0.39197666034832707 -0.7236524588781785 -0.6257949581207896 0.4968053227092978 0.463432943506773 0.6282838290935708 -1.5474453066245666 -0.5098452571481422 1.3356880847470995 0.136186517663397 -0.2206934425710759 -0.41878224819135135 1.4812848004719954 -1.4590737958325604 -1.052471664683709 0.716916497915621 -0.8988797107321037 1.4680817216036064 -0.09767338580907156 0.9295036232439607 -0.8975826958362455 0.41426176451250907 0.7056384379831155 0.3107454972983137 -1.0193211446974655 -0.07645159778520555 -1.1647739277648845 -0.10350861350542417 -0.36364399355639954 -0.8174170427935598 -0.12697350650858485 0.4289197522655639 0.32205975763356626 -1.128420564833307 0.5175229743407788 -1.0570017343465987 0.05570798878699665 -0.49952021920209905 -0.7843301305379496 0.2383265323371767 -0.8187253917547931 -0.9265351877927934 -0.05877718623884065 0.5036260463808808 -0.4563967545134953 -0.16468610491399982 0.3374451261185688 -0.45801628636481595 -0.09779871337788934 -0.8363628702190401 -0.49684545192566526 0.5763023939205931 0.4033612329116001 0.24077560064893247 -0.19827369297414502 -0.5271802462177431 0.16718197282181924 -0.18916263941366673 -0.6980127813892116 
2.1283061546356965