-3.369772992612078 3.41883351458603 -2.8244165696451713 -0.8929667821170002 2.581768626363573 6.2599982847631415 0.5000329076000933 -2.3232644849863577 3.4449965989729128 1.3413717761496295 1.6279956757746552 -3.014086766534846 1.1251988505298365 1.269829995235022 1.5527251736127423 -1.5101755865197708 -0.8153997145220817 -0.464995554117387 1.1744494175576587 1.915962377535412 -2.595485042360376 -0.6169241623063728 -0.1990811335814045 -0.32071651892197073 -0.6519717735926163 -0.2842053109454535 1.06225633863929 -0.5101680424014234 0.1747080794794721 0.46808149944142846 -1.6285900043835837 -0.4623970368674653 -0.5681437390024794 -1.253771330726887 -0.8982661143210497 -0.49729225240725117 1.0974077734299017 -0.8660529248434783 0.33541055697404126 -0.5575268570610259 0.9883904975987625 0.7456801662314725 1.1379360124275946 -1.287938622004713 -0.37926379178912484 -0.6648715228322739 0.6936333091709326 1.445777612348292 0.3352210732314385 -1.0551138171460437 -1.3241170721398086 -0.28089262083582245 -0.3993691628963446 -0.6660173215253323 0.7872875210459817 -0.5562110841879755 0.1452932318537824 -0.3043923638255085 0.22859050422744795 0.18279055201053385 -0.06836212637600969 0.3908205408194164 0.1422069535637514 0.5443676860700135 -0.08639518750466445 -0.862821793992719 0.801328069381239 -0.33378315470218206 -0.18023541860343772 -0.46157839260938865 0.022056481832855745 -0.8282132485084645 0.5039364854272188 -0.8966884873650645 -0.6844082602630811 
-4.659812610883414