-0.2222451001191228 -3.0690358516639655 -0.5185146464853245 3.232621363682763 -2.3613852102318837 2.501635043368992 2.827196168610091 1.985843187876659 -2.1514973929134076 -1.5850653376983952 1.2159228223238074 -0.6223755805431597 -0.7697615896078331 0.03880966262885632 1.5644493464278386 0.5851198297868757 0.15676127135713802 0.5956429559391441 1.3065016328350452 0.45068371453591416 0.5798444515141306 0.10144979689988398 -0.7779661712753136 -0.7500810394044662 0.7913755733802877 -0.7305839368647074 -0.6430433804528963 0.4328937275779237 0.5574878107598458 -0.4433844671267909 0.5604628413817236 0.15940053955331074 0.49918949515362887 -0.025542575501570797 0.8328980395077552 0.11680185707428481 0.2198186172366574 0.14621541209324063 -0.43984684229386384 1.602920125196206 0.7977274509591308 -0.8113611158535787 -0.9600022272886904 -0.8195198836889493 -0.6236340404315855 0.3640988517281536 -1.4525598534889963 -0.2890139569784133 0.2941327847763791 -0.4894016210969177 0.22425216989008345 0.19608745864297542 -0.383726734555183 0.08487858722327798 -0.1732438706991954 0.3334513276315285 -0.2711273810395639 0.31831253312036467 -0.1826109862685885 -0.22989294276627503 -0.24505575385319417 -0.32950487332076916 -0.07369163083679675 -0.4821699749092005 -0.4646086140988259 -0.08344101109687829 -0.3299152005036914 -0.25079570992960143 -0.15807436359937077 -0.9352930015500887 0.11941115263116164 0.06177746698423903 -0.010615865530386383 -0.23211814730157543 -0.4643671874202746 
5.196739132651767