1.0145515232320381 -3.5822031873774858 3.566055928953106 1.717022595439258 0.6381160315511978 -3.083723407661367 3.615248192303892 -0.6500206060664222 -1.0950064402843886 0.5835147667989087 1.4273227851746007 0.4240633575789816 0.07007109026593189 1.3656196280417265 0.024171582221580445 -0.18249448479752967 0.3818370933827189 -0.0879090359233845 -0.493646558206451 -1.3645431297508845 0.8159097613053592 0.7703007865847631 -0.07245331212461037 -0.7891085223987973 0.31102958971212147 1.3548111408494847 -0.2787413127841848 0.20783135041271014 -1.0634116170428212 -0.10751169984984241 -0.07595175238587493 -0.4581850271732863 -0.030221111164366543 -0.40860541670768674 0.24289398685061853 -0.2151777262597007 -0.16124807158469825 0.16256677467266012 0.03172071491760606 0.7453605037144613 -0.3768416035234068 -0.37273124191931634 -0.09832381481937907 0.39467209916751583 -0.1501418728426846 0.6073337077579817 -0.6362781236884485 -0.2679336631339655 -0.3288309003300477 -0.8195632864808772 0.41657698280284217 -0.5298582628553166 -0.4911081433570544 -0.5577194867569126 -0.0066348342466423516 0.47658579049488825 -0.10309908534235668 -0.010985199109397659 -0.2378143959706043 -0.3197292662812832 -0.24280524594945052 -0.445680638349064 0.294074519473444 -0.3361116076266875 -0.26297142082347236 0.1048800815486649 -0.4054691801003789 -0.1375978530893726 -0.2669635858904586 -0.32708674563026485 0.03187291369187212 -0.29655180553656235 0.1668018143481504 0.3711725618381724 -0.10499597189006393 
4.531505178102731