4.48955394316574 0.835518721540744 -3.9265374621933846 0.8845005681346869 -1.4214203337892561 7.058897516952419 -0.4792432025630742 2.5245504442113718 -0.35177126754335664 0.7306702437062873 0.810111516465871 1.234244387725402 -1.0662914193356468 -0.33063950735729286 0.15540696444991298 1.2980529234882074 -1.4354196653283284 0.34493853500030003 1.0685217044497148 -0.8572125257444947 0.14780133207889712 -0.7593368826341624 0.5357460298361827 -0.8413055211680376 0.6146792703890485 -0.22729907742214722 1.0202077593408097 -0.08208841797099453 0.1285929968925671 -1.1060872677636844 0.3578403091229585 0.22504401677210395 0.6013528630067038 -1.2225318348389096 0.8991353673435956 -1.1625999182802327 -0.1619957761185557 -0.5181627984359956 -0.7096912994588804 0.01901070530317317 -0.3878504178123702 -0.43415603924778 -0.09500656937519303 -0.41656474624419937 -1.7996280133485638 -0.25649418133594803 -0.6963418764830283 -0.2536169830410637 -0.13398023633916117 -0.3544687946996772 -0.12547675058229346 -0.2720632204501209 -0.6521660019342205 -0.24398621175408505 -0.06036538994358148 0.08036555447991717 -0.6725315944530668 -0.13652894181235287 0.1579318797295935 0.4589663532306481 -0.45452476756102644 0.10360969498168521 -0.1214262800490471 -0.1656271323509883 -0.3183424359261609 -0.3161952816420685 0.03522728686410634 -0.49836065327229256 -0.47242089608487436 0.1521403398145945 -0.10003002914253539 0.12078739552276058 0.07467344338676876 -0.3433595435314063 -0.7269329010232007 
-3.930916764648584