-0.19789192393110255 -0.0841245562938937 -7.860901792630647 -3.2913989686604324 1.7772740647197374 -2.3325444317065274 2.5513522048818658 -0.4474074320906547 0.5231528802056378 2.0189044328507384 -4.5186556910956766 -1.3394075636831868 -0.1907048867826706 -0.9943626768796812 1.6503358804142116 1.450354568024417 1.825862286143276 0.770109648071603 0.3455696091285272 1.5359852558111857 -0.8009610703206098 -1.2017720341058817 1.6203147129248179 0.0932756128643018 -2.2721883856048444 0.9320669150130736 -0.6723475248923081 -0.9465369460138762 -0.43079707956014346 0.31527507307713404 1.0292628946369535 -0.920640819385496 1.5837839150073705 -1.5816037281496524 -0.4458640298594264 -0.8688524958146169 2.4684627134563275 -1.1550108187190922 -0.3184913334631605 -0.2699043829317018 0.9398166256239633 1.7225674606206103 1.511835334677682 -0.9050795409168999 1.1958036597101467 -0.39994289181915477 0.5892159651060705 -0.08776808294534755 -0.31851282960426774 0.500354270064888 -0.7550067601788517 1.4847260757686898 -0.4937542539986769 -0.4660077556984688 1.9663451174289266 -0.9628217698643825 0.3197858473653866 1.11515683309509 1.6145313108096606 0.1537800350405143 0.22547113980979439 0.28040524695154434 0.3634164372744759 0.8630807344347975 -0.4303671691711534 0.4320397669018798 0.7429201254994294 -0.23341940599793298 0.034377839497311324 -0.7126696772015176 0.4053815658657586 -0.017064711078579375 -0.6413399706199843 -0.1921682453250988 0.805939578217757 
-1.9041501789813835