0.6327783703008691 0.7307334924022904 -5.4652164973728965 4.028180559569187 2.173900202683428 -0.9495181348829917 0.9739485618095585 -2.5653386880257356 -1.3753827244044192 -0.6524970256845989 3.726640999388195 -2.043856352916911 0.10062954950875747 -1.6221299671561074 1.7042227357933237 -1.8632575315815731 -1.3074313372240616 -1.1574178199600305 0.2373977393986455 0.6210199498772219 -0.7255594243886092 -1.636823237493466 -0.06850073883500485 0.26231261190821886 -0.49821868496097677 0.5075956243943008 -0.884578926463921 0.2692296961598006 0.4359260648578681 0.4844412479974971 1.4779017256710394 -0.20397847836931654 -1.3470466102284784 0.5977997450040744 -0.9411289384516467 -0.6063324809939497 0.1538987272281354 -1.2239823765619808 0.9852182917519803 -0.5303588533985457 -0.7969988802529558 -0.18174325352963186 0.0669129028993114 0.4458263658176358 -0.32213884819373484 0.34799907226909754 1.1120391708741162 0.7264058339999305 0.010022643245431492 0.12111073940489545 -0.004150558554638195 0.8836069439088118 0.3728452384900005 0.12247193349349891 -0.31611374828983435 0.44302322584783427 -0.08195361809017543 0.28080266412307936 0.5391988908810631 -0.06011176704274939 1.012412718464304 0.9315256951935543 0.49675387367090795 0.16828064291462447 0.3423536165714613 -0.14149472936350008 1.3509206719912454 -0.2332537139744697 0.579045887884506 0.38804071710636245 -0.4587799103003857 -0.33468550161837957 -0.09726509268017042 0.2632892604140786 -0.4114201539242952 
-2.6774127595333077