3.859678516413652 4.131329688080012 -3.9995732311019103 1.6023586117799962 -2.843001884132338 6.8532296519820735 -4.268136371408704 2.2979514901905906 0.31540864766893506 -2.342219907154721 -1.6214919814013409 -2.205218653549707 2.5954096795585704 -1.1779127285589561 -2.6384563723162135 0.7759529531455587 -1.2656256244914217 0.050322291225090465 -4.617056462081825 2.6505546127910486 0.5736293689687963 1.6449598270350934 1.0703642239084616 1.0806236373493867 -0.7170664174594497 0.7562461019478536 1.9910685103665835 0.16598607617410455 0.22335355640547525 -1.796517460628473 -0.0774237583504091 -0.041447286542034945 -1.5969903885669414 -0.09847741935531129 -0.7276167317146088 -0.973064535757789 1.940905426636878 -3.3749634711789573 -0.47209339608360046 -0.5714332512669653 0.7734410260163771 0.9903249015760744 0.5361793890230901 -0.08168442481695082 1.1849700439694746 -1.452139414700748 0.04806759565034602 0.43216590402346944 -1.0997546253511363 -0.9450794857133452 0.32703662334161654 1.0050186466698108 1.0754159743237581 -0.5061935412013232 -0.08359150299298213 -0.05471775449011845 -0.5660172061985479 -0.12158204737551315 0.6404667738281696 -0.589613322648436 0.9518579457207632 0.9773767211230158 0.26303223329650915 0.3552116196064225 -0.42122820606825134 -0.011124748705513943 0.0976171298188539 -0.7909962957825417 -0.8393484468792962 0.3024552874581384 0.2760370879771333 0.17086092256332774 0.8146849630594495 -0.5031811325885558 -0.3095141720590019 
-7.407487090977416