-5.474840069730508 5.463548757335035 5.228271397247202 1.4446477393573178 -1.427732502867478 -1.133409065012385 1.0205220929442405 -0.27074294316722036 -2.3299263719733325 0.9626434880076176 0.8240955859360247 -0.38875013785863244 -1.993548916891268 0.2518059614502903 0.641436594639951 2.2894344086020006 -1.0843740948434004 0.34150756112846203 1.0652564875115633 0.0015569873621156735 -0.8080144579189477 0.7490908061460562 -0.3467581004339526 -0.5877800242853162 0.2938579779887781 1.3353341113086232 -0.8561094554708154 -0.31781945008079937 -0.7704952444717361 1.1059886005259478 -0.49945079085674216 -0.20808154058950376 -0.6579152959212993 -0.35743570141138137 -0.5390977055712732 -0.3396581711051989 -0.12885318192397166 -0.49330501890736894 0.305771246832331 0.8212368117971267 -0.09523022941163814 -0.2943066528088909 -0.23927035742909275 0.040991035217470884 0.04485458248760432 0.4451150632593457 -0.3867792289211641 -0.49072356626246627 0.4362230312254045 0.5387236118699553 -0.0930587112247594 -0.540020849216397 -0.5035943585435443 -0.6239281428603788 -0.28748194006467853 0.20019876717338358 0.29085035097418865 -0.28966049266339633 0.4520583258433112 -0.11616775225449039 0.38275766594002975 -0.42094216405228946 -0.11252005828761713 -0.7153789922611116 -0.35879717604165795 -0.48395228578953875 -0.4499842628027144 0.6556520787593028 -0.19622545837723615 -0.10311472305242347 -0.26023638804347127 0.09773319857760249 0.25794718376746734 -0.010192893489432975 0.09655341393515116 
1.9702532037987943