-4.515834938743359 2.674466424680646 1.081402623858469 -0.442033507863168 -1.9333940604570117 -2.971086909283756 2.197480034780545 -1.5398483526961397 -1.0032511299010087 2.055195706754242 -0.19581224782941276 -0.4965012114849423 -1.5236145975627347 0.9173358315423572 0.33489442357566135 1.6452693067489577 1.0480886892397225 -0.2642569933887676 -1.0498943964379959 -1.1820571961386606 1.47736645173046 1.4025872611675698 -0.578900881801776 -0.23135828797308267 0.9615138201983251 -0.6872014585108329 0.28449306362435367 0.8656068671227786 2.341455170256851 0.95052583970023 1.0322863665773554 0.2603496514204651 0.21820059823980964 -0.23330849409428045 0.7173562544388331 -0.08876188675363472 0.188798381307278 -0.688322166252831 -1.059604161886892 0.18176410041210478 -0.0716682029302757 0.04927379768233997 -0.3793045538211752 0.29523280996594803 -0.5084407525137963 -0.24777333865732842 1.3795781794736304 0.08972934267065019 0.10467787120156302 -0.5970956221764695 -0.758932717613495 -0.030254871368941758 -1.0194521460710453 0.05432459222143432 0.49374046066353944 0.12713221957668797 0.6153836495773495 -0.45665047056159347 -0.36008770719903616 0.222523177917587 -0.07713245517933967 -0.08640974724615358 0.08862677260874108 -0.3674664745499474 0.32805232997486994 -0.6444726625994421 -0.21571750114346888 0.366018689715779 -0.2671284631941737 -0.1084291097304681 -0.15735437679067005 0.1964648028745567 -0.36301302053110124 0.12095996672646647 0.03367154271003774 
2.8997781255040307