-5.693313884654693 0.2452398528064893 5.5740471383921815 1.5060215289092187 0.1769523503406458 3.2783478855990986 -4.725973844530305 1.9708136161816148 -1.516061723300396 -1.4142840061754984 2.2638127920405027 0.9469638263532774 0.1891057270211376 0.450265779726141 1.2520459796899097 5.495130717890547 -2.1081004046329457 1.742228925559632 1.216249184164497 -0.5772194445709463 -0.41503606754655387 -3.596457091381178 0.3064642351888795 1.9290590273446724 1.6124793035203195 -0.26237565935675805 0.13404590634207297 2.8451619062952638 1.051855921516518 -2.3727346454260263 1.1926215113349494 1.8369729439934506 2.4698968324603703 -1.8774026614565533 0.6798924820319804 -2.177631245513255 0.1477342185893704 -0.3942348447392822 -1.231809699454494 1.284056770947169 0.5081635461458306 -2.2905344494589124 -0.7413890959898899 -0.569311016712525 -2.144032336851744 0.9343084562631062 -2.7535345523254002 -0.39220495188113047 0.704934365472455 -1.2740999180503931 1.1040328278680682 0.943027052786854 -1.8989346563359983 -0.9656599632848368 0.2591479915911299 0.3954638030051841 -0.08145510609245535 -0.13538590891301083 -0.41469926809258345 -0.24703136254814734 0.44301302008215065 -0.41850957727017496 -0.3996879407718956 -0.774538927539911 -1.0166480183631752 0.3346254990985387 -0.09977717317591511 -0.33848764345559407 -0.06506586633391333 -0.37548088988410566 0.6767874979061582 -1.7744510757597758 -0.754613996032247 1.1285969413862527 -0.9413984479829972 
3.6093770928554676