-3.398463463409195 -0.02733774738930972 -2.8570914967206065 2.4881863112516958 3.7416117692015525 0.5154898621878524 -4.511312936587031 -0.34445024306777516 3.625283526987401 -0.5999686689514852 0.754528407371446 0.36587360071103425 -2.689847504016066 -2.6386085987313654 -0.9960237792475339 -0.9482458984940221 -1.3285446448288925 0.4355138952016965 0.7629384432371785 0.5627420776618648 1.5892926777058296 0.06631360562156785 1.2005357219765138 -0.35263502885553166 1.365289045102477 -0.07826448884355344 0.41565288646829657 0.2798692960763722 -0.5896648659948895 -0.17565919423443738 0.457642828054895 -0.3662583184649627 -0.36014286680537977 0.4770499413399064 0.5220759571639155 -0.9286140803076273 1.1376420581912945 0.20753963317164112 -0.5181664684435169 -1.0607515358661135 1.5852145083668019 0.513911095040064 0.665894573786611 0.4919576289717581 0.5747125479035489 0.11950978199275542 1.1303048454272369 0.44663200835006833 0.4123018042924454 -0.29496101988445894 -0.3336580703650397 0.5791970864630522 -0.06917380929063921 -0.827704425840286 0.1158810761062346 0.09428533249021286 0.3747540298061939 -0.20535961860062096 0.6190652733083365 0.24365595242718424 -0.14159296814302497 0.3332842051784968 0.2901961427636045 0.1258289470938345 0.037787837459262064 -0.9419283206300775 -0.5795079175632761 -0.16792215829577867 -0.22428124706796151 0.286110969631952 -0.3529409895761336 -0.46857547511224473 -0.4190419672139783 -0.3116337592871067 0.096776384585811 
-1.4856676223128966