-2.8887430193639076 1.510824470736333 4.834169904144996 -4.554012051459473 -1.199295255214874 -1.0880308754506804 1.4647573667280922 -1.8755064535791126 -0.3844214676313169 -0.6621341697254477 -0.7416116458746038 -1.1684100388146392 1.5190704298717057 0.4110188597172971 0.5640254155415269 1.3661079638395566 1.4157423636787112 -0.5121801685859302 -0.14683196901698203 0.38629001439460753 -1.105233852075248 0.38389443831727754 -0.9776551956919511 -0.231684040534784 -0.24425831289321365 -0.06173884261956131 -1.0980099696789931 0.13892724669546438 0.056440397158935174 0.4992593261328251 0.10309472491455492 0.012326711604695534 -0.29141205217768285 0.1357042746540601 -0.05786262682608759 0.6132593803938262 -0.01915012145262668 0.4433030373909601 0.20179541308517918 0.5707958862873317 -0.3134315307210633 -0.16567514945592537 -0.06526266790040303 0.37620795281055086 0.5121125807640845 0.003036222240921038 -0.5370505397143057 0.640041888325259 -0.06522947215466682 -0.10824113732922513 0.390906598883217 0.34476810486449316 0.03883053787889751 0.04898318463860356 0.16026917379733535 0.06597723491753657 0.12620614667460867 0.10743836724885436 -0.24354865981652357 -0.1165816709038012 0.15438134342748394 -0.05156645495676854 -0.11708884747949644 -0.038498849446089056 0.09142679296494909 0.28655065611403396 0.05606187536198491 0.3119433165628109 0.17576510008316407 -0.10385301221836542 0.17137381079458913 0.2708911166865669 0.08176046855288788 0.04946446941017607 0.1390055524727689 
2.0495312198900746