-3.9012855907707 3.3924704441298514 -0.3103726299508731 2.5386643469832926 -0.927766403321229 -0.6254103787130104 0.5106401575796913 -0.08736587779849825 0.34951014579805495 -1.3481072920996906 0.4486551303344189 0.729395017997811 1.3480891687067909 0.15631307303343742 -1.4806461425849056 1.066694310696837 0.43352481435980417 1.3447329785280573 0.17990637792730318 -0.13608513320204818 0.3410208894725263 0.7652586011765794 -0.6708071638961283 -0.13933308963226398 -0.6146765074340299 0.197680987476504 -0.37151163163568085 -0.17141516262612855 0.442833396805065 0.03322421408014341 -0.5240148808174112 -0.4861259415195136 0.30669241402738623 0.19964856407710907 -0.19315039840938703 -0.057416797922831386 -0.14216769634837867 0.5345271334343946 -0.5592452260639383 0.01910249804683395 -0.0976318466133012 -0.2803546587494582 -0.15430131667043728 -0.583268965785717 -0.13841978282190193 -0.18552622232827076 0.09600291144541681 -0.26773085597369506 0.17442780625595317 0.18318639718401952 0.15543181283706087 -0.1639573182715094 0.15957399657355006 -0.26467003601968164 0.1257583724522998 -0.26626624534234694 0.24888254163911594 -0.028157019003025835 -0.10803456707671862 -0.16631125483849324 -0.08674462822375495 -0.34582973692871793 0.06577708318240041 -0.06844574715623078 -0.09621672558499106 -0.17214114771347724 -0.01784299149746349 0.09012994145295 -0.16779606419265486 -0.15483509231833315 0.07445382699471215 -0.06370889117537559 -0.13147923622340463 -0.0015715352702470042 0.04593647583648719 
1.1789900710609589