-1.126414894138303 0.47061674601357417 -4.645901043181655 -0.543151986624572 2.305419079066218 -2.516218476925681 0.746231740881995 -0.9402575519697942 -3.2690771345941645 4.4883849215366896 1.7469717719254048 -0.008146714122100551 -0.14146217273441336 -2.131644012059301 2.8178794460338703 1.7697982350643462 -1.2002258573539315 0.45927695822353615 -0.8225002591560865 0.30631808488078366 0.4003754749249341 1.5133745415465611 -1.1908638091742512 1.5234431223143479 0.006707795656006849 -1.242682044052004 -0.7822084669939325 -0.15963595580525705 -0.6327063275854056 -1.0188564472360708 -1.105760495481372 -0.1658895799474135 0.23408880603773047 0.5749381294598559 0.7940479292881346 -0.11478894007508544 0.7596658706494532 0.6619263437201555 -1.2553204279756378 0.6766653174482229 1.0627659311932476 1.1486951202698845 -0.37220944087917246 0.894761905375468 -0.6679099814277594 0.030678461858003603 0.9182631525436379 -0.20437277395447795 -0.08008926513236479 -0.5037973576150842 0.5790961908566766 -0.5522471639815175 0.2646179321162657 -0.9294139768537232 -0.19940435170313975 -0.8553640209864027 -0.04630933436041332 -0.44378588588263196 0.32356836660249194 0.2182242279971685 0.8194577390669824 0.47529329413838256 -0.3264486250803177 -0.6790212700788241 -0.8366830247983449 0.18415664559828937 1.0381247159689393 0.02118085959979718 0.16221486791979256 -0.10614657154216098 0.006613871841276847 0.5503874883466284 -0.28929496619322226 0.46789129663836254 0.6840882250529258 
0.33329996029073594