4.692539203187497 -1.0519962015994366 -0.7133157586985988 6.0900671107471 -3.9972811838867846 2.614167207289094 4.782077560477601 -2.487484298047922 -0.32916298960761026 -5.197158543765649 -3.249014685749784 0.8677472485354185 0.7705891334684984 -0.043419279918788245 -0.48583065484350785 2.3668282525930118 1.7082425133386403 -1.0756328969595739 0.4176464328217002 -1.0244502754256957 0.5749717493703068 0.7634570985333684 -1.5996177944428949 1.7883754640067848 -1.4430219656798116 -0.8163198910934376 0.8393012308081025 1.1355892844216409 -0.5690622371513102 1.0951462465222457 -1.4868515212709992 -0.8511446354810777 1.824416220435268 -1.0310881296731083 -0.8142690648198624 -2.00519242124273 1.3255384669786374 -3.3157770149499872 0.9904012245450211 0.4076718610327901 -0.6862723506498933 0.6838801908481125 1.0312346982014908 -0.08894478373323422 -1.473099457719273 1.4177045744664223 0.5787897549073546 -1.1567489277397813 0.4248594859702467 -0.06077046531830066 0.2642107322031464 1.2668572306124513 -0.22347592147579165 0.42332388736923604 -1.8324684702452045 -0.956004981960123 -1.3993683387176474 -0.44900421082736663 -0.12652609708677115 0.4454692207231816 -0.0539820457971775 -0.3806243446163239 0.044620641799115734 0.8014114239533023 0.9305537433225863 0.1789873043498711 0.8140532942492279 0.8844613477620379 0.12941848290121882 -0.8976392564131459 0.3963788632774462 -0.6167827387606409 -0.21484776586874782 -1.690759248728958 0.12342246393778789 
-4.6508523091486065E-4