-0.2265174358224975 -4.301228249836907 -2.3004327506781554 3.87577747095179 1.252062735622439 -0.12042065227669241 0.8744548612926542 -0.5649264949012374 -0.27825652570214743 0.8709340729039683 -0.27229133890979806 2.6222118553316616 -1.6581708192208287 -0.30010063296653766 -0.15764801077316415 -1.186533433615004 -0.24880281024344075 0.8541813842627587 -0.05779721730985243 1.2732996301811965 1.224851914173557 -0.29497859790771497 -0.15860436153845348 0.5458113104623242 0.5880861766185784 0.3360668603000832 0.5218982667828572 -0.08265264954054297 -0.4391781274389884 0.20343015129686243 -0.7614182449891295 -0.6982391886384682 0.7731895501350586 0.7390403232058587 -0.12285207069365636 0.26563968395688975 -0.33643184636568907 -0.7703116840588192 -0.7887121310086527 0.7006335347487527 -0.3669984796486501 0.795072180351502 0.5344126871454443 -0.016228668404806634 -0.010039028313314713 0.19086785863411238 -0.4273992030384177 -0.12263202045162813 0.9065279371031828 -0.035578822021002154 -0.1293600007546425 0.21003596993820642 0.2818141083435567 -0.22346497337715157 0.3047015004149959 0.06916590898525266 0.4330324502434274 0.23720599112826357 -0.1619682204444839 0.35588867650811434 -0.469795367720784 -0.9597930922463109 -0.0817775536219727 -0.8694770655102808 -0.32783560882896173 -0.5126465102931511 -0.20902031035949276 -0.09855454463733437 0.413438624120241 -0.18850395535916642 -0.37571302856355693 -0.5332069226017098 -0.203355629271477 -0.3223959488769549 0.5185165536380479 
3.5158836204109143