-1.7473872751315147 1.6415280616219752 1.620923524616525 -0.14683034053289012 -0.10534795773890782 5.385604602841943 -5.0344150577040825 -0.31257875876264424 -0.13324638828061586 -2.6316546932761415 0.9527501145638361 0.6467333623609495 0.5456458799123071 -1.3026907218801231 0.49287713826668966 0.23659338862601575 -0.8897237722989778 -0.03981492620298549 -0.12975292611698624 1.2379051025800376 -1.7495669077590188 -1.330011328238267 -0.4367827583269024 0.8971179241098827 0.32054756892639547 -2.2261185016936564 -0.3674392160710346 -0.09650495660959729 2.156645570227669 0.37483337016922313 0.08098218151735884 0.1793014808462437 -0.3501602897967666 1.408002044267066 0.12722797094490496 0.3329719236765459 -1.026168785210691 -0.18359747524215486 -0.2787590708966057 0.11998057094425241 0.1106096797280595 -0.08334399300900104 0.013520810506447822 -0.3191320293660879 -0.3733165655827477 -0.6569914409544089 0.7469295984702855 0.16686770011961785 0.3549815815230094 1.1306807835888812 -0.6060351046671375 0.0066526815428973735 1.5076074496666867 -0.02569794433711886 -1.0212914804608064 -0.5235765537119144 -0.12282216571632915 -0.8946828195335224 0.06847268208500168 0.10999796247150215 -0.08697031712850328 0.11115898928436746 -0.4899601027355574 0.5341561423366588 0.5748002517331664 -0.44708488781681544 0.044178471004434006 0.9273918460416668 0.4916492034497354 0.5015732465996953 -0.44791033804360414 0.487797666776105 0.22089931095571724 0.017088410297937673 -0.2678183983675784 
-1.9236134296312346