-4.137947360976034 3.584770052809671 -1.732502900472105 1.9263444760731065 0.7340106060929361 1.291926112414369 0.4661746897405321 0.4996118710012465 0.5269115552327417 0.10568591177532971 0.9143594586512018 0.9753699569924841 0.5778451783667251 0.012713546903497103 -1.015755263614321 0.4590931417152404 0.8495750380932605 0.9675888909873844 -0.4780195549647409 -0.4943067228685424 -1.3038483555428129 0.5168007819324552 -0.31215969138883615 0.23218974268792542 -0.9042141810754039 0.21986856931407397 -0.41287848726431814 0.33679346143092526 -0.13123266764824154 0.018696595678899655 -0.4717780659354688 0.047857453550001566 -0.10049447734645206 0.3552114515026287 -0.35259229668106684 0.006181143954234636 -0.2686160198482004 0.13533527805066153 -0.3250706182359373 -0.27206821308683493 -0.2710629622835853 -0.25412215750137174 -0.11098301256989901 -0.2713739788175671 -0.1352150333408086 -0.3389773112226495 0.17407893498111174 0.10540960223383941 0.12522948248155907 0.05825006966145427 -0.0648272650650982 0.22217881258348715 -0.10209515035867811 -0.11719738615575714 0.15912671315202243 -0.13819230934042762 -0.0735961379415862 -0.19181216473556137 -0.12919473030089432 -0.15054750157682822 -0.25842132935224155 0.07148897510488 -0.29411552874671926 -0.5235330615732361 0.10632166277468987 -0.13689364934107964 -0.03396191125438694 -0.16188211650489742 -0.029229164779113914 0.19132609914904514 -0.09599532447043577 -0.2011017695166576 -0.17306363526522336 -0.016953660423718847 0.013507812314112605 
-0.2649009944692804