0.3615550664043363 -3.4051351126351577 0.908498619234793 2.0400188811134883 -2.3285630406886675 -0.5983385724408598 2.924549144853361 1.132102081639987 -2.7583435168152697 -1.4509869802932283 0.5018755994620544 -0.3458232745515626 -0.37635406670487415 0.10022765324521005 1.3229661652718592 -0.004112622264318411 0.14962316270370268 0.6974151280453064 0.14894438496242413 -0.23302360052535986 0.7626811480965383 0.43225701287362395 -0.8059384559583636 -0.20705389479738423 0.24001306841057474 -0.35495039892118496 -0.12045792179067462 0.07399086904281588 0.3526355265824951 0.08753733120838994 0.2688475097704393 0.28842003180703113 0.3989499572069121 0.3950932350020094 0.09576125665272575 0.282687866233935 0.2026795702481906 0.49522209342102547 -0.09821014207748993 1.2869066833374065 0.3993968867659745 -0.4552318405879425 -0.6509020981627032 -0.20183326808269916 0.1821425769095875 0.2597368871927087 -0.5901222300425829 -0.09025737615869511 0.0680707752612402 0.18115588262672774 0.16217401602247217 -0.23129135838161857 0.08959579985350688 0.18333639844830202 0.030236920058736294 0.06558210191567593 -0.07384922641284192 0.4745239041299868 -0.23828244658867626 -0.43707717050514044 0.1874557634034128 -0.3877196456088828 -0.14956766113652814 -0.31312031859282213 0.12154227700486918 -0.13640640686063646 -0.29421712032819275 -0.1130956768585401 0.13698038676093066 -0.4751206405811144 0.027917288969449255 -0.1359939531917164 -0.18637808481228318 0.060837081561578854 -0.3343858703578119 
5.463155942420631