-0.08467885675966169 -2.3598863230235336 -0.9506815213699231 -0.2066819515498971 -0.7815778368503148 -1.0670125333395968 2.9261500054855962 0.15461432740196135 -1.8159266624006003 -1.8327469824902176 0.48675055628084246 1.2365742306332894 0.6480270992742972 0.39315521475639165 0.6005164872807929 1.2035263987026554 0.9626945219571152 -0.08084377110781649 0.28570846657077903 -0.39756630180248065 1.5159885964602282 -0.14083234096864644 -0.18589622657262375 -0.6859171540969151 0.3592145103359572 -0.025810358373599074 0.061369728104857524 -0.07842259000092572 -0.06693867321803619 -0.15218180297601128 -0.05171930174426448 0.240030554072509 -0.02724589014783002 0.6058859626548869 -0.5532499075640263 0.49333258346861325 -0.21426935004880554 0.16954877584264816 0.05155637737976483 0.4813823662169231 -0.01461293354359311 -0.10591754958159108 -0.39645749121718205 0.1604014953305959 -0.2872084344448768 0.13732450281503616 -0.09080653646759491 -0.2739137513226423 -0.01470557822934778 0.008050217202839577 0.502158411705526 0.16946452320078556 -0.03687932129508405 -0.19296046425647964 0.23112588691248118 -0.23487613073596492 -0.24563155663845113 -0.2036708382620181 -0.12329263063544438 -0.45802753276878816 0.1567785023071558 -0.0744875849057208 0.14786237455497686 -0.3028591364352707 0.006719170475208591 -0.12780354361919805 -0.26791880501137344 -0.09341481309894478 0.31316210161979907 -0.14611794688969626 0.17703188095731942 0.18585136532404095 -0.12893833343797617 0.21446979022417473 0.2941602636929285 
4.194265251488502