-4.099510703317606 2.349400079398511 -1.6666393061418614 -1.347091596595602 3.0020002558903673 1.6546630866688368 -0.09726345643788314 -0.18187882241312792 1.0594973484265737 1.2877574662027833 0.07232571945917693 0.32952544428716823 -0.07564289479858372 -0.04332106553987983 0.11068623117215459 -0.0039004465252291953 0.1536861518860103 -0.0762033379015904 -0.6998110336564348 -0.8921751873774633 0.12855234154741169 -0.04902728898864639 0.11866979878378064 0.7099428738165098 -0.18550724104045987 -0.03385871604179716 0.09143329816405343 -0.19715069789328582 -0.42888633247638946 0.41925075176089843 -0.16509145005217937 0.10435231929059556 -0.05938906149362577 0.3782920347931218 -0.033610519191835296 -0.12841067175800724 -0.02678841624187847 -0.03587047026550061 -0.08373328641092076 0.03101349522298591 -0.38583082454041073 -0.2726143346792356 -0.31114761883235814 -0.1812583851182193 0.09940244489688063 -0.15315414298264862 -0.14446471763730234 0.34791796971786726 -0.45996688871023467 0.38322006014138954 0.09822568595789477 0.21612153606093565 -0.023939143923061568 0.08156962613243357 0.06591473199591985 0.3148358557310869 -0.04930375832331757 -0.14676941371400865 -0.051466540956312756 -0.046432831084810125 -0.14035582711309771 -0.02507116494199342 -0.37545255373497594 -0.2974680913166049 0.18065627220193875 -0.08743690180760355 0.13996009199849285 -0.038792875775561425 0.1233495843710653 -0.05351163080827882 -0.013207737183911605 -0.22897646855450987 -0.0030903312818039985 0.20021808967089536 -0.15196646006768072 
-0.8449535816734144