-0.6660848779616693 -4.488242644244792 5.463143165439719 2.988901426825162 3.6884129341247966 1.9921638690779906 0.21883386042532216 -0.10660065577153421 -2.8886256399399723 -0.9041876296054183 3.671546317369398 -0.35090253579501063 1.1592648112686008 -0.7580986224468356 0.42133223706379264 0.8611260564158092 0.6353006265937617 -1.6129295664851697 0.02985004077826403 0.5606839404097474 0.9017855712726437 0.059519813741884864 0.0333103404483277 0.7356871477871987 -0.5067985402221726 0.51400510990062 -1.1196776922170306 -0.262833755504964 -0.7270083020096892 2.1205736519094947 0.13276131008496628 0.4818475605748105 1.1955005200449174 -0.5992270941919204 -0.535788774475392 -0.5974548447490982 -0.593992441045912 1.0215201813108528 -1.1797078849791534 1.0024487850989163 -1.1181311362597883 -0.7964126197898993 -0.8617143267340404 0.9296992522537112 -0.2390113137151908 0.3696936937719699 -0.6918208546663136 -1.2459696158599853 -0.5474898967192301 0.4004148239518921 0.08313648685923081 -0.7026667142045969 -1.0251427453542956 -0.511040366919503 -0.13673659338003796 -0.23008753324332798 0.0427872875151345 -0.2411453751015843 -0.6555856503139211 -0.6116966033735808 0.015321934025415929 -0.7021297811927665 0.41767791273189614 -0.279403366978356 -0.2956593495884533 -0.8572766586160883 -0.8070416701191714 -0.3393819680528187 -0.325276481773461 0.09191732647752282 -0.30318124870481533 -0.06190958947958847 -0.33383695819519904 0.023782039694846935 -0.4460401152668465 
4.971648779729254