-1.475364234845884 5.1350308596847825 0.5479155654947474 -0.3464304364901336 -0.6519904334929738 -3.441364606282282 3.185634289145868 1.7669749653498363 3.337462264411853 -0.8397747140998589 -3.8336145837189766 0.7543664860462718 -0.5559214820808799 -1.6056550040764763 -0.19862095003022745 0.04961498512291712 -0.9133107117999192 -0.5212493620842001 -0.15866987073233157 -0.605423683341239 -1.599881135137629 -0.45138514454979717 0.32550357732070523 -1.095875626208704 1.9398157517223114 0.25595687351746976 1.3824904394261193 0.25266719955352795 0.8010659803662112 -0.7795502782238257 -0.35144285933985075 -0.3559549484107694 -1.3079193987830953 0.7347280797064578 0.5167650673202766 -0.13491751483163772 0.025356882206832604 -0.5227900216918966 -0.4070588422978082 -0.5087353930022692 0.5041019278241969 -0.03423561741190344 0.2506849103406227 -0.5545901126882495 -0.5150158945208562 -0.12550086090386692 0.2637198540369906 0.29634706645131526 -0.020705242573982235 0.17646708151859342 -0.1735521080875821 0.2140910322069013 0.15093824788214696 0.0037259033841431366 0.08449385642600958 0.07257671023785156 0.08821969718020883 -0.551728258852897 0.20109118288959088 0.6121243329078795 0.03905474424613825 0.37411528167661623 -0.13927466467737332 -0.021545757685790173 0.25364176423963547 0.589660218057195 0.3411255493859564 -0.13366717086117952 0.10177283766198628 -0.18124460562562178 0.39657971667162684 -0.3434525010275476 0.06586505774543357 -0.04771055145003067 -0.5866216574476621 
-2.5467134662068536