3.4446482258774616 -1.5348743531650513 -6.6281702311826045 -0.060157113817979724 1.4500299828976386 -0.6630753920891903 0.6012855331092357 -1.793448430740621 0.21870831361501786 0.4307462623760565 -0.6658482188887164 0.09274360588666042 1.0706045721721447 -0.21162257288723718 1.4241483936181232 2.790284629046809 -1.7096481846659062 -0.695961619834558 -0.16702790537640366 -1.177280492188645 -0.35298747039527356 0.13670121406018154 0.12170521785927679 1.5418460478633542 -1.0747806976953753 -0.7694146988762302 0.10109711493806994 0.6730629906010064 -0.4126958838574632 0.6566272598026228 -1.7620978088416899 -0.7286221689160947 0.8845674776065806 0.3413728319340801 0.9650579118402516 0.3501798760945709 1.5853461282667123 -0.5080855408940306 -0.19268268553704754 0.486570713865325 0.12321842325886545 -0.409858632548834 0.6340304123739073 0.7422436007077071 -0.5181200476416217 0.401334748045735 0.953152175637258 0.33109857218582384 0.06008499331121431 -0.7495067636111893 0.04843094852435925 0.03419332419451121 0.19789655718478172 -0.28450218274610306 -0.27706070987861364 -0.2864304173722767 0.022738904177983632 -0.05813190911100097 -0.01088556856074685 0.5968074601243717 0.34240293761707513 0.42890672970878224 -0.3767575986065137 0.14095634056098652 0.25021646601544145 0.3202959579169621 0.3244312840946586 0.09111432796750074 -0.36109338054043727 -0.3690372194294426 -0.14896771009963083 0.14247638066366264 -0.4078390593729709 -0.4415359296872907 0.2548437514540445 
-2.681500262576394