-0.29046192999422993 0.12240674688236441 -2.2492975905106762 -0.47651815230444244 -4.554716256292292 2.6207284632882097 -5.463682087646704 -2.0605517311772634 -0.6137183201063883 4.204963690130495 0.4275404679152328 -2.772128434155001 0.13988430095173623 1.0259281546980428 -0.30848657503748084 -1.5848967658736113 -0.10307297824939746 2.503311822798358 -0.2639265305098131 -0.14611666953754154 0.411191866374541 0.30180630862598234 0.9498084284974376 1.270648644358034 -1.4827379797327316 -0.7040687762846234 -0.5370082470142851 0.7184227983073352 -0.38102618931065985 1.3174849350618214 0.6653900443196306 0.23499350346014614 -0.5621544075703077 -0.3174414787329243 0.5105609504712125 -0.24839012023550455 -0.1679410425156312 0.06731361623794155 0.6968268090092362 0.5769014985634588 -0.156786822530737 -0.12196684075382132 1.2754619507629203 -0.10997054385932553 -0.4532380075256084 0.5748814809601164 0.05005041533256681 0.3735448066533885 0.23637127731919605 0.5367080964699126 -0.4189649299154509 0.4442758301597393 0.21533165799460527 -0.3657247099766548 0.21663785420468473 -0.15281946233147958 0.6266059812093265 0.7744139087676305 -0.31757683437528733 -0.5975229546840752 0.3732570888111816 0.42547132420310274 -0.7903525598835166 1.2642505753005935 0.15382078941554314 0.409896792744715 -0.012184416669751084 0.22992426423272427 -0.32408003608456776 0.12699599813086063 0.4506642230769196 0.23990309369592597 0.7241994822699103 -0.01822962985776161 0.6389800695727321 
-1.2723275123605315