-0.19692535073628292 -2.36080964580367 0.817938780638034 5.182691200410096 -0.26803716085461815 2.1200756536485312 0.6862833538153748 1.6983818355277422 3.6853495850126485 -1.0073255009607571 -3.508276111146239 -1.5032389859043125 1.129791175033814 0.37585161734986994 0.8549153958868903 -1.8632531460996993 -1.2855566645433476 -1.1573322073382764 0.35910542838801796 -1.7856444098406716 0.7182866399913843 1.2737570663272213 -1.1431751962731278 0.8689855819451695 -0.04594909578404294 -0.0020783488529878547 -1.919427480857097 0.12460311610658814 0.36093536190273434 -0.8241879084615915 0.4533251018795523 0.2583863109803486 0.5880400729342268 -0.7501394495535032 0.05845913567887018 0.6526551866932915 0.28067303441008795 -0.5781666245149197 0.7070926389164074 0.6767958996734755 -0.46820530539833155 1.0342848677138812 -0.255842729997914 0.6251028056262835 -0.12270514925002196 -0.4665106314320886 -0.49632698658999863 -0.36189047663255547 -0.5082389916913147 0.12657765393782205 -1.2298567292948075 -0.6886906040550383 -0.5210521635835681 -0.792109140009824 0.9908513811639637 -0.38954772160750983 -0.016598229907157536 -0.15941139873725074 -0.024843406991945982 -0.07635374878407916 -0.010810159108813666 0.3885942183529405 -0.5009312354597646 -0.8298650910526203 -0.22797833444774027 -0.09831370669463824 0.601389248737566 0.5815953037810723 0.08944668280865309 0.6474509399068431 -0.42671955339568257 0.016538848494764835 -0.43314239786919273 -0.1994752269737161 0.4707312828165595 
0.8890904795683514