-7.27079806156873 0.37370511258642125 0.37174251954602866 0.030953914568285557 5.217585057919519 -0.2769497496133284 2.2077425289423505 -0.8812498090745378 -1.0902450114597473 1.398114531140737 -0.07935627068406759 1.0614144683542754 0.591346746209879 -0.8334959934294257 2.043285631429103 0.009086483520795552 1.0544164638945297 1.1896533402584228 -0.21946214454067192 -1.5654676897357636 1.7643706818859473 -0.08169398190094346 -0.5118757913118939 0.36206305690123125 1.1422029276541612 0.7650458839271415 -0.04120584234489083 -0.43437756567515123 -0.9528737780453038 2.142301876254802 0.2103829126381991 -0.28738164098258795 -0.15483607175904568 0.37255031503216607 -0.7534839392682051 -0.4465829495414555 -0.061570676436230584 0.8879910100020226 -0.6103921485522198 1.2994439939558298 -0.9309098528794048 -0.6240782786153716 -1.2120003417888026 -0.3096357236659125 0.20491103875819916 1.017503569334489 -1.105039972251422 0.5071978840787128 -0.5150407170971708 -0.08006191952362307 0.4606501972332049 -0.470390242995368 0.051141147655571095 -0.8510210222473099 -0.4500174991870397 1.0301515265556058 0.010730554293759742 -1.084619234178681 -1.5740718189456389 -0.6232842159413395 0.06449977228122405 -0.6115867240196327 -0.04962802768719299 0.06881725145238601 0.1444086547796974 -0.4575187519051027 -0.3944735648841728 0.9698802799850179 -0.4951018999004634 -0.21578709946524371 -0.2524440315273355 0.2894953205444073 -0.6248187562729095 0.21801918501490314 -0.047977027685691453 
4.9431907984413925