1.5071020677841593 -0.35471261780258967 -3.6970724847501844 1.951585108980927 1.6012669561833208 1.3979286147394556 -2.420210794521534 0.40392257598430775 3.8898467134392756 0.2214261816982609 -1.1034336772728308 -1.177153877134136 0.6886351017799616 0.8846484078094676 0.8396670303053735 -0.44132365190625167 -0.8630116021737414 -0.5447162318681908 -0.29474707985138493 -0.12447910860418254 -1.4367522887494897 0.39490623396983016 0.03957360415798279 0.06477378828880173 0.7594153681933224 -0.04179749698714186 -1.1332492860441514 -0.2522568813638105 0.22564240701880006 0.12429955058240304 -0.02547950317845718 0.13514338130736625 -0.26526793097030255 -0.2131721612375429 -0.05722405615443572 0.11075265987452693 0.5067203736253787 -0.5350844670943876 -0.001874812137397125 -0.4501938496507204 -0.3120650916396039 0.2252421713175795 0.4403791927193996 -0.1720193331843541 -0.34135950980250207 -0.19045050568944244 0.12376372161757315 -0.6397046298758658 -0.15468439516647448 -0.28780387403634344 -0.16563300494113276 0.2772394200223589 0.004179536872172623 0.16702902656263052 -0.0069901963354849495 -0.19999099156701738 -0.18740718424215547 0.15511813287812243 0.14004540883564603 0.31227047697551735 0.044175922181704505 0.12895640716902912 -0.06049085449513858 -0.07172211473889603 -0.15947067695114578 -0.173493577573482 0.011745279530844255 0.3281836854991922 -0.19086575324565203 0.49195964898944744 -0.09400810502412948 0.06105667051053773 -0.0014533948914954714 -0.010196840365481186 0.19442306581398444 
-3.957931827344013