-4.680427271616447 -0.9848238134906708 7.2478903031768205 -3.8815443790716095 3.529649259647884 0.19280894625769984 -2.4478650534382322 -2.7504113892202637 2.0550368356310402 -2.254110737118615 1.5815915817646107 -1.590122462887928 -1.3993806142796217 -3.7270879470015594 1.0210120054810226 1.7616529106409213 0.4494440320024443 0.7417092585383797 0.13781204940730674 -0.5591399073521178 0.3577124283570088 0.8757677156942691 1.0397317585330685 -2.890640592882843 1.7359587379714132 -0.05651473328105655 -0.9005019454064627 0.6595136834980913 -1.3951870100948789 2.662158069799248 1.2530406178092106 -0.6776116732731305 -0.5711997175573784 0.6578729269292726 -0.09427601823235901 -1.0957512112314272 1.2498822351681065 2.0308474228315765 -1.2446712735113472 0.7267467082147034 0.22813812167082057 -0.43043395842387117 0.8396028417789567 1.2530983138522105 0.19748690214732745 1.1311265604267768 -0.11953635954216049 1.1062975626738265 0.08208250928700034 -1.1788008536325103 -0.04405979785665837 -0.7090328567026161 -0.6504132897614826 -0.8051968710943274 0.3700612078580658 -0.5270917308861065 0.5836267531163556 -0.9897258178015029 0.7526003428273038 0.47996049531828533 0.17371067829368592 0.03841973332384008 0.474045259423158 0.10136153190299277 0.13502924106449551 -0.25184475597991185 -0.7212520570322812 0.865457364442525 -0.4616611266740209 0.7450806690299582 -0.7412779959081862 -0.5592442211183686 -0.7997675331929504 0.16204650157600065 0.503534899187133 
2.874330541334216