-1.5504301973680263 -0.9899129097072432 1.1327560464557882 4.5141599974426665 -4.0542067935319945 -2.1224342417953586 0.2550997384795659 -0.8938782356546109 -4.987782493548279 -0.3735879907590016 -0.512086171771277 3.051636961648621 0.33421515093671417 -0.10509389204650643 0.6616110423580219 0.27480323186187383 2.564934505371238 -0.21436616359781724 0.502252240204907 -2.339317117774255 1.9886101018848312 -0.06025486003283631 -0.5241328748620498 -0.09830280840458408 0.6080779905181899 -0.32090748354264687 -0.5954714642855123 -1.0918981034835213 0.02540792518984003 -0.2910996163751087 0.45862576572320474 0.1731180242880201 0.47003574932228287 0.49047484072078174 -0.03218265067489981 -0.7906745063798503 0.030318922435632167 0.3212163341388803 0.839263356830667 0.33128145171770607 0.934894295511173 -0.9661600391845311 0.1900237377862184 0.9705281794700219 0.1983709621692893 -0.08901100414241947 -0.35072681636763803 1.3475199844860295 -0.4632046035116356 0.7538539784824737 0.2232528524480878 -0.35205401913826556 -0.5060426459083838 -0.192779641474827 -0.02650324188941866 0.02373024446506833 0.004342560152135522 1.0026152384223899 -0.17420896001251562 -0.40626202765963587 0.0013560535031962306 -0.6070775606861859 -0.756587956222945 -0.9817813249440571 0.603217075993092 0.8679444648517431 -0.7314001883620259 0.41878584601946633 0.15609518652445964 -0.012099404393332625 -0.09793025563980484 0.1515150186583074 0.37733546576591614 0.6027505399505153 0.805819202943995 
5.853345094236554