2.888248220526045 0.7979738030516111 -6.183280728487528 -2.425846640295968 1.5065789340021227 -2.718103753575415 -3.3231339551007877 0.7265995556672729 0.7907315453862535 1.0253093654228154 1.415450586105339 0.5780013624679416 0.15327520829222493 -0.654913815633023 0.15187674601966808 0.8265412487577859 0.8186467474939981 -0.30133413758733235 -0.05208218812224022 0.42139334574254794 -1.4800714341155436 0.2094139499822482 0.20911245028092074 -0.5433923633064134 0.5597902593185207 0.26251657276313795 0.4163259164535762 0.5316337056805537 0.27459251923902395 1.1438399464615159 -0.09252430379703219 0.6665515361715892 0.0132338472732459 -0.15651432317859132 -0.38375744715296284 -0.056083107981304677 0.14329189330817893 -0.1287414153107108 0.13072120114894736 -1.0925986134577572 -0.21273390536976944 -0.2904940429104398 1.0759956687459573 -0.5634697605525519 0.010705223981073835 0.18480962590554523 0.5091258305770135 -0.5191472919591913 0.06381496654648991 -0.08070638062006072 0.338280836063783 0.0301548827113281 0.5528474965076752 0.842616200835283 -0.5258552161317427 0.4457871385384922 -0.3033902754488094 0.09959797094744095 0.3155268668367701 0.15578707983341722 -0.33096716252755115 0.10494873688494313 0.16977066486312237 0.2513703487352203 0.6383016994423815 1.949907333884805E-4 -5.066572655356731E-4 0.057219565697384685 -0.4311403968702614 -0.16262482595677155 0.17769144331769393 0.11379521984642874 0.5728760013659266 0.20727174077157676 -0.5667265239901702 
-4.797750373580423