-3.6433410299302817 0.15743852231369626 0.8378153500699825 2.0384554028948583 0.26295461204765047 -2.719551498647456 1.0316161366916092 -1.8834725851935274 -3.934479388056779 -0.21924820438998943 2.6305362047022776 3.319853456492634 -2.779888601435364 -1.7944112824719733 -2.7606357455458608 -1.2964568642626457 -0.03315961670358947 1.5324054178625666 0.1915091267951658 1.7050750800633998 2.3157666922946145 -1.548393064073085 1.0727733734900986 1.2585306421923825 -0.492075448559176 0.6545679784740032 2.679789305453938 1.4415301122905295 -1.2732944469902776 -0.40566825379106675 -0.7054934864390061 -1.4227681701109278 -0.27589911179651466 1.1889780951231401 0.818335545248152 -0.4098774867467556 0.09683668099975618 0.6477371142124858 -0.36057379899729447 -0.5570009502688014 0.575277261563355 -0.3400236314798738 -0.7913834216339666 0.08621900593229637 0.2705501879340775 0.9601811606875355 0.24341465927399009 -0.08449039756171262 0.9087340737227052 0.3063224898403219 0.14694117112248933 0.7144133918106531 -0.08920559347795404 0.013824679738177116 -0.2792537411450367 0.5937155866889792 0.252543407136396 -0.5352096414673719 0.10690142194379226 -0.12259075413844611 -0.20109003904752482 -0.044068654576767535 0.5830734096925467 0.3099802596455211 -0.07064638115648768 0.26471444304377445 -0.2529408556933268 -0.7341884394343517 0.39796832674395016 -1.1436454041679494 0.014807883961746815 0.3901088107880232 -0.05482267114187128 0.13814197401721834 0.09891020553258509 
4.548307875442596