1.141125250863336 -5.313090397270461 -2.352613255177977 -0.3935911569021733 -0.7686398251793523 1.1981210059532952 0.21638484198756913 -1.5657351636318375 -1.9571192469629661 1.6506461600662652 0.8306894936769462 0.6097685889705549 -0.24046172670690036 0.9887847808571408 1.1593167686730215 -0.20748907670174688 0.9970118931831518 1.5107262190714623 -0.22917329808106968 0.7349820561744773 1.1389875467905317 -0.3532464204415875 -0.4118159931541212 0.06705009431892436 -0.41367852330442945 0.8341344619152424 -0.6435377133951741 -0.23993181557517773 -0.2218208530523339 -0.0011962067365442197 -0.023967241861992283 -0.4363636226472534 0.9591540716917715 -0.02096992821783128 -0.38299430734285894 0.470694280284624 -0.43494710371728057 -0.23857819576530964 -0.18155221684904133 0.7873524902429507 -0.2898534032778072 0.4380791125245873 0.7531386042349668 0.02164177187689781 0.616014689753821 0.6880604069392576 -0.4177997491035183 0.7878549222215367 0.5390996858769062 -0.2324816413438478 0.10134585962834763 0.04117974193896351 0.44857133924589015 0.045884315549346286 -0.4139585586824688 0.02715231500334442 0.777240557303499 0.2658238399320412 0.04356425860596283 -0.03150359969008942 -0.4294549031437495 -0.9195486080455564 -0.15986590895516506 -0.25158516961624267 -0.23857757468601637 -0.5685288533535517 -0.5684728273736395 0.14160283881103278 0.35319942647807007 0.0460368411408755 -0.31267860547240184 -0.005265739768565064 -0.34314784789760044 -0.042558219976196854 0.8273739672752132 
3.8444390389774634