4.442939400875579 -1.341953649802031 -6.876173191921952 -0.7817189687643331 1.031865535779831 -0.36313369426268993 -0.7247836986120637 -0.4134883607397287 0.7174647844505566 1.7937643686486566 -0.0927401259202531 0.7726599130889884 0.8542659080453413 -0.7272330345130917 0.7113887872857279 1.8408717116927709 -2.292939481289049 -0.3672596855231538 -0.12543866242692436 0.06101471667348496 0.07833165154735555 0.5695505751599668 0.7383675297281108 1.013048722788727 -0.49608660691813355 -1.6135391887124717 -0.48123785137336506 0.6771667288466005 -0.24884147836469206 -0.5395074050847086 -1.1375415541424116 0.125015328425451 -0.1864761618755013 0.12324076636700987 0.6816491513788173 0.4597529172213384 0.6816221543785497 -0.4028226606083075 0.03526172804912098 -0.836019190174272 0.8062298164978128 0.3615668531572429 -0.050767415180731246 0.12847047508777937 0.04075166162985011 -0.7700410008638026 0.2746464495370582 0.5293208267984502 0.48431286983892546 -0.18343578347873668 0.17922158446022418 0.21703461247009315 0.27281841809710883 0.26946929788473867 -0.21756037956707774 -0.292267473080932 0.17841991793743972 0.08478011073184455 0.3259477690051318 0.14037175409226577 -0.013376410315622644 0.3502321948515047 -0.3640936607696649 0.07938581546032059 0.4326498769158783 0.11787621915062574 0.2945336949189853 -0.33352130409123865 -0.37673437681406463 -0.2981708488226139 0.11665031422292316 0.0489621626922781 -0.007148895877591016 -0.37002151551633633 0.18317863953711588 
-3.971124827095256