2.485790653022823 -1.1566727998538706 0.3246240889194518 1.1598604200198435 0.7071063526456633 8.481358663508907 0.5266519089108961 -2.5430015189004664 1.8812321615000753 -1.671043769784015 3.273915675485161 2.4406786236355913 1.5705306945342214 1.2519013119155264 -2.2045910665218384 -1.6776098303289415 -1.1786339230194725 -1.800059581128732 -1.362484311165947 0.9668361878739803 -0.7144342496921259 2.160461618987755 -1.334670632531316 -1.4996463043578332 0.7411445567794683 -1.4096387368208678 -0.6234140328591589 -1.9913020560905945 0.541225918130373 -0.7672561173603634 -0.32141126113926755 -2.039958868509899 -2.8112210083774722 1.5995812645716228 1.8987261371474493 1.9785721516102073 -1.8181124309118455 0.06894115364760944 0.7455730657509075 0.2766553618760885 -0.9783619607970117 0.7206330405409327 -0.0014307912529873956 0.29536596833188555 -1.0205581531605423 -0.769600747853744 0.6801627221741982 0.3563362305735762 -0.24287059693725294 -0.06875001363911784 -0.8837719758103328 -1.1517746811364467 1.4091529153333446 -0.6838376166745584 -1.0586416636926028 0.11603727113473283 -0.20749616104197888 -1.059789994503166 -0.3249828738803575 -0.0464521358402111 -0.9154894843241319 0.2680184850388298 -0.7750011833972558 0.6452343953101125 -0.12941977193861992 0.04004374971962815 -0.7547491584433443 0.25741876250519286 0.13161918096255765 0.016367407609626402 -1.1785847471044468 1.1098940135869673 1.285423777461777 -0.9332451047351296 -0.3031045752396673 
-1.742362391510323