2.902529631891717 -4.438314035113606 1.373107697495997 -6.4758867235648125 5.274523687161288 -1.3187531085337953 0.3362228622502599 1.9750554511318221 2.8594448524461775 7.480150146708439 0.4619656493005624 1.3512992750388158 -1.8783853489602036 -1.0044116223782458 -1.284087948576194 -4.462822059950929 0.0017295263198962019 -0.05064935845214702 -1.4459459738716571 7.493848339942589 -1.4066960322385391 -1.2607611869915214 1.436343740541508 0.6750818878889207 3.4983244284205424 -2.6067587642324015 -4.747699813722461 0.16870470388386272 3.8236603588905793 -2.289192454207336 2.6214902407358656 0.0895462180616245 -5.757237236690656 -0.9673060462681429 -0.5135185151192786 0.46168903787574855 -0.7637241496807916 0.7684076929846544 -0.45207314258561576 -2.0338319002497167 1.827617063719453 2.497460088298858 -1.23822665705391 -3.301964450407726 0.14228968592883717 -3.609777039311377 -1.4968988655123971 1.201374382597736 1.2529389209812647 -1.6857646767350911 0.31718083915013695 -0.6488384569503991 -1.0369962110128526 -0.4696942078678663 1.5769737792663179 0.44014954289008257 0.4891319454220251 -0.41747226077953625 1.7405629664447009 -1.1605568402512163 2.07675762761847 0.20595767225805184 0.6789765715704887 -0.4676208274586255 -1.4381065259135175 -0.013478695084885306 0.09418356374855519 -0.3666263801300824 -0.41677829310004766 1.1641071879209033 -0.10239233330544906 0.5542132603978444 0.2410710408415303 0.7358390917078799 0.7393374825290968 
-2.1947446391807452