-0.45446911954893743 -2.632805931332892 -2.8305011427357085 -0.6429031119336419 -2.0298159896774117 -0.34847304280172664 1.6991344551752112 -0.30538650315631943 -2.5937501044918427 -0.5336596604288251 0.9380166124223908 0.3657761268149031 1.3519382088366694 1.265342122989567 0.5486031656447032 0.9925476653449445 1.1822537221299725 0.9240300016395637 0.1603283359981142 -0.5491257652654561 2.0372999188797154 0.04003002742212258 -0.4000336958331724 -0.7014175222993576 -0.2667217848074833 -0.2672884953817658 -0.28746683479011803 -0.11246941649173642 -0.4155736747728626 0.17239685295575988 0.4631157791522419 0.2565769206173297 0.07385503895660936 0.5299777032476916 -0.264981117020342 0.5353070501065178 -0.2628605844617873 0.18700946197077 0.6239207722266397 0.7013053854210377 0.15685539188577177 0.042616430511153575 -0.06679021995345236 0.03231161854643455 -0.14695897064412736 0.3526031514070195 -0.0842294078972336 -0.13214937118389175 -0.032677963338181855 0.1554508213598797 0.5599083532389079 0.0860675384618973 0.019194602636198405 0.17106812700825375 0.08156406683683898 -0.12605464654050488 -0.011870188578093424 -0.337462120264489 -0.2050782624731478 -0.5111210069501437 0.2858523554909719 -0.20501607386011225 -0.09761620198138857 0.0061617212913433195 -0.07470018668871783 -0.08731741398026471 -0.1194874413525071 -0.20681950723316453 0.33567820002444626 0.04221207381316764 0.2198129042060138 0.10642424313082532 -0.06299068418541057 0.13853619806833947 0.566960038466296 
4.526898248459486