1.6486377535124213 -5.233970504054465 -4.596468626361356 -3.277418556281561 3.3736608368136753 -0.6551509468351572 -2.1962212993692005 0.37774536313390894 1.1843180952504555 -0.36349847317277173 1.0246560319367963 -1.1845592109045162 2.5563575466321624 0.05368712172322494 0.3587667953526049 -2.0149434246790987 1.2020123630817632 0.30980613640788435 -1.2735302614882338 -1.0636597580637044 0.3519196451508279 -1.0280454565532107 0.31544834421383733 0.020569138267654802 -0.020434735411804003 0.473136159917865 0.8775998302193263 -0.003911826061952353 0.5616462191647357 -0.6900910122734051 0.22055160558427803 -0.04218706596219212 0.7289305415336629 0.6418629769154953 1.244674563435428 0.9323628080840859 -0.23859170578130842 2.2741459398204644 -0.8811657789911121 0.5812847372688243 0.09193568216055958 -0.48799409762370677 0.08687654523226594 0.8395670311390737 -0.09833444577137695 0.2590590720038757 0.6967644230962058 0.6456374467052112 -0.5997784338097389 -0.8706979387290604 -0.37971282593748706 -0.04365304425190223 -0.034763171177274295 -0.16048895121532447 0.5145130932241306 0.20202833442674673 0.7131573889860836 0.464545699739335 -0.26516766625424143 -2.883207047174874E-4 -0.3022391930131807 0.4753192531523969 0.017473647170399717 0.5297635967820059 0.03265194403279226 0.2729732055029306 -0.03579587648645796 -0.32753676275679466 0.24400550203028298 0.23207435978206853 0.02304955067732392 -0.047572144232515726 0.12656916455177522 0.88399606922973 -0.24787004883776143 
0.3092512289726319