-4.801569678994998 2.504920315294763 2.151850226360524 1.147490074936337 -1.9137642017347583 3.9426975735123273 -0.20168615332335715 -0.007029692934299225 0.11155817457797035 -2.2279301740857846 -3.2147566471149776 -0.685491948314322 -0.7101395271989628 -2.417854320070448 1.0054163056582235 0.013054205648814085 -0.543066715562895 0.9329221211535117 0.4128880046879675 1.1040942577820037 -0.13114860973096043 -1.3095912874539481 0.04882320295177944 1.672057001802945 -0.8130642329485517 -1.8812785888622752 -0.440527754973832 0.08299477689148704 1.463681410858441 -0.07935668802960943 0.09650894835159629 0.11538318178488531 1.0159007373030817 1.6328019295542462 -0.5032152930300298 0.16686745605099818 -0.09401746310509673 0.6386795203528526 -0.08883842104506301 0.3779858519669572 0.3723532489798048 0.5603639140627545 -1.118492100807852 0.18957324968742517 -0.018177123437682186 -0.45054876542251576 0.36840546714401523 0.13369727667113956 0.020167212703310317 1.4835688916783905 -1.4586190219073452 0.20307403111574918 0.056141705784376966 0.1704637415418503 -0.3560776270958562 -0.7313064427757756 0.38494972298113533 -0.6851183884054929 0.22942127126177425 0.21329222610197487 -0.2423623412448883 0.31400461544152025 -0.34891347722109767 -0.010610932728735367 -0.043262148390062816 -0.03184364737304246 0.21216969387313328 0.7315816091506727 0.7074331432006173 0.47402043372623837 -0.23773227872715416 0.5638301735687921 -0.08169624429608391 -0.4069241049445559 0.2589251371359531 
1.1613816123052865