-3.145803941775924 4.8134067194001915 0.8301141739034161 3.156898940561995 -3.6305936070281515 -1.4150895678892155 2.4673075883172286 1.7342762140845285 -3.897061624875086 2.3149377549663877 -2.215722517329155E-5 1.4679878796538588 -1.1759167390032341 1.977313284151497 -0.017891041235467364 1.073056400155442 -0.8159264441790706 0.2674625916220643 0.8922597571483424 -0.43395920150060163 -1.2307059814956203 0.2156434811536696 -1.291446449632955 1.0641004087374615 -1.2463483579881258 1.2607357767308984 -0.4951746625465462 -0.23586495845397093 0.1724040396271494 -0.15383193799870168 -0.8226511343611456 0.25668558749605397 0.4278510506638392 -0.5132820811525853 -0.6915476410167093 1.115815259561118 -0.8557083317390037 -2.2173246375423545 1.9405016045003043 0.9266990083109152 -0.9239818272235663 -0.2605207564627532 -0.7026460587266449 -1.0024854181875018 -0.2356938107234252 0.356390291723256 -0.685755329250097 -1.5485923516428437 0.12781174925780747 1.0618477590749849 -0.2321450006992738 -0.8302284989740312 -0.16931986439249724 0.56488885220048 -0.08145883389656855 0.21166840662252817 -0.3851671494082831 0.4573048798475242 0.05308947704285895 -0.772441878042378 0.6273729034327982 -0.5849103806264564 -0.08949283957080367 -0.7729326057708189 -0.4161575625988777 0.3792553080210397 0.03101893344402218 0.21187469127485903 0.017144323995177513 -0.5320985611175137 0.8789266837198405 0.3966695613558382 0.7407274160995955 0.0010685804230436968 0.019661887672012712 
1.6342202123288936