5.362706482991571 -0.779391162856383 -0.9776702413879832 -0.46148787385663637 1.5327302277878347 2.4422344833463523 -1.4912615959479245 0.724127374429051 1.1698960152218039 0.2919745052010957 0.3642257912702602 0.3717948409754439 -1.1037433837786867 -1.0674971490910552 0.08810754438795532 -1.8143013077678607 -0.5537883212775363 -0.6144635482836265 0.5162224169467562 0.4853646529652205 -1.9570005309511638 -1.5685826955933595 -0.06877925333462032 0.1266463032498163 -0.14411373476832723 0.7005712461598524 -0.7772949353288122 0.03523082165850333 -0.8719059570168588 -0.11327414772170372 -0.14283953276444106 0.7101667685494777 -0.8459706487596896 0.11316983472667164 -0.4041270606373817 0.20699775733679093 0.552938058500696 0.2503484889895461 0.7678192004243747 -0.5323508995450605 0.47423955267951406 0.0696118482436589 0.5103183794523823 -0.3579024154778927 0.41397467278341904 0.11144033819408872 -0.2927603746943626 0.4003677776674828 -0.5298443581944879 -0.554177370170297 0.06617556228067556 0.19930322944144882 0.09887463945895882 -0.5798942296630705 -0.5124547211227739 0.06688226622059912 -0.586017963602857 0.06545840960086408 0.31865653944823824 -0.0464710173571756 -0.19466278226298248 0.010285388425091704 -0.25298435752350157 0.2484743827826318 -0.03962145891378728 0.49038895703769886 0.21759307205102463 -0.162891876025571 0.17306113512301768 0.23044879437064442 -0.13704880576888473 -0.33407643808382975 0.2638709220324428 -0.30855446556939903 -0.06349206731298829 
-5.084382292626452