2.8692929695083222 1.5885216251422136 -4.736852914896149 0.8418958538473702 -0.22660306548830533 0.21759098879541217 -2.3610844658746037 -0.5004841775703859 0.5614903175611161 5.36239506877538 -0.056354284710219416 -0.7975790537343928 2.4430966177901228 -1.8443423198936435 0.7000158533348444 0.8926836352048615 -3.736728324882251 -0.01266800550438485 -0.4705875048547681 -0.4252649958973909 -0.8094581582079923 0.7600150749835846 1.569796350484622 1.9845075724382313 -0.9110477160296628 -2.5363644143779314 -0.6496486113830098 1.3697665358133153 -0.8604012789317463 1.1785147824779387 -0.5592720689083213 -0.620641704551951 -1.3411743030908374 -0.6132208034053326 1.1975537516247903 -0.30158233814539515 0.4396637373954242 -0.10504145585138647 -0.687179947010359 -0.5376921261892595 1.0338797110522708 -0.5791888864904335 0.8749923300937136 0.7900737933661055 -1.0955921115836313 -0.08540116942230203 -0.016638204594414452 0.38947423357433164 0.312157075740538 0.04088854400526043 -0.7847999446161424 -0.3489321872456459 -0.11891362115038326 0.27139670224229123 -0.47421723143956696 -0.5232213316457326 1.608081701903298 0.06021353796059259 0.2579326439333198 -0.2044565052277939 -0.25310906176332004 -0.4872009839998481 -0.8345041334934826 0.4619692934947355 0.5432647569132099 0.5575472330587107 0.4064545193594634 -0.4691520058919471 -0.5094605441205244 -0.43470029775679764 -0.0034601959967830165 0.0063566814711868425 0.18351524274599915 0.4598511212523584 0.6893725984835337 
-5.259603918725371