1.24037991048265 -3.350684131248852 1.0938666856218981 2.6112485156475733 -2.051242245232742 -0.8147034229538379 1.8877599744364644 1.62920585802146 -2.324159658373204 -0.925006628538409 0.3094102435047148 -0.9338242625996491 0.6107412153060277 -0.4299412998041245 1.0067405868292187 -0.01798697572280547 0.25326255324709557 0.23091143677377957 0.2768707252240552 0.21560893159887592 0.31368723940818655 0.42973689030461415 -0.08832458564563556 -0.4308374947917051 0.45846844244031476 -0.3184582546863795 -0.09925729315933557 0.09562326343626124 -0.06472880028016359 -0.03805339463411836 0.04310450491636242 0.48086430471789565 0.12955568535735146 0.6738278720402704 0.11791164176063684 0.5893569090484454 0.0054580586139310605 -0.15242837007281063 -0.20568853472534304 0.9383549434532745 0.24663020997496576 -0.2266221623404954 -0.6653075668663953 -0.4322731022517231 0.09041271063680509 0.11929450828172355 -0.3995477137192174 -0.2478777308474575 -0.24845888507529734 -0.040172343033630056 0.1315843753289878 0.030419395827475118 0.010053462130532695 0.062026738392230545 0.10510488307765495 0.05949237396030671 0.13347583954344666 0.11586801755803727 -0.2123795584471708 -0.11314337586739433 -0.21456460831423804 -0.4981761568458981 0.06101612528250405 -0.10030123059194362 -0.2719707537978761 -0.15698988107191103 -0.18755981961007007 8.217090277165412E-4 0.1137332757851949 -0.47113331863914776 -0.1881509702526794 -0.18727483825380895 0.019596930513214428 0.0827646215832003 0.08297779920010816 
4.277950918375328