-3.1310907811688824 2.7022785726785257 -2.128696077011403 0.437081767529326 1.1805926665457807 -0.2706715045489325 0.5787118551062049 0.15733895668175768 -1.160082941182726 -0.7336103660951618 0.46662354179080456 -0.6993018639247672 -0.0759480241100916 0.086078097035868 0.04871403675814745 -0.6308943616427717 -0.18888653744299277 -0.5828535346150605 0.03826078831146651 0.14845418571551255 0.09265233261977879 -0.07758512974349074 0.5702860914277066 0.011649834592132934 0.09737059940258502 0.16089443060173375 -0.30818576595483904 0.27157623465785213 0.11016509451824409 0.37097573675001727 0.11969849310552405 0.0950169487255857 0.08250939595728563 0.01589232334351609 0.006241674405460196 -0.16015112174860574 -0.08271335911577252 -0.1374743614305336 0.2557515572894908 -3.351293398257127E-5 -0.27527859839147584 -0.009965884551431124 0.0680827708705753 0.17066283739760402 -0.17976517789136154 0.07445272304212769 0.031402284630955346 0.1558545190656752 0.07800356575494685 0.023777355407443343 0.1746458941896138 0.13613368464119463 0.16267356064810226 0.22428058613867824 -0.13285165143330002 -0.0977997723254406 0.07693493297129272 0.15947493219406325 0.15966602278925124 0.003329528159246642 0.15221934157987058 -0.07010858174747878 0.23278541301271916 0.09586715267117706 -0.003047837988845356 0.16993632462808428 0.34234488380293887 0.2255237090624638 0.09802668094960154 0.019686365638135174 -0.10276162504032821 0.04080338598563868 0.018590641543009198 0.037039239085358056 0.002744820629602629 
-0.03580427993312629