0.6718184981184585 2.116024474613347 -1.7097150643838592 -5.402633497022409 -0.26337147448615106 1.711992629399992 -2.3565794463385465 1.1544388109256407 -1.5322562887961482 -4.431793911417692 0.697414507429821 -0.11450251012742196 1.2540215431388648 -3.2536885925982704 1.2920684291761586 0.2034710305657479 0.5302883782930712 1.2057480652599804 1.0067998319473515 2.383088534652558 -1.1269981220015994 -1.8562711012829594 -1.155533692378793 1.327657871669214 1.170012860974008 -2.8989513435013885 0.389662383341869 -0.3914933412814603 2.3380517801777865 2.689375184675695 0.025556803886510937 -1.8615788206927828 -0.7043541027516351 1.9228037037243082 -0.04861176100324871 -0.5598653700311642 0.7519096848945503 -0.20177446907278096 -0.9962258015687679 -0.8869462550871381 -0.13057214115777777 1.418132907056828 0.5218102111932919 -0.40054113144163206 1.1618854027405487 0.32219687609978287 1.0229365305033702 -0.4695091150161669 0.2022547395936166 1.3610165593396175 -0.7446338439218345 0.10461425217719511 -1.0706955298496583 -0.06212873064607838 -0.2489947909257264 0.010004515731233177 0.7735333890384888 0.7153938375051336 -0.0965261040061649 0.33777376431122996 -0.38829800318709523 0.21396260949108203 -1.263542891232478 -0.12852824169900567 1.462821794967974 -0.09229027166795845 0.10587209056245017 0.6714760223875152 0.09395133288910285 0.3066591842522649 0.630494460769415 0.43533418410395 -0.16640557187446903 0.3751790021100039 -0.07369734123883787 
-2.8114381469803313