4.734395879556864 -5.520391393634114 2.4882878911316664 1.697620085738493 -3.086955800314313 -5.249045229299876 0.5087414145132714 1.0340110089950145 -1.847907998966078 -2.3576276440972173 0.35594807459985295 0.2609025056761385 -1.1643860112241948 -1.576387244187646 0.5708195111910376 -0.5908728417010182 1.158413075328066 -0.19195144245032253 2.1116373513581443 0.9648137211960521 1.3024539947746985 1.074894472848487 -0.8042101982983756 -0.2123288875444976 -0.2204785115403305 -0.5465833042072589 0.5695665792951415 -0.02916159157432216 0.24072948573098565 0.594382670775842 0.5232396886594444 -0.08877252032233057 0.36589212332177395 -0.4764257960846977 0.24696507736865966 0.9627729214507126 -0.6303538938019827 -0.60414780709953 -0.5879194104261933 0.5401437181093399 1.811250098823869 0.08884305154498738 -0.42745592809152977 -0.28675349515976584 0.0171208607807114 0.42941181734890577 -1.7311012005047548 0.6511430774114788 -0.12469617552001487 -0.29363408978408956 1.197450427445499 -0.5263205111945652 -0.11478996424404059 -0.23842744475472896 -0.5132655246903429 -0.24173663994433908 0.9243385080171111 0.8890167737178776 -0.15091948033112018 0.36265790513898455 0.03134828790523597 0.15038003665705402 0.9151139265549262 1.1527603204324712 -0.4549647688796625 0.1857591026804616 -0.3763888015701945 0.3535232550578352 0.025022617625811372 -0.14069117410380458 0.2316199789161738 0.31119330086319946 0.30121548753935534 -0.978269299362504 0.04952193882810857 
5.105120181557785