-3.8878137448070293 4.814125500050911 1.3003560596616968 -0.4014347309910935 -0.8621430212428209 -1.23759655045393 -0.07660909807525851 1.155881063562927 2.242710398128057 -0.3490119211849823 -0.00638800058100325 0.022418166004048112 0.46673784253964185 0.19591107247976436 0.5120284781025002 0.42057436486725563 -0.29975462857349155 0.34592479703678836 -0.21524628639698395 0.4882505663805434 0.6467958787393789 -0.09969373186463976 0.044707109794630995 0.17089539060242442 -0.1815336535079766 -0.036378392697506326 -0.14962731775521831 -0.20849677561965022 -0.5124964147142665 -0.2817359686525156 -0.11517913935092544 -0.005703481960772576 0.17358454965008108 -0.3094973558060128 0.365146149541585 -0.22087190502728238 -0.19862412101795143 -0.093794221320284 -0.22978233832191722 0.01996576696352581 -0.363636241516594 -0.02934167462526783 0.21985160021397093 -0.3832991949331857 -0.2527720697513513 -0.34486782063285587 -0.05778293563784698 -0.24269142522377862 -0.0028551232694817887 -0.06743424962101491 0.00790470385600292 -0.17823697524362514 0.0069745022327444145 0.3273928260396907 -0.10174523236560575 -0.40599202173793686 0.07484361313495443 0.012185410390335022 -0.13867113416019075 -0.19252519698357584 -0.19922804702711958 -0.14241251560601842 -0.15922651337772525 0.04923579474999777 -0.00372153435481091 -0.08405110348432424 -0.12861503280458386 0.09402578472881924 -0.19114105018265642 -0.11078052719347901 -0.0789504443702979 0.03298217656132578 -0.043234414063339485 -0.21183145426292066 -0.11695283366051053 
-0.7565364255551943