-1.7973213099825875 -5.85453102630988 -1.8154521640353847 1.473579986280123 -3.30566761731163 -1.2412617673676236 0.14286441396326602 -0.29281149270792733 -6.17868215100203 2.2236646020574735 0.22060130834178673 1.5095718636233337 4.7489281507534065 0.2908340667454782 1.240705745128969 0.7295754923224306 -1.6125488132089847 1.7600799619661838 -0.11132219811415048 1.6839783025992832 1.9908188611208675 -0.6412415991210617 -1.9557791372136464 -2.4126116787627043 2.304691545890409 -0.3209519943563296 0.046742783173474724 -0.2619655499623253 1.1247131966431736 -1.1317199492712327 -0.14167428513989652 -0.5837361380382978 1.0999991452784648 -0.9959723887701509 0.157283233267471 0.5883259095039318 1.1139349567295982 1.1064899653590643 0.1258262552975886 0.5919198013088682 -0.9241827010988984 0.8513690812716497 0.6847466002115373 0.8164239856398406 0.14948848009430474 1.391815278407955 0.011590492308419693 -0.1445620908112244 0.48011595123746825 0.3251930182528611 -0.8931590673702007 0.9250620242637975 0.6165958324656061 -0.4959643395779113 0.1053389254793629 1.1604511870434118 -0.525783559912111 -0.1820545108808568 0.23681511035825833 -0.6403627598627195 0.2623357470268021 -0.5223200269277753 1.006080064314132 -0.23476071063287368 0.688023936373635 0.535683986038594 0.2618257894082228 -0.9232294827343324 0.2862664910180312 0.030660565751343655 -0.3599313746138782 -0.560933533771995 -0.5300032927101483 0.24113728854289318 0.25034932871804283 
8.086682673374133