-1.752870747997969 -2.4455289236803726 -0.6604172183925381 -0.43052088699894897 -1.7014497189235493 -1.5579325993401745 4.532640970005739 1.1477492807701277 -2.3699224736354614 -1.6898749564631854 1.5294372906683347 1.4495259823249085 1.492703087593443 -0.0017221229491244383 0.2615586396595173 1.9986959122160122 1.6027797060373765 -0.2716022021598314 0.16610260310924163 -1.0709537277689263 2.180165647136036 0.15652591579664754 0.04197417204370578 -0.7843742933364651 0.03677269095996527 -1.241011476727368 0.03714646526955556 0.2650743483139675 -1.0380644697156518 0.5731121129626577 0.21541882541410334 0.5867082967765208 -0.02325786488385506 1.2476416004776671 -0.7073642912941684 0.8737847598858186 -1.194455060907599 -0.09035921517642542 0.39643450009615067 0.4682918004436316 0.708069072093406 -0.5213330006770118 -0.49330913675680343 0.34431061775377125 -0.7037770839859949 0.2942696203780415 -0.8322645139473899 -0.01575563177017008 -0.4630340311706701 0.6938257447255631 1.3853467182741217 0.6501933654533201 -0.8310532631394676 -0.013385036767044833 -0.14139305074196118 -0.5155029634965321 -0.40755902711127945 -0.21757570112885866 -0.6406259746018856 -0.6895902662661937 0.09225425483042848 -0.34696028854357686 -0.03790918576137814 -0.10127069986274295 -0.1374527209192193 0.15717117352775756 -0.43344358184137843 -0.4713494543660943 0.6954070232811767 -0.3378055592676902 0.3681750728595566 0.31892222730777275 -0.04370347280210653 -0.010675397045492474 0.4702217938765545 
7.143946254456888