-8.30738994574737 2.811175280952096 0.15020753185708458 -1.4446705503555286 3.331491252496914 -2.2808080767536274 -1.3736172975434382 -2.4119445893014992 4.293977825747323 0.35555676049234686 -0.9063673965540586 -2.2761080990506652 1.4731034722678684 0.16892502638282936 -0.8032683360867932 0.27202279936328044 1.2482984994803585 -1.1646781244985303 0.14311518326393402 3.0446813664327745 -1.9541028354138845 -0.1300988215166301 0.20889935660031628 0.5293779500308755 -0.2188703209048699 -0.009659015440845686 -1.9220314059659127 1.089707505784005 -0.08330567596518174 -0.055657327678010654 -0.842325065257235 -0.7717952483007822 -0.957970240475813 1.0166967007936152 0.7205246490612103 0.9559297343300317 0.47835474151852175 -0.6031281639472724 0.1122155331860849 -0.5029580099867852 0.09197190299105161 0.24171881072483498 0.19226166182593118 0.158887898830113 0.8828090277764113 0.5361606065529938 0.06374223930518896 -0.7485182857095347 0.30331126833693556 -0.9831928873046251 0.20287748633428349 1.5450074864020311 -0.14474086490497118 0.18460691828897263 -0.2519924318193955 0.8213263028229285 0.2449044720990512 -0.0848029965497108 -0.05307601584191621 0.5126317899284073 0.13286785248716826 0.3735997003725059 0.20615424250969805 0.027258026886037845 -0.23707833598704897 0.1868742605808248 -0.3773993366786948 0.609795407537109 0.3559268877261009 -0.18777846946066315 0.05423911394518166 0.3518918292709228 0.4063941291869142 0.13256541237195574 0.8652882658662979 
-0.0022412114770850866