3.8407012287710494 -2.204522130619184 1.9579298943733607 1.3611720272666352 -0.5442693359866868 0.9495728000161565 -0.8520308945816253 -1.8584437411292487 2.005198099352696 0.31026233387250324 0.9048027816608706 0.09917788206275624 0.3621087032904793 -0.5319848767667203 -0.49026987885247386 0.24144936513166299 -0.7866859549933363 0.3731213105580228 -0.018950036889740285 -0.0581533487371349 -0.31197751986002586 -0.13061357002263474 -1.0425978987268427 0.28116869686121737 0.05728302698991805 -0.28619690439361634 0.11448452069290826 -0.19115533421267983 0.3267470064070238 -0.3598118621225329 -0.23073891174912392 0.3330827486799817 -0.8844737517001913 0.5749146373708974 0.13393504013354715 -0.2193998028916888 -0.7030279379068288 -0.10553750125455486 -0.1815626209217227 -0.0648098045078267 -0.09397222983686424 -0.09914606733401035 -0.1042092995659939 0.2141115321761059 -0.30590949364470965 -0.28877190433193156 0.05582371892709215 0.10789343450164524 0.07879092907030921 -0.4050658244806121 -0.07675317775926149 -0.3325875195484767 0.014371814665638916 0.24701507456027302 -0.2257540770541394 0.3165326543433493 -0.2200766915525365 -0.29122790687674227 -0.36623536350491476 -0.12429783263551665 0.16888441799142478 0.07692461421541852 -0.13277341492866523 0.00898530485797977 -0.04427283828927267 -0.30960679076877373 -0.025598916917071723 -0.2068238823146889 0.18426837491067866 0.141649494446167 -0.029199389636085427 -0.028879971994491743 0.1654044555177272 -0.14637759407319745 -0.09301411780112323 
-1.7293023327454224