2.7878653986569564 -0.7630147795352542 -1.994604258404892 -1.0621110045876154 -1.465726992953548 -6.618054404876439 0.8230463369190772 1.0286193634248142 -0.4943389935167142 -0.6533060848465759 -4.3544325329876825 1.4677720582708385 -0.6750259066470135 -0.5337836802400779 -0.9068106470496404 1.425325573462032 0.6722359890134881 1.5626226589054872 -1.3218911607746686 -0.7555977775072411 0.5460574676494612 -0.05532013229552413 0.1054973780554691 -0.3860751668005418 0.7152116129471441 0.6523071169050456 -0.6367597167737982 0.34643779256820245 0.9694483933122429 -1.4832830570683873 1.3236180954471934 -0.5792386283039148 -0.9889170313043267 1.2884577030608568 1.3119035791765077 0.017222764957516068 -0.5099034356286064 -0.4092056129637701 0.4004040102108363 0.06878362340086985 0.1320457222869863 0.2448394887879845 0.30044225026510274 -0.003217372796904483 0.006427274098293634 0.5808412318145408 0.053380153181312284 0.3113319009902146 -0.09883757362169726 0.3139121424536496 0.31206125016091113 0.2757361354344314 0.6488675083018216 0.09203911447438967 -0.3600174493357245 0.6306981530212242 0.06552211287655363 0.2748216756637045 0.6252776573632508 0.35183574137915646 0.13285530400463463 0.17413988553849852 -0.19391611808402098 0.10550794472307778 -0.1413895624013824 0.9437645539061188 -0.026387969119904264 0.8520354720959746 0.5112954014550425 -0.17931209145207125 0.29653604268468 0.2618567696768591 0.29833899089666693 0.6454798696232333 0.6957524783755324 
0.4024405877615489