1.3393133758029228 4.049608191249335 1.558427832425088 -1.647591102549625 0.8183913033345429 -0.0654229315763879 -1.6409842912117885 1.5558788037127866 3.350481486904189 -0.7429830207599759 0.48384335496146025 0.1398511797665729 0.3250954852645237 -0.590444789271009 0.6325670915821207 -0.7855155461316832 -1.0118787723604785 0.2386588234948681 0.3457075157472109 1.2174858512138156 -0.713552468226631 -1.6899004489889506 0.27098622836603836 0.7663101609870384 -0.6035837143801468 0.9294331605428239 -1.0270568235196524 -0.5052223906981654 -1.0821822281438747 -0.5699861895417065 -0.4512573541858525 0.7600138995137659 -0.7080247163154147 -0.392192856731866 0.13717943255811904 -0.04242457499462643 0.49652890462422444 0.06068369282756539 -0.07580839546737811 -0.7314297749760212 -0.00875105228543796 0.024025729762216994 0.8986283426434694 -0.7384798494007786 -0.5163195060126768 -0.0618038861037602 0.054736869753939404 -0.11050239942769921 -0.2666199831447234 -0.11791111885402203 -0.15685817080407938 -0.06560971863009049 0.05345661378135491 -0.4737787624230324 -0.05683464563589512 -0.09645633942873136 -0.8294684481172183 0.1776501584642185 0.21436461328507567 0.0574711300464191 -0.22516706117047375 -0.24112621402906875 -0.6393553810762023 0.4201300755512942 -0.145071072821768 0.044927785153313846 0.5114844819421444 0.005332055666130431 -0.5693584912416394 0.20189849586156677 -0.0866004838125996 -0.4417248325235811 -0.022582528392081858 -0.794114821867834 -0.39861496955553166 
-5.47281097392208