0.5494205103417977 -3.5863061306820754 -0.8893978085058438 4.6804216833703585 1.93742295423186 -2.17602287453261 1.3881907007551697 -0.05924899952247625 0.41685097392547377 0.9269524934045673 1.0817838805677458 1.5880886711422257 -1.3487660177486402 0.8634495470975649 -0.8118650601509488 -1.3368124801002672 -0.6904956227247915 -0.0264110872470793 -0.32580584204536456 -0.7706103722454066 1.4677991271774875 0.6441999781293778 0.31550814149482515 -0.07552248544867801 0.30771849332089324 1.1150612892572345 0.38535755875366084 0.06535522762884943 -1.0509987013888131 -0.893167279036335 -0.0948161297770676 -0.6194318963379004 -0.32932057502031076 -0.19790429317365402 0.3100618784134174 -0.08055732749557984 0.1697553685081864 -0.40848110182625585 0.6126507205255067 0.2523551130292693 0.3070401813711421 -0.035219059204571274 -0.34327905814923526 -0.026758140249327267 0.05613190428078019 0.5146842655505786 0.073192092922089 -0.5278492570684883 0.21348140702742718 -0.7717158368847088 0.486900193921481 -0.29764764091671503 -0.45712130599463124 -0.59627548643025 0.3131458635586893 0.41276068038401914 -0.14775730501309844 0.1677271034175961 -3.3707231946361604E-4 -0.3497895769068573 -0.39726111372853845 -0.23854069201703307 0.3326752530708808 -0.27244118818534563 -0.40222164191210563 -0.16019936480095434 -0.10376190805896018 -0.5333878916361625 -0.2937631590649976 -0.2011622405794298 0.25353893690067697 -0.3801726342026187 0.015104578565848348 0.15884944395123657 -0.07503255766430927 
2.6341124872288844