-0.5409748883346559 3.6967896823131685 -1.6805821247592931 -2.7247217703884283 1.6350526579614026 0.03458386555187554 -3.789276600356108 -2.2024831794229884 2.2473134936285986 -0.21095739793374113 -0.8123854466577838 1.4598501858514004 1.530967843563694 0.15134811135443366 -1.952009624299949 0.7278474581173843 -0.7356023267334271 -0.6120459076619196 0.5248420925502615 -1.1576700679146836 -0.4154988720948043 -0.6024809521027163 0.07951718819716347 0.4272146915666377 -0.8131747006969157 0.9078347875702775 0.7770063518926499 -0.1427791560392272 -0.42772726578936665 0.6262977825452842 -0.6627560080320235 -0.10403703475439002 0.7128913628300995 -0.8130416674950314 -0.2881544882552759 -0.6613173145315263 -0.0172607084519521 -0.5874689328962366 0.6796124216610618 -0.2621947774159459 -0.16816176241374442 0.8058446027465626 1.1924082235264097 0.8093903431125521 -0.6406647032764498 -0.24919039231582452 0.9739057584013244 0.9561757364007115 -0.030057102374645206 -0.15979638508099325 -0.11437608817403755 0.5636811813978587 -0.03939659336689011 -0.15681014909926688 -0.48865283617085387 -0.09253927038254872 0.1686723538770512 -0.17921973983760364 0.49492536965216827 0.05692003137376894 -0.1850484596263644 0.5254455200108015 -0.014087175088307369 0.4679442182384401 0.1388338535016482 0.17622340127293817 0.5669716126179645 0.040278509038726124 -0.13239892643760942 0.5118889935911628 0.19316049762620835 0.10076474012068234 0.07513229527045572 -0.1187350660887615 -0.05180135618052417 
-5.480340330704225