3.277842008257899 -3.108818245595497 -0.5605762594130335 0.9612566338360127 0.73838717224017 -1.2517866270503832 5.885274503532531 -1.2934133788697968 0.8224067586111445 1.3193889710799565 0.8472774471536257 1.5681007412859893 0.00240682389185487 2.2925606903371354 -1.3905629862594528 -1.4164881511321004 0.19154929368361007 -0.957702074451571 -0.12556655807276695 -1.0757316815332107 1.496410718345874 2.7162625536958576 -0.24449286726431374 -2.164220420470671 -0.2472859453678371 1.6869878717455946 -0.15128455552173936 -0.9894474595753349 -2.1646185826132176 -0.7890451420959905 0.0035564579308859923 -1.6361564304921143 -0.9986705279547905 -0.9255581762804053 1.5472910391500774 0.31187659604041973 0.15145042308054824 0.27568352576926536 0.3216065643171336 0.1471193332958194 -0.9653107154523289 0.8232352698048245 0.4126284051608665 0.5814600298419846 -0.09766480012251277 -0.19436876625704458 -0.4106178317047877 0.17512187682832236 -0.41910207125303467 -1.272042805347561 0.18449837041516126 -0.503376180851965 -0.23714681904411672 -0.5169907077139118 0.3587675164925924 0.7535020627758017 -0.4234953092818302 0.2749941676660683 -0.2630598663769944 -0.10782093212741023 -0.5034640168162244 -0.24236742462819727 -0.14263779008854693 -0.25224395939102384 -0.052068481445905423 0.2485697447348817 -0.4998952463390671 -0.8510198756216375 -0.9864555365146034 -0.6083600766475479 -0.22103474131944167 0.21096837343929398 0.7722070523385451 -0.2091761128444094 0.1104971404246049 
2.063931766876872