-4.241736017265307 3.882140312137815 -1.440674199093948 -2.3620283814152168 2.5553249581594466 0.34213231586373616 0.5456620566855888 -0.681819574879379 1.9071806116044923 2.2734467893829997 0.06702235365272968 -0.13662568929735452 -1.4298480337825803 -0.0914851883157746 -0.7369134784037783 0.6303478364437016 0.4562100176338798 -0.12681113074886632 -0.7486025506774651 -1.2056681724412153 0.38198583557182286 -0.559249627540519 -0.025946063602884983 1.079909561438707 1.2141544034902896 -0.1740986335523436 -0.07552243107333428 -0.2805051379097995 0.43774928761276977 0.9709415043816214 0.4437788313549996 0.8285539175233181 -0.16626985607891426 0.20213450004025274 0.037625617778875575 -0.3749470429056512 0.8699889231356193 0.1245914535841802 -0.025024782362879472 -0.09966447146653568 0.22702016791724688 0.22913530749697958 -0.18843568910184483 -0.49802079418937584 -0.506339568366887 -0.29920356544838456 -0.6271958747327113 -0.054901296722445925 -1.2095046071835827 -0.2558033812595705 0.11684444264652633 0.04095449022024923 0.22076697401233458 -0.4743893153329438 -0.023477087529734986 0.41692933927638887 0.23005394248624117 -0.44998715231093267 -0.06690131432381596 -0.0886785197300223 -0.4509188781232782 -0.0700073010642616 -0.23806407902244142 0.28996932608419634 0.61926485830132 -0.18052701544648836 0.5441006905334487 -0.007995377744671892 -0.13587673549936208 -0.04293602119217897 -0.3118599697102648 -0.10532921336140455 -0.43616397691145437 -0.32229866136980573 -0.15766476796014617 
-1.8692964865076553