2.7231931223904375 -1.9435729460426003 4.252068171805703 -2.1159609692822317 -2.2238713608033507 2.1858468110385623 -0.7376105323517854 1.643546835972085 -1.1279975387315977 -0.6490786765225267 -2.3430741513646076 1.633791954091238 0.03585296346341471 0.7064040209381757 -0.33696935091411784 1.1197464450610517 0.9981825265009276 0.6411072362643921 -1.9521052520013926 0.5057283121567209 0.11428871507079541 1.4136485856822252 -0.08979596001332865 0.5259892482901648 0.5715560064453855 0.0656929753004565 0.7373247912000301 0.2074789171359634 -0.6905337870556211 -0.354969178288696 -0.4190137872661873 -0.18112613795030152 -0.28698663622411225 -0.12862474902541887 -0.590064471833487 0.36712656596357574 0.6102808306544367 0.11748144800681082 -0.7573659654595681 0.7749750056816612 0.6375333202351572 0.10154276715695594 0.08209550639958196 -0.14519061697350066 0.4655361371589345 0.10459872819551375 -0.38707558627897254 -0.13789465337221138 -0.40954777765754424 -0.3887614633610508 -0.47619004599334946 -0.22099032311107322 -0.41465321980106296 -0.6241009206817861 0.08601845424418314 0.44131275785202956 -0.2971249358982853 -0.42050879573753275 -0.2918180426208754 -0.4351708695305678 -0.3507153958551714 -0.39832229523065843 -0.5140617069584712 -0.08383171758924869 -0.1331740911157256 -0.09135822575098504 -0.7332936810925187 -0.15345272931038517 -0.30256539043238917 -0.0249926109446151 0.13458271529078303 0.06530403656847117 0.17476294407449325 0.01843223039556613 0.10048545974303646 
1.6598198972189075