-0.7676127083633908 -1.6506938096546406 -6.656244544701325 3.7441112745842986 3.7495237788854237 0.41774385760362653 -2.0424393343091563 -0.4955419527593199 1.6854611801228447 0.11130741646668563 -0.003757679870707298 2.0706750272224905 -1.8078785213651467 -0.8195902108755899 -0.8163132983714805 -1.9130512004968296 -1.5717055399764543 0.34397176650697414 -0.05579747652820055 1.011764704604476 0.1107955229425821 -0.5766242031281612 0.005359199367175771 1.8757873604251976 0.5158596032443747 -0.3214384728435025 0.23078924043991123 0.4693115198625679 0.7356426891234977 -0.8863835563183949 -0.4035743268209283 -0.2995885797011421 0.09998774586087156 0.5543197514549414 0.07008155770699896 -0.2020378593416694 0.9871554193763281 -1.1714092757502743 0.16361592046976617 -0.27559305216557384 0.7532180216122621 1.1761924610336887 1.13447856872065 -0.09801904621873425 -0.13067476357722607 -0.6331508961075136 0.8857934649168643 -0.3377389973748063 0.15419472937362372 -0.4083116761129014 -0.5319321217976447 0.7395477176910965 -0.07747066169415984 0.11190877541594518 -0.06455065617333733 -0.14078889421089336 -0.0030612177878183155 0.4104891729749647 0.5189122434264213 0.02259890071275883 0.30736263408413983 0.17902082795484242 0.1679403265285051 0.36620202176743577 -0.3948743880658877 -0.04778435476272824 -0.12056806659133601 -0.15017899014488578 0.2944346133884086 -0.06120515568969281 0.07469668343055413 -0.5191267506129034 0.176181173046291 -0.04480914760064336 0.07508451551552531 
-1.7039489531422038