-2.2593716978350535 -2.3658098460117074 -0.722437395142637 5.903591524960339 2.437767134648336 -2.966284198488069 -3.6187692522993276 1.4217975407424728 -0.42941898478465923 -0.2250251351182997 1.006675427416895 1.5722917696349437 -2.211631226027098 -0.8815940136025211 -0.014139664367259996 -1.106626299135391 -1.357174042743007 0.657879611287081 0.5697180632617245 -0.26446364022140384 1.0017658949138935 -1.3432639858467215 0.850337803476382 1.919055700505411 0.5450026040759174 0.34173529296480715 0.643134533000046 1.4597017124616292 0.3638588709180799 -0.83784416011892 0.21726209096424737 0.6611342004089361 0.8515159524987614 -0.026452630029185853 -0.2990413841564416 -1.0792772464322167 0.5167543114957169 -0.6603945097057937 0.14649188566334215 0.024015928359022443 1.0278403272030951 -0.566732613282163 -0.5301139859546371 -0.3452766706943313 0.06190710203451766 0.6435330640257473 0.8277137508929306 -0.38039864354728836 0.3515987565491099 0.04886291487498906 0.6921027088879657 -0.17150704463607325 -0.20594893542889092 -0.44983291902039224 0.26288135608716157 0.6329058342331659 -0.24353447921999727 -0.07160864497141273 0.08986533377092298 -0.6562590940652213 -0.17753102886343358 -0.5752002659124924 0.33601202436431854 -0.4095286576151626 -0.3686352272219295 -0.9322848225488312 0.11508137335828322 0.0630604978391941 0.21233368926206364 0.14225884773241035 0.9259638168147369 -0.8800174968239343 -0.34038376246564583 0.44421055126946407 -0.015806198520510684 
2.1377532994611808