-3.1272591379184043 -3.127908755843615 -3.050776658366746 3.6902976667556695 -1.281932832816306 -0.9632638097802648 -0.3365261685618126 1.1473520097573298 0.4180542667839555 0.1712631634919004 -1.5233037830361735 -0.1563257056086591 0.4417881073254768 1.7440278513106264 2.4513604303474983 0.7609810851849463 0.35669059003294 -0.5135175559466726 -0.7871330207258963 -1.2744060736731293 0.960190209306317 2.6345439791590586 -0.7002594960661497 -0.6141918421753432 0.6748549939606139 -0.8904950864873563 -0.1990830408711627 -0.06364620575148132 1.3977211720049352 0.3863100437639867 0.6586877964498328 0.01886018072820214 0.5896544516245597 -0.45946667471289226 -0.19488868321781572 -0.4597368842936185 -0.3047839848987074 -0.625763635818015 -0.0584329462968701 0.735054709631051 -0.5207311027640886 0.12771856232116224 -0.17358994098612684 0.740436912810458 -0.2464280708692286 0.2255583551189505 0.37145311380125823 -0.21881098731276322 0.023796273684841773 0.24442329297448484 -0.3417582393367056 -0.29058940180119863 -0.37166115912744335 0.3012931285208419 0.6444501767952167 -0.23184101391235545 0.2383019638572631 0.14462530269467128 -0.16153764290655137 -0.06399391727143043 0.293181038310961 0.13114338700470043 0.3235241836012612 -0.8490122643860709 0.18840927725909784 -0.4706219855725392 -0.5477387339495102 0.5509999723505268 -0.1625132630740363 0.5466792218063342 0.17717438037257469 0.2502054927772245 -0.5717052143406575 0.7783368007430552 0.39623137605402337 
4.848388177664655