0.08539200496629729 2.299062122763442 1.1659647017867898 4.354546166579177 0.3039209040875164 -2.0157380254435022 5.87659213805178 4.10168017534208 -0.4742716790882996 -0.2939497603802579 -1.803773937339106 3.492187649239528 1.4975564165605117 -0.26096001102703503 -0.8597813078676269 -0.919644825125361 -0.701751929698708 -2.2953237108489506 -0.3203128007124463 -0.41869417158970246 -1.4789942938334546 -0.5510958892030581 -0.9633713750809415 1.1026777778256631 -0.054274678381913743 -0.13958752589571732 1.2528542083965348 0.2764573807732916 0.31970942865522106 -0.4359000774995978 -0.2845143782015507 -0.42878640016395536 0.454677000456178 -0.12369006135539282 -0.701391594741791 0.38586330286644105 -0.8607772408940201 -1.3292667482783245 0.19406526262392526 0.3320304452615383 -0.14623451191098527 -1.0706907786558535 -0.907000840316624 -0.08152118781328163 -0.28799750498926635 -0.3495595366545706 -0.7626974899160377 -1.9772067148531605 -0.28985944071221065 0.04417089551778877 -0.3576098263522968 -0.8406298457107616 0.08632250314392051 0.5262081961612586 -0.5428735668209583 0.032959586907066254 -1.0727128739946548 -0.10882394918828134 -0.1197752243184364 -0.29821094000096965 -0.5908181998619674 -0.36159559031129757 0.4270359423691281 -1.148526100837302 -0.5320475078675324 0.49842087866783025 0.4601391767106946 -0.2987368844950191 0.5799114073321329 -1.0220993621149268 0.5530502879898898 0.16341903824439433 -0.027611210534511176 0.7168068630507909 -0.6729903514491216 
0.712496698248703