-2.5651837741011025 4.135629180652458 5.428420669641795 2.6297913956760652 -3.0262969788041785 -1.4094928742726591 -1.321190058474445 1.3329772404305256 -3.935730062032433 0.5524644158412915 -0.17679364001744746 0.19625833137581483 -0.34622745231050367 -0.9245411912416159 0.3734018584494724 1.882601330807262 -2.1021486834361363 -0.3910452189817425 2.1507388481946212 0.17314922875690508 -0.374614650489725 0.880675709091793 0.057612101402978566 -1.4262343892980907 0.5744071377102652 0.8547302699284451 -0.29874665593366034 0.05323617486435639 -1.495284043079646 0.27250801061425806 -0.9753972161032327 0.8955626996665551 -0.43160383261633134 0.37752653669459657 -0.31944172443452534 0.6031918947721034 0.16314600608463448 -1.8401761275416477 1.1442587717501929 0.8283207374925516 0.0753958091661014 0.18301607491001376 -0.6615716336946188 -0.8359591516333733 0.5511497857127157 -0.2823056171546787 0.23064074136008456 -0.4151719719843121 -0.29552304098065596 0.07758589734594135 0.05848409834051199 0.19268119270382522 -0.2862244815810511 -0.0974612743770423 -0.0744788984093552 0.01202048050671356 0.6362528599585321 -0.5513287950530532 0.4758190887947964 0.19737969508593622 0.1291117986383996 -0.2950981247859183 -0.3269773917754686 -0.19669907053252783 -0.26904135190360534 -0.2669249164704993 -0.3047303062339072 0.3966740256919542 -0.202381705351103 -0.28251779035257435 -0.3738533723552161 0.1601289286999613 0.24954296805157092 -0.21897083523528638 0.4108763081674148 
1.4382575699742048