-0.5578487358594764 4.059289315118733 -2.830199762965372 -0.5545330686706658 -3.1396976772780274 5.097676408299905 -1.1522922596305358 0.09344396647834796 2.2476567480143723 3.6374903772426475 -0.5235635202892324 -1.1352230082651409 1.3338199643619628 -1.4840591397126557 -2.3022248147599327 -2.6815412741270617 -0.8910374158546779 -0.31596884330909236 0.24989343955669985 0.08419656725436774 -0.7289524385883723 0.966722202839265 0.18524286907905796 0.23699082885630354 -0.6372323865529426 -0.7572837154567946 -0.34385874516635473 -0.2176905564430749 -0.88376724204193 1.155353900879927 0.759664189596985 -1.8535344246378682 -1.2863581342848696 -0.23876205963405694 1.5238367164090976 0.11340685971085251 -0.3156872387548004 -0.6233990960041333 0.18017252820047408 -0.22990757821239227 0.49153346992922353 0.5226603872260362 1.4844534720458362 -0.00855009294875686 0.0214859148852532 0.2257025777187609 0.619156962621422 0.16295275715776192 -0.49540760236810844 1.0008775605758156 -1.2877316049434393 -0.1153350370043587 -0.038792715669341254 0.34991768716182003 -0.03886150853653694 -0.5103839458217219 0.5001784534582697 0.25423708479822604 -0.28967507360674055 -0.06360164199710677 -0.03908003195793497 -0.04577033936363106 -0.45464463161122803 0.6661698832163517 0.3208453265306787 0.8856009605124171 0.0873701455738482 -0.6132732036744553 -0.38529152485721097 -0.0968494335331373 -0.4443596164974826 0.7227531245724228 0.4521560747244011 -0.2876008723112504 0.20692328859440445 
-4.262238633608489