-4.032125301609479 1.3965606637561643 4.470726188571781 2.451021498947094 -1.8549737295158792 3.327793700432637 2.642331419708925 -0.9752622456755273 1.147075677576636 -0.6711017937023791 -0.37440599599984825 -1.5397637419010266 -0.2809585650502997 0.774457604318628 1.302910897988789 -1.826237349105748 -1.041182037349564 0.21437855482611565 1.0313280581979947 -0.3708804157108402 -0.3866826419427333 -0.21826610663882845 -0.16511173422110237 0.4920999338963872 -0.4711370521212956 -0.2942343512012211 0.8504569329904369 0.2616316041959905 -0.521463253755581 -0.2171154731483652 -1.3226154688448477 -0.48441019378019634 0.510973465947512 0.0548230613624584 -0.5537334308751056 0.288033752735546 0.19747643324701575 0.3345798132110526 0.31206791757284746 0.6706000171125115 0.49785867537682627 0.340899187267928 -0.5571005060216787 0.1794024175671495 -0.37801310755528517 -0.4005237075369571 0.02093922785282465 0.7820452042048452 0.5028599821401194 -0.09791279839029776 -0.8986137641572496 -0.5877445857859177 -0.7291136585924538 -0.40055463604308955 0.10014083225878648 -0.01692722468702383 0.03806547027532291 -0.6633298725363086 -0.18861250084866119 0.06305108072477433 -0.28796665345499994 0.021908562648204996 -0.23998251625041395 -0.03432436475135531 0.188343888410223 -0.5125407700261855 0.2642759502947214 -0.4488116411528575 -0.31622239708401717 0.33920054329782656 -0.4623295270084354 -0.34606897636520545 -0.06564280260394234 -0.5763505722554612 -0.2599707536583768 
2.3209284816132234