2.727315908918868 -4.403516860348091 3.841812713898844 -1.1318437963883023 0.19657691637250263 -2.6870286804597425 3.543042286986444 0.3538905973768187 -2.74843814776314 -2.047461280248101 2.708209825965798 1.1801181574995034 0.14875692520116957 0.30051705383545624 1.3048818814631398 -0.8983320007739617 0.8107972568865192 0.4038921136748541 0.20019614584239265 -0.31120758464343856 -0.07209366960224184 -0.23276540467507822 -0.932273950642497 -0.03771388384098459 0.9872826312383092 -0.6155985168991362 -0.2791454399836464 -0.137284284726638 0.13183544612416376 1.6533209175997539 -0.20384837007027856 -1.230505524575591 -0.40254750980093945 0.7030728920228198 -0.18599167999783967 -1.221237380683931 0.3793048998205351 0.7222984851026283 -0.5699307960605046 1.0627197977783793 -0.6809001448497504 0.35741176361851273 0.06437788239339015 -0.1454667549569415 0.5201867140968588 0.8327029479983229 -0.10076192861156397 -0.09088705407159486 -0.3299702392365886 -0.013612985944265743 -0.19470180212846322 -0.38842930507005435 -1.6483463121373483 -0.6679544009274159 0.04592580304142546 -0.06150970344880047 0.32217536441489997 0.16148636236060354 -0.11523871896087406 -0.32382106457726867 -0.15998728381319133 -0.26983504505128314 -0.41728099481942627 -0.50502539442957 0.1460362221811226 0.24124365219133906 -0.41771483941904586 0.30869379100266353 -0.05875992291420312 0.15730502983262706 0.07834713755252587 -0.15106473853987423 -0.10798740902531004 0.7032225246320928 -0.10093724380839203 
4.695496955317154