2.7944114429116054 -3.6340294331166785 0.6491130795901572 0.818518597184424 -1.2835415898127127 0.2759061494633577 0.897284721378723 -1.39579538728512 1.0888361118981233 1.1222120796912511 0.007542526624077728 0.6605768542829284 0.13320541209939618 -0.5673321526124357 0.12361038679880199 0.2541823184257933 0.1982459728814192 0.5169135517247527 0.06021908578918056 0.36025348495451204 0.137098456673157 -0.5879041628820346 -0.6443065187641785 0.024926998616390333 -0.11770132075626516 0.21911643009124027 0.13977428992757207 -0.2548379604627151 -0.14305421672426724 -0.010400568873682126 -0.041957309549070565 -0.20926280259980118 -0.07951767278826771 0.21140937615794697 0.019978467989937645 0.023965738386044322 -0.22354604163770775 -0.20796032887441288 -0.482091065682228 0.26928132985030295 -0.28545198294805463 0.23279117867139573 0.18150354457112564 -0.10968119994354425 0.04008036873011994 -0.028958586309077883 -0.22784982310687807 -0.050757282715022195 0.32408330728741414 -0.040376624535297306 -0.05267064767164781 -0.028770862329202368 0.11873927568115189 -0.06385042762805884 0.24225586689578718 0.07511663903810548 0.16709268191004473 0.05273854012659707 -0.12576594275117386 0.23602061080856696 -0.054573678529452996 -0.17860656202207248 -0.12533316732628202 -0.4143207321501301 -0.0591145072076009 -0.3251454820540006 -0.17749055209803935 -0.16606401194175635 0.20828526504634037 0.02408034215920217 -0.13687467485256333 -0.13423321866541096 -0.20180375091962854 -0.18264816766203146 0.1442099334715487 
0.9832335835606029