0.10248419826009325 1.589230725818851 -6.531486818657493 1.8234661508312056 0.8617115055950961 -3.8297208107100342 0.6082954193300267 3.680230267882559 -3.2691202751065944 4.242565001786781 0.7662181892533368 -1.324563865060039 3.2089018656925896 4.607790339850271 1.0772807335784984 -1.925128870978944 -0.3406807292863423 1.67033734903921 -0.8525698617963129 -2.873510835558699 -1.5133299042922754 -3.0937773509723145 -1.1293987730521229 3.263913561868325 -1.4103968404863183 4.463625018376842 0.4795264885227115 -2.1275876908135594 0.087020433865795 -1.603404116238206 -2.2544843168630626 0.5657943746989558 0.9201512810276129 -0.3162101593842763 0.8064999471471224 2.6610202255841897 -2.625616620118816 2.196521819708309 0.41454334788220604 2.0269998495070842 -1.3095026922306972 -0.8331671784343645 -1.1605635233448326 0.3390075657943359 -0.4906288747433112 0.03695941397266722 0.45640267029191994 0.23166508568980793 -1.6889204433833598 0.720885225651414 -1.557420335584743 -0.07145567824230792 -0.8690618122560122 -0.9225810459121726 0.24204052920597618 1.002147510279932 1.8854658288446329 0.8585903254555189 -0.619919297549856 -0.1700190652185543 -0.23263412783344717 0.3361297409675976 -1.097667779225342 -0.7698694693044672 -0.3809309515069627 0.2710317043951136 -1.6039605516743891 -0.414404797112937 0.24621605471926977 -0.6154020439741169 0.06693320448909312 1.1481904723406187 0.7289530163679032 2.572732982028197 -1.4383819186943112 
-0.8700093741799115