-5.183989402079998 -0.5017082814728973 1.38291869915482 2.377225063035581 -1.0015526131609995 -4.017004517214238 -0.5125310548517961 -3.1697390770072964 -2.2816814270181327 -1.1482005926680265 -0.692167684347529 1.93575027728697 1.208228908641087 -0.29140183658212326 0.24592359594771152 0.1417150513576938 2.147756144495512 -0.3480332098399743 -0.0062466254078019645 -0.3223063107722246 1.2170268419859158 0.42420839750189554 -0.5868983237872648 -0.06090352135139514 0.4295254874720351 -0.3150291702551907 -1.9268644380721571 -0.4308069978060541 -0.031058308531634354 -0.504519230295189 0.46778081239639024 0.23809190196635616 -0.3916036036369577 1.4029792725185755 0.3070102130834117 0.21988064818702613 0.31620332319044736 -0.10285531647346513 0.8972625439111102 -0.19334988841740652 1.1158098288778349 -0.9903831522030172 0.7153125781264865 1.1406990104778403 1.0503794655857424 0.10659425317804394 -0.655752505650111 0.698843492884995 -0.006051905935298783 0.3794108663347915 0.4110929781517849 1.436106227870915 -0.641537429442109 -0.416203590312012 -0.16444803196063268 0.8768743706278082 0.2954309088714724 1.2419023963000906 -0.2787901343043402 -0.2237907022316279 0.013038420346536572 -0.46364676320553727 -0.5215243886010636 -0.8438183692429886 0.21224487810798318 0.7309458302646391 -0.6716614858628436 0.7573675640541842 0.4078501664019174 -0.03547056564049786 0.26119845715060763 0.6430017861581269 0.4660782709490411 0.36029947814254504 1.2535620446459166 
5.655329642043749