2.4086495378441497 -2.788882236727877 2.0621512877303263 1.7127900008492474 -2.61393220283192 -2.2975361084320554 0.14949539479535445 0.6173854303679251 -2.5098416624086584 -0.9319977876260618 -0.4754414116416673 0.02559696510584364 1.0449967170223906 -0.5565964631103594 0.34209930849939824 -0.07051196063173697 -0.026975718455646974 -0.11004391029319167 1.2909634694661594 0.3144854296612147 0.968077179674277 0.06364131533722739 -0.3341168400204266 -0.6615487856937216 0.5519077002806387 0.09769559314946333 0.2972771099197701 0.08686325855786395 -0.04672736260436926 0.1868756737925138 0.005837240722443501 0.09420062251245075 0.04279933006842439 0.2474343709162485 0.07307754192712966 0.3775044388162032 -0.020223244723131993 -0.07121731454484248 -0.11025402186979649 0.6188626242822449 0.09876445006301034 0.3117874545833794 -0.28256161373372035 -0.3934790695443536 0.06466578594967594 0.32907950332206326 -0.22591989725225772 -0.27602251889431156 -0.055082236651939176 -0.582770008486715 0.29740798991818135 -0.3301561255796622 0.18089844615188222 -0.21488318755827251 0.06124530605226569 -0.04228311113376644 0.4379418397965394 -0.07871677219626325 0.06582884354163332 -0.015582329531263598 -0.13466631275560675 -0.15408504401186104 0.3889280783994414 0.23082062777567136 -0.1664971971583504 -0.007727869342749272 -0.1722603910878795 0.182327894372407 -0.11384605840889069 0.162963289726425 0.049041942528172844 0.15244116539573416 0.09600769690721114 -0.1867400026447022 0.26830892180542915 
3.1115579171858356