4.49826732428787 0.343949899172852 -4.231650009495292 4.791746575694214 -1.6425071710653096 -4.832004002492174 3.5703866157339723 1.2849641104657983 -2.5107596312361142 2.154401336177985 -1.5222481772582674 2.631354759772674 -0.2376734209921577 1.3263033792345564 0.2836265475756041 -1.1399150184374849 1.3434769246379967 -0.9106779904620345 -0.5694196408871897 -0.0748599483795569 -0.21910840729976133 -0.7866294182291427 -0.7316105282011948 2.166519676416634 -1.2752801553084956 0.7302504579693087 0.10470260788747288 1.5010889626545332 0.6381848875347613 -1.014678183131454 -1.158248232029966 1.2136094072700607 1.1735895523853572 -0.8028501110123367 -1.0425104863237022 1.063989987725429 -1.4363456214774208 -0.4045646825370717 1.2639831989648376 -0.061216398997512744 -1.5052280526089314 0.1829989882906333 -0.31784226944990257 -1.1614559403905524 -0.15407007202716427 -0.11040040904391168 0.14835883310135717 -1.1582774937930507 0.06648868050007939 0.4549602081849128 -0.685156517210621 -1.0336174784808605 -0.11188817634444265 0.6412926111392474 -0.8259476517413102 1.05139926590031 -0.8139540360990732 0.09356141505376026 0.08415280951176095 -0.7693066360857814 -1.0467092383795722 -0.15148388045393943 -0.4532276754010367 -0.3472835726566483 0.27973647611353497 -0.0013644889351073775 0.44741961607824055 0.21066949412206426 -0.3941055383441404 -0.186038836040732 -0.07788609533937707 0.610145358452733 1.5901894923483277 0.3674566756971456 -0.4032248419762019 
-1.1466806318451017