-4.242136747042414 0.5909890927437367 -0.78789662403549 -4.603691546853034 4.528597641872089 0.9325356092465744 1.0556188254312278 1.3206649402812625 1.2736979310049117 0.7953589850549282 0.030171202291677468 -0.7595493189165621 -0.5441862740730516 -0.1642816255365734 0.5589450952686889 -0.18929818213404875 -1.9286564331500722 0.5811698725223997 0.28492873240391337 -0.2307782959801022 1.0502773968560801 0.42758725567987965 -1.0537246427425164 0.7466735977861305 -0.5345633524415077 0.5397152869790263 1.1080667363579213 0.3413119196711981 -0.02489163083413179 1.645512649854182 -0.0635455441321877 -0.09580774404925045 -0.19187128420780258 -0.10977598803230293 -0.5282418541234719 0.7504192699850198 -0.00818644199181745 0.16967836981517992 -0.8922550286669453 0.7389599644514333 -0.8226261728856755 0.8068887606294277 -1.1220344579547419 -0.8407436591673536 0.08592625424855432 0.5252527750473635 -0.3434622483618031 0.09253804817597922 -0.06852781723487766 -0.17318322299352104 0.5125541216708658 -0.22187640248158172 0.7924823682879203 -0.08496573801536926 0.30186186873267346 0.597225751829227 -0.12799460201054288 -0.8483568434273265 -0.6921137631150054 -0.48374381217762363 0.015629524689696056 0.13109052982896915 0.47274423738482174 0.9496907105704939 -0.03549344913668072 -0.5646313980198387 0.4517521639365185 -0.1179467008943538 -0.02898804797014004 -0.03196070933965674 0.4257493178556614 -0.12703420345766706 -0.6453434048346316 -0.2678431836550044 -1.030058412368973 
0.6417876598054524