1.5093846755201223 -3.735668575673273 3.3655129907950028 0.9480024994056351 -0.6953471835849432 -2.6641293579286316 3.1480900775498197 -0.8153314442532527 -1.9256288157577823 -0.41153431124445783 1.0496637968745979 1.8214374396248276 -0.4797341280582831 1.2282896366056966 -0.0037804343272310748 -0.09342645716581166 -0.2067349989100491 0.06420560688562205 -0.39138133249338525 -1.5370233661221657 1.57974343806832 0.9074759339596166 -0.6603721107585021 -0.3744734378393361 0.3897130252392692 1.1361475760273771 0.4214133101247851 -0.19296470942909055 -1.0478519637745785 -0.4019053438724849 0.33561944371259567 -0.14260780381303795 0.1610053798919141 -0.6842686420893975 0.4311210929255449 0.10150224250457646 0.04041402837983335 0.40031202883669936 0.4474211193630143 0.6645743984170408 -0.4763525656552557 -0.2111889167502496 0.3438006962295691 0.306728264481536 0.23512556159308068 -0.058927459022475204 -0.6993965605354251 0.17201619518127953 -0.17793533735754458 -0.8678237262242803 0.6053593534723684 -0.30797145035307305 -0.20314336898900637 -0.5506468069680422 0.43699944307710825 0.12159790438192075 -0.06571116521331577 0.2664218122476262 -0.2719787224338613 -0.4504518579845494 0.10781994065158643 -0.49809366550304474 0.23639491584233463 -0.4697270030954325 -0.03041324570747203 0.07385087452367284 -0.10435640077630998 -0.6160026157622267 -0.43928099532118164 -0.32285595790725446 0.2985623443240628 -0.2504847882077058 0.1185606660213423 0.24285680279180188 -0.1802374886678162 
4.803033854732463