-0.8720616625079387 2.8022945021837096 -1.3804556604902327 3.9138057029352376 0.08566906669053509 2.034715751646294 -3.913408897486386 0.8845836138154584 3.284343235439371 0.4961137799614379 -1.7246342021434002 -1.5975170076541585 -0.7716190258117873 1.660294084961166 1.5649085943027083 0.9492029930169941 -2.064778985559145 -0.770046598895537 0.8220573854351747 -1.428708400729641 -1.767966184729631 1.4313281418994495 -1.3763519743544703 -0.31844775033841866 1.4154127550941582 1.1819823636574178 -2.34338699084717 -0.9603549747399317 -0.030382647968593024 0.6326815972301908 0.22557567459457958 0.9105672461571916 -0.4595953848226203 -0.7322710480178185 -0.6982506923000436 0.6744967120752536 1.121276187644137 -2.050601643710766 0.454203202856423 -0.47866069034444036 -0.6406594727671165 0.2934970314098224 0.14947456224485456 -0.265418534075775 -0.49719162397102923 -0.3053941923939374 0.20432646207122068 -0.5976540936389234 0.02999839697812623 0.8871796562816645 -0.46856847547818237 0.1999731038565531 -0.36842135965254147 0.2116382165153685 0.0911665429470776 -0.34056412906581524 0.12268050175891754 0.48836258672913524 0.48322601386740865 -0.1711999523260575 0.31742447281076536 -0.002869550565790191 -0.10189852178595382 -0.679879295884246 -0.02055285620468182 -0.3036502212625862 -0.004482952442314558 0.5761749369981086 -0.5812209617711644 0.42848186539998123 -0.05706947911417193 -0.19537819735002443 0.3565934520125217 -0.3560801583912596 0.31194405811528425 
-4.2886335344940125