2.053415568676306 1.4737735120425657 1.0387859834731246 -6.275648417985013 2.46453110008707 -0.9685095331920194 -2.5264973917746842 -1.4724843819694677 1.3058129432192809 0.17110992538343692 1.1049379936049428 2.9381684081655086 1.0364457563131007 0.4778924391182194 -1.4865449526265964 -0.17995069002971578 -0.29547619356894206 -0.7337197609267966 0.035568657003207944 -0.44388230903864484 -0.563250564286556 -0.8659841570364218 0.2557887406781453 0.6292718890114392 -0.00147866241478576 -0.15561074505110534 0.4028058556945494 -0.6266776095674694 0.004728893627621307 0.68608407496504 -0.3554095826120017 -1.076500252853558 -0.46213306091112233 0.4356893848185945 -0.3808601779713753 -1.3147162853030505 0.12656858149740932 -0.6479268893455089 -0.28334894533333416 -1.0164749742807133 -1.135663014502106 1.0374386939073608 1.106947042026015 0.37658067004048457 0.47786006184786617 0.17180676031215236 1.2229047486597056 0.052785659124077386 -0.09075173097811001 0.3356284063490582 -0.7265003538959288 0.08885305472108822 -1.1476973916284083 -0.8693826693779493 0.39664767789719846 -0.1567810619686744 0.6194066961395365 -0.4360597054181827 0.08780758810187755 0.6797223279773232 -0.12898209870475283 0.5545436860116378 -0.02603064369918403 -0.07096075262871135 0.5906004987659745 0.513350237171287 0.24971617211617492 0.09881172337954623 -0.15736239584791326 0.6785920041638152 0.33045710005055 0.08313245382395038 0.16334895430011964 0.36627252571965263 0.15466290674277988 
-4.595913773501977