0.999163994200277 -5.951523689924855 2.5354852320623618 2.3095383583913276 0.2647712988230886 -0.05065638326751509 4.182274322367599 -0.19647039283262835 0.6158411387386513 -1.792508996557848 -2.0400668585899586 0.2883297465074661 1.5113340571834137 -0.49722970037898023 -0.3415773897192582 -2.515092033585789 0.6492684692126447 0.3273234866537137 -0.8180641103815463 -0.25646643275220715 1.8001752377308837 -0.19311620205459 0.2291601657080946 1.2945800565048025 -0.7269423335169483 -0.9943561967611891 0.3633177280901132 0.8137138068322286 -0.07228804991526006 -1.209511601184569 0.6188697978822952 -0.8615274439790799 1.2030242924359726 0.2734016308637224 0.49403061215601546 0.1919242489278663 -0.5404144024191352 1.366252931428122 -0.11430953861239163 0.7776498788696209 -0.02356226682650442 0.7441710915444453 -0.8114198233476191 0.7119088842704466 0.07758258406561769 -0.03256119633822019 -0.5328236366803907 0.1664698926119072 -0.5240469982915374 -0.883255909159145 -0.7427396936287396 -0.7446501749577179 -0.2587628402151463 -0.725227912356394 0.8276317592769146 -0.22360543839764324 -0.16675811972694077 -0.4986502039519741 -0.5001288002502795 -0.02727350972439388 -0.6535939142386012 0.44577322147669735 -0.5095346149801901 -0.022792902710938368 -0.4276876777063707 0.23878886152250356 0.5361538755211346 -0.12394222347958006 0.7519033219009161 0.13570783009574966 -0.4034142513745833 0.16819371902876812 -0.4479342954498856 0.19825252885442501 0.34452009848676335 
5.193643501480318