-3.5508549150220095 -5.181487270054671 2.7990624299091023 -0.1840585140669091 0.578603063543345 -1.0512779880135015 2.441759799352818 -2.898712379745186 -0.9447660483919309 0.4187995454196072 -0.43459875028175887 2.0386612417631578 -0.18192582413511404 -0.09191591918274888 0.9853963632789424 0.2265085850667347 1.44155632657112 0.1447752924554968 0.3813023141933104 1.8449881067904714 0.9307059640346713 -0.4405131150640237 -1.2223809842093558 -0.09560338845823577 0.6051643413643008 0.7244814580377502 -0.9420364705584547 0.18971540569814482 -0.019787882045835703 0.6377328714476713 -0.5827888625645843 -0.7753408743801611 0.6855936191092395 0.6953960421969543 -0.418232916418669 1.20988240437473 -0.6770822314827527 -0.2624218749027279 -0.7087407658056587 1.3075293277220092 -0.38993459349525234 0.5115426154304162 0.35206078294461024 0.2635408724353876 0.6931225839607266 0.4215788076083751 -0.7249133746065723 0.44859613152811967 0.5058046884271643 0.008487685713383486 0.06192398159477486 0.7185610671011617 0.19786684457585207 -0.38232900409307846 -0.11828582268974464 0.20662121612053935 0.6817649964110418 0.32075952819839987 -0.21742450362601243 -0.2819563388327796 -0.06923648167445717 -0.9288752529874842 -0.25599852373164345 -0.8347524933368162 -0.6442487395618148 -0.1690461618717536 -0.3274506400179762 0.11738288149729792 0.3794923251930701 -0.3790671131007234 0.006310263670388047 -0.074992426972768 -0.5852284398690336 0.404494818386262 0.46074029212563683 
7.820143419654021