2.848247135114212 -4.012585833090999 2.8774373666460202 3.3835598861972733 -4.514187366047124 -0.7153442084928169 -0.0037679618169654816 0.8709445066963287 -5.913726281120232 -0.20771585830540862 -1.8985974943733754 0.3975992835049884 4.608600909542101 -0.9620924441894981 0.7431197902938808 0.13561715020262616 -1.8984540714113112 -0.1465778620232968 1.3607709252899425 -0.12577333673683755 1.3039122972295931 -0.9018794933978107 0.31072184742831177 -1.6644846291333053 1.7480801894972278 0.904763436247752 0.21959927188677933 0.31543798316926974 0.5246479500362737 -0.3712160535539153 -0.04299202388231571 0.06674697998102586 0.13419595755098773 0.6344097118288525 -0.49101596229964123 1.0400010326118847 0.713051686098018 0.041019374757917504 0.3522277436401422 1.323670690807767 -0.9686423354317756 1.1921834598920984 -0.1665353975573064 -0.2253655144055493 0.1877382686773012 -0.14897481601890894 1.253995635544158 -0.6919898754913082 -0.2925048355269153 -0.9252768509452243 0.2234867065843605 -0.12627408424867415 -0.02266952557198168 -0.06264657289930572 0.16000708304823047 -0.05400626941617337 0.5287812618741126 -1.169382560617944 0.04965533743188965 -0.3458283480525618 -0.7231368252260599 -0.6086392107873552 0.2851084290609368 0.03757892585902631 -0.6293966093500771 0.24057539458959193 0.4098378033796646 -0.46473366647389625 -0.35932019475964666 -0.027778050363475287 -0.7407982011697769 -0.3498486231785234 0.4133816946294893 0.27775413187978293 0.8556920086575206 
4.472084068950764