-3.288605518789896 4.795950274140911 -0.8870394429253209 2.343548327565839 -1.6708170339475856 -0.2753249856125386 0.9324151877863751 -0.02714560331061877 0.5583091816074357 0.2732028591014325 0.9029422844912564 0.9671229404549011 -0.8262372313193849 -0.14150387335281703 -1.4915297658109505 0.7629211201152557 0.6497252941622988 0.7826319862313169 -0.3934389598676245 -0.7368002570072544 -0.6793671852239498 0.4112702880158003 -0.6979806841566423 -0.062106227341034576 -0.2995119086170278 0.1476947876642703 -0.9451258892178174 0.2521837794659674 0.9753814525277562 0.39303615842619355 0.17587477247629854 0.5073318347813256 -0.08406298849440669 0.2488081044286654 -0.11202309543711701 0.2748688614622391 0.505701030320724 0.4953349200254928 -0.5707470189311702 -0.09626152302175217 0.26173044512806787 -0.08340578393278122 -0.0550200814814128 -0.529073434115557 -0.2594523791351783 -0.2622351835766017 0.28228263627594796 0.1254050494164042 -0.3050394722472688 -0.5449206947869552 -0.1354463133589677 0.008946762566930444 -0.16263002640658386 -0.43503619211396194 0.025571962951947136 -0.07790111826020141 0.08382711386621555 -0.21503167645777707 -0.06501883530065114 -0.016463039562873927 -0.502598449520891 -0.311212382455146 0.018693686699021828 -0.033693564138209786 0.15080532386785778 -0.032811740094369185 0.06388705212619267 -0.04871405736549991 -0.2577802894965021 -0.049804633012030225 -0.2067432139374673 -0.18475205243309217 -0.28322943202703843 -0.09352092776353182 0.0597586872151164 
-0.4831343335590903