-1.6741517410130342 -5.712366313346944 0.9708912201906856 1.887014128625466 0.2592649216544096 -6.486605423494437 -3.4166263666178343 0.05267365030701021 -3.8539222049450603 1.4780747439123723 1.2992531360074624 0.31386606507867465 2.877937547154474 0.7939364002091576 2.77886051845928 1.9327178275110133 -0.9078162181804079 1.4562440885170589 0.30241427407727384 0.7407842941114551 -0.2394500377142883 -0.24709691051927218 -0.6054384879536063 -0.06681857046783372 1.5543029903291579 -0.987483697730578 2.0527438777909786 1.1434322916992432 0.25561064902624586 -0.5032158382017796 0.7731386312402821 1.494523283808359 0.8876119949526319 -0.5558409725171635 -0.013845047924190446 -0.01386481764686881 -0.14278816418335602 0.8547315104404438 0.03868031682734535 0.5275060905060975 0.45343267048683034 -1.0803154734554412 0.12053027443927167 -0.09505797383097031 -1.1488596670653028 1.7950832555092866 -1.818933483660604 -0.48244104161042606 0.166862378139716 -0.3291604369366076 0.2703605163933448 0.7717900134471002 0.6159881242741239 -0.827325897454668 -0.35058637621444555 1.2208041218650345 -0.18797317779764716 0.3955545604166343 0.8877098451515787 -0.8709291859682272 1.019945582312897 -1.3439738595441197 0.8456620665336037 -0.8352986337737413 0.5626701331970596 -0.4784046513382403 0.17305370385382907 -0.3754290866187855 0.3960959246707849 0.24005166660710103 0.5573045250963518 -1.2231873834888238 -0.8594186732789383 0.7232959508249636 -0.2077839511624614 
6.699165594476082