10.4589289733511 -3.3279806994023318 -0.04779346450693467 3.3439465574692466 -1.7464550943773975 1.9202159563164205 3.479591266785599 3.111772969481105 -3.4249577375220497 0.8658911543584233 3.1623007498162456 -0.20313566163460806 -0.20676233090911578 -0.842589482994146 2.0888596449890917 -0.1600235229812783 -1.0986624674081877 1.32583582519245 -1.0938699558626614 -3.367271712236066 0.4057082427836223 -0.9288859862106853 1.9089808645630786 -1.7642913613286981 1.0793567475933719 1.6878723384477992 1.051273230013865 -0.6991638288121785 0.27704141190453296 1.0657850375341638 0.2688604199000325 -0.14814928572934316 0.8935551075914228 -0.6589782951365297 -0.46238150780171006 -2.124843349928966 -0.9729676224009448 0.7420676175115717 -1.7785971794475108 0.8684199500999941 -1.121833463184236 -1.1897173208923428 -0.11574902355183703 -0.03316767938488008 -1.9526324348723891 0.5507589098033123 -0.02177541333267119 -1.1270712824411913 -0.6366831663823406 0.6740530799250548 -0.7093837459916859 -2.4775504204412067 -0.4229590116408791 -0.4833371576265161 -1.0294848809145911 0.05743837495829396 -0.2660948145677532 -0.7196585605292529 -0.005795281402550034 0.2774960699681494 -0.7449297846403498 -0.7484930284881651 0.20490840658895015 0.04368472056338002 -0.572340570889416 -0.8133935885273312 -0.19992519541988396 0.5175053319635858 -0.720007283595212 0.17238960785694274 -0.888227447249108 -0.6845003600360869 0.32961910083380686 0.5915224911902623 -0.6831686967215964 
-0.9370233691186189