0.8812500314944405 0.8842891032790643 6.287151642014457 -3.9946317140873475 -2.090013486939333 -0.5024787735712315 3.37153734304221 -1.3457287180021118 -1.9756911358423093 0.050865499275249304 -0.20301082329837283 -1.1651211880752501 1.4240046072363435 0.8933779816959267 1.621936102705149 1.2572659067095833 1.386132193945431 -0.3186488667629295 -0.5169973309747047 -0.551186521083944 -1.2526002127873723 0.1122500866440328 -0.7699890870844797 -1.0592262030966768 0.05951806785211389 0.12947967282996067 -0.7826323012992263 0.12137003312730031 -0.12022824680947419 0.9643248776712072 0.3466446461402815 0.1829737704764985 0.009685496370186453 -0.44961243677758156 -0.28571989880573134 0.0712461072124404 -0.618640489294088 0.9496381484730466 -0.5257279118455027 1.2769689931101076 -0.9039309066954107 -0.5514329914724714 -0.11558782007428192 0.24555271107798587 0.26919922052543177 0.1943543685439666 -0.6799453702722889 0.5902923533682007 -0.39937251905313764 -0.2791558583098202 0.23159643823583664 -0.702554170164734 -0.5036260941098428 -0.12478792208047255 0.18653833651762664 -0.20805085791316386 -0.3020984096612827 -0.23673067426020444 0.022834973327737346 -0.22172347586377691 0.006151243378371252 -0.36184740146802774 -0.4309172050996405 -0.14183156599813168 -0.1266213021905528 -0.035840254508835295 -0.12308258733833817 0.6337663561396399 0.04981253871232394 0.3272120983763447 -0.16237539557053943 -0.0702613152200125 0.016682874623523358 0.28928716754060313 -0.13553154791000355 
1.8263936026377348