0.9923262088165083 4.613673431853573 -0.39646111955870267 1.579091370887256 -2.260577007242748 -3.6764238745696023 -0.6403822745891605 -3.6428047201186793 -0.9799344493636002 2.053952339867209 0.3579495113394995 1.321498088987636 -2.6938754632138235 0.16834154158182804 -1.7433985391228686 1.133654955056413 1.082595827490532 -0.829488333781834 -1.2754603507483935 -2.871448609085459 1.5798105669535998 -0.3355522737512576 -0.0036213536252187213 0.04627714043293912 1.788705194221043 -0.5485359471160354 -2.30852468441402 -0.835453779916882 2.049148450348343 -0.02573509974853272 1.4882480493085066 2.6284413998660954 -1.1379286325709894 1.5671379746420593 1.1120518704369653 -0.3444096033563837 1.8633408789280546 -0.7382605677413508 0.49080559888175657 -2.110071958783865 2.598093902347163 -0.6381552014840073 2.138652068690838 0.5258200906827706 -0.4827995310578597 -1.120574831413743 -0.47340479188903306 -0.009227290995569598 -0.8259285479976749 -0.10028324471417271 -0.30757824537761397 1.5144600865125128 -1.3083442976572226 -0.8517328033529448 -0.4500803678340567 0.9553417757592382 0.2298031839348222 0.8132243030242093 -0.12906090265486084 -0.4073997726424946 -1.0013057407166808 -0.7848806403681432 -1.0825862756955853 -0.07090094934235341 0.7784854171183382 0.778398338761181 0.1585642999652837 0.5442888902856178 -0.14256499220378566 0.7166672624697858 -0.36298630010239863 0.13209108087568622 0.07735708357223767 -0.768078170636098 0.8379233566562343 
-3.1899737608511667