3.875314135435218 1.012106958506422 -7.558319127552425 5.746847934592697 -0.4676876508189203 -0.10596744847166484 2.6801201905530405 1.5626664987860837 1.00060619378975 3.134960196370802 -0.2565005152319335 -0.01961006387959152 2.915573967978969 3.34938911462526 -0.20143905661597739 -2.1903629587770417 0.2614958304336721 -0.3529014981457488 -1.849175628463572 1.8296852381958963 -2.251941900795533 -1.3703326558602829 0.6585356499469586 2.541117684907161 -1.1592352456900619 0.7055944501556328 -0.441855680313224 0.15807052671284372 0.2861902722313614 -2.208664045550112 -1.3720605052999202 -0.27905110094001634 0.016191594841735046 -0.04172235322340345 -0.08211399753547077 1.409368054631725 -1.5606762817792073 -1.9832972072042303 0.27085848108469945 -0.3533397044556912 -1.7105377904147128 -0.5124372522616674 -0.3102726359676957 -1.5284923250674007 -0.18311422527964716 -0.2447363829085063 -1.0049635598158353 -3.3949205261466133 0.29641824624776303 -0.19025389425709727 -0.29280398210470615 0.7360742079817149 -0.20334300791615423 0.6210129382066645 -0.8717699206939014 0.8789003198682834 -0.6120921048699213 0.1200607892368406 -0.40576406254673186 0.27875613965573953 -0.12522363036178796 -0.17431414110817034 0.028589679145076374 -0.3635677482344163 -1.1313116229917441 -0.11493433058083347 0.2665165334636077 0.29473774235515227 0.49420337648365065 -0.8660850416009633 0.4407217410767146 0.8588139555746092 1.0841661041598436 0.17985397428999894 0.3536740902070985 
-4.031741969095698