-4.145907334513132 2.276059570251524 4.186027940039489 2.39043282704165 -1.557468403712142 0.5504005132513311 2.9733763915778386 -1.6217163724317545 1.615803890578814 -2.182859545895103 -2.5179394259143657 -0.6397103178624218 0.1640695618889607 -0.3473982798249358 -0.9041635810347615 -0.06626913568516851 -1.1625806487895174 0.8579074816931289 -0.5211212075129479 -0.5475036325193421 1.4876357559832853 0.19879304590671276 0.7914540169237769 1.0286287749712342 -0.46037558391978417 -0.08245188393833025 -0.4084506100892262 0.1533637110632441 -0.22673331320117138 -0.6501075156296047 -0.6715446561948321 0.06777850000099161 1.6013244596910905 0.2142835571511118 0.5799106808711434 0.08154961280754774 -0.6253999621511791 0.49438276148792587 -0.31929127345995767 0.5901173377259945 0.0736763332927883 0.5731380156462086 -0.477576124544304 0.35461483122128923 -0.18179758906553747 -0.478077399405012 -0.5313403120453435 -0.4738807137221028 0.26110807510950174 0.4538897190420658 -0.3175620414785656 -0.7322924352933389 -0.3547693718260765 0.04438966184713938 0.06695603839612654 -0.04935832584986788 0.45261865719494077 -0.3640290989207271 0.2414350487469584 -0.3012036571635098 -0.20049021111270365 -0.2934252820852444 -0.19203006004983278 -0.025857491046694187 -0.05665559271206344 0.138760131704197 -0.34380562013121474 0.49992669347499474 -0.26697331606677954 0.14997584233230604 -0.09057513616774039 0.06654556884209287 -0.1577948902037703 -0.2355999626774157 0.10375230809012745 
2.455091591025427