0.43507954276910876 -2.4725723965399027 -2.7251101726605125 -0.14386007070942441 -1.1286788826957113 -1.2188178469047775 2.8455142945847407 0.07424091771752261 -1.7350546517702876 -0.18594236963617572 0.4710432246865565 1.1536854080110714 1.3307744964177162 0.09291138530984486 0.622809273450842 1.8146907507222596 -0.22070956827187682 0.08823402417699401 0.18737502121062125 -0.5800913621194694 1.467299857897698 0.06935513119755801 0.057179030189157425 -0.2409554841356182 0.2918986754432628 -0.7555051250143862 -0.4395094140435777 0.13348847839425082 -0.41763148525542354 0.30717009299410314 -0.2253909190558321 -0.10241309595384607 -0.2146233053704926 0.3124801202423753 -0.07725919005840157 0.4825665305536754 0.004683874832619228 0.25860786731314445 -0.08329588812237146 0.32917283610489156 0.34245923125248967 -0.028734498801291086 -0.32408322982802423 0.2666725912710567 -0.09492178490041589 0.14010794904637308 -0.10984384395995987 -0.09140174927080003 -0.014877259611982559 0.11172023759078192 0.35843425346999225 -0.049961704190199324 -0.05798723836128281 -0.18051293497589066 0.21351839550805105 -0.31625322945300444 -0.1448212396507883 -0.2861738042938079 -0.2250206690392488 -0.36978575208472103 0.26272992391251304 -0.07192022348784144 -0.003560362985873755 -0.140704116655684 -0.12858291974823688 -0.003610451115727137 0.11363434850904008 -0.17607775639891063 0.41367543119452355 -0.04915531620005221 0.06920670529966316 0.13479275561259124 -0.041480367644607274 0.2983099835906521 0.3213690404987085 
3.569327813234226