2.5712435316258713 -2.4670363635622445 3.3347475912048568 1.8709842814259825 -2.0472322111516643 0.20123366783663266 1.3978415073340411 -1.6872487381187342 1.9771716552032386 0.6440488170855005 -0.5162595265882148 -0.32763633754274935 0.16573737630280716 -1.1205997765465046 -0.38002616629122976 0.02770379435209341 -0.29586438353345 0.5417635182150582 0.32188369703979913 -0.3681412160285135 0.49957742412660044 -0.3086951557509361 -0.718221580579925 0.38352537343117177 -0.7344704136394837 -0.10340128130239501 -0.029445601199804633 -0.1729776751090374 -0.0518472555244201 -0.7132902852878837 0.16102207136551136 -0.14382342264350179 0.019241263113711105 0.02845917824555866 0.11685087701509958 -0.009239581234545935 -0.20099112144119552 -0.06952844798214597 0.09619580451250698 0.34592119260514576 -0.01399103833959231 0.24146151771791197 -0.3998973465107264 0.1268067793407407 0.20430660446491072 -0.3183959925344081 -0.02567166389072484 -0.16613799106187982 -0.16410947265408854 -0.12026209019014811 -0.6325021337054588 -0.27220624541551186 -0.268806491539146 -0.21483292326389056 0.4787139940809998 0.06401602925853533 -0.1287617249898942 -0.22383313291138432 -0.0034930605570408085 -0.027391193532876362 0.018124397508086976 0.23853808708924473 -0.221507986113334 -0.2710270797651539 -0.057696851642368645 -0.1211090099700037 0.16397831165943036 -0.34260678133151257 0.14291442332726545 0.0994834625255903 -0.10862496365605642 0.12205229295188957 -0.07860299739091872 -0.05476382426507409 0.0966600143239762 
0.4335628154252009