3.1243169086259215 1.1840455102727745 3.8871161956056426 0.6296554316568426 1.6038748576868684 3.0531982897220096 1.097873196345967 -0.05406022381708753 2.8243935664068243 -1.382684800191456 -1.5913613241833087 -0.7957047406686564 -0.23655016315176391 -1.7423163332766893 -1.6065454846254115 -2.1208032469383764 -1.5987545317813496 0.0048017246958800275 0.98162408356034 0.16651568921333335 -0.47491472966939785 -1.9899466200038194 -4.6813065066930726E-5 1.5093777894201121 -1.2267716660830608 0.9487108303788039 -1.4675146829468635 -0.30768058926242325 -1.2631154308484032 -1.1373171446891581 -0.7884540717979163 0.5556712253511737 0.038059690492780796 0.056794532652238994 0.34532926816377535 0.4174180499746637 0.6957823216818565 0.5255891320302071 0.853262702442167 -0.2714614171907619 0.5210509339908278 0.510141217059609 0.557317792479646 -0.3496509238017955 0.0861842216950246 -0.5028693703502751 -0.8350911737583318 -0.05030928102514498 -0.46852730010776084 0.01938967994853502 -0.6539530553572835 -0.6568783707909417 -0.2329616390063498 -1.0154477809282816 -0.1938455975933434 -0.10972801561668 -0.6419813066991303 -0.4243945787665194 0.4696360259866946 -0.18708640719636283 -0.19467273167648874 -0.07785216303347825 -0.41589549617964716 0.05552769772932942 -0.06218691039841344 0.38042444509653983 0.7998465002699696 0.23315842389192076 -0.12354381672199122 0.18022553056126703 -0.10433154636873282 -0.24303188643008622 0.03667935976573555 -0.7089326218891195 -0.0438168369681351 
-4.510413025488808