1.6159962982268974 -2.6998755060927184 0.9201555651807832 2.698052116972439 -2.711359648085648 0.48334682741262625 3.2404789107476075 0.65064514005797 -1.429887096036155 -1.3113919339991442 0.3070613457255224 -0.5912041415494783 -0.24385168344702512 -0.20380359056948288 0.8844545466955048 -0.24679915426977495 0.5911714703107747 0.2646723103925606 -0.021891354041145616 0.3725662180515227 0.34431474669765927 0.8192098408562227 -0.23255013273230885 -0.038321945068622576 0.14475738674458394 -1.0013876521714526 -0.4671805287523848 0.10106129929513302 0.20654906297075953 -0.40765131258937404 0.235769094818321 0.030634714451809437 0.15864734797059254 -0.06692667321882317 -0.18901211177538849 0.22825876565529934 0.20004064666384277 -0.15081273674178802 -0.3339653007471465 0.6369455056435955 0.3503295048743039 -0.16132594813154227 -0.6391209713072676 -0.4131897616342956 -0.07161475058331448 0.3059282787747333 -0.6316623795252728 -0.5655019522300717 0.18275664815129505 0.1395415127796982 0.47480299505477497 0.14643713771820993 0.170290856022758 0.17925729928025824 -0.3098298305753539 0.1967615170161273 -0.22163912622690968 0.17042245716605814 -0.04423404181661675 -0.08735669857413467 0.11668263922334321 -0.4157304949991939 -0.0413979337384531 -0.0017141941992621645 0.10666093701543791 -0.3308544992522502 -0.13951460542269195 -0.09586468148904764 0.10709424871816303 -0.4590412634374346 -0.04311894223343732 -0.4899730556747704 -0.1266718292957626 -0.2881959054131281 0.14367017431086918 
3.623992251884255