-2.633776259948892 2.1397744265998 -2.1748259539393366 3.660565512490183 0.945863727039459 -2.673540937203035 -0.46380239170959925 -1.5671066557577311 -1.0776916054087824 -0.745648789464008 2.582375092807734 -2.565854276918249 0.09226123828180666 -1.8088188535902021 0.16688274097695377 -0.9247477419716619 -0.9884509463624833 -0.6681221224464946 0.9204755535116358 -0.2913895682412337 -0.17366488649974876 -2.268396961185446 0.6619620683681757 1.5839458717062507 -0.17229692240518868 0.9931923970027836 -0.9638066166752082 1.4220063273204617 1.0763131204854053 0.6098919273089771 0.7440310658508114 1.5096202868024107 0.7804422816117804 -0.11025139094174907 -0.0012548535529933874 -1.8594816102800795 0.1775522027201627 -1.5263683986098062 0.4451596281710843 0.03820311343992033 -0.6607296313830662 -0.7795802808711181 0.017141578637651422 -0.24168092253898377 -0.32443201414769884 -0.15072374941187272 0.8097644751154625 0.8288331358691717 0.07835072131327259 0.556227263924726 1.3165459268793112 0.2536913392577642 0.21343946780524614 0.7662893928247975 0.15523120569270676 -0.20109090019745257 -0.2356138261306231 -0.010067336885211442 0.3213521041874756 -0.5064661745823684 0.5574579379111175 -0.12251458576529806 0.9784128808317168 -0.2651082069979671 0.47112317364630935 -0.17128745449361588 1.1582669108158359 -0.0012226261037557862 0.5221410044030668 0.32625655240251145 0.18590099582286634 -0.7264858008126505 -0.45489410535716335 0.5211360711743862 -0.07688536222044062 
-0.9501370806234934