3.8106003584987898 -0.1095057011681515 1.9715278406996608 0.0951476291825345 2.035299211807885 2.796402954988733 -1.973113130572593 -0.48100770309586577 1.755048047476678 -1.0583252121123794 1.0778460663663991 0.37589470204573205 -0.10630640539743519 -0.13125984525546683 -1.0924232544636139 -0.9058749584706398 -1.2106475504338379 -0.13608696701192197 0.09652520289617145 0.4968627982439822 -1.7420789743498106 -1.5160800925612423 -0.05762440869215657 0.43683650997116086 -0.1943070142485941 0.17084562176187165 -0.8955881868279756 -0.640851022909364 -0.57042038880233 -0.3525161479325859 -0.5238832549595792 0.47007668938770436 -0.5698298320297075 0.3916371666835028 0.5291708931716103 0.2606757702241591 -0.13509141249634682 0.12946483467443656 0.2653689988527859 -0.21425613003422284 0.19261766980774003 0.024874000727688774 0.7587978868337819 -0.5537314342724153 -0.25183191311943287 -0.15823278622658216 -0.2072031602404708 -0.1123755368989629 -0.05044494019911336 -0.26325161861223845 0.19632368884795293 -0.27006940892867887 0.6660447964614917 -0.7836462380083336 -0.6678844062753547 -0.17633967894515057 -0.7367221904413848 -0.4740277923318297 0.19563518862251145 -0.5085790826945983 -0.21239005442339814 -0.2951607737167258 -0.19191066716630695 0.4169620828918731 0.13308582250765216 0.1269895036439035 0.28650375945756695 0.36326354881220013 0.015676550635915665 0.3565713053604286 -0.05836563319836549 -0.20859120528033157 0.37043376179526466 -0.18039882995481302 -0.2907759185794668 
-4.463572975662802