2.814231262377681 -5.443369140557351 -5.94569629312394 -1.6730318381543006 0.7449945816006809 1.5886183119161223 -2.806891894102536 -3.477329290080565 -1.4772959512497903 0.6116088480969061 0.38323044802574424 -1.7407664788737798 0.17782535505889074 2.234274097368905 0.8508184058944742 0.2452848979588406 0.8793868927668296 1.9614563883020366 -0.40534240276166605 2.143082753471944 0.9270942559115536 0.35336685349359614 0.35611170192773506 0.7148489184893272 -1.4468053504234424 0.5203091569951216 -1.73230332662982 -0.23910883812704897 0.5341834656249085 -0.15419870898249044 0.43084966028620886 -0.07111956672484843 0.09792919212288384 -0.35214428272576404 0.4116900598852814 -0.10621816663504852 -0.14774827277594899 -0.4719461444851227 0.89696623726452 0.4617654190437253 -0.26540753977413023 1.0031745014696396 1.156864443055093 -0.6945809679135866 0.11829345627007043 0.371902916304775 -0.1149652820143705 1.1795866679747546 0.027323743492026153 -0.24060147511964125 0.0779045917312862 0.2679144102405006 -0.2559052601325379 -0.5847338874763971 0.5577073711776395 -0.36331616108669956 0.24007039817154063 0.8779095730848621 0.5854136577082143 -0.13096189278627446 0.6245389141656194 0.5197908030372929 0.3594866395246802 0.736040136294114 -0.2153723936341034 -0.22909912896558013 -0.1913399624850217 0.44886966904105136 0.31495107252730153 -0.35330772348614936 0.3816101537377329 0.05843760815094856 0.5633405156372887 0.2482469941978718 0.2716022204097349 
0.08677366992386937