-5.217468827143379 2.5053813869969837 4.245917752222034 0.015281443865554412 1.483004538598602 -2.245900757874982 2.0449046492880005 0.37470773694348325 1.5547186311524275 -1.4667366185195552 -1.3527142347752839 0.8193506849969361 0.7239152788923275 -1.4810023523074125 -0.8978982296640546 0.5212001867395835 -0.007670909500372414 -1.8036068446885831 0.47953445859403665 0.8303087947472005 -0.4811922066309883 -0.0031067261951146508 -0.47258083964390213 0.2339525616170308 0.7600188959612468 -0.21319968671828554 0.03262756017419907 0.38842498377442225 0.04292904384773764 0.21735655305363932 -0.07715795264121947 -0.3196348116340468 -0.2785265272847716 0.5166827511121701 0.0029637756071785037 0.24226201179524834 0.25737165928796363 -0.2521264244538615 -0.3396640690896483 -0.12002190960879233 0.31641359095180543 -0.1910435180149904 -0.32369432993648733 0.42937729685416914 0.3849685579209292 -0.21868958612511363 -0.24049915145233167 -0.3918574735091048 -0.06954802732306538 -0.25404836874903136 -0.00990378416242177 0.4889376854932545 -0.06556439845886053 -0.19831529156122535 -0.03711244139915889 0.14054633908704278 -0.0903546650024448 -0.2711972702295439 -0.10492075807247521 0.1063322525797583 -0.12645614978212866 -0.0026852457395483975 0.21655074185592849 -0.6421794091372568 0.06979051937368999 0.1950875635737507 -0.07110826048156237 -0.08899352729968527 0.2460405875947512 -0.4659585573976104 0.11484885726200206 -0.06651078631496965 -0.04663803250842388 0.3297485696599522 -0.3239689404433394 
1.9911374301984002