3.2003666925143257 -2.6880347958996293 2.2969038412179286 2.2404465696809908 -3.3404040155674686 -1.7908152132222546 1.931276961964657 0.2019879863995874 -1.6311664135087733 -1.3342570441031665 -0.6979504688576487 0.41680705047282357 0.3812988237073959 -0.5594060144352974 0.2930303663985421 -0.14032455857362902 0.4393748276733183 -0.06735033977381567 1.143335205770383 0.7606622443390477 0.9615533323186435 0.44662535124611796 -0.5147054713411843 -0.14259623278236094 0.39426214060554865 -0.448287119155548 -0.012505123145989356 0.03591274548663929 0.37637558982397473 0.18479302043925638 0.3229098231095852 -0.44775517844562923 -0.013996555946839809 -0.6037648953525521 -0.5024004562044642 -0.08647695382321652 0.017612231010950136 -0.46968900513290746 -0.19346014510151915 -0.07492956206841911 0.19806528902762482 0.5875370895505779 -0.08528193907698946 -0.31452723674959177 -0.22781424225923033 0.33135885105754204 -0.37045411271154965 -0.5263618484358823 0.4765105234337946 -0.472140563322245 0.5337983653262945 -0.28172173097471204 0.19020842858860487 -0.3260540646016054 -0.27807604940788794 -0.04451544985481784 -0.15335990008619999 -0.06521607504856174 0.06043036318823469 -0.14335145179413933 0.21389548630882876 -0.1535534978162398 0.4674523293273455 0.35028551270156 -0.027231321236470162 -0.07221077684049847 -0.18863267164555414 0.230931555425817 0.11808953468136503 -0.05017322480067956 0.13677963308220262 -0.04341789925649371 0.05940640345650901 -0.4980763509835972 0.08216180000923648 
2.924408174160641