-3.434881701431704 4.353593404725898 1.5126513230114416 -0.8740928873504867 -1.3436483148766205 0.7622308475091961 0.10824486469438988 0.7663897424110951 2.2327047575260712 0.10501604307033241 1.4642285186669675 -0.2555702202640304 0.5877293172657827 0.4033142237036917 1.9747386408429355 -0.9864687433525876 -0.5012284564884641 0.20524348891302774 0.2089974181660088 0.5600750136877843 -0.10672358794523684 -0.11637629496210089 -0.1851966221616283 -0.2607256085866996 -0.24943983113391427 -0.1556556224041844 0.4547983685513261 0.21837968664726665 -0.553252385762647 0.08369699896916803 -0.7502078011924312 -0.1046179709991968 -0.327117106883104 -0.39600004625749374 -0.20085432069219694 -0.24986701919779034 0.1358732932216571 -0.14878669127362604 0.19295255741250603 -0.31990518738624085 0.08834045199203734 0.01618618907079533 0.043374288649981496 -0.37662756924054297 -0.34320592689881474 -0.2727891136050984 0.2269957957771104 0.29020241505270855 -0.098997298010034 -0.29261958963996115 -0.26610195681834775 -0.21487273392292364 -0.15187069690566127 -0.13640626263267439 -0.12411682958412623 -0.3309469832706258 -0.249653304525187 -0.052350474150147985 -0.04209956370300601 -0.18454549842047802 -0.21292389255709485 -0.0833860350423218 -0.22865389049346585 -0.04778450303880488 -0.0459044790976295 -0.16762529536133067 0.1272718970858646 -0.21458222478221015 -0.23428188078975576 -0.087371450043611 -0.27465845782830095 -0.2328225728609332 -0.13347847241202054 -0.25800441056901724 -0.24393175981852516 
-0.996554614051085