-2.003205526038271 -3.9296316567017175 4.259272495943685 -4.090555313209188 0.11889067471159409 -3.7300250130565744 2.3701128922139554 -0.642029527540876 -1.4271084254944322 -3.251546289730711 2.5878142393925305 1.4666912512477548 -0.001647520207158415 0.07334002340647072 0.6599511412261522 -0.5684612212173638 1.9816447068666307 -0.020572718208063057 0.2588013105954654 0.37245132562181515 -0.493200115118263 -0.04822931342638381 -2.070989463402446 0.7595762147066956 0.7177529814161822 -1.3940469055906723 -1.0966196923909757 0.045116639912079676 0.04857556808274349 1.4538559583987727 -0.4696141980473878 -1.0536941935870412 -0.5607216301811332 1.6082205909823952 -0.2799926198704103 -0.9955263305663501 0.9242209241175049 -0.010021625853976812 0.20439262745559694 0.9902593672023212 -0.07346992008828485 0.4946810541482976 0.13586526026098 0.32821740329171045 1.2650557145166403 1.0240325134152113 -0.2984605203235297 0.21453224548086058 0.34308394692812344 0.4270482239781991 -0.20582209760990416 0.9374082115871021 -1.294448157232993 -0.8851146495868516 0.2105989840934862 0.6257504555900276 0.6507323038536739 0.5495305835484083 -0.13579226085413332 -0.01837166298256432 -0.16049563668714623 0.3377472993307224 0.1114898709868738 -0.2973793530547582 0.16174034532237588 0.6081666118629265 -0.18151977104619343 0.24364978527889203 0.3617715120909592 -0.3857809823510085 0.5126301036349793 0.8490454869136139 -0.034888027170189476 0.3310018772282429 0.4842616115842317 
6.5410548472967065