3.8051683518417128 -3.8733060920784568 -3.5534391041766904 1.029316730556494 1.4172304336220418 0.02810544717421372 -0.8628546714081322 2.5613596507397345 3.064532765518269 -2.158513038533303 -0.03079245531878349 -0.5365209413380472 0.4074105031916999 0.679662612620123 2.139223397868492 -0.8573705742533452 -0.17479436957613018 -1.0765453549245898 0.2631630516825673 -1.0666501154640309 -0.8398841411598503 0.778530583536611 -1.4371565954170529 0.22562202004471002 0.6425428584587599 -1.1812346801835452 -1.1785336295338762 -0.7749619399593528 1.2213964897558067 0.9658698159892253 -0.475685242364734 -0.11771639716207025 -0.47034835479808185 -0.2705538529624801 0.17773867665936416 -1.0604972656531124 0.12495067229920001 0.3649218664928229 0.4106402549397948 0.2702044343986198 -0.018584699822706333 1.3789437796792166 1.1663525214293609 -0.5456491183283675 0.6667912217768512 0.029082203176154748 0.505227257437491 -0.3153516079302704 -0.3425837051584404 0.4588668472053021 -0.12551645720397425 -0.4471142193223826 -0.8799061700433157 -0.6786261330763496 0.13400556606719385 0.046671025381388766 0.6207333986879291 0.46032087334503774 -0.18628600724422453 -0.2526341505987636 0.4345577195690537 -0.11438910766721036 -0.49070560541861186 -0.46886025283492727 0.06892526526526131 0.11276883682999077 0.30365545125163257 0.011675193704507932 -0.3935604182888763 0.4518410371909778 0.31627470417111414 -0.34034519840914074 -0.010625086353889193 0.31781936963067314 -0.4540061352223111 
-1.5568721415187496