-1.920665386849528 2.82698699046248 -5.09493952651295 1.8170572647993926 1.7441796320502703 -0.0023737909452679062 0.5520220054282081 -2.020157662542763 1.1521495295165214 -0.5020675913463113 1.2740783487046174 -1.9577215333602567 0.1843228275148142 -0.6736473009477382 -0.32615192015824346 -0.4455846433198768 -0.8182291352172761 -1.207033350813647 0.07529982190985257 0.939288144546395 -0.6492191482099803 -1.2089359092098717 0.0052059691393127605 0.5181497139747531 -0.4044705641252254 0.13742900835079258 -0.471545319929334 0.17157877268372534 0.5668650894658356 0.3630983438433133 0.5172988655033219 0.272178501373635 -0.5572425644346618 0.2534328466288993 0.033161926713921805 -0.6841584030457891 0.0864230948705351 -0.6707507591133691 0.592101488119088 -0.40509386593996766 -0.41015235331129535 0.4421622483480588 0.28895258031705945 0.15217684538043294 -0.2843826588499026 -0.446856854876133 0.6110938541191575 0.46475148932722904 0.07677399818125288 -0.2706057508734479 -0.2184440941801552 0.2992269711658182 0.39146598581548403 0.38787248047533673 0.0036650674844111997 -0.25264011258371977 -0.003576108087215646 0.432825794596667 0.7965700269170345 0.08349931244482028 0.7543401437239317 0.34020210048065486 0.42031135745339576 0.40384752926751133 0.16348703927196054 0.09760636272976442 0.7107079209246426 0.13726832252785984 0.45018387033775104 0.10434810099031967 -0.007812020561667743 -0.1515925344225673 0.05725128567480252 -0.013407531689784147 -0.07344047809710252 
-3.3364866075633763