3.1526299271130185 -3.3963899355530174 4.576679147946058 -3.175823516111829 0.48986380085312664 -2.138346243047961 2.9046359505792116 1.2580085876189973 -2.0277320667323986 0.5986529941501919 2.741802776937087 1.915362091262994 -1.1879304589527122 0.1486774196647072 1.3220354704507706 -2.067406152529593 0.7485460077938471 -0.3501029572894089 0.2501695517091509 1.211899106998965 0.008910987390040592 -0.05059905249322294 -0.2565778535631906 -0.22747268349450364 1.0439200537973985 -1.6890674006231998 -0.6670897170206506 -0.18663893078774946 1.0575561976064853 0.5575189499129819 0.8004136486805007 -1.3849578311766557 -1.7422830070232411 1.1239186870738191 -0.3443981471864463 -0.6624172560583621 0.35793553033752 0.6413903134643496 -0.881584050090496 -0.5685785919531923 -0.36374525318237744 0.30732015089270787 -0.22234105718920982 -1.0231451892878933 1.0099358996975638 0.4520202849379935 -0.4205094674925162 -0.7865405007369868 -0.08781337348114088 0.5000505155576311 0.07623439628917272 -1.1352971845451123 -1.040901933551393 -0.6257475639700374 0.46389165821955086 0.040647887806883276 0.2742154739632479 0.18642137705462725 -0.4685781927958756 0.10553572366609959 0.00978190570176446 -0.12507224374285758 -0.29725216965830403 -0.8189993415191299 0.018750252097752662 0.16404381941740664 -0.2476722205709829 -0.3584520483460664 -0.17880680003132704 0.04934445212577304 0.0769376009664623 0.06883571082644513 0.12873556897381938 0.3807045565236534 -0.01766404427076229 
2.8808377518792843