3.035706840862666 -8.354644799199548 -6.078758987684827 -3.7349858094116772 -1.3609070346904844 -1.4599714567448707 -3.033687097099669 -1.2265545738267596 -2.723931430715048 2.417689156177488 -1.3133245434071759 4.3689235727679545 2.4905729358063615 -0.9425585582691927 0.3502702785837757 -0.8335197448267353 -1.5362433620190261 -0.18044145570639714 1.1300635088015492 3.924550068589831 1.5375929468647414 2.974954341335825 -1.5128734147962215 -0.9905116557490158 0.18275071230110917 -1.8972435493070952 1.9163285268503865 -0.8480043091737355 0.745659207132018 -2.489231912365491 -0.322341577612268 2.037229146489641 0.8685729378666709 -0.3533824773168499 -0.1880678273142045 2.079781173860513 0.5128469073554278 -0.5701325239073083 1.2815918159443367 -0.3889578219435661 1.2161225657317805 1.6054841208017474 0.3444684502268922 -1.4677134131100684 0.13186933281780489 -0.1186533950164792 -1.445139896671162 1.437323489865093 0.18014468423782481 0.4330946146720489 -0.44350518699222574 2.662380964597743 0.596745032390779 0.7482959790631405 1.961158492117369 -0.22730635735156945 -0.4089802297727425 0.6232120540727268 -0.35980272815656017 -0.7478278382081105 0.8038592295516389 0.38354140612161447 0.788142016198103 -0.40295614889706965 1.2510434000107802 1.2960308779319019 -0.04208196179033097 -1.4546564631604721 1.0511778467776867 1.113002335753917 0.020454025455090896 -0.22384352287058595 -0.9117364156993336 -0.19390485730220597 0.2857493421001136 
3.757834157610655