5.5681020390100855 5.1735669606732415 -3.9228505959279425 5.292125239127032 -2.4926877826517444 -0.20282550491843487 -2.8177110507270093 2.853406967906931 -0.7768491365250281 -2.6066878383752727 -2.1256236233870633 -0.5617090964854512 1.391746513295143 -5.074027906978191 -1.0070815607851498 1.4207962486911336 1.2348761727823563 -0.21645416888402746 -6.656878300354463 3.4669596613653284 -0.5040777971180326 2.25403276018625 0.46975103727473266 0.3864611879091986 -0.3735321887086305 3.1928477512308864 1.5101415164137268 4.327258828281547 -0.6141200300319664 1.3638942657423216 -0.5610528081473101 0.4184441037648796 -2.1360018785783237 -0.12490060231284517 -3.244102174867149 -0.384597566944751 2.07750585924675 -2.0940311898664192 0.972591812229205 1.408286952331136 -1.3567573057091586 0.5281726266669156 1.065532789450685 0.6625677625508481 1.6284883592048078 -0.9246685700232073 0.29327422751672694 -0.4155438864833225 -2.623923479215046 -1.6546620295470347 -1.2217421582014472 -1.4540539365184406 0.6085692823290108 -1.0728562343586179 -0.5431272356301291 0.9348980407570431 -1.6103114273984471 -1.987105548205024 1.3766496738500877 -2.2393851456330385 -0.486457430557388 1.4093243061020613 1.010573157508107 0.5644357543731319 -0.39347211931247217 0.053524934010074965 -0.3485264594189983 0.3304395512069105 -2.8434155158928953 0.39190648987478405 -0.6393321923879232 0.8975529182724948 3.2959966277154473 0.3498415295986259 0.12859956861812583 
-7.400338295366916