6.649318296247795 1.124614054900603 -2.1736993909848215 2.0485822119861234 -2.874760366126452 4.536945788091241 0.04293708530868923 1.8614337921600999 -1.5811844096189014 -0.8478027537988798 -0.034658874882332075 -0.9778919336462182 0.6317381385201765 -0.49329747477841146 -0.7107791252971883 0.2845790715518494 -0.9258939787711685 0.004229954818697423 -2.868843591770938 0.2841853539483251 0.5085343868912318 0.37364250297929136 1.6742958311740104 0.13973072581220133 0.31231018697750856 1.0611402604752473 1.3619520921558634 -0.3754058976498345 -0.2915067813373593 0.19286304601932838 0.21272466914489419 0.4610266184010877 -0.44032327511287894 -0.5138959015952738 -0.49190306204420453 -1.1398557757005467 0.4261541622148698 -0.9278837100818823 -1.037644174245025 0.40634375963735475 -0.2443589061332606 0.22360866760300555 0.039606617214574646 -0.5742222937103632 -0.5859261713379423 -0.33335312105725295 0.28746298115495256 -0.2700767445592595 -0.5365511212787726 -0.5105645376403335 -0.4829534561586514 -0.7358219856581313 0.1648691359692129 -0.0676219227278023 -0.12992908746934 0.11702431660162993 -0.47804744221916406 -0.5300305652155961 0.4749887090431234 -0.15599713583882252 -0.02860875138179571 0.09917665130189306 -0.06814788755785209 0.009695806205124217 -0.022606250475300363 -0.3656751403374623 -0.034238504426989905 -0.4854615122449679 -0.4394909719692719 0.46783024542048435 -0.44855458278747223 -0.2800382348253453 0.3311961014646019 0.04815175958425248 -0.3473861765258187 
-4.317240870261906