-0.9290628936290668 1.1946489248907906 -3.576872388202168 3.900083688778971 -0.10782986923100335 -2.2218666797662943 0.5273347039595643 -2.4852385410676217 -1.5310093484679994 -0.700072644124711 1.0508956249897137 -0.40019959232788327 0.7299508291078027 -0.9558909918286768 0.13666406108248658 -0.8839153981408809 -0.36137971846927175 -0.5112608962589593 -0.008493967221941207 -0.2741513957421249 1.064406789035064 -0.5220343051591673 0.3870704179977989 -0.4189214863145281 -0.09435651871062911 0.12090736564474844 -0.9181544174210567 -0.3896307845531058 0.33822578222386945 0.24495395082336024 0.7840957150150615 0.8481518757491227 -0.3304283155086469 0.7515374681364028 0.16622865924631108 -0.48494908958763866 -0.10216151022660692 -0.6058110229383007 0.5655842513133461 -0.5975369101487571 0.18955765054433876 -0.5506132087800808 0.5134932477676657 0.42847782235924475 -0.1018541388706253 -0.13178267494039006 0.074853409338417 0.5060368669632009 0.35355825892805165 0.44204276147413746 0.49161733736402036 0.8144599501433815 -0.08939654173096159 0.22775676645684934 -0.17691118183972185 0.35616443715811863 0.05301220599461995 0.9444788259146314 0.18315358603612322 -0.1360606938028069 0.24550034612989133 0.02596502674254772 0.07391039844396016 -0.22868651009485733 0.18798891585567656 0.31093416877640123 0.41557867288776756 0.21014963014095012 0.2726371813596157 0.42323500397809916 -0.10535312300371245 0.21861467420844088 0.09251291652943626 -0.06848099010137285 0.13393757872157402 
-0.0682845277722886