2.199196761377916 -3.7691920522049918 3.065614817375954 2.142128553058397 -2.632228996800145 -3.381743060371433 1.8828476307344097 -0.07787650187782053 -3.0815170366550086 -1.5765734292806373 -0.23535943006434176 0.1243969127146285 0.35727900864235174 -0.5528043287195981 1.3084578563216311 -0.5929965854629037 0.022208497920453873 0.4518849508578847 1.0636711140349964 0.252058972738162 1.0064229253990975 -0.0401713187568806 -0.9024688419124981 -0.6489338221522801 1.0965126455636367 0.595981608814695 0.025334028857588682 -0.020013670419205473 0.34496952239791967 0.8134327837371036 0.22823252370809682 -0.48511743313565403 0.1559895072815424 -0.23018129491235653 -0.39951547639648033 0.07417202836429113 0.018707212191726247 0.5431596781926473 -0.13329839479375316 0.9324457958292232 -0.0061265851437401625 0.2188155115428138 0.02048345128858603 0.320456598222978 0.09586989074174324 0.4783838785011856 -0.3556692685488432 -0.35172166767394564 -0.0425446151967156 -0.8463380463121756 0.18251371369958672 -0.42902246448346126 -0.1848607028220055 -0.5330963149508616 0.11383969476566559 -0.01155384259848112 0.14079153376139086 0.02718220157925097 -0.1658527164615707 -0.18380271892368052 0.21404632716228092 -0.1719209832142533 0.5184845612101157 0.26211662742205627 -0.021177514482742157 0.17603782892575123 -0.5325420907647549 0.5530709393244175 0.2812264165460154 0.21856624036693237 0.009240420737285482 0.21150581611140234 0.04309036656741618 -0.008764942103900414 -0.1858412069941015 
5.140778707945987