-2.743991310568047 1.3538552822017333 -5.466600625885514 -2.642731607086974 2.701236454906905 -0.31891152924222643 -2.5115864213427677 0.4362343950461568 0.15567777460399723 1.3966091712306503 1.0825391466280843 0.722027077702339 0.6802385275022935 0.0759839177839422 1.0003843727131065 0.4016802062155174 0.3878758835001229 -0.22897120676331434 0.10959108930109351 -0.5374024908879017 0.5434100501707246 -0.018502766390554592 -0.24930541581057986 0.054916718694424965 0.8295950894077319 0.25517202118771526 0.6469389988844862 -0.8255176224620642 0.032340881915198405 1.7189956763452494 -0.07892953963348198 0.27129603576906436 -0.43405752389536445 0.35577794321178646 -0.4415105742724127 -0.284338801209178 0.08734672619558526 -0.08021014858677222 -0.9916168117527265 -0.14196605458615297 -0.07552201121256522 -0.6105083293299374 0.03933831348228145 -0.632689203068064 0.14466040078328252 0.2383601801875892 -0.2901928114456867 0.4170082408742104 -0.3923061967667535 0.1226452035815257 1.2714465005808506 0.2113281204086106 0.6072475577793186 0.23915006543886136 -0.26673588600783205 0.7057881175502996 0.10963595789001424 0.17708175688287164 0.17073967675094076 0.030055938180030016 0.11468375205332106 -0.2014526384550524 0.22539966632500485 0.2627137154478004 0.5090708190565849 -0.2996820957491322 -0.27961865369839545 0.21874395889979145 0.014568766197566863 -0.11743150417686754 0.46027954356420403 -0.19275707316622212 0.0759713889438739 0.15530740047896396 -0.46590162900317406 
-1.0626630173750986