-1.0034289656432354 -4.389337217001797 -0.3808633238095612 -4.7462903393320035 0.4519782690609597 -2.0424699817103207 -5.867570276996844 -3.600021592515407 0.6806103439175983 0.7915845309529556 3.2145640376111904 -1.0403382912607062 1.3704836156697873 -3.0602965319793602 0.9316056977483569 3.3001545329751973 -0.5493259292573774 -0.6513073078279565 0.3206621452795992 2.052396258204457 1.5201181308025697 1.6600014458964205 0.3099495154248596 -3.587317715284026 3.7077539434530484 -0.014132210526759682 1.7249743205752999 -0.2914016206787857 -1.1115754718770627 -0.4787015689371097 0.6194434891921738 1.0628306027294316 -1.5296666332498627 -0.3989891324889559 0.6977086677130682 -0.8820834896112884 1.3712503455981242 1.9428008453461365 -2.2527367565865686 -0.5230003611903165 1.5753866705698885 1.749565420593831 1.7436081216291546 0.5773321770106354 0.19022446950305277 -0.13258357945679888 -0.18595258759798658 2.4349459049979543 0.4694723626584805 0.7771278200210622 -0.8437465107065042 2.5005712414269725 0.6200821132514579 -1.8252698692312113 0.2613721474705878 0.7079890907323653 0.7060651101154146 -0.13234190463454137 0.6228716657566042 1.169380497412969 -0.22339463534147877 -0.5973373425493784 1.1634763551357155 0.21152048824274272 1.7875086870388244 -0.697862846854485 -0.8097938844783378 0.18581100157000802 -0.5581631939458703 0.6946375616656639 -1.2255076057376666 -0.9470384826660413 -1.5752631496042742 -0.06273602145740537 0.33802668707256883 
2.374085140384443