3.688044384071778 -4.709361655126363 -0.7126352781504012 -1.2760412899044948 0.7463870535168784 -1.0748227255126779 1.498791005837176 0.685846659578448 -0.32074921339942747 -1.4440892040527231 1.1085543299490792 0.48143569336229075 1.3132378707762054 -0.03120890437401236 0.2711771889599149 -1.3894122005773144 1.0096800610751109 0.02603792636594985 -0.15208254180628056 0.19631320902932423 0.44637303331756717 -0.2032738717986666 -0.33658164740453556 0.2588569817291267 0.36272177192435656 -0.9248380149889679 0.24335375937961562 0.16510960862940527 0.3898830311626746 0.3701725034433096 0.017288833107319882 -0.9794529475852032 -0.2266201451303188 0.5108685111730649 0.3604294896352301 -0.43503666238276856 0.28441894493701986 0.5987585851785083 -0.6211039111948999 0.1659392863010936 -0.12735726211747064 0.17828424282600458 0.21239552988824043 0.038282555010193293 0.32172724062915026 0.1553394853826947 0.18134150683844755 0.052795993642767075 -0.1495271671979168 -0.34950674314666896 -0.012563405455308506 0.015028017768385192 -0.5274144284185693 -0.15135962388407911 -0.07462133213282454 0.003789864163332178 0.1957339594486126 0.3060163543653065 -0.2967537083644693 -0.2088648424480666 -0.29644840811162354 -0.030471103416822617 -0.19716876295241026 0.0014516045574942491 0.12087952572356833 0.07303156417110515 0.12564667357405215 -0.04363412373231266 0.06580178079247548 -0.07513208132394643 0.21695753990356748 -0.16727940197770952 -0.08497445446128205 0.3018048568689001 -0.13560095546423268 
1.6754208796601235