4.690157119683601 -2.7355356692506128 -3.419962875369298 0.21597723420764758 1.796521435713279 -5.086667308675015 0.9425528966506409 -1.310711096365956 -0.2932809461186183 1.8513398404740329 -0.3665461021876034 -0.11339661427856829 0.6376841100789195 -0.4088016401046243 1.449924895368304 0.6877923004886846 -1.4329653448016217 -0.29060874848730767 -0.9327734148462132 -0.4068343847737584 -0.07166707178590226 0.5695735837228897 0.8215593245211087 0.8963051423227836 -0.5761547177642729 -1.042820022957007 -0.7360103730718476 0.3562397736685655 -0.5732535751391825 1.0706279774276624 -1.4527490467933692 0.02916164101526031 -0.7469951993678692 0.36057944501307326 -0.25686944926148936 0.6373717174029456 0.420124950589134 0.4254823186778093 -0.10859390135718958 -0.4996409749550397 0.546980088591542 0.4766133540987337 -0.15195797665423993 0.34450356649277314 0.5187983535253214 -0.43674511107527136 0.8549805343495837 0.3471612715142722 0.21211655201678487 -0.01951372523648065 0.12991363539848766 -0.4360250674377092 0.7822224545327376 0.3821625116335927 -0.33729263390371506 -0.34105940129362244 0.34636367755775344 -0.1705560237119157 0.17745102213740047 0.16336072773556504 0.1188668264771432 0.050792991176363045 0.18678122091613258 0.012555840714388533 0.2730535286613591 -0.18253407062006444 0.22944352116228245 0.043112701658951924 -0.21340303188203458 0.16021620582111368 0.16054964591673532 0.06913660201969651 -0.026723550925816644 0.08136491391975387 0.6511716153984075 
-1.5763216786534888