-5.25477781169115 1.4958773363499653 -1.0665555136696783 -0.338727362436079 -2.289500989809338 -0.5221703294804172 -1.2165318074908327 -0.11820574391249031 -2.2130134894192217 -0.7317867056369839 -1.2861005400837004 0.042409559392113216 0.5012544998184228 -0.593321008480725 1.6785824734473986 1.294028899847161 0.5957581623261143 0.44722170415974394 -0.1108872345635275 0.6147640640374757 0.4376832114242375 0.3898982831932567 0.06448778136659315 -0.20909229457527034 0.23688550018016757 -1.5267826239063225 1.0634408982118704 0.9330797211089511 2.00941514579931 0.6425285027176579 0.7153461454163791 -0.10977145816128395 0.5842513510990042 0.03090657526728234 0.21685667012260507 -0.19731648195707494 -0.5161331310137837 0.07388024971099057 -1.0990679678067115 0.33422545171082113 -0.30360458505627647 0.5348056074375778 -0.6009286134105021 0.6278301512123904 -0.27808141030815126 -0.2883112250869827 0.7844685686149303 0.1730000379992117 0.22220113664070734 1.0247185790333804 -0.2630770326605618 0.2637276662049218 -0.28926970352011705 0.6866050085394829 0.33352842794011334 0.056984606285736254 0.4539036491736251 0.1870119064065932 -0.22782778407933107 0.6169954366291596 0.3211369426905686 0.261015793446589 -0.009343706972321501 -0.09134791406233835 0.15762058378116153 -0.5619033684021773 0.04928796238625924 0.186213832795471 -0.297729507628425 0.3922099791941854 0.08755639243649206 0.5943280342717023 -0.22598419932170963 0.1205164494762649 0.29870260529946047 
3.403502660678705