-2.2994310945431033 3.80940542723172 -1.3425181350547901 3.0724739316384713 1.2961842422944931 -0.9716361430954521 2.5077914727874173 -0.6625217886286985 1.4692460138754009 -0.8069584853925866 0.07264944990635838 -0.8631987026184986 0.32548635526591685 -2.0865009360850095 -0.6332400998761337 -0.7979556389774611 -1.2363772119159337 -1.4420180909493103 0.3846635509203653 0.4610109137465846 -0.2043186595483797 -1.0401849863658534 0.3822319766016338 -0.05863604333534653 0.5307349548199162 0.29039961371708944 0.061147775076182964 0.20494394312522768 0.4359986089033552 0.8858175133858447 0.2094309521030817 0.2392870774034141 -0.4106007741835954 0.3261669410851986 0.02587063043791059 -0.7495162385687419 -0.09215144040818546 -0.6732874411235357 -0.11089111290761444 -0.421409123900641 -0.46604613557094154 -0.2048571896937329 -0.12913502935881527 0.13777386047011503 -0.6920701754822025 -0.6377479481799162 0.26763097855107765 -0.20615339496719787 0.14524685382108216 0.26941159071596504 0.24991302613154015 0.4284877598094984 0.11687088465334855 0.271927355827537 0.059571479865421814 -0.36346817193032877 -0.297634979706185 0.007894409603855318 0.1864715617357407 0.19782382986269476 0.3392122794563777 0.4316064019924687 0.380403636966931 -0.36363214588136683 0.045273491502717464 0.24454923827905817 0.8195349129875322 -0.10732033170670463 0.11263537748520602 -0.16387842247121392 -0.4571910394123069 -0.2368588998150661 0.05019876076849627 0.2524466501334617 -0.776479673290862 
-2.1557414711287004