-3.955212829480108 2.171633666900539 -3.1204543611269164 -1.941247675478145 1.4057769824605897 1.8065496455309233 -1.452246019611947 0.46153339596782766 0.5512932099212793 0.07913858379975625 -0.858209438000409 0.1309126844814047 0.6216288577088316 -1.6391302332232773 0.6854722936455495 -0.03425425718437092 0.3530668413956072 0.4948195775852072 0.4446687502330797 0.44661827793214204 0.1261016774396897 -0.5932588707270958 0.08345878177552807 0.7873897580167019 0.4197319661498823 -1.0396925465532323 0.18213654329925227 -0.31176044993374974 0.7508847150449193 0.8334895001410807 0.23606656172636986 0.44625153574702414 0.36074600973500137 0.7631790961724458 -0.5718837230317224 -0.41901350744539323 0.07595750773030002 0.416523514445476 -0.37061467877929793 0.29157254340987393 -0.09952274539813515 -0.275086950915681 -0.5359966647440586 -0.42493876749427484 0.13040136646137734 -0.19909866399586063 0.036816351341459885 0.39167737030460315 -0.4405902052105529 0.9085478463508777 -0.23911461723167265 0.2812375432851305 0.5796934401261927 -0.026803980790235896 -0.2840122127924381 -0.09108888654356889 0.4324741600696392 -0.31921014834170597 0.14262320724932953 0.07526242190808838 0.11825668440344998 0.12089160890961931 -0.287959915816309 -0.029641640656984602 0.24294216688268622 -0.4512254752899848 0.17407209673614882 0.5811125219609575 0.43523917801545015 0.15673287974462596 -0.07706370829116965 0.299179804320601 -0.06944828982562623 -0.22940161114457897 -0.14658005140801025 
-0.6572378674347217