-1.7442241006858392 1.4264777353279827 0.18144069440489996 4.506016471106127 -3.2429769488404494 0.29998706686716714 2.1753953920535785 0.40069941324546865 -0.8315205963779269 -1.165925495711755 0.32209922185742224 2.3070485887396837 0.4034536883087465 -0.7436627776867685 -0.8371799421180849 0.2750541246368082 1.2123731482929148 0.980461599781129 0.09127357633478195 -0.2181718887477026 0.06451980782174638 1.0107040511216108 -0.7721950507702623 -0.06947813675070905 -0.7936289208921303 -0.5322842037268475 -0.5136005620102164 0.4359081738273111 0.22674893743809943 0.14949665663261574 0.03155718076472963 -0.211050668106185 -0.10510949539072406 -0.11203619228088824 -0.8844871518159313 0.13039520973273055 -0.035311959610247655 0.09123926381711067 -0.4915974689058198 -0.1652805482031361 -0.20730582712976503 -0.06227701557694551 -0.3188860719437955 -0.3643840356348588 -0.1179961955099299 0.03641177856583333 -0.1261036616925812 -0.06142628708509379 0.16040473749317274 -0.02184314321825634 0.38082515609239365 0.14087372402689807 0.07227776715534799 -0.3201832416205857 -0.17696106762048502 -0.08892777959523501 -0.08017708585153654 -0.2943903709994298 -0.0164803587396291 0.1573495240655902 -0.05277194358602094 -0.792159127854923 0.13659976179261363 -0.07183103077915512 -0.13030765838172337 -0.28626705526655544 -0.039330470414852436 -0.007959290879155007 -0.13402162283560956 -0.04354358097856929 0.02562690524998723 -0.1646564092726049 -0.3771461190124647 -0.24481938024135835 0.23915858379823152 
2.871944385603072