-2.7463851225576112 4.01706054197139 4.3045801600906675 1.1910607446225017 -1.3608256613646335 5.358207521028324 -3.1485396612322787 -0.149388359034041 0.1816095233008176 3.286023039027042 -0.46161955657567133 -2.9116003266825636 1.894588018349498 0.13535870631366392 -1.6966341840357468 -1.1707101011773429 -2.6984149731411415 0.5379480011364296 -0.6837499485597076 -0.9720002868918568 -0.4956362977254872 -0.03144175308191555 1.4567686291745987 0.7381771460907244 -0.48804215082617386 -0.9784807732460351 0.27508455581992747 -1.4314234727033852 -0.39402931127918356 0.3168160136693203 0.9215353993650889 -0.692862340029638 -0.7704869743814037 -0.10029564458584084 1.225989930402222 -1.6069399318915971 0.06051535889574798 -0.5903732001967933 -0.894690459939718 -0.3051564148920254 0.8058594772272676 -0.2512800413594461 0.7908264473360227 -0.432247483264299 -0.618149764784769 -0.013067162474132255 -0.23809458745158765 0.4876949053017986 0.13781989094804478 0.07425169563026926 -0.007648915457868763 0.8916003105331288 -0.09988603171691292 0.20623420644091386 -0.22705096299275593 -0.374946360045959 0.6833394853199042 0.6836495114034168 -0.4473977385629187 -0.01937939197960199 0.3680737499516948 -0.1715816918363382 -1.1396873205939053 0.5989300537070026 -0.06149778003843867 0.18554288002315497 0.4100088408323681 -0.6017403292815117 -0.0689203054553872 0.0163094556798505 0.5897686264337042 -0.5186910739360078 -0.3106859717657124 -0.4390252047347203 -0.010527802262389807 
-2.3368890966675164