-3.893822491730063 4.824566126045692 1.2784476585954176 -0.11708933619349185 -1.4840574901440124 1.9681385022163953 -0.10064853134170326 -1.1437589732301776 0.5735769594347432 0.9519166250873825 1.1999227870762919 -1.0796760720534715 -0.8178483474439349 0.7047925218620115 0.5735012934783789 0.0458374627419606 -1.2832477086500151 0.10714425296243513 1.2513799772101384 0.16372005451469832 -1.1943614865567815 0.46149990647463435 -0.12252497256453568 -0.510908811795538 0.14921560037544873 0.3742367659069096 0.5067870249490507 -0.21662706906568618 -0.22955367091017354 0.5385343822179668 -0.9877003805556553 0.0812527585835136 -0.05455052174576013 -0.5006726140330274 -0.6099272063349545 -0.015713555316255845 0.3767432762532784 -0.5763619953330021 0.6476024189514713 -0.3601399861900772 0.3913716513314467 0.4389846889076062 0.009638840053165995 -0.508227337715709 -0.1793364851808216 -0.24439169683745432 0.0640756201513826 0.21591489841876615 0.09747938306745169 0.3640157874471822 -0.17939002389776512 -0.29222258024647163 -0.2000948900256076 -0.25764859734066414 0.07439242629202923 -0.09697739811904088 -0.02321209069946739 -0.19796464620185367 0.10084964642217985 0.1099953627267568 0.20392715912445983 -0.0918185195616739 -0.13593998493853976 -0.2927472914788391 0.07338734777578694 -0.23543207790068027 0.08304364152163918 -0.08561521634044755 -0.39506146821388444 0.04121714542580695 -0.022152366218526953 -0.10287260530132125 0.13408900601524087 -0.1772183334900726 -0.16368412872154925 
-1.3520371248420835