-2.9837507238462275 4.035305257199607 -0.25365780549915373 -1.5929187544944288 -1.739344935752234 0.7942467097282392 -1.6214466089679616 1.76575238561457 1.2185947731225464 -0.5544140102783248 0.07086056564220158 0.1131206621431744 0.5155105862243935 -0.7890831059023666 1.4060374511298765 0.1602963560017495 -0.0692508483729582 0.2231183215192502 -0.08346267696807443 1.0613229128647053 -0.08848284120644045 -0.6336976859648641 -0.14858399345577572 0.6428934354415781 -0.29631626186303384 -0.7136634194981107 -0.265684676994865 -0.024207448413672374 0.4254703054652931 -0.09437378929376712 0.16093719569196005 0.1442357971608288 -0.10046858300497936 0.4731221624345894 -0.23274393520160236 0.0030052002657684485 -0.16693376863985557 -0.20603068281025805 -0.11056579037660771 -0.11456712406163677 0.19314195456864086 -0.1332789666973056 -0.23156135238686157 -0.1898068989903825 -0.08684852652311893 0.035523290173120725 0.29294515642665664 -0.014806230044357896 -0.03261197001756484 0.4876353544434904 -0.3930351053170026 0.17006063731083748 0.08490684870198309 0.23708547382671213 -0.3090108541975959 -0.470982918008495 -0.06114766245118125 -0.08484992625124829 0.04018506285833885 0.16109246387660686 -0.13541312174889208 0.15894995808752616 -0.24501213521608858 0.18886358845522216 0.0217652676494412 -0.15883406749834866 0.1675400685528028 0.29821786985687915 0.20109294545227052 0.1702605900035057 -0.23647960322833633 0.14356294131037417 -0.23182484701746395 -0.19527307788300458 -0.17223281486029304 
-1.365507099303751