1.1295583505380709 -3.945453835782736 -1.9565706901259214 1.965929432746233 -1.7231442208763932 0.11990732011939365 0.8673879713557398 0.6057454087592409 -2.4257521361376817 -0.4970291485002951 1.5564305220897277 -1.9270660276891163 -0.34692183197879234 1.0504921526205089 1.5050736273247836 -0.4242222123770715 0.9487341827171225 1.428527850359647 0.10519340651390263 0.15900252661307823 0.7071449653685109 0.5782334164344016 -0.5182857662775511 -0.32684414706743736 -0.3843969615253907 -0.29321367837211987 -0.8487694737551255 0.09425306130110878 0.24271328894189348 -0.09065121555570277 0.5771391437154465 0.1404986962505822 0.3865352993956195 -0.11170682506977325 0.055672971950402377 0.22851107978788243 0.47181220870466994 0.3319209858308999 0.26888840077877874 1.0981909789357083 0.682933374950984 -0.27118279685449276 -0.2879504921888878 -0.40851678664571317 0.3805314476720505 0.4989574414531406 -0.7087743284286375 0.21544437275944373 0.28819044816946426 -0.28490117647561625 0.39103172936082037 -0.20816167268373037 0.22719628516697696 0.3934447352487803 -0.7035147547099178 0.24200321391348778 0.17069198902958438 0.43258676558081727 0.22231208992091073 -0.42629527816271245 -0.21699233307964688 -0.38274532597798844 -0.08441687453321556 0.022177957426357198 -0.0042695450802359425 -0.3654558791503645 -0.34282868789983734 -0.15786634358463303 0.012855998163949611 -0.3318299641814252 -0.07345043624302872 0.25517874770182913 -0.06917532185940037 -0.1912405873265654 0.280562910485191 
3.9006635779020704