-0.20214211944089655 2.998325684119351 3.2110715919540227 -0.4270260710061463 4.196946630396148 -1.5230476251071696 3.2536705191615485 1.4452380174933757 4.630886435104817 -2.1230759890235213 -1.0520180849777039 1.9791742614288428 -1.4243999040661968 -3.5526557987115672 -0.6912117676969847 0.35252667808239524 -0.23294321446682148 -3.6251439951669084 1.0316949627114511 -0.4862430250251426 -2.3711429921275813 1.5254734255361186 1.2566764947294462 0.9758036567913508 0.13764157917974268 -0.06618618645965949 2.1646407052614673 0.03977387208850113 -0.28181790071298507 0.5434617773317336 0.15433807225729962 -0.010635160362758592 -0.9506361136204177 0.9827440035291157 0.17136800644624117 -0.21647156266375683 -0.9260189097209004 -0.866263901719002 -1.0261202532442093 -0.4715560866437968 1.2589021150720503 -0.9060216434214917 -0.37948630276111295 -0.6617195702177684 -0.7159125931880028 -1.227083374180845 -1.0442035074237135 -0.4039332796917733 -0.23992851113711844 0.28713435508043555 -0.1340547378035276 -0.0096027970391247 -0.8223042287234118 -0.06505158608778899 -0.3260781794530174 -0.817030580851116 -0.08345079768653696 0.22863713228127625 -0.0064356861891714835 0.23508710482813452 -0.1863217026746526 -0.02044401443279814 0.3188567941638456 -0.6463484331127345 -0.09081605242803975 -0.15251003085008552 0.057919982759286864 0.039311619269893204 -0.13527707421990953 -0.7699610803345543 -0.2621902974639331 0.01566883399769836 -0.14077662543329839 -0.005654597531240146 -0.7136203647547325 
-2.670985285329312