1.8501447327481735 1.210657467017306 -0.0019623543815665556 4.093240937062992 -4.710211149199425 5.095850265409901 0.43505096712478686 -0.29125258063832826 -4.253689945129866 -2.0429704947281206 -2.503270916167609 -1.6426801700419893 4.436322118599509 -0.3124056040523846 -0.24542893216581518 1.0333612115902269 -1.8783622577609624 1.1107902896481012 -3.9932778661821238 1.6223046876875848 1.734524618060279 -0.33886863564388037 0.25538344407888747 -0.2299747057987649 1.3830308843334735 2.3718356686736697 0.6186275009104516 0.4957252967495603 1.1174645545939772 -0.7182934289484939 0.29455865473421683 -0.8742089978034058 -1.0494401030882183 -0.5354538355137142 -1.750980655048041 -1.46301881948239 2.2904818441909693 -0.5805350499314224 -0.9178767345431723 0.9269950421806872 -1.2052496840345468 1.091999049680188 0.8441886877360172 0.7167095707083122 0.9920604271181404 -0.06725937988828412 1.0963857442395226 -0.7200745694354881 -0.11917476066095622 -1.6092105600684603 -0.419537360549339 -0.3187713960970431 0.3748613288152672 -1.020070572607423 -0.14889754764744445 0.557510460491226 -0.9564345574917315 -1.1366401959892132 0.7067205353993152 -1.2384480778572058 1.0094014398226614 0.03604650116275421 0.4085156290692151 -0.1272473410107975 -0.3142363682277475 -0.09206153156119515 -0.18637663624272088 -0.4600499245276628 -0.6518490739606614 0.42656407303319627 -0.5023643629123425 -0.005115785459182232 0.4777826245874088 0.45072007218878485 0.06741659303239378 
-0.15930669535891395