-4.231711569431251 5.015217410897517 -3.872526948760145 0.9147873254046152 0.34103023403617794 1.2513369226794842 -0.9646737563861105 -1.3911244983707893 2.9781954473797594 -3.5611524677128266 -1.6372755455531212 -1.2493474140609733 2.2576417189544697 1.2771681547041738 -2.4294103043098736 2.6192743189200383 -0.8045452576588705 0.5806292111425786 0.28453964144424904 -1.4832949236092612 0.7683772800031667 -0.5471123940816058 -0.6946518469228036 0.5478733154916824 -1.3590540418905315 0.6674081995250498 1.4227864032506004 -0.3230900281042769 -0.5202799453150508 0.42331237225273816 -1.5153177717844153 -0.012516642377108676 2.4449581492925105 -0.8485242490334051 0.8776062319897072 -1.0465246975529547 0.3442849368731066 -0.31359664982394575 -0.14097750517193636 1.0151757749870765 -0.2531606272406461 0.6273748881181697 0.7463871334185395 0.06386041020967448 -0.3462939489490109 -0.4976724222311224 0.6080764133973948 -0.504044195982692 0.028519465411200207 0.09177703703886331 -0.09115244902035169 0.5916055552122809 -0.08035882942112949 1.0496411768519123 -0.4302674975873339 -0.9655296125325132 0.6754028336482094 0.29711224483754695 0.3283521317919297 -0.0781229306804696 -0.17715501206536 -0.2719430357516166 -0.17485206229705452 0.6893981603161128 0.4403077201758523 0.14387507604456617 0.1513211420520275 1.1984983240718545 -0.03808217803672609 -1.0512260446832344 0.19725951681118914 -0.14972827945790956 0.4538517701628749 -0.19409364352391872 -0.16383282142654887 
-2.757990085480687