0.9346505312265574 -3.7389560928679817 1.5194677912235848 2.0682984915877833 -3.5236575431025647 -1.1073040831305274 1.107151004356226 -1.8604979437223395 0.8030597342089134 1.5922389099845458 0.5029704724543727 0.41278988887782586 0.09085971741529542 -0.2629278499150627 0.7883015793005657 1.4444190553322598 0.4403409077975975 0.45202984371321187 -0.4559824073193438 -0.6553715864278973 0.9187663274900721 0.9712273978242272 -1.3387653190410111 -0.5916012317326546 -0.2920779888750705 -0.7361805288590773 0.9495291158330584 -0.17048478345296525 0.6716640109426251 0.08953657483616342 0.6437447250686339 -0.666482476153965 -0.04266877833016347 0.32083800340973745 0.07883513946262305 -0.3514727524305308 -0.5569588455851452 -0.5364776430447089 -0.05820673182374181 0.3129107940253968 0.09629354246332193 -0.3110162780794241 -0.8128503095271442 0.5377134503062249 0.2714647584895855 -0.15784927736191456 0.3019612753287606 0.0030570392113942746 0.22182092548906085 -0.027967773076173097 -0.24149365817489166 -0.11062682768287502 0.03354293134534825 0.5587474391815445 0.31113310794944804 0.15550516041496176 0.38254735673551155 -0.20737449702366573 -0.3291057859552813 -0.10934172138078724 0.10984638395059963 0.6189111931014388 0.2700205205427363 -0.35009415865543486 0.13834592843377078 -0.6051684597947689 -0.9336504233120815 -0.4698139821751021 0.3016832743401364 -0.1475445452741591 -0.24770894175803307 -0.04427468762087852 -0.19876034392057657 0.6366524473396357 0.18783950559318363 
3.4709756361822772