-0.38089455548088136 1.448877835433576 -0.15488613055600486 -6.0959234391835295 5.960421117703767 2.7227066746679043 2.145755599682496 -1.0159706589521964 2.033037195950431 0.10662604173658075 4.077089437238145 2.6572675524835034 -0.7472421893741562 0.6841278119225843 0.025219940483987624 -0.5977856534410788 0.7132094949489992 -0.8639656640052733 -1.8372084228824448 -0.9233117798570263 -2.396302558547138 -0.2629596920116976 0.33192267821540666 0.4176708839171314 0.0025362630925213625 -2.338967279615851 -1.1188988605459953 0.41741652464658935 0.03514925790881654 1.1656313151796056 -1.1883898124546426 -0.7871121639371882 -1.0813545129312958 1.2095376390543293 1.1850881350640425 -2.3060755552360788 0.5711593587671902 -0.4041310730857812 -1.0977961640451357 0.0585145262986122 -1.2581874166891227 0.33663812326386483 0.5143207428328604 -1.054300139699313 0.40989061096600843 0.043484790351237756 0.5506210209132647 0.5026456721423175 -1.2273653829318518 1.9517684982576373 -0.726391126700435 0.4219668120573903 -2.1443149953985143 0.4826043795443019 -0.12142090705816234 0.2943254601170132 0.5773071819205469 0.5550476368036922 0.11611029751180493 -0.03235326072465116 -0.7201188305366623 -0.49225902546327116 -1.1316499367646373 -1.003960944672812 0.45362112024107565 0.16705087797893753 0.3609304421002577 -0.1957990350119857 -0.4131175384778036 -0.633092066403693 0.4973619967564636 -0.41877733098647507 -0.5835292622837167 1.5584172825737044 -0.007264864782117381 
-3.608651851419656