-4.660702558478846 3.095682233978658 2.577591777648228 -0.9137780044815451 -0.4249937872070168 -1.8246631763183063 -0.07616849832644902 0.609311855269043 1.5229678009190168 -0.6264426711374889 0.1698759481081293 0.6259659126211037 0.48145184282975106 0.10025157439361053 1.1624833123222973 -0.025145976403957226 0.382455466236825 0.08965581559731116 -0.21882617267093646 0.7443640487714572 0.03521729868190261 -0.05963778053456466 -0.6150780509467934 0.298044910943213 -0.35082830990531944 -0.05251734777427405 -0.6673703021731069 0.26349242987681437 -0.628181005722089 -0.34192233572350766 0.17449377979287448 -0.1961286726841839 -0.3523204578342338 0.10924903383519124 0.31692399470401195 0.048019510201473034 0.05334343593818826 -0.08854134888616803 0.16294251217395717 0.07153990668802519 -0.08899169763539025 0.10102934931616313 -0.010973522402721349 0.1002938370930585 0.16586893388205026 -0.08176751080876649 -0.0415560235089796 0.0989342158812191 -0.24400574281267529 -0.2705952928550223 0.08281300110990622 0.13515039110114696 -0.2542711412893776 -0.022192449537209724 -0.17947650679089994 -0.037166935494233805 -0.050769464797585956 0.19851355917795702 -0.40928182053407985 -0.12880141181449498 -0.10289002803871061 0.06776120197230118 -0.06825199947407912 -0.041379728821363745 -0.010544317244042142 -3.3585700702717675E-5 0.16050367213226924 0.03568024745419137 0.038722991358554865 -0.24982586610877874 0.04729056137786354 0.16716311534153963 -0.018661805881865504 -0.06879379775672448 0.008427627787172744 
1.264388872569739