-4.98009540381247 5.8803331960243845 -4.688891482775688 -1.2377680058277194 3.4123292071683284 1.391427094668321 0.3617796782011471 -2.722888301495842 5.002866799136726 -0.4285062457618132 -2.844207653106579 -1.9655524235365736 1.7663983808035453 0.47413907356658225 -3.1442527826168463 2.080290619897976 -0.5773390202305038 0.7820304965651728 -0.7416992054866451 1.4170677868501182 0.0058382455462560046 -0.737035706389868 0.46567025243689764 1.5610323626165026 -0.3328826224613315 -0.5003545346389942 -0.5193000034225782 -0.4323511321981274 1.0185843284644727 -0.5719395890168537 -0.6178523612423822 0.14860479979135371 1.1982606060228138 -0.9641295294617716 1.1728370304143245 -0.7441674823776709 0.2585953152100855 -0.24889893628797077 -0.5772336757809824 0.037246718435374415 0.1127561446796391 1.3171698712065485 1.506746361885194 -1.3082602467236206 -0.482019157644181 -1.712502762327927 0.1600165172572119 -0.3010755587367556 0.38974919053141405 -0.4177173007587819 -0.17572668220728382 -0.2840730156995458 0.024799885603003613 0.6779082489831026 0.4949399647577425 -1.2473900079513864 0.4710000180428667 0.16215606551095962 1.023879826255733 -0.25091200689036713 0.17550315638180103 -0.32243890511413026 -0.17517869422223908 1.0144354160988107 -0.5731108512414798 0.07699810620022796 0.049770785608046875 0.8519691913783183 -0.002257739182582652 -0.2651876820743447 0.10874451039987898 -0.2555735777735726 0.6718741036780209 -0.5048784251079377 0.12989935530643315 
-5.2872192594771015