-1.1298489293866787 0.45769739462651327 -4.490528146300342 3.580799915217305 -1.7286653022073617 -1.338538455409683 1.4658500421304734 0.5840020226494882 -1.0901458829915018 0.24030951538820344 1.2577086299371558 2.4348424031303444 1.3170148884746715 -0.7125668401760828 -0.0801282260183282 1.7726449092527463 -0.3849137108919707 1.0322136978126069 -0.1860434548843577 -0.4185198517596659 -0.2685135900650161 1.2220838176606192 -0.2691902093319567 0.16679758711619452 -1.0101701255326583 -0.39678027303613334 -1.1262472601604387 0.8293554787214983 0.16861120887734227 0.3347670306062798 -0.8953438965544729 -0.3825400804824054 -0.018715812199231435 0.5013103644554843 -0.16691684660750766 0.5672432708780193 0.2737102092557777 0.7776713184189791 -0.9754449344742184 0.11052827651155839 0.16944308865046182 -0.24262741745878935 -0.4835093810895027 -0.18049413842876905 -0.08537041196987072 -0.33064065954148913 0.20162971982328518 0.4924799071250905 0.2278627765226227 -0.4116424214753764 0.3077448681461871 -0.12288729719759506 0.027258934342616406 -0.5959611973500485 0.1402702279307174 -0.05900131324321772 0.2950044251128562 -0.1172981852615772 -0.03697552642422154 0.007653369614979505 0.11644309340150415 -0.14958957486181423 -0.04446153335691366 -0.3530678525882954 -0.05315219006647926 -7.770895889758905E-4 0.0482679343722604 -0.19242215038756952 -0.3168155028531392 -0.12044384975145968 -0.201809360732645 -0.019730374469424883 -0.5469076426459692 0.14035507477798104 0.4657714982713357 
2.1102252435963305