4.9651305906102365 -0.3884842375213502 -1.054603558207325 -4.581569775888712 -1.0087122164050406 -1.010437366905443 2.2615551172545043 -1.6386544183711929 -1.143846029354596 1.2789118886214932 0.0058091913751399105 -0.8212252121227448 2.3905760791857382 0.11374275059355443 2.136533088179724 3.687842999477415 -0.9760836920896772 -0.5361311739870304 -0.6596766664355983 -0.2831229010382066 -0.9663737321644104 0.8726131995458684 0.12159438750295015 -0.0807121140408823 -0.38186902735006845 -1.0209493028390937 -1.3597241603482373 0.34823769270132543 -0.1379922638303298 0.4393466434934791 -1.1092367647107058 0.19025988368009372 -0.34775279698179107 -0.47941035596089177 0.48620993386864375 0.5184132874906977 0.03487031055628165 0.4603304688667613 -0.7342531853265916 0.31479749316127714 0.1488171246967618 -0.049939123638356675 -0.5187119707910312 0.5579507259764551 0.3075827267396054 -0.42419358120869877 -0.7899215859188247 0.7992997710706496 0.20414226219045353 -0.11941266793027228 0.20326045322018937 -0.48669529580887344 -0.1538830537666651 0.20723530229059825 -0.10728648581872247 -0.7014748225508834 0.12908837203950618 -0.41862224505590384 -0.01739421330946711 0.4102333897888396 -0.4647118319891488 -0.16801773237176887 -0.5702635391408726 0.298418972977372 0.4479553271646548 -0.32366920745456446 0.5898994453276366 -0.11446343724103025 -0.1795118472016629 0.29687250368816237 0.18811283516436567 -0.2117117361913185 0.582137861519667 0.24131558419720744 0.3016076650506764 
-2.093306173385187