5.648532072128887 -5.676786369521141 2.350545614405182 -1.5726194082637077 1.5683977783573309 -0.7604265670293056 -1.1877347935476754 2.6162576107280078 -1.7714690208461954 1.1407302628265041 3.351651290486346 2.540057617511479 -4.351849404599531 -1.3798955163834308 2.5791611329883115 -2.2842315021717265 2.6630117495677883 -1.7117143688833514 -0.8367510410777725 -0.16778360444256607 -2.645672520947478 0.9277413808562618 -0.3327603072282609 0.09369502317457606 -1.421577529600188 -1.0830311627868399 -0.1716233354439492 0.9412999741441836 -1.9678082566651474 1.0085688637562438 0.5762916690891952 1.1080935320010807 -1.7220572210297584 1.3735519143203494 -0.6489315048209986 0.3628205008627108 -0.9522035834570777 -1.388694254737611 0.5808106070095392 -0.6145725277842464 1.2312802160344556 -0.9736391525192548 -1.1248298265071388 0.4542076421420954 0.18464985227788352 1.330411861517819 -0.840716501300251 1.8123503476018636 -1.1836565612359562 0.14195471566423634 -0.4903336421399249 0.9267596663095843 -0.49486923341395705 -0.7027416593638434 0.08551026093881617 0.7932006001788172 0.3154376564886125 0.9121033614353535 -0.19889210773303206 0.8902579267377383 0.3417152313529048 0.5043110997621598 -0.15131750078605746 -0.20243151673243331 0.12952637907957004 -0.353834441843939 -0.3678690647540551 0.2823703518590787 0.5352638314155931 0.06416679625098282 0.5995654469937359 0.10253028278460766 -0.49352794047484694 -0.463499160958713 -0.37644001000859056 
1.3452038213030957