-4.973317071310998 -3.0574004180967744 -4.182673782344762 -1.8348880370805434 1.4360677975041147 -2.0775558503311533 0.7252834404525048 -0.4290857255590572 -1.8070333169945059 2.279327105328038 1.0019709373453505 2.259854593529817 1.9268919672118199 -0.8546834675317194 1.2340444455466284 0.3295964199827147 0.6743813654107136 0.3366387987877776 -0.09643735142325016 0.13441904943936955 2.6908081198970653 1.0171453951245868 -0.9447863489073439 0.31005878037911805 1.4332243061034118 0.6907449376116542 1.2770097690781004 -0.3480451628133783 -0.4493983169439513 0.22033662426103873 -0.12250888505379809 0.8771423962411332 0.2688787080274445 -0.029103638574965895 -0.9157971304023775 0.3629722370982469 -0.11162876195855007 0.28378292652414194 -0.32820042261323096 1.044059448893139 -0.3351196809935137 0.29627579083435523 -1.004423823122508 -0.7543687160225067 0.38122931436074037 0.9679334100254363 -1.3249150895034185 0.48674580072289386 -0.14383684926678597 0.6251236919731057 0.2204830226170844 0.5343992149396093 0.7046180494317021 -0.5913464721930968 0.1198054766891066 1.1836965739280487 0.08668446964700441 -0.5082412173734522 -1.8374322350040155 -0.33021192363542085 0.144149835581243 -0.7226975060003612 0.4576540508800311 0.21513966467176993 0.5224451154224137 -0.0205818621618451 -0.2714350433973335 0.934936198040121 -0.033827394224306306 -0.39971255395223615 -0.005602504923671647 0.17303105921095402 -0.43937294577483826 0.34370199874052676 0.07297719799559854 
6.263515349229178