2.9082872171485175 -2.213357397092521 -2.406900160062071 -1.3481535580925925 -0.1281539759115491 1.7244293214034192 4.355915969961362 1.569687545981088 -0.8236996522170124 -3.0201577387062013 0.40516443538850133 1.3660431090926695 2.891278870570953 -0.12032132025245545 -1.3833543781346795 1.2294939867111718 -0.14407232382851443 0.1245275732552582 2.026154629763251 -0.6810251563750601 1.8418462295610776 -2.659148591605345 -0.5435645098916773 -0.6227053033493051 0.8327767893861192 -0.23600357124443316 -1.5608881655086964 -1.0828521219893394 -2.3768466372509844 0.08548829445438758 0.20058705087307938 1.4007228266170777 -0.6712843911012143 1.4029154029595825 -1.3443379886976148 1.2213928342708682 -0.04758636477030198 0.9383051670909675 0.7979014555446238 -0.23241189644353732 1.178170785718713 0.3235235962913814 0.6303735561939828 -0.8641952963670149 -0.5313359368916127 -0.06498280506648091 -0.48205448982840987 -0.41637954654426024 -0.5699773615798475 -0.06896521968738617 0.7976937121139566 0.025834215816582184 0.11392643246687723 -0.5715555831234322 -0.4085483566281179 -0.09120796488296651 -0.8376264804825064 -0.045157176699951826 -0.16331973510790918 -0.9333516492777912 -0.049322585635105776 -0.5121659908041973 -0.5993757090838234 0.5670734436431534 -0.5126931749034571 0.45469967901249886 0.1171769377981573 -0.4547584374277819 0.7323625644711376 -0.4517184761496988 -0.003983977597188604 -0.21339464771344296 0.6165828518515796 -0.6537130555662043 0.2662723741617098 
1.7466037240871235