1.725697607536265 -0.6320528304030013 1.2582898420403277 5.6572910319378975 -4.440460657212237 -0.506467804296423 1.835064497923434 -1.7176242763481653 -2.1006965642707502 -0.5879802960685674 -0.9309407677719044 2.728566853206511 0.5361561553345222 -0.8877521571448113 0.23382891125084648 -0.016707131737795367 2.40217465351537 -0.8097146518340068 -0.06906563548409395 -0.739103342631483 1.3969655213079344 0.665376507167768 0.40224250544562445 0.07924811624030746 0.5259464125779296 -1.2937760434861623 -1.436517172647448 -0.6303455652606585 -0.22896534287946463 -0.5358271069719942 0.4801977664142471 -0.11609728026763128 -0.22780713986917034 0.22364582987990111 -0.3687004796367378 -0.950119889224405 0.06817193469352706 -1.0610325455856984 0.5048754631403546 -0.9569676959295719 0.46317637448651 -0.5023498784755307 0.46872634051880646 0.18787233110876234 -0.07125184131370554 0.08186837946226411 -0.6376195639044865 -0.03421987906123225 0.017809822599540982 0.5358295421255986 0.6142652965773933 0.6731233866873821 -0.619429624164658 -0.1655359639528986 -0.8559349024497928 0.19285000054255602 -0.3076161197745906 0.5139116248508974 -0.053703061153474424 0.1387935358201353 0.03169478094161937 -0.6960270116371353 -0.5570795701292546 -0.673629275247324 0.23412179266900257 0.5130027799528699 -0.6498259824608601 0.5824294446554412 0.13309490203264407 -0.25574011245288614 -0.15411476126973805 -0.13480009860784015 0.4375947973677614 0.055753031419861765 1.0139422495858113 
2.6606380054386696