-1.0472326375856795 -5.0376277904201645 4.309432104621425 4.274686142729097 -2.390321063732005 -0.04991665067918538 5.609803670491861 -2.6873304171402506 -7.0249768871728655 -0.6911128431543582 -1.0687251888034217 -0.44549075830091023 4.639750059187652 0.29628938462574517 3.1583514122002883 1.229075177281066 -1.8073320968208935 2.2290525009400017 -0.06127708298711643 -1.0997833265288164 1.5050833860768371 -2.6077490168187225 -0.3835605086683549 -1.6384120075004882 2.3225775371211643 3.433677992001824 -1.1729100031578528 0.19789634505531653 2.130105524409521 0.5735765185466789 0.814573024290071 -2.540811297315224 0.29700133906711224 -1.123168864084045 -1.394041650279203 -0.674803950394721 1.3754154341331912 3.2526194397280372 -0.8708142709639539 2.402723491023491 -2.293153990828479 0.5502145100155617 0.46798058002031145 1.4405898889277826 -0.2003760948837296 1.0260134912172643 1.3237191028517858 -1.4470120662148536 0.9938768588486917 -0.9075033915268057 -0.16832044050921927 -1.8466241771314704 -0.8785704423316489 -0.924508358020361 -0.9722013498910369 0.9473440634732444 -0.45462604729378076 -1.9139494538911273 0.36634485101691017 -1.3108886590323856 -0.2663215772471038 -0.5725198393099931 0.44508988668276306 -0.42471711780878907 -0.550854456918136 -0.07100593201729574 -0.1621976276488442 -0.13943010703373354 -0.580167521190124 0.10449471629097658 -1.4369138847868925 -0.6105878567482818 0.14446825927742885 1.1623625053069144 0.9256595073123361 
9.073638076420533