4.285427481287259 -3.458995060647723 0.2637150333665774 1.1671812702659352 -0.8689763330251452 -2.3124650745446043 3.9610331339868994 1.1904269864726091 -3.1567674480423262 -0.573652599256746 1.3412191273584546 1.2524111635793882 0.8580580361763299 1.8098959417310871 0.3514208208093328 -1.197329713375188 0.8059594574061599 -0.14213818846631043 0.41507250227235204 0.24115722146853313 -0.09819689858768754 -0.5020854450407035 -1.145481404422536 0.9865342477540531 0.01135607391890825 -0.35539094647723474 0.20268326768190933 -0.4402008929726712 0.6014344659682883 0.15987000599438517 -0.5663478162412114 -0.8404874252376641 -0.5347356610623705 0.28348031425223263 0.1442297974921548 -0.5832857239892819 -0.11836245316818753 -0.18839348984674031 -0.19812045054862037 0.5260127171562117 -0.80861128236057 0.27046568231863827 -0.3985614608857573 -0.5545092796417066 0.3629109547022107 0.1589915354150908 -0.06449437546339243 -0.7294179696788394 -0.22628789564823612 0.6519279789207841 -0.1353387861206813 0.07631961206397453 -1.0854838862706928 -0.5127043076581688 -0.46978123488089546 0.3203976980610565 0.0264283721861025 0.6481564167284366 -0.2805237686738133 -0.3074664921567781 -0.412956277179503 -0.26098049886395497 -0.7077529321781795 -0.5829071698181216 0.1576390329390071 0.08902189047182235 0.2651961018029295 0.04750696526257847 -0.18973966461276248 -0.32812363700488434 0.5242260110215187 0.2486838867001256 0.2863742597182683 0.6452901029654418 -0.3010616236271617 
2.678248314766896