-4.496233700149713 -1.2931027102281307 -2.4723080643701687 -1.605280421260343 0.24254824473900882 -2.774230312474231 0.5889780709672698 -0.40921768772971845 -4.400391964124868 2.9664616516400244 1.9406188410857197 0.9280420760435922 1.2292744750603621 -1.5153254365927276 1.5726379779007091 -0.17695588778965265 1.071160943143959 1.0755929420189294 0.12944178303665876 1.443467493260755 0.9858297844147355 1.829956665303623 -2.3416803058526834 -0.19295437260271409 1.2811952441967822 0.13807815471144386 1.0364455853897703 -0.43767579102464765 -0.4432723283019497 -1.888515898062254 0.23819907466936466 0.9189536221073193 0.5657954915247347 0.5064732664150355 0.1108467525082889 -0.018601847891620116 -0.3897299331124034 0.32776676106947167 -0.42960652322901755 1.348843607639249 0.40224978091490976 1.0810602021927735 -0.23708220811191916 0.3799593547126349 -0.6578166466492781 0.545648060826593 -0.1268198099220526 -0.6768735249367356 -0.23579785496833594 0.47476542563060686 -0.0509059616993317 -0.018462116139387398 0.2935232657190571 -0.7890037471688119 -0.09736334443431204 0.0728195059224695 -0.2777561164668408 -0.010506033588343872 0.29192695377434313 0.15978701491981012 0.5861682347808304 -0.32367021453812483 0.4327668119112223 -0.12354152409426339 0.03158336387656081 0.24201999954006548 0.02070693100799495 0.1168508799256235 0.22856649321504618 -0.03716635742527022 0.5183170943459015 -0.09839064024273436 -0.37354173782634 0.5686057071712828 0.4958474337744263 
5.597663696427107