-1.0352850416340607 -0.7124786812092889 -2.776446402633157 -0.6349086595831346 -2.7656801800685242 -2.0030775675266668 3.032213569640147 0.5523679039157994 -0.6273133122292918 -1.1534633787401232 -1.0709752855917825 0.7378911608477071 0.7850178802485938 0.5534143038914228 0.7006031697181374 1.3612482575253309 0.9002435247205361 0.8655364669064878 -0.37980048533319755 -0.6914003500713696 1.350683758182936 -0.2691748320079468 0.32179041081184934 -1.4225834925011072 1.0434881753574226 -0.0611219206340147 0.3060732950707409 0.05889224311341823 0.17372440147910967 -0.16722179247389599 0.40374458658215356 0.02748287306494948 -0.7299057724510812 0.8872800342967626 -0.09105373825789331 0.7595315323322853 -0.5029961400335569 0.12959358601087356 0.15865048087142522 0.5272128682739708 0.08666465077525354 0.08497834487349451 0.3204611983469393 -0.18928814861329912 -0.2822402684674153 0.5341961940695787 0.09584657090112358 0.2494128508014199 -0.34548559237990467 0.6763471737312452 0.8009258386147773 0.1410435745121041 -0.4003982480661765 -0.1162690655135078 0.02871504613845874 -0.18254519868592345 0.09156945025613922 -0.32981517893233653 0.19977587749975603 -0.4457699431395697 0.22787212926041742 -0.010639799825085505 0.33820820202744495 -0.10440009057612526 -0.11207237709441159 0.016788574351525365 -0.5998995035692644 -0.3952400010565363 0.8987997654204134 -0.08895339946395861 0.2130821420127748 0.2374109053877138 -0.1557903139765304 -0.1872844998343337 0.1621956903318471 
3.6289495953482738