-4.057522431594435 -0.017992627190803745 -3.5289777437050533 2.792710071674443 3.6410310352102044 -0.3554918010762721 -1.0686107101735867 0.34726597153872096 0.756100281984958 0.491645257684494 0.08411359469316115 1.2899790302355596 -0.9742103755604548 -0.5581155958520202 -0.09264823194674576 -0.8553821715998176 -0.43689592289870083 0.5008219997119564 -0.05897001609386926 -0.3512670962151997 1.609621518081104 0.0019082428771456383 0.08378777221919381 0.8875168281836011 0.3900820667674345 -0.027685592931802477 0.6553329084432322 -0.25322572362156226 -0.467212368617253 0.6670888743674082 -0.3988137564245874 -0.19931072618231033 0.1333987123892702 0.39469705939969274 -0.10963222056057381 -0.2576692013932787 0.21174550034123366 -0.0757046843394901 -0.213703330646411 0.0058083919153560926 -0.11761894722674822 0.13515316812112702 -0.3784790802934639 -0.35033803920919115 0.06144829437028426 0.27237861110732825 -0.25748487725171026 0.09139360819131062 -0.3271001585863313 0.04435509449451727 0.05877799978582143 0.23378822679062916 0.2162909580492373 -0.22564981690111974 -0.06152314306125045 0.6049422522411966 0.09235784753695714 -0.15749148985036532 -0.2838994903767458 -0.13276788534056477 0.034992863738268515 -0.053058707021424165 0.08469514291745361 -0.025046985309953362 0.2209884444741846 -0.12275129605120419 -0.13558041616470806 0.022699468026728092 0.11552314929239588 -0.21751551867741845 -0.0035443339073210067 0.10609294889906291 -0.11744529574493935 0.03833497316669404 -0.05253035932264874 
1.100599040569203