-1.1463328920512976 2.24595710596384 -0.8289923308865024 1.6082622895121663 -0.42392334265524845 -0.38966138198762446 -2.7454681816746245 3.001372971655663 4.833097545096301 -1.0037914129834664 -0.8365010539396064 0.2062844547784689 0.9909683858655779 1.5804779660891708 3.411424929017995 -0.5266354041311895 -1.1648114494294677 -0.6437597005032569 -0.23139630166069758 0.09044699229513967 -0.26136719356492333 0.7221563105986427 -1.0009597137614745 0.3157029835755743 0.5104927197557094 0.40303734832224003 -1.4528102800851865 -0.4851611993927926 -0.3267689479571143 0.14867563637480838 0.41274297963770273 0.48464360025853254 -0.5955739508094134 -0.5267812489969637 -0.09240081533531283 0.02296084723566415 0.240687389421745 -1.0037435756782305 -0.2174484448681223 -0.560468693451173 -0.39524143362453185 -0.1083204589083868 0.33509465348280165 0.0437903297448557 -0.7645852575162335 -0.010403882211642387 0.319407955056759 -0.29152502211370485 -0.11946237836012143 -0.09891442986630049 -0.13691829685396514 -0.029545832721865756 0.12440800834381667 0.09179727372139516 0.3969569188317498 -0.26354015616048415 -0.32896775170272535 0.19285444900405593 -0.09566070495311332 -0.11368256381865456 -0.45368391487495013 0.06803047965939454 -0.6753285204303419 0.032741311304259925 -0.22782952384826985 -0.37609278433290627 -0.10084651010061167 0.12248339380977977 -0.4533115948481991 0.19521124598857195 -0.5025463092459488 -0.6701072278495851 -0.19590360374476304 -0.2893636183870562 0.014370817875648405 
-2.48894486369633