3.5754869317993414 -2.06921460707136 2.7642800883404637 -2.472465480260154 2.3200060933643205 1.390726737856657 -1.4406297771886365 -1.0895469563563667 0.8724739899242411 0.15066991556339548 0.17184969741991363 -1.1081766508450215 -0.4109683683330768 0.6260070724202368 0.3395010753810722 -0.6066543352393212 -1.3196295838580163 -1.2047555094459492 -0.32741691901977904 0.2608298182510086 -0.11554997216135865 -0.655279070496965 0.22996409135538098 0.4857702168428685 0.8948244833146138 -0.7097093277000305 0.31330060655031455 -0.21988083737195407 0.06199131423447585 -0.27567792826329585 -0.06850739811728151 0.22838215852439547 -0.7267772966272253 0.26462452179608853 0.7358145475781055 -0.05903119097753523 -0.5442530848845326 -0.5751545512974592 0.5279627239082602 0.057356283768591365 -0.06194413752990671 0.20237435837318485 0.23156912448589761 0.4576700821784721 -0.4492624420477298 -0.03829781148323608 -0.14454790214606514 0.06102942386190929 0.1777173476068064 -0.2163020055432332 -0.06328643903991854 -0.288581718871771 0.24886539966700502 0.19090107925844776 -0.5653897952330382 0.10058889136661081 -0.2941801951658905 -0.2783284866884072 -0.24120170233823213 -0.20824334999846378 0.024282573065601137 0.22957169432268565 -0.09571489314969439 0.16853661068357867 0.06355095648020315 -0.11790844922719967 0.03872445997221341 0.2292591365889382 0.19479140500982628 0.19721587772249052 -0.057271009752012325 -0.10394699767152485 0.4410282623813294 -0.012077931616980175 -0.2937349382003097 
-2.663858937400883