6.588063093397961 -2.9937533096116233 2.109743459895735 6.108006250715972 -1.1867852691986887 -2.940235117824175 -5.327095949290243 0.48097139253156995 0.06349945047699634 2.1507060715170687 -2.1548769032070023 -2.1121603602545327 7.647740000172267 -2.9816642677358844 0.5069959491447797 -0.7841686088934317 -2.60254666334869 -3.7783897643022377 1.8134325087624241 2.75914331853291 -3.7910926445896185 -0.9196760770160222 2.8832735266725025 -3.1702418441068456 1.5899441389716233 -0.20585467448093198 0.3065495042109074 2.8757551310755045 -1.7602375311510738 -0.38072268635504086 -3.3874286095401898 1.276391734377222 -2.2229660822566486 2.0510886688659724 2.3378117401402436 2.108850440423383 1.3696446376244893 -1.6505356888932685 0.38365377276219365 2.1581329570345087 -1.4947049109812283 0.19532253587577125 0.39834250111020153 -2.9192320154140146 -1.1598922304705255 0.08619755954338415 0.9402301923291113 -3.282677107463596 -2.0644860963900684 -2.5075117844096373 1.487091548375816 2.981433175289471 0.23373544807590663 0.41545101989265476 -0.8357237087531963 -0.6541140361701342 0.4901139972380315 -1.7963756857554185 1.0134069862336677 2.2396091348627785 -1.513750901851302 -0.8397174116290239 0.08231350593925935 1.2145329840632573 -1.3686912004964322 -0.7663367586163207 0.7326919742661637 -0.14634616028645608 -0.6877439285133363 1.1733043172717372 -0.5192282506163045 0.9330934119094152 0.0963179763398366 0.9934856375377524 1.6308925864127175 
-3.290785641106251