-0.5939013989633839 0.036892017770860264 2.9520775979424134 1.4633907946488043 0.28287995303609526 7.9926210904184245 -2.238500037388082 -0.10170076703876452 0.21389770671464792 -1.618611965520612 2.831650678688707 2.3353741806379116 0.1407586397391648 0.5824427661289048 -0.9746649938302876 1.320804263328554 -1.6381088684899918 -0.5476109525061205 0.6482125869197443 0.48726547776516643 -0.7447022052156473 -0.4010003117656471 -1.3784440628101107 0.03170871400364958 1.3873787028803175 -1.4358037039548468 -0.1508470646653448 0.6509721366841794 1.036859812242842 -1.424633830938452 0.2141232415980267 0.26977801109302757 -0.8785310127219373 0.4370660971583179 2.0221293329514167 0.06064815924249323 -1.3520549847123244 -0.7537118965911418 -0.07450547053624398 0.8453082221594357 -0.39746339690648247 -0.7447511238164565 -0.3429067166127419 0.10899298684908032 -2.0630631228994547 -0.14089625642907055 -1.0058804370507572 0.259717567807701 0.14687440578464914 -1.3511374272602386 0.13160724080469582 -0.4465158052821416 -0.253709088612561 -1.0137773916309734 -0.9363165650619787 0.5379572854049285 -0.6348471977269812 -0.8012059722334335 -0.6147394269402796 0.025776618318911815 -0.5949649364159499 -0.30235563307177793 -0.23987933315367316 -0.39074796599755685 -0.21492801880450776 -0.5172894963056652 -0.5259245558206126 0.024121366002195943 -0.03308620435686016 0.4450127985873968 0.18609011104798312 0.04645015762363272 0.8668168679592116 -0.016578838284041386 -1.133359151620286 
-0.2239547840102672