-3.1132715303140515 -0.38575690663266826 -4.911242264508168 2.367433130757747 3.6213955604631503 -0.9288319806467213 -3.975190043226215 0.9487042271312517 1.650241106523259 0.16674668199622023 1.2132888732299612 0.22261633165679307 -1.3076465450846462 -0.8304276269747152 -0.531557685359793 -1.2350905510645045 -1.4028166677312819 0.9210763368710374 0.029976329824462855 -0.640824952567291 0.6690464283606907 -0.36264170120425887 0.6572481059997842 0.45260059600926755 0.3983109482117614 1.256034733611795 0.640011674234471 -0.4471312042149966 -0.4468245583381043 -0.20609542308417392 -0.5604292312778085 -0.08705910106040216 0.336055535785456 0.7153301891223975 0.6080876866287146 0.4636366784341577 0.11704772541269426 0.6247732512796156 0.14464070867163192 0.18453668037993953 0.40858227346448805 0.03265343883805906 0.10464128159881714 0.5275917283573788 0.008668874907711066 0.3527301158836815 0.8437251802140934 -0.05859605558857495 -0.34127766603841875 -0.09654944696568102 -0.7941086717415557 0.21825806605750311 -0.21430542889230986 -0.387594181447287 0.2811561183103666 0.2825153642307838 0.8658186572403136 0.2881745491035974 0.08929336767949128 0.2788148481661039 0.031408135333461984 0.38000676762700636 0.10216624857950873 0.004929159932260174 -0.020063710125104925 0.04918823526769012 -0.4657525690300543 -0.2878397570352919 -0.018187823356526356 -0.09438418055416262 -0.07278357157512094 0.036793693886359 0.08505272146273396 0.7609388419167984 -0.2176661530145756 
-0.6789835261523339