-6.735997459689937 -0.7376574845072916 -0.5637833461298078 -2.1444992837926176 3.617689808518448 0.10401812140072497 2.191054573555852 -0.3306237806054897 -3.207789135960562 0.1283485108403304 -0.5939805421473507 3.243824543718992 -0.0266429179139952 -1.326659948944924 1.8046050691265 0.042021059234688574 0.7342578277900729 1.7241336814210628 0.06660861174721222 -2.1240570000746275 3.4349327682497766 0.27229563013918434 -1.4522787433024655 0.6040463863126883 1.3122203242467594 0.08670931233969359 1.0571848983681158 -0.8499791121905611 -0.5722798094884218 1.57739052161183 0.6725076689280147 0.41748537654481227 0.8534270119642571 0.8343618136418416 -0.9960987673584258 -0.029872300087455228 -0.22616236792233074 0.439286339945566 0.48447500143515787 0.9781025656136388 -0.38111054421921303 -0.5341157788890486 -1.456076749524103 -0.3048728930416591 0.8306503720381022 0.31035539825877767 -0.7939611015890496 1.5076681433058003 -0.8003100953015541 0.22647111180851404 0.4261529937182398 -0.5556533566728934 0.5447239649082259 -0.626539917851098 -0.12748932900389254 0.8845145273017122 0.49546016317817576 -0.3799476761560132 -1.8136661053196539 -0.9269734016447265 0.4093440260155238 -0.3639894572704605 -0.17085007516042772 -0.17395928727939766 0.6783698882140069 -0.16702068184476826 0.02532366129879038 0.5473454914639074 -0.39645965037330255 -0.5402004230506127 -0.21282380783904076 0.31021627920864847 -0.7732791397722308 -0.11604830530368915 -0.34387367019053494 
6.603090005162737