0.027145766098072954 -1.9095421393396492 -3.826176692297386 2.512768897496985 -3.128865388077206 -0.44677103789192474 -2.955779366318092 -2.5424290340631703 -3.277478252291115 1.1681173067231008 1.0525244395597322 0.1931905708999775 0.7004758192807827 1.5039180283560754 1.138774477498381 -0.02040793016890674 2.643963221610342 0.8670651617565183 -0.30310535170651276 -0.6245279763675831 1.387057958685321 0.008194895575463934 0.31659690390655787 -0.05876864461550569 -0.3005683579133931 0.113250181701351 -1.3176330746518 -0.9227569104049369 -0.09985754018007928 -0.7003885595982509 0.12164157534613611 0.2967390901215291 0.20509048423260434 0.5168944894067407 0.35134283556227386 -0.12208132770057917 0.10272694683069772 0.1201173982936693 1.0593752379750516 0.09720917710205668 0.37290341365645163 -0.2641457909568009 0.592989481600587 0.17533471586718818 0.5074232209482192 0.38577122386248 -0.20774744212952478 0.7486684520859778 0.14197184870582788 0.2298230589937364 0.36724942722915727 0.1650302812357848 -0.35953818133178495 0.1709523736135763 0.025917944194406156 0.5725894632499242 0.5704570108073791 0.8911934966496655 -0.18724631704972464 -0.2971345421750815 0.22941117617038576 -0.3208367852609725 -0.9732673675036159 0.2757750451666007 0.031180891955769507 0.2963388235878227 -0.45430438958423075 0.5232781789817514 -0.171172692819415 0.5776566909697664 0.09022851535751757 0.24749122857825182 0.33540159410027204 -0.1998813786764927 0.9631940494858156 
2.3487722535107904