-2.961165500090541 -3.387055934476672 1.844125409582714 2.365282547332776 -1.5464475269574098 -1.895563767653068 3.2984170070091228 0.18653925837181373 -1.8483006571536844 -2.3977569609255234 1.0151696866799707 -1.7499884350016748 -0.17515013045924566 0.08358340164791123 1.657620617725671 0.05354281118044213 1.2770190045064362 0.4417693846771754 0.3423036600585643 0.7625775994563655 0.1770953157522599 0.7637568989724197 -1.2856629735748657 -0.014033383505398178 0.5802798938804703 -0.7718700496890272 -0.9840845219818966 0.34866902509033026 0.35476175457076126 -0.05527723915424515 -0.02971487452750643 0.14345478961481786 0.07283432686525759 0.6053750159196455 0.438939683179511 0.8201174528250099 0.42174112897289096 0.26775168026412755 0.11516459221031089 1.365276935428994 0.528815555203799 -0.4013624195836227 -0.8261236486049958 -0.16238461558311923 0.6861812328015863 0.26104712230032767 -0.9523998135837263 -0.20847961658986897 -0.010455111784786086 0.11518053022902336 0.31703491651970783 0.34088073207201447 0.05808359268413421 0.02553546895225696 -0.07373862818884165 0.5145690967212031 -0.11689724217913888 0.578661434005665 -0.22314339163308078 -0.4532696930638187 0.21862177220592466 -0.422772474916463 0.09357687078704474 -0.3550048919597613 -0.43155793692860095 -0.061575803922911676 -0.1176670031948498 -0.2609067813617506 0.16008794712010394 -0.6049093493894737 0.19193923710410893 0.1853571108702361 -0.1472932654654647 0.5413927073590098 0.31187943437310317 
7.4553240057833365