-4.518380091031826 0.9867754123714931 -5.591432492066186 -2.6517592910808947 1.725787628803503 2.863584841500136 1.9341481599005332 -0.04977922846481242 0.6866595550243781 1.253856064032093 -0.3295466710707373 1.5451222792908827 0.6463885557470557 -1.2788277897792697 0.016810349200549357 -1.1085584822499708 0.9578223168447056 -0.3637681194051288 0.4691956573004865 -0.7838689955173809 2.077344610154758 1.0304529858624072 -0.5980710178163589 0.38370274345818123 0.19842246844333505 0.4417590248926528 0.1117895449393056 -1.3981358956082737 -0.394164217700984 1.11021031314859 -0.12574317921584025 -1.0267798542048685 -0.4815604694923016 0.8598907600267124 0.561903623075019 0.4135807692320359 0.05622566906003501 -0.21504414526201676 -0.2484548393825209 0.7252383429617802 -0.7398265056036918 0.3961083827711611 -0.5151018306406108 -0.5062664268134636 0.7344483930596828 -0.20745591238531114 -0.3298830668706353 0.6490477806203396 -0.9122534755099247 0.5440748954869392 0.09696305345490208 -0.19338614963422074 0.25164367280053807 -0.29541425015417866 0.34083916009359816 0.4389309551059174 0.08245958045507218 -0.1984300956938938 -0.1091759751271103 -0.16179720450182422 -0.31009776834805014 0.05389315702798264 0.024932178108789782 0.19643645971823182 0.6530217779446016 -0.04476423655117903 0.03500205449391014 0.0543515546862417 0.17450873560056845 -0.17232976391760657 -0.1175682774398571 0.3666511158014895 -0.07455707396984834 -0.22153576514562656 0.12373397515585421 
1.4583179017467214