-1.0774873436301 -0.9077141433161602 -2.228935036761353 4.967734153285063 -3.7842796513002055 1.9849653085263324 -1.6791467810912892 -1.1593769882502138 -4.484420097333608 -1.0940248499749017 0.46809815195516113 4.238072864463778 1.1077457317341042 -0.9950642039602711 0.5766924256019388 1.7119793760759614 1.3257191374016297 -0.022850383113184936 1.6918086036960023 -1.2201540911789328 2.6674781706616595 -0.24117308573200735 0.32308657012248143 -1.585041431877796 1.155606930944766 -0.829010895696338 -1.202072784071189 -0.5689286383967074 0.49700174648721485 -2.079804019829189 1.0888897992204996 0.821789428263538 0.5175077675144455 0.6853018968791451 1.7681462324399513 -0.547392209587453 0.2693750997870663 -0.9433790384012193 -0.11137950758072829 -0.46832809583498913 1.301706893793379 -1.7471609250098985 0.791081846487879 0.9996047121124757 -0.8210482804640646 -0.030981357140879795 -2.1619755765438713 0.5010656846049201 0.12227235800888125 0.16036069717004892 0.4815576883478112 1.6705321037514993 -2.084022149927264 -1.229479425732364 -0.22087866948186696 1.5952126937308309 -0.5178694081027617 1.5078983314888201 -0.40876936864273977 -0.24760330089901955 -0.4313884727048455 -0.3695048608010373 -1.0625897725890903 -1.2091840351893386 0.08438938053325816 0.6228007406668182 -0.6033329830318246 0.07607752002210541 0.29922053449194547 0.40235600325177595 0.23872797114556893 0.8625655806336402 0.4779129327581476 -0.17147490375757102 0.48488369887582433 
4.437851520013289