-3.2756095616595005 4.175011726337701 -4.1964251343244054 1.1190797953156397 2.3271938388122955 3.8194791419278458 -2.5885935847115906 -2.0748626610637517 2.7408296433511197 2.224773606203425 -2.9498443124818796 -1.2719853150343523 -0.05721923630545822 -0.10805302581700393 -0.35651199280325985 1.2946222502727884 -1.2314249480670147 -0.3733804096472284 -1.6235024504152318 0.5554009193067522 -0.809821127189978 -0.6031671840447017 0.9740011417912173 0.8697982306733198 -1.2366376634644616 1.1148135171671791 -0.4817317068544777 0.09329261622068397 0.390222839509325 -2.1618719959831325 0.5221160323558497 1.741724949020333 0.5786370340429657 -0.7697891602422375 -0.5760772902120452 0.9885755853441487 -0.30810449839907883 -0.9593333926541301 0.6820832005668112 -0.31725843205472737 0.542389451463425 0.06809691499287651 0.6112382579208764 -0.1698581705353227 -0.6961710905968022 -0.8519290967337314 0.2196304331327018 0.4350028830324172 0.4520814853530482 -0.5435639689690493 -0.19265848217456227 0.30898471477108747 1.284803722567412 0.6138927718894206 0.5604887293919613 -0.6210674966930387 -0.7401565452186778 -0.3206720139509045 0.6774260254029811 0.22743848964187854 0.5369465649019305 0.4645941552421228 0.25248116849494706 1.0506864831799871 -1.134144852807349 -0.2004118678540835 -0.015830832478649026 -0.22795258468645418 0.5177264910362829 0.20951240943697813 -0.5886591759849868 -0.4510697557065278 0.31606063613474755 -0.6295186860571629 0.15373184767050718 
-5.284367860500064