-5.369075005221426 -2.223534360244681 5.337929165980384 1.0046193471670861 3.952324121577001 1.0480705937594605 -1.199590191333309 -1.8108831004242862 -1.0604544220779104 -1.020775877983959 1.8605290765647013 -0.02701550770887806 1.0773023772367811 -0.3686321744132587 -0.6304459713235762 0.7081411550426753 1.204800508017791 -2.0619407328492794 0.48047631005210234 2.066655925059372 0.5037804762151517 0.46654072005095326 -0.9768018296879885 1.36841773360057 -0.943107565695134 -0.3723929749412478 -1.5506021156017382 0.1468957366855439 -0.8245231272180946 1.4209272120423164 0.023254017485528578 0.23687062033647244 0.5762901554187956 -0.18801902530447578 -0.32664989041102965 0.6165525574637003 0.028931731488914147 0.5593674800579488 -0.15402778798734834 0.46470863816076724 -0.467726878112951 -0.055637613137995826 -0.6916080006038055 0.9201552336595046 0.8004256746179529 -0.04787642251012203 -0.5570552346178442 -0.6966480036301252 -0.29318632558407137 6.982521433949174E-4 0.3362784416423834 0.6441938944639386 -0.6744130330783278 -0.20849106995285888 0.30204518430918603 -0.023340549614119688 0.09513821990185989 0.3482652571629574 -0.5750147359891298 -0.7877836989953537 0.2070143693734391 -0.222595545110848 0.2243417441354154 -0.4772337774188296 -0.3030380622625126 -0.35542073587137274 -0.5998128501056086 -0.3665254803363451 0.15618598488298918 -0.09179163643447319 -0.043693292203113465 0.31676738964838524 -0.45957474957566724 -0.23315475665331586 -0.16480119317901987 
4.770315047392435