-5.291992377528717 0.10498556995262565 0.44446826167933695 0.47545820285851725 -2.9766886737544063 -0.010104407144375216 2.0111855249417303 -1.4805037611009082 -1.4264585151065963 0.8187715562067964 1.0559049172322088 -0.5471236290274308 0.7529768942237152 1.4086353295216445 1.9025143868953087 -0.3554357830515595 0.3982494011773515 0.17124559504559 -0.05935547666816999 -0.32165991659382126 0.9057731082322014 1.4488823041533465 -0.003135285079715888 -1.0074503566497715 0.27450499051349597 -0.8437549706093052 1.6232088457718707 0.9614428451142463 0.8152095725176439 0.462747496326422 -0.4564677772858203 -0.39560212325629357 0.4400263471291009 -0.3826916321770052 -0.44487393315329177 0.0027116295872883778 -0.16851236428315336 -0.3102001633895681 -0.49436906808362474 0.2394204216514747 -0.04003798891858454 0.2597054460903078 -0.7701065338918771 0.3912760402511095 -0.4270001760196355 -0.02848874457013506 0.5619490007917809 0.4623126597790204 0.26966393524020976 0.17199342871869416 -0.2530505741966015 -0.0915452957578835 -0.5761013258328654 0.14583614347868545 0.640240779184123 0.09550477499148835 0.3068097039827632 -0.017926441425123486 -0.3931111408623295 0.24987679481596675 0.1235027533091213 -0.02344822785001449 0.2189197333909657 -0.5091006652345013 0.1454120389167 -0.4757152698781294 0.022037313366158162 -0.06521436252739068 -0.3132535728365067 0.08503055722261184 0.16938448741973486 0.2621951426457566 -0.4242539284210578 0.06625793785166872 0.01850258998741308 
5.442497761797101