-1.0761175106053056 -0.07564817089384679 -5.603498465044481 4.068392630071108 3.0508184142719954 0.254305670633832 -2.5424127004597565 0.06476723202672141 2.873581359868461 0.8083268295417997 0.144664179356378 0.6571649315935189 -1.0939462316251363 -0.4437733196321264 -0.7716367674068203 -1.6733532839147465 -1.2428761407014843 0.13526622951430034 -0.06732827763575139 1.0029558017348068 -0.35173797734596923 -0.6873933187070149 0.8115330722311854 0.7734291227428918 0.40318065589908103 -0.014683518678254098 0.1550535761491867 0.6458290567147592 -0.1622512302652609 -0.33552315245677405 -0.8023328621560623 -0.5697662837110775 -0.487401346169392 0.31640349244442667 0.6325279083135336 -0.17867851699137743 0.5114297550536504 -0.33203244074665683 0.08320885260446506 -0.7883989720897736 0.3449993965570547 0.1851431094031153 0.7381728390084861 -0.1202327705911396 -0.283079341932882 0.19115920994360325 0.492971541751157 -1.164083298166045 0.14589010881605408 -0.4319703692651188 -0.24587810783862116 0.8550324115902164 0.15314871387991041 0.2006294765063182 -0.3024491715737246 0.16428533482974716 -0.17927026464248286 -0.02620953633330872 0.27266402813896917 0.3735520848363612 0.11727450792079398 0.16720451962747923 0.3248959372218985 0.038562452796576205 -0.15987412867491171 -0.09868392695629262 -0.37152703746489535 0.025343635109072116 0.04864938869326241 0.09176066715743875 -0.05145963022831873 0.22850842091926493 -0.14753944654939766 0.09404370254480982 0.23631725943654092 
-2.652504746775072