-4.311357330904699 -0.45544288012552747 5.154621564040641 1.2337336215168921 -0.6320034850272596 -1.017488650477818 1.8066821162479716 -1.2578740475090373 0.08220379419655471 -1.703878855764144 -1.6552262482820872 -0.394133897405492 0.18482570232309226 -0.47293571163956116 0.0559343775809618 -0.3930727768661046 0.04899282001716708 -0.10778731667709072 0.18712689800656246 0.4162531666246146 0.8026094938770572 0.22187326433775814 -0.11931702198595351 0.9252125390403849 -0.5535567133475888 0.012917390813737065 -0.8408394471576792 0.5754842801808686 -0.009314410789348318 -0.5524881636104104 -0.20414333407768678 -0.19985638572422504 0.3500389757561158 0.639347757806269 0.05658481264894588 0.6076981112611699 -0.21172377070564588 0.15356443054200955 0.20927100968810786 0.7810070474587434 0.12339636706925747 0.3045135597836266 -0.6147514893296643 0.7522942849814248 0.42356961512115576 0.24675028832464152 -0.3378152709734099 0.3435917948811877 0.08384139465085909 -0.07505679666713146 -0.28902173485328525 -0.0606052687921798 -0.3812707214735897 -0.4416404327739244 0.17902985512023242 0.29149753267879475 0.3428789121090102 -0.17977384469834934 0.004222739368016279 -0.19915177320646912 0.016474386483595546 -0.07894338923686443 -0.2239633880147116 -0.22410866583334393 -0.011101499599216115 0.16445686607358975 -0.2766527694156804 0.2849860131675377 0.11349281492994656 0.07894384264188345 0.039416720932042584 0.10271754134608077 -0.13854082629668357 -0.0397031185826538 0.26248373419600846 
4.649885597355553