-2.651717024288013 -3.2919240232466995 -4.670851360079739 0.5950454504773387 3.003031341437858 2.159559890015811 0.0893008267744495 -1.9795332188012167 -2.643336543073906 1.6589608954152952 -0.8477247835259326 -0.7245767578451194 -0.2605974492731393 -0.5458066917043272 -1.4759310424460166 -0.005033779065206911 0.24352291190308573 -0.5230172674439628 0.8430248857773588 -2.4755611203291052 1.6415317451497358 0.43726042127953546 -0.49562216379492663 0.737754146144642 0.5339904159009263 0.6217384717755451 0.7804806773857542 -0.5025823248563919 0.828838289906218 1.7956599186653421 -0.3000337763408516 -0.3147208677490384 0.3837395599179281 0.7894431036008059 -0.44468383400472705 0.7459256247089253 0.24474288552558243 0.6276244310747527 -0.8113398872736499 0.6633219846135605 0.06467160489219909 0.28569419829725134 -0.7941323244460454 0.10551557024831079 0.9091421226578192 0.4982111004506252 -1.0176335522373394 0.44162823881151486 0.12157093947029066 0.3808039016936232 0.7839469181441096 0.11428740630705067 0.45484729198690554 -0.18251960868968403 0.23049873110574853 0.9406512928087611 -0.18807221852233186 -0.44583637776199525 -0.3632114436204084 -0.011294573050044845 0.202836079806448 -0.13028053880028093 0.4468474489153958 0.37246799492926697 0.1431136564784753 0.40939860523827337 -0.11472111563641968 0.41487555304870605 0.3701222108712492 -0.16370145589222374 0.3429536347856587 0.12412451295231139 0.1293014731000057 0.5859704169502445 0.0780183423980711 
3.1051323217882825