-4.770241538112353 4.8999213237595125 4.330664708990184 0.614121937686744 -3.16536640541603 -0.3724820240343214 0.42010151314747635 0.7493380298407382 -3.587689636724165 -0.07155707850711912 0.6013208767891574 0.9357062964995642 -2.4234566696222224 0.04546692105113437 0.194000805091455 2.2140290982589232 -1.409685459676007 0.5310686615083935 1.3643403432003975 -0.6748746345740179 0.8312192138174996 1.2437465154912268 -0.9701992719292709 -0.17458494954128917 0.11386651957155092 0.8691802141611097 -0.0910014109563003 -0.7190956213888392 -0.8108839583647021 0.30772091111543654 -0.020148202856032183 0.6270059085459244 -0.08464169600858407 -0.5883559890685786 -0.7339616591953372 -0.1349282398593601 0.0016715485359381083 -0.7767249562355699 0.9410626015154568 0.4011371130773098 0.2789741370162148 -0.10939899514575137 -0.3746674302373403 0.08473316810986992 0.6455523827627231 -0.38910475250285037 -0.1733723049999335 0.45753827888987736 0.2475392530248373 0.829403665725421 -0.1296643938088501 -0.2542389905997121 -0.2796280416787433 -0.4417907413258823 0.13766602698483854 -0.05749853791801007 0.4550321358655163 0.1437802530145168 0.3354061163248678 -0.6452153393878519 0.5466076732093605 -0.214251874961139 -0.2466657707191846 -0.5171598417437733 0.17278744342304958 -0.172790773602513 -0.13760357713155053 0.08307333277434753 0.051234441307497214 -0.33795299248739136 -0.0475876635874285 -0.06510143449785788 0.22550050068801708 -0.515779503217928 -0.24216750915228646 
2.6088214565735064