-0.08671763403762611 -2.6670419472497926 7.858037730293073 2.5714532814966615 1.6956915730964512 1.1700215507103806 -0.003732548709214356 -1.060995012112665 -1.3071354948497511 -2.3728323628429844 4.396431714496291 0.4177857349719547 1.7403010380478356 0.16072882270214905 -0.44895422698398035 0.03845324725524679 -0.7169067377891423 -0.1854971463759021 -1.0387745273548876 -0.5962077908983308 -0.35911142005507823 0.19314322302771902 -1.5516592612861921 0.42716048719844607 1.6708763262961277 0.11763203018665719 -0.6619506031751551 0.7753960381068505 1.3874968479641787 0.2565541242261392 -0.39832200034648585 0.03687483559987392 -1.7867794337792207 1.7557086875274583 0.6669244139450409 -0.07076378688135243 -2.1596486260355903 0.5794931212438033 -0.3587368532183925 1.2406381748930104 -0.7987626621100682 -1.1586239315018174 -0.45126608012606395 1.0777886706630917 -1.566092374272382 0.6705295874908317 -0.4792588722856417 0.14192724996837836 0.14888911678671218 -0.6816256259946288 -0.11248105068679504 -2.0522646912074745 0.22973476425916262 -0.7678813215654707 -1.904441565997684 0.980592024405956 -0.03162900471317098 -1.1452528472897476 -1.1805606920484852 -0.28108013445269014 -0.32996210898118306 -0.7977385183387891 0.05425403625388148 -0.2834878999761963 -0.46982789909622 -0.9645408682445837 -0.6914199920613464 1.095723222672705 0.2565508289249909 0.08041684429170966 -0.32358740339612024 -0.625928149849835 1.2190340695995845 0.2940196158707339 -0.476781926294912 
3.7592061675935846