-2.5639005055127644 -1.4739648451456517 6.001261938276303 2.2439517928809205 -1.1532125787909688 -0.7327917353463478 3.809198198661731 -0.4249938726055661 -1.0479567548678532 -1.2857305012536608 -0.7434054789318145 -0.3947009074635315 0.06694776427004545 -0.7961083920088854 0.4550021293911215 -0.32020460999471745 0.013764039852939502 0.4163482706578459 -0.14209977763256376 -0.7312028027540669 1.1481011121865983 -0.13233728895559993 0.096435729729686 0.5086216049038159 -0.40826792051005006 0.5173957195968522 -0.6343252245238653 0.4111160823612275 -0.025014535761172574 -0.28546050352735547 0.01767288900619507 -0.5362381510972178 0.7185873717230634 0.35768744085711723 0.07962198920541583 0.11095552350362503 -0.39363924099313086 0.47589017202881345 -0.010956146136266401 1.1956421642441013 -0.28017374163906617 0.046131827820961396 -0.803190481701758 0.746466563091142 -0.07984208423551531 0.4040544861021791 -0.4218775913730752 -0.16872146738394933 -0.1786315951811826 0.11294230325271554 -0.6704707861188893 -0.8671616155412094 -0.49046188614119857 -0.7478973857877156 0.009206247163760894 0.32480319450620065 0.2576132845772556 -0.4294226840038393 -0.12096954524428946 -0.1805740123212784 -0.2684410815640872 -0.22817664750445732 -0.07775191507212875 -0.39475218821577174 -0.3568979702503047 -0.06350004078829383 -0.13247292982149475 0.4472771496193457 0.050987643749156486 -0.01358899502774645 -0.2946905250599332 -0.04310536722847674 0.11377234488593616 0.12741918238716216 0.26440815052549876 
5.646902428886558