-1.6259712884428694 -0.5875639073023748 -3.732181807853112 4.17215831538926 0.6705338033302919 -0.415907320595152 3.2252721161356943 -3.6583146347314073 -0.45088297178378145 0.18957509114967352 2.212996810817189 -0.6915954021222896 -0.516673098760531 -1.21025854907416 0.5630281659867398 -0.4958394061797545 -0.03406372462439888 -1.0791154609116278 0.49139990861596394 1.285887118329319 0.6598445165054851 -1.3703424180417967 0.09896694346430734 -0.3082837751564511 -0.09572435911359856 0.7335892306552407 -0.4380885169717159 0.08418655360183114 -0.3321769139155989 0.9670374714425205 0.23820426540555006 -0.26071174419554805 0.39381511707991945 0.8820926289490187 0.044316162967960315 0.045045711825166146 -1.1999114250873852 -0.6699834238778838 -0.5557033539581111 0.2420444120661216 -1.4580916753589677 0.6939565449909814 0.5502658257445547 0.08776940960123136 -0.25282379293417767 0.3252199488770131 -0.3659592439637248 0.29163150010424127 0.6927556242813799 -0.2627701615768354 -0.4440491048297639 0.3157430301053251 0.8095488998995923 0.2892443239106066 -0.09809816197396126 0.17157499857010883 0.6300283271668672 0.7059184194975096 0.3725789741699612 0.22095389996945106 0.473220081804683 -0.6207504531607929 0.2194171797901111 -0.4375160594048644 -0.3182450323837624 -0.37382595716753503 0.22027799241829726 0.43733724107154204 0.9399240515424457 0.011614727257651884 -0.07399079587246356 -0.30913495577222583 -0.8728904292407657 -0.2778116486384321 0.23627563048699773 
1.360275498043046