-1.674966625303579 -2.5625156213694043 -2.8978236791728875 0.6033546988757448 -1.5568124825734673 -2.4065815336322585 2.155118628262649 -0.45534720229883985 -2.281726547005839 1.44465487809918 0.45604622256203886 1.12995681010539 0.42018769662451233 0.38634629278396077 1.8849932998702412 2.2711193920848567 -0.40752894212754476 -0.08683290926265358 -0.7039383926759286 -0.7032208411696259 1.329446378100471 1.7606437891368167 0.08726248158355188 -0.02053312747370606 0.11575267902621478 -1.4158880755199692 0.1631213170212436 0.9143592824675758 0.6360497719628897 0.4754690717253668 -0.22434285298573464 -1.1720350467062486 0.13834489101489178 0.0063309572009385695 0.474593540599951 0.019552593679931785 -0.1382372753487145 -0.21566258704609492 -0.302230350908094 0.5361190655742466 0.1942251706633722 -0.1251819496380394 -1.1546770497473473 1.0155112162690876 0.2715979507288434 0.12605724788985395 0.0308647267815646 0.2827284163304584 0.3949513320448601 -0.06741514873456891 0.06917776812187765 -0.0863900244319214 0.07643047478579862 0.2834188141720105 0.19583915741023475 -0.16745030251683002 0.5844857860508768 -0.2841504414314229 -0.38759123227170994 -0.0939002819984962 0.14052393972453894 0.17464920830577052 0.20100008685240212 -0.4124360690321973 0.0659635557811191 -0.2043030651059788 -0.43625226916159826 -0.14906734977393682 0.2241786015245386 -0.04520256341537637 -0.15160303888688065 0.1189198289844299 -0.21389773554773872 0.8317538747217988 0.5146417187685512 
5.097134082503446