-1.6144013602869678 -1.6836877969587616 1.2897310970278708 1.5188695595106456 1.6442818127064085 7.715322725395628 -1.6957180530284057 0.670212351136489 -1.603911330143963 -0.2665729957521197 3.1148088074939833 1.791967378737322 0.3014904879312511 0.08174089409998216 -0.6792232168733146 1.891044104966056 -0.49655424444845475 -1.9617068221180851 1.8142366185122096 1.0143155781769466 0.7489666401377457 -0.5530534077359484 -0.8330507614874281 0.8376203830887715 -0.3138286791338953 -0.6666706669220751 -0.7232192884617804 0.011863169187929224 -0.7079283285916262 0.1615079026411376 0.28031941492889056 0.46337869861242176 1.0964370366800933 -1.0098801199035894 0.6896546259935757 -0.39449776542327436 -0.5010779093089757 0.056193790010077516 -0.6918897173578156 0.5585926227709593 -0.6157956537098144 -0.5054597090841786 -0.9758763336557278 0.5123256872762278 -1.1110030581719315 -0.23535596445888535 -0.9086944807286699 -1.0715603314379327 -0.2737067775142506 -0.4337395043898831 -0.04970381898154101 0.34786361086639606 -1.0340064735352936 -0.2539350093314503 0.5658835779698398 0.018907652822323873 -0.6615256120194789 0.11133890130615293 -0.5029181727899347 -0.03681360918598166 -0.25544829141432673 -0.39113580113286445 0.23444903752228663 -0.6610706820746246 -0.5521378960584824 -0.38895088053259 -0.35027953305344167 -0.4167366250873824 -0.39226959178325477 -0.04554147988826822 0.011219628081397377 0.11869298348771158 -0.27302939292249073 -0.2305203717113169 -0.6491492604882171 
1.8046147211768893