1.9322841341724786 -4.432801467877474 -0.8795379489226782 1.7849468184806394 -0.5730583781574459 -0.42715281320000864 2.049046119123885 1.131282432511076 -0.8154143921229786 -1.2810609070238035 0.4596777247041841 -0.7381579671218153 0.43241828146156125 -0.1023328539037629 0.7802013770778431 -0.8040688754980597 0.8351231208801285 0.411723271549707 -0.08296159667054881 0.2353841658168967 0.43410501007281144 0.14324104220746148 -0.14444502386668645 -0.052081976979550526 0.34436092073849217 -0.6139687128897825 0.019763168620684335 0.23237054174982955 0.2279792082768507 0.05694037484709505 0.36272174655012607 0.03437754715180498 0.36107452832017933 0.2663533282298144 0.20829777996640653 -0.011764025623125063 0.09918644816907832 0.6410877622627342 -0.33315843332360656 0.5396605254392364 0.35864964374206665 -0.27066728423659 -0.4253443222922122 -0.1969404005811748 -0.028423443400483306 0.22799775728831295 -0.5924379611898267 0.03784967707784903 -0.125539300710112 -0.35058464887336727 0.3159048570007605 -0.13686328669577247 0.12749384856969187 0.17538317536578799 -0.1838602740904732 0.1028458469638659 -0.21215323655060486 0.1918732105696061 -0.15837256687512205 -0.21111439116451 -0.2084378311847964 -0.1372000423385944 -0.2144324879682859 0.08374982533744857 -0.07794982023912143 -0.09084019519195516 -0.12163654261413476 -0.11297414191128868 0.05177728754184174 -0.3418409246377894 -0.032731390681677436 0.050648449137367935 -0.1963113802560626 0.10771716338053211 -0.13687687349085817 
3.414130985755935