0.9193408056145564 -4.410807598414204 0.07496204183474253 3.2161841637108335 -1.2241435070897406 -0.9816778920926446 3.702677353408328 2.3549481737854823 -1.210447635030297 -1.8170049300467084 1.7255076141625314 -2.064571968714303 -1.466461103641095 -0.19614085194626785 1.5814637889606606 -0.1290357182925862 1.4705556041487162 0.3948392830510893 0.05287235381052646 0.5157669480959604 -0.017277827981084126 1.4041888550600945 -0.22960141255634225 -0.08974083219912754 -0.31745639857498675 -1.0243441692917763 -0.25580608855419246 0.11148372940348694 -0.25733109416507916 0.12685003622055138 0.17004097815158187 0.6982589477986406 0.14177507348688978 0.9856610116162232 0.5874714259859698 0.4660354088151222 -0.15614561346076206 -0.08919540657317127 -0.5303262798433145 1.4518078185216252 1.221046529507259 -1.0831095368015256 -1.2872090229983668 -0.9744575747811373 0.04854241341718696 0.41848370211877806 -1.5475503983334995 -0.23307811345469398 -0.02520578875174484 0.46975123871706015 0.16852047238957302 -0.002126898009977965 -0.23965299942576623 0.364372009330726 -0.2089562419045225 0.12939837955070094 0.2613282170300929 0.9129449194224065 -0.33872439373765584 -0.10968214288716499 0.09224407427481623 -0.5762313743692573 -0.16119310665539416 -0.28048560694745456 -0.05818365958877045 -0.39288740532897115 -0.5848712532985872 0.19623433515922384 0.12756561944360167 -1.0310506231816363 -0.02717600111527574 -0.14659207100359312 -0.23115442829972965 -0.32121237515124934 -0.2348159815114234 
5.788491922884845