0.29336312250067564 4.971668717425311 4.264385392144382 2.9376676628077334 0.163915072718265 1.708526304407817 2.7208807501421566 2.0988173432331214 0.4516958464072758 -2.274354153388997 -2.1442530819543375 0.5227581193005388 1.6157122854623975 -2.558437730330932 -1.062433771084648 0.7457662052366427 -1.274021067564243 -1.9167206227654638 -2.5635870398887057 1.1491092460927421 -0.9244872645388929 0.6441125311066426 0.05125205797425858 0.13697813526786243 1.3779975727233356 0.3608906279684556 1.3800023424288912 0.46612598694665686 0.0773971859854952 0.22346842478550694 -0.11341335469275088 0.10116758799271958 -0.8343973242068324 -0.17598117372282174 -0.5422076000974762 -1.4641877562486618 0.654005919271966 -1.434405548613419 -1.7885461936827225 -0.0875026735860146 0.32847856878159637 -0.22537920430432573 0.29454960063715885 -0.0827452937848745 -0.002418232826481237 -0.7189000187043647 -0.689515474241881 -0.5332885425999092 -0.34749095580154366 -0.526812602679692 -0.3436978325089499 -0.11486100181580228 -0.4049049463832129 -0.4461531912649712 0.04508324350316173 -0.01707687433706867 -0.9030147822523302 -0.7177717060648932 -0.06357155627692597 -0.2824922098068192 0.30600986526638546 0.24412061980353128 -0.13376366219280011 -0.3118655050847397 -0.5431649605898357 0.1653141909141298 0.10258268144586907 -0.5691004747779083 -0.43039096341462935 0.08020288156107801 0.10635987188250523 0.04102149772332231 0.3118266629205033 -0.3188179312730556 -1.2570798454161438 
-2.6432250121794376