-0.9285996226143789 -2.0383265148802483 0.16607489025887112 0.07927966046018131 -1.9366718459933354 -1.0274137981339595 2.8916793939322085 0.6315420845801294 -2.6724713753610994 -1.1305189224759347 0.377835923398673 1.0814993895678997 1.0815467250619903 0.2844294922990623 0.292488074956189 1.1718969114184261 0.6466343819920064 0.1027451560359082 0.46365841904050514 -0.9028601986428918 1.9014712622503698 0.07717812207751185 -0.2907538672392516 -0.6250615675129987 0.1640724918425317 -0.26806488809580614 0.20286792501123646 -0.046513213924805175 -0.2608226816741978 0.25358484965888817 0.40577713641029195 0.29911765965083736 0.13942739414941097 0.5574746276112299 -0.6881240570850891 0.25097255984177835 -0.4590259546431521 0.3057445952359418 0.2850197816211858 0.5687465333162331 0.211087236270118 -0.025570902846486998 -0.4067625208060359 0.2225351275015382 -0.33427922088562245 0.21277291748032778 -0.06459487679174336 0.05093520340600813 -0.11441755203168158 0.3428656748822397 0.4601340862894874 -0.14067880166074975 -0.29847796846635977 -0.2001152614742297 0.1691314511334541 -0.19214876941426567 -0.20025984002610467 -0.18325199111453291 -0.27103834187306897 -0.7305133497708065 0.1541358349293768 -0.23867472274956575 0.025041901384874 -0.1893450098623364 0.10063859171571139 0.011386373019721382 -0.20250112251198865 -0.2589384743341493 0.37807927628346555 -0.257221780541358 0.1850231861591502 0.12024449103921592 -0.15349478359645474 0.16771646026133719 0.24302054559918274 
5.288563635599637