0.08608416852485945 -1.8743177135342108 4.990124884574046 -1.0705814261160538 5.924788880775543 -5.924680126378541 -3.956771103212425 -0.38393123095242254 1.2789294716219661 -1.5431628420189938 2.151575250395115 -1.0860384388310944 -3.124423011614718 -0.5949861073569549 2.0728188932876006 2.1166406970158937 0.9146036555029284 -0.7397411819319686 0.706782674492882 -1.6146743849109408 -2.547584614507058 0.3546394632592986 2.427958339592605 3.3094313853674584 -2.134152581756612 0.09439040999742754 2.314943131225318 2.13785174166429 0.049259309427506226 0.3053017585535432 1.0913321140535985 2.207396634745729 0.7873413196548018 0.0638303129572324 -0.9329178754488365 -0.9839180885507931 -1.0224675522068154 -0.6012009540603949 -0.32557570838589733 -0.1867604698322065 2.4831007142757864 -1.648646636733171 -0.4698492337597453 -1.6018819354021618 -1.24407096127675 0.040855357670950276 -1.7336727486131371 0.8816588978284049 0.26035804707144006 0.08500461569688822 1.5694252040300118 0.11865527726801284 -1.286751046518996 0.46318598870797767 -0.8250656825226372 -0.13145729316207122 1.28508901637182 0.6580950208775088 -0.28137813508017084 -0.3997623206119699 0.6878696618131531 -0.7752850658965257 -0.1282180094748484 -0.6004524955239658 -0.6730491048908142 -0.9437076231712771 0.19356523033672435 0.9517113169748785 -0.2239758677654542 -0.35938214917501243 0.5477833304644377 -0.951944175430091 -0.17928443739425937 -0.3050235636200944 -0.20163827844770665 
-0.18256598482560837