3.9826182246250976 -5.7467034904747365 -4.1300417551759505 -1.5853840404257835 2.5334466399934987 0.9163422485349151 0.46361997460881454 -0.5612120700701834 1.4503361642646961 -0.7892316265751749 -0.6847181260064349 0.40487788770260513 2.1362698555779076 -0.14100563220147688 0.04436646841527048 -1.553793247978519 1.0811647647959681 -0.3064275689878284 -1.1899983332046848 0.629397330033566 -0.18790907981551674 -1.1524433996349492 -0.11673575097556244 1.1307026308907984 -0.03609843455903383 -0.7955195182445617 0.13243248561426987 0.5550520323848229 0.8772822235764097 -0.556929842641389 0.562141389338716 -0.16783052266198406 0.18835686288173892 0.22494542221376768 0.2068427802471756 -0.1905531106541014 0.33308958091815705 0.559596418748421 -0.5783285190192577 -0.004565512534694172 -0.027968018360141678 0.3622300491250442 0.5849534539434564 0.07078419702605299 -0.20942986172274902 -0.4816266587936697 0.3063311389727397 0.5333745530236518 -0.4109513400797655 -1.0059264463734916 0.06128633549402873 0.18120722952643897 0.0011439157286618484 0.10063184982355845 0.2246132891448681 -0.24261043133423155 -0.12513761435150694 0.12278284035020848 0.18490998062184447 0.06361905057133384 -0.1365767390502794 0.37318055158553376 0.10759694924083607 0.7058661483862847 -0.07945329201257029 0.23428025366297195 0.15876187633853034 0.00870617660119477 0.2789395784065474 0.07821127951584177 0.15052548573291663 -0.33130307557711114 0.008145179573242053 0.21038399269705477 0.0010663190378940035 
-0.4482580887322979