-2.546961480928287 6.24291632828179 3.7599577079858006 2.708766564750147 -1.883447676097294 1.6814526734530626 -1.2994502935227374 0.26126402483971656 -2.0650196738960904 -0.030808813467722573 -0.46199687872839335 -1.0031120971380265 -0.5641190277124386 -0.33589639353448747 -0.43319530151852836 2.5174015463551296 -1.4823045122116116 0.5617166102324848 -0.8474807718523206 0.9252693839731433 -0.6188691579229193 1.224703507694294 0.014154411681224999 -0.03800114303783292 -0.061257613954456946 1.4711410863607521 0.25901712869542043 -0.17148671680826438 -0.09429424411096271 0.0406952016699493 -0.08783450372074943 0.29296316773540104 -0.5748045679446085 -0.29987219581654245 -1.298957324642831 -1.0666193426527621 0.5009207932869664 -2.5817311255889126 0.026387031074106407 -0.22271134421471017 -0.04834543797589826 0.4773754651050174 0.22573240541504214 -0.1286473517340927 0.9031320258740356 0.08490241381238028 -0.8018766189331266 -0.12714954521743865 -0.5927068315282349 0.2723784200265354 0.2076401825499459 -0.28924064905057945 -0.19936704812725842 -0.9446092262655312 -0.3555017637447403 -0.163144909263494 -0.450019879470371 -0.49055622716987163 0.5375330617609759 -0.007792820274912071 1.2731675854332474 -0.2546954014971761 -0.11463726589124812 -0.38356074123906037 -0.37548977861102073 0.022340905034602815 -0.4921391397764902 0.12721113726635838 -1.0224990221434993 0.2704330576672207 -0.04341814227421231 0.22593906574274236 0.6084976421131335 -0.12562170442547893 -0.24375883023342093 
-1.6603729260833548