3.6984297597712086 -2.6185532994272256 3.051652791685742 2.08506106913857 -0.7546538445221718 -1.4441737262348338 -1.054125122639367 -1.9459433845251448 2.2514491472635307 1.024222680394326 0.2587596730962668 -0.6647115339756354 0.2284997272292443 -0.427345032038765 0.32772592274163187 1.1441137392292848 -0.6204513130477187 1.0018898300658197 -0.06490210409364243 -0.24807510096094762 -0.4252865837913281 -1.0054508431430138 -0.5399365246726712 0.138781742978908 -0.25116371177518776 -0.37150583856754427 0.4495315900116465 -0.2158863504596541 0.08592913214832751 -0.29468867871327403 0.2675022109801947 0.5703976484460437 -0.12849496220020476 -0.1795055121258578 -0.5087856116538413 -0.43703161395910023 -0.22696715134712303 0.08041802513578637 -0.5199094557876811 -0.33311338049986416 0.3287654396408487 -0.3200403666030134 -0.142603741118944 -0.13501961626376352 -0.16411072288306938 -0.02483341261493329 0.047777245305345904 -0.33670969303644677 0.007934646018459526 -0.4104605266372523 0.05796767506335548 0.015626875435307757 -0.012289398024293826 0.02766649490632033 0.15812296583211033 0.4028149511190807 -0.07583835175199032 -0.049213169794471594 -0.07815773799576732 0.07865132149003243 0.24923558604477797 0.3157161964577591 -0.06643754809030725 -0.19516090757748666 -0.06737122595341656 -0.37483822652176607 -0.014238399092490486 -0.23360346700511556 -0.07433752222386428 0.13303009432735086 0.04653289886524075 -0.26928667587161237 0.05459291521345473 0.07969621679175333 -0.3432848236059596 
-1.3066384009027865