1.7903248959687503 -2.5396508706712355 -0.10856568533448907 0.684261731564733 -3.18064329671469 -0.8249575449536719 3.3648168901283855 0.43361218446161764 -2.175834890750493 -1.714570004147375 0.38694162821409184 1.0187825687717953 1.1682129735231035 0.7452935078559181 -0.5129328036853333 1.1790439110145048 0.636045935077771 0.34587653142193386 0.3263257644652489 0.05357722597425421 1.1807917711336366 0.18692890449471547 -0.3964358329709012 -1.4946736110726944 0.3423376186597645 -0.7211684858732705 -0.39539372272190265 0.19335620719999436 -0.3701865799894127 -0.34182487635426506 0.22267021098894538 0.30219465178084115 -0.05905506173709868 0.5228020382497132 -0.0034813122334669266 0.4816211407989179 -0.2932844783909391 -0.07123893958949118 0.6074766478039787 0.2754891108393319 0.44957195748648604 -0.1947443910635763 0.239496069476325 0.42317481591124123 -0.34848845031792386 0.22029393206711595 0.2667153249446364 -0.5977252583520792 0.3866176262313188 0.21637936986553627 0.11372854737092303 0.10644377034187125 -0.3003407722702925 0.26872169733324774 -0.02983955007320488 -0.8086416869972709 -0.5510963599670062 -0.3691769245869269 -0.5993945615124456 -0.44912621151378174 0.41388118742961627 -0.2609256165893665 0.10690688177287053 0.11649951970915173 -0.3190480121229265 0.14597936684019588 -0.16340399993224455 -0.22398604085481014 0.09943885354385146 -0.28263763817039494 -0.04331185706247448 0.17257006559202748 -0.16145372075639738 0.23737753237576284 0.474658480649734 
4.0926840171173895