4.350200180663052 -2.4834974221038344 0.6379400785335663 2.8056641013638344 -4.755724259366703 -6.21803582138934 -0.2478749215886129 0.19787042739565797 -4.154954377863314 1.1488990451904029 -2.3654528441541913 3.0533125144025917 1.4608200151396704 -3.998765605470238 1.0878209664142915 -0.1473139062531037 1.4490807023899568 -2.5752924510272535 1.8101420738330978 0.7815664363801992 0.46117741236126086 0.9296288571487588 -0.6030924443038781 -1.0037094175766594 0.588768969658547 -0.6341745784029664 0.6859366383426762 4.0432631728770945 -1.6678982220062089 1.4420647000762714 -0.6969278405108922 3.4039587696707065 0.2760914425027394 1.0235133431478247 -0.9307492182806365 1.934703625905104 -0.06735443183603734 -0.7982250917032478 1.3968391356970913 1.1885526627817637 -1.6998879132893456 0.16351764595271548 -0.05132271774357977 -1.65944551755993 0.2906293311172947 0.09325253262936117 0.41531612940574214 -0.3682715719601579 -1.0253619114616992 -0.7571215591869296 -0.8064760480252032 -0.31420365227052577 0.5409523156864224 -0.413636266088516 -0.11286565455514497 0.5189129360280755 0.9522663217615189 -0.9014198372201125 0.6446552138251409 -0.09971353142726852 -1.5029851816693478 0.49739453143045675 0.9654231379910132 1.042606439104901 -0.9171738429753615 -0.6070346413405678 0.12726376888629443 0.2699834274562597 -0.6816073270058712 0.11263546472351707 -1.257291930475675 0.7799602891476435 1.096363973520051 1.1012615736116955 0.7546516539380459 
2.4869509040072435