1.3771189180442764 -2.649913939298811 -2.9267563715171256 4.259590915931797 -1.2908055193725465 0.9657221550509103 -0.7814902476213921 -3.117671314016088 -2.7957478546684826 0.6348492576635126 -0.8394505167678111 0.256735788959765 0.2544503171211241 -0.43791781170028204 -1.3825953906284905 0.3681161812757001 2.170002834220058 -1.0282723028246554 0.4193359757960749 -1.0054476429836796 0.1351737585437136 -0.026352315504326596 0.9278644400572947 -0.03333307352204916 1.3632873147555709 -0.021867894917981662 -0.06645661101007991 -0.7195893578229916 0.7293476046534845 0.23462793990439362 -0.6162822126711187 -0.19244778338070123 0.4918379462489031 0.7097294508960668 -0.18763180477734592 -0.2588641043463492 0.3128952608304579 0.3435454610162259 0.5204213197771708 0.1591679916306643 0.8024677095952503 -0.5871385600018049 0.1239516048684337 0.6598030369391327 0.5467347901331661 0.007414011711891155 -0.4728676980003375 0.2501205569504886 0.39612184826981856 0.4156664494566106 0.026866293117855322 0.07894471713410127 0.059371498743829354 -0.1434687458877798 0.26133213883472417 0.3101931536835653 0.07695509599455203 0.29773962486081296 0.373801090256058 0.033430999528867314 0.1588730253658122 -0.2989923321468433 -0.1995391329398961 -0.13602116958441823 -0.11131102455006159 0.39642578981823245 -0.5234988412020702 0.25786096408010695 0.06084859972011958 0.04014301750425958 -0.24712773467689877 -0.14738968455568707 0.1836853247109819 0.41840523935965346 0.37527157988262616 
1.5382480871857913