-2.234224288567276 -3.6122993559413743 -0.39317773037338544 5.463084616337747 0.9752022641007283 0.35819468812301913 4.226955169278714 -4.348947145177359 -4.330953576518864 -7.510419050138959 -0.7053951270427707 -0.9388201289832026 3.7323487681072995 1.065297145450034 2.382235206668282 4.490016633339016 1.6063372807074723 0.8560193827454785 -0.19797075453955193 -5.019948911518754 -1.0911946900701448 -1.7301555031343159 -2.9596320376047087 0.9305414661226592 -2.521891690591378 3.282344321553879 1.658186706429023 0.8311581188124202 -2.7300761121715116 3.9668470329802634 -2.2408328073943746 -0.6773387478729201 4.18627353729271 -0.3681852490288158 -0.17115566029390092 -2.318176573444934 0.9494538089551178 0.38286527734651066 -0.28347102185375955 5.272441230957675 -1.590299869843186 -1.0746531581743601 1.573663720584857 2.9042489489533483 -1.43160062686287 2.919564591099975 1.1442165667187416 0.8870812715568911 -1.256299437035246 -1.138451649572472 -0.6251474424874135 0.2559697226460076 -1.3917163040713068 -0.6100958898314857 -1.442132342017149 -0.47454354016247496 0.12890152394478382 -0.06748025046852524 0.9180122384562746 0.12672819399837487 -0.8020140357392419 -0.45244316949661145 -0.40831941382997705 0.9331405944161307 0.23694733347961994 -0.37171049595407823 -0.8737425801839722 2.7581765178613953 0.500907513047657 -0.6215999286436826 -0.005739028277945701 -1.0930211591746408 0.006382167480380119 0.2686918513416847 -0.06315892680533874 
7.040041842747933