-2.575020197239855 4.280546368915701 -2.0652951951582184 -7.054385687630393E-4 0.6396692551336569 3.983430578752741 -0.7533930533289288 -0.8194470549326571 3.954435340951325 1.8226844334911063 1.6521138349140059 -2.768063940300383 0.49360365993815924 1.0343954385499265 0.8971799320530064 -1.7257861405463981 -0.5617257732304486 -0.461723376963308 0.947245389682735 0.7084788318450647 -2.1404442652117472 -0.33163711276157737 0.8384262171625748 -0.7993034171813689 0.023319633693799302 -0.22892461900387018 0.6611883263276983 0.13419339110503037 -0.43091911215204953 0.2008118476379993 -1.6883502232954082 -0.4142102172660409 -0.5382962145189862 -0.3286301252926771 -0.532278783021828 0.05666843211734607 0.6120645739122486 -0.544853936256784 -0.04801746118053951 -0.8824459805135785 0.3316227214733045 0.11518272863015674 0.20463482295428892 -0.7047345538598437 -0.40337796849829743 -0.2621663953839488 0.5943909415454856 -0.10652957270310694 0.3861164558501111 -0.4526174976599052 -0.6108785359398958 0.13839988058989472 -0.3701695425624774 0.09272242526835853 -0.18285281885950866 0.33168116288602145 -0.06488233246950748 -0.4886364603134248 -0.03792853444856027 0.4930536384486395 -0.07212405638705738 0.3991974159408603 0.09798181982791765 0.18272579723421073 -0.17520649679207131 -0.6013200790978677 0.3380180262961899 -0.17555297263260872 -0.2712172100694773 0.04047375769853752 -0.582512086557402 -0.385864044913499 0.411521082386066 -0.4381158339332156 -0.07201953220702317 
-4.759087913602248