-0.4971210959334087 2.200093562299683 4.572195099445393 -1.0392639211325863 -1.7024314822406628 0.23881568308269707 2.3685054933300638 -0.7250391460199261 -4.834090393677762 -0.04151974867587249 0.8976588995257698 0.3922944659116787 0.6152654192977216 -1.1677550821528182 -1.5244773416735462 0.789395392002487 1.0012644766720764 1.1789994967496966 -1.5170668232884903 1.758980555430392 1.239611045891662 -0.6552366809033752 0.4232822078112889 0.04635255313934855 -1.2221940705669538 0.38781734343646024 1.934018168487095 1.132606092033646 -0.274185844613558 -0.5634174624509324 -0.19121146997140528 -0.7645557542128582 -0.7089102615050742 0.5443292737016024 -0.3875816311312922 -0.7427945526957805 0.06043754202000612 -0.5837235654340124 -0.8407294085968793 0.14060869455464353 0.15560315400756786 -0.5072180438890478 -0.3024111588411173 0.26056499072997097 0.9824993000866836 0.2568830496606256 -0.6079727548790332 0.5019238091344681 -0.2593847704076597 -0.404426453398585 0.3682760246124056 0.10706293242407743 -0.26573008851323554 -0.4208571659937441 -0.5009990790768386 0.07314481116029337 -0.5262689800794771 -0.6217062740342885 0.10724921919095323 -0.24746106228119444 0.6327061122763045 -0.29740577671641477 0.3349825641716604 0.3206383896654127 -0.36913129935321903 0.42588554440716364 -0.2015549467828458 -0.38408705776005647 -0.3767410298365469 -0.3967690556132636 -0.14387063571317543 0.13966629500262323 0.452760873451971 -0.019412986730358295 -0.20566417802830378 
2.2152710031080938