3.0825391255092427 -7.312171414661188 3.4822614684729007 0.9324761589132349 -0.6401789398465336 -1.5026151142834085 2.003758461698828 1.08152265856098 -4.816960197003344 0.46698847345963634 2.135349622295313 1.4252889770489157 -0.8806463428009521 -0.8608075877157906 3.6037768209005017 -1.4123131570565581 1.244284827301349 -0.8821610476516077 -0.02533103014140814 -0.4106605629674197 -0.953216335183861 -0.5219181857160373 -0.6580435871298177 -0.9817328343109122 0.389733242819434 1.1562363760943217 -0.5634322232657754 1.0234579496672804 0.0720480203142339 1.081611841756072 0.8111158635519241 -0.11990114016232367 -1.0952868234734527 0.8674727134821612 -0.9295912046257583 -0.13351213250835992 -0.007446173366018327 0.17141333148002047 0.0352646102043339 1.0185394147341507 -0.0980852426571025 -0.8593491404605262 -0.6120696305898133 1.3277409450706843 0.07891923277608215 1.452817753977203 -0.005355446946832432 0.8224281711319348 -0.8607444527769891 -0.4206278537497641 -0.1988659510094164 -0.24443837235307597 -0.7100522585542808 -1.0522716160982404 -0.5342268718199026 1.0730313862412608 -0.16027950236510236 -0.16079719255639924 -0.38421448066048697 0.298513751104394 -0.16059182436530517 -0.1601888637632445 0.36180759043375277 -0.46549220942731295 -0.0694248568296676 -0.21265515118765355 -0.38004948614300726 0.20869714231222547 0.17695813299939578 0.09562547536537186 -0.15961347634301287 -0.1243270785840499 0.10021188469034753 0.6224706919761317 0.03728487676809311 
6.6565310633259