1.2247959643234667 -0.08216085733978984 -5.493443827724492 4.1055145454040725 -4.215313177361206 0.05066527102713969 0.9446971943441138 -3.029577764991148 -2.0143758567828014 -0.15177862824837168 -0.9531167985543183 3.192056934806855 1.6208761924897468 -0.5636820880212263 -0.04993140588275635 -1.1512324540359253 2.4198388063674185 -1.0149333107060292 -0.3298549974220265 -0.3299911408856004 2.4085188860638236 1.526647016229644 0.4381231970320651 -1.9970383987451688 0.5466053218381877 -0.4916383997375242 -1.0636201288672364 -2.7442170224211924 -0.6001178739006171 -0.3863227048099844 0.022607743135329525 -0.6859168156571828 -1.3963047737302265 1.8276717382112844 1.0346699482121473 1.0491378119807755 -0.17097404294321927 0.07903828454499395 0.6870312178479878 -0.7412069365518557 0.9152557119002065 -0.1529375412388746 1.0259334317316637 0.9697485274682891 0.6433660953711453 -0.5397522719158531 -0.4359056862825654 0.3562320475221288 0.3129171571752502 0.8003605472511341 -0.5878635589687315 0.9215931452945344 -0.6853610940466064 -0.2944677325995414 -0.29607937869326273 0.43499505407980826 0.1156843493668413 1.5148958177735021 -0.016157176966450526 0.1451329413387321 -0.2435090885875489 0.17055218029219255 -0.6379557853709247 -0.25591121602697126 0.339434941604864 1.0265342350823479 -0.6365558853717409 0.12049768365774766 -0.02124215012605818 0.3063224436057823 -0.4867141654201631 1.1223715001846297 0.5182692818660439 -0.7464435031788006 0.7550124736881662 
1.6553420020884682