3.504375515220829 1.1802320689650925 0.4795174205034487 1.2107124185620857 -3.547703864442463 2.838989905059411 -2.7396513878030424 0.4740886417656881 4.125135712448547 1.0584881288290047 -1.5170437885242023 -0.986077219850468 1.504746757478102 0.7688149375641794 -2.385604994403924 -0.49654157318155445 -2.4362748384942923 -0.645715481664506 -0.016727718708946515 -0.5179269073987032 -1.340513660441183 -0.8139569195226255 2.7389894246170727 0.32706790775695493 -0.9089754366057556 -0.7633259450767932 -0.09199830341459865 0.6881209769381169 0.28541789354044617 2.233212955302407 0.7058904057275133 -0.648704883318144 -1.0054152228877773 -1.4554969305028413 0.3894344505082312 0.00790078285938095 0.26065385722585205 -0.5897974912072055 0.7420377233964468 -1.4199727089794263 -0.3467891698813874 -1.4111590993980534 0.870840889711254 -0.7279527263759884 0.4613141123713248 -0.2724688495823462 -0.619621812960555 0.3239521373442551 0.17222903161691042 0.43963622930260854 -0.9252780121850457 0.34215464650819194 -0.20301897769147048 0.4835493201043561 -0.08855832349513951 0.8142122189549609 0.6028605289858169 0.1557004522430141 -0.7539467156610612 -0.5124045382662813 -0.26627074458717415 -0.1283990598297438 -0.43839600124500266 1.0564213597586452 0.8295876428475724 0.18816015845387296 0.14059685613654452 -0.39092717747839967 -0.15589723325632393 0.05477761349755654 -0.17295883507574467 -0.37535333074938204 0.389972427338928 -0.40222612628888793 -0.33074149900819905 
-5.111807557914322