-3.1590413775394666 2.9026459382568444 -1.3740498376961081 0.6909727235304374 0.979994190083147 -0.5951908073346379 1.8892265065207563 2.4007828508764044 -3.8312659970306804 -0.3446096671561383 -0.7855366925779912 0.5399860897772628 0.16287013421340618 1.9743964197905721 0.24488389407371614 -1.0676170360524184 0.31376030684132683 -0.49681498287947046 -0.2856332794412688 0.12863246724752259 0.11261665727368264 -0.03976222503771165 0.33426827355304417 0.8356310852586427 0.14337375905380279 0.29340007640738963 -0.2383163847653033 0.4060847130071894 0.19295747408389355 -0.10592388588674809 -0.558261573605831 -0.08661796682831854 0.437578461257913 -0.3767049693803092 -0.2354752717693375 0.2778108293546536 -0.2758832647335697 0.009669691910782374 0.3380857678239081 0.24248093902834822 -0.2817707778245309 0.05644369127978856 -0.2292684087722437 -0.09051816584153205 -0.3136143999580118 0.03393457716770476 -0.40339802036149347 0.1281152876298206 0.0283358936792122 0.3115287522416418 0.21489394027940528 0.14695843723236218 -0.029242580751400182 -0.10402508491827214 -0.4420724095768679 -0.06396833718915718 0.10416634462185437 0.06377643527442711 -0.15167919043934006 -0.3445889640325819 -0.254995839438563 -0.5207053075327218 -0.07406582590794986 -0.1547673645511798 -0.16547395390173628 0.19044663948358365 -0.20149465938909333 0.29343790684652826 0.1308173140995214 -0.225735763682038 0.04773683628592068 0.14201895146409815 0.07836251794962774 0.10472584770201121 -0.019718348678109787 
1.8168906201559125