0.6894776278970021 -9.232332108301314 -5.960417617985545 -3.7214483388546484 2.7408370567688376 -5.070045835478811 -1.5145850659593094 -1.114805853473353 0.6327021595938795 5.105616039608563 0.8762879646438901 -0.15338083630037236 5.7629557636593445 -1.7275869782528208 0.88475928941887 -0.14385296132065672 0.11069438910472895 -0.9626152649776303 0.7427426475110703 6.085498924620676 -1.98700708757287 1.8674460599368303 0.9580975268448695 -2.436662618459515 0.34299287968926473 0.1461578994962709 -0.4188511990625936 0.47434451103876596 1.4587419946852997 -1.3627669707040209 -2.1605589143872277 0.49952717227433147 0.24162006702958005 0.6792512375797561 0.30282464246533547 1.341613474123801 0.2654496575833406 -0.9308261734214741 -0.810418258471839 0.04355817063818357 0.7878731480059036 0.7712104741522554 -0.04945790100189429 -1.329592516953753 -1.375889488808322 2.071662346963768 -1.306317419786522 -1.0111058792567127 0.34424445266625847 0.06853258107597537 -0.7577242194166005 2.0460142267240427 0.2742859317076378 0.6829418895340699 0.18170484813220422 1.9504873396171838 -0.3572991883769334 -0.3352313531963018 -0.7895686898657951 0.5614586888925757 -0.10164918980425786 0.4904061095740586 1.7579605001378111 -0.3430216044100787 -0.1614936711471323 0.7416375281262132 -0.9662429992249423 0.33748119492329665 0.7537483777480858 1.0062077887967638 -1.0361848744973856 -0.45468551016732783 0.3755363204585522 1.0379539942381455 1.5890816912107475 
3.8714648870230657