1.0393495641996928 -5.177016161433794 -1.7935896722819091 1.1236317045830218 -0.1581902495090275 -1.3159121929981907 -0.43832457194054086 0.8759522043139687 -2.5282307020213857 -0.5146554184875489 0.11147121663752707 0.9392712696945336 3.1594856178088513 -0.18288967381632992 1.2599994936856507 -0.47715661005494925 0.17242734897287937 0.40839390104821505 0.8462295896011298 1.285696925680874 0.6449592357945377 0.8375376912659833 -0.4300592125648088 -1.2061299323058965 -0.2932071098627656 -0.25865172987769486 0.9247531762514645 -0.4488207682175572 -0.9322486962327607 -0.30836573186033556 0.18050127212433317 -0.8491937679539081 0.2979962229359282 -0.02172755097412371 -0.12542565821720333 0.5477488901151806 -1.0727355571159523 0.13475604301410726 0.09641808488677941 1.069828839230766 -0.2278450397589664 -0.6171650672661536 -0.4620715759644267 3.534060702033437E-4 0.4636668071684006 0.7469893268978666 -0.008577039649988322 0.608511852080487 0.8690009521736264 0.16643317569257704 -0.055914654617869264 0.17267262729313038 0.06265236753592483 -0.3235912527213705 -0.07570956523870859 0.4377595585595519 -0.2744484338369595 0.5683380296878846 -0.16065973140804654 0.001658891655570524 0.47411351677329083 -0.4175149051219438 0.24902653667174757 -0.4838935540835802 0.0733062677754073 -0.3885135537511646 -0.39948560447108106 0.1592230544476662 0.3016632775299878 -0.09728203134005142 0.43917776565339467 -0.09705180457528534 0.032719323596433786 0.5664846522965485 0.2720951001271173 
4.631955618890823