2.5476129834073324 -3.712919142177496 -1.6080207122090182 0.24804652188178067 0.8336927888921521 0.6057024353793414 -1.375379175758817 3.278605807345887 -3.2410976116753867 -2.0455899720412187 -2.6259885037814703 4.9344402882772656 -1.3186066931653495 -2.449101557192896 -2.7210162164931706 5.794359316552489 0.7926322625636721 0.21844168517300128 0.4094791574236193 0.6253568170324866 2.461943582248018 -0.9075815107647011 -0.4639854220151152 0.237522739482691 0.6521781147255914 0.12797945899933558 -2.320748505643496 0.9220866032514612 1.0909100022674398 -2.758202407159871 3.110971640522269 0.6529850954319035 1.3077660844777061 0.25467483971210525 3.263373802705334 -0.6501585353421142 -1.4964340749759675 -1.1861661892048365 -1.3012448095714235 0.7972238562076999 -0.9640387830419906 -0.6139051171047016 -0.5788608151538177 1.2459771876482775 -0.8324155080413331 0.5256624561720569 -2.4297154505504035 -1.3539990893753822 -0.8255270737276383 -0.7396285241268528 0.854861450898655 1.026466265647392 -0.590505386163457 -0.5528954999938837 -0.15562996489374403 0.8168306432824599 -0.44450226833285233 0.7985046415321575 0.1800798844831508 0.5048216295773833 -0.9054324579793436 0.023904311872340267 0.12305314472742662 -0.6702322329224413 -0.6225950395843244 0.8746559266001912 -1.001395994287959 0.42891508336239337 0.47519368183003863 -0.5311395692302026 1.0394886828004348 1.4596357089793641 -0.24608650850065147 0.4447466996095658 0.2499630391994641 
3.0695258112001307