-0.011724825006936612 1.7565361851578984 -2.019259652404685 -6.152599352062482 8.247328421382274 0.18998016817953722 -1.5820198372490957 0.09317516256315739 6.018444478161204 1.1436830156593594 0.9862795128490565 0.9098653142727677 -4.266234852661047 -1.0181573819966865 -1.7267014201560116 -1.2145917643941422 2.976463623305206 -2.7431092559605887 -1.6121278503122323 2.684038425348097 -4.13657668574605 0.06395752836448665 -1.271112367756998 3.3402022313946773 -1.719042700469957 -3.596755918883355 -1.5427504562453256 0.6819118530108399 -1.1508844049427265 0.38625670274365875 -0.9120405572761339 2.0855297034287577 -0.4925526029156564 0.8052986343147954 0.9022496597354992 -0.4110677515077157 -0.6176463373860404 -3.6927345142409953 -0.17287476004768149 -0.4769321160943303 1.9982121331595095 -0.1143599331329288 0.6814720062416293 -1.4054919434789594 -0.33097764501658444 -1.0850090254185956 -1.5891318926567908 2.596142264002454 -1.5218408401573411 -0.45450453986551764 0.3379017666347055 2.041804650971255 -0.35384769834071483 0.5994121138837436 0.6835414384330958 -1.0983535275841845 0.5979101666266096 2.3451894942157763 1.043895229983001 1.6831818083184147 0.8733768105445321 0.6320422725617607 -0.5928101410165225 0.9327617489848293 -0.757995856782976 -0.24609686063314862 -0.555018776057981 1.527027779617045 0.6342914298454676 0.09186928784996799 1.8016096810429034 -0.23609526679554982 0.5214698587811903 -0.6477233796058401 -1.365557869308673 
-6.987873104151445