-4.826181044141713 -0.6854709039244344 1.4601242636351852 0.12556454358950142 -1.1041097770385249 -2.22638205359919 1.1062140997314907 -1.043566721115441 -1.4824478269250214 -0.15672020057872627 -0.3049721359567124 0.5246162742585113 0.19784577852368326 0.5276425455558736 0.7907234408008541 0.5670006431138206 0.9428805350165643 -0.04298326742320177 -0.40845289228625836 -0.03812971911943992 0.7307997158203984 1.1686427730998066 -0.5612976438611419 -0.20915583883908315 0.1622020300649269 -0.47655836982150374 0.1458425406820422 0.6031626237041127 0.4871520983487489 0.30014615997057825 0.2897416337578682 -0.459014219102697 0.10768011574284533 0.27015220054402844 0.055548169667978084 0.16711883829858598 -0.27080667588003215 -0.10666099258094548 -0.05412200327540719 0.6176351017154683 -0.05889289884295504 -0.05354809056882532 -0.5352739279255269 0.7643854554290743 0.19625292370702213 0.18611747561621372 0.10574847847642849 0.22376347613781364 0.1865996092466424 0.1638284117275285 0.028260806799904364 0.3445518805135037 -0.1786706073730904 0.20610875497020878 0.3523147695782815 0.2543506414386666 0.37938510149224514 0.1609520701144621 -0.32279621942291015 -0.026748041957289734 0.1777699892975532 0.09469921447617083 0.27706101512617537 -0.3029946096756313 0.01992972726799345 -0.14968946661314178 -0.29014577725799723 0.09061314709574196 0.13819018772731312 -0.15929113373950732 0.15935969320674448 0.37093044163066213 -0.2702433605756279 0.3203908221032226 0.2553262005995183 
5.49282877160708