-0.35415049247558095 3.808259593451984 3.8859802609407192 0.7634493668408451 0.662501516672811 1.2127202725409894 -4.006216136205551 0.04606426046702883 0.8578866594080017 -2.8207536417181824 2.1608635494774235 -0.5558285881346985 0.671161442296769 1.7006744398055857 -1.070546497866914 -0.29706737072327744 -1.4947200704995267 -0.7954414412229521 -1.097859157332472 -1.636338800704994 -2.27444954835379 0.34007599875843064 -0.1192867060110051 0.24970682801387997 -0.5560675092980117 -2.017316677960274 -0.2830224023836401 0.0699202039941953 0.31464957698791085 -0.6927630931787493 0.666096744948419 0.5431087798430525 -1.513132763498978 0.3692438424987272 1.368275738064628 -0.0818326361001715 -0.3584209359063427 -0.08728427903786051 1.1980386925591435 -0.2048899591399287 0.6405377026540284 -0.5978126015450889 -0.5947116932846059 0.1946882495170814 -0.6330829810139805 -0.6673742189463266 0.6191607985942369 -0.47792321472914384 -0.13001708493168995 -0.3031653740915293 0.3804544166546596 -0.5355161429126226 0.7256101683905685 -0.5188811308709219 -0.48696267711560615 0.07244837505382068 -1.0948014074424512 -0.8520488418751395 0.11531755562751067 -0.2585945916317504 0.10264882793807673 0.7457252532669904 0.5751660042520063 0.832389095714183 1.1843098174451003 0.15377260384003572 0.384110607922589 0.26107295112235807 -0.2892133980620899 0.686861325178481 0.030840688131608007 0.5412959566098305 0.9062113912934924 0.2802607257359258 -0.5640662163072669 
-3.9553887094466917