0.8211264316947826 -1.5154341077304423 2.527679809690297 5.090040654357864 -0.9013857786292272 -5.483635314282818 1.7192659099574232 1.6811401897654281 -4.342563028177331 1.2585986005794676 -0.023060250981980612 1.0701046228718503 0.9781248332562997 2.812162640925032 1.6622013107610125 -0.26598393189072067 -0.3837791288181731 0.5448630723026517 -0.2564867974842122 -0.49564535413985045 -0.7197614034022601 -2.107110405075711 -0.7271656638526919 2.3642975275788585 -0.7505537384447172 0.31245501081484695 0.41370625288793356 1.2782352271481736 1.3033411625034477 -0.4809808264243892 -0.30920523657501864 1.2781154457687443 1.8938753612824542 -0.9723026088007154 -1.0347240765217878 -0.08595974800893857 -1.4737955833100491 -0.6601716405323853 0.6654349113597262 0.6356313571500993 -0.2462901226473572 -1.6900697115650014 -1.1602151534000016 -0.5646564258994244 -0.47609599096421973 0.7412884832889592 -0.7091755626347558 -1.1908203271531688 -0.32891730482841897 -0.08175285176232916 0.5628300579983165 -0.5054763667607796 -0.10256112417154961 0.22731171920676782 -0.4849220126875047 0.45866517833575526 -0.30109811568389755 0.05798113007200495 -0.21979770127718337 -0.9137647812391912 0.32876015630308036 -0.5361592761305289 -0.31319530842061694 -0.6274076396050637 -0.8669367522869111 -0.2550819839421734 0.30301941375690955 0.39928567979185076 0.3516003485157623 -0.25683640037293765 1.43033930581063 -0.6270888413974248 0.15750902087040602 0.3746869010303093 -0.2556533497232514 
3.633824409287953