-1.9318735308432737 2.262088258201298 -4.706894384378267 2.408235398527052 -1.626416484859901 -0.5695324773612933 -1.4784226584420912 0.9841269268994052 -0.7573889009904797 -0.49417198965583486 1.996535873888866 2.0965505090883205 0.918591135616556 0.17056666538649232 -0.6050470620034247 0.921225509870848 1.0493231923392756 1.0764467340828858 0.005456131615623194 0.1434133404322067 -1.180318376814487 0.856840382422782 -0.7139145821933278 -0.9233453973880139 -0.21236403197634068 0.4155804421043872 -0.22126361246919213 0.0490670540146658 0.4576939770332893 0.8671813319490587 -0.23370030311981108 0.32046421880956033 -0.31888372816222377 0.39553062913182435 -0.6645501480761093 -0.03585375044224415 -0.0672942074784755 0.45229272186931496 -0.9649755700569234 -0.4232622538034445 0.09668955536574106 -0.7312823582302856 0.1421865932913171 -0.5371230645490902 -0.04166377679162425 0.11890450904829819 0.3466886438106333 0.20939130634796757 0.10692538317465812 -0.06646617411652972 0.8539052778759348 0.2610133327629031 0.27607694875592803 0.036827615826585794 -0.201612039223346 0.040143440567166566 0.18384506397976205 0.15709305306523078 -0.05002476912192073 0.11030123589846898 0.016276317681373664 -0.4222069826784405 0.27644451011053445 0.0599373647074217 0.2051645615124072 -0.20042983049875246 -0.3939628402882978 -0.037287629944510625 -0.35003363832591977 -0.04494284900270963 0.24298084587666746 -0.11326958616245858 -0.20356416258624016 0.040990357955140666 -0.10565319886259361 
0.36201226794915514