0.9059807411764094 -1.578348680964652 1.0416774395253476 -0.29418947195866924 -1.280920074129117 7.18734841190341 0.02749121558839046 0.04556813013410453 -0.830135649258088 2.872114450226812 4.885629535700324 -2.5340163857948257 -1.346573399732416 -0.014326477796127028 5.587240969998646 -3.8468817449711383 -0.30118253939161305 -0.864722180333756 2.6796314827392615 0.15749393140215612 -2.95622977857551 -0.2649380904212556 -0.2871579406505815 -1.3973578720269029 -0.4435860440428179 -0.18630484521121568 1.7729905663003598 0.5357616941212512 -0.28586754968841716 0.38950385023684864 -1.2464764131716677 -0.16120413999358485 -1.3626437290340212 0.29496275101929287 -2.810442853188464 0.5913546841087062 1.8402632229633373 -0.8970079645602469 0.8004462233784094 -0.7140640325938441 0.8920916850335757 -0.8450165150485222 -0.32698565792153633 -0.05941112489382823 0.258310100617035 0.339650443870797 0.6550591388413607 2.290093570853608 -0.10957658914530524 -1.5835733688242304 -1.055336335856675 -0.12927978279279323 0.024294190928975445 -1.1590548048822393 0.18161078349985094 0.18169978034406478 -0.8237435952166088 -0.5376853416744856 -0.6574768665657226 0.30196160490218293 -0.41320880013036626 -0.08039752052431756 0.002340789649612953 -0.8258827872776245 1.0644651485268726 -0.623162720071343 0.877042403519098 -1.073376068991948 -0.26076062571643566 -0.3016021230070551 0.3331686987041737 -0.9653341779904878 -0.22883713373557402 -0.8578368718040775 -0.1951309702541056 
-0.6000070589190686