-1.0056524837934546 -1.2625659956654847 -2.834900976830391 -0.26824700407860635 -2.1289268118000257 0.31768180944003976 3.975443090121317 0.06016448427372634 -1.2230871201560531 -0.8963047172984084 0.17168064097581648 1.0329557831610723 1.7863239882705022 0.4217951927733118 0.10135618226389553 1.1203270573450652 0.5789847576049102 -0.19195426829335904 0.016601434516696822 -0.30109644322897167 1.8556760426898045 0.31229234979606946 -0.1484083989835641 -1.303419546557415 0.32712352844884196 -0.37234614514241765 0.1870767741330125 -0.5416357140671971 -0.5358237326385548 0.3404595272294185 0.23666463877816296 -0.3321048597103827 -0.5973748437174237 0.957525841070503 -0.49291801616683006 0.8328773967900975 -0.5687824169753001 0.6291143209771939 0.40050340042209287 0.3870743666904122 -0.011955656190758668 0.313319825583133 -0.05257880536767645 0.3252959684300226 -0.3714511119889121 0.12407042250473166 -0.0873042458665212 -0.5685066933562466 0.014930192800750669 0.11182422911726186 0.2747871174575979 0.2917562414031057 -0.30320104361695654 -0.13098610269956396 0.056833901604452064 -0.3623350876872587 -0.25185297209934754 -0.21687461298134866 -0.1700780205557209 -0.3998590610277494 0.18630947140578533 -0.014440648061618211 -0.09340664785627506 -0.05743561261745117 -0.0299441907609459 0.07457418855960168 -0.42773544380093165 -0.30745319564855866 0.3424273809847193 -0.2818778549825586 -0.12150948289975072 0.6285049228500155 0.0861430036365189 -0.03377452705301487 0.41963103811338 
4.158325921987353