-3.406259119809903 -5.160173746112662 -7.256877915876061 -6.922532042012531 0.632169721395984 -2.161218833967295 2.790557464014565 -3.408143670995737 0.6947195675098428 2.69527958615375 2.8764678492477733 2.006723467212576 -0.2559847902017909 1.2919785563683872 0.2507915964547762 1.0709068386636367 1.3143201719164832 1.2364933895847123 -1.4817725707056295 2.8156266794090112 0.8222881540758413 1.9198836004725126 -1.5700129078544833 1.7375938749951638 0.2136504272799713 0.6147699928434006 0.45740602316619516 -0.9323269850394269 1.8763470109042937 -1.2712338173219042 0.5026392567937628 0.24747366236874357 0.8701058391554386 -1.8842307458757666 -0.915159131471394 -0.82600600786254 -0.2703255362410274 1.5719797669482773 -1.2831559769893766 -1.16835691742479 0.45826881937130215 0.614856650705168 1.1295777621730492 0.20283586324717806 -0.09165578926226003 1.1267611152990944 -2.2123589564912187 1.0197320574868731 1.6464569460160474 1.6339309394969541 -1.0254376899988253 0.9049846588091706 1.0593763862111585 -0.12768931833543956 1.3428675345817862 0.8905632592261059 -0.8791711790604326 1.1487133906941183 -1.0957790977266908 -0.9348322683273632 1.033281806075309 0.18717303303089428 0.9714606667464163 -0.8347872004332075 0.8261237840750463 0.0476167615055505 -1.0451564455211098 0.6335617573159473 1.5113560608074563 0.22662606134099983 -0.040514010424674285 -0.3888165523454077 -0.14631949484661408 0.6156514541179501 -0.7456605467331294 
5.243214087410244