-1.5610798095996046 -2.255303569951213 -2.7964362828351135 3.291046599868563 -0.8559078889842038 -1.4571664694442183 1.9957162781791 0.5720156117998173 -1.6031946533574768 -1.7408484750421769 0.7646734704080405 1.7350218425798052 0.22047072695383574 0.5160371218774424 -0.18495064276714457 1.049786967020702 -0.3056973122068627 0.06920532400852214 0.10002209264976464 -0.22565367791080135 2.2099298330279393 0.14674573840893035 0.29375023356877517 -0.32175259852191557 0.5649878693781307 -0.5531733609876759 0.5968313317246763 -0.11073856732476384 -0.577891360441885 0.36711807510947697 -0.1863484911627809 0.045240316775436495 0.09325361076953681 1.1324611384628531 -0.7248682180055948 0.2078589775079991 -0.3691154330854174 0.2839548937027505 0.21017822583618856 0.36531754105545455 0.014432757465191529 0.30265530274033026 -0.2749377736664508 0.11516791672447324 -0.509992655926705 0.40656144451717124 0.07537013832141007 -0.41512105084462114 0.06805221623641038 0.15986463783467056 0.36969308210300467 0.4160922518526835 -0.30944124808899875 -0.16078873805550287 0.1097020803223907 -0.04672294025068169 -0.3999395874808998 -0.3194228578818955 -0.3394486730658689 -0.6155654912822959 0.13494547142167806 -0.3347877095042849 0.21697231625999253 -0.29347076761869634 0.07217555637033515 -0.0014105973743859246 -0.30225148427146575 -0.5576797259135021 0.4559132521311719 -0.2768080464872328 0.16698517699155851 0.3110201144387796 0.013996985412555275 0.2394282773383258 0.5072633601865104 
4.87454345563343