-2.6604505824273854 1.5697959336526708 2.52059745909488 1.6923467795778406 -3.3474035160786113 -2.3676694593048424 4.070796929481751 -0.5403686036584276 2.038330708639581 -1.612310196201711 -5.34452044078265 -0.6862711455760993 -1.934714112190875 -0.19982798060143922 1.0931138328277714 -0.6844505241645042 -0.4834671856501378 2.178476017461414 -0.977923430416699 -1.1119656300274579 0.2946656541737438 -0.3508697187761356 0.8321558954144365 -0.09241722922583212 0.28459576283488197 0.5605692226992124 0.20986469013076572 0.6492530632851025 0.6557957847222857 -2.051291744758416 -0.013401777930460435 -0.5866625174016278 -0.47241834806342164 0.9035715542170537 0.8335648938502931 0.6993031238813062 -0.4340500278435662 0.022492826171165214 0.5865123483466689 0.7761311277015415 0.1938443260639336 0.8986066512904669 -0.13370131479984382 -0.05942537187100627 -0.0728225289787997 0.4150351910467409 -0.09741545863687473 1.3490644758983008 -0.212683314032296 0.4938910335498049 -0.6047957875733614 -0.4498576875734761 -0.5032037570673163 -0.6627767357349986 0.16858623962570607 -0.02940363523136008 0.8004850121456337 -0.583023211096007 0.5300856186543901 0.27535759470271415 -0.2482512384833973 0.3740486495480496 0.20099852352795167 0.014579227489660451 0.21433980707805256 0.5473683300816868 -0.16814610610192912 -0.18816108550760186 0.7044368328931435 0.2940944304711014 0.16055474035549847 0.1178158956155117 -0.0744470378622202 -0.5030739439005016 0.31851619732859693 
2.447246564340445