-6.27224411502545 1.7369603471167703 -2.65926938788427 -2.2810132507299783 5.35772206535017 -0.21080585510190097 -0.11301197759161918 0.08210397123226265 1.8523069739930214 1.1522916421999758 0.5739030214348274 0.9566923260037639 -1.0939255861730872 -1.171563855824338 1.174044123874677 -0.30760251350217227 1.4921060583075292 -0.2982220850238466 0.3223321614680179 -1.4370344605978718 1.0800380816119142 1.3348620714114905 -0.08212380690512316 1.5561198181019515 -0.32513610335448695 0.11225379454899041 0.7373727620409392 -0.5537197403882282 -1.0786696259695039 1.6739624049600574 0.15059360107544123 0.43813102206932486 -0.275209123306043 0.937069277247923 -0.008513104320146844 0.23971100777660512 -0.6741434231493451 -0.6606021980127652 -0.529959259200316 0.377577939310951 0.32763681415475787 -0.6292821896057228 -1.1146303357225396 -0.8817835211780327 0.2667117049311606 0.18829914225633904 -1.706121989819187 0.8660167696240395 -0.8049468165805524 0.2916066405309922 0.7789937612502709 0.13658400422419092 0.3178750421765078 -0.20891399037458472 -0.2306531651266835 0.676063276997855 0.05051796463879525 -0.24693524666098976 -1.4561448927040357 -0.14669706711724254 -0.015566379930944093 -0.2700584011681764 -0.13281271736291989 0.46582383376647135 0.20610793436233982 -0.2536494313561278 -0.22962772032657164 0.7486297199397168 -0.16368187423996483 -0.13944906472555235 0.2861619959803246 0.30380448344925415 -0.19928611693731718 -0.07198988495524455 -0.3139872814667426 
1.353548266198224