5.329539571340093 -1.596649004675399 -4.059298535578248 0.40085450224506447 0.5153238036205812 0.4075521771309998 0.3228330987686343 0.43625638333738836 -0.34903781639372466 1.346257756393493 0.4461819087884882 0.538379667308108 0.45671835021191043 -0.412258118579386 0.951977073708936 0.9391733088516243 -1.6784257609937616 0.08463897019939859 -0.278243610190512 -0.7008146731635687 0.15515568933815604 0.1391454602025225 0.9091495598447921 0.22309348727815465 -0.16082151733604932 -0.6630457817188832 -0.051489766124561076 0.1684303981034282 -0.16083063641347406 -0.026539995789664275 -0.6674545297421861 0.09812153595753288 -0.10176087310083493 -0.12903528921237983 0.2901566324240815 -0.170903928048025 0.18672931822817207 0.06142198827957879 -0.4997472715755378 -0.23777059106511034 0.20919491303623705 0.0520507720680967 -0.054571190183795526 -4.5716079425828227E-5 -0.5792185256153927 -0.4365150871628035 0.06838907684787254 0.11575860321191941 0.2466301245266803 -0.1194506157895559 -0.10572281166448644 -0.400870734540261 -0.05704673654690115 0.08032341694360175 -0.31131802073940884 -0.27322995981006026 0.008733874950387494 -0.18652603158380016 0.2132917729699792 0.21589548232761901 -0.1237975805539899 -0.006983505504366105 -0.17472564988297817 0.09517960586497798 0.14332741837006407 -0.09264645505803074 0.10479783674230898 -0.2613047927932946 -0.472374073007601 -0.05672189077504756 -0.20633843793048873 -0.1561860345360256 -0.2476851015640291 0.08986529268742027 0.2168778189147696 
-2.828150761554992