-1.8423194353269858 3.5305034732428835 5.3922739014923415 0.7282061386485031 -2.9965714531539733 -2.45918199738635 -0.2644285545972216 2.5851661681233087 -0.7104015061880391 -0.659693458639209 0.1838436870009007 1.1015740305320472 1.7545121245287223 0.010280395480375626 2.5519130969581134 -0.10481910732155703 -0.27740936919145587 -0.06609099669718232 0.7607496262865732 0.5974641197582897 1.194563942571908 -0.19135300891335127 -0.5275210967182313 -0.3863072500014805 -0.37537954037336596 -0.16338363835129077 -0.14523860396863353 0.6812401986870691 -1.860707326192581 -0.7608432059895098 -0.2309503993812846 0.5167718630376898 -0.586547957059404 0.8283149949036391 1.101815340091263 -0.16745879876847497 -0.010842268430585333 -0.7419879399404118 -0.041266393047007965 0.17562953066991382 -0.8732405295377216 0.10797142002628234 -0.4977826790841324 -1.3683205572177708 -0.10575222190961298 0.08668658246000427 0.06852027301042946 -0.26801223881831115 -0.7790990663428331 -0.810080957511297 -0.015535042588779246 -0.20749992483967591 -0.06976552681289225 0.142432619657409 -0.09641309374480997 -0.3896426719464425 0.37925752981135785 -0.1892884084883773 -0.305548476751771 -0.06713307568642028 -0.6328876122840226 -0.03975674216435915 -0.3682131480251816 0.12388535872423379 -0.1547582638131879 -0.46571650949777865 -0.12116520304385556 0.005906470883900006 -0.4016750833494111 0.12496990195914856 -0.5617194319981687 -0.1206007415730701 -0.2577795908128505 -0.04707104342315266 0.05070835835719137 
1.5342874620153957