3.6624129919090467 -5.403284145983363 0.05375175049510761 -0.952981671201916 -0.01822053248446931 7.254833921484147 -1.5954568496080277 2.4481340407923273 -3.7527063222947206 0.06677439074034378 2.1209809615478528 3.046345964173882 -1.2575656071528951 -0.6551103418069364 2.9336343407979273 1.5384767962957742 -0.050532414492314326 -1.030023344612116 2.880922899743735 0.8763693712005324 -0.6473213205233419 -0.8568870625591698 -1.456280769575616 -0.6157647256101182 0.35911122419671326 -0.25597744867833716 -0.06561221062546202 0.7433857508746464 0.6390597764882517 -1.5854146957768491 1.1900301035611949 -0.5476289152215968 -1.4030913672087277 0.025595889093116747 0.5995036288644133 -0.74043316311873 0.7739719697356615 -1.5398537134974217 0.18849832046043144 0.5004461349760468 -0.007564814001939195 -1.1289880249777084 -0.9128994155473864 0.5278328828904725 -1.3043881294177289 1.1675247699608526 -0.8459669400045624 1.1569193006616685 -0.6424149758456184 -1.3367486184305153 -0.22013036300720518 1.0558814168621855 -1.2232492643929114 -1.7190516623675163 -0.11084917171237653 1.301980107632643 -1.0846203529018181 0.026969453902521215 -0.3681102882481071 0.6630596281389691 -0.19572495029013615 0.35198688495668295 -0.008119252507646113 -0.8828077061026367 -0.21358004021284607 -0.28382957695861166 0.15253132359867494 -1.0906116433842734 -0.1459745170760096 -0.13121729821731173 0.69016149853851 0.2582125625650008 -0.1079958421450166 -0.12149694109611306 -0.7388136462611485 
2.232735068861383