-3.3462615446471506 4.388460948173306 -0.8551504206976963 0.8660444535427649 -0.21909384605076987 -0.04631997305723845 -1.6840404639698794 -0.663135927275961 0.6024261589631603 0.2786346206950553 0.0733178857253376 2.776401712741894 0.750162898957539 -0.2401407599931103 -1.7051861573700062 0.37462346863216905 0.31943255313334085 0.5042935440411213 -0.029116145450727438 -0.5214866807160419 -0.5707401577792083 0.2902589746182508 -0.34197430379022453 -0.14902255075922716 -0.8873069721441038 0.6799069917589148 -0.13648435875974602 0.22410688670828555 0.08412255539413202 0.2382779188032507 -0.21830514079560748 -0.2759254292335133 -0.09493006894108058 -0.0313745259881007 -0.6561281392343915 -0.03552605324846381 -0.35206519586068513 0.3079833054338712 -0.21917897197285743 -0.6416628416540717 -0.39398323124881 0.17420461453646746 0.2910277487090614 0.0856831628660838 -0.060065461103202544 -0.1899140675132303 0.5724541418040189 0.43891774453119814 -0.05968006859855743 -0.14218992748434833 0.05973666909096423 0.00911422032734606 -0.015317115975548051 -0.43597178374934 0.23058501087731087 -0.2621414695051436 0.22187529309708423 -0.32765726007910356 0.03363383025794672 0.16731416515502726 -0.13872221034326215 0.17446699224747764 0.10888502723292601 -0.10226553974950371 0.09615336293490591 0.06581584082018012 0.12058758369238637 -0.005480721363715607 -0.18617519924513637 0.46528534575483205 0.08973140179188518 0.035978764429947685 -0.12504707202563659 -0.052164038796715134 0.21742599869168186 
-1.4184977913152035