-2.722969386647648 6.445754791361182 -3.6296096886634954 -0.1268012236347129 0.012907251638294426 1.7345441093823801 -0.5861645421327619 -1.0361189610501045 4.296785265900176 1.8264413632746432 3.3611621458354612 -2.9634342325553895 0.7577329590786124 -1.072447667804883 2.6533780380072267 -3.993137383045295 -0.986901690175273 -0.15413173670683822 2.955461501661675 -0.555374644765877 -3.7302827173914466 0.4989952580082062 0.09478587180765086 -0.39801610191943565 0.20507557950882127 0.45125746776425757 2.5999911908967386 1.9941345442746135 -0.017201450847907918 1.592408351115849 -3.94651860665775 -0.3142700529507825 0.9340036740903304 -1.0970265634869083 -1.304558433193022 0.8891789429928947 0.9453036515252795 0.07064236328485873 2.4834107654659054 -1.878189443840716 0.1863067986154287 1.2055093988809762 1.3207641352229653 -0.9157848057410911 -1.4761542851092897 -0.22745641183483523 1.7909847002472186 0.19038589732415923 -0.24344303868667494 -0.4240148064664493 -1.5524288421969157 -1.9885053852360575 -0.27819097825262995 0.9994862264722735 0.19616984699071816 0.966227348570897 -0.5110581874957496 -0.6394246148642218 0.5348619906501975 -0.7716031867259345 -1.1700921375454527 0.04541287576310926 -0.8758895336007122 -0.49780536149579824 1.1767150259748502 -0.6685961452879723 1.122988135234816 -0.8139206684015607 -0.7188670747654982 0.6365147991276728 -1.212339023176553 -0.9219522592468179 2.2039816578807514 -0.9855725587684927 -1.9734100914621775 
-6.885589620086977