3.528045772377994 3.5939170393789572 0.9536341028872286 -3.8063116644007597 0.20102273543028248 -3.173135346935787 -1.6313582665190465 2.184837298960232 -0.4419210156796347 -4.256812439120928 2.875087804906909 -1.0861459053892892 0.8532484028244246 0.128376224317377 -0.3426448675023732 -1.1266031707371589 -0.1007942506337125 -0.9485486823250677 0.6237766730730243 -1.7483905365721315 -2.2489963110297366 0.8946934286453245 -1.0018657511407483 0.2922308633556896 0.516780732156158 -2.726945730392131 -0.008764939779441233 -0.13032450048187255 0.7259870322903681 1.2260000732502214 0.4955501963681586 -0.6199861889368873 -1.8110615832377501 -0.33809798510203426 0.9451696890900366 -1.754353732479043 1.4935602479623011 0.6597475531926927 1.058682862625402 -0.5649745867782355 0.9139338515718761 0.016726555294756598 -0.5081431127804535 -0.2542669292922488 0.23031077430665992 -0.4214013616642447 1.1868541033604871 -0.6780255520767184 -1.3936213630773604 0.5430934199453266 0.03334429263551897 -0.41315425797285404 -1.6847954766965447 -0.0795873441986828 -0.08513076936859176 0.5864888443455316 -0.24512607381080753 0.4117016667134846 0.3355629345515355 -0.05148852137930076 0.3984133981507469 1.5476471653319825 0.7550168473144339 0.6532466222540596 1.1975622151634369 1.0461490779006317 0.7529706069413525 0.2065726523629172 -0.6356658727976908 -0.16756528574150886 1.0650518076214437 0.7691721704590126 0.5989664890100213 0.5329393602048703 -0.5460642125021075 
-5.038623225852084