-3.8296459471104587 2.0280543748406696 -3.0695425026156684 4.071051928699566 -1.436680748711069 -0.6138892720561051 1.1639765926045222 0.6846856835924164 0.1664869518067036 -1.7730835712226014 1.7717588516176708 2.7454108632776513 0.01856746221139427 -1.093998023855594 -0.8371782658879153 0.5891796938135854 2.0395616577691253 1.0266519921458193 0.4150872485375715 -0.5753657037277025 -1.3535126377171782 2.4054025907681114 -0.6251637194564236 0.3072323821429622 -2.022468072473742 0.7760553992342593 -0.10321426471042627 0.7104534790517989 0.262379219009682 0.40358905837484504 0.16580038575502376 -0.010074119240237933 0.010346603881421751 0.8884072283246484 -0.392430877154565 0.5878225030100835 -0.8531996545446126 0.39043243632320646 -0.7928110119572878 0.1123536095606934 0.7856382259948033 -0.7775455924817904 -0.4660032344945376 -0.9840355058355696 -0.21438158185487521 -0.5964099360575105 -0.5308120422056863 0.43093281701198316 -0.24100324432783723 0.0045861298652042914 0.5487583668235838 -0.09155712340403602 -0.4552482954681939 -0.339104057039545 -0.028235441277566525 -0.3161540896517676 0.4575144904474266 0.1715492061515717 -0.20509091875240595 0.06431249141323442 -0.22882726159319636 -0.4838761563234215 0.02839143486598883 -0.07979905594667794 -0.21111837636115488 -0.13010024884649762 -0.19358960509438794 -0.025041441815444432 -0.21650230459249817 0.17526140128158832 -0.1272218688890152 -0.054893743785295934 -0.13116924317196432 -0.1525603760353338 0.2548463775389706 
3.0170055986416937