-6.296622665672013 0.8497490656883091 -0.15764168363675057 -1.5050681135012423 3.169277647502281 -0.9136246386060944 0.3875982797681137 -1.4906611098460238 0.5426189346476966 0.14101868660618438 -0.468930652247869 0.5964844051478875 0.7642561867126203 -0.33888559317882033 0.4454981585333261 0.05828529487104456 0.8585225119876503 0.2883837504543286 0.09808256080464284 0.12758729130077845 0.6612394015896148 0.17861231033983815 -0.5235302414599518 0.49898348353145017 0.6002356243694675 -0.06988637519401003 -0.31718557032105554 -0.012133174356557655 -0.2880473191456059 0.6179927704713624 0.06701053607212126 0.05759845505169163 0.0020041673941281757 0.3699669374336977 -0.1386406963058937 0.1731248736751928 0.1944353360874246 0.09156785290587238 0.27330380387677855 0.5241309500972628 -0.16038037332477345 -0.1353173991110041 -0.5637574906936639 -0.1353766013523512 0.6000275667676868 0.2740358752848847 -0.39895702450229137 0.30889240680264696 -0.3275809370694346 -0.04431839513608932 0.32186958998987225 0.3467846926107443 0.22335941696664452 -0.4187027141397555 -0.07026677781113727 0.6432793786671883 0.24251036238578644 -0.26624386788972915 -0.7617353555453054 -0.3091798352124045 0.28882671539972726 -0.1492842395694452 -0.03664164192623409 -0.08641381817233652 0.19411820518293713 -0.14204891240539327 0.07314302407260048 0.250394700437777 -0.04647920077227516 -0.22538277151880606 0.06628375346483989 0.3117342474892668 -0.1881886325011302 0.08089234417841629 0.12339226550366758 
2.790612292728251