7.654858405662342 -5.787905824848835 -2.630940046940537 0.08063941111331685 -1.2506953715412275 0.7419549238882448 0.3903711545468864 0.8549462863093575 -3.10215453296449 1.5754459245919592 0.6200317788851153 2.051972129417065 0.6049983111408723 -1.7402731377989875 1.6303957254008472 -0.41190603018375227 -0.9386614223883307 1.2545380625305764 -0.3756568029866654 -0.5529110060169171 0.5318454041880027 1.3703557222221243 0.269593906136398 -1.688290874225645 0.5528121801588712 0.20751888935187524 1.3222337221019744 -0.8446114876389915 0.34178314713126 -0.33917050907373336 0.05330687005641532 0.6311920723416944 0.699953316033891 -0.5093037990313056 -0.34188718914357286 -0.1893887605139496 -0.228368801961574 0.5274236518476049 -0.16501559582611103 0.28470163083010025 0.3230066200407265 -0.10244760162531184 0.08814360962979473 -0.5324632164341557 -1.2013609257673064 0.34276519912308956 -0.8244044199065848 0.24399087497592453 -0.07854193259733294 0.7792943121345917 -0.7659370884726491 0.008932824943952145 0.23834578033804266 0.029681615393288157 0.297580911887421 -0.032636960527646086 -0.610747627574902 0.002882365989815616 -0.27436068299825456 -0.5489100138400407 -0.10872537066943672 -0.16217228073921508 0.5719377028028265 -0.08934377550781641 0.04342856395928171 0.08127282818066889 0.08975372848831975 -0.27816005333744903 0.14691490308981248 0.24900812059983024 -0.4287701093333044 -0.30072279226028786 -0.27375400654241 0.060374247603795395 -0.1395867838492535 
0.8820483519179833