3.849733038594738 -3.5155745863802497 -2.799059574993971 1.4983821927647445 1.5137915800026416 1.962143822181907 -2.2974624403949884 1.460598880140066 1.880279990618824 -0.4582794328615133 -0.2751573085388573 -0.08073395851722295 0.05954355176686538 0.14991219391221838 2.6881918951186385 -0.5469224110319614 -0.5587236469734334 -0.6800771230106105 -0.6799426496952806 -1.2230356760114989 -1.154786262031413 0.5923877719109518 -0.447309399689377 -0.03810241601958842 -0.08353723386144152 -0.30365338457322005 -1.4461396460152725 -0.39462891638363995 0.6459821064517697 -0.10726619706028188 0.09571972409959062 0.5702617063507406 -0.6395870606145582 -0.35965734426427015 -0.7556341619272804 -0.2161544672569997 0.03582927686992729 -0.3740407176541122 0.782166266238247 -0.4116873500350178 0.029523255355803163 0.6625375445995447 0.4784764009586925 0.07883155168216502 0.07699149919452415 0.2343663248637582 0.5307011720757463 -0.3259330569094481 -0.32837211038794534 -0.029371431868460567 -0.6078057174113525 0.02913916210596166 0.08807617467391453 -0.7278455476903269 0.11323763340849353 0.5392852536532667 0.04852141729637456 0.09461224329854236 0.18630331445225323 -0.09052808746443972 0.6746451687245592 0.37772327459873684 -0.16177958660781597 0.04999153800769413 -0.09464300112143241 -0.12019732134871114 0.19415626782816411 -0.028551801910501058 0.022567391124414395 0.668978627925483 0.11388551873712519 -0.18279443576176171 -0.24803583892507564 0.07143346718643345 -0.3558968955701908 
-2.220881035067076