-3.7850439613568376 0.9139232428069137 -2.001322525855435 2.298893223971891 -0.9704790471946301 -2.004981958914091 1.5971157144047226 -1.4469964768198076 -1.4475580297903874 -0.07052140282352237 0.9993703491942767 -0.87017348980002 0.3339825191050443 -0.02797651110197802 0.6514733083905466 0.052801640992270193 0.06180678775048032 -0.5292541055445321 -0.29737372769417136 -0.09424288460026119 0.8902682857843223 0.4270584584717132 0.16676241537334513 -0.35756844390102227 -0.09190675115745583 -0.1971647205155015 0.26501510674281353 0.4140136136843065 0.6717426792863196 0.5130461973686291 0.6680337555335067 0.030019373151759378 0.1727835607401602 0.13627292265215685 0.165956025495284 -0.3760617966563829 -0.49223342051050845 -0.5197751959717157 -0.20198306791680518 0.16305763513694305 -0.6158646205912723 -0.005312106723444288 -0.38657796040665776 0.591782845069752 -0.39467283570122413 0.07860298157330164 0.5030684261202479 0.21480603173350094 0.2704936320096465 0.24705882984546412 -0.025952421136893666 0.14966502937320952 -0.06383276569756442 0.5790268711552462 0.3142178182190441 0.12038694205538047 0.31063015573400793 0.21525379672414613 0.027077764814760662 0.26650510849222114 0.5054858884166449 0.3277055024211926 0.5004524416941012 -0.18405291706038865 0.1639537946740995 -0.25075772275712793 0.25595281603404485 0.06445682697756783 0.10285435270303353 0.12525514298458054 -0.010311906576097152 0.30060152043384775 -0.3226812695520366 0.21741850617295028 -0.0034757971416225775 
2.7836750957954672