-2.4225207668034816 -1.6601546749083553 -4.791337209023561 7.187386551231918 0.8433208310798488 -0.41767963540168784 -1.956488248105372 0.8196056209958289 -0.8548408919266048 0.1898616926686838 -0.48220195314724223 1.8286001049700777 -0.5221282143524681 0.3540719350996997 -1.1926321800907216 -1.7695639726687624 -2.4903982352127008 1.32020020491268 0.33367516056127333 0.7056313243527037 2.4612762037532185 -0.9228074284620882 0.09722178866670689 0.00295251507106431 1.512080569548267 0.3440051870211964 0.38715023940461996 0.20088207141218706 0.32644557460059065 -0.8089986181209242 -0.5366812637164934 -0.6300702102435999 0.6843008249378302 0.0907055338555589 -0.22954621186863838 -0.5707338650089571 1.1126425942837601 0.21059758745172652 0.12026514824195497 -0.318747046823999 -0.23938859316141886 1.0149716340696093 0.5177217907187304 0.5416382554368222 0.1046937902923103 0.6143368320576267 1.5131431439738385 -1.0525859050941846 0.35357664125547017 -0.37353178700010026 -0.9736111785725425 0.13971652587546163 0.27122838743297667 -0.21006475110806822 0.05336271966269612 0.6428984994356646 -0.20836124240182174 -0.26138086845931835 0.4882718529162571 -0.46878408051131143 0.1595823362438406 0.060446474740087575 0.3142317465201383 -0.24142200976612338 0.22601047051958156 -0.2915073675253267 -0.42848458969910413 -0.4695891137564778 0.13329378506740353 -0.37789996762686123 -0.19399718803337118 -0.12341710525221716 -0.40125820809933166 0.2749964488768626 0.3358139827364627 
1.6401965644183352