-0.5425731502628173 4.7220336332853305 -2.114354578386134 -2.485121209303042 2.8456691904224 1.5264208679609776 0.3514977804224475 -1.7829326000392027 3.561421984559179 2.6018684349957946 -0.14364496738667776 -1.6230897265662507 -2.516977171006534 0.9420655416618786 -2.353605860571051 1.7862060470795649 -0.4336487223385094 -1.6668210277890672 -1.6407140480596611 0.6111746247034693 -1.3482839654342327 -1.1303114467274176 0.234214218816275 1.1846510223691549 0.8113216167643356 0.327032890828111 -1.2373348392669903 0.14783421066840227 1.8191561890317896 0.17403108466583234 0.38835520903707965 1.5158582508583793 -1.0128806878479715 -0.0848528392689521 1.0630262933949515 -0.9887568232459909 1.5114384603661264 -0.8948585528955801 -0.13855992494714392 -1.474906469650353 1.1260808057343172 1.6455016314931183 1.66222499613523 -0.6875451814060454 -1.2921752745775577 -0.9168811128355399 -0.5596793085501668 -0.4308961214359657 -1.7209098447736753 -0.6839508122718293 -0.7592803788075988 0.27330445901404343 -0.10017573038458182 -0.5389342556358532 0.6002953800956525 -0.3814405013976396 0.3733672061780952 -0.4185423323176556 0.8754077967301509 -0.010027981404230842 -0.14304436450766653 0.48403848943014294 0.09803492194019078 0.9839182454577239 0.38996543358773167 0.21090192691471554 0.8610608042064295 -0.48922754985730676 -0.4667347504004102 -0.19165710766366068 -0.2854334816297177 -0.40411312823672907 -0.3148473638596856 -0.8377364070310481 -0.46191804883081833 
-7.145460696469892