-0.44295500914262886 6.251701197855828 -3.7528931001482166 -2.0425293650776046 -1.2395487292314926 1.130681226684501 -0.48170905606986925 -1.2522040046779763 3.5465625258590103 -0.45310201413171775 0.7152233805369229 -1.7581362708884773 -1.6289183911709721 0.8024660837553977 -2.494442755338582 2.7688709123994575 -0.7505387495275229 -0.6814867900777041 -0.9558033237560932 -2.6950915058615075 -1.3022852648743868 -1.2525028041437936 -0.651691440644972 1.3719778254345225 -0.34451673435467767 0.6129667218793877 -0.24837446448647904 0.14790016093459826 0.7375197316540716 0.8638787339539338 -0.05401970808199484 1.633377217154585 1.3556304284287946 -0.43930370092606474 0.7756202313327636 -0.6380282254353074 1.9426267701669453 -0.6032821813546381 0.419964665517051 0.43667689969233386 0.8879853392491955 1.201073061620324 0.878420150954674 0.22259565193892566 -1.2546679589041563 -0.6034330164660946 1.0586457045273159 0.20601939467319536 -1.1273856294225817 -1.0442487264608333 -0.8939053111128357 1.1907944835106234 -0.4127868643496634 0.08270997783693491 -0.8240873871534072 0.2085262702423278 0.2188663405595835 0.06390801028640766 0.42313828724225144 -0.04408084427500328 -0.8603834819793528 -0.11642692606954898 -0.19144530582728356 1.13255853362985 0.9096810544054075 0.31438336827128466 0.8144074154988651 0.5156378362433122 -0.0692029357286065 -0.7348819450513846 -0.36386788294966477 -0.5985808737366889 -0.2042631882697824 -0.08220766310729481 -0.2537760636637039 
-6.855056240657509