-3.499816512467003 6.948057396642442 -1.3083827051608319 -1.7313036734147376 -3.7024490458487174 3.4084362580601604 1.2283391532103725 -0.8064329793500955 -0.15165059734048025 1.1713394934674688 0.20169873009330064 0.9045993510552148 -2.3187732850480267 -0.6110325957279616 -1.3923897183089677 1.2061252223770915 -1.029091732018891 -0.7227424956244028 1.9545462896193555 0.5231515622153516 -0.88487662583417 2.1967760055415972 -0.45365324389946904 -0.9544923733587778 -0.11596235954899914 1.6810422533981964 -1.0899631257631492 -2.0395908495665 -0.501784662175869 0.5416629613934982 -0.4846768040128169 -0.7827787711268123 -0.9461404643902273 0.3446554228557195 0.7196401279351906 0.6159129743386313 0.14428440297352443 -1.7263451708427084 1.376902994499641 0.030850936685447028 -0.45833293000944686 1.2945755185366095 0.21855225223280716 -0.4126470984189453 0.6287198532490281 -0.45017620268195935 0.17564555137142934 -0.10549737355447103 -0.2777552268739807 1.6948764596752146 -0.7930778748177457 -0.1842673374966335 -0.18133964202194303 -0.12168383610028971 0.2524176374776568 -0.31267874505587145 -0.034501774176026956 -0.05690822539748608 0.44582054388123127 0.3752671944673205 0.27173857469756657 0.05923148718323479 -0.11962805334708904 -0.1547076557814523 0.5711956941842141 0.274900753660164 -0.30075819503041734 -0.14981233005919015 -0.6275039354926356 -0.17188213662037366 -0.36370741294538733 0.8474230172614459 0.29256398572076125 -0.5062226417408504 0.436468358490978 
-2.138759805850797