4.964898674238015 -2.3640506210183254 2.320577598927391 1.6455897341574244 -0.22417563315970312 2.3640620470073475 -1.377107086313476 -0.501239821519404 2.1282146683071694 -2.6396334035434563 0.8243444181733617 0.8731072020884625 0.7246071174990047 1.4150445134835872 -1.6390937116028468 0.06097542610094786 -1.8117187913265136 -0.95118114320876 -0.31421617980374095 -0.2767015143615305 -0.40035680713390853 -0.4062986904398431 0.5411890824177537 0.27100349569625504 0.19477346351310754 -0.3974494019297334 -0.24563812810961905 0.7627440759878217 1.0652204636736786 0.5927235545326279 -0.6684348504355531 0.06511332900064115 -1.6295944027228357 0.22494488581022676 0.3493587499314823 0.519017132473947 -0.8966462180812452 -0.15357107852328955 0.3423409893219763 -0.6464345047993172 -0.49328861941536833 -0.8543362911519157 -0.012502945018419531 0.022516207929231147 -0.2319660281154124 -0.20109757365376835 -0.622007863325971 0.8484837253689879 0.41063972087103284 -0.5104959853238729 -0.1431148229653747 -0.35345618553110913 0.12985165257681341 0.41395606118497463 -0.6292209610428972 0.721323281776176 -0.04477250651544484 -0.35914782834718584 -1.1532479378042897 -0.5639091549171144 -0.15209116835748993 -0.1989516630859014 -0.03835039621507341 0.20845944612971162 0.2870698035563113 -0.4303088482348949 -0.26049882661797996 0.24580156368385214 0.36700446903834627 0.24044366539549114 -0.47721782073262187 -0.4042616490640048 0.39234177153802136 -0.46171458832571466 -0.39824033959624905 
-2.1386145939020955