3.0187483218040327 -2.314203958775657 5.357314902136638 3.0704105886221233 -0.12468186786370783 0.9535527410171318 -2.07928621577655 0.17223846574626278 -2.415923033853553 -1.5802620228080406 1.4333827881563197 0.9502762403543494 2.2079316943963065 -0.5664787210664077 -0.9191422337496429 -0.5416065279404141 -1.5420802461961176 -0.9446900708667476 0.29424906600904943 -0.061655691610408625 0.2058672744920349 0.48996209030528437 -1.1510225928734117 -0.15570153855004998 1.4174099610835684 -0.5844106664813022 0.18359916603725224 0.9228649598770219 0.14565870955605886 -0.31336652231577056 -1.0328786300678865 1.1279563959347667 -1.6387527439594123 2.0586798813538874 0.7229970899684838 0.6280843875320707 -1.4935101478326303 -0.2592357054694088 0.44535146164407247 1.1486003580422786 -0.5172098589684176 -0.04034951591185544 -0.8399140349305079 0.04191369227598973 -0.9043056253147506 0.07849204944718724 -0.2630912066495801 0.2265616687299219 -0.2813019009997014 -0.9825436156894221 0.3453605332624474 -1.0461218060539517 0.029373281918221528 0.31406430056292145 -0.8849311367796825 0.34049728434445736 0.3860098770809069 -1.066178792249415 -0.9867707754769302 -0.14367071154265632 -0.4471543334854857 -0.5624088893271768 -0.074051771367595 -0.1223469580126908 -0.5247526445582509 -0.12911373287747085 -0.1548723740374764 0.3880931815000788 -0.08450184917361603 0.46749163514664793 -0.12472941912624091 -0.4198350967761361 0.7164569063071334 -0.4523877665056072 0.481981999226877 
1.3009054094546793