-2.937885179265553 1.4775807904642422 -2.8121718920497 4.630678176315998 0.722584627207147 1.1322092454530008 -3.683110377014163 0.9655392871665982 1.6056604575728994 2.772725318100956 -0.16456398014109908 -0.011767327960331198 -0.306854710307091 -1.1515832499500975 -1.5516842793275347 -2.112155790867299 -2.170296599302923 0.6935899190859774 0.04650739230190165 0.1129247338628824 0.1658117744933254 -0.10101495460413834 0.7907044982234347 1.2295161126938843 -0.10704515374798379 -0.46604180340249945 0.5237769167492649 0.34807851406457696 -0.5309181262792944 0.43373780730535816 0.35225388271733415 -0.35701867035773266 -0.24773152926674852 0.04326765889358536 0.41690888031194906 -0.9202002464732781 0.2806196765955335 -0.15607126801963922 0.6000162934069546 -0.9577885067618332 0.48262192562078493 0.06269554862864606 0.8258804813716334 0.05758307527469014 -0.37986723036477865 0.04830765354652755 0.2773565480466827 -0.5912042377805992 0.04874131808645515 0.2333629470988467 -0.6130701339723943 0.3242741670048494 -0.26337736428137315 0.11888547630715512 -0.47169525085789576 0.3479976791497096 0.4417757861362045 0.08419060260279276 -0.0035587699197538875 -0.018799345715283446 0.0472338628188865 -0.083562396853893 0.009691132733449959 0.5095981033589867 0.14022782281403387 0.35987640499323226 0.0015431077726305725 -0.22676143849192137 0.05832175933891948 -0.2030785171877108 -0.036992138358254045 0.060010441413072574 -0.19202043678288588 -0.12089487104406826 0.06591796960478286 
-1.7237936479544993