1.875932447959844 -3.923316803858466 -0.24806631774817678 2.274089136154647 -0.9248549688372787 -0.04121140104058707 3.4488054039229112 -0.17717780675786082 -2.207281639370395 1.624492212530369 -0.610777860847048 1.9032959701088812 0.1380528769695779 0.9073971395223379 0.700343786202337 -0.626060468068428 0.5894014698622734 0.3413724415269809 -0.007378839583286223 0.8370706232194639 0.6061909166428188 -0.8594529128445442 -0.719107535656649 0.6134262325644405 -0.08407098583720551 0.7662933271012309 0.025278786826048394 -0.206084029263208 0.12075421028210313 -0.04905038384912713 -0.7447187278324853 -0.4107769168299381 0.6441234342683336 0.028749714960811468 -0.4025254190155193 0.5008432173307324 -0.985764928042576 -0.4775308719486856 -0.5198725460927424 0.7256646798530226 -0.6419654982295457 0.2645795273799879 0.05149476847868467 -0.3347248515995529 -0.10005384905689224 0.15747772717793795 -0.6272409169274386 -0.05679775918245489 0.33576513629786414 0.21588706322420548 -0.04773969863321981 0.14798623789293233 0.12034294199249251 -0.12412990477865452 -0.216855741899444 0.0865223215177342 0.2555540031129389 0.20909760711245828 -0.36001256779009605 -0.21974924536650506 -0.33750909752789426 -0.8433481720114568 -0.46562558345610505 -0.6126640956873364 -0.47685646047765107 -0.3091475185686457 -0.3081438777587872 0.08563924146200297 0.3206586337992361 -0.30138501938675283 -0.13120315433653126 -0.12977984878465934 -0.22477346398090753 0.10840293064343426 0.06380152086368007 
3.8762941487281806