-0.4930592762810022 -3.649482408770014 -2.6455807314210364 4.5760526771608845 1.342061977705968 -0.6987604795695912 -1.218486424882626 0.9871701754305267 -0.8878635582818286 -1.3299466810584835 -0.1273827693315966 1.8138145449888348 0.14002127591546243 -0.4153708052204268 0.3643641193715841 -1.6501218447085606 -0.7247167988900539 0.5418304313255184 0.45269089877643537 1.0294014102769946 0.9747192075793354 0.6464339730533974 0.389369173786073 -0.20572974854490006 -0.45575717608493943 -0.22241714930964096 0.8807002308506278 -0.2676866316259639 -1.0011249375467202 -0.5835014312082754 -0.3720307533076721 -0.8018335964020139 0.6888505291954172 0.3535636164618489 -0.25716205540490966 -0.0036511452187851234 -0.6802378065964918 -0.1351126876739157 0.11296193884682905 0.5986160530045572 0.053693335540357615 -0.18142836244279678 -0.6551383370712713 0.20880172729618704 0.5351398001901553 0.5662525453748422 0.2535625781082351 0.11307659004262 0.6281946073118692 0.40356839802875943 0.12993317880858402 0.055017718682826455 0.021571922067258505 0.054806862800235716 0.020358872410480205 0.28349240430809775 -0.37375199271990983 0.493022522284276 -0.05454057883678673 -0.006220862516817212 0.06831499398502527 0.017855066122469815 0.26645221888197146 -0.30842972555159076 -0.37346634895374065 -0.24762083000717128 -0.13617431639783364 -0.16783459486610158 0.1541095032140442 0.004058029816528351 0.3786317001814332 -0.0625800212582818 0.26710433037274006 0.36879385543249166 0.15576787296997902 
3.0878379474677597