-3.342966172850602 -0.7418562662779422 -1.352843350012483 3.9341878481697456 2.6423317908263204 3.4454693578207722 5.79171428921463 2.1583778159256504 -0.11946757686073006 -0.16387676593502665 2.5796715059624216 -3.3261514982096587 -2.0185760851772194 0.5745419011011905 2.1266112597737554 0.15851081532903466 1.4853187769885134 1.0397135471252434 -1.3812833483690832 -0.41379893436001813 -1.3336462368061053 0.711857749839246 0.09720287384253767 -0.2794142927783374 -0.17362891540728498 -1.7000790036044093 -1.335894843167973 0.8036899850100111 -0.04320359574996879 -0.36144835427236954 -0.5970097433958745 1.29976661653654 -0.04519497360355107 0.7253855162081218 1.1389328308857556 -0.07329654779021388 0.42164450783179763 0.2922242778028812 -0.358208640722262 0.7383954269803477 0.6132149035495296 -1.1344417770276274 -0.8588800884181405 -1.6146977236780058 -0.3401916432532306 -0.2743865394148206 -1.2642712277503465 -0.04704885020900465 -0.37270108255808143 0.37330942515562293 0.08150585446402814 0.21249770422360983 -0.39466829115646573 1.2687643775046342 -0.6281858757671741 0.06604828498445414 -0.7649984770110672 0.6877630800513699 0.12875803346327933 -1.2408142279739567 -0.5088224732589658 -1.1041414513131813 -1.0220328010024577 -0.4988107834990978 -0.7247685151083382 -0.8262937631783972 -0.09866659964017888 -0.6986890031855255 -0.16067888044181955 -0.7635125528426105 -0.22666603764488402 -0.3987735256209882 -0.25189882770651584 0.3290522711052537 -0.5455764636643451 
3.1307159748761375