-3.4219637226824555 3.0285632478094375 -2.5375072592720596 1.3670863508273359 1.3717209898850715 -0.7457145467877291 0.6823907305339976 -1.2643094360928253 -0.7039127815218478 0.602070746225536 1.226306539918031 -1.4413352293551411 0.00490681619543501 -1.16889277352922 0.3405534570168485 -0.7400568927817285 -0.21088889146324924 -0.10469221637455522 0.10243191205411034 0.3266620992825592 -0.00977574453320662 -0.1700143616218901 -0.5834614553323012 0.167057434197635 0.11426712677003256 0.17038380278706702 -0.11000779906115876 -0.14105071778398948 -0.19071400769792152 -0.0724788941871264 0.3181134555076874 0.4313791324427722 0.052270423830960144 0.516025982467249 0.021575734890907264 -0.6172338644519559 -0.27130177301664055 -0.17407262296241519 0.038716957449348055 0.30133478676854 -0.29683731143966396 0.3441944647543816 0.059359888596496074 0.39422650449361274 -0.45143141800259334 -0.08103633394157125 0.5248425110822352 0.006675985090888879 0.12364722182814282 -0.002247904376386556 0.3001659962808764 0.03952537109376536 0.234650202176799 0.16963365915151005 -0.11188802617509411 -0.3255986775042545 -0.04301883806396137 0.1916596665590885 0.5263399837340139 0.25689167991176465 0.3618742668252398 0.2625611484088686 0.19886367398439755 -0.0852512547569069 -0.19741401425506008 0.20557989949653735 0.4611949407840411 0.07090992845822655 0.13808898045943807 0.11723024741804429 -0.02960162520968178 0.08987228861814534 -0.10319399743983257 0.1251704917840599 0.019927663823282177 
-0.7516748978156669