-1.9205372022633327 -0.6670913127049216 0.19586889527589868 2.6242463382721115 -2.3561002229340557 -1.7615645994278952 2.9169389116734266 0.31489372410475486 -3.1096167412249645 0.9764985260889165 -0.5370891831184077 0.8581182037405553 0.3600286907872 1.841162507927597 0.9115099652896489 0.29233456037345296 0.8146213777460326 0.031831708614479315 -0.5594633728632573 -0.4278573205984501 0.9854291741233485 0.8345287408424956 -0.7026905121261628 0.3619753098950005 -0.03155707534332364 -0.4142481864821054 0.7330855878452741 0.22890713670193535 0.843936267156673 -0.20740374909165823 0.010990248698028782 -0.5939348924797753 0.2167989727032848 -0.15255463795397428 -0.0994375349560865 -0.204766007664343 -0.8382031042915391 -0.301071038029937 -0.10580819068531618 0.6026659291572128 -0.3599387397110349 -0.05133058264706958 -1.0342650455502873 0.31813432712772804 -0.08057822645621815 -0.06173410571942617 -0.015043590088231862 0.06374102911519974 0.18224521861622406 0.3662380506000959 0.04598207765570589 0.16198470967075507 -0.11908470632765822 0.23824785764184198 -0.009779565605540302 0.1443493532846861 0.26430594280739006 -0.0534723566817531 -0.47158377002496604 -0.3637729355805832 -0.16320928281040892 -0.12009019654407277 0.20145939725660617 -0.5961213248732269 0.07356156231375845 -0.29378265006703763 -0.8282154480619033 -0.14457651171152788 0.26279740655213757 -0.23025404908966507 -0.13150017996457586 0.21790570826701622 -0.1261134796455166 0.6536567262777226 0.09446148719602748 
4.890797676990112