7.276156929014839 -3.6148259240503613 -0.5315009096914283 0.8514145081848177 -2.3817742957073467 2.0164273506895385 -1.438874355474291 -0.4733725488463606 3.3997920303519242 -1.9731084631948845 -1.4937758760145718 0.1787591766919201 0.383369191142952 1.984891098623936 -1.1906502658023357 0.6398589533531788 -1.664270609082986 -2.9489203819864622 -0.949059045360942 1.0573170393249232 -0.8094647898161931 -1.7089173198479057 1.543451154923952 0.9366557902734278 -1.4457689597472367 -0.056282194877700975 -0.5190959749619057 0.4197909267539044 2.0757606466204015 0.9156321313492035 -0.17833045992865315 -0.6428764130003849 -0.47298375954072247 -1.1212706806699766 0.16377064397961286 0.36909831521134995 1.1220631349485104 -0.3138913472217434 0.300770457530935 -1.2410769432715756 0.3658352379247593 -0.1571973651231111 1.4288586694886094 -1.4683099665710468 0.32486659401592244 -0.20861903651566016 -0.24895766608369962 0.8521520656082562 -0.0646728221865967 -1.130239467684868 -0.2670912647525352 1.0169869673557812 -0.18318649254388208 0.7804453382639787 0.48968667867018495 -0.12407628721202507 0.2976120044048962 0.40628872244017344 -0.0660883844429525 -0.29093012724821754 0.07774675574289858 0.06514629468506428 -0.1817171421863515 -0.15566988001963566 -0.06848970331174364 -0.6212194727293807 0.44181597574558035 0.28357332998958434 0.28826535222609195 0.019364322885211973 -0.4774879040785027 -0.013102922753869761 0.5426097700051785 -0.12367628724651092 -0.29540984763495015 
-4.036685252056975