-6.677880269920115 -0.3805260970381319 1.5260614527252347 -3.022087948507942 6.796665765401354 -3.6015500640479345 -4.203817865857868 -0.6153536216367963 -2.7767468369361907 1.2847074245417862 2.652646256557221 -1.7066442985948589 -0.251043377223374 1.3536056138926944 2.514729249792145 -0.9213247992769918 -0.8901588526122082 2.1458596793213482 -1.2546994188348601 -2.8203246982929286 -2.463366602665954 -1.9848265165014922 -1.1336201910058765 -1.5333534453528137 0.6560318404108743 3.2657054737286146 1.0153504295436966 -0.8503411506093493 -1.564180346024059 2.060110507310582 -0.23378105349592293 -0.1285692756706947 0.2498723782478658 0.4766471277199591 1.6328965466737118 1.2726053425150847 -0.35671917721793844 5.045518950201211 -0.6347178708641441 3.843282138940936 0.24952363255321497 -2.4666166272768053 -0.4366813424000999 2.2449836614857004 0.5023058916223295 0.4656080273450036 0.39904557364737336 1.9346755880732966 -1.5796093054329938 -1.6670376168352223 -0.6212059796889713 -1.3227550610521304 -1.0272378693742068 -0.7699793956156061 1.8436641173920476 0.6766352537669643 2.328044546544407 0.23641244590860577 0.8340671250209588 -0.2710052661317914 -0.19556609747867043 0.6481714132125442 -0.2624402378557572 -0.3269230680226659 -0.6191308618448054 -0.3034074772911038 -1.8713934176830174 1.0931859609027619 0.40872949418070276 1.0045232934661747 -0.594249895921521 0.7088682257436735 -0.17483647985852357 1.32589939071956 -0.18093004115731248 
3.3972185008562854