-2.2903170457623103 -0.49203492803459614 -6.120402714665478 -0.7584176864100742 2.5790750129619022 -1.018736318766822 0.6409520484015547 -0.3376628617609173 -0.43399463867803845 2.8316343757805496 0.5896804856766684 1.0156872717301688 0.7679799368316357 -1.1057617923765761 2.116423762612727 1.8286071023326897 -1.5248291389821915 -0.03477871436971189 -0.20246269456085503 -1.8095044269777494 1.790764058248508 0.1776052980521159 -0.0912069655994448 1.5513044925136164 -0.05141720534652594 -0.671604514629548 -0.4510023623358535 0.15364740413244424 -0.5140008331977848 1.1858980402772195 -0.7744112959868862 -0.7983562927155518 -0.09908474724557381 0.3384385159702431 -0.11026083614282958 0.6413009651462178 0.6485431582322599 -0.024201227983916218 -0.8944871042972964 0.2917542134808354 0.14658400975470554 -0.09204345661733845 -0.9752054948735267 0.009587333193489173 0.680598409159096 0.1936217284670676 -0.6836558351786405 0.8535221673629036 0.005448903561166021 0.08250040485112523 0.7281045896568621 -0.2802330515852646 0.6398641734495272 -0.5163518565271614 -0.13051688524167354 0.694848795256884 0.024240700489458894 -0.47498869948376493 -0.31915757368411307 -0.32306217449508307 0.27963069612049085 0.1887979059308616 -0.03401580201728166 0.03415111089239922 0.11909053749298848 0.013796978936851209 0.0781079250335647 0.5222032286698369 -0.008928041634603201 -0.3322952311647719 0.005049069604109113 0.2901025809776176 0.37026587333407285 -0.23012320562904265 -0.09989960961760705 
0.9941621953723896