1.6428252610234342 -3.7922951858881024 0.4579125378448947 1.6615476848530433 -1.4916084461215267 0.29574024986115033 -1.0158230865576483 -3.567506048315935 5.0835797893075245 3.9480135276742923 0.6395164816385526 0.06654136913600306 0.5686177641781447 -2.306906474290184 1.0185902429281504 1.1975026914382714 -0.521277394523223 0.9371095103683103 0.8970032173001696 -2.025345055216602 2.0618694698951363 -0.7808480219680588 -2.4208331992463594 1.0253389818026273 -0.779124767698048 0.5615108831838242 0.8325936763856477 -2.0110879430081505 -0.049100092875080714 1.0189914778919236 0.23629296039501024 -0.24990846553507948 -0.8564480843039136 0.7881688790892247 -0.501525791673534 -0.034533801664117125 -0.10073067739430316 -0.3984605860279481 -1.5873894819383811 0.35025808199771613 -0.28549381237246735 0.06484484040338215 -1.0124763287175877 -0.5481759156020636 0.7900069974590167 -0.27358109306233414 -0.4538836792673757 0.23858110748085792 -0.43097487557674713 -0.21404150112162756 0.41771587866241033 -0.15258014632397843 0.3197571884330696 0.20921115216648684 0.560540229100962 1.2832577806669776 -0.501676403031779 -0.5124840978841376 -0.6818419448456227 -0.13985466673953484 0.15985024935902153 0.2220769916384016 -0.10489526167024543 0.4044524388184994 0.4414736007550316 -0.3337761019512845 -0.32827213850678355 -0.4679983525958915 0.19535216225315677 -0.0314264048066325 0.44441643069449366 0.06830249756401092 6.103640150408873E-4 0.2963474465837326 -0.4421367659253463 
-0.3242449536794558