-3.382581374175899 -2.5415624097093357 0.06529462983697254 2.1064577300450886 -1.5100630113408213 4.769767420094023 0.14861027125590276 -0.37259817416078134 -1.1135889016956337 -1.8253371794414384 2.059430593342597 -1.0821508170385181 3.5584270108416716 -0.019284017542449683 3.800502846679918 -3.4667927912668945 0.10319628831634997 0.4701763662752332 2.8058881082637344 1.3740565352469252 -0.7345056335206035 0.6999566827683896 0.46742674874697965 -1.7597778492637686 -1.2835761503965464 -0.563365836624129 2.5745837097806703 -0.7544529848474567 -2.0454215078636926 0.0896742788611283 -1.9128834178160798 -1.702182678657259 0.7746252491673664 -1.3686286864857804 -2.854305771593752 0.1695640423386391 -0.5949138454651446 0.3393227521218509 0.6172635706284261 0.4383569160154348 -0.1642492006172236 -0.7994796604823089 -1.4507208794916533 -0.0279212587022154 0.7877435010458049 0.8936286889141363 0.06877414926974934 1.3636889814067104 1.653204043736101 -0.2626022185681718 0.28478112997865745 0.060786770137958746 -0.01441969720199085 0.09403812324282579 0.22517405508915006 0.10372730741375025 -0.4409397374972972 0.4833808478916659 -0.6915221879325406 0.3579767855991504 -0.12849708398698623 0.3474935577894581 -0.2586183382706009 -0.4049859623236638 -0.04830785048525614 -0.8736433556984262 -0.20043254073969596 0.3548993442454236 0.3183535762853187 -0.40715744208645815 1.0918485612931914 0.20955530234227177 0.23645666989914865 0.5495779484966288 0.14379935828608104 
4.707298726800214