-4.4085385698682025 2.4972591434355067 5.677908018850459 0.553529629617072 -0.8530733643700472 2.256680138262393 -2.2279077954175275 -1.2796194101954677 0.4790647101716097 0.6767033608247717 3.783382772288984 -3.025180761460442 -0.07808881305456472 1.2767554235126606 2.870148351129423 -1.857273270975647 -1.2387792497165862 0.6924476133031916 2.197084077683781 -1.0635008974866063 -2.097497279240444 -1.6954718444410077 0.3321744629157568 0.7825567236745958 0.36523520722057556 -0.31962157188604157 1.8303065355281474 2.5047279017657273 0.39053241676427985 0.6254068595863014 -2.4326615029441014 1.300789016856598 1.075327837339004 -1.429902515890443 -1.7255560655594873 -1.3793636379562852 1.40061845499853 -0.7125712607227979 0.41519329342797984 -0.36132778265127996 1.1837309465022932 -0.6492001694015939 -0.09487441355814852 -1.3173439419345203 -0.6857319379687967 -0.3902714522716617 0.5896702781688955 1.2313878218081373 0.03736968952980449 -0.08071932312361474 0.6747524721724232 -0.6788569273772291 -0.6829583214901117 -0.21931988087700818 0.38611920114621934 -0.09624608088143183 -0.5139522031813585 -0.7537707987257588 -0.3695293361934926 -0.9746605807291091 0.1953550108633591 -0.8155764699170701 0.4877466284340475 -0.47810659537076117 0.08508727774583813 -0.9220269033256767 0.6778936702578827 -0.2876881587063653 -0.0386672806248447 0.3407298635324283 0.8131844298621758 -1.7423009852013716 -0.6621214808585792 0.3275707758839377 -0.37457117950929986 
-0.025410931064096864