-1.028618299869633 -1.2630713513651433 -3.0791744422260994 5.755445828768949 0.17589509568621153 -1.5087141786529177 -1.7224424199152364 -0.5352422003761246 -1.0896720324702884 -0.2052279620121088 0.11431817096788482 2.3004451170839655 -0.5593951990607063 -0.7004060332615114 -0.17267649447939004 -1.0241654851621795 0.23279118355118067 0.07313249139853086 0.04415738936251451 -0.3797836393297837 1.6338822987173223 -0.07887754317338397 0.6294186033458754 0.17805839978731786 0.624663319105982 -0.08550789646226409 -0.22270399674506375 -0.4702450633267471 -0.09012952667274284 -0.6468454926575509 -0.0022533582200075647 0.026398803855552558 -0.10504726237755035 0.9055970661699637 0.15978355341121997 -0.3847431593649909 0.3335129430319098 -0.3877430104413008 0.504656789373793 -0.5301396024948422 0.9567022604746088 -0.3963905941712325 0.3707647454823236 0.3810242696755385 0.19790302753932704 0.04776801526314611 0.04896408847450881 -0.09781230819688255 0.20818742155412637 0.301499309425406 0.02208175692263037 0.49038285263365944 -0.42939267626241506 -0.26697551862198315 -0.17412828883890796 0.5085971419674442 0.1498021634386038 0.7146889081081257 -0.04918044118466186 -0.19071716240806688 -0.19111991320148733 -0.2452231073104017 -0.16894753708594232 -0.2801786962679064 -0.01359657028042438 0.18831885345705812 -0.4152417793519042 0.13716936006418357 0.044356093613592606 0.06409083520975131 0.06964214869922766 0.10782629214745618 0.012545382936932525 0.09918023115279545 0.37807803144119156 
1.7582961684368736