6.564692247368847 -2.9904408772667352 2.1462752214059178 1.73487394729873 -2.5396466655649905 3.372561322928927 -0.5687932265010764 0.40274706791010373 -4.432536671819571 -2.0379147577446695 -0.6892097983962372 -0.4689218534303783 -0.7232621526677663 -1.6407048209516193 1.3846058964805374 -0.9397745165367963 1.2493751845213463 -2.222378664928748 -3.1269841618947014 2.157278216332349 -0.44637646964065825 1.2604793627096593 -0.19118245434838643 0.9976344484678776 0.789082040457951 1.6653354705790469 0.4774574911123084 0.7693247203557745 -0.6818582470723983 1.203697840280436 0.7683078486568986 0.5970828724699488 -2.738145565559024 0.965772196551357 -1.5079279323577754 -0.8670377525214111 1.5489109650177604 -1.7600313231176206 -0.05749559143939679 1.19108696227197 0.3737861932659822 -0.36915280646752285 0.07373227775069591 0.6713546971712606 0.16316655697381738 0.7913611264423239 0.7577638759379042 1.81229963723943 -0.3293693645693258 -1.5344112415721751 -0.8915779363192862 0.20826373207685756 0.10850874245638428 -1.1574673396414903 -0.20449479108313165 1.0072865917981826 -0.920928508317403 0.06508934477035522 -0.17290360996720638 -0.20518396511615877 0.04173539756402364 0.13231398152716395 0.23648306552668175 -0.6942213315320056 0.45353003076481285 -0.7533547124314315 0.031649282325114936 -0.8290017531140081 0.26688024067096766 0.5796672114189536 0.0660807020338798 0.05002953030660945 -0.025401426520448557 -0.2094208644621831 -0.2100503863254085 
-0.08818986120392536