-9.290795767847886 -0.7921471818064303 1.4441086674517112 -1.0929485634384868 -0.615345913973719 -1.4985956249349424 1.4596745291212925 -5.785490735593606 -1.2914529112529407 -2.073112012283599 -3.1500143172965607 0.3266188044990066 3.32889434732283 -0.0434454691406122 1.3007901992167399 0.30153321042947034 -0.7177976794434153 0.498351836267502 0.5100765362533675 1.4070830761910949 -0.21610511802221222 -0.4073782167955088 -1.8229119065065367 0.4192574618146623 1.2025213131523746 1.9461127213624172 -1.8577618717964308 0.9755955313341172 1.7620819960810334 -0.5133212989922812 0.3530897261036203 -1.7143539572162 -0.6031555069765242 0.30753215365040687 -0.45247941921405715 1.122052235971787 1.8558734464178372 1.692114871125476 1.2664060258733163 1.161656136382752 -0.15456992354289276 1.1271906968057435 0.9277212151470974 1.644964058575109 1.4086590524363847 -0.32956001150904923 1.036834469819369 -0.2796480091772543 0.8701810648350692 -0.7763068107807066 0.4031615925964654 1.0620224128214812 0.026123541883988466 -0.16583419808893204 -0.013739587607184911 0.926741965698376 -0.277324400497692 -0.1513578555076435 -0.1394924314972249 -1.528274166321192 0.39203793025267825 0.2398882648386307 0.3276027089922132 0.11444618591753516 -0.15459100178177865 0.710411644767763 0.27014758680774287 -0.27373830452984754 0.4487224062510286 -0.3546351769587598 -0.22074523411804797 0.35900911924256507 0.12790731279838846 0.6565884361774093 1.036644091762281 
6.809429236329681