1.8913349546768181 -6.5060538460909445 1.6121017122734767 1.335808594560127 0.708650428487128 1.0593861952626127 -2.938897750203294 -1.087182370653255 -2.2579301138297136 -0.18440454165526843 4.347234249464367 2.283961652915617 3.876067118641305 0.6847664120287953 -0.4360256771495119 -0.23199689278497693 -1.6024030542745458 -0.3440446620115345 -0.44889082180668916 1.424673597617896 0.06618006511573427 1.7239021741826221 -2.5240255131467957 -0.2801612178124104 2.3125955038637382 -1.2942742942606191 1.076366889656696 0.4360176835341142 1.4093318111928537 -1.1757170226213678 -0.18904099160709034 0.6898321648636081 -2.1239544262830803 1.5977462112458518 1.2010088659514304 1.2591040623404097 -2.0567521455483733 0.20510875524800043 0.5361353012845762 0.9027049257065827 -0.16748729490460823 -0.40970335545328174 0.2554659396309664 0.3270777816664532 -1.6894689599473176 0.6076396779814417 -1.2409368286496987 0.6959151215579097 0.2034472414594029 -0.4460075428292159 -0.6598662552344907 -0.8121347730060662 0.8200823331769271 -0.785707129045389 -1.1228041377171893 0.99598091380681 -0.36777965147052505 -0.5379477899379658 -0.7016391837530265 -0.5057810823657075 0.32308892702380326 -1.0058273125264974 0.43622132747926545 -0.5251550982809251 0.568347274987264 -0.601942418687757 -0.4665896742562777 -0.038176970331049054 0.554991073343803 0.48853449174942853 -0.1314669348317598 -0.8975718966397503 0.28544013557308284 -0.03539439576198311 -0.37110754218094244 
4.288416510283459