-2.040005299242357 3.565766880004812 -0.9034738082303968 -0.6317438247686495 -1.3500231727461918 2.379307306362851 -3.0769591018448854 0.5248165791895745 0.7737957564145104 0.8967732614462967 -0.7188715947445691 -1.3055154629846122 0.7239976862839128 -1.5989221460363097 -0.28166423735558827 -0.5492939907254304 -0.6827353918522788 0.27117796349580836 0.3388059337357777 0.49574044678166235 -0.9464260981041235 -0.7965364836745642 0.26474264707032846 0.8516479549102339 -0.1350992607658268 -1.0750353007246929 -0.14018854049728452 0.4587316009374379 0.5323635728972076 0.8409438879036546 0.49580333729283704 -0.09991095577012185 -0.055101702662159524 0.07997969311775355 0.059615380092345266 -0.17715330335290042 -0.1923583204231063 -0.08156722182555182 -0.270286857032607 -0.19954506064152744 0.6524188629693142 0.033384808271229804 0.526630683249323 -0.2290320976576637 -0.024898397174575593 0.20260011462265537 0.5653636401724007 0.1460593341826886 -0.07385210742600404 0.9658447734158752 -0.668791587835142 0.219713097957413 0.22850746123354754 0.3989258745617505 -0.2977770767842809 -0.40127987083710853 0.29770092676756243 -9.823179150048045E-4 -0.05593026275502774 0.11611883418745578 0.25454800885152823 0.04817262028060987 -0.3045146182498256 0.23512460300101784 0.07144379620525997 0.0672428740478303 0.11175468067264177 0.14168202099908228 0.11910547530492732 0.18485085860407538 -0.10551098154316782 0.2681202890120379 0.14153197071842938 -0.0202707894548374 -0.05959825358728332 
-2.9229497219299008