-4.448197761374803 0.5071686152164534 -3.2674955444149543 3.263359002352548 3.533275837652018 -0.9422566571564085 -1.2229409648952037 0.3312277750407183 -0.9644243335612012 1.1189361223810268 0.8107133934159143 0.7300637832352829 -1.639950387886734 -1.3754477592441894 0.027271642618994316 -1.4088384100608033 -0.18655958272022424 1.2008163512466803 0.13307106515539863 0.4922452943853503 0.8019982832792161 0.46269657483592463 -0.805271313186719 0.9746452926808332 0.6366895372210138 -0.08097962561817501 0.6914525644210656 -0.07632969952859231 -1.0049666644012998 -0.7199580782481096 -0.47609308924485194 0.14164826197829752 0.07411829397875638 0.756395368589463 0.026799165170936324 -0.7592238837051669 0.03962446717871668 0.05052196903050407 -0.20793235416292788 0.42589564484720294 0.2099685443794715 0.7557156160338373 0.01792804007813518 0.5054445922803897 -0.6022175090549284 0.10319600113447117 0.7718611989303007 -0.5521427699109498 0.14043883155401754 -0.017871338074881647 0.1440234100427424 0.10276060765781454 0.034941309010431396 -0.31289875527043126 -0.2090285555783495 -0.1865938051769706 0.0010673164187304399 0.054319487582829146 0.4895417103566574 0.3982356585272142 0.10070918902851182 0.15141711534227878 0.06034082874521432 -0.1711710033893102 -0.40955091757619966 0.5285533738658967 -0.28553594995566967 -0.04169654745054977 0.09191633037013602 -0.06916907654304397 0.19461250276956843 0.3594676958877041 -0.4060019287774315 0.19532932498062736 0.20832127527982428 
1.3079506219231272