-2.417082054937623 -2.3949958162487768 -2.1832815034125166 -0.10688565984399179 -2.5957253535543514 -0.9252501826470705 -0.29680369525961314 -1.0237788909377317 -2.768326816943777 0.7455787398059468 0.8327314652430968 -0.34087502119595614 -0.0192965461698007 2.2171483483554124 1.6099878073020093 0.7149766305953003 1.6901479688585508 0.8863081657631742 -0.6840074079403236 -0.4479960927906609 1.8182256670293673 1.5610994749123415 -0.46899585280867556 -0.6168080960985414 -0.6659875076553018 -0.5788130582143025 0.4640243689562673 0.6690577545518053 0.7193569215260034 0.4413447574316263 0.8773887924243549 -0.6767122080940874 0.4330121847172638 0.15688747302171913 0.09474721491977758 0.042891934949940036 -0.36697585645636904 -0.4060217491793289 0.5290723645582991 0.7319526226781221 -0.029988991963308745 0.37036083983637214 -0.8934232943000291 0.6122269936270204 0.19778440856871704 0.11027439409913098 0.15499078587771214 0.2390023957661285 0.19447001178598555 0.001991602953847399 0.0759699214701185 0.3197354386967304 0.28073403971600136 0.7436258521599574 0.1304770746437302 0.5063794026015412 0.9474617462866454 -0.3510516219080143 -0.4465868603318404 0.0645444731594601 0.005918875691305295 0.18499116058175263 -0.14039792762050218 -0.24798933326032663 -0.18996987143684388 -0.23876691275480683 -0.49508764849464987 -0.19071174861180476 0.1391817306690052 0.18397609837260412 -0.025009516086480776 -0.01710580866647235 -0.16626158868909868 0.3072101671066254 0.40972242324221064 
5.177222492469258