1.9260636015414256 -3.740231818613502 -3.787445318885675 -0.15313746016476726 2.581927465222062 -0.941315198541933 2.7781003119371626 -1.9904731253506824 -1.4242953753542213 -5.8854668233357295 -0.47722391451720814 1.3915089171001798 -0.7048305308215383 1.7582719059547103 1.9367264995594171 2.7109440361821653 1.709814474095638 -0.5328667551001822 0.4350997679138455 -0.7759203122027973 0.7362203524822704 -0.2747859174806295 -1.7043568514354237 -0.2769702021507535 -0.7701878254691796 1.5739477376088948 0.9350113500737485 -0.28577574356487356 0.2180881395806319 -0.8474695675276144 -1.590251117629595 -0.4179561003647807 2.221661776879365 0.6160510007108151 -0.05168750033310457 0.47473884867084304 1.0268964455703773 -0.5454086220768127 0.34606840177022163 0.6545000861281425 -0.5911606659587991 -0.17770644003686642 0.06463693984679597 0.8588819911291837 0.12508980754873988 0.9707577162741456 0.8546842252168472 0.14004326018427 -0.7010307546434195 -0.6549670999184161 0.4767695884313772 -0.240974858135644 -0.09589138495918936 0.09525048010150229 -0.0990968978290182 -0.4782152713568582 -0.3626865828724181 -0.03616779265695036 0.3349085946210038 0.9445336547704668 -0.19438973689791195 -0.23117084639812463 0.7578622985413839 -0.31242946698810387 0.2304135577492124 -0.2715951504686295 -0.16902328759668395 0.7880927224793617 0.7877222767524032 -0.22460894913209845 -0.20887253350407786 -0.10852830066925012 -0.23057291320633289 -0.48981904668137655 -0.4043241717974494 
2.133424575992925