-4.4475051060702775 -1.877286664470791 -2.9356705439216615 -1.3073689145925207 4.125712121128406 -1.1984340261189148 2.3868232984455746 0.033636651582350297 -1.4153417548161604 -2.0488289589521558 0.7983446538816792 2.3153597578146927 -0.9548160857150414 0.31455426804840814 2.299433774467613 0.7360799397060955 1.7538512848776855 0.15527649018173695 0.6922275956552051 -1.0111591554519768 2.982771781681991 -0.02879567309635922 -1.1555427707634591 0.05404211980559623 0.7420210664772985 1.194245973148628 0.0937965605760317 -0.7247208765751074 0.17848068836416636 0.0883739065201723 -0.5580932804578005 -0.35764914519464197 0.20312033864792878 0.6122902942155841 -0.7306974406074287 0.9755706042078292 0.28005598858934994 -0.14986869917215917 -0.91185154899503 0.47715303288198685 -0.46483846566085124 0.08114207808721802 -1.5584252684774147 -0.029800465872516058 0.5052940132334363 0.7585132842156734 -0.7724297351526103 0.5775379722832257 -0.2943153761729801 -0.16995932969298455 0.83987850656911 -0.1292555572006977 0.7123693923762169 -0.2739031771012359 0.16108826179526348 0.704906862424859 -0.14544404875783065 -0.6689860296913763 -1.3331696516045435 -0.4717250709188088 0.254619526943046 -0.4738751189311691 0.5707121389100143 -0.1935675305763725 0.13195787392256375 -0.10945724962878789 -0.5084267947103923 0.7945093436197949 -0.01217983528069344 -0.20748031559980015 -0.06521306439869134 0.3330001657782638 -0.4754038135179351 0.38764188247540354 -0.13490694962091399 
5.173002522243853