-1.9474565782760127 -3.6811228368379822 4.144486000680772 0.8514099838258031 1.0293793380659064 -3.958029677836988 3.2150291852466344 -1.8056548465871551 0.03069526878820117 0.597425504659274 0.8566839878805961 0.5921911927255101 -0.07462994800600237 1.7358859359793062 -0.5570039388117997 -0.5536144797478518 0.9880217394031495 -0.6182076045617839 -0.23793754880973128 -0.5878264599208392 0.40179734111473686 1.5372657064184996 -0.7466013882801136 -0.2900869183080777 0.06869437088507613 0.951179594649309 -1.0545402265158332 0.3615766668336829 -1.2033854901949543 -0.5453044195480276 -0.3124420913482301 -0.320561177365492 -0.40901340446947304 0.12793570004341073 0.19304097126350947 0.23439510846730097 0.2175317781187304 0.0751776187734362 0.7069294617855513 0.856354478736104 0.1447495027331874 -0.4268284435645024 -0.14235428715736803 0.48580495155103615 0.40223978663548954 0.4721743038048947 -0.7538914592640598 0.33479531675783514 -0.14711493410021384 -0.7350611803482037 0.3952357783545176 0.6154016529689258 -0.42692946981782887 -0.6210502035443864 0.10493500736885475 0.27495381316417317 0.06565795415459108 0.23402172941065047 -0.16452118247118197 -0.5776026176981499 0.03844479430210333 -0.16103402973200773 0.46849398510564805 -0.3811953098569696 -0.4812298335298677 0.3917777245162267 -0.11307989821956088 -0.15532492435688255 0.00961682766121091 -0.537631352625642 0.3511446564813727 0.12305970486433909 -0.15307280114987803 0.24586594102413017 -0.05011940234066353 
5.861036848752955