-4.752042126997569 -1.343930201693201 0.28522505959560984 1.476659931987551 -2.499440875994281 0.569061115767614 1.1925393740140497 0.2816459704807621 -3.167142495789115 0.19617985939631444 0.29917726700823916 1.2430283913960891 0.25836874344066374 0.5856403959514321 1.5765079599252236 1.6865966557860685 1.0241195551557638 0.36235251325018336 0.5648284124112871 -0.7524825516937986 1.7676879593305397 1.0665693024947722 -0.3571954340498414 -1.5080328759145112 0.5121413192877224 -0.7165439971673764 0.988836339277217 1.4407855243929395 1.5258182226737707 -0.33607535910529 0.7803618437982485 -0.7001532984807742 1.2797173076132813 -0.27220429336644925 0.8306411006893532 -0.2598603410137087 -0.9129875711838779 -0.7657698558718884 -0.9809736492660208 0.7271575325793836 -0.5886166708808938 -0.23772610908932315 -1.1742576049574747 1.046917858362439 -0.6819448730991159 0.38131331349058056 -0.5529440307333572 0.09024296228270498 0.35897547946215536 -0.046890005121738965 -0.09617513176535258 0.4106954244318363 -1.3592668275681545 -0.4546823697421556 1.050073080741907 0.26362894989377894 0.3587967951956523 -0.09358257679060056 -0.8832071916027919 0.16899664492106398 0.07446873659483763 0.2561025017321694 0.08857857193523289 -0.6364013669036962 -0.11561509153817952 -0.23033265399726277 -0.34327282109419566 -0.18268704475179462 0.12378203959809742 -0.4358458142903399 -0.3029180090367827 0.570989680969709 -0.5879865457987173 0.313537279551409 0.25044068948202614 
7.196432227905382