-6.728207945893433 3.7232858666302864 2.8707239073472133 -0.37804743634187127 -0.8472024065717731 -0.4430631168648148 -2.2017948083783474 -1.2247073970273799 1.1721658182896495 1.9143303074108347 -0.7505131895698746 -1.4134042345420847 1.3426369401000018 -0.5877125116048119 -1.1589217296893257 -0.7823866213664556 -0.19394867006134078 -0.48407006913746714 0.24545885621107913 0.8650009001204045 -0.8058645908765639 0.07905563445670097 -0.2535620344109759 1.2169352435770324 -0.4542626302845645 -0.9007921150579838 -0.40092089470893993 0.5544202873092609 -0.17811704594999905 0.890834692636224 0.550214068203782 -0.16135687351552847 -0.6811182441905435 -0.04084340005338974 0.3669533158869884 0.05081214685304003 0.26472780396495366 -0.38036732574735416 0.1697930833869381 0.24718271905221328 0.2121663385306329 -0.4064273954202757 0.5923572245466147 0.37003772209804237 0.11355696051651085 0.33189371948384067 -0.10739070380248278 -0.12140215433423301 0.13800893406863865 0.1082637766895709 -0.31712425565370295 0.6887892158234532 0.2101563896480682 -0.14407453785250446 0.14855645572262738 0.3021115602282259 0.8583840923595213 0.2750151957162913 -0.2948087566449625 -0.34333518289213905 0.23554116438375666 0.14821548991850003 -0.5916830359116956 0.34802815352690064 0.20965891933635014 0.5496602446522714 0.1073572543229068 -0.19461088329495638 -0.14927321202812321 -0.05928695921031094 0.5048532149570394 0.17075781494734082 0.4590667802287032 0.17438639316791835 0.39924776257988714 
0.6367241625782086