-0.49535670191994363 -2.8234080913526913 -3.9003728354194305 2.053661274408565 -1.0980107481794015 0.3337605982925025 1.992701641075148 1.5791964547507358 0.0203910816501347 -1.5167773609196746 -0.8769138015264715 0.4585865542687346 1.8608846811689381 0.9784514771031487 1.3335189979717592 1.4701001115271022 0.20327198695916382 -0.3889180693703802 0.42065166947598726 -1.5349751336399728 1.5855175098296734 0.4881893189089203 -0.5436873653432949 -0.8303368842590765 0.6958523036124964 -0.7579493499914547 -0.8442500664766381 -0.5270149121416077 -0.09191855089878961 0.303909249883993 0.4142653166772633 0.8370950270814208 -0.12896507664689466 0.3539016263271748 -0.8061001278763835 0.36098995283374014 -0.47767698784984275 0.1121277826431819 0.6284923553819556 0.6237248640134604 0.056996275570651 0.18720996080566105 0.1602520335317461 0.027676334635645672 -0.5418460168310559 0.04211019090488499 -0.032824190686102844 -0.5759000508890946 -0.21632426692112983 0.2462242177174994 0.35197515279478514 -0.10293027381966413 -0.10212329720319815 -0.2608054979713283 0.2292973559690418 -0.47449881540019895 -0.24445552458493647 -0.15395341549302444 -0.29223772313108465 -0.5754279126413697 0.4522353639062846 -0.22162607298462172 0.18653096357446697 -0.32531470335305873 -0.04966701156343383 -0.05163270309999403 -0.13113400619485271 -0.20367246034099806 0.26831233897743967 0.20540743691213464 0.1585567981605973 0.20121758830078262 -0.25020947457096376 0.31138627465575147 0.2545853592295076 
3.714651803871142