2.666941497157045 5.378671786437279 -2.6261258332304775 2.991185752278379 1.2202231701848802 5.182576058135013 -2.319678171573618 -0.031895701548471656 2.7577031670346 -0.09411595860610567 -1.8135450216812556 -4.039626366710615 2.492732609351642 -0.7388251512205318 -1.2673390142186025 0.21338224678909629 -0.5154520838886671 -0.5579879145328137 -4.796579224515604 3.0333771913289955 -3.0686903539348185 0.4393238769040858 1.9123349362951005 0.5512337031757639 -0.07305850786765405 1.2109358789049924 0.07540524655374793 1.436231677054924 -0.1622187382087676 0.3343600389975094 -1.4099953978338666 -0.9602801082725093 -2.5683349078421696 -0.3184991849849633 -0.08169752553054864 -1.6829029241512348 1.7557579091898503 -2.2225212854747847 -1.3164669507187854 0.17132040571789608 -0.16132596889346026 0.5294407582063407 0.9729609231831651 -0.23872520317631366 -0.318050065501264 0.06148074261076908 0.4182497569232208 -0.8601868831478066 -0.6514113439224288 -1.743121903920476 0.1878826011596762 0.40824595788912194 0.363975712385644 -0.13800538986798416 -0.6186458242848232 0.41946269032561995 -1.1876380921867418 -0.7078012360904044 0.8158500482889871 -0.12164748311413329 0.3859038138128468 0.562927837491776 0.24849157610449357 0.3602608691732217 -0.8848601690715239 -0.21110810180911574 -0.5766604876214589 0.17482418197227106 -0.7038915881799825 1.219647139774473 -0.23290922621656884 0.27169788500723446 0.5216734307594787 0.17851009727896 0.09664211971324105 
-9.02926954802052