-2.494891815380637 -5.23470629105571 -4.110519784678377 -3.9726443692597937 1.079754487220864 -4.006554050549019 -3.533628195103478 -0.47457529492258393 -2.1406833662048808 1.5397508419664032 2.464122546404924 0.2595011393285548 2.1312542401040315 -1.043324138583835 1.7399215589003867 0.8307268227892783 -0.19878359392772754 0.8754305943940248 0.08678120149718777 0.003862653061428245 0.39423560822318293 0.8732229585068614 -0.7211201408734662 -0.7372772636346585 0.6102475346956826 2.1283272076663566 1.2907239166923732 -0.8240259418726563 0.010928760923596514 -0.6981532229539872 -0.47533758352499456 1.007950999856671 0.9817508586586079 -0.13234330294394575 0.8118999237289389 1.4822068875983243 -0.23552676954484403 2.100480381781453 -0.13268156029517875 1.5191942529167741 0.04229426609458936 -0.1214966189075247 0.08601463744959006 0.32969126805313165 0.08422084093822327 0.9834668290903856 -0.36726529505009425 0.830323177275624 -0.5163960891176724 0.26490857601449613 -1.2170189092969383 0.6517399871942327 0.05914613574614758 -0.32559466617715804 1.0387971328952796 0.8505385945791328 0.9909033294637034 0.4608651386764249 -0.007039138086671434 0.12532173368510294 -0.14100040354693028 0.08117525696281977 0.49762320368945767 -0.07879388631742285 0.2233876678063648 0.7041230932573197 -0.6477967924573267 0.2882798652323138 0.33555942770167346 0.20962242414599566 -0.12044958602488558 0.36495668188417885 -0.041149344657693376 1.320461875191525 -0.29491910499350604 
4.9595712611288425