-1.644667268012415 0.8767075887952611 4.736544123005798 -1.4766182865146726 -0.6114369404915592 -1.4664674900266155 2.9878453567695575 -1.505985338724702 -3.684215203548941 0.22764440704761352 1.0918138981474854 0.9485475298843691 -0.6811274872488633 -0.8874403386591543 -0.421132579122638 0.18614615974746973 0.979275532796139 0.5920244703883952 -0.1001301191795056 0.47924421401383144 0.6017812593715572 -0.8722662055174386 0.13551293595911154 -0.25739958363146764 -0.5921266738101927 0.19460065931135656 0.887860306121504 0.6603237061988094 -0.6060761348165699 0.25981558870755345 -0.3104875858832338 -0.5499419220026085 -0.19819167746136057 0.3227377347945629 0.133483329698438 -0.257138337633847 -0.598038229115826 1.0165680866165745 -0.3425213787567952 0.6750659739268707 -0.06594806185680728 -0.4877427626347028 -0.2220038118448988 0.15660221501764077 0.34150400269483966 0.5079625683796989 -0.2902980745197815 0.32130058151253454 0.2993875289738099 -0.12831520966833704 0.29385908980167486 -0.13349270126505966 -0.324290872429008 -0.22756446457289148 -0.11583943081056822 0.20836435397180414 0.07875715533849134 -0.5440665888509483 0.07280356394695375 -0.24271335148407647 -0.0885410297455067 -0.2197903054099903 0.0998164055067779 0.012646453862690463 -0.0066365569733428526 0.2053432082712903 -0.21341284170312164 -0.06435690196286767 0.19514360863901603 -0.40529629825165336 -0.08917293204615168 0.009196221345535632 -0.11546658734116516 0.2336687794923532 0.018458965471915334 
3.5704732896180786