-1.4645364750214247 -2.245352512081242 0.431306020663363 0.25661993260048077 -1.8357269794813957 0.06273381316030546 3.486643465764323 0.6261792305569104 -2.774238358292033 -1.4835449003733705 0.6143482928216317 0.6498903425822657 1.8611731175193449 1.1087666177124853 0.33365419491701753 1.649493215726073 0.32021674222694596 0.35700184476486685 0.5260253217727299 -1.1388054496139273 2.20064715498082 -0.23700482102391007 0.09123165817928851 -1.1248933148745588 0.4340499368022871 -0.411096100980081 0.1707521648700187 -0.7339647398669591 -0.4120773787579588 -0.02300528194867474 0.35502806472578663 -0.16678610622382087 -0.3619518073953266 1.1250775903367847 -0.5094043317215506 0.3527212103797166 -0.5476458233042967 0.2837165529571056 -7.566622369748199E-4 0.5937050815816833 0.2879700334658793 -0.23072192905044153 -0.41180043513094433 0.06521182055977237 -0.38009020600004 0.2035593734909278 -0.23323250964577683 -0.2690487769639134 -0.019629595854892865 0.14993900942268967 0.8141345113168206 0.39998860375781375 -0.38250204970787627 -0.07752443565155694 0.2204702130033439 -0.6698646740538097 -0.42687190736266445 -0.3775528332372289 -0.3617495051241419 -0.5833058870085978 0.551056415770643 -0.47917492238295506 -0.012531769252830394 -0.3394254194304546 0.0760447037860214 -0.10634759389093029 -0.14275894945702816 -0.3689512584715914 0.5637041731635347 -0.34882751034893356 0.27235226385485256 0.07372250204870157 -0.5087618033088207 0.18572766845685373 0.446602154832892 
6.138758865991542