-1.3065123474710303 2.758361305707459 -4.1762295763664135 -1.4536529151246926 1.8952958767256025 3.6564608742507865 -2.986167040169548 -0.006311381054155619 0.748787560497336 -0.9782638801953153 -1.8676643439059175 -1.2957427734566422 1.0584053616241402 -2.1817949703680597 0.39847589366883696 0.7205531107874349 -0.2575492287948351 -0.38080234295663135 0.31363704506164947 2.7899588474400083 -1.2803144129603992 -0.9314474814391859 0.17504822842277204 0.8228407743466748 -0.3555028312775911 -1.1342755190632166 -0.6479320997791213 -0.5787234499540805 1.7928784093073347 0.4715908838163161 0.36810829353042457 0.18984810908519967 0.035970081405748894 0.6348402289189283 -0.36470882006404093 -0.48935158611188817 -0.09493022748114814 -0.3644922726052387 -0.43139350510478947 -0.41219907164369174 0.4404765182050115 0.4226784020079613 0.3220954044629346 -0.7296267619524828 -0.021595631346696953 -0.18715579479898087 0.44093968210158285 0.41915173788898585 0.07941633116584113 1.0394984609028823 -0.9653362253029651 0.7220246199364031 0.3323195492205999 0.2680851231429461 0.056918971081225816 -0.7542429100339157 0.25584262311870426 -0.07559543397120919 0.5083291309879476 0.4293080985215941 0.39055418725710234 0.7561833633298007 -0.25347421607937504 0.4614885558351203 -0.06961782493230444 -0.3342589123879723 0.16012744630848824 0.6267377811974381 0.5892760746734753 -0.030739727790854335 0.20120592128477127 0.29596996501507167 -0.01064994202028211 -0.24374009231728275 -0.397693281960564 
-4.4914047169651665