-4.577855447468732 5.43956843728391 1.4779205783955622 0.30791664875872904 -1.652794784017181 3.427514194935565 -1.0829958031464022 0.6161252916313027 -0.7050558882429305 0.58194144507248 0.8965156130410579 0.4840333784048543 -1.4513084150703228 -0.18934937764999582 -0.3518474505665439 2.710238149478571 -1.477891647923479 0.24532565279354568 2.076755016371271 0.18010643902993478 -0.7668559016147767 0.3411905150380339 -0.32819010329971043 -0.7465279853222997 0.2968202042514946 0.9236804760165025 -0.4778461561809489 -0.14856485490132632 0.29047561942271827 -0.4963936952556049 0.058862931441925746 0.0032969649524374617 0.42438812859157343 -0.5520353675955797 0.6537353531540931 -0.33153379073291867 0.18738639451995165 -1.3277875642684094 0.18605259458430798 0.0370838394059243 -0.05132307562874372 0.07755687894682148 -0.1168549586365375 -0.02224636674648045 -0.6587975208967087 0.0704703864793883 -1.2752077275421283 -0.39265126197511035 0.15469807862759144 0.4759403157859947 -0.019435281564413376 0.07419958190123249 -1.0725483030497664 -0.9495857526277803 0.13100797364443362 0.26832173074139254 -0.0277958061830067 -0.0786065681560123 0.11368878736964196 -0.010070612357287345 0.30319462206272313 0.031624894865657116 -0.6499664248817566 -0.3629930104597235 0.09718221008341844 0.021215567264328772 -0.20157016327224156 -0.255401728520508 -0.1990438740314408 -0.31296506213758035 -0.43020231285707433 0.14051652011658933 -0.015173464775441181 0.11007157403825435 -0.1493494789462645 
-0.6296569448542689