4.972350854008926 -2.4244146167824123 2.3644349071754855 -0.3204913153400343 -2.6772497435397367 -1.5995248503083466 0.7402794187522974 0.6355073105820216 -1.2029045830819989 -1.816598983785952 1.6173971431109844 -0.15377650980971747 -0.1082757779080872 0.5302817659825125 -0.18015463615973717 -0.409356515904978 -0.10250528341029924 -0.42160510401622164 0.7685141462093994 0.7754826729971152 -0.9549691251260892 0.28325944134011505 -0.5029323149475438 -0.2333151644351953 -0.003735996002487821 -0.2710255487332037 -0.3976162253138701 0.18708097170359955 0.6704125392811762 0.08139431345734874 -0.23164050450644275 -1.1843195193543 -0.6368281601307137 0.260942160448019 0.5353578513470129 -0.17706048007240277 0.44061808193280044 0.0026723469801870313 -0.21496832588454826 -0.23470443440099525 0.11539442334618472 0.7207883092622832 0.7623764678946945 0.3320459322846114 0.3170752435452776 0.07946004207925818 0.454202325724904 -0.3692876065238785 0.4049054205865046 0.0374773892481257 -0.3307243283091434 0.09714177636938201 -0.8402782572124214 0.12408817140813382 -0.15209228147796353 -0.3760042462419006 -0.0028470475370595827 0.471546522142658 -0.22214335925102388 -0.049944966981952436 -0.04284315907433213 -0.11054083196263183 -0.15971510013437915 -0.03485665317436937 -0.019976636543004404 0.362618180801971 -0.10868638019367548 -0.08641304938755703 -0.2831714043005524 -0.1082556510092297 0.3706518819425012 -0.15024410440343594 0.058299748468832194 0.3940167105663739 -0.06007568830691109 
0.29087501772193824