-3.3461206300586035 2.9943875403207354 -2.036558237247317 1.6462513571296007 -1.7504311243392174 1.0726384794016377 -0.8699676562240015 0.7171263361118192 -0.4605627962768464 -1.1230820846223923 0.038588955560237115 0.9260645649774586 0.5563815306727368 -1.156663113709677 -0.2556453034681856 0.47845893300726716 0.4975796954748697 0.9359424244508705 0.19661791236086507 0.4565825976112555 -0.6473683469744711 -0.024402130975942293 -0.4556320575317908 0.10062268724645186 -0.4875728598658035 -0.2867911739996532 -0.21297683034671416 0.11888488793701811 0.8714232266642595 0.42007647898461076 -0.027249157703117394 0.19459123503872564 0.12555183744748022 0.4709411580382191 -0.4058359059230146 0.24111178871337385 -0.08396340724537298 0.39956922041759907 -0.5048099280522963 -0.061061404396984376 0.04014235809219077 -0.092044676944262 -0.21909167936599327 -0.2857723060624513 0.1009807971938399 -0.12768031618811687 0.3522584221071207 0.15243821804451213 0.09463609932075173 0.39681793166232193 -0.15385523220995084 0.10350211904324468 0.1142915127361577 -0.051597630306994255 0.02150349962386329 -0.1890761718984036 0.2143244896644676 -0.0664307362594605 -9.945822400554694E-6 0.12881913142039392 0.02546153826940671 -0.08240782904094157 -0.05935182920851084 -0.01438628724492777 0.07037005285645605 -0.18249710991931134 0.06275564643991727 0.2020861825882304 0.03853152896243264 0.1606313347915938 -0.05543710140727534 0.08284043927194543 -0.16676637890494014 -0.032760544315743295 0.15407577440514714 
0.42360977456840404