-2.428883700435237 -0.494099505946453 -1.776677835793698 3.4271062892746933 -0.9280193584872909 -1.3234676828904444 2.429590249757123 0.5489702461711238 -1.5229406544704882 -2.696563924897537 1.1222572739476395 2.671503218094297 0.30267762855339553 -0.05715075051497487 -0.26895226437588243 1.1033706516417794 1.7542049850808077 1.0950241602845123 0.19289757512837713 -0.4703037383126617 0.4473676963423068 0.6774026097136071 -1.1628739017107073 -0.752275790099246 -0.48937872966783796 0.9653389714469759 -0.8029023416276546 0.6368700509821956 0.4328904889718843 -0.28567485972198714 -0.6429907881146466 0.09319296842559094 0.4108084784082703 0.6076040330037824 -0.6763650514010654 0.6217302382493948 -0.07482324390844008 0.8152288497433173 -0.6771668039134222 0.36821205097697407 0.14911531234153586 -0.07906023914570996 -0.7214228751538333 -0.5941629111826103 0.35830182107911535 -0.23323405717414347 0.3084886941745715 0.16239105416169144 -0.03454870906202481 -0.3119067138562086 0.28501000645247954 0.22042615742756605 -0.05220754286532514 -0.5790809732681866 0.20635035785187242 -0.029131195800187693 -0.3652313535716668 -0.14849618707793677 -0.0724277812323025 0.3352373141586956 0.056170109272536045 -0.363040682720533 0.38445587433369505 -0.28495086868223385 -0.2792855377912663 -0.5091870552292683 -0.5734809229310462 0.034787538274244856 -0.030919608050649777 -0.013883903210944834 -0.10606084343698602 0.0352374590539106 -0.36580650299793205 0.0101713315167421 0.008645646433958598 
4.627278333607593