-6.288975448484766 -1.8895037591541985 3.207254311591427 1.4721602847323907 -3.9096455691340335 -0.183428874954493 -2.61243869938159 0.31499932347960335 -2.801399257364438 -0.5653446416383896 1.2722757471536226 0.5513275865126843 0.4652601330196786 2.2334834301280857 -0.5148719442907914 -2.918649738992497 4.006764878136328 0.3255766664060449 0.6133777022714937 1.7784387174824146 -0.3075156622302133 0.6779114368397776 -2.8559960148096812 -2.7353350597327557 1.779543793267528 1.9771459637623798 3.805957167130668 -1.5026894847652044 0.4249462534422931 -0.9017517254384818 2.5428528254909923 0.4259077579744549 0.29807145189341666 -0.9690319835638823 -0.021178383186440386 0.16302291200570673 -1.491946197074743 0.12048122447788456 0.6508080451656837 0.9978044199983924 -1.1634030231529806 0.4758672393926207 1.4387589046451712 -1.2469854694847051 -0.19927225028415307 1.4447666151898713 -1.0374933936883908 -0.8726768453777836 -0.5876504139003043 1.0614876630159276 -1.3129099282115364 1.3060554633454966 0.7110157605025933 -0.5026051433517944 0.7996083879131077 1.3411778687974723 -1.2422294122784945 0.8852756894992921 0.30491729983901683 -0.5834099717398646 0.3431451532357147 -1.32924798337267 1.4984094819425264 0.1127665969794136 0.26535957039301117 0.36443372883326497 0.21770468498518666 0.053258588249322725 0.8618262126425291 0.4829525433268438 0.24183546150139934 -0.09634297270810777 -1.1032235370147663 -0.02228524100376883 -0.5465569168268569 
7.978841554840509