-1.5946071184243396 2.5082497506338166 -4.795458845744596 2.5836470980756805 0.5862370881931576 0.06519197540767152 0.15840022036919277 -1.5135704870483682 0.49243475504826706 -1.524568700917427 1.1057240697399788 -1.6861700595613558 0.4985798605242583 -0.6426137581436374 -0.2213821139234916 -0.1440958940317975 -0.6992774111324285 -0.5452723140049451 0.04598502376431485 -0.5644600081034994 -0.23249025215475227 -0.9459217628054033 -0.16743917683958126 0.22741629482008327 -0.6864357543498736 0.794119559439138 0.10634729213824273 0.18626036093473838 -0.10783759582880852 0.7345031168203269 0.040980657910683116 0.21381896197214686 0.4690083572091443 -0.04613229127753338 0.2672511566157237 -0.7497043129724217 0.12709568160914292 -0.6614444237864758 0.5728989384700399 0.2072004411858911 -0.4587589085754731 0.13522896147798158 0.19868340583375096 0.4080415424381657 -0.3613318266297443 0.05331057951733398 0.6975568505724937 0.08887132310079579 0.06963772318883049 -0.20203127403057916 -0.0866987847953383 0.6200215520745335 0.18363907922590478 0.626707978071253 -0.2654277909506672 -0.18418707393052197 0.24388904274370304 0.3057863369593259 0.41098526682156405 0.1714986357701532 0.5276853291048311 0.39863537718846603 0.31457497470499085 0.31018117709421644 0.46787237538990195 0.1291378270843046 0.6507050372085414 0.3948776580421871 0.32401480186675746 -0.18808549934718619 -0.13431132656876288 -0.015389798215552045 0.04488325595958959 -0.16484809479468268 -0.177824093431972 
-2.3549095847298447