-2.2881338622943463 1.7244662911713409 3.3513635254856506 0.6128743903486662 -0.6356259182117405 5.6843732008841785 -1.058570589235198 -1.57491224635091 1.6641980124917977 -0.32142275973492884 4.253814707258751 -0.5316906608396601 0.5778104080826538 1.8323749329371828 0.5001381517653813 -1.895953495305096 -1.6592391970699287 -0.44411311990400126 0.5567227424955189 -0.07858223929236241 -2.0460328478661194 -0.2244682313421711 -0.9276841927083915 -0.1099991320169606 0.6485914898409099 -1.07520771031145 1.0490176681157393 0.092728622894795 0.3396907059530373 0.04310375228704219 -1.6282436586427862 -0.10378294674067468 -0.7811054474475515 0.27072597262801024 -0.2231181181972296 0.5030852759758517 -0.43461834590256987 -0.0889401686534228 0.34956802733913317 0.2593846812736649 0.20588819537045075 -0.24392981201034789 0.13562350392439126 -0.17829321201733128 -0.7920680170937123 -0.5439446808859449 0.36860103600874305 0.7792035272203223 0.5516257595805392 -0.7486541751194944 -0.20036553907973853 -0.877247306332806 0.4772817330206222 -0.319664435415996 -0.5736839865766373 0.05838939315207947 -0.14740952530199836 -1.070046452083623 -0.7888274453080463 -0.34559302141756093 -0.36018371768966906 -0.05597999906136608 -0.011934012225360835 0.2815781372905263 0.06649881105507424 -0.8125314924924703 0.162277722340384 -0.05166804651012491 0.07851923377971426 0.32418887689109166 -0.48521867141843367 -0.47183044821080544 0.5644618601582194 -0.5873448478551796 -0.5703066168472645 
-1.063568556905949