1.7926164734656496 -4.715985470599563 4.9915159673355625 -3.003647135183016 -0.9170862809494604 0.41604354525859577 4.146204479207178 0.040533097091687065 -2.2210478561471945 -2.59013674438614 2.819458637036624 1.326177205375938 -0.027915556634003025 2.7234498130250087 1.3500369780619894 -0.5788774988919443 0.7006282489455673 -0.33643191746225165 1.3035576112430434 0.46234207664516846 0.7229337939851428 -0.27896940369083634 -1.1287855781003404 -1.0463479568403544 1.183025972108958 -2.1674535017059284 0.24876865774343015 -1.4924210749851838 0.3308984758253326 1.7129123262584685 0.26797223268907466 -2.85844346113929 -2.4163278773049326 1.0108310590677099 0.1578169105435746 -1.5409697039564176 1.1905168641737562 0.7496602794976472 -1.6191929679642885 1.34602850739383 -0.13329555428526957 0.3319586101329032 -0.4009914030645738 -1.2555927234226707 1.2732320300376618 0.31019705349915894 -0.11604857686080039 0.47467028972136616 0.3040940791607935 0.2627907725312497 0.20100863066132124 0.6877499310192399 -2.17379741884542 -1.2765541979049109 -0.12315277344341302 -0.32922689252571047 0.3217947959001335 0.33429547313314023 -0.6547955864037722 0.20767440674522442 1.2402726298454345 -0.29730813054913385 -0.3720901489075399 -0.6227868119189566 0.1552565897420144 -0.5669298430718808 0.032635527389031305 0.25959618006013674 -0.5995278893669131 -0.6862534873260637 1.3091268937972924 -0.47763840620982845 -1.2267065672781583 1.1287479247179253 0.4237053672531974 
5.789138380557976