3.2883205257485244 -6.202704013574991 2.7422670511598266 0.1504293164254189 -2.098022824968468 -0.49597035160192826 0.5363528031638385 1.1056781108912248 -4.881048772815486 -0.7321335235384996 1.051203140354506 2.4782581697940005 -1.2015870019207253 -0.5140261231786876 2.2148860540512887 -0.7819433331212832 0.5314397614860888 -0.4577585547932791 0.5105721917992403 -0.5894511381785413 1.1452847323300186 0.19928265920362842 -1.4993162801751656 -0.06553195004942403 0.14626588807059215 0.21321137289230296 0.6190111254737877 -0.06306320555298972 0.025263110970423087 0.07173956115050135 1.3296733655798658 0.427741065061337 -0.578089501677887 0.46034884811435295 -0.9692790899085072 0.27584174180480836 0.1824734184045449 0.16395787206081552 0.6960771895584188 0.6879328030359463 0.16417886655735553 -0.5724386803959737 -0.40821378516828905 0.8329052656007074 0.6082893576811447 0.3899834490747176 -0.2698430626004815 1.557166686136132 -0.46821585455799886 -0.013877775347124977 0.03773691822336023 0.12864428518779591 -0.15618934635411014 -0.9843707367605141 0.1793858407289982 0.018461231730257044 -0.06574574200268679 0.14722940765097772 -0.3573168557321734 -0.08780264543324963 0.14682571218676016 -0.25146511225297236 0.12496272560195154 -0.5695156498799635 0.4564035100186555 -0.17226162681732637 0.151107930841483 -0.5411351401722702 0.15260824589883365 -0.10006749803986198 0.3660230629883617 -0.008336778200194794 -0.20205817538309018 -0.05406213052202613 -0.3025821140166415 
5.695674197761175