-3.300089317926579 4.163285175706788 -1.4195047292770397 1.181817685916182 -0.1693797530769856 -1.354164247697643 0.5502342006366197 0.26441019930574894 1.3806244284319007 -0.25224925581879654 1.1303295047611663 -0.6982685433150462 0.49372139642772606 -0.6146792732369414 1.0896981617049417 -0.6715239655557803 -0.7229225727371134 -0.1311877244294521 -0.10716575297931241 0.7444119387269503 0.38958238325266525 -0.8561196882153712 -0.012361572662106801 0.25846230168749185 -0.2969974541542978 0.3895534463899075 -0.4530249003157525 0.04769999512841144 -0.11110024597777104 0.2585442516380093 0.39676966762424315 0.17505424596748514 -0.35238601016904114 -0.09595803438680489 0.031412600666099286 -0.5880423586001123 -0.15503062398308282 -0.5501320394864246 0.2946358799173161 -0.10130988409507036 -0.5099930984820142 -0.2558556579041489 0.15380229084249808 -0.05096856362428828 -0.39025867502993694 -0.18331576194367244 0.36397397303085066 0.2150499761186249 0.10559564296111515 0.014719139632844061 0.25475865828731625 0.2346585892956814 0.20123383499563613 0.3522189431759024 -0.13462440567179887 -0.37031299174390886 -0.09769635747979905 0.16030442774332032 0.20238056901530946 -0.07997610051801653 0.06285549158141002 0.18161494563279237 0.046423174309990406 -0.01141250028846394 0.08606210341143751 -0.018723744928194452 0.38668838699250946 -0.13043220999162455 -0.03264621477218019 0.03562507781984411 -0.5773401700916692 -0.12347874648381753 -3.777299611253532E-4 -0.07615857700253287 -0.24104323472302858 
-1.3501490589225316