-3.4705727025468738 5.556393120802998 0.7707710006286692 0.3112659885328559 -0.8580256135466708 1.0351399989768395 -1.6312644201771507 -0.7024784909962811 2.3444851605121215 1.4521945598548631 -0.6714754319075932 -1.8403268858290514 1.3953189882879058 -0.49433937311415393 -2.0595926978065378 -0.25973505214405157 -1.05581515584338 0.7195958086738647 -0.21535166535607397 -0.37067958707782145 -0.09101590024850226 -0.0722475416091477 0.6475346744197128 0.868003448407985 -0.1574450012113366 -0.7476915632224471 0.1199335894323178 0.06848985197731666 -0.27097153981501887 0.6002891808703188 0.1510438595814514 -0.42244571025618205 0.18697325771296996 -0.8162069912307994 0.710505507624202 -0.4690138648694116 -0.23812813025356422 -0.15132879773807356 -0.45423914498752993 -0.1425471602793401 0.2808976418110785 -0.1616154200611419 0.9055501177790374 -0.363383853396128 -0.5397793572286627 0.028257787139692292 0.05101932911466173 -0.7231609506194834 0.14139538571535176 0.6220549481304498 -0.4552801275403985 -0.10442039983601509 0.3803410366894203 0.3347847761256185 0.05445856172162382 -0.3995874477014705 0.6914509085546514 0.1974623471489067 -0.12136784133818021 -0.4995504888744635 0.09840631940015651 -0.1377887796263394 -0.5559546299867063 0.41257501380057093 -0.06491974914311956 0.34621564152077583 0.05985149136752274 -0.005641839274543481 -0.33191359051177427 -0.1259249845000238 0.16174921591524724 0.09172955802395552 0.41814811377117944 0.07025177601355603 -0.03131008433439475 
-3.156266166081466