2.3044143761323603 -1.2467265265891896 -4.931686829924273 2.5206029336803333 1.3095087634583027 -0.34091715938847295 -2.532083228129292 1.0366840018318018 3.9573023828300324 -0.09085315641071656 -1.7148838864707343 -0.3090681197699778 0.3350620710826041 -0.02468470384919947 1.3121088279104776 -0.395992120320728 -0.4143468384447829 -0.7937217929609812 -0.36521607235144904 -0.6607801695613023 -1.0818749508119951 1.0388750227774226 -0.383652126598475 0.2278322097418083 0.6465565640314186 -0.10855067859611497 -1.3397612107680468 0.30883184526554486 0.37738033885486344 0.525600277985019 0.26398154755439895 0.9048902122102283 0.5843544522040037 -0.6470874440473957 -0.7126860627762257 0.25514140166213056 0.48751935855399 -0.5443095033329145 0.540562652228192 -0.25915839337666563 -0.5351285753626381 0.39358041600292026 0.557553293092561 -0.16873318021843015 -0.2991456276221081 -0.11377888997349203 0.18957540224762964 -0.584066797968245 -0.24321696152661165 -0.11384303883752206 -0.5450163170340319 -0.4252478494754588 0.10482993037395529 0.09398860309054485 -0.025329023128426643 0.24401332811355303 -0.1253863822291994 0.2007495208085902 0.31777586081260595 0.01249437452649406 -0.3701428250441263 0.37583227744181025 -0.07148791792010802 -0.13806876173371715 0.11835828226295685 -0.08501689126828638 0.048373141778847085 0.4936020891249617 -0.37463868078452495 0.46499914418824434 -0.129905136452596 0.11113318153490159 0.33667377866642967 0.2206936624746617 0.02475830452181875 
-3.6724477747088766