2.5049500389572765 -3.4977031296694516 -1.3105419526146527 3.7112542335237135 1.7448523228033979 -0.42021999715806824 0.626313172350546 0.5753515748042266 2.9305680521307664 0.5281822556131294 -0.9058249329690181 -0.49812474182467725 -0.2626046932458175 1.8831832136547788 0.8221362705549176 -0.36747218779321505 -0.2552420956640403 -1.2843059137692088 -0.879737167016086 -2.116200728639957 0.43628941341089367 1.4129732361556537 -0.639008283614884 -0.48006610724135135 0.012102847959915453 0.7364925138499201 -0.9033485635705281 -0.4880905542523826 -0.8163756166129374 -0.3305975437449118 -0.4570342563529931 0.6959838263502178 -0.24998245704508415 -0.9416846032885064 0.09743074790327266 -0.10403431359361673 -0.404808800925475 -0.35273567489743984 0.802929502376908 -0.04309290543796829 -0.24291447936146152 0.2937148195691126 0.7260610626372928 -0.17936189253145807 0.12913896287278737 0.23017269329706613 -0.037396375184601705 -0.24646094624841744 0.08433775757024829 -0.679329994888102 0.3065638316005477 -0.48449918603489506 -0.32359082164715636 -0.8084080497354336 0.5791726205007917 0.4545821544409628 0.21422005656944051 -0.09054786659505848 -0.17387747353372096 -0.2429593923781861 0.24588655088801487 -0.158485146844155 0.21331689531095027 -0.3317935124527341 -0.11596835256808535 0.30409658129684214 0.22485807345871173 -0.42560069589895055 -0.3464692561017802 0.01831377783966867 0.042609124370178886 -0.2343325892012989 -0.1840723718507702 0.09404706930045009 -0.367179629924072 
-0.1968155054330073