-1.7888353806734054 -1.3598094549748332 -1.3692862428318435 0.4906567162511337 -1.7803602815701205 1.3133253390512811 3.1216669062905136 1.1560129028819384 -2.385069193276495 -1.20248490590214 0.6599711689217056 1.4185097203366612 1.3754512056001142 -0.008857632258357895 0.5035816275683964 2.0545557774859233 0.7041608955542152 0.06690992630855616 1.3685196321141966 -0.8193554878078805 1.9950820098420006 -0.6022337239299445 -0.3590712706466054 -1.5999509779185541 0.5917064087072264 -0.4779599107403876 0.19254508828866318 0.49462185995310315 -0.06477103654887434 -0.06389126103196952 0.3491962280454044 0.17079226697507643 0.31540864483649667 0.5973337574776827 -0.20758156800219635 0.3356029842094933 -0.5337833893721929 -0.010565858998092814 0.1916066800710689 0.47081189464320705 0.020429744326992696 -0.26323439952492717 -0.24201255055526805 0.4462320879809579 -0.887038401798318 0.2359580714314915 -0.740740505644393 -0.519316265627997 -0.15394470337268168 -0.14518694936406495 0.8043988520294121 0.30414193063670203 -0.9267197692703572 -0.5505532072312911 0.22765172178391563 -0.02412174100127995 -0.5994532813765237 -0.4776013959436828 -0.42231434404033125 -0.8114998050828136 0.052760325083755166 -0.10483508115460849 -0.1217779463507273 -0.3589066309321889 -0.11119738490555707 -0.29065055703620807 -0.5333627452463844 -0.48148620453377156 0.7066575627225952 -0.4718818582952863 0.0343260891610383 0.5722187120847522 -0.07518831044380851 0.17029791810942235 0.4337889584513138 
5.1842290373863555