4.513023804889665 -3.6386193286808552 -0.3837315130013209 0.2638778146070571 -1.369481212940162 0.7844501888728657 -0.38302710226336023 -1.9198910897443713 3.3239105924863446 1.2722331721681566 -0.1053590369385844 -0.1171924960997699 0.28742337378133176 -0.5474497191991873 -0.48522381597694275 0.6174564857643683 -0.38264609693619533 -0.017670171230995596 0.17820596566556235 0.6630280789758605 -0.4992903013734056 -0.9427887587204151 -0.9953187869200357 0.34456072308544056 -0.44132109190204916 -0.19962683063056882 0.20333643807185459 -0.46145744499352725 0.31792875493061795 -0.3909882599709224 0.08335762795076462 0.2759805328953247 -0.41923631750397783 -0.0013014596608013074 -0.07800056286874989 -0.47199380538022484 0.09485048020933029 -0.2835596245414308 -0.23351705281305368 -0.3036979924842145 0.2508890092446418 0.16950517909015972 -0.1365194023329902 -0.2372256610541687 0.12468359725044065 -0.5392245173702588 0.507125521932865 0.15121768699136506 -0.23372989961410962 -0.5338784812405374 -0.0518659790575664 0.18209402228393828 -0.15584388709179808 0.2035480006598096 0.30757075994525895 0.16051847610706116 -0.14867913457872917 0.04975267130201616 0.4176258076738083 0.10803335414458184 0.4313782352707243 0.5454537996738037 -0.052474801918849234 0.13045416080573563 0.32472644305153675 -0.16351010927036175 -0.0038901652780067852 -0.28380273909065756 -0.10357462692279096 0.19518184963124213 0.08250026008317218 0.05994278941674425 0.2482857925909757 0.06454182799144803 -0.2220440018999334 
-2.115017506454684