3.5332333085005523 -3.439322044649405 -1.7181486402188524 0.9997330031057146 2.692950252786633 -5.501963671763777 -1.0725592144508669 -0.37740502946015164 -1.2666671755240522 2.088305521180912 0.8914074897754782 0.09939597453788185 1.1329025856956152 -0.44064942445014615 2.6648705931291117 3.7567591602810086 -3.168717855201017 0.39724082239268377 -0.506846366776933 -0.8952294257258268 -0.29444398558413765 -1.0175094694863878 1.4306746001451631 1.9929824465689991 -0.07625169738977622 -1.7146012268902338 -0.9948498812553548 2.0678923530685083 -0.02997575629320204 0.18786831205861662 -1.2168458915073257 0.8415927288904804 0.6079255119653397 -0.5972462079843446 -0.031225108829315062 -0.17334459830784976 0.8890441971441017 0.29266271085731044 -1.0384558472386294 -0.21240725621169076 0.9109171944939778 -0.582659774019423 -0.7258747464788742 0.35467917515721725 -0.544973278411377 0.045713770785646535 -0.23407819227779747 0.5178189936726332 0.6354142265384535 -0.7864622270090501 0.9574277809417109 -0.2085239212186628 0.09707003325639885 -0.31774161582028576 -0.3383785156244017 0.23416536272894273 0.27822898505115135 -0.3481202007689559 0.024041522376143903 -0.15981316219025365 0.5903100925736395 -0.15232070757661154 -0.34322221901427863 -0.6266179630451714 -0.16276175561898526 -0.2229889846387904 0.3813104039918067 -0.02174622882198657 -0.2860108328357699 -0.0028938266678850827 0.35259106586360467 -0.6684951082077008 -0.46101770708415396 0.7426035300786358 0.2896330329356097 
-0.4307495073095533