-0.9151221817551942 3.874775134603272 -4.321483738893498 -2.22602747868081 -0.4893956004803641 0.6600244078904716 -4.070469254841548 1.258386357522619 0.6895822568555623 -1.1776675401786938 -1.2020708345250508 -0.7278703138480775 0.4016489129785834 -3.832125200942682 0.505372918929619 0.4642742785432179 0.22115775134253424 0.4344496743034796 0.28042064022734436 1.38059343285589 -1.3511796838101722 -0.9291539281620138 0.33386554258658946 1.365196004248853 -0.11011782225806988 -0.8910920346346507 -0.026190929880260394 0.6923005808369886 1.8800760503925233 0.8418018774770847 -0.17016725511739944 0.5830741258277257 1.021771441269898 1.0571430762932446 -0.6638229404248958 0.703101556784847 -0.314977021543865 -0.07606965946288446 0.37064437293759106 -0.9241349638092875 0.114359685788957 0.40703169007558215 0.32266202676519784 -0.23823117925845438 0.22730512191407648 0.01621560295442115 0.9751586098052313 -0.42656286263648463 0.07606756166276435 1.0693711493339961 -1.091793952344363 -0.17143063556720461 0.492087685623627 0.973367933893581 -0.35240789829346375 -0.12884587135583248 0.18375205985948795 -0.21239293085664757 0.5730999626094695 0.2014736182237845 -0.4644584752256745 0.3857661803445677 -0.5345105659310427 0.17780056445277026 0.7530858914804224 0.07106169244531313 0.5557949048173525 0.8136632601371321 0.33782439139063397 0.4694703118670542 -0.3391509310873706 0.46971452178017364 0.38299875940703 -0.2638021396756203 -0.4260677558590096 
-4.80215707229756