-1.9303814166793805 -1.6370405272149489 5.503647649031638 1.9521744269906365 -2.0258644178019853 -0.12319490852935178 3.1607380407846497 -0.5863268345215615 -1.9356542620950563 -1.6541666088144236 -1.3037524645957708 0.9178716475421889 -0.8310116443619493 -0.590821406508537 0.2943931964648128 -0.18296976006615695 -0.42513608414129445 0.7257040822215084 -0.2129261651450498 -0.981072233048803 1.619607984775329 0.04238734993688287 -0.5788076325554891 0.8976242057815513 -0.32669702114599564 -0.09082730854903581 0.06512885861596479 -0.022333820176149044 -0.09635295952272188 -0.5881736769447939 0.39903964819495197 -0.21809617938045117 0.7762367799702711 -0.03365208035166778 -0.1243999894061342 0.503342201468058 -0.1992729105776721 0.7651735518272579 0.573841792708175 1.2335935694207305 -0.29616559214365346 0.33650804628124276 -0.6038431888570984 0.477799412047173 0.12239965858783919 -0.030049404760127962 -0.36579127158355734 0.3996137040427258 -0.1227411642026904 0.056832125668004385 -0.45722829042998914 -0.5319165043939118 -0.18467393617957045 -0.5306250142843933 0.6089269810121984 -0.34570941453051285 0.17595458287591553 -0.11216887791859244 -0.09725926539748306 -0.5196533575130612 -0.11337842224741657 -0.20496010515678365 -0.397882431149128 -0.37914364508269066 -0.11205041023595619 0.16092464162251952 0.04855106353340652 -0.15567017313680762 0.27136288143591686 0.16035154016422573 -0.018987340516474355 0.0720257633823945 -0.03482727425091209 -0.004731867445555649 -0.0033661228374356478 
5.603529750170556