2.2810077994290126 -3.7403189854453913 1.001322717214796 2.11635045159667 -5.287079361865416 0.1613123535362213 0.44547041616916516 1.6558846590178407 -3.310692096801052 -2.6464643897991245 -0.16291747423767466 0.7914854332148193 0.7704291542117145 -1.2541617450970357 1.035027995114767 1.7218046472339088 -0.40713710349919907 0.6248406345574602 4.119794319929029 1.2408015200527407 2.1153573526687115 -0.7394045456739251 -1.3392457890427476 -1.190435089238846 1.734764591654153 0.1564507541927005 0.49316386675403323 0.19042801803076304 1.1985346459885355 -0.7655983224026653 0.8804138221356582 -0.6175359051132991 0.9687821225008224 -1.5133746119657467 0.759235892469285 0.11581549493010668 -0.08959762665110094 -0.45679011106932466 -0.9917884936164433 1.0065663758910217 0.5485829777422195 0.29866554349711527 -0.14782261883281134 -0.3816047817144659 -1.0006593013616505 0.5907487689839162 -1.659783254814352 -0.6088320471048454 0.6848234288316193 -2.057611936873209 0.4952669279168096 -0.42757947090412346 -0.24160897525407776 -1.2789500762639943 0.3697628316807995 0.4167287372125674 -0.0030797169205538655 0.060031004405972865 0.0011845657308312552 0.07645658774863484 -0.028821065900057397 0.204986657954918 1.1883381603684775 0.32246762345562074 -0.6727961111955711 -0.17952738019526582 -0.7395804644686589 0.16627546871425491 0.051794312327241965 -0.017567861003879137 0.6080420451643871 0.8944339501406611 0.3478828756198101 -0.7138965889589521 -0.23925420270431497 
5.526980726472459