2.9770421639181626 -3.8759721353888503 -6.590494031079951 -1.6241552702125932 -1.5177847776274382 -2.9337210658425863 -3.8960408959707644 -1.493715542815836 -1.4275641420133678 1.7254858014912426 1.4924248003952685 -1.4516204983813834 -0.6723079212777783 0.8377753296513156 1.217337521354573 -0.20002610922605296 1.9521068014708902 2.662924626975865 -0.09536372498145079 0.025228387359821247 0.3388172412444377 0.5281754609848817 0.05966299761260391 0.6669337376884861 -1.6781001853475757 0.775321747085536 -0.9844488473657407 1.3913961695385884 0.15681286145559792 0.35700529461530395 -0.11207704979870278 0.6520906682348885 1.0329715151254235 -0.18675786966852082 -0.2877751669908215 1.152254093864394 -0.4208796007213459 0.7270836475507874 1.96976574596099 0.20433657522181747 -0.9527717560633462 0.7172449207401501 0.8434171640122539 -0.22005900340154405 0.5093690288059266 0.9732517706690611 0.5281111959101972 0.02254169266188276 0.08806023209132037 0.03084899920554668 -0.3370360011941763 -0.7954778235375832 0.22969977041474526 0.5318109674353835 0.1637515461953375 0.631615595136546 0.15626189026406573 0.1228756834644151 0.35760425494670295 -0.4659290977080909 -0.2846186684476355 0.20659307168565305 -0.5259859219162915 0.7651591791725948 0.6739436886684972 0.19417701104273624 -0.09079984492496151 0.708660863706948 -0.4110947375357008 0.46445289304275317 -0.10946769549206797 0.5992431409906066 0.9937878501663958 -0.31034689692115636 0.5369566826226463 
-0.2552566606955573