3.6113198892271914 -2.162004358716697 1.4192884911442616 5.447754922045889 -0.005051240176468852 1.316759532596946 1.4567309502682844 0.5151727460495402 -2.4547368568167975 -0.023556921145943654 2.3030515318145732 2.6279925990349584 1.985027606099834 2.848591557549372 -0.6784776574655214 -1.8911349333228122 -1.085684369263893 -0.45832715871502727 -0.9614838679174578 0.16899091924658488 -0.8722216858713043 0.028169408415123165 -2.5221589030944678 2.053260931220773 0.03746041309612602 -0.5629247378259365 0.11287990737481746 0.6293593109604908 1.961251546393468 -0.8775247733501943 -0.9873610830879591 0.22136313752281617 -1.0548251836989928 0.8384500318409978 0.29795548158088786 1.1770244553097113 -2.9471161670299346 -0.8171483100071477 1.4624711803516441 0.7154811895642867 -1.0449425374304746 -1.205547835987223 -0.808576340350014 -0.1922747695823115 -1.3418131118794032 0.15942325895865572 -0.6157407056186313 -0.6950528822312869 -0.17234269504574656 -0.6910958864529927 -0.3709111943289223 -1.885104337715889 0.20253224467284542 0.3235997202482514 -1.3161247632700737 0.3178971998552532 -0.5799536955437588 -0.5317357801038372 -0.9955895760277131 -0.7001560851637187 0.0490899775206623 -0.43088975777365723 -0.591708493794872 -0.21143778765644752 -0.8340406791889824 -0.07712216727500215 -0.027577042124786177 0.4985672978013913 0.4969633012801806 -0.13512218746294513 0.734077411931596 -0.2808332148104208 0.9783934901695468 -0.33702507371413193 -0.5618948331070776 
1.0055608233883073