3.46853932680105 2.162781647200047 2.121758560923947 -5.4579076142603915 -0.37585690983083087 -2.5333242302969414 2.984611413752006 -0.41327114676995413 1.0783330833500395 0.29187286378935084 3.515771864196006 -0.1727339622917894 -2.8839785732708867 0.49487438239384196 -1.314435143977394 0.059794670566426955 0.501517320353053 -0.9112150961306733 -0.20735637956612063 -1.0438140604792125 -1.0657712437763447 -0.8530724790126035 -0.9479617236050126 1.2317608476814326 2.367020351207104 -1.3989038429659155 -1.2411338785140873 -0.18911871197582447 2.2609627001977977 1.9574586187130394 0.21348833557048857 -0.24340391779746445 -1.2464666314706092 0.8797117954898461 0.9143858945227312 -1.083990526977146 2.178060394404919 -0.14047399317879783 -0.831280431263981 -0.4252552983834301 0.21974347713129488 1.558131685150694 1.521489574451222 -0.8718559875831345 -0.33115541765745804 -0.17044802866845954 0.11671562862854112 -0.5418626827257707 -1.1874921120397015 -0.27686170938797694 -0.704182368042944 -0.02836089590222149 -1.3828271737271192 -0.9932755818096219 -0.09462209633829188 0.09735335361496972 0.809675730834336 0.19647530341066605 0.08162379200330513 0.008706491481331485 -0.9140052464109565 -0.23297825389545584 -0.3668797702707681 0.009822951660029 0.8553904587392208 0.36203217162859447 0.5476160856957402 -0.12458811606251739 -0.6396279622669485 -0.43857277816078327 0.061373681537987196 -0.03204980921648348 -0.5235558536083124 0.12687635311501078 -0.4198031706257622 
-3.445532943280428