-2.605931250141431 -1.457840104828179 -0.9416090383580125 -2.276911125149459 -1.684051282318742 0.5529726626006228 5.127631514506167 1.8026506189262195 -0.8091189709751507 -1.181183388485153 0.7292513795970623 0.060431211963563936 1.7723258501909962 0.6623848065639388 0.10559061167955996 1.967168682061818 0.35002431975029724 0.05232976003680839 0.5176466372360669 -0.1460784190948773 1.599907918603398 -0.4566386403268057 -0.43082084933681974 -0.679705570594707 0.43004543744669155 -0.3545108981265014 0.8138976518506608 0.585018648741662 -0.6142170369794051 0.9008563170824074 -0.07161828224375133 -0.22934244046726363 0.11269004465096288 0.28626152801125637 -0.8370539007662761 0.8010109224946145 -0.6994115433318614 0.6777004254168488 -0.023175999156501786 1.2289812222126322 -0.5677770265021921 0.5408731527244277 -0.8425482270934634 -0.23387283926884483 -0.8471314097733228 0.45057011922219137 0.3183390116827983 -0.8873760250808739 -0.24743982605050396 -0.1323349123294265 0.6203442817612763 -0.4888008053116064 0.0652099970881807 0.12536087834612855 0.3648545222335091 -0.9572615850784707 -0.6247027833070886 -1.391777353236201 -0.12873544980846524 -0.6756175686947266 0.5877672682538139 -0.0674456434899271 0.5090512759652622 0.057531928303543145 -0.07252878161408378 -0.4490954574874776 -0.2040327610856284 -0.6215502820815381 0.5839200314533297 -0.6624787748127912 0.16874960453698518 -0.04303336581465078 -0.28445909265823416 0.2677756322223853 0.1320928358423371 
5.59884800004849