1.5327766256479443 1.835945439542444 -7.186348785837511 -1.9468395470094297 1.2485137252679985 0.1986564733684688 -3.075478848327182 -0.9257512293809232 0.6115664775377212 0.04177206574553893 0.9139882758886112 -0.8453954165065372 1.1183786758973708 0.7328565405976633 0.10443908675580782 1.7913761522204408 0.5869484710383919 -0.9083689194065465 0.26099242086791485 -0.16915111149789472 -1.5170279848917088 -0.10203935317196744 -0.4620399194920626 -0.16162119738630104 -0.16024226811122688 0.5960850576104499 1.3139038384480624 -0.2298688142592853 0.10911734187446179 0.780584983422482 -0.5319237308093221 0.15145861096925747 0.34905378586643865 -0.15345191961472193 -0.2286238476026324 -0.23718058817908005 1.062586733880122 -0.7550316021335772 0.03286558298157177 -0.06262224017188522 -0.39013071476546324 -1.0585677184949158 1.7216497584618575 -0.029240917692288315 -0.36306835092338463 0.9931943153035453 1.0590065918303297 -0.06848621939738431 -0.3728422424760303 -0.1461600240585949 0.5099286499879525 0.5433975152690906 0.671343306085354 0.31123143614822263 -0.32803267741326475 -0.3154336926738854 -0.188157921587423 0.6610328123414981 -0.1317347124598517 0.7184988420688945 0.017658826806693964 0.2601140325391205 -0.1674796592168566 0.8100662916425526 0.0912843452842279 -0.08289674976049882 -0.08222151325289645 -0.036471914542131945 0.1723799769331238 -0.1688625392814322 0.1235839085785374 -0.05976884243980274 0.2500211162276273 -0.16095920408659165 -0.47873515262532995 
-5.047507047812274