3.2356150070927487 -2.5591762421273225 1.6941982759489875 1.3332405116074233 -0.33084728956316267 -0.9725685253188081 0.8028878751449995 -1.5525025431309047 1.3355444205128344 0.9060921063881849 0.4188004303861502 0.08866692541437504 -0.046929008069917566 0.14182500809896448 -0.26364024115671575 0.27807971571895046 -0.13070623122100644 0.3436207373325346 -0.07772251112599848 -0.4705830438470874 0.19343296251640463 0.04337009786015977 -0.4344433767586908 -0.26146424613288943 -0.1785341008280556 0.5012931830694343 0.12442003153510739 -0.2610158112674958 -0.6067368896310218 -0.2797661110402009 -0.03492093617604494 -0.09615314579831385 -0.29328503770937375 -0.3480904256527656 0.19261425381031894 -0.14592710228568756 -0.16206824766524242 -0.24270112507296576 0.052663321969887475 -0.03674803189476772 -0.02273809535186702 -0.0151224779780538 0.11341529195603575 -0.017805317656880315 0.05384018242213143 -0.05114735434312018 -0.018886091787216674 -0.18191822944525635 -0.15581838629329448 -0.6136117398614093 0.2036412692456776 -0.22457895030239056 -0.24194763635684208 -0.06446448898502047 0.3289078387277895 0.3685001711317606 -0.18160052607663943 0.09277318160544495 -0.07777307809999887 -0.1140914175296696 -0.03680085178822583 -0.00675392119753801 0.020205060614895964 -0.12839266586335787 0.03173538246375539 -0.05072858782155168 -0.06864414544278183 -0.46763077889913496 -0.23069329757385212 -0.11772302105733234 0.05388985265447743 -0.17008017645137874 0.03566804974224544 0.06637593872813413 -0.009835624062565662 
-0.16056222577130908