0.3681671696241491 -1.6817364147966636 5.829484147046532 3.3422905605994115 -0.782151986106822 -3.9248692502333915 -1.8984786993969545 0.8145622249489322 -3.6031888374357943 -0.5359226883672863 -0.46241602742538823 -0.5510455026985464 1.3670542117161675 0.20952304689221835 0.7845266025777653 1.0307580893830315 -0.7819316570038907 -0.07840398343758448 0.4589368676843437 -0.27447237070357766 0.3900384095092998 -1.1384609668580474 0.19753067738113833 -0.5515979428522089 0.7309046905788499 -0.4879194155993576 0.6364602095956564 1.3007248410339456 -0.9310229090594575 0.16874811925935052 -0.3120877918904358 1.5997403263395478 0.608677830222961 0.611487296875109 -0.2119167809563401 -0.04583337286946357 -0.021883700517780373 0.29504445063825213 0.14109565227615795 1.1155998633955089 0.15978900326805712 -0.5165048311333369 -1.1569366028382337 -0.8286860544477278 -0.37297400802551467 0.9340378623383487 -0.5140099453688035 -0.8317651278893949 -0.2666380451764316 -0.911536831234788 0.8928157614492602 -0.31585913065252247 -0.01114639452739602 0.14030626518014425 -0.25378488295201385 0.363587650687981 0.9466203485852599 -0.4668708022020175 -0.09104569891140893 0.14681337665387972 -0.30500219920671395 -0.553918480778449 -0.12732905957952317 -0.4865080537130305 -0.4981396526848021 0.13484326563197596 -0.12523544528164376 0.32053908929944547 -0.6778099879835742 0.6601480539885769 0.42046517342911205 -0.48289788193325384 0.3982288080210111 0.13307100619044282 0.41731846242774917 
3.3475881235999307