4.58412906581947 -2.377317677027378 -0.42705468918658895 0.8762340122286257 -2.2559770335079343 -0.7126475239576231 -0.37762044687181007 -2.3003360694473582 3.371087185761933 1.615226732061759 0.1661112122013224 0.5364453769662325 -0.5186477846488096 -1.327077670959869 -0.14975544608501834 0.6084999624276806 0.21809276362832342 0.008445834023813964 0.32187917854342707 0.1808929252308457 -0.15387962835648983 -0.27940515744639915 -0.9660508465131199 0.019865482060608952 -0.3061728982793893 -0.24878804133562596 0.13471716274067516 0.2379288646584813 -0.033749445590202376 -0.09007551698635763 0.1466546148509141 0.6139154597304542 -0.2118210697918883 -0.07432288220664629 -0.36862395175116075 0.020277055022830504 -0.16364222053443978 -0.19961856813615808 0.00546678303727724 -0.2753372534917311 -0.18841498080475477 -0.04785964857991093 0.24120656999182255 -0.18624855366205434 0.28752329845562813 -0.24682936757859886 0.46456618074553613 -0.23976248639723258 0.0028896506891268325 -0.19054811760865104 -0.46727799040391105 -0.37004888721672485 -0.051170037611759256 0.0673471553816752 0.2151727409632664 0.28480801426430763 -0.2652443329134553 -0.20127553360155576 -0.017553091727377505 -0.09903641108368598 -0.018783335388672773 0.5439586645776169 0.28036613920333275 0.2677092594915039 0.16655617091791142 -0.271716454181402 0.09659239559241461 -0.21201033689884063 -0.37751855185091965 0.2746557492557646 -0.24000492375997823 0.09792934331585396 0.5108881831889928 -0.032122214406904215 0.07330789075894484 
-2.4282734265508212