0.8300496550484517 -0.8578574462290476 1.9564438841068243 -3.053155173628085 -0.9534677861672574 2.6653879725241065 4.033027748509674 -1.0763133717256697 0.3461377052641623 -1.3347283661130556 5.864688109286228 -1.2693900243697618 1.0627446961148754 1.586248602272242 2.7720120992055572 -3.6640938068511195 -0.04205407939182404 -0.003981355467808534 3.0494685608675205 0.3618286985465451 -1.7352931301217582 -0.07739839590072961 -1.2462715049752493 -1.1158892435268295 1.5106018106620311 -1.9516960409654283 1.7986665682178529 -0.18095096756582896 0.43243162867918616 2.439796123854018 -2.5603522512745984 -2.2422916892879554 -1.328557308168996 0.3266776646067253 -0.8527987723711993 -1.2923522010416801 1.9163920888688166 -0.03479714350316154 -0.14713577207068262 -0.39479346547027827 -0.01850165596658103 0.9850593162162878 0.5631252675558345 -1.2482610263882739 0.09839885494692524 0.12890330043127562 0.6220474117432984 0.5331009822630921 -0.04380663872140994 0.05967763604811971 -0.8678042017808187 -0.37418227387186487 -2.2501396269380893 -1.1317804146358847 0.09942834491665564 0.11709638413496215 0.3758139533350844 0.06123983869718863 -0.13894798116895246 -0.33929200862857745 -0.3012258392770972 -0.17614710939063793 -0.8357293033516358 -0.8544582936151841 0.8380897794028931 -0.4089699961152349 0.4678029212700384 -0.5947029240230244 -0.7643218308463953 -0.12543676963427527 0.5393824461234757 -0.46887555478765086 0.21693373582179745 0.2868197163029671 -0.5873207605151682 
0.8869993297760247