-3.1119277846236084 3.789275305421695 -4.475937161717916 -1.358716879584027 2.196556243792415 2.3191298931817657 -1.4509195908215027 -1.0534842212659856 3.336204413095225 -0.9992181031499277 0.6777845170555525 -0.9357299825981074 0.5120995128170689 0.5294750287994003 -1.5982461828737051 1.3907128995822917 0.060246079244593354 0.12468127147779962 -1.5071046389818072 -1.9276016434145622 -1.1889684996354917 0.04890736462465295 0.30154351623151243 0.9964042779846134 -0.3913288793580203 0.2948707149534236 0.23337053501466232 0.030540522412964014 -0.8565374797653682 0.30526684130654486 -1.7754944690453414 0.6742947350145663 1.1480324619962023 -0.23913825179430725 1.1303107186033525 -0.5544956746192592 0.01625285345830274 -0.6222729133268754 0.7765590535877391 0.9003025655130155 -0.047687159618093056 -0.40760179757358095 0.29613283589257866 0.36210546080326433 -0.8215163299391142 -0.07762083596845759 0.801751306118349 1.043580271445028 -0.4064651800546728 0.7149059883993542 -0.47588268226234776 1.3032688224799367 -0.38149436483536603 0.6990850778817017 -0.458968298238557 0.18878547543566326 -0.011643086044161033 0.014976795065714477 0.2885034347175326 -0.08554123635812362 -0.39792639775010175 0.049804190615118926 -0.38465822009087713 0.056546879357214724 0.11021509724075768 -0.04878088399295541 0.5543583665763682 -0.09919180846739689 -0.06993370320485215 -0.02569762923221164 -0.013988011619923801 -0.15476576823315502 -0.39760122484449334 0.3521607132634096 0.18508493444291774 
-4.185734155075314