2.8049656326001626 -3.7792919222316375 0.006865289992191492 2.4529134846319085 -2.0622794527260337 0.016480850796637192 2.05694398894981 1.3813749687029684 -0.005139714016564767 -1.7473134418556069 0.2633272486961069 -0.8943438069989227 0.03917833314606678 0.47240071273049794 0.3852634265240388 0.20106389577361797 0.060090477998958836 -0.01766816753218603 0.11749433271984144 -0.05440701355426364 0.1101340649273217 -0.1855148827583546 0.44425924706547937 -0.5003244552895957 0.020085913994541182 -0.4128548557212093 -0.4235708867612419 0.3983737128575411 0.4715459310776368 0.4492417739045327 0.07990148633286331 -0.14981446991543965 -0.018033950325372583 0.02898989872859592 0.12211778271279491 0.41066420530150627 0.3234887205536412 0.09218879695207882 0.1968636374897737 0.23824773028070934 0.17043537571443873 -0.5935410159944672 -0.4859003678068385 -0.6122570233988099 0.2686866478224107 0.19401549879593394 -1.014395563794812 0.07816467766447782 0.1574430291207802 0.08448336077070107 -0.05336907511069311 0.15931836545971959 0.027918288184504758 0.39938995787774273 0.015271592681068515 0.42881703814038347 -0.006835287033588988 0.36153409086727606 -0.21167704450244237 -0.45440492587056824 -0.1583151723389924 -0.3340793174299175 0.003874565900868987 0.040019373451755436 0.15068782044261922 -0.37164152594086086 -0.2705560440003405 -0.12294081672107329 -0.12763407247526415 -0.4710404780326972 -0.16309956453063082 -0.1355347124309384 0.08215907767117794 -0.1378433461422447 -0.291061932766093 
2.5881338597233405