0.296273501908515 -3.44009292736198 1.1315775853559347 3.1098007117837962 -1.5496517367937779 -0.5234797394564268 3.718542390267672 0.8627149677818138 -2.282103683397091 -1.2816236919928654 0.6979384709361353 -1.1597758723636264 -0.5080609843584434 -0.12899065757268147 1.7608487184930488 -0.203079572775826 0.4125439611996963 0.6883959807804698 -0.30722635808949394 0.12974710211880242 0.21614524378530908 0.3599232664038663 -0.5474963501692204 -0.33270790561110486 0.6948199198865899 -0.24418602764208372 -0.40840170300787904 0.22879405131460787 -0.06292596152374647 0.22697090760849348 -0.07532142172690848 0.21187560049362048 0.14381043018323336 0.4149519524037204 0.20372978457476343 0.12847330473011065 0.07683674868520869 0.5381025246717501 -0.21295297439204738 1.115514211223325 -0.04621272214729272 -0.49287484446937035 -0.6285374646577208 -0.18409143842146472 0.17899439694095062 0.3565637283364056 -0.6232109354612896 -0.24710724301996528 -0.32346566076387945 -0.06541052239518785 0.07431537849903863 -0.052274456608208605 -0.3528622460577346 0.11099648630787715 0.14177628846300402 0.07216460558859933 -0.17128842437388472 0.2940263782517915 -0.28722127135721076 -0.34706669774030297 0.028201845441590184 -0.542887065310856 -0.05374647932558643 -0.19615364150541176 -0.12025785447710943 0.02085038644063035 -0.5489022818427636 0.23940482918035477 0.24457942909801988 -0.26195085280576214 -0.17519901576562738 -0.17275239253597596 -0.23369545598192593 0.37789939647544923 -0.11285795035445742 
5.41238531836849