4.631866524293651 -2.577134787614641 0.09432391481302282 1.5552056388326734 -1.2802906086435502 1.0335459283101431 -0.4270543732791747 -3.0720427348070163 2.7814016007887927 0.4657990144577375 -0.3488257816482963 -0.42031971392568046 0.39256579222201554 -0.6849234338291843 0.13387580546186117 1.2806337275529494 -0.27918159235769235 0.23962597997289367 0.26708383031228355 -0.5680510392486025 -0.5496484775020991 -0.624144247613314 -1.121957933718918 0.2510499662841466 -1.0980731175992586 0.1726484719070994 0.7409764956806002 -0.5049951303304319 -0.1160543062910977 -0.10291418126018978 -0.1674818549065042 0.08482104936158884 0.3063795207479876 0.18859173608820323 0.027369747243243123 -0.4960920097964294 0.31227921399662184 -0.638221575386051 -0.2145026096468668 -0.0024296654344273527 -0.08608236634498304 -0.20048309061055083 0.48490768930054834 0.17705949712794655 0.046542479394612424 0.005073357042283622 0.6990804250450241 -0.1490312202195239 -0.3916155719395723 -0.2170964107762582 -0.2467960000113405 0.07370458962968646 0.006328119827684331 0.20545175982263242 0.1322821069390464 -0.10356475548112946 -0.24842461367328925 0.08402727175465852 -0.041170802894774844 0.3421440428534218 -0.04920295537172417 0.30429280310069473 -0.2156800092646266 0.30465542795567696 0.23748234238162846 -0.12302023211302865 -0.006845445474837619 -0.17523735455209566 0.04339870841937554 -0.03142536467829805 0.02449071044637946 -0.12154540855723422 0.11944222049552411 -0.27911775748489265 -0.26972897557677245 
-2.644485941801243