-1.384376270709196 -2.7218250378429545 5.107147098475424 -3.3417586626045437 -0.40591633302598495 -0.5444507231860791 -0.6932734490022496 0.6891599432750896 -0.23399422155666505 -0.07646112831808294 -1.9375736328852684 1.9565994484411557 -0.0013786345238712139 0.7316300127170041 0.11489744456171358 0.7204718437214744 1.3356761967694126 0.7201086908727159 -0.19063943378557868 0.22366163345329138 -0.1597591252918933 0.9884489409561896 -0.8993192961078922 0.28024559809114324 0.2668613500350599 -0.2360271158751904 -0.1963357016910885 0.24557067259716303 -0.29145785760244247 -0.30329227945046344 -0.5960516182040656 -0.4489420932219064 -0.06335840922424457 0.14704909289715118 -0.052787528699801245 0.8138065517011431 0.3509212879051821 0.5896350352734391 -0.024411954828597038 0.5109341579468771 0.7402765188207243 -0.01292722924176165 -0.10989268056025014 0.2685362381278524 0.6681704278923184 0.22485017633773963 -0.4778732669608839 0.013618877638983458 -0.09831568419016022 -0.06958526102242747 0.0602498132378832 0.2141724092578977 -0.3036938712960739 -0.53995054026652 0.20455273182812422 0.2606809185386645 0.07975755005759624 -0.05615949437205736 -0.4738513360363854 -0.25379026578094965 -0.40031759183727306 -0.3087852563366047 -0.32867101974409413 -0.1871172333764734 -0.14264664497728635 0.08299502509371726 -0.6874348696801591 0.14445341707594417 -0.07165188845181114 -0.345050282284869 0.3743663851181433 0.22183901376985984 0.018640728993296996 0.011893781899305733 0.2892259106754082 
4.259635569741333