-5.735889945195016 0.7787235496372942 0.9635245563760119 -2.2069012606832343 1.3873500541189796 -1.318040919333022 2.21502486342668 -0.11006665940420696 -5.310138933858715 0.730310235397067 0.9262534410344756 1.44894479963726 -0.5727532727641694 -2.0897834696108792 1.543211347130665 -0.3570458160107183 1.1972710970085139 2.144721489508875 0.48209656206398144 -0.9005799138446182 1.4983538968617351 1.05359596907513 -2.775281525280802 0.11036837745823218 1.141667110068455 -0.05800732168755923 0.5154638866888113 -0.5582166842535954 -0.8128234008597934 -1.2270263893682423 0.8053822332244965 0.7554276423997679 1.0926681735663688 1.2775625429154491 -0.6456105349910575 -0.3111834716110641 -0.7070360406416755 0.12061172842917575 0.09250181227583287 1.5070149377369595 0.06860452403128575 0.8416632228621009 -0.7299513092473622 1.2139692495187822 -0.021517343770357578 -0.33032442903823583 0.1852248397407399 0.3324618033284505 -0.10248414394165736 0.5703555926809558 0.14285358650943442 -0.8088436316984801 2.77563686080326E-4 -0.5505295570456366 0.04477663519321394 -0.31288009099675274 0.03190022814332419 0.21543277107031794 0.5598368806366559 -0.04879002659656124 0.49564499271898765 0.12371758241684402 0.07554346224639316 0.055229360212398076 -0.13751031212778864 0.4861379375281106 -0.22882867784027816 -0.12246500945594409 -0.19420485833918888 -0.2962730311950628 0.6299575759121623 -0.19883303496693597 -0.23705983010188975 0.1795864922820531 -0.024343760997987407 
5.848384256785737