-5.1711625094417855 2.0738179318769907 -4.326026613111099 -2.8133420566048057 2.7385902511901796 4.324364981183412 -4.0831513040906815 2.144702255015959 0.6485583997629762 0.653705244656756 1.6985272322311087 -0.6509345933740345 0.24410419607631578 -0.14643783675101435 0.052542889556426886 1.9883165087999448 -1.0425642528810348 0.9636371642218441 1.7034115517832136 -0.6250327861894792 -0.08182995139813598 -1.6522248762337892 -0.17906911172896975 -1.1396402061587148 0.6008027031859995 1.5576441353094086 0.46635179143281796 0.20290176650765118 0.4036365595362046 -1.1304484033082585 0.03259213507880161 0.18189678473855148 0.9492772131561318 0.09708047842121123 1.9991961106318268 0.24074420305204647 0.13783789827736834 0.6132373898553286 -0.5993580569900276 1.150230701116349 -0.12478750797888835 -1.02682840438883 0.11866926408505818 0.9160102958019538 -0.5558913414726878 -0.06696818210545799 -1.0822221888029095 0.37574574161736407 -0.4597380926727732 -0.7833674527169862 -0.8138071373852332 0.07901516464016708 -1.1657184657981559 -0.9090525103570896 0.7141808997981458 0.6389742450698673 0.31376080776360454 0.33842284022877595 -0.13883167853566686 0.221164866396223 -0.4218559969298562 0.6186083607861439 -0.5017816132800794 -0.36617317000531335 -0.17129727613116946 -0.015833205826997196 -0.3239754162886474 -0.5143649812466982 -0.057079212925689016 0.01562293666434051 -0.2614328314931817 0.9977673880034619 0.022901193978356802 0.7741238587398245 -0.6104471156239304 
-0.9778656886374963