-2.953445342627549 3.9529126536421586 2.8517842452344917 0.5450632333016978 0.2595081321526773 4.1406574454480065 2.7957421249319334 2.7186735507448776 2.2784644248841106 -1.734028646827603 -0.8020574953909616 2.880319594485182 0.5289495136080601 -2.5192979133643334 -1.2907367027581387 1.9762118003329947 -1.75364200144348 -2.250029833675594 1.3742535183547757 0.4290953021781346 -0.6336173724013107 -0.7161075469165911 -0.04252656090485496 -0.2536760462338771 1.90544273162466 -0.3528166069925556 0.8050390269728168 0.40272877029019444 0.4010004019112814 -0.8428737980497599 0.09987386609172647 -0.4904028982530438 -0.026832306538564332 -0.05383001960974226 1.1762384858156139 -0.7000160188122704 0.0871275107821173 -0.6124385551287946 -1.421651041486274 4.6090341906324106E-4 0.07382806416917892 -0.6785303459454834 -0.6817211428506367 -0.04453426807476324 -1.572388685671789 -0.5787056581000786 -1.1534574084294673 -0.875902509827936 -0.04382507169094926 -0.22937455544221005 -0.4559417057663238 0.7128832000955425 -1.1366528364759374 -0.7032063961745163 0.4814260128204567 0.10874893595595533 -0.7098355571488195 -0.5262836324121978 -0.3627700170442127 0.3989663985770673 -0.16183758440454363 0.10173459972365925 -0.41364642337531954 -0.7749962786059748 -0.4095314737001837 0.6349746479246059 0.3093639771906086 -0.4447730840910978 -0.32353688178615936 -0.6925769456325653 -0.08746083322038353 -0.5586837739365232 -0.3445924088191169 0.36502130451297327 -1.3817021911340728 
-0.5906315214099254