1.6893443622600994 2.713635699164655 -3.5359350473199225 -2.5520480400923478 3.4919324388431905 -7.626000781085444 -1.66053921255629 1.706684350412793 4.579474134615606 0.8027518340105408 1.9156576228943254 1.6855335785864125 -3.9523892879469527 -4.5875790820053775 -1.4880297242070872 -1.3461800276872566 4.138643200966649 -1.7066414298256884 -0.5045929365434152 1.05570358868868 -2.572499292671154 2.5795612973107165 -0.7167811830030134 2.281722336273405 -1.632362152616662 -1.46081305334644 -0.18966629326362683 2.929699224399379 -2.077603006423809 2.145611592544655 -0.9949779284653573 2.42370735974548 1.0452852894518507 0.15324664612043604 0.710498261131189 0.8592030770842785 -1.6714358344472893 -1.5723705442831308 1.495347649503712 -0.9038516213287846 0.7086612927317963 -0.7801777548387651 0.32893204563602974 0.15478346172922308 -0.3589230240895701 0.3604618662378425 -1.3347409605897271 0.48719077102330133 -1.3749217164659049 1.161435506935466 -0.5944949370480767 -0.6143255071029827 0.22083358326472047 0.3920510700771063 -0.3656712409504532 0.4503051035667913 1.1939394538411132 1.5500911669172381 -0.11337010668999088 0.2199419503199787 -1.5873273474176006 0.3900849590139615 0.08753453772325237 0.26614563118016615 0.09136668046115645 0.17033587868672315 -0.4039199027618582 0.8951867227645034 -0.146778117713812 -0.028450704209138644 0.17261045830825977 0.7795984736622199 1.6716924257238173 -0.7503004504398203 -0.950728334376113 
-5.110872533609164