1.2908105480355836 -4.448237927380415 2.666467972165128 2.1695041990764468 0.3841939777976693 0.9164121450563449 4.6551013328634 -0.40447844796497745 -0.402601178117008 1.0542682591012817 2.428166573733706 3.087933682900564 -0.9046757099570641 3.2495619277925596 -0.8982709281331609 1.4415869596223834 -0.7583670302592873 -0.414381896209145 1.1314881595175774 -2.0002262576061978 1.610784884139893 1.0863936609524736 -0.3797552754207235 -1.4266050830924955 0.8420116923039591 1.6762675834890794 -0.1373076618865937 0.6423902715295738 -2.257587354393241 -2.3780700330362756 0.5014091572023107 -0.6633332076540353 0.3100358724409107 -2.041350648009292 2.194341166397428 -0.8897763299707372 0.014927810795162835 -0.244941817093155 0.02983247589179544 1.139399469408468 -0.7429378278118827 -0.5527095824750581 -0.08717411693613364 0.16346410114496135 -1.3727587342030174 0.3144247586295561 -2.083458017951496 0.015320256954543754 -0.4342797818364068 -2.4675374317461354 0.9435851462721849 0.07159392518977305 -1.213309358685575 -1.0633281560265 0.7841251609017056 0.9852041650122734 -0.7370527164793744 0.021221489365794932 -0.6699072819316101 -0.07788009630592474 -0.6425771070647479 -0.4924633915554272 0.43336161522812555 -1.014846264457813 -1.000245155080415 0.558963451459324 -0.8154237349515662 -1.2161824482753156 -1.0728619520290588 -0.9249379337201504 0.6931261553235595 -0.4329770165681944 0.5596775085497054 0.08349680522212766 -0.3860394291917 
5.231989242997996