1.5579859916863628 -1.579960711388751 -6.107963405946703 -2.492874374235203 2.478586081532171 -1.9360380430779094 -1.7279860956102255 -0.2519438226252628 0.342582107040365 2.0866653209020276 1.5961791954581215 -0.5433884477172367 1.4142770690660538 -0.9786343189788691 1.4365631314100489 2.1807974286328036 -1.9614911723176223 0.43424751937923944 -0.4068397298907782 -1.2709014657095914 -0.3860356935147656 -0.01285160831481218 0.9161016097611921 0.6699556769140254 -0.13429354513613112 0.051371689926999926 -0.6258828621417044 0.356939169533933 -0.6565690197247668 -0.013360394419359732 -1.0900338162853949 -0.05464126002765054 0.23355319607399672 0.4233874166742837 1.0136980427077544 0.9331838470908315 0.3419783257040853 1.1434327001648876 -0.3096339997756902 0.3099291008000932 0.40769824777674885 -0.34886663466957984 -0.16357573136279363 0.8815902754478283 0.08196585449502969 0.037873923466559455 0.5462952536314152 0.8237854242296531 -0.08429639800709524 -0.2681783986592956 -0.20966035225713103 -0.41351429201477286 -0.08707121080079284 -0.5158648472047893 -0.03640798878394776 0.15272164752050027 0.9420027547191866 0.13878943469719113 0.48671867342527825 0.14373544516359033 0.12860339007117857 0.5550999164035283 -0.5129352414688635 -0.20876908331797392 0.22027204194422997 0.14367192716450236 -0.2325965863982658 0.1554125959135767 -0.48013272421190395 -0.29920346264798015 -0.12709750393457592 0.18661013789933872 0.32682402676085004 0.43857842375475276 -0.19016977236600688 
-2.030285135958673