4.384207162651457 -2.2310996906659852 -6.071884700568133 3.2529144493819695 0.3613942370307939 0.03049641230385003 4.767382002408368 0.9246910579793073 -2.731186274945699 2.210069349777834 -2.1373327684901744 1.864343233794271 1.9180458281082866 3.734614047341548 0.04344393158145543 -1.1122425407742322 0.272768384956096 -0.47399408109747876 -0.9848970391076084 1.763101970425911 -2.096388071033001 -2.1266650303517776 -2.1801374468692885 3.980157918026764 -1.5350828239961487 0.3011456390445264 -0.11762542878912963 -0.03720174348108496 1.9020376132275563 -1.706104115381513 -0.754163218800755 -0.2509065009080469 -0.5547832328538713 -0.7298596499787937 -0.619281238047415 0.4056568686021922 -0.6920935586133766 -1.6780584321372265 1.1704582834494828 0.7719034151084432 -0.535417637793614 0.903285134925299 -0.008460047662118386 -0.9918650370941753 -0.6037929618363895 -1.211072123018082 0.02735056942992442 -0.5420859338532305 -0.24496612638914572 0.19569317145812826 -0.49217285139351574 -0.04954558914664353 -0.14103221236230068 0.05485286176625001 -0.008177426532370413 -0.2830608865973435 -0.642942578124603 0.7715753747403584 0.39998027687506366 -0.7413802797362926 0.15747635735052878 -0.36724422549402425 -0.517383612993005 0.13170482449701515 -0.7208047499504049 0.2241929577529207 0.3861427263443259 0.13069209540496174 0.749088721554015 -0.7263803679230959 0.7531026088431614 -0.09140766984315585 0.8001284535731845 0.2249985251079094 -0.22891656018883877 
-0.8812108903791938