1.2325515477279119 -3.759527990820402 -3.098338230718345 0.5766104172744813 -3.4573485543589495 -3.9698141627248935 0.5878764721224528 2.073895834754268 -1.2561965429576567 -2.295223372853274 -4.133216545628075 0.6572719704103767 2.128227963768924 -0.12835731769378245 2.367142934624919 -0.914274426710961 1.6273795439916632 2.5732311949715694 0.8649057153060493 0.7440058223460653 -0.6314509573918299 0.4159247430343065 0.2907379523286151 -2.267154447577192 -0.10287187501692374 0.6065623336562849 1.8422391270991758 -0.43786713475553907 -0.6756990824315303 -1.6141951561797097 0.15047151303901463 -2.9671007326913292 -0.9310383054836753 0.34942426343439514 -0.5606028861843506 0.5114450304217892 -1.386433823519926 -0.22277154943431787 1.0858853995575337 0.9760411880834754 -0.15042230569192616 -0.48050995604191016 -0.7808601663149437 -0.04131323973774603 0.9370482982280599 1.3679570875458744 0.47420150061641686 1.7708773087875371 1.4289941732639215 0.5118762761895318 0.7032683902733128 0.42488531385474854 0.2892646321546428 0.29525539193144884 -0.6117518349847904 0.9431458218349251 0.03106517437083356 0.6713030311101905 0.22613103153254066 0.8830353362826057 0.024464709852061395 0.7469729695234952 -0.09158499176152213 -0.2239595892251215 -0.6365529134460219 0.21555748730703705 -0.4852187104921619 0.8836610583358729 1.1811217258812774 -0.21635145011507173 0.6404365117630574 0.3476190000007199 0.6046233251842843 0.6906502436584381 0.572761485507703 
4.418903985261993