-7.012360072470575 4.027825281819439 -0.7979359884900257 -2.3467914230666116 6.0274396024997845 1.1828720571664024 5.488152562789095 -3.185757364101268 4.787063515330781 0.52059473731856 2.517155696480944 -1.5795238784796437 -3.917886761920829 2.4494631666589295 1.2459218492475748 0.7447663072870387 2.494880687638653 2.7389737035925803 -3.097399898907311 -0.8446085400149829 -1.7315141615856025 -1.01518272697768 -0.5542114961538184 2.1149128378190474 -0.20375346840594677 1.3004285751102962 -2.239434339437837 -1.0758726344190404 0.7894608788505102 2.3176261388604824 1.4177218703929433 -2.9184087701155255 -0.2187164084106359 -2.127046530188367 -0.8228473381560314 -2.7140527777273196 -0.7332191765924941 3.0861122773267224 -1.748561284941378 -0.06537439734657902 -0.6804485722618901 -1.3502633841247917 0.8758149692618772 2.35158148111447 -0.7563688322498345 1.613742784126404 -1.3809852839865067 -0.11475764440381742 1.7474154671653919 0.8276025824710376 -0.4162877155463711 -2.2272763788869003 -0.6242750145636518 -1.0241441360810866 -0.6087183054021683 0.9189433333436918 -1.2645479074956607 -0.1487409722718922 -0.0924294420113288 -0.9551035850111442 0.7702624832282202 -0.4588757349671211 0.16693413749772423 -1.2502854431433885 0.04574933055032957 -0.16579865899352775 -1.1025405478115478 1.1967701832096012 -0.1446278957836038 0.2868159276733867 0.38505742757159184 -0.21876592456790156 0.18180287539415405 -0.055135177613518715 -0.6290287337105616 
-0.21301146658435233