0.6705530360269236 -5.992578788509704 -5.546119754499436 -1.5670986608674158 -0.6138418266257384 -6.61977856438516 -0.760494162506534 -0.19082418601865758 -1.9962215152328753 1.8031191680509702 0.5388774620741155 2.8462752159446305 1.6880182879714092 -2.6622834469621117 1.818576190794969 0.527062137626982 1.1147692699365352 -0.007997309037798439 1.1607270335484507 1.614332935452973 0.2676209222391508 2.0040161120263775 -1.0654402001941548 -0.9103606308903046 0.7046345667057159 0.03497195783800659 0.8677477269441075 1.6073630081996553 0.5703921339671392 0.21932231658877266 0.14617964785246002 1.0057653104315156 1.4233306043732565 0.20794827938790816 -0.21326553730503867 1.811786083392404 -0.321362512625434 0.5210825711771481 1.3717545688363009 0.19341039401090176 -0.534247025094106 0.22681227121430764 1.0471465921384864 -0.23367299288446858 0.06479380216349429 1.1756254055202864 -0.7679651244327301 -0.6177240265874786 0.04623706405606409 0.22130961289567685 -1.6129945239886112 -0.15369501671773325 0.496627015624083 -0.009465487743263723 0.12248163816543395 1.1099216824670655 -0.7560872162006843 -0.3781140243824876 0.5563594034153505 -0.9475983810081718 -0.3456841028013131 -0.27355790511817857 0.9240418811578277 -0.21958071562492515 1.2649921405877242 0.33261629026970824 0.22716508405857436 -0.2837690858175403 -0.27943173304774177 0.4206272110614947 -0.4016156005638854 0.11419358582855188 0.8398383776088256 0.19579954418542755 0.15664451385649025 
4.73440898944432