2.659175699140203 -2.268236092175279 -2.4856969334073624 1.5935311845283884 -0.3592516883204757 3.8998722593412074 -2.2452163285515825 -2.814335807373871 -1.7603427934166396 3.8102216355903655 -1.6281841563945125 -2.7214002015883363 0.3117389417364689 -0.7750645758456112 -3.9701851310399108 -0.857494457799173 -1.61974150993509 0.0228605828265398 0.4011301961735798 -0.6939640227506522 -1.478331930046608 0.7726735225808885 0.795163110135067 0.681314604260272 0.2687301591282698 -0.8619320005367562 0.9832214837368367 -0.07288374366369121 1.162624409352902 2.036610395851851 0.5162776203791167 -0.35942113989595753 0.20711659371168523 -0.17454982580635214 0.10486433617281266 -0.2814762195744872 0.04703686540893415 0.5117076338437029 0.6423918393366987 -0.43690540651586596 0.7778707537616762 -0.8340068656076791 0.7123196392345401 0.7839568866429673 -0.2550611168973801 0.6703975103881945 -0.201164305354529 0.03856326401329968 0.6273617443619093 1.0011740933374824 -0.31606639405316084 -0.07722802858818101 0.35819376399687264 -0.08339708383052125 0.47253815041630054 0.60715321066906 0.6014895656806063 0.07676040675345741 0.7757027103602223 -0.013251859379785264 0.016441802165415242 -0.7611788385048557 -0.20156620526805857 0.41692476395596006 -0.15491406498999566 0.7852129861063417 0.09253782796031107 -0.06793750848067132 0.14668909335690128 0.23451300071703526 -0.2374676480049865 -0.6383052849645522 0.3031713283347395 0.3548052821132919 0.4241183110002208 
-2.343089324337302