3.1604123948128944 -5.623741579509353 -3.8798531385951724 -2.8084300262693342 3.5161654709110888 -1.0847142212602958 3.0489837620462215 -1.0875461567296907 -0.7043920976899027 -4.009461001257988 0.3463336946865725 2.3866439518646283 -0.9737776517949723 1.2261009533924803 1.5341804088670554 1.396244816533818 1.6497143744479925 -0.27611506979140765 0.06200471431788168 1.5216240345848409 0.12155719596009984 -0.9002297072264236 -1.2935808633297647 0.21393892689428434 0.33069574037779037 0.5569037434886781 -0.6343674401789956 -0.16473446454576235 1.5497144575172894 -1.8902433033766255 -0.5852384949649256 -0.20051328089746862 0.3163963835511525 0.30254360919925416 -0.5109338583431166 0.7261651669136997 0.7324359549077482 -0.5892766584600486 -0.03161990048303809 0.11629730711008879 -0.027698680972847722 1.0947381051918652 -0.21755743501087688 0.09193197564398115 0.18395405661709296 -0.6374653221711217 0.380434873417846 0.6965669779028403 -0.1971183628739802 -0.9057939138407843 0.49206747039036236 -0.2640623593786785 -0.1111589748166254 0.0033982358598642903 0.4527100182093109 -0.426565550042029 -0.08498148841038655 0.0990967635512976 1.065657579766806 0.12023916436542303 0.37978529954231793 -0.3851232537519641 0.7909564110231265 -0.47036376263019597 -0.4131915332419521 -0.20546087565698823 -0.11682194535574109 0.6481143778017074 0.7765444622157749 0.11891761969965384 -0.19558948127592668 -0.3543136978319787 -0.052365050238521726 0.1368466592546571 -0.032616510634608575 
1.8330607184603966