-6.679649034045596 1.0145629293447378 1.1115204827033467 -2.1509504236361634 2.3084521230082835 -7.791490007335048 -0.6736662226968098 -2.7555696685065265 1.1856568835399788 -1.6332976560177617 -0.8341202866340086 0.7951400125271992 0.6604199277731025 -2.7421967806778 -0.41753265577867216 -0.23491674329997714 2.039167254712808 -0.4671579271356947 0.3191108995759143 1.571811080095043 -1.157057812140701 1.1695878862633706 -1.5786813420607506 1.5887800589692396 0.06184289568693824 0.6184550302842018 -1.893123521135718 2.357012430497115 0.28132768946498843 0.5686852619948463 -0.6061373231596121 0.13053456878795283 0.8749017050109966 0.7237926583163533 0.2880938208541053 1.533534501306999 0.22383294907515727 0.06979435291233393 1.8199919204541577 -0.13331849935549267 -0.012684608188857985 0.7388374351229481 0.9508311135221725 1.2094908579939334 1.1387506199456823 0.4119238343474102 0.1526645208694552 -0.15987411020638853 -0.36041886665140527 -0.3428834026796635 -0.2303873194842312 0.1263811657680128 0.33285506066191534 0.3963887184957079 -0.011656947194893574 1.079050941282759 0.459595010598552 0.7401123526871964 0.042546174996694344 -0.9887441629674125 -0.7945662043712116 0.06591385691353413 -0.03787079211637656 -0.2565341111911703 0.441492828386224 0.6863203166095404 0.13194600074545498 0.34617413357776317 0.324133706887975 -0.14956993258265566 0.16997513974845732 0.5735670908138579 1.3119476854161445 0.030076509198435908 -0.08292803649848524 
2.8308579387012274