-3.6425286134308026 -0.6676948805194671 -1.5696247448362963 3.0722113524384853 -2.3967180845260008 -1.283305150565588 0.9921519763065922 0.49799431249772447 -2.2301801274801556 -0.5710728030003284 1.1200892710855206 2.537242057291155 1.6327038828488858 -0.7900400643233394 -0.23400463457659976 0.573322056822074 0.915828576342169 1.3954228237082626 0.2556498804854693 0.3319071369001884 0.10103999907751371 1.4753874935540785 -1.2256015511305585 -0.7352733936239686 -0.530976861987986 0.3417593110592931 -0.3023979261826564 0.26535348346052196 0.5376509444552692 -0.0024838996177750233 -0.024306373691023536 -0.012129813671124479 0.5365236301262242 0.39963612625202893 -0.38193186195227363 0.5052531596636612 -0.11422627704009632 0.7656073087983184 -0.4959664059138975 0.3184281407569941 0.10773248963454245 -0.37719703333699794 -0.30889091984724715 -0.4335507917469016 -0.10690634100265534 0.2909792861747763 -0.325968777238383 0.21938260646771057 -0.04978702188310488 0.05535677164751096 -0.05629963905195193 0.25971080032615673 0.03327578263942142 -0.49257231716999283 0.29354727161005567 0.26403238049266187 0.16328911937911386 -0.03259653979797647 -0.13045714566004443 -0.15927341101659703 0.019964096535235468 -0.5823975797584671 0.4444271514399945 -0.2879443074894835 0.09865143660666155 0.0071568894861373245 -0.24165660049248533 -0.19127522826605914 0.11098345863071463 0.1726015025494817 -0.10004313610724624 -0.09801231505562663 -0.2530630574641541 0.13005531893353456 0.19604634397117332 
5.596765791470246