-2.7956381986559915 2.8291928074821104 -2.492435590169285 2.2575747927990406 -3.0167013315699824 -1.4360337831872354 0.8566438482098915 0.7829792112527473 0.30047911702051433 -0.6441345333601178 -0.535437478480669 1.2914935406861725 0.07711463338294822 -0.09795896671445983 -0.27244149378309046 0.4016874700901814 0.9264411368481212 1.738955464357071 -0.4108356783847 -0.43719976699802027 -0.6725706722147502 0.5269095831129194 -0.39139500327078525 -0.8299953482907285 -0.07163075565190385 0.5982004557338381 -0.15915111560081613 0.5225338167817105 0.6818013813637154 -0.3539700075558816 0.02185963247540737 -0.39353317945181665 -0.44632498198735965 0.5089522014695925 -0.12872473114683577 0.49251605576081625 -0.11355430833011142 0.39811409910298406 -0.38153101458361677 -0.03335663686873347 0.08667221000572875 -0.1993236919834477 0.12299434528358433 -0.537422860650655 0.029978335241315768 0.07868440037059354 0.36125607516829716 0.5589422189248646 -0.15829667269084133 0.14402443692150074 0.15411207743002775 0.02475620491601846 -0.04076170738180769 -0.4290325305010764 -0.004964745197781714 0.20313974363167273 0.5334461155785085 -0.039059057093138554 0.2882387489465022 0.27643615434269825 -0.05899625023498435 -0.345239303960001 0.3297226050580971 7.734580102024824E-4 -0.17033191535820075 0.058950836655318486 -0.2766433129648855 -0.07516848922988478 0.2921022417402816 0.04363774226715364 -0.04776389509654272 0.05545250716879299 -0.1661273474779226 -0.16553475879710944 -0.027548590715774507 
1.2824563174025356