-1.0954358598630325 -0.6283316157671477 0.2839702409956534 -5.183373786820492 3.5527383243107185 0.6418144526719043 -1.3319983136045355 -0.304343519773425 0.667332435733702 2.088083224836694 -0.9758233134557217 -2.074638322782384 -0.9069904010738429 0.17241582067133454 1.938150764261254 -0.5044662060781407 -1.233541665060565 -1.8612498838644678 0.2919704459213508 -0.906502691414756 2.2125356300898917 -0.7244563641589317 0.2311553336709824 1.1443410768826223 0.8578911739089209 0.34469366110335475 0.5235832496619302 -0.783243711863791 -0.4184980608639389 0.731729225421029 0.018512948725821737 -0.6270561848798455 -0.17357968459038697 0.20816783085231527 0.12656839935101144 -0.0075922115592300665 0.20051151896578223 -0.6395177353027794 -0.06017741799356807 0.22329284078748646 -0.12887570756509234 0.48433075908715384 -0.04426416199547595 0.09364712614488802 0.31107218598101954 0.2513145198049757 -0.8113738864467123 0.1438656898348405 -0.12291689006431789 0.17975069380927838 0.36463126688364744 0.08737151393578163 0.43935453217560616 0.47316028966747015 -0.09000654857599755 0.696388198649323 -0.47419380248855403 -0.11308010230495197 -0.494785279257635 -0.1515144970814291 0.0933035917928612 0.5415925887293576 0.0443588028782238 0.6632032345758108 0.2635171216589628 0.2667398887857585 0.006331153795338246 0.3032705092319219 0.2708235168881619 -0.055433780075420894 0.24307375473579618 0.006612373526663636 0.2484831862691097 0.2301561138440189 -0.2385496048831455 
-1.2105943161094725