-0.8844228588160661 -1.653680790054226 -3.190279906304941 4.5538778227031615 -1.1482489096081046 0.8668792187261307 1.038589851819952 -1.087946067096377 -2.7328872997300397 -0.5731523341868077 0.2765330762263737 1.156722652386875 0.23186120461883708 -0.5937655531088789 -2.4054438645507337 0.5440063212827287 0.9658387334795326 1.0466138833097633 0.3109209990634729 -0.7316722526687699 -0.568817946254139 1.1559289990385795 -0.6977117989045376 -0.5641754188787638 -0.3082138872916126 0.4477519809936337 -0.23298056309882992 0.3803547302324569 1.0025679697036622 0.7704725412928194 -0.42840828405465503 -0.043115745329437516 0.40716672974403306 0.5695840483785097 -0.9118912605320239 0.5325961249776006 -0.04546741540429876 0.9125077420154699 -0.4748769957264488 0.1956719837613502 0.25642358050988323 -0.49720477095530297 -0.3264651716910102 -0.14482792695424523 0.2081203303788628 0.15186105881206202 0.06966600473165294 0.2303767777032637 0.31909446782942097 0.18970811538417143 0.14211780617082326 0.2447698065744976 0.2652433492473852 -0.45750940677329327 0.48671421625897576 0.2457019597220088 0.44526942836911704 -0.12039849678059827 0.29972693831064384 0.023395139685094893 0.1918831496559706 -0.5190106710342336 0.2675825131191392 -0.15934532164023 -0.033055613707345555 0.0034944595923757787 -0.4771560243584638 0.10102714475677488 0.08310843702872747 0.1803358345316889 0.13500627649424707 -0.03404054611805202 -0.25428190913585363 0.12420100721069732 0.26918059491588586 
3.25549401179989