4.260434248372361 -5.496865179168973 0.5642648374887527 0.9782040482550829 2.2742140624291673 1.8188296181818886 -0.8353965919404347 -0.4223834795802177 1.0205937850155973 -1.9263028377763123 1.4337151593325284 1.1034158218106151 2.0011809389857356 0.557965211454466 -0.6246195979808772 -1.8743249187076199 0.049668436761287627 -0.24794537224846014 -1.3131109062053352 0.20813315907347688 -0.10620271823995475 -0.3761757627869329 -0.4480995244016301 0.6573499188700606 0.6606412866987565 -1.3883995068400345 0.31254336455696224 0.5495680098513013 0.6764611631491743 -0.414093911343938 0.14943060791869725 0.02554529537807504 -0.680228923042892 1.0882192614943909 0.6252235784597779 0.06742883046809478 -1.2475246396143216 0.8057681608738778 -0.3119961708669415 0.1914740316982244 -0.082194878320973 -0.31700740630450713 -0.11789002205169741 0.5216572366684935 -0.7282762070184012 0.014939344453334447 -0.0863992905542309 0.6527096382796754 -0.0742481794602064 -1.176666597769052 0.21855895277236626 -0.7256798954966659 0.5261092957193183 -0.014151966925413373 -0.6390264849998467 0.10969267641939073 -0.43612683113659895 -0.6381134704810266 -0.7775306679748244 -0.15369744628186752 -0.3826810436200789 -0.11812805944435045 -0.32672243948388113 0.42465761162479027 0.016319359846308598 -0.2797648425434289 -0.18211701585188125 0.2629027518029675 0.4424411069263091 0.27719065440714236 -0.1961740772591004 -0.26106048346301813 0.1114539018527674 0.19402718936934088 -0.42560520953460956 
0.34697429145053704