1.367831778866437 -1.3987253303347709 -3.3648669676974308 5.20656419040253 -0.1075465740839397 -0.3016421370063087 -2.7826582227742187 0.2138746700397483 1.327592037106894 -0.4752370285679631 -1.520871870990271 0.37849608800793044 0.7983538954395479 0.39945823470832986 1.6070679239777474 -0.08393530177085227 0.3422671231969354 -0.8379748508352892 -0.2692816803855035 -1.3978081073444586 0.41281038510633694 0.7453943564249907 0.1846855770910758 -0.4277120702182703 0.698389921938002 -0.6675272984214348 -1.6243725513769935 -1.1726986639502956 0.5067561019911399 -0.22500118009731268 0.07071857860453214 0.9841784277326854 -0.08262011237893406 0.16652766720311785 -0.2632517133230796 -0.23085620548524965 0.2558821050175629 -0.3667516159822099 0.7824524612319403 -0.32046819010588035 0.5651963718172939 -0.02169594633167031 0.8040522742427701 0.1566205527815519 -0.002519893273784651 -0.3753041119635654 -0.20486178152244222 0.0826933868701357 -0.11074820004568012 0.2690137477330302 -0.08021071186196727 0.14933498105342294 -0.3860615607711554 -0.35550001839840717 -0.010274689574217037 0.28992618791009817 -0.00891450517049935 0.93778713861453 -0.09494211470094902 -0.2224985034917306 0.13337325875592426 -0.2637051923308309 -0.35914341660820953 -0.3310306306741677 -0.020884605689894954 0.18815135938192198 -0.2121741255942808 0.37238486373380153 -0.21819105372682884 0.8588831141858223 0.14841336329166413 0.12123488747599369 -0.19784109567458744 -0.13879732870181816 0.010740147301911427 
-1.0093601445696339