-4.967455919404246 -2.488830216298111 -0.07041557116620378 0.1062102492817345 -1.6232728504353338 -3.2757555976426964 2.260244737864 -0.6508727406789319 -2.1240648794271637 0.13738137204707657 0.6320462281331876 1.0478013784119937 -0.9691536909218847 0.5272098658478934 1.6979071273782742 1.2176423528477573 2.3455568805202307 -0.576907354160016 -0.5650116020180493 -0.8838789182032829 1.2616261734809124 3.2787694556647433 0.12116673348947843 0.010284555780184335 -0.6550995964100863 -1.1264860537305663 1.8683321683281493 1.20591189059834 0.9950246224030699 0.5926889103888728 0.8859749016378876 -0.6958163306817098 0.5296447140987328 0.378923641036632 0.6158485262894039 -0.11812936606900143 -1.566618299988693 -0.9061107532250222 -0.5653488888355404 0.8918682329880091 0.39107379763012623 -0.43944871547140507 -1.3639498004070956 0.7142639076236357 -0.061773514747710534 0.13099362990275565 -0.46702233314719876 0.4990211886304433 0.11790145266494863 0.6429134447478301 0.28152388640850484 0.29796191490128343 -0.8054068432987117 0.6176916331117335 0.14439744907740995 -0.3376661860689484 0.7855276785164749 0.39059328453409703 -0.6955824289582013 0.20910778874552088 0.11006036308168941 0.051063562144505636 0.44569254037156864 -0.5498881841135683 -0.07372627476993064 -0.1320136053000212 -0.5453979446150747 0.18420325955243014 0.014822293661184816 -0.017580452765702068 0.020192532968304353 0.300072527788699 -0.2464560867676466 0.273440580224758 0.334557564923299 
8.40328459476709