0.455951490675662 0.8477974660962113 -5.058814197435472 2.2270805386500188 0.6945113484658713 -2.3629728349029095 3.159884843428648 -1.5972175199839063 -0.907734536152912 -2.299698519672437 4.542418739265702 -1.5205051481221254 -0.02849533905544936 -1.117240416058127 0.36870262304808704 -1.6948936189113295 -0.5595604688258036 -1.0484374919896629 0.7370079106056489 0.3081885013241036 -0.26159322095296433 -1.811553509542997 -0.7479708932701908 0.4456432053814651 0.48438944452008376 -0.9848231482947417 -0.4202621018711468 -0.09859137473289128 0.3829185806198129 1.6747022869114685 0.7266721472066127 -0.6316996953434731 -0.4159690301572591 0.5680312092700784 -0.242380953608728 -1.7425465805766567 0.2638009914826538 -0.8136220756313571 0.22452988629012546 0.5466526989202262 -1.0995366941703104 0.4168735212763844 0.5189759083007585 -0.2976522189189788 -0.1444453153091628 0.20891942537035102 0.4306289015808848 0.23175036131637672 0.2251731676048333 0.6510881963218904 0.10685789022099601 0.44230070016347833 -0.673705429328714 0.31729151712633497 -0.17589123589366676 0.15151112014995435 0.5471219055786996 0.41786610404521446 0.5210137761304471 0.35398011435622173 0.4206234919377806 0.6891329090736625 0.6451288194527506 -0.07578563967579102 0.4850070843438003 0.3289394492070719 1.066501501190572 0.18506439301072986 0.42781269820989287 0.18980028206969074 -0.30992063401957226 0.22295080124126157 -0.016259092665031664 0.3168552035649984 -0.018274219933762617 
-1.1080688876415272