-4.87408671141316 1.8965464987276026 0.41153533759970473 2.3344418488945586 -1.0076897113843502 -1.1833081654399664 0.418712573703657 -0.5201807514331422 -0.5716466779240317 -1.178071449107204 0.6169898804314086 1.4738562080131976 0.7368843597750196 -0.025675049830649388 -0.4853515294767549 0.37259360706664646 0.9976675878929757 0.7269419207585696 0.11362663188594263 0.07553498221151794 -0.3870954346938843 0.7619722398219593 -1.1435720946585601 -0.24152367914927964 -0.5491420994171126 0.17886253414191222 -0.9206516883816621 0.5232329684467107 0.3000287148044161 0.1520216963183994 -0.15941034444981078 -0.23867765064455537 0.060707423837585886 0.39765193980553026 -0.4105553663206425 0.4620773361783199 0.002154777904683821 0.5079860168790573 -0.2378762404133007 0.35379517962672313 0.10229274603630341 -0.2643059600110862 -0.27927758925768287 -0.11471470922798929 0.30602099427134155 -0.09564373215493693 0.04129561697065401 0.13188849100153802 -0.0126059151664141 -0.03478528895242128 0.14149578640840116 0.18640434878783319 -0.06551590350189743 -0.40751772688163357 0.2040225160938965 0.19019211045205736 0.19626949946306224 0.01980098485316451 -0.08002758381861774 0.0041035605293901906 0.16785354270481995 -0.30419370045966887 0.1955726278264641 -0.1912683417010576 -0.13396972521160688 0.023613839131237484 -0.016578515882858164 -0.14964119374286466 0.02287277175967141 -0.0026184791397070167 0.08428338997328669 0.08708589635784894 -0.2272362708196691 0.2228565680646191 0.3106677246564834 
3.269702166764141