3.5460698524646794 -1.84836855359001 -1.369801816273669 4.559536043889213 -4.061176955537886 -0.25162167307620287 -1.1320455621921353 -0.9613942663768282 1.1239718885556673 -1.7367391731175537 -0.9382291381597336 2.0803390767270895 1.5865077863023904 0.9653161451229306 -0.721037547806757 0.6978795152912192 1.344440736328664 -1.3184731166605264 0.11464208913689711 -1.4914260871622034 0.35227870579082765 -1.3565723460804355 2.5048654816502482 -0.5105603447389045 0.5091015849636384 -0.22494364943087275 -1.0325950993506605 -0.2461367898672519 0.2773317783291998 0.4435331710907162 -0.10099973615715291 -0.5504530884541603 -0.35121356216050903 -0.10147987118426283 0.09333029062493592 -0.06703797589198834 0.2603030849986058 -0.475190465285355 0.9508318108989444 -1.0992706640032188 -0.007232853094218783 -1.719956832248175 0.6051704006804768 0.026029487550776942 0.9734239913536807 -0.51648562693725 -1.1117425743373903 0.8809045406450041 -0.007704572387842855 0.3777668612982817 -0.4135411761031561 0.5170644383417813 -0.5548980750287852 0.3086696502973496 0.03743413266397594 0.8086299356668734 0.22029193185831214 0.7157396708680546 -0.1123298223364588 0.014070038039694727 -0.25364598588050213 -0.4008729230031427 -0.4614611224759734 -0.37802388022433675 0.5693730115314988 0.32333951413202405 -0.7744688963125516 0.3573419255129646 -0.1766279239145061 0.014529952548387737 -0.4623322649271766 -0.07859073959338014 0.5486228021271712 0.16502429720544787 0.5029771268754974 
-0.07042221592790782