2.380916363925053 2.712998466943069 0.15070309916065683 -0.37516750284939127 0.6922413760954593 2.0213537691890773 -2.724333666044185 0.23889292003196394 2.3470892691454908 1.2899392704773887 -0.2223766483781472 -1.2908776177159165 0.5782834191445987 -0.9334119702762139 -1.4294291460193134 -1.2770308308389942 -1.4566561016676873 0.2596008710084589 0.3247617974981155 0.6547524910836939 -1.63863739499004 -1.2382117114687072 0.5034688107113333 0.8101973151913223 -0.4133574405198766 0.263830306239585 -0.5509541914592319 -0.44944082354405457 -0.8540609829246721 0.10958522962663877 0.023860964770795745 0.42737440029090645 -0.367059149283095 -0.4291242119755086 0.2631981560241344 -0.21238573886447648 0.4348176312500988 0.2887912526689783 0.1259117383723678 -0.8741389334887653 0.10038650792409903 0.0029856137762224733 1.1849189754135403 -0.5197274612657896 -0.3046930491840604 0.04692568273559106 -0.10180527611729645 -0.08024342100589615 -0.2633612031424316 0.19128928365810344 -0.17324573775054197 -0.3209363502462901 -0.19409321460009085 -0.25053761279736464 -0.26985445236681777 0.003771152376027237 -0.14082443987430066 0.041217573002411745 0.3454456142447224 -0.01579624117643591 0.018294683689485253 -0.4604948065047204 -0.38604885454490145 0.40798321968451234 0.05892879860077601 0.5289964067999261 0.8405039139048722 0.06746936972930727 -0.20156973389691524 0.211399628248484 0.11493609302544416 -0.1130650089078877 0.1961013460211351 -0.48592128954103747 -0.24525056645278764 
-6.237036380713375