-2.5500404198765274 2.250697400771257 -0.6963680887219994 4.532099005181665 -2.3224641847997414 0.774391327625279 0.6119009592134752 0.9301869328223321 -1.4168696844959943 -1.4462928258993086 0.5627215472741351 1.22804096266709 1.3340921757060784 -0.6868038902997916 -0.9234715809375197 0.5972596132383415 0.822126235278339 1.3414568566761385 -1.1803614464310666 0.09558064237660174 -0.08565718102463449 0.9618014627014948 -0.5267961090023238 -0.15610081806651277 -0.7200175180705105 0.5807039893560756 0.03552925978096144 0.410153008297972 0.3010343125698496 0.07245704578994522 -0.06291471358655878 0.016810010768890993 -0.33506709189583833 0.19507949698919175 -0.7138989825098474 -0.09344540682384828 0.25883576831760124 -0.11449434560519267 -0.8834717017911691 0.2732786418293808 -0.14114893788056576 -0.19308697227087815 -0.2388688949183223 -0.08057915787296266 0.3544374799622181 -0.01943102378446626 -0.08322423760051134 0.1912375078955018 -0.25804841021797076 -0.4136207510667541 0.12979780285299242 -0.056782563640352945 -0.040003748640039874 -0.6658609378020923 -0.01672244136580736 -0.022385761342624433 0.001675333143028479 -0.25885984399862366 0.07011546834294807 -0.207279303854008 0.1688857923777095 -0.4149305882980702 0.16037416903843366 -0.1892052943962256 -0.2789298503431846 -0.15370669927562297 -0.3273297209920052 -0.009622409187704573 -0.3545951295469124 0.12766764642534156 -0.014569498372192125 -0.016310461779416086 -0.03014541444424917 -0.02226713266850322 0.03162332012817387 
2.2022962862673916