5.197753636907022 -3.7278644162335826 1.6627872883793078 -0.32089622857542155 -1.6135840929706224 -1.1664707038008033 0.9024623213549383 0.682468788467554 0.4645380228656226 -2.381994875673222 1.14053297461941 0.7571025173218775 0.5241167978952497 0.8895632316993635 -0.2555158334513663 -0.20458465631884298 -0.1186053502984849 -0.7842226265925991 0.23403440951926247 0.0898190352371884 -0.048284058631166415 -0.4861388863605929 0.4162563988261927 -0.06716843725757565 -0.13260815229832074 -0.402810848170967 -0.23284837135136532 0.004312342589600188 1.080704858925725 1.2704920604185936 -0.056453731319102064 -1.421267192000044 -0.4893022858861058 -0.12600060381973757 0.43704416362155546 -0.16376303095362485 0.6686952633377459 0.1529800779607839 0.08816064226415027 -0.6421307658119306 -0.009791067004963062 0.07704146941440557 0.32415031808436995 -0.783466839373208 0.6882342327394895 0.3779036186670127 -0.3850794932244265 0.052352731108448375 -0.35902833196711814 0.09915040952390895 -0.3940459571376877 0.16060536395843106 -0.7068503212242067 0.00491807733875612 0.029703728797040613 0.31792129799705127 0.39079974209220736 0.3457252371406389 -0.6610519082418896 -0.5389419879955771 -0.0583179096882172 -0.26182211352697754 -0.2040866426228435 -0.28359703282968 0.5215611681069144 -0.4686373537163663 0.1679367954303111 -0.03852752575738708 -0.10554585305776593 -0.24392592456218842 0.06437671042886661 -0.23805645917197377 0.2776040075523714 0.2071322877924029 -0.18765415950583325 
0.5270211196144838