3.349004641571601 -2.693729492791088 1.185415343189805 1.2434096317495986 -2.00512570204908 -1.06409970296844 -0.026384507337949614 -0.8585387668106867 0.6969597028329598 0.10763853531029416 0.05219271556248954 -0.14028240338937337 0.3288919142834552 -0.6483119824513947 0.09593842429514746 0.2831566837136208 -0.14970816431737935 0.3717815212333778 0.5603275771159282 0.1701515457922172 0.3385251848689026 -0.2533598017050074 -0.6318384484295145 -0.2539140017832183 -0.0042588625357307675 0.06187654104481485 0.21081831910417478 -0.3534505717512307 0.23041618124018115 -0.07211131517032823 0.20775975108639289 -0.0647572204540291 -0.11966444163343568 -0.10694655403425951 -0.041956090524542876 -0.023222288769192495 -0.029979752518442537 -0.02980001975147205 -0.2750650288339953 0.02538050961045793 0.2095300657268083 0.15892767276216663 -0.042134222093112614 -0.10712719639619843 0.08539272806753605 0.013296919016678399 -0.0015563461262183345 -0.15977669594322771 0.06291598690254364 -0.26488835695685786 0.018816794020768107 -0.22193082371808698 0.09015868911176245 -0.13831912901178364 0.1261766807762633 0.08843829310828151 0.002304735543029318 0.038619365125429087 0.002050887766526961 -0.0067804827064965375 0.11433434179312613 0.19634103367378744 0.2317918595907058 0.14624373268437132 0.04715669724219062 -0.13157256401483586 -0.14528291069958044 -0.040958640065792265 -0.010206747247314053 0.06868277221979315 0.013293844570540905 0.053259750344517534 -0.009637672320582448 -0.14036230852775733 -0.020338357814618 
0.3356681194068656