1.199489145937262 -1.0784915489564266 -4.46657411237007 2.888498225669407 1.4259224408087423 1.2955637014372714 -1.6627876546523828 -0.02025139017529147 3.0038116827213575 -1.1429465075451564 -1.7181959892548153 -1.4358602408827668 1.262693565649061 1.043474612267084 1.0731202540718439 0.564499747190015 -0.7727034601627778 -0.7987807827600808 0.24400976108197103 -1.0048971754836362 -0.8222333571673912 0.7319519273110816 -0.62208483367856 0.3764938037570013 0.12890071215113807 0.048476799523552466 -0.5849408512810718 -0.7723286733267603 0.29058604225619156 0.4272844366062288 -0.33831606352555027 0.49823630059693813 0.8314275994333955 -0.18974736041324425 -0.2629223604044308 0.04526520351465674 0.8905161410860405 -1.0793838361536094 0.468686521948769 0.2195032880271124 -0.3313298606279199 -0.024508130139460738 0.9801992586147639 0.2891826653792977 -0.7773398983681388 0.0980131415260369 0.5068056835215258 0.009781653263085444 -0.7385327129741074 -0.03855353294434205 -0.17746381809641726 0.032618783604045506 0.199758636172229 -0.0860697492975101 -0.015468577503638226 -0.30834175107064543 -0.3186686615611015 0.6318168045027219 -0.15312590415350616 0.4079604469368002 -0.30292863990599495 0.142108920508525 -0.23511355903784686 0.0908180020919926 -0.0954573112627695 -0.22064461036431604 -0.051732603307155706 0.2412037752464819 -0.07139069798236108 0.606863832491819 0.03719150237631452 -0.18886797510362868 -0.05795475666109323 -0.21044206270398363 -0.05535400802181162 
-2.712394436565444