-2.736479963721102 2.7464090837019715 6.240058561641875 1.930663355589794 2.462347798576374 -1.9931203699181106 4.499414317192795 2.226408816269647 0.7750082311779032 -1.433565372698477 -0.46712700029301124 1.062774774572822 1.149096366177435 -2.5026925822292196 -0.39051705903794165 0.7073379707499782 -0.3832100902082016 -2.0320108923904345 -0.10774646050211012 -0.6759532450548646 -1.1270663603072948 -0.5674791676154555 -0.13019927307524137 -0.4787034674120146 1.3788284550568515 0.40783361199735096 0.47861568493600504 0.007731792264021195 -0.19502136530163058 0.6806345715136932 0.29467036996227725 -0.6986055867183816 -0.1478678605349134 0.09771008290188288 -0.4935388014464278 -0.7535328628212872 0.02338430036346205 0.15344682271133941 -1.3522063803031366 0.2695714837644372 0.2640608059301927 -1.0796308602025777 -0.5493516661881147 0.7036978448213933 -0.2614347341329486 0.026731756316822786 -0.4555693137815019 -0.8576941466584072 -0.14457663398802342 -0.13866571838221353 -0.31311151104944424 -0.7211918834127987 -0.10343342743864681 -0.4190419919088291 -0.8547001390094783 0.3057519762206707 -0.1693415422896246 -0.8317461690335568 0.13508947010548208 0.32216301591390667 -0.7680446891156543 -0.38160614569604245 0.4972654603806599 -1.0215827396858248 -0.2172520008493297 -0.3875767027321347 -0.21244784880233197 -0.05151892434269906 -0.1334052931704277 -0.5686066395588885 -0.3192274636792907 -0.22070054092641272 -0.1978596628834115 0.5752062594056342 -0.37595048970879197 
1.6449051261101855