5.300841061616685 -0.5404794635178973 0.039472745577919355 -2.4619644463658723 1.906003980251071 0.8829537249154766 -0.20313962131204566 1.1709571198021764 1.5067666033143619 -1.6209919853872474 1.8795810501566588 0.049569608468765236 -0.05454038237110628 -0.6993837482645302 -0.7113577480607733 -1.362495607034163 -0.5939272074103545 -0.027455668615004286 0.8078295876430487 0.4486907740829721 -1.4530503664379768 -1.4427177819205506 -0.44966562966311563 0.7311010627150228 0.16340414015405552 0.11927966497275885 -0.8252957605544221 -0.96650115220663 -0.4841684369384124 0.41396113088258474 -0.6153264435327542 -0.36826406245455695 -0.6118678082109619 0.40771768345428316 -0.03099444303424377 -0.30583452470391304 0.8085114519308546 0.3515239136600036 0.44578059627605837 -0.36367011160767504 0.44593715317328225 0.39393062593133654 0.9023013849834197 -0.8705845267295276 0.5354788991949844 -0.06145420842282878 -0.1891383451290419 -0.10222849529836181 -0.3407814055123646 -0.06908166068489227 0.0462841834266515 -0.23256211430864174 -0.2577926588548548 -0.3790070320622048 -0.5215598595506541 -0.0390772575986377 -0.07022680456928754 0.29181657558757657 0.13437393481711835 -0.34410817653194964 -0.16157777730584727 -0.05990308087464627 -0.5460756981876319 0.28325519220932277 -0.0428277956273816 0.2964904955460099 0.21777634307227628 -0.15293270703614867 0.05510393531082852 -0.13088712975078584 -0.05011700855509915 -0.5883674127083905 0.5340974473185774 -0.014690844376513884 -0.15271767116626475 
-4.558769562552761