-3.841646894436692 -1.9353491388655348 1.2171539030139416 0.7109471291467563 -4.480405910827036 -0.9560751189908347 -4.757340286020871 -1.908451964819139 -3.053714104499557 8.538669933912646 -0.17741636091841975 -0.07248781310647961 4.378851979089741 -4.224198496833437 0.012476579686668293 -1.4582514762401566 -1.891905326518893 0.16984058801690194 -0.3152398726770974 1.6570833777343081 -0.7914328674924362 2.4586319549719593 -0.2723070765569757 0.8496424206911555 -0.29936308617081103 -1.264013010232178 1.8975956268139664 0.3650487569840973 0.1511021344977467 1.2803808125398868 1.0674268351907383 1.5194810579732567 -0.07728989412225877 -1.755108278123857 0.1785294607328254 -0.8215247387790745 0.09132089437806958 -0.024198432933728045 -0.31000185176769707 0.8978507925738245 0.4937933981311402 -0.40168649978747245 1.7625001511618967 -0.9444552369583977 -1.3422884393342749 0.9892935490666057 -1.5354692016260936 -0.09537857695545401 0.5992244956891261 1.5032005055044138 -2.236602593150048 2.0902906619123947 0.7412707788433137 0.09369485603336744 0.6955846678883227 0.9002790538173843 0.6612330169033304 0.5695024416139071 -1.273169125935395 -1.0704078044067142 -0.5130599718833821 0.282236345884039 -0.6389001725454345 1.396115586491431 0.547934984871006 1.8123800845342855 0.23376122257167573 -0.20747310754929926 -0.28756282218452034 0.26865601212259294 0.7596323077124566 -0.03934864372138804 0.6519931309508622 0.22732456856756178 0.5515881387514796 
4.08798863619702