-2.9713471439118493 3.5928592145590095 -3.765920316177104 0.6324682270751224 -1.8939530138359728 4.472958055000266 -0.38454827989927987 -2.1850379560437028 2.53848366207876 -2.0560630768216837 1.6582987313086102 -2.6227174060172214 1.334824577139542 1.111077743307991 1.1622351884578532 -0.9731945248366419 -0.8274772166280581 0.34381980909318577 1.289211151428871 -1.8061692993062437 -1.251308018968513 -0.23804289542597773 -0.7808645563049711 -0.509524765638288 -0.05362703409176897 0.5798087562507516 2.362003910693904 0.1791550856421156 -0.7734736611387412 1.2966121834734825 -3.061269330129299 -0.06360677848083555 0.9792068678249114 -1.1396439740371234 -0.4040078355356876 -0.1812107779582846 1.072308041056815 -0.5068222500118158 1.3119422668951732 0.6904788800421192 0.8052346363463739 0.24966934509546868 0.3008792660997499 0.13265372666947328 -1.261920512728791 0.09703668416759503 1.071284424599834 0.8298130865054781 -0.1298997476574833 -0.434103961921966 -0.7074091749375913 0.6880561682524475 -0.44414413877529224 0.022970038650875345 -0.16538700466420952 0.15635013393762143 -0.034084202276742595 -0.16705361342459524 0.3528019331067094 -0.2316897239956151 0.14280611728288173 0.15491463931224736 -0.040146342894692794 0.20844553190220994 0.5732940269527511 -0.3501800062591768 0.5526415623088318 0.16986558622481535 -0.007713837099656395 -0.1840425252993744 0.12634990157030898 -0.25330510153070296 0.14933739775094051 -0.4717936185703039 -0.05945293482982253 
-2.649768885178908