4.636727467919317 -1.663051694155748 0.6181253587374546 1.5892410263359382 -1.3232895467809407 -2.0878986936078228 -0.42030490331847475 1.6729337373589415 -3.596851611997884 -2.9026216137157776 -3.5284725662522813 1.1826532123055633 0.4027255120576781 -1.515270128358641 -2.7580773354503085 2.8455394573918364 1.3469295164353263 -0.21016175471251294 -4.711709807007982 1.747383514205994 1.1462256452677428 0.6161491979522884 0.3536921146778104 1.9429538441505292 0.09296969704927831 1.5460995787626122 -1.1837489413385796 -0.023731321287914425 -0.334422921130176 0.029620385942708778 2.145425372435238 0.7213600229593558 -0.5349915203900093 0.9168196246049382 0.21478830415462877 -0.6683146284306657 -0.14528478935559644 -0.8122807526825154 -1.0645572088407191 1.4945306857013483 -0.4685042836949165 -0.2608382023973822 0.10979291020733713 0.7069831465813657 0.9779064023551467 0.2619323334132094 -0.5466646487416578 -0.4020756224436931 -0.4216929515091179 -0.5921952654687678 -0.07284913092850683 0.5090357563741204 0.30004548044530216 0.16431602410579785 -0.17195434633648873 0.5558527607307445 -0.26110072694984887 0.08914527392614392 0.19908911274270763 -0.2894061598740869 0.25922150658290155 0.1103353137286157 -0.002183436980558868 0.3071556207407078 -0.0015709812299287557 0.6106665902051698 -0.357686562964793 -0.14424312060199873 0.16586400036143215 -0.05968751381237002 -0.2543196949865961 0.6081189514356455 0.09586723253163301 0.16366375344017417 0.3341289414205833 
0.8228337594214854