-0.1528487764371027 -2.9805835255427695 -1.973836601825708 4.669721845961648 -0.3854182574312972 -0.5669626697460103 1.3972110371887099 1.5607907533662952 -0.8792865472807341 -1.1075522101927335 0.7966728163518827 -0.4704527921736168 -1.322984355722524 -0.3912941625141496 0.48549108408788477 -0.7128659861835112 -0.24733166643194449 0.6358102078476976 0.08741522798763068 0.5230958366029299 0.8065187140813674 0.5253172994986064 -0.17207329857223191 0.10940170347410033 0.5476300482486706 -0.38886866345442184 0.16463828734456465 0.008683666838945503 0.07679540936916301 -0.16612024062616304 -0.18854793452343982 0.032011348655484356 0.30942294372969836 0.5876411211670934 0.2942377335194286 0.12068418296198741 0.27814406220938054 -0.08089999240466028 -0.08930889011764359 0.4924972741929379 0.5009328902739245 -0.13953539611073304 -0.5532302805711347 -0.288162202723049 0.0714114253640048 0.2382108597429078 -0.26025228104743403 -0.37825981497841943 0.10784146180082654 0.05073107420072426 0.017241782660385785 0.09233924582089603 7.981810456979543E-4 0.05787739228655721 -0.12149597133232277 0.22379210181188028 -0.12042003634927542 0.34789621362950285 -0.13948473595905717 -0.24664298425575631 -0.1080306423588811 -0.28449063181943973 0.08668926794048004 -0.13756379539819164 -0.15556534592316906 -0.22779882642449872 -0.1671694441824961 -0.2374864324676288 0.030169360674236145 -0.40301851133595173 -0.009861661053920723 -0.18729948215245998 0.03250762871552178 0.08180610236029262 -0.0070725453894575074 
3.49260218515844