-3.8061064792856607 4.338585055177051 -1.803596888545441 -1.1869738913484564 3.333692886217025 -0.3788838643070521 -1.4909949560287874 0.4797114609346261 1.309115992309143 -0.3863652643393468 0.003713751933831777 -0.8710435318434298 0.727044670661074 -0.5062401481404867 -0.1308832231183067 0.06024344874151166 -0.27247035742597314 -0.061263937795232704 -0.24279943437429147 -1.26149940124962 0.2246802624482147 0.5418396184846991 0.36112917951194484 0.14614796386285162 0.34391189176765136 -0.6677583931152485 0.3733262092533492 -0.39279604192626094 -0.030418366745135067 0.34834635125679214 0.47239891043161847 0.7295659499196102 -0.21399415512114156 -0.1243144449904835 0.0031681393014719172 -0.6102069373644321 0.4001198272744537 0.4410685809134308 0.6984567813310978 -0.3718849286785946 0.324848509984417 -0.7383728415616071 -1.0986265527451822 -0.443194619244328 0.08052086628902522 -0.13974004338176543 0.36219681776662194 0.18302969451311354 -1.356274229883296 0.11375837660482102 0.22413445455807124 -0.21141242164360244 -0.11672798587666683 -0.243472967585333 -0.23734500393440788 0.4709499504588454 -0.1866458721976546 -0.28843817631469054 0.0698554980130644 -0.4648978388443858 0.3471943450174703 0.8322718987084713 0.12838730487759595 0.4863546689217618 0.6064102922272347 0.026505070685939783 0.48200374567292625 -0.06272094066695019 -0.32410007655951273 0.07420741612719098 0.32996204663799367 0.2569976520642643 0.3323837872650023 0.16529211470858343 -0.5110672266510755 
-2.672147039243258