-7.0364833425244235 0.252496811599618 0.3663781222660346 -0.8620297392305027 5.87855080119609 2.9942747886922696 0.5739964450645773 0.05220465505652544 -0.8453359356172758 0.7950303376665983 0.08292617760392842 -0.3393413732345425 1.6605394706960295 0.5749122160249074 0.8281606343272764 -0.10748400789859369 -0.43417450074297886 1.6826232201186844 0.27224030883547107 -1.7919263673693075 2.1712980077568136 -0.15883804740433743 0.11141558962650475 0.4216151419094186 1.1483476472491767 0.4551168009001244 0.631054028615597 -2.4506927580749664 -0.5024435754568559 0.5720015069869511 0.1329273712222585 -0.8889845383875001 -0.3674697324307623 1.0078487025812786 0.25434281018621085 -0.730849003536836 0.0063195705709075956 -0.031367219198929736 -0.9496032233298394 0.28356701370221304 0.061396927076898325 -0.18451749694222241 -1.4010964580684508 -0.6114511056147092 0.29991715792099416 0.23409192807570295 -0.9866802012902787 0.9542497675718795 -0.9109567821660471 -0.0058870191320713194 1.1536322116777595 0.6404929363242301 0.2847848232301803 -0.4265650857897022 0.00952967645477068 0.25329222013899205 0.2870159910271562 -0.3218244268516571 -1.6246292479827549 -0.4017329241471723 0.57228443906017 -0.8492437293968814 -0.6753158577329244 -0.23375248072690186 0.44168358914959976 -0.388055577516866 0.15627789906817985 0.28287161106363545 0.18592497660582016 -0.3771890350822454 0.0781533405369958 -0.20731971301281188 -1.151727762946849 -0.4993622380324849 -0.3514571685676814 
3.6260082361381967