1.3429789387731237 -2.7078938123556373 7.062661503062499 2.0973209762684752 0.1329913946343222 2.1611364200193504 -1.0047440748543313 -0.9226919654606021 -3.087676581680421 -2.8372031325167724 2.7777261109179396 2.5333614067461534 0.3883308559232459 0.4560305117940715 -0.9239701538309594 -0.24208796682248257 -1.284516574773074 -0.09302757367541714 -0.4068974664383096 -1.2941761067406627 1.1889906654417994 0.9736311034476339 -3.143345205694334 1.2048942638586508 1.5802146283350642 -0.9164904916193231 0.6585720414423496 0.5428419523779187 1.538003824163479 -0.27463430188213744 0.02820015333326406 0.7621974339771203 -1.7876150894914478 0.6915115069183317 0.13251821327178 0.3100140677740817 -1.5869141826646502 0.9463620722061171 1.0537645027381395 1.0729828459006276 -0.469929121459054 -0.6847959923995155 -0.3212822507804133 0.5490005108496718 -1.2195827364719105 -0.18347114754813143 -0.2752413662795483 1.6319017304264776 -0.07532061386880878 -0.3680541224770463 0.0955685484009563 -2.0394373324126236 0.39238767531416835 -0.18987857112321715 -0.6901636722875465 -0.19358232669495234 -0.1915148665095467 -0.4775540807531762 -0.934999354438871 -0.6471615950730155 0.022432695692688298 -0.7046089401829074 -0.6131917072206378 -0.4855534459452312 0.17421544454692317 -0.2416697833636051 -0.43136430421011107 0.03275888168614033 0.3544932541862833 0.23733726662290694 0.2848342299957071 -0.5783574765235856 0.45693259338107917 -0.20534599498358574 -1.1331547409209561 
3.5155106692845024