2.9922625459111414 -4.897606766656379 -3.0393444925928463 1.0968021658562672 0.6476725123257432 -1.2078273565225637 0.18679337705494836 0.6252123719765561 -1.5232142064312875 0.04183473964807671 0.050111354434164396 0.8837187097895638 1.9604029788582369 -0.5604267522503021 1.4611704562673515 0.9642877198485562 -0.8552335452222055 0.03422984941933416 0.46621491466214526 0.5273970858873225 0.1972279888935271 0.48227508009451237 0.5754650625030401 0.31812178090220633 -0.7758693607368674 -0.8380862383584586 -0.11518638059912345 0.010752889385655398 -0.9300543562075738 0.07142322401617113 -0.7568916884942742 -1.1793697235402172 0.10760394117689798 -0.2342881788539497 -0.14756229798470527 0.32117993589728044 -0.19620534875115894 0.1918153995667106 -0.17049940607924816 0.33216709287155577 -0.18733653207447054 -0.2161876544106435 -0.8425223087162373 0.374592348192625 0.2779071113113853 0.26093721476529064 0.04543446328832233 0.6763860043057446 0.837179950204133 -0.011928469148494603 0.5062531080040301 -0.034086660785298234 0.11327070973375794 -0.12875093683813923 0.08043082327856424 0.09552057557354049 -0.123669524873675 0.1228003424564254 -0.1914994991919818 0.09915604754595624 0.6017057169600294 0.3334686998728337 -0.3007544912161265 -0.27758347162839836 -0.2862409288946125 0.02686454218052703 0.08515552966881301 0.03081811223159253 0.04374411550145635 -0.07971610348741874 0.14206870614214173 0.25603138550095694 -0.2189366291492319 0.38925981034700613 0.381750815383781 
2.092704956833483