5.25096480697758 -4.00794611084776 -0.06177181104337374 2.133641518020319 -0.840349167309714 -0.8358670609250285 2.174809851931323 1.1879483644810294 -3.9755906881007825 1.069825855474805 0.6551579008741493 1.8340676648263614 0.5444500573687344 1.5982696182526297 1.924216084500489 -1.440054169666233 0.32919722232480697 -0.31369090305677344 -0.08975153323165108 0.1210191628922091 -0.7816158512453907 -0.6623263238804308 -1.0891118167760718 0.9816000674110621 -0.9123777084954756 0.42368094537388995 -0.12651281337416692 -0.14192789517069693 0.6427438850853164 -0.5072847420316418 -0.1820916994468244 -0.3526269346270144 -0.7040429856415242 0.127380231364227 -0.7458224251925076 0.3475498954922327 -0.6240283490528857 -0.7458430716637028 0.732677794737635 0.032844653805394905 -0.2437465568615229 -0.43182073834096146 -0.8300202323356596 0.011889894216726177 -0.07356603938417076 0.5132007158046714 0.12599525325441685 -0.2259689520862792 -0.42508774923986253 0.11650539683990371 -0.38936470410250373 0.1355463347449758 -0.08744357521447382 -0.5194873615359459 -0.35630302677248465 0.6653329504784695 -0.39213708139206593 0.1304566789638941 -0.23953902503446511 -0.3524450459744759 0.19733180538052897 0.07939916130469435 -0.23629162011786545 -0.1963646107400369 -0.2092941057575087 -0.11371723943839543 0.215103987769522 -0.2112143685574799 0.2866037196473912 -0.20381569043613776 0.4337452357152887 -0.03981308071058131 0.0336815201302169 0.05270528619650464 -0.1914686568288229 
1.8221873706506142