-1.3225116639211403 4.6504712953836105 0.3029499481983171 0.23242190683175878 -0.5112239596270991 0.4274834109492477 -2.8346127364234097 0.7789496090417819 1.297163811500962 0.6049638318124848 0.09382092508901807 -2.034596743919769 0.5783115259276652 -0.35130915688547437 -1.0576660697044353 -0.4541589097296451 -1.024404751119137 -0.35689136341752353 -0.09846017487297792 -0.8461657701980451 -0.9060789171106612 0.3106386602255279 0.5143508308090201 0.29000920454345064 -0.33651114554413436 -0.8083362400952927 0.04986713048516049 0.37049171199078323 -0.0526701476455129 0.2498276591027108 0.6861060998517309 0.24695034671204974 -0.6328288612831214 -0.5065541620801635 0.40087223631915364 -0.430605914406881 0.22278945620143292 0.08182945883835427 0.47921664036562756 -0.5975332367441023 0.741204785522811 -0.47412336142746164 0.01499366442799302 -0.014723667865386425 -0.219578161544704 0.06209288205174557 0.6721491008101659 -0.14893408085954224 -0.6228107554124938 0.28036759377840675 -0.31341878882647645 -0.03168440594951384 -0.15377799382293422 0.20784370549446116 -0.21582972092285516 -0.07212495548255743 -0.16470404518917187 0.015269831374415788 0.0013747802190603453 -0.33400976558008405 0.30632793667470415 0.7077711387428094 -0.04508793960056334 0.6787006015227777 0.3123060207255047 0.5337937478225081 0.25743139191781134 -0.30225576771779283 -0.48146903957485115 0.093131167883761 0.36596855860660715 0.2738217079727185 0.5008012745419628 0.16480041178264837 -0.3019836275477969 
-4.116173407321929