-0.7496455865214102 3.12724896459903 -1.8325358037612594 -1.7813168934173595 4.077260184871719 1.6053047091327528 -2.674856653239239 0.6306838421926977 2.469889276618903 0.6176491430640629 -0.1350371621815517 -0.6525346282234961 0.41583133972206066 -1.563581645326102 -0.473116123162473 -1.4054278275433711 -1.213218349201081 -0.34290949286585004 1.2648326233271683 -0.7589433791450958 0.5155877286281525 -2.5028223139669468 -0.10905003795559554 1.937206624622351 -0.6221148505176575 1.8789927420691437 -0.7875652286132415 -1.4283224881651326 -1.0303051949726671 0.7146240341349266 -0.8930666756950987 0.7963544404730324 -0.6161611954304316 0.1627929658174525 -0.2839387266117135 0.7749483887062423 0.9460938637467656 0.7046619097991235 -1.4452980273325349 -0.3165101434242126 -0.2897549734412419 0.6300892102744904 0.7124235511360997 -1.3691390135942922 0.14233378139329356 0.1396450360840975 -0.979093204918119 0.2857707851008342 -0.7706710761629607 0.11997526554186566 0.7157828201557908 -0.200585037084789 0.169084321210637 -0.8804785290820138 0.20312465598406382 0.7311071429799461 -1.0110446260797998 0.15656762755795228 0.7049524412208297 0.14794777018845662 -0.1333718529419233 -0.29492723854429054 -0.36802063310281974 0.5727107683701486 0.20505116227380632 0.48305376652153803 0.9602387591950143 0.5003672150179419 0.02289843130761371 0.3111859636984766 0.8488694661041162 -0.41320188935651925 0.34729380146789823 -0.7213028405063104 -0.7005671822218825 
-5.22055295182843