-1.1891781352273476 -2.353360302207168 0.7770898253646621 -0.41707625382199054 -1.876707733055662 -0.9436352892092406 4.058625619207053 1.3243187753865338 -3.3416165830874904 -0.18650264337746547 0.7930721090995707 1.9912946756363081 0.9600796935833162 0.2867456723698223 0.776389975829532 0.8911249656117111 0.977702554510034 0.14751344053195442 0.03344428337235361 -0.5661014118502579 2.529932919260661 -0.1496527945133559 0.32197099187989764 -1.4683977352394664 1.063297689741438 -0.8413238362295741 -0.5422789383212386 0.1068884913459145 -0.22507240842522888 0.2184528804377979 1.0441934896182108 0.0021695197514027265 -1.1122406902189514 0.9681134289028657 -0.9533407384539616 0.6757345695604976 -0.962166166094476 0.8530210273457738 -0.008116236940981958 0.20271990620751446 0.06778367791896688 -0.07700373351366341 -0.7083249438991557 -0.20083484874710478 -0.11161587016887743 0.015513337106893843 -0.45454454532840455 -0.975544650112807 0.23799920017009968 -0.02782242608045632 0.754606145393965 -5.5610872263134326E-5 -0.5036969319681481 0.019617280256287617 0.5005171869546217 -0.6170997611473551 -0.4072748146321853 -0.8379286030749497 -0.26587860168574584 -0.9741314656376439 0.572839342205707 -0.3691894657004279 0.0933188744430456 -0.5199385856834792 0.11520183231556962 -0.08318755260165106 -0.40043031135589124 -0.30188783578396605 0.5495475870367544 -0.34359967197160857 0.24232318824147936 0.4578840928917139 -0.14203591602884602 0.23037599585242674 0.5973697969261648 
6.693442737027394