-6.195702658307544 2.974908229616715 -1.3856250504165213 -1.17937247874162 1.6614233333164314 3.279965271497482 -0.020943148993697314 1.0201129479719722 -2.293416221762792 1.802398565242984 1.4906661110934967 0.20098558020530488 0.07785500533495485 -1.8177262474682487 0.733023631646188 0.5943105023613523 0.5234886140961846 1.2076291318589842 1.1017109134718428 0.4014141761371276 0.1294724166323038 0.5173305499649845 -2.0205941615799095 -0.1329466739179881 0.947670646508249 -0.08546226286858943 0.26994925472111875 0.07858830837605268 -0.4174753764143744 -1.9486734725322454 0.23512004123041738 0.15811971453731316 0.9155730904635901 0.6606242759781009 0.8085123073344572 -0.9424966363009892 -0.2100750308083133 -0.1551153609048423 -0.9200959439952993 1.4004795910564627 -0.028873837224376142 0.5176924117907711 -0.12503744115729554 1.1136959822049766 -1.3521263684348488 0.06328807550089621 -0.531875171997197 -0.3833576614009216 0.20256851433817272 -0.36451082862081896 0.4953960125004194 -0.07631730002392215 -0.9681263312295968 -1.0214357704850698 0.032243104483561075 -0.3223036489638987 -0.3206833623163762 0.022599713835125462 0.623236923455704 0.3074306621952223 0.018482918286938294 0.21793522811947932 -0.7732724104223764 -0.2538376933024835 -0.6655198746135162 0.5555635185853001 -0.020992733348954462 -0.17634357556176813 -0.0036937988191632076 -0.27162846215279757 -0.18071310199709315 0.19588657744706334 -0.4737531178124735 0.4363599247361728 0.046411436764097036 
1.8727156995542795