-0.3708954474838446 -0.7153134244638579 5.729120500839605 2.2469042744899257 0.9407000012514359 6.397542175662892 -1.451087208219609 -1.6478064338550522 -0.10663773278759603 -1.2098021887171246 2.4692129995979837 0.45943584834179285 0.7062216601734631 2.6428887673452754 -0.8693063450998217 -0.4736282596269441 -1.5997866208207545 -0.6143498991079789 -0.8174277700680865 0.1854595109976286 -0.07832141137435489 -0.04304187450601238 -1.66529990304373 0.04501962959658787 1.1760189744302494 -1.4584238245514023 -0.03947972681304135 -0.6578228259530952 0.696869914585396 -0.6684435256585352 -0.08605995468820006 0.09069001764067441 -2.8567871697402167 0.9166319985346001 0.6172242047174652 -0.1316262394576776 -1.1990215372982629 0.014978020519887614 -0.39646443141406823 0.8524751177356136 0.049386084175713954 -0.9191500200845713 -0.7718315268110475 0.12665385515276673 -1.1683638365832112 -0.36737083653290714 -0.37991806279811924 1.1201722207566458 0.4526280647583196 -0.5155174675434109 0.4050342821516346 -0.3250016929973789 0.11094949955094874 -0.8005474405315359 -0.8765901260336102 -0.25171792600304876 -0.11574195440696267 -0.6775589809105258 -1.030531140483141 0.1926502882261324 0.7019781500431258 -0.3298593850941422 0.06994374689518945 0.06876466080073224 -0.6699012014692751 -0.6924470226336756 -0.5994752709806439 0.18633074015577866 0.46268598529957106 0.22041023975039678 0.10393522749014578 -0.5143040129798353 -0.2085398487259632 -0.020884644387404783 -0.06683050892782072 
0.7654094630887103