-1.622806409291023 -1.3670128133773787 2.2338812264176555 6.603885251447943 -3.200425167682428 0.501048568274058 -0.7600378054911063 -2.3975091789394867 -4.700140598334224 -0.5985435672750924 -0.23934387855412198 1.8565281596094447 1.8320110056243657 1.798836846086278 0.960725073482652 0.4370983158660824 1.6224362943661124 0.23659886714152978 -0.3340829600072297 -2.1735874986437187 2.31334233636903 -0.5047895901392483 0.9051384448767803 -1.4471049579060054 0.6987887317570367 -0.8447405919349444 -1.1376414425910293 -3.2355820926414998 -0.19133504283958808 -1.3902915787726042 0.9316628755105456 -0.32125819507163855 -1.3230054217305043 1.7286412752186737 0.37864332202118806 -1.2197139699885229 0.34378275170601813 -0.1447358813376578 -0.17039734698000916 -0.16335594675404952 1.9017329288968567 -1.9154526967438377 0.13940663333354575 0.7616633993711304 0.5692221488516109 -0.38852938950968463 -1.310276126470093 1.0799850617881872 0.2048127387182744 0.9765064449838711 0.8387136952578709 1.9652548677099682 -1.2768523119783646 -0.7555929762379839 -0.12603951724969198 0.4351859296749097 -0.005569748052366097 1.2900144694612639 -0.5357167895424151 0.4382173248674991 0.596245065407597 -0.8023707419039124 -1.0567579430297713 -1.1180060649241996 -0.09145224681645686 0.6123388659402587 -0.9433935353524238 0.757844940031107 0.3743702736804275 -0.04887329664622819 0.24580011350590916 0.35295366977401943 -0.8783854563138874 0.43861944308638945 1.378773416938409 
5.707633646383287