1.7875408058542046 -1.5438475379419998 2.100407488880334 -4.051795918541042 -2.6725513007335886 -1.7903721563897286 -0.86142284026913 1.9672145038453879 0.8113935637994913 -0.21798978276873027 -3.264389125183338 1.8594395713941791 -1.0200567149059636 1.2732826094309775 0.6615722681719115 0.904420400466726 0.4765059980723818 1.8095932515319748 -0.4312634297551884 -1.0954877377475487 -0.6316420845948918 1.1299153736957686 0.10100198430206964 -0.6131428956498088 0.7290238825676885 -0.13715447202055536 0.9491416422093522 0.07888448819694516 0.09661923002736585 -1.4294721335521299 -0.8358028460834543 -0.24372210027909552 -0.2738069635612338 0.4381859646596544 0.4115395361918795 0.29569787605482967 0.16415890460849558 0.3718894932383271 -0.15662759818386318 0.13015744701110132 0.9220691028671101 0.020053379590028564 0.3127743357248536 -0.5669482729485134 0.18099769294232182 0.6465782691539586 -0.3858293757102442 0.5841795399858295 0.10171096132022069 -0.22241556025125397 -0.42285030411688446 -0.3242841923944596 0.04772706635849466 -0.48521450612384287 0.18089053928203658 0.27652529373942714 0.10286666475205958 -0.6191540007300752 -0.20906727755086252 0.2930178122992197 0.01160201138335154 -0.22120957298125699 -0.5418676723602716 0.6713911664832373 0.5604946583865038 0.2766933122586258 -0.597848157403623 0.2334730575457288 0.064283792399081 -0.004703953766872909 1.0934726328845228 0.014743496611436369 0.09946266646800789 0.08606648219734558 0.5432802656550171 
1.365998264892255