0.546193218725433 1.2413517343828921 -1.1626072028400514 -0.07481217845722643 -4.62635983188495 -0.32612558056912344 -3.638631755414423 0.7740025691338175 -2.70791887002678 -3.927972531449726 -2.606910915512596 -0.877533723366603 0.9495471201217569 -3.542911104873264 1.6379203279813965 0.7007061381012538 -0.3830695605547141 1.128746696125225 1.7359886168629899 2.649749680001702 0.5678439819232359 -1.8222363529901164 -1.08932501050121 0.1261200625548446 0.9707337507867277 -0.710335001248116 0.9070221137622249 -0.3863493486032213 2.2263196160600223 1.4613057871690276 0.6796218655830295 -0.37639716689967834 0.3221404772168783 -0.22376116976271776 -0.2804441503501997 1.0577114939145116 -0.10343745147823909 0.1252686048462735 -0.3701846867861948 -0.18020057969031966 0.9624938149193384 1.1017172138269797 0.20853684163496233 -0.2600000085366462 0.3416239049288474 0.20740170959208004 0.4125106521191926 -0.4778283666002372 0.7037419924565169 -0.034346080243133736 0.1800895187110641 -0.6921175942638133 0.4902827242756693 -0.06947678435886823 0.08943468814669647 0.11657464759411382 0.3775248796550523 0.5379156828986329 0.10064878830829739 0.40546577791175153 0.461697281373851 0.39112345870394927 0.45472011138281027 0.9846053869627425 0.4766482980118529 -0.267438678228539 0.2312466405267342 0.734659050156324 0.11291896309725383 0.5519838840963256 0.06858181142109673 0.5156216895854991 0.11245315111643332 -0.43052189172716476 0.5087371585505577 
-0.04101555260196024