1.783340036090145 -3.242067548365231 2.395816615256046 1.0293477915943732 -3.0529321752625567 -2.852599826863648 1.0768395385010017 0.5639548187970607 -3.017447518803376 -1.6079284169012524 -0.2709782590320604 0.5549342369665426 0.3415003021454175 -0.3977033122041035 0.6172438557674607 0.06545790409029917 0.07667128110972321 0.4996254345500064 1.3361144803739562 -0.1462762764676867 1.6013968075335292 0.12068259029480388 -0.9945999174046501 -0.3006350881394307 0.4574405211906418 0.21157075305816764 0.4739451031153358 -0.21460467929010507 0.5001077094963488 0.2905292798091361 0.45422374763900075 -0.15768980034971536 0.39317375587020265 -0.3730048660390495 -0.3632542667859117 0.22873242253940962 -0.08392268979118939 0.31200019565546544 -0.1440740315193506 0.6196113675355335 0.3467229021291056 0.3375792929563336 -0.09228877909314837 0.08739175069999283 0.08906264357354099 0.24979869406713062 -0.33821377834399613 0.10202915928823533 0.2959527237168499 -0.4171309070438801 0.2507962666213974 -0.6553612227769902 0.30243075111577333 -0.4494049058636349 0.19435140217319213 -0.08830718270051363 0.20152025165924214 0.24452551313859205 -0.002296429585251822 -0.3971563288646527 0.23844754355100617 -0.09894479809335271 0.4467935285710112 0.2150718035238413 0.06584724665942202 -0.0747404850232431 -0.24968594801311772 0.16765055937012063 0.1516357046561626 0.06378091372026393 0.2599467370050277 0.21039809531091636 -0.02692437559604796 -0.24024013687758206 -0.17558008139206216 
4.688783995175108