7.839901611992946 -2.4816634693789545 0.7163849754658105 1.0376647131198737 -4.155852384478996 0.6598816356145152 -1.1019614423450284 0.3954322895855822 0.01468930110835398 -1.6847865760933565 -0.4535757407239871 -1.7732133011905442 -0.6830565004534994 1.7012009400871593 -1.555619696504149 0.44179533951418565 -1.3223335218905061 -2.892018194883927 0.1747857185417696 3.056070667175412 -2.4666697709900887 -0.7794311209142776 -0.21257186443429832 -0.1801442998328773 -1.9692651567620976 0.22605603818965905 -1.2339595315568417 0.5808305271575007 1.6047104500689544 -1.6994812767198606 -0.3086447522854776 -0.26128206724050573 -0.42636770694603765 -0.7720712024717129 0.5989973176999628 -0.02354945208199144 0.22922381955219429 -0.8045132714350807 -0.17884362242609514 -0.8925776742059384 0.9778147498827897 1.1806012690544903 1.6028094187771231 0.3500167001364941 -0.4326352977868201 -0.6874905482072486 1.0600135074268424 0.11725816060792982 0.8251737845678967 -1.0381497942459823 -0.48891064117390304 0.591582456499109 -0.958923330499418 0.9807868627705205 0.6603691339730522 -1.2008148596839783 -0.4517807637299167 1.058317994831126 2.316375182005361 0.6594303744686919 0.5018962365891393 1.0008821116565423 0.3347358011916799 0.5511069557732899 -0.5546754993838676 0.7186492032920503 -0.27002158829139117 -0.3900870453616523 0.2604843635022719 0.22047728187265045 0.6645547696639528 -0.40189366304962315 0.9964632182928446 0.430969427105509 -0.14955767915529727 
-3.9438730009371676