-0.6627588617623559 4.692770599427551 1.8985176937008643 2.4525999576892605 -2.4847553145202546 3.859436049592793 -3.0213666638655012 0.7832539360101712 0.19131137074489768 2.0921638951600965 -0.976746310319099 -2.7755233165005277 2.4381167991573154 -1.494529755045965 -1.5501617528552507 -0.6516225380697133 -1.6851760086314052 0.5358006087677573 -2.5842144961687943 0.4743627786489602 -0.6761085501955557 0.6718731207874796 0.8062606078977955 1.0017824482648965 -0.32791287534438085 -0.0030130838555058395 0.5804550043870178 0.767013264833518 -0.5817406051757485 0.8512959156160598 0.8102262709934334 -0.5154203747905653 -0.9558377037828963 -0.45365308706920926 -0.16463652118661815 -1.3782244579705265 0.4146012506970993 -1.1528328755640924 -0.390370393317292 0.029842085822135322 0.29693096650393913 0.054788453668533355 1.133622354926836 0.06897636307626326 0.388579764163841 0.03804627197212507 -0.13255382462440746 0.08263822307697843 -0.5922788530015346 -0.1882731686632626 -0.36380409862319174 -0.053232821610696514 -0.16844025138061808 -0.3321297129173071 -0.6080209424451111 0.08478092843543905 -0.08832528958415337 -0.23426275261344542 0.06484863236900232 -0.38144089155132255 0.4822664533967232 -0.11597113943799997 -0.1940437258555645 0.4819327181387964 -0.311648411438206 0.20129653650686113 -0.029367227965559323 -0.2985887873572496 -0.5928372731102612 0.26951033418117243 -0.04554108916553948 0.007902519397866126 0.5442374003594735 -0.11971819284949525 -0.21495757818675487 
-3.74145513140263