-0.22627869212635687 -0.012593649088007197 -2.2778065618433194 5.790266734841073 -0.8638113850514646 -3.8727925581823786 -2.5112954078117724 -2.815726270885915 -1.522888058310265 -0.4932519793955983 1.2383870257251197 3.660624400243975 -1.0111865628373269 -1.7354469889663322 0.6227947307164707 0.03966994322577344 5.498084762952173 -1.9394113328671088 0.035110036558214874 -2.3521973592274463 0.7611511387295185 1.845679882933617 1.9150551030804526 0.57445457259388 -0.6304255119961666 -1.206845257040726 -0.913864785568803 -1.7316532869539976 -1.0841319874248156 -0.859746775246822 0.6189230959113253 0.8143968835106578 -0.4149209964253626 2.449136633029105 1.0469139133300482 -0.6294217496101618 -0.8534185284826921 -1.551954101590085 1.0404668887766622 -1.151250322924552 3.1031675574871893 -2.427222599831399 0.9596222349303065 0.4604319324909847 0.5693276743882385 -0.8072402950071726 -2.515536544898846 1.8800500765968546 -0.40493291125890574 1.5859538210420148 0.7168527959215317 1.3421783853596903 -2.13098823197106 0.140439230652138 -1.0545773428824785 0.23632126407436377 1.0778070495503294 2.6035970339363677 -0.6251783405851425 0.33166020114496986 -0.3819215495769619 -0.7179518422975573 -1.3935106652521136 -0.8497584108084344 -0.1200226036375362 0.9100833954373374 -0.8472484332636431 1.2552532115960264 -0.12069533087778828 -0.055604936034458485 -0.24541362517621063 0.5892316104147226 0.8388608603064855 -0.4390722598033072 1.2472419515328899 
2.160272068086312