-4.626825339925352 3.042284074333918 -4.222238486180473 -2.849954787471179 0.7572400788967658 -1.7379908709061678 1.4215460448978883 -0.3384331216836661 1.7154968237714558 1.2671908634521856 -2.141628515224552 0.6488805874604933 -0.04126962974616534 -0.37338951236284496 1.0902000719576408 -0.25076954932270984 0.6715013637091355 1.8564026018011244 -0.46903663187209554 -1.202748027894103 0.5093970422386778 -0.184987553250615 0.19185529754808878 -0.4214279302715356 1.5365851993119946 0.4689645677654986 0.7491731811206042 -0.1074825248934031 0.2756273915335325 -0.09512546983734275 0.2447108105083912 -0.515791993883532 -0.7186163071775267 0.7495090715939985 0.0863650919190981 0.22019517702745992 0.21050433726639325 -0.24696516783999165 0.24414662614113697 0.2762169713517131 -0.028855606077205952 0.05811539542774426 -0.14747363180853565 -0.7956890119947707 0.37363128008094365 0.48600330272095815 -0.12827534400575102 0.9177938747573731 -0.48935000409289375 0.13181483034449373 0.33494265596389733 0.11258461147478317 0.7229667795810036 -0.4400789063470204 -0.4616044942656954 1.1376663689439732 0.44012587198493763 -0.30215203375278393 -0.4748110323862123 0.0023942227235413567 -0.09201040296932576 0.10983313594097839 -0.024720627715075397 -0.002429252754900156 0.0668577967600654 0.0020650206497035313 0.1770552560003562 0.6742866622468119 0.2040052622797144 -0.3185524094809718 -0.11036040584538859 0.26254835636952256 0.029486893027013267 -0.043542881634366884 -0.07358338801084718 
0.1586778097450222