1.5994727910418192 -11.459005140308193 0.8614505696035568 -4.540852710815654 2.285728884396935 1.2208772231096958 5.449271138558679 -1.7138055038535671 -9.501518002646964 -4.313276808208547 -2.438226387310576 5.352809686550087 0.05830620022843469 -0.8149263489712251 0.5440442100838974 1.9388082904662607 1.1369185696336679 0.20761904993257474 0.40980202630140106 0.37577111662067697 4.276054200637759 -0.3125504338846632 -4.717715863614702 3.472594543844303 -1.3719915262891922 -0.24526904967544438 -0.00889785788189934 -1.328753328769658 2.978115618608538 -1.2611726469641278 3.5529322028217107 2.0306157265978215 1.8242914253039455 -1.16799247357386 -1.983179588134643 -1.553654675448687 0.7665849346370968 -1.437135461764299 1.106031578276262 2.1504134229713294 1.9675389132206074 2.8447764805261517 0.883156749041162 -0.30938261775364806 0.6427770181462411 -2.3914842375959866 0.38445712988679626 5.644131983588171 -1.0833255106400022 -0.20163952578960398 -1.0627950102969508 -1.3252493913204382 -1.0372556919848845 -1.861854925136361 2.184070377605235 -1.7066196367424737 1.2516966361989554 1.8576173438644354 1.581142183855777 -2.290104166873076 1.5783986024680834 -0.017331710422780366 -0.6795319316769288 1.1650832405659104 -0.019737068067108732 0.05835195984565389 0.7013922438928846 -0.03719910273446936 1.0129113395359344 -1.3196589992850574 1.5862423732988262 -1.8289289272655467 0.800682357735132 -0.8120015091216981 -1.5889165726795405 
10.668346967532996