4.10527630400294 -2.93720109277376 -3.796102523659701 -0.4079799705113978 -2.4344804616980573 -3.9008428668447284 -2.171315095569367 1.0157481617309252 -2.3721652270278826 -0.04630354995290986 1.5077797938194517 0.5201428047525369 0.569509779836207 0.1122315959481534 0.3908807699138269 0.8813051375345908 0.6470078649326203 0.07743832735690165 1.2598541663455474 1.059528068804013 0.42206806095028737 0.046690703195688577 -0.8581494902068357 -1.804953511506219 1.5484877063891305 0.21235738384359698 0.7248954909606584 -0.6746959533703527 0.7221968189178234 0.9744478678951568 0.8529521362210913 -0.14772418042807667 -0.41080579817343776 -0.7611693912585529 -0.28056198487909745 0.11494121414684644 0.4999713769745852 0.254210392915596 -0.5797049932612948 -0.05661796369553085 0.32319180243724943 0.05028367977727481 0.6206461507874894 -0.8063340210820626 0.19424075361709714 0.6043463120625732 -0.0823413698535892 -0.4349425570736836 0.10094786746577003 -0.7406617717321069 0.9995820050784461 0.12394823582683433 0.8273958108882323 0.11809437076099773 -0.19508430230188306 -0.15314358056720412 0.03903126392305167 0.7299639111332479 -0.07029179105469771 0.14447213381484786 0.2021185782877381 0.06639199855408406 0.9136327627545852 0.7843540593482958 -0.00365968156929879 -0.13239097485941137 -0.11097556306796888 -0.10748413224094408 0.13255081639986727 -0.35123881731353157 0.4508863260922714 0.2887697250818106 0.41037537854600764 0.13353344089496932 0.05064330661265293 
0.922122463089823