5.228063857721254 1.986765621463121 -1.066332683030808 2.672394725256314 1.0265200225730748 1.328833127245333 -3.4462367038777995 -0.9089056160489355 1.2417346254770654 -0.6491469500892109 0.10182800684014277 0.8466371830506703 0.2810412506928992 -1.5922946955426334 -0.9742194639642601 -1.296503490780244 0.1969834917612877 -0.5181420254927537 0.7102300634326378 0.005016134341201496 -0.9246428011823382 -2.1441058806206925 0.8055799943801063 0.344445840274059 0.1145172427906273 0.5002715694781269 -1.9184772925719586 -2.0420680509978517 -1.4518609365420525 -0.7687336353594056 -0.6659253171614821 1.018503309524429 -0.748349929452402 0.7855966642154746 -0.04883913728209063 0.323966946215965 1.1009205081106714 0.15399010379513461 1.1226098742683555 -1.4274292238233686 1.5702454356111881 -0.7205986866843506 1.8585507730209743 -0.576061540301709 0.25768640558594474 -0.7922778472250812 -0.9482235661451259 0.3953207907602323 -0.05327694681118059 0.057673212140647585 0.20146367194148002 0.15091223226402764 -0.06577403840265933 -0.30042635024845354 -0.7942107196104881 0.44529275415850245 -0.5256829224438184 0.5051269429871986 0.23596879759629202 -0.553653104914484 -0.24355761242022317 -0.024874735206844467 -0.7152478302768818 0.4858202224161584 -0.16264063139518808 0.5445688640968855 0.2988071594895828 0.09047215869222502 0.15826854802448737 0.2758742595532694 -0.04108811833038313 -0.3262349844289919 0.688849330607359 -0.50918652668815 -0.1721217265001022 
-7.140562249143764