-3.124512451864427 2.6262408403671653 -3.3314124901047126 -2.2693876899267718 0.7392015092072095 1.267175782259071 -3.6328487732997496 1.0650056256469131 0.6057253474404201 -0.14880131523839074 -0.32054582816670596 -1.2541684148196939 0.5945427779674072 -1.0354497751641918 0.5286526438739845 0.556777865312848 -0.41574947878379764 0.5477450006783419 0.25752093060054637 0.7254065686529755 -0.6085837694842704 -1.3001855476290487 0.12059279441500148 0.3362384256087916 0.023439005331988283 0.018121641734996363 0.02666036443981501 -0.14676837067322374 0.9685511959462103 0.6637610026780559 -0.05605302571154108 0.4941479058600522 0.2190887910897027 1.208543457803431 -0.0561500646913487 0.21698554231257539 -0.06848345126289754 0.5994101513932275 -0.2632309096147826 0.22928346206469385 0.20869944891584882 -0.2757189276856512 -0.07140009153192556 0.09323123681106837 0.3023836654373583 -0.07782731887700178 0.540378897859581 0.22986597475653409 -0.025617511036792953 0.8495492863243623 -1.057129855878422 0.003311514725497955 0.08317081425091147 0.2425269343314184 0.08620613974646912 -0.3460289898055327 0.4261579742414867 -0.039335779837316176 0.04162618920918243 0.2631530142408919 0.050032016799524 0.3583696740157484 -0.21180268532708502 0.05447107978184029 0.11328851631541706 0.15427198302428632 -0.1533280026775381 0.5354453658184188 0.38311217276986725 0.20592015002658604 -0.1692997297445205 0.6535985465857934 -0.09086207992146969 0.326424994014054 -0.29333189392875825 
-2.2011681547344137