0.30213992637424525 3.2310087183137224 -3.6757472765927894 -1.079731457540557 0.258893199898484 0.9674854730852949 -4.899985581834459 0.3394479063316842 1.0603728224613729 3.3389457016991426 1.1869279119809886 -0.9946678974253147 0.8569681323835581 0.02900608084712114 -0.7137488403092802 -0.2748558256960061 -0.5188885114162816 0.15193793980237602 -0.1220035566567601 0.13439375512529755 -2.018334935554949 -0.35742032922968825 0.25750997299399475 -0.14195462376639192 0.5365959763535812 -0.7398213051985799 0.43896884542720116 0.16490253032414648 -0.4763534450997919 1.7797625181171322 0.757826337155395 -0.13488858909217588 -0.9689001507487585 -0.6299133909189591 0.3537513042726266 -0.7740384645687032 0.058627317523546996 -0.5042183498315599 -0.5465932554170958 -1.025634867591902 0.7905579586704152 -0.6213269690138464 1.535532475120696 -0.6307329845461742 -0.48477364698006986 0.513608341741554 0.6007000794624668 -0.11976901455465616 -0.1806330333632922 0.4073671139439815 0.3034668855834166 0.5499858953054979 0.49253041232866096 0.7708724675050036 -0.5824056018700858 -0.15783182500671444 0.3036862265629976 0.5331834382127932 -0.3191333254899231 -0.04974347154951589 0.1825045141583499 -0.2636838240097952 -0.05586717223357229 0.4900358190482458 0.3130108128688376 0.2810846358776301 -0.08921422508922744 -0.5114518564571695 -0.3522786053331498 -0.2088534386513392 0.3896042081975728 0.059815564274991906 0.5583576550237417 0.2618196606242452 -0.3177968863434862 
-5.4542921969778035