2.1668574939673846 -2.5120068998167007 0.8882013033258263 2.6654790208724215 0.27421988628032734 -2.799849642095665 3.549643886176522 0.04601804997976999 -1.3408592396397534 0.9759104603495723 0.3843896912504958 1.3605848972316559 0.19360869360157767 2.1564419560060717 -0.0937151072532858 -0.7515241371065842 0.039527578514768846 -0.11370639183522657 -0.23658509369274627 -0.7624534188217864 0.3011671581724569 0.40212536604515337 -0.4208601009167049 -0.07020827699095333 -0.4689370691682385 1.0787707665813489 0.1719097787874374 0.05354422657192409 -0.6457533412625747 -0.41738616956780444 -0.24879049470047077 -0.3406289256574691 0.2439572284688395 -0.8857394335086811 0.4927803237705085 0.1654273951401959 -0.5075318277521946 -0.3575898054777372 0.5788224502842887 0.3249476618990912 -0.6110855816153818 -0.2059522290359626 -0.014736535921298699 -0.09679354441350907 -0.17985605939674326 0.0628870176696309 -0.521354732988411 -0.5765494573614112 -0.3144981058537701 -0.7967401534375893 0.3408873390371424 -0.6330873324659768 -0.31096830658214375 -0.15294881592639153 0.15600271825444595 0.45239450690380056 -0.32343554531129104 0.26991731574321765 -0.35449423484964815 -0.4899183794248002 -0.0030735967488728644 -0.28712670995451295 -0.004490271796916745 -0.2121186994354046 -0.41680409432232335 0.18754424751664456 0.03623126786696068 -0.44636623552066024 -0.39995920651532024 -0.42952769253193834 0.44064901956714697 -0.28167991037344253 0.3611107556717902 0.11521833155643879 0.10051301398346646 
2.55949452327825