-2.241602785732481 0.43457006640919715 -2.6629573733312144 1.7869712604072425 -0.9305279516935938 -1.1819085358824826 2.8158521895482744 -0.9143315197710042 -1.3238034782725618 -1.3877516712268934 1.3703592258460016 -0.31128658841490897 1.094538635858071 -0.10110267901176023 0.1343717224700931 0.7705441108945552 0.01865970561706798 -0.699142196514913 0.4950060629253237 -0.2825263781871308 1.422978124496658 -0.47007622281707545 -0.008106652624898146 -0.6837826263002016 0.15224152407193958 -0.3125228660063398 -0.17061638579849503 0.13116508238537797 -0.2762867001119813 0.4582737944152303 0.6081225310590367 0.30566720661730173 -0.11198792986886669 0.7843895279692805 -0.32804754185798485 -0.0017772929213550337 -0.5134889820176325 0.14620192956891975 0.30729989229711097 0.07990306978461659 -0.17781790847696027 0.15861136630095823 -0.08824173620857362 0.20971024781944006 -0.39138772769765984 0.28365184966122836 0.20794325792040896 -0.06860269007750752 -0.07849727125311659 0.09992277266743135 0.20743502373905526 0.1512690527938326 -0.07566047521873603 0.1962386686523369 0.015488058043800351 0.06369927949914517 -0.23416668922008288 -0.00680370280065342 0.06041667532076611 -0.45783054666217193 0.473817249622317 -0.07479271613669009 0.15589537258156067 -0.029260236759303004 -0.05513077629855003 -0.016189103107541597 -0.04297116254934319 0.037799492372261226 0.5774504795713588 -0.01166533812929968 0.22429172275906134 0.10199353647769577 -0.14649634909772516 0.05118001390941798 0.2752190057043145 
2.6858380656106977