2.7635537866952866 -2.3961883472064294 -3.1467912631498205 -3.97512540273899 -0.6037255159105372 -4.545921843442781 3.799206963059307 1.9684604399798185 -1.6247095000434557 -0.563790603493004 0.322745301650718 -0.4977135014756744 0.19428110035166846 -1.2583570752220847 0.983630354428012 -0.36159158958308535 2.055952829452332 0.5247110480121824 1.6645302325118394 0.12155496887126072 1.1070985820902197 0.2936670059382067 -0.3481427604977172 0.19396161279276436 0.7197700338169597 0.02220626537254139 0.29826274429355565 -0.13849463956812813 -0.010823701213453774 1.4857920775193467 -0.09766072441652912 -1.46321878454353 0.19403049769636038 -0.49865992427853323 -0.7115264752695867 -1.7303114576506582 2.073125068814342 0.22558910823770972 -0.6125598181654732 -0.19424018406593602 -0.3751233436270498 0.7606992467218581 0.5205750995278449 -0.6383858207361484 1.359092893609954 0.6562339116562677 -0.06848982254731462 -0.38261306701314224 -0.3951432755022488 0.6653055425173788 -0.5611663044957276 0.5112556009046595 -2.1235018075321355 0.10293914752862315 0.6439304674181234 0.0800125387828996 0.8682429715444844 1.289151301851185 0.4477624471725984 0.7772485263055166 -0.002959116923514138 0.31942754818067254 -0.3926848201024473 -0.7780546372521985 0.3214500242991474 0.6228012911382457 0.33264692299545995 -0.3775372012221241 -0.5147997710016331 -0.7779611224945805 0.7276949650921821 0.20946234878228498 -0.5136692077181376 0.28626838924412135 0.16731122324582548 
1.8832001351516787