-1.4046311726374556 3.043746759735648 -3.979362027100998 2.092701553805767 1.561338352127523 -0.09460903162748557 0.19302689811136653 -1.5016692254775754 1.560998929951933 0.3679103174395268 0.8668561521175668 -2.0462580792441454 0.3333500761333308 -0.5959878425811176 -0.19882740823194567 -0.7927661067016405 -0.7068282403525581 -0.7176655254093601 0.03603366396444363 0.6472075126009332 -0.8167879974232115 -0.902250391640485 0.571477044833748 -0.06638228940926018 -0.26327125736852264 0.26729417835458824 -0.5831037276580424 0.21680027166897278 0.24712680219062186 0.4494478360596793 0.042830108960324895 0.0812360496244419 -0.43430818395250825 0.1477998530087875 0.2558351154975681 -0.49111379817033424 -0.02985542886988147 -0.5708855290368628 0.2213357262840839 -0.4668686757078112 -0.44412920967368275 0.030148395267438382 0.201448898045198 -0.04621182318005994 -0.39000464194698 -0.07994244274755374 0.4701270691152638 -0.09526497377194154 0.2202644600616897 -0.1349233739167925 0.18221233280203025 0.36901033462592503 0.2511795234588003 0.5781061877465208 -0.19238285199719596 -0.0442984105182983 -0.09763333455140766 0.14414336945693862 0.3418320297540364 0.2902845418224071 0.31482805367574107 0.37859096545656756 0.33786073455967247 0.14151911872992462 -0.001010095004058579 0.0690370076807308 0.4833686475472122 0.07010316256894188 0.12959336735207702 0.20405747972039548 -0.3547727785058608 0.030089677409011056 0.04104599413592283 0.054151207071455376 0.006650113880272895 
-3.568561287073158