-3.9298759661065485 1.374813464843145 -2.416753824679495 1.2810059930832385 2.3454444835867845 -0.21940179624246015 -0.5441552797476996 1.7186135625042163 -1.645969395820793 -0.9694384117311912 -0.0667390362495216 0.7160203090239168 -1.0283605394208242 0.48581683574590795 -0.20258641420974188 -0.9891445706153843 -0.1879099319237041 -0.11769907075715635 -0.006923942870312394 0.17641611799810286 0.6334617110538048 0.23218755127915913 0.9124399632964956 0.45420550330625076 0.3709073593958517 0.011995237455803123 0.042947025987409064 0.5237690646721851 -0.17823394137168008 0.1357528210929968 -0.3362291728400005 -0.2799268776780717 0.12799521062495034 -0.03813296309150771 -0.06123357514391295 -0.06660170296607348 0.19290702268304266 0.07000892463224778 0.266685736684859 -0.03307735714455817 0.043774424457237435 0.08487520681275777 0.12057361464862631 0.12356494415473585 -0.22128457261736456 0.29955387618500884 -0.069326414200508 -0.09182241827772619 0.027901861138561523 0.029932039405595884 0.07399488541426735 0.2640789380306434 0.012879570192402018 0.030972272608343038 -0.17467940908923385 0.025490036132700344 0.1815245944421981 0.044014414202786706 0.02169721084428694 -0.054432537994336644 -0.0984928439116458 -0.2932019816796292 0.1872651972710206 0.06955022873867309 -0.0760737088774959 0.28836292774118655 -0.04012595527908155 0.2918381900531763 0.013490537598681768 -0.14176931094475895 -0.05250854339001382 0.20627048559713157 -0.08073314777226333 0.07219491795969668 0.1256503420646341 
1.5083028521789352