-5.942112759706467 1.3295432891023449 -3.0385109874166405 -1.0474260459718683 3.2659448474275834 3.6994608787966134 0.16994766944933692 0.8812074124807134 0.41694722437622467 0.997057525649846 0.17709671515941983 1.569743794855995 0.6672995642594473 -0.8400459637540204 0.4783293213606735 0.7653758999369753 0.4084381006296112 0.6425077832840131 1.097714234687544 -0.7645405711763997 1.3385723325554162 -0.6138414960248352 -0.5153512544618322 -0.06078019624206635 0.8723384886237369 -0.046226435391942794 0.34718708739487725 -0.01060542251215904 -4.1606828587620326E-4 0.14517609173154644 0.2797329876740263 -0.18154039550112652 0.5471500517916127 0.008732741066312943 0.6062872419388885 -0.42165722390794824 -0.05805679409081271 -0.26898821596335026 -0.5191999142373447 0.6375915542017554 -0.4243941455412066 -0.5479648308303258 -0.8417562691526309 -0.20474171623988857 -0.5654021430411895 0.18756886034626258 -1.4369636427638275 0.2532755731445088 -0.6856507251877305 -0.219363946903524 0.45557820860521664 0.04451304702552018 -0.514498107909541 -1.0242850042184215 0.1833350229928779 0.9212004768307309 0.09318874726207965 -0.19213127104678684 -0.33076965632031274 -0.3174893913943842 -0.13499220998030576 -0.04894487872722894 -0.5276514228377536 -0.23837394274778828 0.3417217370945389 -0.39580326530323484 0.0401322929735588 0.08210866482832344 0.325668433370229 -0.3998120753361652 -0.4274580739888121 0.027775268970738475 -0.24178742837550954 0.0762013379940007 -0.3321166173817979 
1.8174444068410007