-2.2489433307503246 0.13670715833006186 -4.160846647275689 3.0427450288156184 2.767619757703831 0.9486643977916347 -3.2617279718354943 0.6256204771852324 1.3917061704694396 1.3171946345699193 -1.1659609458564524 -1.6093090901952505 0.3994096763929932 0.7082942013949624 2.7478709023293026 -1.4436098171874612 -0.36332017614385426 0.2244321588070326 0.002959149793487423 -0.43642451677039906 -0.8255257671816429 2.473885264037688 -2.6907329147364547 0.7272034534782662 2.113548858230097 0.3346433503126145 -1.3192006269017098 -1.2840159319277313 -0.4618784289895382 -0.54712819126269 0.7442231189904946 1.1213580355620185 0.5004925921580108 0.26906880027345503 -0.4336223094146969 -0.23174456001009175 0.6252718198442964 -0.6332457708377076 -0.9415323868010096 0.41279435143117466 0.114593115456221 1.010772746377405 0.046869243139603944 0.6906771945806232 -1.0727873960198109 -0.09588831252322622 1.0085293971331741 -0.9166123033683888 -0.4449926583927889 -0.17650635635530515 0.3097856366206369 -0.4069952875306384 -0.12744638357076418 -0.3967597862344579 -0.1664154554956439 -1.104981185767379 -0.28266404920754296 0.35714357571880634 0.31724953832463876 0.2703103883620229 0.12058217075549693 0.2899023283599196 -0.38258754880135815 -0.5258542438175438 -0.5551807599560489 0.18209807169079828 0.30386796229501567 0.6115366430149078 0.07868657592319547 0.5687479190641846 0.13912035673857384 0.1510892837389699 -0.2940047051914417 0.20088372683974406 0.6002865842749877 
-1.4418726025795094