-1.8885462715629426 -3.216685578536545 -1.0900369435465997 2.9265488672812254 1.278221864516385 2.068604933759424 -2.362885652952087 1.180320153100444 6.362820963529591 -1.3230059111854233 -2.729532641027208 2.1909556019694674 1.7411343925477563 2.5145174419143173 -0.003912277353257609 1.2254513262233897 -2.1411634999103546 -3.105983168607564 -1.4841833988888693 -3.1103603976302323 5.032946025596095 -1.7692270728508817 3.2834517545616992 2.0006418280779266 -1.048379477701356 0.5356531116047362 2.29947821435061 -0.6886982977128373 0.6560643351250643 6.736403467340989 -0.5705473414115805 -1.0634649302968597 -0.6192183132228688 -1.3837329543464074 -0.5620574003929314 0.5274319192120316 0.831682794456174 1.5020463198531917 -0.6009544346748013 -1.0404271732370987 -1.3985773995520194 -3.169173040573711 -0.45352015719145156 -3.8548464236488296 1.6390936123158966 1.4893045688605469 -3.000850011690564 2.4240398306196234 -1.809095008146065 -1.1926342955480507 0.6273581831484095 0.8402271938626604 1.0135942583741315 -0.16578479755476186 0.6015963108736697 2.28044749977301 0.8704502504874438 -1.3513148106829185 -3.0894863240755486 -0.82694906265063 -0.7232366999648998 -1.1339987356851529 -1.0010763896108599 -2.017081789949362 0.19853539945537682 -1.8037478599755568 1.532106939464032 1.687325269097757 -0.10873238305116573 -0.05621652519186812 -1.3776641786494799 1.3259456262282305 -0.7979553772489381 -0.10487721394018712 -0.18457863595066537 
1.25042772410535