-1.8322212332852512 3.5384710549497385 -4.9979686813295325 -0.4487593082367003 2.152509360135893 7.521481485724381 -1.931176229514973 1.2504462939696066 3.831478115315833 1.7538640810959332 0.32971189198172324 -0.8502616297793462 0.542245418216337 0.32300090276673005 -0.9179564933478328 1.9596513137379885 -0.6822996473342491 -0.6092284111187157 1.4227534569981026 1.7748732790535715 -2.2268079577992923 -0.9815492474527019 1.2095396482488883 -0.5018745416339631 0.003477067921802468 -0.3369458900697203 -1.115016816072701 0.9923734344626317 0.2811464401180416 -1.5638866596788488 -0.5298484219558224 -0.7690720541383367 -0.19888669698851535 -0.5705698425259538 1.9040754532442807 -0.9328894046002782 0.2425303005560076 -1.4889867861255754 -0.9951075821555703 -0.3805406984164579 0.1401600760449603 -0.133669798838364 -0.44108662762648926 -0.7591809016326556 -1.967665759990181 0.47360533650515146 -0.5121496198652867 -0.47523541902238114 0.22272899955403613 -0.9890649017520876 -0.34642066894359824 0.7036911846414935 -1.4364681267271657 0.07593601244597231 -0.21910960929998924 0.9238568402596505 -0.6076351044166327 -0.23107690767049405 0.015177396431270807 0.8600811328051263 -0.49809434534642194 0.6388094380793725 -0.35127111771196273 0.17556824503405416 -0.8283485766792401 0.6816674583556264 -0.11820786950784135 -0.05055287795797164 -0.5386275027556379 -0.07816634568143584 -0.46018181680529563 -0.16424908964474327 -0.05444227792972425 0.11519672242897216 0.06265165828285679 
-5.549187778513296