-1.6996080085363219 1.7470853963567663 2.21277581209461 -0.5656242732501644 3.44801726214014 4.94939147518978 -1.5288581646711232 -1.1050200497802238 1.9877122523736124 0.5291391078160532 1.970541439234689 1.1412857920967032 -0.42144132422184083 1.5940529656359073 -0.8356513370355345 -0.19872712071312504 -0.6068313445213911 -0.6073046526844869 -1.976858538607638 -0.5340515523175126 -2.6398140550156532 -0.4768769975604982 0.34014729403038396 0.5174407299276146 -0.648939690604796 -1.2472023676747441 -0.5285661719174178 -0.13350328765014038 -0.46455070470432036 -0.19045170918349855 -0.2907642317191894 0.20689133684013197 -0.5287954393575777 1.1730401194140914 1.0376187893900333 0.22158421081130003 -0.9896478441358856 -0.638943581893655 0.447259322330249 -0.017183785117479977 -0.3493605033268912 -0.4628962310671954 -0.009549166845720547 0.11321415740157878 -0.6691775649567837 -0.6979216212369228 0.5683793471827943 0.18467728308307726 -0.00799114153388479 0.3396188479586607 -0.10442348222562856 0.2904416321797134 0.42709144049908826 -0.41788935991674653 -0.503329685060434 -0.1146084809171728 -0.4481812544605782 -0.9209690037228954 -0.31081772123036105 -0.4636910594540359 -0.5301784375911922 -0.31936537502487333 -0.5380856997818321 -0.22157449676060387 0.30120120609367423 -0.2609881280619932 0.015981883695269927 0.06930001257234464 0.1116689999499629 0.5593774697295842 -0.3427614314349791 -0.29115109656103844 0.3699389900667428 0.5224117601283396 -0.5371591621769065 
-3.010544247961266