-4.1777335983495 3.128136775677413 -0.987521474753949 -1.0233955848881975 0.8354034810215276 1.4155459433251536 0.49617115565386216 0.7523985762386858 -1.129074925878791 -0.49158913937273696 0.5029224438860495 -0.5189132130152863 0.06551073318605696 0.8392920000349625 0.569908705312375 -1.1568234695305935 -0.11593484648047181 -0.3602892201090071 0.08418452239069511 0.1258856819733533 -0.11912440430460255 0.34473289007482855 0.48619740423553465 -0.3182622671688251 0.2715911623357318 -0.017318233383468717 0.2839235869609393 0.6120119921717528 -0.07904729856888906 0.3720384572220358 -0.68761376840688 -0.10682986067398376 0.28992574660428266 -0.2866558131138056 -0.28443165470198045 0.21620893097397997 0.4262127011125722 0.1130070412074896 0.40156591332855024 -0.09573215460583108 0.1612398212622685 0.17191670568254905 0.02664019469402013 -0.11648799689345746 -0.18773050183417317 -0.006047855744624894 -0.09282832579605332 0.364943707522919 0.1565907285438393 -0.012591844328897556 0.0015741140846777177 -0.11159687395256238 -0.025394639155971413 -0.16168827409404302 -0.2155127314524983 -0.26101298260254013 0.05954503832883646 0.006485813518573131 0.022950750030391535 -0.08560018033861373 -0.10268139752983571 -0.3123127037606632 -0.05559268771793817 -0.03893305551093309 -0.12027155968176802 0.05807171972228278 0.0859874063292412 0.15991288406857665 -0.01834487642247218 -0.07369836446911558 0.11838458946446906 -0.07935273585490883 -0.007547065965188143 0.0049970868559182854 0.009501175376676461 
0.5652754301858556