-2.9180916233931358 -1.5317559862775463 1.4422561066969777 0.6530540843572544 -2.2589309563495314 -1.64247257249981 1.6974175307296233 0.11234553322623159 -2.997407603917833 -0.27484647807800217 0.04751997920935386 1.0423311245599782 -0.22572158987435365 0.5600728404033403 1.0130942547625805 0.7790821542320678 0.7685277918025636 0.16122525447672936 -0.235425272252616 -0.9139449961028836 1.7334103302536903 1.357186296467821 -0.6092266187271282 -0.5244911762718738 0.19449437480948534 -0.5951329509374517 0.831080214818871 0.3929796724346234 0.6814087233789367 0.2882534362549575 0.6232571264060112 -0.5055467005644971 0.5872400197848594 0.29773456817932464 -0.2324703266655771 -0.08802821479421868 -0.6744973397106413 -0.1963354570962318 0.01385540895557244 0.6908101937796822 -0.06400434374067308 -0.07393341896599152 -1.0249679633723805 0.6680708135083131 0.3204871843397027 0.1381543283164362 0.05872430706277659 0.39286559880999383 0.12362191026400687 0.13888701549659632 -0.06985466892338454 -0.12167310213091376 -0.06491319425212433 0.17176760822075854 0.22235340805759732 0.04077362493209569 0.4982372424750027 0.15748415200912977 -0.3986633022952494 -0.2092432744722449 0.029367373485839836 -0.002036166760920499 0.24804973269476133 -0.368375308328809 0.08483002148324144 -0.04368300113077203 -0.4591233036649062 -0.08750776645471851 0.19827669995331088 -0.2475706449922887 -0.10997773113379032 0.020411412782667143 -0.20648115178271848 0.32574377390020726 0.16959097814225293 
6.179605343348856