3.361577334056233 -5.065457936393645 -2.3557477176729695 -0.6381847750251615 -0.12296243948679475 0.6803537593600795 -2.6990428315495167 -0.3817613570823206 -3.000433197172514 1.3816569055971675 1.6670573894063736 -0.6653274838369044 -0.5110177057208931 1.6263663770895014 1.9655602648139539 -0.7266289756070754 1.0410069202829497 0.8033369331820561 0.16580499282428576 0.08981429052382686 -0.01017490126748255 0.007410984736250015 -0.7397387764642069 -0.003014941397201501 -1.2019427113591685 0.27996148084023253 -0.6720877798078286 -0.07960334896510465 0.016157847028937355 -0.3416057004064802 0.63316294926888 -0.04984629859772738 -0.645014113152597 0.10031161657699672 -0.4669191817462951 0.17948464054922644 0.3051771537814442 -0.1636513617401655 1.0179035010682709 0.31335350288537844 0.14115263357776475 -0.1749421823396526 0.06554032119155101 0.27467561721367595 0.5736105921149808 0.9814945172416949 0.37952819532868465 1.4113815347620142 -0.07987150929585564 -0.3990579954332427 0.17218951833933363 -0.0072252085844926595 0.09624906722927695 -0.17130319375212055 -0.31366396280701564 0.3004478789438211 0.14705591976373544 0.28606048515319205 -0.017908916103036677 0.08054927954353523 -0.013304872613502675 -0.12524851947808618 0.13772502342556478 0.21325231366965186 0.290360107084355 -0.2980027856704255 -0.09893564819276747 -0.16898831355605126 0.06528548284546268 0.3304788041003376 0.07158551281059226 0.2605944414411401 -0.05407675508789518 -0.24195189206629708 0.7899691997800876 
1.3326451911825474