-2.6594337327092976 1.5245114692481323 -0.4592402671525244 -3.391103108582533 -0.029749820391953286 -1.2835237742735397 1.019682086241966 -1.6984653481478789 -1.5056844180530016 -0.12636336392857217 -0.5656785782797713 4.2081120101816305 2.809844232909849 0.7934914552886388 -1.1556131417021345 1.8583951241163206 0.36083139864390024 -0.876887285506943 1.2537695761924113 -1.6783842179352642 2.7572947928427873 -0.8047656719386123 0.25316304085764973 -1.3875942726055808 0.12586085559450177 -0.11030154351035149 0.21011923281780748 0.17797148831880372 -0.5936899487967889 1.0336501817741597 0.6764128877590905 -0.15492584196530573 -0.5049372353445299 0.4049339812685706 -1.6571827199511917 -0.03507380526355308 -0.8495780440870286 0.39440148636906036 0.6819630339696938 -0.18085277938195876 0.07302527035066174 0.6995731475295177 0.7211931246860216 0.6474105827916505 -1.038884839090993 0.09453105832460285 0.5734260283530546 0.08443209981426608 0.10904450127835391 -0.12499938183141779 0.8294797555348317 0.1321870170393885 -0.49990891694281125 -0.3091337693435821 -0.18599376461249228 -0.6359923486832433 -0.35632314550578925 -0.9673226888789558 0.1358056760622368 -0.9666602020065319 0.2284040878050353 0.1276581811104569 -0.06359988492410162 -0.19662336076885323 0.05229765520173876 0.16382468830576666 0.025228529121502974 -0.4805676099661724 0.4011064535766864 0.29409911972411645 0.4757848086854455 0.7210588461087759 -0.03698163351011348 -0.015127392645193805 0.4531688924195132 
2.1412246233516203