-1.8738969306818767 -1.0992587674772718 -6.308441655303599 5.105417372641992 2.31847480074925 0.04315254261557433 -1.3353340591225153 -0.9723136907768741 1.0161365969286047 -1.3947680785128094 -0.5097503929121914 0.5651488814800762 -0.511878850108384 -0.5655615769672794 -0.6240609116413984 -0.5098854644476025 -0.7376888259569385 0.10850091154123498 0.8311254269611019 -0.3831422734840026 1.0431663820130321 -0.37527187214139923 -0.09056586518191101 1.4359922876654856 -0.27996753867931284 0.4500702915850336 1.162804518795683 0.1319715830870667 -0.31064352884473734 -0.13272682440491354 -1.0117651270026244 -0.1624229040727324 1.13302752146234 0.45710200425738523 0.47227639206169286 -0.46603988613421266 0.8235951234149119 -0.9622213634665892 0.5996397418851016 0.06442358896015188 0.5869522569211374 -0.23188698588200435 1.1465421860514333 0.5319970025145475 -0.40974347284745805 0.7642805473921972 1.1003792727549595 -0.07157149053786505 -0.17972653793828514 0.08006187004311455 -0.2542332621093668 0.5737175096929895 0.2365895612722032 -0.34287141689328593 -0.3058877008552631 0.015943772398372302 -0.28179081228543 0.4539629682311884 0.14691683895523938 0.2527811449497358 -0.4951825791526737 0.2034058330895857 0.13741778313079456 0.44839663279964725 -0.32120901230142057 -0.2918357502380693 -0.25189425420232303 -0.19796590411852488 0.23270386044853075 0.055331844117042575 0.2169357944270841 -0.1996520236524184 -0.1525936030308965 -0.2476099760790318 -0.09308147785000875 
-0.12014835343652075