4.302654380015856 -3.5165902016136847 2.5542945967820945 -0.15028136590872943 -1.9503962549493465 -1.3070756821084362 3.952828804085006 0.4428148735730457 -1.8128071040797193 -2.0902104712393994 1.4203408627280456 1.702812637982233 0.16800065306169754 0.08719052641575958 0.1967736555586248 -0.7303597091660129 0.8784448585750313 -0.35153242121575534 0.5864234404207026 0.8129493691886549 0.32091725618112754 0.47083017452503806 -0.7617215296751219 0.47127663015049687 0.5259150856790429 -1.7002163292676382 -0.19642394417880532 0.09553555313777828 0.654453118633198 0.7345718917104544 0.02130924945236956 -1.2527189869127153 -0.4649569829889445 0.22356719588840224 -0.37041360765971565 -1.2202781543959988 0.49339237768118976 -0.7091055701450495 -0.27131382894332845 -0.19428180346933877 -0.17555192310484075 0.9164922107417557 0.08469369545702043 -0.6966980035340248 0.33278962014293323 0.2951635035381106 -0.18282711723727885 -0.49511261244473875 0.2095737415359267 0.369821465359891 0.4151950882595419 -0.017172913979024262 -0.7338005629457962 -0.16674351566604292 -0.4631493970215101 -0.07010537667771388 -0.3330920341903103 0.21835948657380777 -0.251552575074101 -0.35740591543306244 -0.09097230661253572 -0.40459228442488104 -0.24062142782401952 -0.31890128727015116 0.21990101947064042 -0.05109744559387275 0.32870868336801523 -0.04985017712943529 -0.10755004167969279 -0.1333093173556157 0.3432676629291548 -0.4717268466122048 0.03863090719700708 -0.2041078813387318 0.17673063506765474 
2.8837409356792407