-6.2381764357613605 1.588383429881195 -0.5651674723813234 1.2364207273777303 1.56777013694029 3.3260318586914663 6.085218770355113 -1.4440308196958211 0.060861092010977114 1.0777649002732597 -2.3809714833346867 4.736691778855514 -0.315805412790674 -2.4812338390355397 1.408306205881141 -1.1797933137515995 1.7321819559096387 -0.30403571422183573 -0.058110024880139166 -1.2166502042935219 3.20587257362684 2.1226159931163058 -1.304746334611973 2.0539702649801694 1.0535456685569424 -2.6541643329312214 0.5539117247119258 -0.6337496055456187 -1.2494049932477052 2.415823614892368 0.6576451675093477 -0.7134480325676666 -0.19023270701064138 -0.7838014184749189 -1.4967666048193247 -0.9674894794691525 0.4179788346008948 -1.5830939265381252 -0.06789554050571855 -0.030778268892436955 -0.6194474756734817 0.28118178557533885 -2.1803644508829985 -1.62157105197287 0.018281941969208237 0.6630289004670628 -1.558237008820796 0.35097977105562334 -0.8702903476028288 -4.937186293085816E-5 2.850749850505197 0.6052394341858327 1.2703933184723897 -0.33900307826889814 -1.0496477436088085 1.589408728379389 -0.16685412273846012 -1.2983999469790641 -1.6363972515477416 -0.7544933660592243 0.37184710378636227 -0.8566976952775484 -0.14746202376324402 0.7339069921533574 0.4409337229003161 -1.1271547315816348 -0.17986596984258096 0.9625424242841464 0.26469084684872546 -0.8782682597025461 0.15475571807879307 -0.666321954206373 -0.5176649040233168 -1.3748505914065356 -0.1563479262499106 
4.712047975981907