-5.396249464124329 2.2213133322330005 -1.9479811264223095 -1.1999514919029641 2.237230766104171 2.4509817571090133 0.8582119866946198 -0.7611475724835453 1.453214206759624 1.4322818529598387 0.7835395301491483 -0.48710226179067817 0.8313521925020126 0.263563445461213 1.1503456969390649 -1.1760923121135733 0.06902519983308941 0.4551335847158836 0.6262015767624372 -0.44556514521843293 0.1389509492656975 -0.19343495719078796 -0.31145693282552483 0.10243726323088023 0.6348396126314154 -0.36695567390664163 1.2802316901951925 -0.27276705983251087 -0.5360235196758484 1.080231581217602 -0.8422771038745142 -0.13478400813246605 0.12197069160587387 -0.27965235187375137 -0.6581113911769291 -0.18987143570988374 0.3487321511265766 0.20340762213501934 0.22846932179803503 0.29108381897375835 0.06296922577397183 -0.1974804029073013 -0.48387771773439914 -0.862126233738301 -0.18455486434892598 -0.23911692753053237 -0.09814691714814816 0.7689775788198241 -0.41154377649635243 -0.07586451984936848 0.13084317416418495 -0.35347483264681634 -0.008363675825277361 -0.4396083564806405 0.12407822630683879 0.3452076289831297 0.23084666295659476 -0.3371526759258779 -0.06008298275189522 -0.1299524284968868 0.002090315813159453 -0.037077079118461614 -0.22799222087864135 -0.23575796185237857 0.3206639587168635 -0.6978067887996873 0.4197391795699644 -0.13179867220898317 -0.06462088954348855 0.08393041827880116 -0.24979396987204444 -0.3248198389148062 0.048957551350613915 -0.35406478220746335 -0.3965514276057178 
0.35961373736053204