-6.110908412521081 2.953128469510716 -2.683705460507481 0.5668288939855183 3.943670334912711 3.495326442134875 0.3611581673364923 0.41507243318740095 -1.4105350348758656 0.16356871380304616 -1.24184069068331 0.18197272451586044 2.8187478817587857 -1.6206950176688215 1.0247714206135086 0.4795219321760632 0.37089441873337137 1.5055860569425208 -3.5490048867711064 -0.07706013898642788 2.5597214473719103 0.9602174289100189 -0.14229463124803432 1.2738824025173594 0.9838160656242676 0.891957811948683 1.3685146977742124 -0.2655589781865829 -0.5520883696553778 1.328250062064951 0.38049005988127466 0.03600343503285072 -0.5215344806227332 0.09268500480531994 -1.2351368265820217 -1.624255111209509 0.857927817814468 -1.2888278424244435 -1.4166128151187918 1.2871663402225921 -0.4736343358618173 -0.3743992302097961 -0.549207101694197 -0.7325156351125892 1.0992854277628084 0.10421145886203087 -1.693913434909671 0.9952207324128568 -1.627825055664513 -0.615661066577549 0.899356982735427 -0.3545134712836798 0.3099669531649769 -1.4138535419987837 -0.27752899624309435 1.0124409240316146 -0.2306390799295714 -0.8674350438600271 -0.41924714411454134 -0.99197739724022 0.5662106072947825 -0.06494195024071148 0.052235142546637414 -0.008102909785599355 -0.08443951414299822 -0.5562594596064285 -0.22294250332600618 0.30827299478935155 -0.453007360748075 0.1294214731509665 0.10087170492451841 0.41880404057619697 0.4048137426136885 -0.3074990192421744 -0.642390699590992 
1.4961512756002109