-4.403460383178223 0.5118272353338149 -1.8928240678745276 -1.6623553627240593 0.8301045013262573 1.1378177065562318 4.1128026651088145 0.520866003737976 -1.1116777993372748 -0.7844597890763751 1.1012528649325197 0.6469241377260784 2.5550744696035688 0.861262635164729 0.24313895303764532 2.7497137715060735 1.094350634245043 -0.014048509198327674 0.09143411705148397 -1.645498470315871 1.1357441811125106 -0.4142454866814903 0.7848018674377683 -0.5401531683869721 0.05150672584001437 -0.4101424944865668 -0.21355879316129467 0.35733042888085725 -0.9451190947339683 0.18312345394605198 0.021275351241135776 0.3362285539124132 -0.31178347676271656 1.3652541540836505 -0.9665089325953607 -0.03287069414192012 -1.1301541992857382 0.09779965292078119 0.2538619919018592 -0.14501086080128767 -0.09488195525978693 -0.06471595620093124 0.0026350709771802983 0.2517966761979412 -0.7557389346632105 -0.011541978576937062 0.23498451643423196 -0.5335955172027593 0.16908608027136474 0.36550166311054966 0.21196700401421542 0.49136556710400203 -0.6442230019543158 0.12422303840346 -0.023287901938741917 -0.2467679166553377 -0.754403076615735 -0.4701205227413328 -0.4036284452501955 -1.152254905150429 -0.017723293371080473 -0.5173524804362557 -0.44696038408941363 -0.7886887727346132 -0.06674331586421327 0.06457248625757978 -0.30624342825535467 -0.43974679458206006 0.5927197623366476 0.037842341023898524 0.10424681272311664 0.07811202952919827 -0.08665318979607649 0.30395895879828166 0.37263529029183173 
3.988933681560851