-3.1884521342672505 0.9420077790324424 0.09097746218603397 3.4082250759444204 -2.7662347814197537 -0.6825070278747083 1.3381307546755248 0.8930163494419715 -2.455605468602844 -1.3665187245521804 0.7993246327101664 2.533341887691181 0.32163025767661213 -0.402494209545885 -0.45704438776531287 0.4830479610880869 0.8654151694049312 1.405811765213435 0.1541049277669464 -0.7919794147742469 0.4219298531843285 0.7646246237911483 -1.3178976353240754 -0.326857323219517 -0.7268629197422248 0.24593722336613624 -0.11760381634182765 0.21284684819282998 0.36853003764591064 0.3046870155057918 0.11351036604544917 0.04612471180308425 0.3526068660209629 0.41333982564309 -0.6059547393254003 0.416396649696543 -0.19880636828769832 0.6882496441732184 -0.35442051181707507 0.2744753573915669 0.04243966403948736 -0.3829508521117315 -0.48867732014899445 -0.06528501398900183 0.17917288744483306 -0.07859613299173951 0.11395181186896847 0.5305456077757096 -0.044091285998852925 -0.022381471248925033 0.04061576303415171 -0.3068973018311685 -0.10133266729019724 -0.373525202004928 0.2310286367006522 -0.014607453870937426 0.28903278827880685 0.042328632087288855 -0.12590831750372228 -0.12540333286961808 0.046390345272420086 -0.6137121314380268 0.10811182365987909 -0.2081432346215663 -0.03286033198153476 0.03567690414875224 -0.2323992219562646 -0.023425775562620016 -0.059903886422744995 -0.09344066280391611 -0.04423908317249922 -0.03968930956524108 -0.3329240734067141 0.038283400875381124 0.013762215172792636 
4.573815910885118