-2.6368156830805276 2.9035033803870185 -0.8435265659456963 -1.4810782215967104 -4.569444174598508 0.9893890384845001 -4.067296982402443 -2.6558830564729936 -3.2577583857312655 2.1950362541372788 1.8662847428787797 -2.04743251253394 -3.180037934561807 2.647661740044134 1.0319291782989737 2.1212709604252495 0.2011632183182983 2.7355702572651777 1.235245798236409 0.2902664635841951 0.8431785639925611 0.7955556292341031 -0.24931487356423032 -0.3294479614233886 -1.5841935450042608 1.5234805570857786 -1.6731752195852483 -0.24460083148987155 -0.3217706422598608 0.5864925438149818 -0.36419716196602764 0.6052269657826546 -0.3748811613033418 -0.3139449744154208 -0.013245603203554966 0.6768082604005223 0.3454903923830872 -1.1117956525932358 2.0502953603050305 0.6338158060338355 -0.44856940605727114 0.8718949766631199 0.18115293607014982 -0.6075350393130331 0.13973475145428882 0.28918716652834897 -0.035753813242679955 0.20702216961412023 0.4281696325290391 1.2192005690777186 -0.03345607335925638 0.37920335292216023 -0.10862211357425788 0.01019727447556995 0.09092001221663698 0.36229942650082414 0.5799956712703749 0.17011228193387362 0.3788280310200924 -0.30799516952738015 1.0090124116524675 -0.120666944083904 -0.4578794563905755 -0.1383805671966909 -0.17928348463118066 -0.06743580876663258 -0.2722308731821201 0.6473146542289587 -0.3955179357194154 0.3726118590367494 0.22098555321207736 -0.06735426079629192 0.6799488948291834 -0.4184348496927376 0.4635002029374159 
0.19966396836257738