-7.468011519260926 2.562644217266808 -0.6043381343622962 -3.004716577686042 2.0617584955511203 -0.7732499454680322 0.7218936459089909 -2.405739204260759 2.762946516047645 -0.3140536189709746 0.055621153897938314 -0.7467203681202488 -0.7141491185884224 1.3215951749785155 -0.5860014519731422 0.5901150264145831 1.2430219319270472 0.1037039407166529 -0.2263362567180927 1.1956697511341965 -0.40501508135851694 0.13855203179405207 -0.7544353661270655 1.7015191729509738 -0.41979694901566256 -0.0829850702275996 -1.0734424800763145 0.0017298307380427258 0.691896661415994 0.04033457108735569 0.4311103208768836 -0.7412656678242848 -0.19854794245310625 -0.337427471087658 0.10061175523713883 0.0012073087805035687 0.19972688154540252 0.38423526149977116 -0.14355761142845724 -0.7802574074243771 0.06030656244966898 0.13110306245300873 0.4867360804176044 0.6542214365026202 0.7784278900394591 0.29541723728457936 -0.3296400350949126 0.31499290345741626 0.6572062932409759 -0.08095565984454967 0.0030337179881304577 0.5275221834825137 0.20367438417534933 -0.13699368847560064 0.30859879489479625 0.30714764653140836 -0.22364918679874674 0.3731907790037077 -0.07998179457943673 -0.3481171783994566 0.718930892736195 0.2090238928311881 0.019374895878486176 -0.3076539499617466 0.2882153942756422 -0.0799361714603303 -0.29938849501609366 0.14512659344738243 0.6633313390420426 -0.1939011540065884 0.2005306054394872 0.10798028009038108 0.12768809408199672 0.22182925482316507 -0.2532393082673984 
1.1634047206254434