-0.959221830013794 5.5656846383293725 -2.6700995550311823 -0.08350159181595895 0.2317688815810124 0.0750853526175912 -2.833180352860281 0.17565866501442537 1.3492678153313213 -3.0104555554752284 0.04136325943486849 -2.14998752601462 1.2909931742637104 0.49262830314355155 -0.710194995106995 1.098991515246317 -1.0751759464189174 -0.7836410669081375 0.04788117152048932 -1.956447403284774 -1.2649838391899415 0.5098339909827236 -0.05045469928191659 0.3823698045174633 -1.3193292035428652 -0.2883310889164777 0.7191157005730696 0.07189719520360977 -0.041810317436432626 -0.2643305677420102 -0.11159823683227725 0.8106625678132144 0.3492929062828537 -0.3454182703222659 0.4230058008499134 -0.8375983565718026 1.158812371003679 -0.13815841834522932 1.240455126659661 -0.3535181506255054 0.5911739718094003 -0.44275462533777105 -0.04912260993826101 0.5698643091089364 -0.24418326609039553 -0.013510066575045832 1.2910643158483288 -0.013795885712525768 -1.0331601021263013 0.05263574867700299 -0.17141239722562152 0.2418642045203241 -0.2794010840388384 0.29403018177119133 -0.34938441573451784 0.030176529668275026 -0.6121648619035212 0.08350144145237265 0.2382592403924925 0.002519024630000727 0.3212852254289776 1.1245823591251936 0.2913663084324159 1.2191216368473032 0.6178975204737522 0.4429503957997588 0.4905264532693274 -0.04047199438659374 -0.22202250879759777 -0.03311653413194305 0.4735969758506601 0.0845294993081451 0.6140999768328161 0.07327860954696863 -0.4311548454269283 
-5.621822711376449