3.012534389110858 -4.446558820845869 -4.493432317911475 -2.1431861700767487 0.5345757525913752 0.20185933514752774 -0.3036289826242733 0.06103713701996 -1.0922809399258542 3.1607245357701856 1.8115137301413062 1.6825415041541971 0.2943481904806089 -0.33183710430594526 0.3221357403934322 0.34113905993688454 1.4912481045491368 0.24792746383718622 0.3287116177387299 1.7408126069110503 0.05278094220771701 -0.6640812828668639 -0.2826086389309108 -0.8554327753825015 1.2743354887160305 1.078787701509891 0.18347166244433966 -0.4027553271551776 0.12391741884652666 0.8658839025331001 -0.33663485014101135 -0.6051720825092688 0.17612531391174513 -0.39094365828549527 -0.7969025245303181 0.5136608042911532 -0.6022213214920924 -0.6491002745246749 -1.351778267944563 0.5561438446210047 -1.006746154449927 0.17452818002503873 1.5668465015688953 -0.6854528661412997 0.2410755042849958 0.6200568972626515 -0.4801891045750305 0.31831214759798043 0.8871538698117668 -0.3075536442558181 0.23818539518688486 0.7493057523767315 0.8533933966207399 0.11363462229136118 0.09036564558235716 -0.30053528764586845 0.6095124678508548 0.5666372604405108 -0.21166808231193196 0.1631473733472471 -0.101140423015121 -0.9020878762639826 -0.7398671278325967 -0.3519556613696144 -0.7870931530048646 -0.6432411525182447 -0.3863460019543907 0.046272401181256084 0.6103134747030424 -0.25906661030897365 -0.5412340880908487 -0.4697366348368158 -0.35044084384007 0.24259185273131822 0.12536106214081855 
1.0632783795317797