0.8542302179268297 -3.214273206232944 0.12606774939850862 -0.38519402866032404 -4.740994503594243 -9.430918306651614 2.9089793630444643 2.257930099818954 -4.802772028697059 -1.694599404564695 -0.2325597884823828 4.767889374626236 -1.9855782017029806 -4.3043027488940755 0.8059346189253915 0.44158232008742704 3.0045004897767678 0.5432716490884195 1.060133410709291 -1.6582340320553397 3.0880031587990993 1.7964775742420351 -2.894379933930443 0.9242865004513017 -0.36496559632986925 0.49063958505890887 1.2349519793378299 2.744597372419144 -0.20514141977253628 1.9644228887059163 1.5957267086796632 2.72131252324945 2.690619895372774 -0.9342098023563146 -2.8486097354990343 1.4070140571720544 -0.8753909141354823 1.3128418011131762 2.58484601762054 1.3634713228582496 -0.6681124252737778 -0.058299907048499834 -0.5521678702681272 1.2045980618379009 1.059762035921484 -0.10107666850935759 -0.08898921947991628 0.41877566467355104 -0.4982897110605061 1.842991565809067 -1.7359797448512653 -2.6480700570038613 0.25411662771763943 -1.0574867059607558 0.4957792229867316 1.0814386766521793 0.1900503068366699 -0.4077272867152719 -0.007697326146506943 -1.6644342439751478 -1.196501733398308 0.5929567478870665 0.08580725053200244 -0.06500970704100836 1.2360717961140184 0.5555863239094855 -0.02418481464800329 0.08073815610005453 -0.6087983890532562 -0.9316004976803178 -0.14374379843721752 0.5526484600448929 1.300860803351705 0.34692136055326483 -0.9585399812998441 
7.365957795679605