1.251838959665808 -3.521636892405341 -1.579493841943646 5.016243327900762 -0.9355945039905873 -3.011513802678977 -0.7203564171173106 0.9635988260796737 -1.00988434038285 -1.3085775437230924 -0.12240120863849509 0.8748407362990913 -0.7018295807466012 -1.0191220512286165 0.005003649446266134 -1.1887929998617133 -0.8904341801073818 0.5682275023855171 1.4059552039033578 0.8522002846622505 1.7588121185098 -0.06762472503990391 -0.19035656256050482 0.045575001783593985 0.8623347705948885 0.4020793465297514 0.7367948865946584 -0.25523978289226895 0.48412944702217997 -0.10761886900040471 0.13956791884524883 -0.7152066501718961 0.06039046048668939 -6.594452325352496E-4 -0.1974320745357061 0.13576647683234305 0.2689233107330913 -0.22264794009417865 -0.04230586741354744 0.27055197961268745 0.7338826616484669 0.570871984552589 -0.2037562239954969 -0.13576511008002887 0.062229574443663296 0.41126424398402295 0.2423667392138868 -0.7364174104660522 0.7275127793474425 -0.65952455173436 0.20905837683454662 -0.4370517088421506 0.19032586428848086 -0.6323013367975506 0.1478262834979705 0.1636634793545622 0.16897766138813303 0.15367576485053924 0.12142320896837641 -0.16297904871526955 -0.04427856389365133 -0.001303283283904947 0.7322324308264232 0.3565962091588946 -0.2329373895482041 -0.35163688406646504 -0.19828112628339437 0.052261082557703 0.06805497425835226 0.13288239896552395 0.27298857375751134 0.07139928122896871 0.15932461734864026 -0.30306860673696046 0.05637812584669899 
3.0606124199118345