2.8114178239055523 -3.9469805991966407 0.07098624425646882 -1.5798425902707103 0.9594821864310239 -2.0277051279817817 2.697212513590486 0.10396825903283058 -1.4690644429814848 -2.61071949192026 1.165828753473785 1.4605525758929956 -0.2733724068136685 0.36849207312854537 0.8613174346509098 0.35404023543973767 1.0755617086786264 -0.15494317273666114 0.525309763656273 0.4469594742845863 0.3648854789979441 0.28238265928710304 -0.7300255034999104 -0.36653772496060166 0.6832921089967096 0.004821061885310084 -0.019642538171009638 -0.5409981090217855 0.5612587015991916 0.16807131422881977 -0.6259583353563378 -0.481456161958592 -0.1828906038357619 0.7388542403334502 -0.03908450472462577 -0.2656430762549158 0.5574618473486209 0.25679709824714453 -0.19638689667186393 0.3157363455367479 -0.6259082085054375 0.47819847393044745 -0.3441389793612037 -0.10416084198373254 0.49056478409781856 -0.2880169225753215 -0.1338669821307294 -0.15987072774723743 0.028618390464129798 -0.24369423255622696 0.2683493911433688 0.11692202938629576 -0.6036841757082435 -0.44306983092803504 0.007623707500461652 0.17847800958484122 -0.023491650748347692 0.17405450163411196 0.03265937266306823 0.0674459963366737 -0.22448234664527755 0.1131678468479565 0.02509827086860683 -0.35554956990219166 0.23744909062260774 -0.2393043089329413 0.02793878184076845 0.2811652815300025 -0.02841539912925567 -0.15196573713673822 0.3622660835159881 -0.08177894271446057 -0.2439333985300649 0.17721544498011987 -0.09532181823810065 
2.6958336382579575