-2.325334052835773 -0.41673899242104007 0.10942528319645284 -2.8383160662476565 -1.7125028004077696 -2.179865861886451 2.030209935986099 -1.1869453469844706 -5.126205204426309 1.775123976484988 2.6151589219578195 1.622002300963563 0.8355558358318533 -0.8164336017016214 -0.3945331624532879 1.0446121279648994 0.9461386609745646 0.9591753280548247 0.20991550758377786 1.4040238651544064 0.8107506743616528 -0.5286488516245047 0.09568024334970332 -0.7966589392821669 -0.471117642868666 -0.49419738531943946 2.4428519674443248 0.513091450516653 -0.4669080917055853 -0.48435418326043295 0.03555214050321062 -0.8067987771203996 -0.364281742673897 0.37978099769261486 1.4220455308337345 0.2757446881126696 -0.8324889999217661 0.8393313390622958 0.17794369030241033 0.6805344066533014 0.38439209656978895 -0.2160773629920804 0.4045013235435145 0.02912073039094104 0.10463059622653964 0.6125497775813541 -0.6823209428741217 0.18728010936062617 0.24039340505492413 0.220388139193379 -0.44839525003628655 0.35550406714737953 0.4889749185662105 -0.5665010065960081 -0.3313650591653981 0.7886618796913716 -0.3083543478082623 -0.008470415542432885 0.5333557353067597 -0.21935502352388103 0.3787874410228763 -0.8112713943845171 0.7253596964982412 0.13230090612648077 0.6119777204476058 -0.01604035313846519 0.08243517022394292 -0.8014118637793857 0.1235668404301522 -0.32098729207954096 0.1844077401054488 -0.041170311009860405 -0.6048753844402127 -0.06936532413732954 -0.12494613182434017 
4.877999525130167