-0.9946247328015927 -2.124628996645418 0.7070738701506818 0.793042506783814 -1.2741295333796483 -1.2755237347547514 3.824461650333628 0.09859075164888065 -2.7502822275477365 -1.2391190040403435 0.4365706500657274 1.0374839575664032 1.4495054288897296 0.19390985682914752 0.856414996604178 1.465222421822126 0.8093480976948773 0.29839618932247525 0.17020155632084394 -0.9929465191334315 1.704131867463477 -0.2000847031713202 -0.18112113923734385 -0.9416793683948865 0.45456777071944343 -0.18330961213157745 -0.117033382909908 -0.07907547631747885 -0.5568338935648415 0.668717230298588 0.30889027851379264 0.03565595918819561 -0.2185249766343592 0.7059461737607189 -0.7030677865123256 0.29924712944773946 -0.5802298708842395 0.5653999880079577 0.1070550748371084 0.8681199547240851 -0.08268147480401929 -0.28791706631449765 -0.28319057791413615 0.20124888416799408 -0.5175318074228695 0.43884565829983624 -0.2592778298994287 -0.3490113268871434 -0.05792219150639734 0.18724374460448795 0.5254739996049665 -0.03997258107692053 -0.421958291797883 -0.27329805353809383 0.015014576841951288 -0.2436871083831038 -0.3785037024197263 -0.47066096407785046 -0.24409888756134826 -0.6894052001184566 0.132690892564312 -0.40641796159302196 0.18885980185910295 -0.32686464536517806 -0.08377973367801472 -0.1342914154102054 -0.3300103184956937 -0.22058438601554808 0.34501998450124505 -0.19679241149879487 0.1472745073965548 0.2132782368374601 -0.27464323724785844 0.28970214480138434 0.4421103386144921 
5.791312254659219