-6.719902208368502 3.410958757997946 0.9656807797931695 0.12418189823125747 -3.6030704251268393 -2.0180241780362165 -0.9555367877977812 -0.4587182541068904 -5.392702952759047 3.6459520583276244 2.1602664536624503 1.2197001741026323 -0.6607881733757923 -0.9034520572882732 1.8004368524970489 4.03409336536291 -1.6841867872722212 0.4550086155709516 1.8946991561410957 1.226736610938351 -0.14589899617241464 2.1355692079789366 -1.800093270572027 -1.7199778284950984 0.7480133227866984 1.4487700630945284 0.008492527149238774 -0.6663825840523288 -0.6615156994290956 -0.6292782325589152 -0.95354499775858 0.8506785167158664 -0.9205122754759025 -1.213426623514187 0.03412736942308556 1.0565555105243507 0.6122916220727022 -1.4961068146435912 1.401041781903705 0.9265814684985223 -0.22357776603029453 -0.05401021367254197 0.2859866006509644 -0.8345149386970041 0.1205217576952089 0.5427270112168663 -0.9792340213333666 -0.25585691992901216 0.8336990005131407 1.5441810417360946 -1.293224148308696 1.5617366035758793 -0.04171793361203746 -0.08193422869104411 -0.23274504687321473 1.0273603413430499 -0.050087682286560575 0.4721454589953302 1.1254658799404764 -0.9777993163223397 0.9106499316812808 -1.0893516047011853 1.0421383601038998 -0.888323720128867 0.6745743249390976 0.0935526397894183 -0.473494885723528 0.31288367931749106 -0.043496233344849644 -0.056278320282179196 -0.26711046669259986 -0.3377795255999517 0.18817277907859287 -0.48276086092804205 0.37078545661118834 
4.873455014717711