-3.591277785245642 -4.108880112669554 -4.627582173419575 -1.1584591877280643 3.1531611488186186 0.10480054055744159 0.2052734109137042 0.3396598487966595 0.34865850456608993 0.5159415319693575 -0.16134279253593492 0.8366632456961287 2.1381749238989594 -0.32797061755631374 1.5647894489150294 -2.0574331680458937 1.4055046047874793 -0.33795885509035334 -0.4895684163813214 -2.0261238051496786 3.4866822987373434 -0.23484237137740427 -0.7759039295109258 1.3877983102003433 -0.027476508104279 0.10956468675340461 0.8989700879539142 -0.29622508045310564 0.6730653878783296 1.1579958073772791 0.5325265645524648 -0.8039539668992269 0.3322576009758903 1.2181462052131748 -0.10728500365939801 0.6827456656638267 0.03384935471025484 1.2090831090891008 -1.890643128719861 0.47194561222473846 -0.5447217119177571 0.3280959061439182 -0.7753045767802469 0.1528731167490395 0.33218594422710623 0.8747534778678969 -1.0285883242685538 0.6915882437204064 -0.29431467831869135 -0.47629747400248157 0.8327405416907849 -0.06257853187891972 0.7388105060410022 -0.07928499822495218 0.0775284362178772 0.9465748950165364 -0.6127350284392206 -0.7431409522254429 -2.226465316777979 -0.2324890009987108 -0.4426129550765306 -0.14024218075142666 0.4744562860450777 1.273663794352476 0.20800030504096736 0.399165282107369 -0.14887999943730024 0.32757933760321195 -0.04824842620088665 -0.1481785227376565 0.5075569069570796 0.107323909390166 -0.5774558938751798 0.7423186029119588 -0.218007917873957 
4.726103413993824