-3.391820798750043 -1.3120034375855312 0.2827930368785192 -0.5490890777973851 -1.3969030077032007 -1.6973934906242902 2.8472364121716867 -0.7149390596697148 -1.757882054348407 -1.5325204286853111 0.2869308098604245 1.0275671686664298 1.656094165338752 0.363123453073595 0.445304488469063 1.3098067896375778 0.8658333173992387 -0.1357171685255033 0.3060312493636168 -0.3412879021249082 1.4221336409069871 0.004539614850156415 -0.4549818913967238 -0.5410846670866925 0.386179594138499 -0.3616033233919851 -0.37697731985099875 0.22654358531089042 -0.2887530731411284 0.2949629025039384 0.21925787861368934 0.08346174080060811 -0.25445537928032413 0.9178680335338847 -0.5878898865974925 0.6634585298952761 -0.29396497597778937 0.4104198374247517 0.49031529005973995 0.7392790565139877 0.20410747132835239 -0.0612652565354872 -0.17878127784859876 0.4010804456530412 -0.07911328681543905 0.25223908566826225 -0.16295055973113767 -0.26425872276989776 -0.03197848584368655 0.18673235394267612 0.6386967895782835 0.4890234706627179 -0.2875506704653027 -0.21052343673894175 0.17281731507303744 -0.06568652877726361 -0.2665341984623649 -0.19845844329200255 -0.29049325348714444 -0.7106071034864987 0.35677041783626595 -0.24857297055882116 0.16393981440582372 -0.26922486543490187 -0.03404318557110262 0.02246166927904547 -0.24195631925024136 -0.23382069777413106 0.5296764597729622 -0.3179501896555643 0.3428347113893001 0.411689852879444 -0.17073309083211616 0.3370780059423641 0.555481027045196 
5.914181932326721