-2.074600562595265 5.147194203777531 -1.4229394663361061 -0.7308918697844489 -3.5631777038237 -1.1311409323517907 -1.3447788590864724 0.27410383061795585 2.2552476293993786 2.5956572436589935 -2.49922553537743 -1.5930090671838733 0.21076533766355232 -0.6653482496696972 -0.6130965006763903 -1.531465680760734 -1.0869031332775196 1.472129221207584 -0.2704246926055094 -1.125326481960524 -1.2882369289100721 -0.4129215529473117 0.568229880455317 0.11527716246745116 0.45015729241165636 -0.3978478660185706 0.5434596240136725 0.9657681637529794 0.13158522887131535 -0.04193861696534962 0.5664606120831653 -0.5663981183298086 -1.243281818386846 -0.03693194417738832 0.829247282774563 -0.3915015247939147 -0.0604821518826949 -0.6737162208349856 0.24384427497266473 -0.12553853482023192 1.1136990489060865 -0.1922002298833166 1.4010791209372013 -0.4581140624180741 -0.45020261824713315 0.7732405092515079 0.4897723666566408 0.8002136581606536 0.10460135171943005 0.3332747326616843 -0.5911072499613612 0.21433032499234764 0.6264083325576864 0.14139321244518574 -0.12753132002313117 -0.062360066730845654 0.6425072537802916 0.07409801926672943 -0.007862606292059648 0.17085531053857053 0.18780027582974043 0.21704927193840629 -0.6192919393384786 0.6574352231511347 0.47394034085453796 0.8058408468222577 0.2125896426190122 0.03323387397844804 -0.18410535205085776 -0.07935068241106728 0.5277279297585635 0.04612426113659679 0.7116528618659658 0.2222071483881352 0.3130482345683662 
-3.313821345569098