0.9916435094253053 -4.156160826021182 -2.719759739896863 0.21288002026077213 -0.4017427553974322 2.707325387428151 4.287468576499555 -1.5211831625741068 0.05903239462531751 1.7605480952771695 -0.8937041641215403 2.0474142897080507 -0.0904077365039857 -0.22790355716812194 0.41080607039510175 -0.5803376301847543 0.6424364029029692 0.2432117875197637 -0.18738062328682648 1.8492852853910402 1.3866855292256606 0.278655320036158 -0.6367947239412203 -1.295522542126502 0.36363727316954075 0.7067161413614305 0.017905295300140345 -1.2587690587109508 -0.5364131872563254 0.5979474852944956 -0.6038904198441531 -1.5603979084736015 0.06918864934837998 0.6442832366923728 -0.15903438519525834 1.257517297256006 -0.9434062137802932 0.029838443981335006 -0.8870530341927796 0.5275715902393754 -0.6781623442113762 1.0669087158776207 0.6978184241237819 0.15868017218850844 0.10051886207792615 0.26271399370005266 -0.6902043291324063 0.14435331350030495 0.6771394243105149 -0.20346947877193344 -0.7389878887757201 0.39694799981277656 0.39827118085910945 -0.2419025139196872 -0.28391605826100696 -0.1933358248716982 0.7437194272738804 0.3517990878367573 -0.1433415535823651 0.4323591386569868 -0.42771888681294856 -0.5882910236996579 -0.7922599338674683 -0.40947138929627513 -0.5991415582134867 -0.25532746839085024 -0.5504326040527697 0.10922845056930575 0.07554629034424598 -0.32281112978983484 -0.9077421109058672 0.23192602840622487 -0.06896118688329658 -0.28781351011958245 0.10322387135804889 
3.4721928729566174