2.852342729053623 0.23672380371218793 -6.240078550840641 -2.9500107572997702 2.878645836624514 0.2785930302431421 -2.816052048565404 -0.132909251845176 0.7569432005159329 1.1151353093281708 1.097030950360437 -0.22737104532541808 1.311879834123769 0.27230371070432857 -0.21861085465610242 0.7110915460635083 0.29040970223778917 -0.8874164177984103 0.046721301369265666 1.5391325111254641 -1.3060180254836455 -0.030018673938778107 -0.13110545895340592 -0.3983733961247493 0.23451143684427078 0.2423051672854752 -0.20155674046821184 -0.4511749272444675 0.7169172553450405 0.6262720912436165 0.15574025460753863 0.20695826603769496 -0.8686335341873391 -0.5484878759417923 0.1618524980141227 -0.6958168937078595 0.28245514590065546 -0.8590361857155726 -0.21168017560701688 -0.7734929409454812 0.2588674189847511 -0.07583259501386808 1.346788205055585 -0.7687146115947827 -0.047231041874763346 -0.042103725796753366 0.3501861691110819 0.29920150490714165 0.009149665573498472 -0.20746831673150656 0.40148057462997305 0.42515209598994197 0.2936932503607656 0.17754746011981834 0.13147295987486862 -0.17335222293525054 -0.03625063402044204 0.3555622898870736 0.37775398033454555 0.20875166833677272 0.5725509713365489 0.17231518754428696 0.2683261201449024 0.5170676637542946 -0.09368498183986382 -0.2097534580412565 0.05564039533102155 0.17433244176434848 -0.1180928705192752 -0.341995308000183 0.36782520148291425 -0.2754704629895873 0.0880893414963464 -0.09944032007209341 -0.4284858426821688 
-5.209434427412333