1.1164479119604849 -2.920264687961808 -2.146990781956208 3.150081410030471 -1.8514215249160992 1.1140130343619061 4.48782121711119 1.3363367153904842 -1.132995534926204 -1.0401491689268179 0.46291451369639147 -1.4148670719631005 -0.2550141641721688 -0.0018083392027208323 1.0034124284690331 -0.9336694076163449 0.7017525721838882 0.3653242883627883 0.3755146731529484 0.8442938710976813 0.7743417859428243 1.4164017328933 -0.7510742993240989 -1.4820680218817297 0.247964573797669 -0.6920817379229361 -0.5176416209337863 -0.6058032085055569 0.19441709455942036 0.3202216811827475 0.27898886375135823 -0.6197545913004836 -0.4609719580552394 0.40579399821591866 0.4327656793826044 0.7551900377296661 0.3701143477175312 0.638837158211093 -0.2041115599403045 1.1640901375437696 0.6449314326671689 -0.018055120445704453 -0.6200969243733792 -0.4956978001110517 -0.021475082134742807 0.12337394857899553 -1.016021139799675 -0.4095835783537859 0.36032500954042324 -0.21918210135303495 -0.16349936160453393 -0.07049461919549505 0.08421097387114829 0.282835929179749 -0.6627189932259925 0.08167995724369193 -0.060923793107523716 0.6003610120187831 0.14836738060499918 -0.23819179113019806 -0.1857101903772871 -0.04024482835127208 -0.5120674175222747 -0.014185805904393556 -0.12320310444053822 -0.09542555008994658 -0.2894466759411356 -0.30213007476186327 -0.2723686662319533 -0.7916363308648682 -0.484753026069366 0.5474575620231148 0.16817393916894752 -0.48634355051873823 -0.37461366622781844 
3.957033127640999