-3.1554477516781834 4.67375268396621 3.15347426934677 0.7958304085426351 -0.24152948473586378 2.3587164198010053 2.4910617718865034 0.7660872783674566 3.197341833875811 -0.32496256693820236 0.18984781168719894 -0.20352273810201993 0.24161114592423671 -0.5448198052213038 0.20655698273394596 -1.1836652491138633 -1.3296873394976916 -1.5394014563027847 1.5050971574545775 0.2255776214476123 -1.5079781844135742 -0.2910430575869767 -0.11604409378910108 -0.581936910241621 1.1715518447005342 -0.6021085242355138 1.9665367611447604 0.33771770446466276 -0.18761227640874056 0.9567612524410365 -1.5676418529096376 -0.6223874500106636 -0.4877484570045927 -0.16877554464929423 -0.7375191098605184 -0.1655414603467057 0.5957954112031361 -0.17746297865347205 -0.27159490171720635 -0.5108702069517344 0.547511653048709 -0.19307440494311268 -0.19524101374999403 -0.2463971051157432 -0.8330668990630058 -1.069434315151116 0.17538705613366412 -0.007972157847643657 0.23083084052227132 -0.02689205740942202 -0.5653149492865576 -0.12110913299837422 -0.4758021261970102 -0.3950430255834399 0.0909376418033212 -0.3361176543429044 -0.6470865444656082 -0.7336045737335197 -0.18702581660061765 0.26192953509377565 -0.12123214627626848 0.18002391408617763 0.19273125960215132 -0.538234984707552 -0.03502026409359495 -0.26226927079268175 0.5219329223831289 -0.5485876865877204 -0.20981693492466758 -0.3366510272622747 -0.4869983197008346 -0.7071720140948985 -0.057357816575600816 0.0024917154266277386 -1.1812712552144726 
-1.8611831360676618