1.7362594854077642 -4.983123420359954 1.8889693703202097 1.257644259093135 -1.345012261948109 -0.3716864979130543 1.697313206122593 -0.22883621573062257 -2.549690912293155 0.8362649849853095 -0.6650446966211278 1.7986023712864583 0.8054993246427384 -0.7055159380047735 0.687509047415068 -0.3611633300809034 0.5220381546144313 0.15001450112830716 0.5874598653855192 0.7483064123014387 0.8808425262316999 -0.5448411490770694 -0.2748362541246674 -0.40887287523802834 0.5084110797184787 0.4848328844220406 0.10541133532992569 0.21473917469270687 -0.6765402677997849 0.3947250406016587 -0.6100461238090538 -0.19216889983590382 0.4604501047238464 0.7691566950325143 -0.0634160506174402 0.65197776083857 -0.4550076262520299 -0.5946037920538401 -0.49751844298047887 1.401712869044874 -0.5755766755686367 0.5274118154850236 0.18890265777923648 -0.3494430264023354 0.049171955322039995 0.30034543466699803 -0.6602167279360727 -0.04239959505712099 0.3583140845940447 -0.23773305458488725 0.19799856580714836 0.029197738076167212 0.21004282116001127 -0.14331408623248404 0.24511630230300052 -0.06496970125196921 0.8442220574109687 -0.15063271775076592 -0.25953046467598523 0.3979220031855339 -0.648984015303049 -1.1475354583678052 -0.2613753453782206 -0.7042782966139706 -0.5231865036537695 -0.26942147368019487 -0.29564136698424237 0.17873364407775627 0.12857414693386193 -0.009062937484006488 -0.3338274424736998 -0.3140321457561649 -0.23687822305253664 -0.23787518364493865 0.7497455164517783 
4.988177618654329