-0.11489620246410226 -4.187901842401978 0.1330638300700242 0.6757713736213611 0.4768045663766971 -3.0741928974998 -6.09313635601285 -1.9555056184563213 -3.0651914898565087 0.9987935462500377 1.9750891166689128 -3.068081136552074 -0.5642307977053218 3.608229627931173 2.270646525821565 1.1020000961360776 0.9519142887094947 3.7050623723701817 -0.9754460281876141 -0.5238155135656728 0.416676260013221 -1.6092982038614547 0.20894058730086384 1.2069755347461653 -1.364006079636733 -0.07885711323342731 -0.5584824376499034 1.4479180218143597 0.03223484052902831 -0.15333073945930947 0.6261902054349868 1.752621986522695 1.2932574693753178 -0.9183393320871631 -1.212635830172347 -0.522394527279172 0.11164805732454519 0.6606021489336186 1.0824760052901738 0.40086210500272124 0.34426775882678257 -0.5229813372067837 0.21582597465815945 -0.046927801854626194 0.10788629073296774 1.1780262990473647 -0.6316939238346102 0.40836576882851366 0.31365723391148914 -0.8930601227088393 1.1269157730195227 -0.10825697096075021 0.36778063731442906 0.15619831956191627 -0.6013135456969854 0.42781548174469464 0.9217805655449758 0.4940608606134993 0.22644310441495635 -0.3464183657765855 0.6896067554879679 -0.20624745806321215 -0.1002048589594029 0.2333761445117673 -0.46662971785333235 -0.46503405637273787 -0.28351182160894123 0.36904388384822945 0.39784005789317545 0.6254029298394154 0.44292230214462336 -0.736700213909453 0.11510008886332204 0.19592491769779996 0.9527026261392096 
2.5012279683635144