-3.230133685374465 -2.4464466835591985 -1.2483679524022093 0.6895500068526564 -1.8205372119461631 -1.7270237946738625 0.9584543450569152 -0.19475039453208742 -2.586400141820917 0.8631357773484245 0.4234146411153885 0.9249520644926841 0.9217140131428676 0.8391358108658242 1.4806654895083595 0.8907914989594656 0.6023016996294998 0.08949054874656093 -0.2653472466913217 -0.2622549641150245 1.004748604630763 1.6639661556413443 -0.607480353757281 -0.8803584131815846 0.5621653997178814 -0.8994822859929177 1.0916070689263333 0.4015865856565527 0.6450766616659821 0.19246876064086166 0.6715688319991913 -0.7674637344831179 0.26310336406653034 0.2200750101468244 0.4010745243531443 0.15647368537938422 -0.6122913399174262 -0.2431692149572599 0.027419185204851607 0.7152541103012992 -0.06196760141158225 -0.06906301975462956 -0.5425205776592901 0.5772475342276513 -0.0078042196135063024 0.3281468614754355 -0.24704697674188908 0.04261921543053673 0.1631218754507626 0.08925357936745462 -0.2654810704934337 0.375022784683216 0.1975384207760224 0.11577503954303286 0.12035411600198825 0.35641653684478397 0.32413011079241094 0.15286026052694135 -0.0943141625654284 -0.18377072110952442 0.1405605158410559 -0.2161199712280834 0.5237511483002089 -0.2872472331505233 0.2914219891031571 -0.25737872974091597 -0.4037504756962204 -0.3871885041580491 0.24589884201945744 -0.1023312698970528 -0.1461158911416896 0.03977249537140873 -0.36359290342932576 0.38338460864522317 0.25973096674564344 
6.143726823657609