0.07547054018701438 3.2237184731101713 4.9411559857611 -0.47818213397015574 0.7426970570002673 2.5982687102916424 -1.0471709367021296 -2.4164221058826114 2.190914404867855 0.6546459573776016 3.019122173333079 0.499091864479845 -2.4040601244423305 1.4841280010086453 -1.8667891203873408 0.689566128130275 -1.448367764955505 -0.9419776682637867 -1.750549891088514 -1.4017907854099654 -1.4076910971711665 -0.9265735444111036 -0.7261248975187296 0.8639185312497367 1.5075205663475195 -0.7608132008573495 -1.12105282091726 0.457274286411041 1.975869405142002 0.0497473817978141 -0.006452912960284676 1.119595702696829 -1.2072587837488904 0.9702664138764523 1.5369399796493806 0.3714047161230933 -0.04712658784587653 -0.7583811492257037 -0.24289839742540642 -0.46375023627308654 0.4729453339102936 0.5754096257264634 1.055639002221882 -0.25831040469555266 -1.243375502596875 -1.024900699101142 0.1517518780243131 -0.5355299660034305 -0.7630896019733503 -0.7441766029192631 -0.27319945962354075 -0.5371215463941675 0.9743196261312371 -0.9205036141412727 -0.7415795025395924 -0.0815368476355064 -0.04608292063100922 -1.3900295209534954 -0.051429501568498126 -0.7807526464075605 -0.5991901202786971 -0.30807721741989835 -0.1282123848447284 0.6315282021516351 0.5863928521749434 -0.237015920378634 0.22434225786691397 0.18219690671119698 -0.09069048170984628 0.22092335571445043 -0.876919996413208 -0.19403129913966533 0.09799926260204887 -0.4607697957638163 -0.4348048694867904 
-3.8745404275780597