-0.10709936664570385 -2.983737730705096 2.1843687725056253 -1.120254405309661 0.8139992725740308 -3.8975483768886066 -6.998446318221488 1.8509536088918932 -6.220391342330409 0.8047204513002159 0.5426159825678343 -2.291259978986572 4.017850799395206 -0.891961136530433 0.7940256005023429 0.1358438559864651 -1.5432558396545808 0.03944196962746038 2.333710433894829 -2.2235390088686104 0.09149289170412311 -0.8771212066640128 0.33096990469901144 -2.0482839124863172 1.0331235719831897 2.5481578616385567 1.9473127801328798 0.01994266021559077 -2.2346154818372286 0.10123670405841352 -1.4001645120097903 2.3481585156136893 0.08576598420047876 3.452075496691572 2.524772390555545 2.411650145825198 -0.3498319203600184 1.5155711631460806 0.056125872898600854 2.2937153145891243 -0.5410342270255083 -0.5696574988378478 -0.6740790078740907 -0.8272157280142775 0.9067000551956178 0.1707055780833645 0.6786241353279902 1.185611809053547 -2.4317705132372143 -1.567855014316652 -0.7994591895594056 0.27132497283427354 0.25041591306741695 -0.20016003038719624 1.5184136702819138 -0.10917075229177581 3.2438934391492547 0.18490397829288657 0.48207054211454464 0.3896893528192057 -1.0876474794587572 0.3317754038525756 -0.2672598197906675 0.15653991128752898 -0.8288593121509555 -0.3479783379585291 -0.3802060084790497 -0.1012047419967636 -0.2411016532839637 0.729174873728092 -1.0907259633280384 0.6837093413786066 0.11312410012438717 1.4532391690888242 0.22537756461123792 
2.9234527758614295