-0.5205007161422035 5.9045590848610185 -2.6432262579695056 -1.5342189966184643 2.3876988895933797 0.13121139400239157 -3.196835312088014 0.40232504986011836 2.1987054704240876 -1.6716115404277923 -0.09664031762238479 -2.6003568096490213 0.8626907453530648 0.20234468338078598 -1.0725864602494606 0.45081859581175554 -1.2327652612969047 -1.3591118100140713 -0.43570186106105946 -0.3211442621434986 -1.9096747709560669 0.5592604972661563 0.40924925820594493 0.5613396053844577 -0.5361035803692028 -0.9421489789519012 -0.4077886236087405 0.0021327746629885014 0.9713338660502929 -0.8910975306629779 0.8478916639069398 0.8026000595084244 -1.024948284859501 -0.6223608341191462 0.5147364949796954 -0.7385733811819617 1.1040517218419625 -0.05904261839697028 1.229779878148904 -1.1004316154639129 0.9240656903027031 -0.08726215502916862 -0.19551637346825124 -0.3216638257778742 -0.1454103120212047 -0.8167071740334666 1.2303168365676194 -0.07482772578777441 -1.0204724193682626 -0.331105925284504 -0.058934273295651374 0.08520281541274521 -0.5895074675817 0.32816479108496205 0.07771955470680258 -0.15597601684732965 -0.7852371671128009 0.06229808829413763 0.7651453315129273 -0.1892713446525907 0.8142694726333439 1.7182831541304666 0.4737442853362649 1.2785526640905607 0.3346900428668891 0.6053443962641765 0.5964418950497968 -0.19718552124202754 -0.47273945444945964 0.14818341531785728 0.7615922364173131 0.24726767305319472 0.8793347020031784 0.19022845351274476 -0.7048882519952093 
-7.728689962036223