1.9086504646426778 -0.43672521105965956 -6.7502745779236415 -1.8449738418228425 2.7735922208296895 -0.3079539138578813 1.1618041942052226 -1.271295878697702 2.1615000091265646 1.9130323222424963 0.8241165072248342 0.514317056528875 -0.2354827694600896 -0.10296391072041111 1.1208221860209384 1.9768314576690478 -1.6319453676300069 0.36822906589067217 -1.0780780629542093 -0.2055626437197258 -0.36127866776753326 0.3898968385488293 0.6289719398001345 1.6015824170395327 -0.7330688227086662 -1.2112611377485767 -0.8849034654860629 0.42717085562720747 0.32476380208426314 -0.024777660046578664 -0.5727916659585531 -0.6301674790184874 -0.058228970360787446 -0.4367489470057927 0.13952955662629973 -0.2310281436849626 0.5196104864258171 0.47002794483982624 -0.5869692688205517 -0.9168392381820079 0.5911838236067833 -0.1789110118581383 0.47280102094035537 0.929890878077688 -0.3357401314824968 -0.5513949561466405 0.10840990832089109 0.7946526785053192 0.9641687938309116 -0.04445157685097201 0.0070183487400832245 -0.14971454556940655 0.0883061386125914 -0.15852726224042946 -0.5564290183047808 0.09893541888804641 -0.39969847652020135 0.3588599393213001 0.46087969626201997 -0.18170552612888824 0.47147963474123317 0.40911910788213224 -0.32760573199089926 -0.1765581625342837 0.4345332327647689 -0.10148511739280835 -0.04838153662291575 0.010810244032595673 -0.25969657739585683 -0.7327469850857355 -0.11425811440424816 0.007507634390255924 -0.31964591535488196 -0.12157204280079026 -0.16116349097079208 
-3.397998138510008