0.09187143640942175 -5.543422974706623 2.1442940599457785 0.9332926097972162 -0.2750826480174 -0.27579568786335606 3.6878189275668394 -1.170057404648082 -2.027039053609963 0.9375211810527574 0.04791423383314086 1.6996019614789608 -0.14786517673698274 -0.483517034651753 1.321080770254833 0.01321065695844359 1.0554199806042805 0.7661369527890785 -0.1128389658118012 0.6423007159640666 0.9033908220336544 -0.7896135084427288 -0.42692182524719013 -0.17595579776144438 0.7089375593766056 1.1573222804391403 -0.3135419791442565 0.11495985710795942 -0.2936486550226418 0.9074916460024053 -0.38673710901009056 -0.7896550909011247 0.6942885843064857 0.4350424481960298 -0.3293747673046551 0.22666735048254916 -0.7808497153544682 -0.023702879633293983 -1.118667225920713 1.316861489016715 -0.9220847082938914 0.23843714349255785 0.48165557524193825 0.16746145496436404 -0.05048729142751518 0.5964961073592632 -0.8500712910945449 0.00965501170558225 0.49901353596278786 -0.045871336186909084 -0.017031966759208927 -0.12001536231655724 0.09402026797253693 -0.38802254956561677 -0.027466801063785184 0.11997284976283518 0.6055344696119924 0.09260714263948044 -0.2903439473679209 0.12089878694852169 -0.5185780751785487 -1.2687221067129715 -0.2561207532738533 -0.9072460563837862 -0.5194781220904108 -0.45279038746646416 -0.5907807014976608 0.5118116237141231 0.39118190793114205 -0.20940466089553206 -0.41972401654928665 -0.3450625675666225 -0.3873142672141044 0.04694991071795396 0.2697831570523208 
6.6723065943687745