-5.1153665890879285 4.374496193117931 -0.9936020813265123 0.0076377061531672785 2.9138644606353727 2.198225405180181 0.8973501255009357 0.22684813546364913 -4.28056341980934 1.0370382605982202 -0.22402681010815384 -1.342347787914065 1.6861084265061659 -2.693459169243682 0.7245686153701002 -0.17618387165832053 1.1404016915784663 2.425372285059269 -2.612248298711981 1.3790649054026236 -0.014320644909659785 1.6906362508266382 -1.886859074304514 0.44433276302428315 1.1858498052993034 0.6806416602078873 0.9491887450248171 0.18576124224076204 -1.4552377813729236 -1.5059228191805356 0.10096068429175598 0.5173569688618356 -0.7638970175325024 1.3322377211096323 -1.2163227537926042 -1.7393005486387296 0.2394172097876175 -1.5156584542721152 -1.1571142589077261 2.0508639741966093 -0.2270819410113788 1.13412561820185 -0.2624435754676299 1.4515482425308726 0.10030707711058112 -0.5949713074691618 0.2650845438590378 -0.07129276259893746 -0.700556243087707 -0.38921549779516856 0.6204694826130821 -0.3887256261151828 -0.03869667161847333 -1.1100252402210744 -0.41829417875319497 -0.2830076705817409 -0.8126053135730913 -0.3439631789717441 1.3258086050965567 0.05117262728581629 0.8898470374286568 0.2704719581344892 0.16222923751943957 0.30010866229453126 -0.9924440331149602 0.8456354033614284 -0.5862115661537172 -0.09380524441628688 -0.9188675964784407 0.25310097364423506 0.5016655575372199 0.015443706833637355 0.2017400339550638 0.2328855748697125 -0.08522854951424447 
0.8654357362895451