5.391736907388925 1.4353444702812723 3.2117786247404805 3.577206835128934 -1.8655177449631122 -4.032288351016178 0.3108317922641888 -1.5352056677573152 -2.6882575808613716 -1.9856697086555806 -2.752181746953862 -3.1100959079469135 1.8452938299428903 0.03245393355188053 -0.06050742453644675 -1.8085339812687389 0.3768467885346718 0.2727802880347774 -7.289257788610925 1.6452297842367853 -0.13036015848588 2.2012818322686765 0.716900792116236 1.3909472467467339 -0.5346232463839857 1.3815512935305936 1.0139941369570153 -0.07994706547768171 -0.9539489503323262 2.133932129465535 -0.4071441441065895 0.7514501290402816 -2.2342713026663383 0.5344523745392253 -3.0206853402904636 -1.057112499539596 0.8324947951883193 -1.0356752121144968 -0.5356921015218506 0.32538048645595374 0.4680215905446378 0.7725339943021551 1.0707724635754943 -0.15137614205409644 2.3489759187428794 -0.42058986041961255 1.3111346327146762 0.6307618821922956 -0.8608179941269913 -0.2704850513550974 -0.08588196685581417 -0.8534634296619575 1.5634054116039675 0.3908649922611971 -0.4280756361612864 -0.34094771405073243 -0.47256034335789465 -0.440887034143741 0.6018112048901121 -0.8065803654191943 0.8902993470895292 0.018554091939563477 1.1631576596054942 0.3190480769637072 -0.42287508145128283 -0.20917017324915904 -0.23948146001827064 0.2788614706818381 -0.44268956978181917 0.9024910851435866 0.49245063048497517 0.4202066422462858 1.057715762407584 -0.5596595999690206 0.03956201776218338 
-2.5387001905698474