-2.389300772677144 5.60960239269283 3.3163370275273856 0.7838476419926985 -1.8868878984763864 0.0011229565328592095 -0.4199249273052903 2.875126137059051 1.0694301187271478 -0.9111314566992692 -0.04621739556135429 0.44202482304373003 1.3240580447185866 0.16190811567506846 2.2357604022162416 0.3711895293040419 -0.13933783186077542 0.5222554981766925 -1.9964720370761815 1.6634318461162914 0.953809458959272 0.06472200154575403 -0.3363491107821095 0.3740824178128861 -0.9293622648268075 0.35171665940521435 0.05450691770605856 0.46080478242718637 -0.5825620489597101 -0.710331366165996 0.18628415660019715 -0.07413109802256888 -1.1871945412981963 -0.18005426694604365 -0.6472081844149283 -0.9916021292201842 0.28263682252868744 -1.5831591095199637 -0.6343017797535662 -0.25027949286703577 -0.32648542152756943 -0.26272717853458966 0.29993038084912804 -0.016549152239881848 0.25348898631754 0.003646308393086106 -0.23044257211284302 0.13714508566922562 -0.5910838534987989 -0.7405287772769478 -0.11629286836975283 -0.07878131394147511 -0.2637649908129811 -0.3471977900969127 -0.3379077458025006 -0.24248218174931863 -0.8391123865168849 -0.19449574143524384 -0.1737597551175707 -0.37365022940245135 0.40923168009352523 -0.314632441320528 -0.2779752725806591 0.2799151078151344 -0.4193505501584099 -0.004853013238310416 -0.2710814929089175 -0.2225965796241698 -0.7960675489579582 0.10876090458729167 -0.4804547790842302 -0.29251808592770856 0.1873725730050008 -0.3163829665668323 -0.35716637626087594 
-1.0873728121744461