-0.28773416191967804 2.1574107116901313 5.065275277926455 3.3190512763446613 -4.348095313187478 0.48314876099538195 -4.059120164774425 1.5369671984373496 -2.1083021348361717 3.926020224997252 -1.604284136440993 -1.503959554458254 3.3714563355454414 -2.4877216335622507 -1.0025379395933391 -1.2340469945028094 -2.4582902812652727 -0.7802132965952284 0.5870774871424017 -0.35166818202202577 -0.6377642140088882 0.5282026710228183 0.9142885921479529 -0.5207375436807937 -0.18315136089655204 -0.9766258177870843 0.9954867441646238 0.5885088127233015 -1.169701596139545 1.2774976879395175 0.26851438710738484 1.042821821661857 -0.5133871385818037 0.8420423815727949 0.421336610639201 -0.07714335808356165 0.06608653749103824 -0.6865733633005643 0.7732866823102891 0.9408098343763753 -0.2583452756868037 -0.3809648131574679 0.264074366121655 -0.7039906236512665 -0.37017387542339253 -0.37303817238921355 0.13973579325684604 -0.49160373710259525 -0.5915689671101156 -0.14316353325587083 -0.3548058177689054 0.48902620547373077 -0.3295744399063951 -0.005980623410003633 -0.45440018256347636 0.13046832976163536 1.0215418866896142 -0.3009671028549672 -0.16269867485012637 0.2095928481013909 -0.7333429571504061 -0.06714083183949393 -0.84294103338139 1.322257283750849 -0.10551156124990363 0.45808922315665296 0.8055119122440345 -0.4357387218610655 -0.6977134590383931 -0.03407871384735152 0.12150559617988355 -0.046127507649524835 0.22473445709879558 -0.11627341877831188 0.699374291491867 
-0.4611672233345274