2.9519140718764287 -1.8794693520836327 -3.526721913251455 -3.1560180887739926 3.1279354104681967 -0.358701498527501 -2.46720219982109 -2.0937397217835887 2.1862744297519194 0.9356693558392937 0.9942843928791674 -0.7629670348267503 0.07784094502022687 -3.122062675412188 1.0783000415522268 3.7884067004412465 -2.388312913946093 -0.2099815933117707 -0.27763494932264415 -0.5365894060029697 0.30376167143807464 0.8250132866348582 1.7212340685016616 -0.2641746667388102 0.6042321384524173 -1.9257407778412852 -1.09463483751597 1.0789768649499965 -1.2966845110267426 0.4380099586380275 -0.6966301930077676 -0.15387094750348873 -0.8614342403107016 0.4536985382887547 0.8045506355144547 -0.35637239109517416 1.9605593078695438 0.8170716937162129 -1.2381281704289215 -0.6097990323337368 1.0526840290837682 0.4649955073989205 0.2536009663605806 0.8497262810381169 0.10689714622901059 -0.5704585580527498 0.6721694624557444 1.6721089083444518 0.7993599716513027 -0.2729352056257836 0.6237765897486717 0.07312680002964175 0.22397614989393344 -0.5676757752783949 -0.232181458277822 -0.011942258557922303 0.4670551651925691 -0.22314500423721084 0.6830218326504222 0.4342921677512084 -0.006125555821875794 0.4549942444839578 -0.17257979245702137 -0.2636516802742203 0.6960560638593921 -0.1628907917033497 -0.020308751746416914 0.15548693962264765 -0.7579319906635319 -0.10485533345492144 -0.8377349374560945 -0.08272809740875059 -0.19446444154404532 -0.2332982855699306 0.16071729536925147 
-3.58620318168872