-4.765256378732629 4.321564473585012 4.656129569973943 3.3770147354130855 -0.22119140259072312 3.849282851752313 -1.413704989783489 -2.5138245977371314 3.6194840336075726 -2.220981836351659 1.7828916716790564 0.6321996343395373 1.0696081417179404 1.877129106353524 -4.003715137554812 0.40750648401715445 -2.0024251084742017 -0.026808539244123852 -1.8911729350164932 -0.15524598232122647 -0.7228703883777019 -0.05584368353600244 -0.046803056874055504 0.2801931839983018 1.30541592069349 -1.8992594955920763 -0.2037800771510236 -0.13015336541608857 0.5433729718277102 -0.3124284139000916 -0.5982077028881779 0.672950739022544 0.7179486213243087 0.4109339107719159 2.3887234260379073 0.9609069483884964 -2.446598186032759 0.32887351476563964 -0.2891074535860042 1.0470566706592923 -0.41999362972657966 0.0594489949559273 0.41458179684601815 -0.6171934127768688 -1.3952052914696058 -1.4560246222989845 -0.40574719607016485 -0.7794755066177885 0.6526197036890522 -0.2503435733877262 0.6810057092590169 -1.4710170686166697 1.1653775743181263 0.022333033164961852 -0.9648330413192288 -0.7818819737563558 0.16122654735885328 -1.272946469083835 -0.3281431473215828 -0.7364919977914354 -0.9358906354761117 -0.85146487036013 -0.17238323256546267 0.44292976766985676 -0.02431291917965342 -0.23310766311280495 -0.9432121926704397 1.0568045918678306 0.018675928241988604 0.7237091205446178 -0.48232442967620665 0.06968584757425349 1.1941823680036492 0.19850239244969 -0.668898381434478 
-1.1254935191233408