0.534194327290562 -4.155748109956162 -1.2406178436751207 2.292140619566009 -1.515199310234847 -0.8581731159084318 1.891117284158395 1.204556862287839 -2.2501931794360086 -0.3512935920557556 1.0412191575285976 -0.7365974127006465 0.5253220464838297 0.05849470066689566 1.4093018299418056 -0.07750706280063663 0.43493357802761534 0.5712088470560257 0.5012023316344575 0.5594798928114801 0.3725329290422872 0.7800956396851687 -0.7056246080352311 -0.7471628662997132 0.6144480088578975 -0.5938010117029664 0.15610909198500783 0.07526774589495416 0.22653151508021296 0.04708097864090657 0.38406269679302774 0.005743100282762703 0.07069450609524908 0.21696367778383274 0.5434772088129579 0.3790652783440467 0.193634132286914 0.30940292269447967 -0.10111625688150544 0.9399607925432383 0.5366235161886055 -0.2998978165189222 -0.2089380722944234 -0.39423216569769076 -0.14933280084275263 0.43261630454055533 -1.0206336477684748 -0.19675620618829928 0.13099962662095638 -0.009217643319266278 -0.01385848707802173 0.1325019135877782 0.2050195823271359 -0.08348198587003522 -0.3584409629168383 0.3616599733724659 -0.23960553706979676 0.4493233667811176 0.22292167755192419 -0.5183380187478018 0.08565792438334074 -0.5256578217212703 0.09889545362376828 -0.20816168183716824 0.16233412570098502 -0.24202305343407188 -0.07120852039372122 -0.3537443240101158 -0.0241507357809152 -0.37057029337438097 0.003289517410695053 -0.03938055492782161 -0.3103831256711644 -0.06561419819260916 -0.12342266102320756 
4.933105787969364