-0.24743454897731976 -1.6908938898646109 3.051845712212147 4.382473851916367 -2.0767195794376025 -0.5827889597664031 4.357625798951808 0.6146619320717228 -1.8183169428062682 -0.349471112765109 -1.7402885453405703 0.7935626982129739 0.21500373583394877 0.7090336384047827 0.3030272035054534 -1.395089263494213 -0.2416566762274306 0.4210856029797388 -0.3441308140999822 -0.3529576332092569 0.6173180511515811 -0.20538964956195804 -0.2673953908257498 1.5512754992629814 -1.3728030239496358 0.09896377902267842 -0.2757156371947905 0.3738993690341572 0.29461414198548685 -1.058600345529803 -0.36082649534512484 -0.38543885861128957 1.0765228841361676 0.08575591102964863 -0.27139658104376085 0.9844431233931955 -1.165948128976458 -0.33994426651557486 0.8510828077276305 1.2379187416916946 -0.6002629983185818 0.010049929548943543 -1.0971171092654082 0.14454083760294212 -0.17191583113007747 0.3164469836610709 -0.5533206688762083 -0.6320355499321737 -0.1311857915238587 0.002779738394743131 -0.7672901258457215 -1.0024239644771598 -0.4191282271960335 -0.10243049542844287 0.2593518747420407 0.07878837653931653 -0.0659367650134456 -0.07024192042003326 -0.1158479251634374 -0.604502524297776 -0.085793232056004 -0.08874466080688861 -0.5480440377454157 -0.2322927017321201 -0.6985445474159033 0.4130048879256652 0.1804510008940677 0.1870868842707445 0.31620991998906234 -0.06632670305645912 0.25323307736421735 0.16606145076713397 0.12112538351120722 -0.08968920780970169 0.21703650331849106 
4.452905367340589