2.3650870514430586 1.71302891190901 -6.792754626555755 -1.2822917187376914 1.1459251234929813 4.41321418548792 0.5736122353312636 0.08595698789554107 3.941496651383466 1.7856128019939712 -0.380807271970397 -1.0427705107446275 0.41378429699539576 -0.4939507867583596 -1.632237306433779 -1.6151022894557634 0.9727168550965 -1.319295040667535 0.6106815962348231 1.5370926899915727 -1.3478841294615473 1.1200128374398342 0.9029672883697919 -1.0348883624564507 -0.8130002548862107 0.31104805101394517 -1.180916165736396 -0.6966928380772226 -0.26069020958180084 -0.1483406670700907 -1.0743176798249172 -1.5654327546185303 -1.369653928908297 0.8452119211129052 1.3717572278287404 0.3353122414150056 0.07920752550043769 -1.397468261860904 -0.09467278962306391 -0.8561177620898022 -0.3309838575064835 1.023001749029209 0.23082724128885124 -0.38987711652017787 0.16728776860615346 -0.4362907791145991 0.9763209750199049 -0.2667551872462455 -0.1823696081251538 0.3180121426181446 -0.954887789576882 0.1101541123175428 -0.38842812296117474 0.4771585315982615 -0.15449972451903765 0.10580336514776001 -0.27060005152125743 -0.2284192103548956 0.15976589837461636 0.5942826049694143 -0.5775419495398622 0.7490888967103959 0.16998463584389278 0.7483555475840298 0.06305559500510724 0.44236526004219573 0.011352724769708167 -0.0637997119217425 -0.210329344670254 -0.08269779117161881 -0.830235050987359 0.4976698134198787 0.008423261783775615 -0.4865533928293245 0.8769174400202906 
-6.063472280506523