1.1121501997931578 2.579223649092584 -4.4015401614362455 -2.3050787534313875 -2.391744395149816 -6.4361691759917745 0.646336543104816 0.6797568159913623 1.9365492524793007 -0.029331786186464398 -2.5005792819527044 0.10062449351993841 -0.5821083467787922 -1.512844740124843 0.276021047053324 -0.3858719459266479 0.28669824340380584 1.8191101334872517 -0.2941869895781443 -0.9749843861396366 -1.1052546130702818 0.18620592771692535 0.4770673100043088 -0.38364819559160973 0.8416041182309713 0.93738388535799 0.5147321231323388 1.3460273144952801 1.1148169605077796 -1.0895515169719379 -0.30355496969670875 -0.2954350814189193 0.0782524488277023 0.7859227140086931 0.5130075331655414 0.5746864799590478 -0.021823513832947592 -0.4976470103781963 1.1989041986569577 -0.7490851556181715 0.2602721926479708 0.6460643955915568 1.2631017529429065 -0.36638413186693536 0.04230467765708065 0.5165360012548808 0.6751296537063833 0.44742004806534325 -0.006760250389371024 -0.29240442060344807 -0.4567346447411843 -0.6130853917516038 0.766225282659569 0.572623045493622 -0.35511601835763085 0.7844305417584405 0.245862249381937 -0.04942071753850077 0.754597324488483 0.2521481007548695 -0.8572697545354521 0.2860603022561722 -0.3481145067862541 0.0992587834967665 0.7460535741761428 0.7826301333595983 0.48937096478998876 0.6365417151777679 0.09968386598195123 -0.04651983167577788 0.08550597262634109 0.007411458217346553 1.2547229855846236 0.0814981582504546 -0.14828488478792878 
-2.749370786858493