-7.250239508688175 1.235452322303729 -0.009464257619606009 -3.084145281389705 2.541836802251703 -2.508884964368592 -2.6170467124394 -1.2396868133184102 0.6110517878884525 -0.2991726652765609 0.20268698588652434 -0.8320476818115123 0.3737066359950746 0.2852519734620496 0.0397130308460677 -0.005683942979036738 0.1325197239692918 0.22422763936726708 -0.058182380145517354 0.2385250572669815 -0.8259346263588276 -0.28801048391081624 -0.9613423158090739 0.13412046710165437 0.052317892946932065 0.9603276114268924 -0.2660793386825199 0.04455176851462467 -0.17830373373293007 0.17821484531982767 -0.24337802260015717 -0.03191647117568008 -0.03318674437053537 0.8631260114941083 0.8397385904190244 1.1235071252726287 0.28380159122680393 1.1592030769080142 0.4860958999033558 0.9136578154684657 0.6319188997268237 -0.5015245446976508 0.06477186864949969 1.0695254533655218 1.020724408689552 -0.038372510869094656 0.18618487717585824 0.8193678952733197 -0.3107380209255044 -0.39595036743570183 -0.14866609612628032 0.6057458769835935 0.1318489922247557 -0.11753524152665591 0.7345141124691645 0.5404662211099909 0.8846262873532389 0.6031593687071375 -0.0792976728976402 -0.1699674380831537 0.09448874828969367 0.39977177676177555 0.046088645848101184 -0.045210628410951276 -0.06449840706484825 0.12215216954076924 -0.31524269762529183 0.24256413203845809 0.4104069744482589 -0.0543135121383298 0.2623947469456604 0.6183642099973441 0.13117183206790267 0.3058424779250379 0.12428845164720687 
2.140442037132269