2.008858010215681 -4.778992648861813 -3.2750991988331735 3.1623529151913914 1.677343349030303 -2.374968178912816 0.31381128992935636 1.5824412831575398 -0.555505889188562 -1.9045325761296699 2.6954074789246456 3.127733627660618 -2.0031369585270506 -0.7469947257119341 -0.2170082037959511 -2.575058175166754 -0.686615802234531 0.3152024369653472 0.7007539121443505 0.6065737766182843 0.8946778842384155 -0.09936055817884082 -0.5558674709985745 0.8519950755069909 1.2997394126407131 -0.9366889950431717 0.7636207583669197 -0.32264012241815637 0.32713124931185034 0.75803836450882 -0.45126881841758315 -1.6394913426429865 -0.33464617964901855 1.0852392444111125 0.3309140371009227 -1.2397592853868606 0.7633750399264738 -0.5257026024524535 -0.11621002534351521 0.5763085788890987 0.4106657117918785 0.9060867186531696 -0.06960293829663344 -0.3819167036718336 0.6625800350855569 0.6285039417642195 0.8035935635230995 -0.7468343611634198 0.30997836214228264 0.3704284985535573 -0.21079378926846515 -0.10958064035637033 -1.204503687548873 -0.7693197183556472 0.13059544026670683 0.48680770534760365 0.3831573120844954 0.521377905436951 0.024444862001687495 -0.0478393824699046 -0.4876799078964015 -0.05714315390545388 0.0820595892294711 -0.43126970696685785 0.004515694134318626 -0.3478775476723836 0.219201613501963 -0.19217815826622037 -0.06753022447201251 -0.17091802643373094 0.5633022431575059 -0.2993776236877813 0.18028549663864926 0.3427314331521665 0.06207947712130052 
2.5233236282038263