-1.020993989507939 2.1237979600906325 -3.573894024843688 0.6474425093430108 -1.8091633624437893 0.11400379459176502 -4.213901798440066 -1.223048526613836 -3.1388482301260554 -2.5474388571471804 -1.7567710135026178 1.626619624248538 0.9493297946773465 -2.832436235328183 1.118208314631028 0.38116263897921016 0.1482677364698538 0.6193995134571584 0.2701392635522591 0.5469928238085527 0.7767786782697094 -0.8269616752444715 0.23599544194540417 -0.0592423327608772 0.09549449029945162 -1.6325774992549804 -0.9007902625081935 -0.9892274038012211 1.8588360583727737 0.27866465532312784 1.0265716175523474 1.468555860341402 -0.13872302883026927 1.776183083000356 0.07423138288309118 -0.04671101597481778 0.14611301537576687 -0.2422958426976722 0.11239613423882334 -1.2835034716178695 1.3408361341002792 -0.7398007808854038 1.1746562143831676 0.3179062913063418 0.4998377868850533 -0.6184155589947837 0.34812450803610795 0.6970269776238021 0.45614909750295235 1.8652286451804003 -0.206300318632062 1.4500560130283586 -0.4164356991398198 0.07168775135152489 -0.3162876066886713 0.6999890025796607 0.3449513164271897 1.4050586881910874 -0.19110932492719826 0.03291229001050842 -0.025585396159340662 -0.23110555650071474 -0.9768885304444268 -0.14431310340789597 0.3065617791312496 0.1653673341002009 0.2176695140942634 1.0285021688033236 0.34464341985052993 0.9807813854533082 0.12861878045003927 0.7229201397087571 0.2840006281699019 -0.10565398600642811 0.9297541746108939 
-0.8184677577406403