3.772709370619527 -1.672531175457145 -6.089650893572501 -0.40821387887830574 1.07347294505016 -3.272026628273689 0.3397171396244003 -0.18953002827906507 0.5933928268178268 1.8586314036319966 0.11979672618865267 1.1268506678703347 0.39728811006558784 -1.4989186786198867 1.2585523937954726 1.7737839034794023 -1.1899659240669889 -0.4717236531730032 0.14346373839848625 -0.06450329072107375 -0.1320900345814815 0.4869199874591563 0.5279342041896287 0.862519391993418 -0.234474550178976 -0.8337990994630938 -0.8356323585295311 1.7142065868750351 -0.27334682651077874 0.5406191874379275 -1.2030489860081657 0.25996661659089754 -0.06961651347905096 0.11559884793009645 0.06227715248283908 0.8304585554340393 0.3901160696045377 0.31314404390017664 0.2205296515164633 -0.3506335370348337 0.05582683669935962 0.19801289242082065 0.10569064844512999 0.40536785760585103 0.06395390824733183 -0.31778573700267876 0.23623594868077735 -0.09363140422901367 0.3933243233522238 -0.3523892279757832 -0.4302430142743225 -0.5454543488033703 -0.008848391380522264 0.08151911593390146 -0.2389802269509775 -0.0694511901024073 -0.06410901125951307 -0.4995511210853358 0.22021341354190133 -0.01527137232040493 -0.2721638247873538 0.1859558652426587 -0.22361953724658845 0.15839010538286655 0.5073275526244279 0.12455701815352511 0.24546581287422659 -0.058369830394917804 -0.6712537974488707 -0.10819341851738118 -0.24115271351163403 0.18562945001618675 0.36847669737379474 0.20684729727409457 0.4754299592935038 
-2.384781875845522