3.730453310897772 -0.9192520627071836 -6.059092214381659 0.08704266452213649 2.539552122728745 -0.7945409806290664 -0.2548796705729979 -0.6677524143436766 2.092956433211424 2.4371533700706314 0.5331816761569617 -0.6198521043448157 1.531733490559373 -0.7598823515057924 0.7976137129278396 1.7260265481591819 -1.6465588484352138 -0.4993375907442852 -0.5241026697687754 0.5184427228502556 -0.8103442713403326 0.35268132105763583 1.6542532985088285 0.6464340617627977 -0.3202674026980379 -1.204435697564787 -1.0577195603277634 0.9060107931182358 -0.5385590544147207 -0.22388236757669214 -1.1663772902315395 -0.21841365726755502 -0.36388263047496205 0.3535358709472378 0.6233186404941923 0.14756963057342976 0.5582943117549337 -0.3406177138612234 -0.6479209414039737 -0.6052876308894284 0.281786484413036 -0.03782915730369163 -0.0023354625302991483 0.020978965044762377 -0.2457888774099578 -0.38150902618365756 0.23777046647735012 -0.119271700488924 0.5215903284895926 -0.4760009364192454 0.08668951327590979 0.12006983760819778 -0.06156155318058054 -0.1462683442814009 -0.6845241880518589 0.25705342893091454 0.17532525648463992 -0.26291109595512724 0.5451838055149666 0.3054217027254623 -0.09296343061393264 0.3668545433611889 -0.2193612706568977 -0.08075934034901189 -0.07657641983776949 -0.1558541410078772 0.02089958881724918 0.235761526011739 -0.551608748510932 -0.5430169391857649 -0.2799286135638446 0.03968080895770543 0.13004918762750345 -0.3436688311302263 0.4233277781037005 
-4.398103532172745