0.9253123968781516 -3.0943917053412378 -3.1810757635482 3.9044878844597966 2.1831397740070813 -3.0467610346460337 -1.4735430547312998 1.2082447789530808 -0.30165356052812253 -0.7473206555515604 -0.7982754282382947 2.420745302482525 -1.5880149034529707 -1.6894561595736945 -1.555022352888611 0.02578570663494717 -0.4918697999070756 0.48756122506777266 -0.9444183206575443 0.5653827006887816 1.7994891663279975 -0.09562961692893635 0.6049444542323328 1.0871767295096781 0.19929347454230184 0.49755876394530757 -0.41622307977269646 -0.05750950168440161 0.3317588466600498 -0.9906825094863395 1.1980525793124985 -0.14282613449663273 0.33728340832255754 0.7747385056578231 0.5304382649018112 -0.11994106642474245 -0.21640056302482708 -0.413285745644864 -0.05301833386528332 0.1834213708599639 0.2486006104730546 0.03038027585372674 -0.376620381889736 0.268968623355041 0.7865687452951885 0.3393279744424753 0.22813637260491682 -0.8872944616855064 0.3484167560258683 0.010068166913549836 0.3231831651018985 0.08157857988258171 0.12863424243065963 -0.23900967244687377 0.018001142182568874 0.0728546294766294 0.1849349919070883 0.3689969903439894 0.1384700970511834 -0.04793253791078117 -0.5792844401618075 -0.06944005563926914 0.13137622870776677 0.03632111274693001 -0.35664051306531525 0.01093567177349064 -0.1350677103000379 0.12771898935933867 0.07273402846226984 -0.11192336363686162 0.498401955897019 0.09289142444787646 -0.18701137628464112 0.20943023866461108 0.3857974565700275 
1.3519552873902296