-1.6047310315160175 2.4381877914028784 1.8077473540913234 -2.4845023039612344 0.8076001627004956 5.63482274268553 -4.879692243062283 -1.2027349319390535 2.1857291477366223 -2.959201742710652 -1.0095528985470414 -2.3559941105350166 0.49766392281167593 -3.582951225852731 -0.6037241071618844 2.154202860292198 -0.06816921190899672 0.3488924123943986 -3.108409286881605 2.306746180244494 0.7315818940300503 2.078280036895972 1.1171059784685224 -2.254040323668619 0.33356371215926517 -0.033939588219996375 0.5404285538527529 1.3792428560849492 -0.5118554675124846 1.6475381476200708 1.296391337208308 0.06589016061899078 -1.4132103557998144 1.2276856038439452 -1.0860977448394984 -1.6869759886368165 2.054993834762501 -1.4759143601461746 -1.2118732557328125 -0.5155768051751108 0.9230559694337512 -0.37510122256277034 1.488479140304075 1.105098004074065 1.8591601159551332 0.6951860157537544 -0.26825753523618334 1.0565368595538231 -1.0015273384851187 -2.0019370113868 -0.3995130391369499 0.02523466740964231 -0.5311772892218637 -0.45890249331236616 0.13853885609938055 -0.5967825486371676 -0.763609459668203 -1.0318091740196853 0.867639127620239 0.22796843946070483 1.9425171549652234 0.009451729654269214 0.49388884730209814 1.067870377995987 -0.363014710056666 0.9552415802149509 0.31004423277449333 -0.20549324538963232 -1.2312017894563045 0.4665781321667593 -0.6529894809317025 -0.2945791018334878 0.34009264131370887 -0.5791497249553842 0.17731556614106903 
-3.0672891688829758