-0.1846040424832429 3.916619276829993 -2.148852964343744 -1.1157631150788354 -0.5711671571047672 -4.195817667793684 0.19033274284582857 2.367595045527049 2.4229022012454715 1.450446024964459 1.948980038656732 2.136111404964114 1.6259994077593227 -0.8221569043539773 5.041648124431967 2.665084312211945 -2.4303645234436937 0.31220917219607364 -1.1143075078157745 0.611944766613406 0.6034104997367065 0.034717298167316724 0.48266934079062707 1.1050689190188279 -0.9642180009047888 -1.239800433451746 -1.7394403901174285 0.9680270631386507 -1.7957565703644605 -0.7416167380311116 -1.190708481471693 -0.5402147925691475 -1.2367130028351323 -0.6176799065203372 0.8263805620615131 -0.1938346904256847 0.49716065451529223 -0.3416783923363146 -0.5278888163025895 -0.5068714062362808 0.04474140903087783 -0.032266364368071884 -0.26895267829249897 0.16605154926985677 -0.1571020520797783 -0.5818429675891026 0.05266776841641052 0.33571256472046396 -0.25524259609445943 -0.5434203356196415 -0.1172867309386699 -0.5137355390243031 -0.3373641479943391 0.04644675015774771 -0.690288097471097 -0.8351765417506298 0.3695947534873294 -0.20867336243462203 -0.23421016906412467 -0.10896421965177233 -0.5897080845908768 0.3811786590177245 -0.5534958176854377 0.06625976100654457 0.3179886925624019 -0.5564306242131286 0.48029980656754684 0.05896454553099083 -0.1263764006334694 -0.26382753103791046 0.05533010851150397 0.20342003990909252 0.24068193464940943 -0.4725171581676039 -0.36030827582720343 
-2.3867357015468076