3.644469092391634 -4.419002114976726 0.10762276198940368 1.6728325755648528 1.7872676170074047 2.8343447413005425 -0.6486663842358151 -2.508259971549387 -1.5843089979365543 -0.44301778497544897 0.48853097577796223 -0.19791448938470757 -0.1665932612408615 0.36556795251946145 -2.2249560697536155 -0.20995220131174686 -0.5720942457358652 -0.42006214953694 -0.0744484109217517 -0.5328569653535623 -0.7757317475247336 0.3023054407561978 -0.3979972227087122 0.09330323596595788 0.7604971921859465 -0.5252253902730681 0.196626962607991 0.14368304914342245 1.1393886615950293 0.28481048945420934 -0.3637565089772703 0.2396600996940584 -0.44877801255154764 0.8218705675063137 0.21875332839037143 0.4940642525453842 -0.6676371736377766 0.22599741785501104 0.1968552424473941 0.2778167874667993 0.2737348916652262 -0.13903285536632384 -0.1328919317408086 0.4405943222444735 -0.35375818454950736 0.06109431052563885 -0.13436554476821694 0.26107110429960234 0.4800160219948787 -0.08779468416180441 0.14233891753905242 -0.2761499475426179 0.4653693835397872 -0.2864667961609053 -0.2501854090996192 0.33480446970711664 -0.08815269391084915 -0.4646930975453513 -0.12246117284717353 -0.0636129760622822 0.08164482627308844 -0.24014552934743125 0.12123465304475567 0.03793933353385068 -0.019782250164847137 -0.1499636143953125 -0.2461375527988665 0.3216534199061345 0.2257717870463894 0.39358271086472796 -0.010643951944521918 -0.2376144151468568 0.43564406628553076 0.2060388669882136 -0.09368981948440908 
-0.024919113432323975