4.089112519700642 -3.1865279054722837 1.10599711259012 -0.24237067474979146 -1.523827360025095 -0.8289623900412728 0.43466031947253514 -0.85726491941153 1.2613911027989824 -0.004681793997179273 1.2936600346838847 0.2464100776073277 0.3138201349458779 -0.5189927302230606 0.09028725021005363 0.053588294890863586 0.0019195017584109353 0.37522844841300224 0.2422501731407276 -0.01693020840090617 -0.2028301512764359 -0.37902407975621377 -0.8858744976338693 0.16924493117412664 -0.049072312933126916 -0.2349212078361125 0.16379756753983316 -0.4656518566450961 0.20576741329801243 0.22857340419582062 -2.5559424228190075E-4 -0.34327343843741587 -0.2563092707816551 0.26387157580191944 0.07620538117019678 -0.4641226514196514 0.07482969584168324 0.01307033414113784 -0.1548484218612853 0.09614991281966023 0.1456972106909196 0.26316366922767326 -0.007829138641988531 -0.2113578476075112 0.33402406321672806 -0.014508023142669413 0.26473613981882854 -0.1268174304248693 -0.14588918919643895 0.059751868356259064 -0.09665324821436116 -0.14870577640782123 -0.3536156759035363 -0.021935173810626873 0.13873882402093649 0.12233799572014925 0.040798815095587526 0.21126055933775617 -0.10658468978878952 -0.08391667542212689 0.09200002067096612 0.12815307267570783 -0.21509286295735733 -0.15331160778998604 0.09250903669976047 -0.12131125291893284 -0.06231796274316943 -0.25123806709231117 0.051321452735902995 0.009123561915213428 0.060203359103433024 -0.19117044078892584 0.0723482469266157 0.08765591321293031 -0.045662467624509234 
-0.1786629321729719