-0.564926729984407 0.19703201988245667 0.18474985608361472 -3.8091331480368567 -2.569116805766745 -5.312578747157483 7.164390089855624 2.3055509103239418 1.292877068648984 -4.744376548182353 2.1822341768748577 0.3342435691626058 0.37275176113312947 1.0088761447098336 -4.060599319266272 -0.16407466034129792 2.0421159972569924 0.2934493085872232 2.5223516350113204 0.022157687863629816 1.5230040865595997 -0.8218196271718132 -2.434415572555996 0.663926865045022 3.0777815381308398 -4.0834334025663335 1.1551486788758913 -1.1818110718390384 0.4174947914274607 4.149329574854665 -1.9910592315170623 -2.037975188071503 1.909362787670111 0.05989075811152578 2.369410186786957 -3.8067503698008647 0.7882430189007811 0.8868300960604033 -2.1069843340417322 3.1650983181653762 -1.180355736746276 1.5751203698343277 1.5884045396885826 -2.207037938305218 0.4295376138008695 -0.7502304596886447 -1.6500285672801323 -0.9366478844658904 0.60048405082575 1.6336943354798523 0.9545065122612177 -1.0639035314103609 -3.216389534036411 0.6258233642342311 0.1712256302647367 -1.3921119537683107 1.8918535421633036 0.6724308621757413 -0.2768527348590486 1.1086180382557513 -1.8350312114417384 -0.9361531865406776 0.37821908878609967 -1.2526128409978647 0.8208413054328365 1.3094507558430566 -0.2590256089390144 1.1631127958825942 -0.8240033530632241 -0.834126314574926 0.3778732878370794 1.4577489852587546 0.3455200797538883 0.37501650221782423 0.7357830264381195 
4.027847932913919