3.5427548136212716 -4.786696441953148 -0.40026674418833896 0.8997094325726432 -1.3894090664190535 -1.6396975507754388 0.7077909997366276 0.5592834923289698 -0.9029626169690594 -1.2758022370577877 -0.30924029031567946 0.12793293384856996 1.1851716996200397 -0.4073825982462036 0.4379893436124923 -1.0109373370609651 0.6859923448240877 0.10585015538398704 0.19659736651180043 0.3025130205071801 1.4494887026769818 -0.34093618037746404 -0.31344548707176845 -0.3566741464097945 0.2816569794529644 -0.35681924721093594 0.30460843122105113 0.23787328944296499 0.4945146746692328 -0.11552732507135591 0.3345114051231074 -0.3930366578055699 0.1295126259716895 -0.09024223442743112 0.019367251024023414 0.24847522239621078 0.06743835923931608 0.6611234688618572 -0.5510133060674957 0.429098917281862 0.2093339153341692 -0.017911463025214822 -0.033118749694547034 0.1541499170587867 0.08191045906831057 0.30197082813888765 -0.10871019560252121 0.04290161405630838 0.11682438785677805 -0.7654813246829684 0.23025324702974403 -0.2328224129031835 0.23130104125500933 -0.0708234358156957 -0.03316739861053791 7.649719295031721E-4 0.09521327644726166 0.18510776997050693 -0.08950665580808118 -0.15221825591501065 -0.10019896090813951 0.013160560593031626 0.4711385936739554 0.5141614066344817 -0.09282119740682365 0.01560736198375906 -0.07551922505628914 0.1325397246619 0.1731440299077673 -0.02815810691729463 0.08774843549417125 0.06992820283896574 -0.08283050885707 -0.10537435510845422 0.09233703987709027 
2.770607119675848