-0.642857608301286 -1.1756553579803803 -5.592871035022467 4.746145257301848 2.6854293096694137 -2.4376988027747544 -1.9336859981277144 0.5401604244314008 1.5396871274015185 0.024066444861211234 -0.03264220539982099 2.09944744606561 -1.789782605681621 -2.452430565423989 -0.486110347075543 -1.453030216929558 -0.7065232034298263 0.39196131608405804 -0.10557660691591031 0.3780610366265581 0.7377128960787971 -0.1495789917568302 0.7240899157214002 1.0176541388994902 0.10399489109227722 0.3087462384296305 0.3817686975542632 1.203529612359313 0.01854901374645987 0.11638545570489295 -0.379924816662864 0.05669617092709167 0.37020794024242676 0.1442245705640669 -0.2824695786678616 -0.023407895580852434 0.5086951013097177 -0.1970410377418298 0.9580385101584082 -0.572782575949131 0.07896603647984134 0.3876316972927339 0.2398446985178363 -0.14382349371115954 -0.30792199394743797 0.30138208261738486 0.6863613979845078 -1.0541925961362226 0.19783220677900037 0.08210400946607221 -0.637443669372155 -0.0977321359396843 0.1464167022216571 0.08089421340894742 -0.2543265640587003 0.7586534201810857 0.18160398444735265 -0.16642414482894013 0.27447559092858775 0.027964607058003556 -0.5671884436230962 0.401406880332962 0.45476402907407665 0.014768202948223647 0.21152442337491373 0.20119046912250194 -0.26399240402475277 -0.0223196881012086 -0.2617647191988212 -0.1412094307151951 -0.08896264285595029 0.24488272028259972 0.2531097326597182 0.30576657608740043 -0.16542382055970728 
-0.9155806717377193