2.2385652587433382 -3.1507227386311367 -5.067299809639599 -1.7121660503493783 2.011238103406248 -3.25583754641073 0.9905624748588622 -1.2591110060252142 0.7641303416462462 2.3169011332392953 0.9554153265257483 1.3704681295376187 -0.21622122620363315 -0.6025347138409538 1.360242790692085 1.6044265371920272 -1.6308881090867202 -0.4569286683089021 1.7403456776943518 -1.0692670733742093 -0.2089648087713516 -0.2789812506677125 0.6074775580577247 0.521378438204462 -0.08491094100420493 -1.4163906857585173 -1.3189020680234445 0.3405952198368225 -0.5454757574783391 0.34135408855096633 -1.179816953394479 -0.24127554503015236 0.17305305194284348 0.20460377516973016 1.118883048174325 1.092031715566057 0.04458511295142997 1.2713767966699034 0.4614793539454265 -0.3179796716854667 0.5580821256069598 0.014406292908305453 -0.7781924668824983 0.3523190631183639 -0.598401049154542 -0.17214454048807715 0.4911958851589595 0.15771467891746677 0.6151914947551841 0.38419023336444424 0.024715541726962664 -0.08572059374730069 0.24675384452987356 0.4384225113708695 -0.09065922945801619 -0.07755305574114713 0.7237226768292675 0.11818968687470799 0.08481045806644599 0.39151971025399157 -0.6690530412644203 0.1311532560536294 -0.4255135414104648 -0.18750578597194428 0.6730372301652796 -0.1793788877651712 0.30346901562626677 0.17614140525316588 0.11141946492174132 -0.4388902102885257 0.0657301839785702 -0.1926470184962497 -0.24731701867911274 0.13241786169779673 0.43293450924788157 
-0.4057393198705631