-3.308980290722751 5.829724531649612 -0.34780542673037385 -0.9841529104941109 -2.6214234249868524 -1.8546296595594616 0.10913549322102956 0.1999700011183898 0.6340228321257433 0.6527304339111772 -1.8222890556637141 -0.7667654524633898 -2.119349198059547 0.007167004087228479 0.5062949522864252 1.2144733088613977 -0.8498612331945272 1.1540497285657167 0.24459234068023128 -0.8098848733406012 -0.8098294991943966 -0.01932861993516477 0.023989811469741773 -0.8951435107814529 0.561719498281815 1.0594933965944837 -0.1224160694215854 -0.029543667817287456 0.47009207343194404 -0.7011713960417971 -0.4570914904430817 0.243024471184292 -1.0726600358999887 0.1497707230746994 0.2519100872159983 0.23342914821417304 0.25797562420540127 -1.0088016158822428 0.7981082944351335 0.0829093339251954 0.11957375537870847 0.0019289281199219022 0.48296159237215863 -0.6365348577248622 -0.05642340311191829 0.2885873453076836 0.23680685637488808 0.7357745668332982 0.43076434360235877 0.7320469904699678 -0.13739350320854593 0.2621001464578253 -0.020438707299781367 0.06898956413764037 -0.17902656828541522 -0.07456274573040622 0.474934353435702 -0.13875040458784593 0.5806603807971282 0.23093923059907923 0.49996689116653326 -0.045213781914615225 0.2895091164088127 0.12225166958124556 0.5914973829665409 0.271465790984619 -0.12960390898536484 0.0881697313428298 -0.06782171621197552 0.09411171087827178 0.4577485481025512 -0.08194509405684941 0.44391601480577275 -0.26833058128067633 0.24788470436722576 
-1.7621457112497203