-3.7824764882040194 4.874372443414432 -0.4951109255553112 -2.4724655028216618 1.2931556600833485 -0.3060087330533733 0.5237829442220434 -0.68264057684961 0.09435259215880043 2.544933604373999 0.7400599280048424 -1.0065330400994776 -2.0177800970946858 -0.45902666563280753 -0.5897507344982932 0.2970948853665166 0.48222567589173637 0.27710458011578876 -0.31832325696277397 -0.41838942657397254 -0.6129899069582367 0.1794084009946818 -0.9714848038944894 0.8507655901789561 1.2460006154481802 -0.17994459551186961 -0.25153503893163914 -0.15942797257819916 0.07790707911815967 -0.3051623329644197 0.27931509701985285 1.0915489601780848 -0.158357979938906 0.5513275686286389 0.15222708921600653 -0.4480797000771746 0.55814400886956 0.028456792477234538 -0.3042211368545499 0.41233618727821797 0.4297785247429594 0.8221633029934303 0.25737131711591055 0.5088311327554642 -0.8602985801869303 -0.5528841023127824 0.4225353271355099 -0.4519153344517171 -0.4255248717193987 -0.3318841146455272 0.1297315992447579 -0.11950330282015142 -0.0226201116952411 -0.37155453979951614 -0.17993032997378544 -0.34084305435916 -0.13407528883775152 -0.20712595654175658 0.5329228613460386 0.4281104620881354 -0.41790958951619667 0.10040801085206379 -0.20122468406093097 0.38040400734796076 -0.02568471095180862 0.6128554149955667 0.2801595492543027 -0.0904664217573739 -0.20023277062387418 0.11947911711032042 -0.05010106082872123 -0.0661594897904629 -0.5193854141437277 -0.10378779993952786 0.033550113990316766 
-2.0860679466072263