4.178526967635275 -3.796125475677325 2.935731255382664 -3.5549655662317736 1.7521378782942563 -3.41301255743502 2.013824943412092 1.7733019253203137 -0.39618091928071486 -2.22176880759105 3.856321045552177 1.3245480887171266 -1.4447995894466925 -0.5770874024613935 0.050190358260791434 -1.2409341427691836 2.303336762422882 -0.4513192890222575 0.7264106904482517 0.1688308049782622 -1.0085282122225987 0.8717996226452542 -1.0484163976371348 0.691449238633488 0.08708600749445594 -2.1599870136633106 0.0928312987250538 -0.24382835919494394 -0.5957264769811779 2.054205274938501 -0.5596108570124537 -1.1451688176840038 -0.7908964342202589 1.121320040673847 0.8152474666189069 -1.157735587948919 -0.10842850395044876 -0.7337344808106125 -0.5738019203293829 0.22030857052319108 0.41875335025681365 0.16935909424382212 -0.007362636941398604 -0.6323026337076841 0.49727802761405804 0.5098583350787742 -0.9188041870398319 0.5133870600741227 -0.6641709231199215 0.8387982196616839 0.00878504398494595 0.2618495859409287 -1.6166331762425465 -0.4593881655006495 -0.22931577663600672 -0.06503997718209253 1.055354886331905 1.1543765826941268 -0.4181705270276047 0.4156143231535008 -0.3141267117894798 -0.12027433301812218 -0.4359637886214055 -0.5123852356949273 0.34766571639794364 0.1210548693520051 -0.05723091683226256 0.47245352758528303 -0.15544825261033335 -0.43458747537983766 0.8267746509186057 0.069931960869415 -0.07118835575684285 0.01278689432222846 -0.3970404844854073 
1.9585988767094804