1.3145120852568999 -2.2180820869709397 -0.4014522548321373 3.1664489586993705 -1.7527093663342086 -0.635992484706727 3.1546783016704794 1.3191445971003264 -2.0884700368760134 -0.28939367922391435 0.300797929816501 -0.6181104517033473 0.024130391999575174 0.7268651979277038 0.9517644130288526 -0.48108345147525944 0.37599129301434575 0.32425676359417255 0.09662202619133875 0.2982745174233633 0.19154581985196173 0.012989994725251197 -0.6266027442694726 0.2546148848130203 0.029598058359219026 -0.15261523033597485 -0.1605387716387105 -0.06654475108063057 0.40084832822913175 -0.19396168462773464 -0.15343395895270368 0.11909927426235026 0.19542501712461913 0.0034471864030460875 0.12244935206714688 0.2380362424994199 -0.20033901114971672 0.08241672461360083 -4.2578257830794275E-4 0.626255143258627 0.18175219421546623 -0.4001639749063005 -0.6730079548519432 -0.4217357918705672 -0.03037386058248498 0.06830032139629783 -0.5752965093233495 -0.33583086777274107 -0.06023357209672764 0.13895782372471782 0.1097599643391588 0.01938173339864177 -0.036958989056555897 0.0807814891813527 -0.3537269455033763 0.1961145966650074 -0.13895956081600738 0.28840077039840406 -0.13969550987088447 -0.36756879031630707 -0.09472629885702746 -0.27769152327700874 -0.22013113782021443 -0.17869307909528237 -0.21520393254869197 -0.1742090498080957 -0.16536230494361667 -0.06887440307915291 0.007669853761086309 -0.4182476574456714 0.05077401181159416 0.047024488925425656 0.030263140687467046 -0.019032845323060765 -0.1439125845140692 
3.2176304239824756