-3.9309793024430153 1.5346832224582068 0.6734294156411161 4.794923495049311 -1.7995794275578763 0.8099600086933019 0.8998654381728861 1.022372304732646 -1.9401575305747332 -1.633712353242319 1.3530739559233091 1.482612062079879 1.3979261637485858 0.23524965300785933 -1.1183063152594785 0.6336835840027771 0.44284373759895335 1.967789374809192 -0.042589171314088015 -0.8145327033936806 -0.03687093853036938 0.8362118766735762 -0.467106507117271 -0.5674203326370033 -0.9246869382496777 0.48514385552383965 -0.4284666359485675 -0.6775374635761132 0.5048748358252148 -0.36210935669323835 -0.1000616662239357 -0.5734169094151049 0.12978810278785535 0.6462800687966554 -0.03211004057000791 -0.03588454014486253 -0.17195407859382444 0.5041917188221822 -1.1897663869937802 -0.10988807930847866 0.264766065652263 -0.2341633472895492 -0.5723648190685731 -0.4486976760773226 -0.0686749554693108 -4.801283464239692E-5 -0.03449611181132223 0.4820593688073718 -0.10466272222929585 -0.27436356265636663 0.49523746374519756 0.202328188616706 -0.1889704168999748 -0.2736908947304367 0.19380431377736929 -0.25961493961276527 0.3769058751820316 0.13993612048414628 -0.1445228224388663 0.10298926293479735 0.059079108029278266 -0.8703069909500867 -0.19615417752768732 -0.48048641650085366 -0.06615193726765324 -0.14464273443487063 -0.13615109170043477 -0.13852276476182326 0.11630811608012939 -0.01978794014612678 0.09961157421372874 -0.35547601679950275 -0.6809005938596076 -0.20853370889248346 -0.02940700012337355 
4.097074793335618