-1.1750675733364702 -3.644454345566416 1.2648302105894729 -4.384878414253801 5.305316035256478 11.852251343422235 0.3644685052668457 -2.164265707374749 0.6296095895937235 -0.28111108610479096 -1.627144811612557 -2.3798632834606135 1.5070705000461473 5.574382981216015 0.46048777905383265 0.6913865619739545 -3.124711536586319 -0.25078124673840385 -0.14015987679267328 0.9963802330598734 -2.0667926657552087 -3.9228745553628155 0.1407216494584449 1.1925160885788741 -0.2430120458970375 -1.0135679204808672 -0.4217641351536082 -3.6327520569716154 2.5918353130494585 -2.884928026174484 0.4638428041331002 -2.096173155880058 -2.6838748315792893 1.2009335627059627 -0.01303172993390403 -1.5473660208007485 1.9136610207879956 -1.3906928942264392 -2.0232090225323827 0.6355504646752417 1.8040908904934145 1.555824647234163 0.31169104448530827 -1.69109209746181 0.07626660566480936 -2.438991468661496 0.536644137360367 2.168959557412057 0.3220499090800092 -2.172155863221418 1.4316962153296906 3.4995703217950815 -1.3998908363449856 0.6831577228582774 1.0444142913126626 -2.3542596590727047 -0.6353373580299086 0.39245475105004823 1.5844479497233042 1.3562191532453964 3.574771903541776 -0.023972403417507726 -1.3671635273679006 0.5579072472201452 -0.6561193943849185 -0.20623600117112217 0.0989609540856804 0.5003495723055009 0.7785838785987824 -0.2721065458710508 1.1471718352639997 -1.4519888296187127 -2.055833354897709 -0.3105452562709621 -0.0623076925605206 
-0.9546941872963326