3.4232824619283333 0.28631171263908683 -1.6642787659639238 1.465154958340716 3.0404244692513713 -2.763552674257033 4.146339327235882 1.104345048401516 1.8519484601442977 0.8229141903614106 -1.0343389637333484 2.593162413015593 1.3126918049538534 -3.640889996416228 0.6581902338568046 3.0700039047657928 -3.872743210092343 -2.269062485831176 -0.0631540668074263 -0.4138173961201309 -0.9491482942347522 0.030756436504482842 1.143561973593716 0.8349865917683724 1.2912408214229798 -1.7372485313805623 -0.4336269545377998 0.9728106704237567 -0.35692406668498433 0.43016898534875575 -1.88945858671965 -0.8130006807540854 -0.8219701741226129 -0.07962075926508633 0.5643781654534588 0.0190532440340464 0.8403346593703791 -0.146229103070135 -1.5912747007683437 -0.9089203408415054 0.9626842387819861 -0.39501335857089914 -0.8365577860880652 0.8638989778622358 -0.24746834744399915 -0.9357310638334941 -0.33950621214949883 -0.27903484893083597 0.16583630879995975 -0.08203800038433401 -0.17172667308024447 -0.20079455840612268 -0.16695324632541514 -0.5514598906010084 -0.20130588704474373 -0.6792331281364883 -0.27555779085678894 -0.581433274752985 -8.231879011710089E-4 0.40436528212520884 -0.24496440100410538 0.23356904636902026 0.08745504980409757 -0.6414445993305231 0.22199877161639447 0.09935584611867675 0.6026626275581657 -0.3727639858928291 -0.06678620973988997 -0.49686518896322796 -0.15129477104946798 -0.11863087296630401 -0.08315394810164888 0.5661900613420984 -0.5402757600371826 
-2.7879345539836162