1.8703414387432638 -8.836647238508835 -5.229873287804445 -3.5527421755436652 1.6873261333484386 -2.2638357051935154 0.10517367340609418 -1.330766485457593 -2.407533430876514 1.7636340087542912 0.3872952865549075 1.7025548688729 4.4737533531729365 -0.6219098109369663 0.5734884188560252 1.0481877783355258 0.11403783836361336 -0.030735790609861535 -0.23226510022502822 3.703675179503123 0.044501331268057776 0.5483198219670227 -1.111442979693624 -0.10798069905670915 0.17513886553936686 -0.21039834361893328 0.29417063569622937 -0.22220917675588647 1.5415478973574028 -1.3439213513405912 0.47060126131807656 0.5974716960309985 -0.28781855298935 0.3592411895893832 0.06132607168558507 0.6003939997537573 0.25246454027512044 -1.0087185474526486 0.048209952939749334 1.0897288444454487 1.0908394466566524 1.4708480813894698 1.4186543665951588 -0.5807087913363178 -0.5551685329821432 0.20060381426227325 -0.8252899800470271 1.0371837173103524 -0.14035898420273885 -0.04149896641753936 -1.1714800257768092 0.6165088157494751 0.288518312374351 -1.206833969717468 1.0224663156704312 0.18315332283975283 0.2927847342099107 0.5432161028987373 0.28107097880717924 -0.27104552808681154 0.7027549574125325 -0.5832988016354705 0.8628439522393427 0.2348049707917622 0.024330518191795103 -0.19673172994127386 -0.09385066160302535 0.08588815299720631 0.8438391765954546 -0.05982148371817053 0.2643064218154043 -1.103349472337328 0.07805966100649323 -0.056381479936273404 0.6293571782115039 
4.668849037631417