0.5921285062716652 2.2591633051233924 2.3533460690254078 -4.139030828501848 1.5565729383035158 2.3851562966381445 -1.2973329133356475 1.6818090323164259 2.4505057734167233 2.532317573738115 -0.3741734901768391 -2.948860588622307 -0.3479155289933584 -0.5526439353148711 -1.5959754868325653 -1.5859124527860788 -4.034655135059428 1.0038843092032081 -0.21696159799521553 0.9954488944465982 -1.716655245439622 0.5550296142997231 -0.406162138190219 0.7103111713576385 -1.6067357231672477 -0.9164788383262736 1.3184207493708824 1.2640782569466802 -0.1291828927688642 1.7295344202050007 0.9432693687582039 0.10448359649235028 -0.8973993428267644 -1.1656465053377307 0.10726004804532044 0.188709324341099 -0.1989286811575624 -0.3565452271636878 -0.5090396812130259 -0.14099967706977934 -0.36673609112393796 0.18494451044455043 0.37381846512919736 -0.38271947650165294 -1.1482094928091668 0.5935413717048723 0.44254025206897407 -0.457616891868503 0.270185782143296 0.21277862788927038 -0.5058874141962252 -0.0733958399344162 0.6769652683207432 0.1274893165847737 0.3984344734386829 -0.05928255897298118 0.8802905431340153 -0.24013723334521542 -0.12471710256336102 -0.7334760333046801 -0.05510562181859335 0.13530999755624074 -0.21222628728560433 1.1919247626510434 -0.06742423439472083 0.09188860213975192 1.0367477767409774 -0.7122453566735991 -0.30458859376012637 0.25153534724052656 0.6371673418404343 -0.09306545913670727 -0.28414417525199753 -0.4694315644021261 -0.809346349704925 
-4.865453556491937