0.9185581578385129 1.4538125578378072 -0.4983654758321753 -0.9971858393411737 2.2079287733619317 1.562054171494673 -3.2588630447053712 -0.46280216164395127 2.6229435210245926 1.3227016965845353 -0.8259870635420254 -0.858665274505201 -1.684360493251758 -0.08577997449598707 -0.5088245914641181 -1.6205763080937388 -0.774965447994459 -0.6458106805081373 -0.29183163310315496 1.2702426791890746 -2.098528415354388 -0.3402582425913272 -0.06359186365721758 1.1302477231417818 -0.38238800131357376 0.30911459733674634 -0.1932274906266982 0.19889113193907637 0.6596033377780934 -0.40906749636035555 -0.4117559703862275 0.029206920888013632 0.23531074038134603 -0.8980653058412033 0.5233098260526994 -0.5957151317067367 0.7035942738798256 -0.41098781756034863 -0.27901639222816343 -0.5781932766930065 0.0037224709956275026 0.26917137519684126 0.17129528518972847 -0.30223516231848385 0.4452251962964348 -0.48244492597502897 0.2980738786571254 0.6542112191300137 -0.043768176100980105 -0.6665617773034856 -0.3848592335956763 0.11955738876313687 0.18025850419454764 0.35800237108423816 -0.14183848730276175 0.3119281520206898 0.37736478025043074 0.5013985940057526 0.6566876038301157 0.7016536597385399 0.0920280115142218 0.529258718789284 -0.13410476376427616 0.36518609835100035 0.1005122820304515 0.1183079300156723 0.2431670288352621 0.37869411160518784 -0.5283352168383768 0.407500545958168 -0.10289228983699955 -0.17319885813504776 0.365308328992654 -0.11683330675944892 -0.5441480534427845 
-5.503519208042635