3.268745803460731 -4.317528252162503 -0.7356009750340191 1.5101737009971408 -0.862591250451598 -0.6138078338033246 0.5386323144022953 -1.079136939064508 -2.2527874617522725 -0.49161077337564746 -0.6940032732464092 -0.6767581631278451 0.10154431530355476 -0.15641533256560836 -0.9501045468337838 -0.004116409991092966 0.15139968040118823 0.09888100281321842 1.0145297046861397 -0.13179553228566465 0.3570932523249413 0.12824678863476163 -0.17456157554587365 -0.4250959278749918 0.5424685430673519 0.08455394477000319 0.23003444312766114 -0.12657526753412823 0.7180908394263688 0.07328835530232136 0.24184413264296264 -0.25332982901854817 0.348261009946352 -0.19881572309829987 -0.2505651491467772 0.4324941603774044 0.2567024366112104 0.14520937064528638 -0.28285211563472945 0.23835393489443898 0.4190185183053866 0.4900362771281265 0.0013257561380751043 0.03243052059897727 0.17527234843229356 0.19711595965722234 -0.2574238338424579 -0.18366942722267707 0.29868306595483174 -0.2733894954776465 0.3188470476912208 -0.32061874227017084 0.11621074505825295 -0.17284907148914075 0.12083372878045118 0.24692476546671605 0.27801851356075297 0.04329702854235854 -0.06408745593839581 0.10557291963968687 0.24714296368638744 0.05851540351962754 0.5826134581751157 0.26787634608471284 0.010158342858143692 -0.07014667906205371 -0.05974422646598916 0.3160646456164313 0.1111063120356317 0.15434892524864596 0.398064310498926 0.2633016554783337 0.21511079402166822 -0.0045664630039651405 0.1361096403068111 
2.0446169543511323