2.7445627912820405 -3.2157604158708955 0.619668790582111 1.9332841127491556 -1.8439494456866783 -0.06908503821175604 1.195488628671425 -0.26864800629958896 0.6182204865135721 0.04892764258107585 0.5759606877036136 -0.888039881410408 -0.07287564120533918 -0.5013058892884956 0.4725845272828542 0.3388034660650008 0.09566692713665859 0.547507431523863 0.06326427560519543 0.13613787899187102 0.014311677750108331 -0.02098126962976693 -0.6225391980807211 -0.1429654297063715 -0.03121765512848146 -0.22404979693403537 0.011325551297087476 -0.2541149367400178 0.08753254072081643 -0.17723222042933334 0.14044342511293176 0.19190774636578184 -0.035147324644341726 0.1842151765462159 0.15449865269359672 -0.012635216467916432 0.07108551627212165 -0.025390100195839982 -0.2545666192312385 0.3236374571962941 0.25461776782291046 -0.21354653440724963 -0.3967716170069067 -0.24376703664267652 0.10616474296517805 -0.06401752694125173 -0.21375351523792138 -0.20024769582039947 -0.02154711874142201 0.01012294006083446 0.008281096352539985 -0.0618111174038277 -0.0239365633016356 0.13414794248167866 0.039989833697427105 0.1601982915316451 -0.12775098704068782 0.16950809139401574 -0.14015115581726909 -0.11587281498831556 0.03654003824588448 -0.06223821951210831 -0.03949261438132551 -0.05813782967659871 0.023679931909568186 -0.12255947153427528 -0.15724863991670673 -0.12199923818877101 0.006162264117194033 -0.17444285152687336 -0.1191609287254194 -0.07237933063252644 -0.04854244265296743 0.011442258831966867 -0.07001125479588331 
1.2760564060824964