4.75544434456571 1.0797718888956354 -9.314507347346684 -1.7901088238123464 0.45477698421849766 -0.39300532738656635 2.1193162304778888 0.4806577033714827 3.3214363499856283 0.29568102751424785 -0.9986123337700894 1.392484375504523 -0.20208491914289972 -3.2873687370070965 -1.4774142660078367 -1.0619410038694124 1.2605202293981677 -0.4958586073813125 -0.29226448351572554 0.583040660151513 -0.12642772636123212 2.61546795314089 0.5961195793261915 -1.3389572232747813 -0.969619688810667 0.7126474212320884 -0.10729587324065393 -0.4173023526764905 -0.23073442543141853 0.5051348505850666 -0.7586345067866023 -1.751831389258796 0.07164025485289649 1.1893403638445506 0.45144236215666345 2.298497689101649 -0.5323384670478835 0.28183465541665464 1.6462367373773832 -1.562060470693341 -1.151408550205537 2.082559324015173 1.5540784848462592 -0.062235487453155436 0.5871488473299551 -0.2822104155153351 0.7382442025604652 -1.2370006137571967 -0.14041980879325733 -0.33735525321309634 -2.3892635721448268 -1.2157643504579487 0.24405224822151506 1.1433910276243617 -0.20755163685047018 0.3172694923144399 -0.3877121316015444 -0.2573026331011705 0.821946838983358 0.5139297101741395 -1.4914127163161999 0.8453892738786148 -0.8580821640641787 0.47355522473995215 1.2806295078632786 1.1503099327869235 0.45415961184852016 0.125811643901794 -1.0591145466285212 -0.17861783325011474 -1.44264219473704 1.365811033626567 1.5714616184749246 -0.9717045534952957 -0.6030732499008575 
-5.800096370576347