1.842957838920341 -4.445480677618596 -1.0317177402481503 1.2950150837451375 -2.4704772526875853 -2.8906275715603202 -0.10464822168006155 0.23547341302302527 -2.566884055571181 -0.3087511988765934 0.20586535337288042 0.3425813861354805 1.7005154353198615 -0.11335369149203242 1.1781123345678652 0.14936468594453758 -0.013218548176093664 0.4941731491326286 1.3582627102019065 0.8494161865066844 0.8512540560622502 0.45341738100400003 -0.8951665390933145 -0.9467079881095859 0.8900849406595721 -0.0962578580375271 0.7853056545634647 -0.26156657605335704 0.4005784388113791 0.07138654731704286 0.5734391161794367 -0.47866538487786164 0.043796993605366014 -0.2757612176399647 0.46889825242339506 0.5483327232640555 -0.10035135472077684 0.17971212338767023 -0.22425538943610765 0.5114007866331 0.3855260148156923 0.3414902717226949 0.4262910395088505 -0.05959527888112415 -0.16196850473210261 0.631637743811288 -0.7196392092423278 -0.3160031307098208 0.2747646499111697 -0.46568117682938537 -0.1464370293764132 -0.14837898141173772 0.4960296494232868 -0.6674916639395748 -0.033128649977037086 0.3595752087118664 -0.06689849175011588 0.2880086846424998 0.49589483404695245 -0.3311806689548544 0.3609168877349625 -0.3937232782097029 0.8875802760680263 0.275574776930569 0.33267714596259723 -0.15779338075731503 -0.10732304545460067 -0.09517278550715574 0.10600495042662009 0.15320810967218834 0.17929327775400544 0.13185299814900397 -0.31668482322252123 -0.2735837895823069 0.12890404434384128 
4.3685224704376235