-2.42168078933784 4.338799667554421 1.6144671210710368 1.538426675679563 -2.8640842360450853 -2.8383975501425764 1.8489644442158006 3.589230830806942 0.0376455714968571 0.49806709428238016 0.5567414947945885 2.1922390824842237 0.9606840318483744 1.9142881453367147 2.729037571969539 -0.9287641085773155 0.09867091626258084 0.06896611865825586 -0.7679461844737643 0.8049600272752494 0.306592678688697 -0.8156868552103395 -1.007656219302046 1.1369558803462188 -1.3588507163440995 0.3238273479912236 -0.17048493722461078 -0.06978884830337703 -0.696745437704252 -1.0940123471821601 -0.2737675633653754 0.08502771129561848 -0.4601548321003897 -0.5049037059983614 -0.09018232918426378 0.1257902720662347 -1.0003018692394214 -0.8088426835741155 0.4017879198475954 0.5252244391494177 -1.0402160419241904 -0.38606262007168524 -0.5324286471588298 -0.7041391947416051 -0.5271119107475871 -0.08996136637509822 -0.09785199535515532 -0.8021930115250746 -0.381756711389513 0.08682032788687252 -0.11640167877161778 -0.3639538162749027 -0.1464579312545444 0.362295059510492 -0.43824782703356846 0.029740607545463302 -0.46901611136644616 0.47448029306911843 -0.483164859495486 -0.6288739359936404 -0.24925095134487066 -0.22249655638254054 -0.5051747331515868 -0.18480073922330023 -0.19452790972114856 -0.04929949936399741 0.18653369778718104 0.046763427074422374 0.10225018236878985 -0.3824016142833684 0.2198327372588333 0.26943505166686793 0.05433224411150751 -0.04888266582071277 -0.3119551293211912 
1.1147187732426609