2.027609058191901 -2.297481627745597 -0.43665706391526715 3.571309887414387 1.6596243031606837 3.026190760432895 -3.003798411010755 0.5847743534497549 3.244017240638709 -1.1857314738934561 -0.2024533614594315 0.07315520154983757 0.24425856371837074 1.4739746304440804 0.956572991916792 -0.4058581012324104 -1.5235528728482175 -0.8510242750150743 -0.6776946226682298 -0.9977910956062346 -1.493971160774172 0.4410537075635511 -0.7382836015331654 -0.05148884826740094 0.3969637808674389 -1.0686611040792433 -1.3722748349101357 -0.6286672713344947 0.6994824023719732 -0.054000196509693246 -0.12711547087120117 0.7156492552350231 -0.3480543958503508 0.31785924006224964 0.359027186312324 0.0698357232925988 -0.7652219936650957 -0.4246477372039522 0.43022539495130496 0.29350553893835274 -0.1165512253117704 0.49052705260244694 0.3789433829971357 0.11485974084720374 -0.6337365921193305 -0.41547538082690694 0.13223889242305487 -0.12847857174774724 -0.04774733303224141 -0.19541574951080354 0.03340264607862975 -0.39477018483668014 0.5733414082857138 -0.6506028602375163 -0.37675442119498326 -0.09352257953271548 -0.2337657884864533 -0.40366497036512683 -0.33249304444234296 -0.5729324213945934 0.10651800454205518 -0.1899284630481626 0.061041037155053324 0.14084711693462015 -0.037236537340259335 -0.3304223541017126 -0.05784787719288348 0.4918879581011068 4.261053328273867E-4 0.9487925906521716 -0.1878488882379279 0.005787879375933974 0.13351730339881712 0.05891987303204149 -0.20251544891730017 
-2.220359898538859