-6.66050903371627 0.4269212312499976 -0.4431203469795032 -2.3692695324290733 4.0008038391842495 -0.9982376730761322 0.33732234846415743 2.090638382198675 0.4300609589234352 3.396000982136012 1.181494881848726 1.637032588453053 -0.022505187001231435 -1.4449169868493899 0.414789258310323 -1.7276065209079332 0.5644520120994493 1.7307685565820305 -0.27089862632222644 -0.12644398487613584 2.481914072293998 0.49161860591061074 0.5442878456130046 0.02511834289567682 2.689134870060195 -0.26931795172915285 -0.7809211346083821 -0.7956649966391273 -0.3766340573007184 1.047162088051882 0.9534931325517563 0.1776101601880575 -1.4368651005873636 -0.03779382165730667 -0.5895394562920074 0.13715964420384197 -0.9267722008072138 1.0200309895281947 -0.3829172562567908 0.04247218428831841 -0.12586541656364247 0.29934974027360434 -2.429784417203729 -1.3212280943821921 0.7068407971936367 -0.4687003421601317 -1.7721610090250224 0.518761631299633 0.14912314198465357 0.1450551760770372 0.6810093187319017 -0.09962280680154598 0.30403926317038493 -0.5187782841980333 -0.06193410442582544 1.5311417709402104 0.3901909218847273 -1.1590822338419884 -1.565065624928428 -1.241881863029347 0.589041678622761 -0.4840026763697728 0.1706062585569147 -0.353597435690298 0.2382167480245238 -0.37013924342149357 0.07266030499326748 0.3696805595394168 -0.6157164608986269 -0.07160143287150898 -0.2955102053665374 0.6698514965069998 -0.6750701403721062 0.4556805805941944 0.17813929615670046 
3.803595410668364