-2.195515205362751 3.010147083855614 -3.5920049221515917 1.0746549653860413 1.5760209597832682 0.016610417743238903 0.7270395450345117 -1.5099013506368786 1.6685387142230854 -0.0564109767762796 1.2445305123073154 -1.4250556922014357 -0.461199185966733 -0.436232965625471 -0.05849505381330111 -0.5647127214115966 -0.4784284227144342 -0.22726436112776893 -0.35564930447575605 0.17305808245499632 -0.415384246073339 -0.5821849954421352 0.30281237011521234 0.38229829914308516 -0.36267358272240635 0.29695572444815704 -0.45013458716058996 -0.24651383462468374 0.6285100787094506 0.38723695109228917 0.6142903835015251 -0.04293980864365744 -0.14032306100525527 -0.37516806491297544 -0.27704594322828213 -0.5333858485782699 -0.18552450905872214 -0.2728597725104277 0.09524104868927863 -0.7410687506814403 -0.22791342034701884 0.0049182472045880415 0.4485147663447419 0.49726930753240006 -0.27944925768156187 -0.2998875425312504 0.29542792102420834 0.387038618834819 0.3593061973565806 0.17182728534558872 -0.07040202635796844 0.2958934879507068 0.2891988177767632 0.2355085090200139 -0.02685086722898855 -0.08355685443157401 -0.3379710833624838 0.4041882039505059 0.22017258723086802 -0.007924877958526921 0.5785676300003236 0.3300008407412765 0.3229291613501189 0.1230797239325078 0.10202570413149666 -0.08836693183919062 0.4879362999385095 -0.005680160593251354 0.47503413427204494 -0.15162471692102195 -0.19410558372923314 -0.018144079210144715 -0.07187457670978067 0.036517765795810675 -0.4134712004127927 
-2.7109857738862537