-1.3075634048027993 -2.471419997323082 0.2801393398979961 2.291977043938333 -1.7609319140087987 0.4901870246455209 2.436072068083689 -2.17940356975132 -6.5455225058969155 -6.826670314397148 -2.335888615525316 0.832319491839332 0.09110634367618697 0.5782942249007341 0.9313860538511678 3.5563681830606466 1.7187685843190703 0.007813167390686049 1.4486259975492781 -5.168123984507526 3.5061875722872706 0.862709226186825 -3.6977606780996792 1.4691331340779734 -2.7689486667008305 1.634612164603381 3.5456490711511157 -0.6725815273127647 -0.8884884612512234 1.1033549657191155 -0.44768709536111895 0.7073570895910934 4.882001244678395 0.133173206869305 -0.631944815335602 -0.9164727717539298 1.3713910593523562 -1.4457480423466809 1.204503628215867 2.535349533928539 0.22335827228576055 -1.0799884576664724 0.9050179342151348 2.074481346002974 -0.20027724866328267 1.7650506877588583 1.5328674057290357 2.021603582235387 -1.470830563910106 0.7402586271124367 -0.8862732531959745 -0.731135423665821 -0.1404004404704038 -0.8362192275958393 -0.03992769072219193 -1.0550162018568598 0.49269385460780346 0.9496844180346753 -0.6155142276783128 0.07569622124049191 -0.6045252565033361 0.3105726682133043 -0.6514146069713438 1.0034729739466404 1.1888101793400212 0.21041647194787683 0.32592571007621696 0.31948043706513785 0.652133714882807 -1.2609894886311295 0.6618697292063211 -0.7463657412792604 0.1269733708707601 -1.6447577608892545 -1.1700550705112056 
6.623566829531372