3.1448303934838577 -1.825402415274711 0.622173694741292 3.2927678258011808 -2.909435729096624 -0.18051814633671603 -0.9162571173957628 -2.4063790311653994 1.650489923437502 1.2474210879419803 0.23631876277861985 0.4988861677378582 0.6311000285068321 -0.9055550562624892 0.08284855583828854 0.666622727373333 1.0195624105232532 0.11810771721852936 0.1307077776576666 -0.5162294193254288 0.07382197255075917 -0.6204584048413733 -0.24713029454630492 -0.008264844658508706 0.17424694545994912 -0.15751426281281408 -0.17669373926975762 -1.0410527691005644 -0.05674942915018938 -0.5991113836967926 0.07543173870564829 -0.059837896333847146 -0.2642312401978144 0.32558799988231624 0.10095909422213326 -0.5742426824873766 -0.042959397631769175 -0.2450750663207757 -0.11201956206788014 -0.3429784852158344 0.3638534246447984 -0.38627375451044244 0.17814387609712923 0.19349809938710383 0.28175377785974254 -0.38973848734662486 0.020961589002713887 0.03531017891506982 -0.22524521590281224 0.01755200990716066 -0.1357106444753291 -0.005918635678765105 -0.2951208202290643 0.04318648135916993 0.07843408530902345 0.2291309267976952 -0.09773278859934942 0.21000261018136784 -0.0961178684382317 0.10863357103720118 0.06632748262128171 0.1723906067925841 -0.19237125086295814 -0.2748773712975892 0.2526086480718555 0.09935985926781055 -0.3163545328562579 0.03807084440857805 -0.1262395505546327 0.0396730971285755 -0.33663357352297185 -0.02053401109543601 0.1809109077165736 0.13570125124677568 0.2695767269459912 
-0.8010089554878629