0.30188226025934206 -1.3301277156426217 4.895510546985179 -3.403182886615521 -1.5256066281861478 4.061643430641073 -0.5507159242973896 0.7092551051341882 0.9538258703182381 1.2436256050737486 -0.9082440230598977 1.3465974004708645 -0.15706603190582952 1.9037240125617685 1.5463731822587514 -0.447874699202949 0.26165294153043117 1.2689276870704462 0.5018893251521004 -0.25095065574160713 -0.5368276188510004 0.9563994723992437 -0.31476498934106834 -0.7862033406554335 0.6194460187400255 -0.8698613171907728 1.6656629998147028 0.27010856312974363 -0.37467819281536346 -0.6438415571869447 -1.8032872899582788 -0.48247880332688053 0.08429355124606708 -0.7952700394336432 -1.2732569222023757 1.1818770852601275 0.7931247985666086 0.6537669437548628 -0.24711415249850593 -0.039888590794327605 1.1882298574658163 -0.02670654988404131 -0.039988525289959886 -0.6827990228449395 0.034218712106838356 -0.15169493893164798 -0.39296531829209097 0.18169316802309202 -0.40792556255750073 -0.03575103060011072 -0.34123591587581764 -0.5423960562385799 -0.7736995889194977 -0.8126886764647031 0.33085867132041025 0.09956462230579977 -0.26051485045443434 -0.7142757217240387 -0.39956616212828955 -0.463792688653072 -0.8485337503682656 -0.5610566624398828 -0.842439086921561 -0.40408780415753526 -0.027372324679603433 -0.25283541103109586 -0.7063571207557651 -0.256487694751949 -0.5714620375055905 -0.1976204825966846 0.2954129147193534 -0.2465600272060734 0.12353997225327415 -0.07143701750609427 0.3003866891232964 
1.5163078280781572