-1.0614384763381288 2.920174166499095 -4.520248210490907 2.5469088072365 1.5287892274294137 -2.375366514380991 0.5089447272556402 -1.4242026206426894 0.8168696985161485 -0.3154339961668109 1.2242703012880964 -1.759507004985422 0.17614920054869376 -2.0165195604211044 -0.13973739140662755 -0.7724502046407149 -0.5601219954252565 -0.5735777097422361 0.07035824837478377 0.0855627277224868 -0.1661538003047962 -0.7524262532430157 0.7161849474013993 0.15766862096848644 -0.4346579732682536 0.7225502542245119 -0.5144161357240684 0.6194386558501377 0.5227658852503945 0.6740202174056787 0.3389893590433976 0.5477008752432289 0.43969071226410117 0.2251764216341301 -0.04030769867747669 -0.40138702359691525 -0.28991571281636014 -0.5623973126528117 0.7862348916069445 -0.723427243064044 -0.8013694312837034 0.20637604315934435 0.4022289073061376 -0.031163191030688986 -0.23656194414099696 -0.015069074457206622 0.5931130549900602 -0.05935032872294638 0.22423260170107429 -0.10614698294037717 -0.04285471197840185 -0.15931126952343827 0.40676482941219627 0.9137285307531874 -0.20210973595092308 0.0747007846879123 -0.11266351150854126 0.14208223801167874 0.6377200498346172 0.07208169293644054 0.044738571711418415 0.3888868922759519 0.20575341321845997 -0.0847500058272691 0.515311986911948 0.19664255105375655 0.840054760246175 0.10620101153520922 -0.011776603006719233 0.1321284488666415 -0.4480991787484586 0.027542761211792555 0.43687192869268066 -0.023695141679667797 -0.45699505549200725 
-3.213706443064194