-2.659581746376343 3.5715423316312673 -2.6937667636682523 1.9635125420398678 4.982457146105165 0.004897354150930511 -2.672789882959205 -4.0059856582862 -1.158150199162293 1.6238068062494047 0.518997748111673 2.2585553646128007 1.5624911230152914 0.3866864332243731 -0.10478393576308065 -0.30437038818258566 2.0730167845648335 0.0037862797200206577 -2.385452608935747 -3.0695469569510108 -0.3150982826584059 -0.004009835858526323 2.1917189309562466 0.7250492573900955 -0.859189551253257 -1.3002458638931458 -1.5501881523476158 -1.022553756337856 -1.5419254803449993 -0.8735582025127533 -0.2549933544423921 2.1471453362730246 -0.9336804788183031 1.9069847469228027 0.8168729027869182 0.006962873351031629 -0.5394786063921081 -1.038015899313339 0.5052506961840332 -2.9338071688918146 1.2008106124668432 -2.0296394368420416 1.657986140126844 0.6890912682104198 -0.6911207613067517 -1.3771770108660621 0.31518053210881614 0.8848375949903134 0.5196366004180424 1.9172987638186458 -0.6118455982485057 3.038035479673074 -1.5505915913684327 -0.07398650993227318 -0.2720308676628155 1.393948305064101 -1.0676311496293895 1.0159900505430866 -0.26691713803241557 -0.41890392138462956 -0.11747812487299925 -0.36361697297217904 -1.633553148738761 -2.507899782075704 0.837195051709455 0.8554151375936039 -0.060502972234472985 0.10924494727856865 0.9142073899042322 1.5115804198707175 0.27100548894650867 0.1134825471116625 0.6717208270743695 -0.6198589616152855 0.717524906932937 
-3.351417759841268