-0.5540476132644478 3.076788538774494 -5.40717876087152 -0.8014933166365408 -0.3227734579569077 8.49294481603765 -3.207864464795019 2.2485478449559886 2.0216494309697453 0.3223316108750951 -0.1299447281657915 1.2207558523347917 -0.557878853061083 -0.39230508450693446 -1.3678867503905492 1.5897472414130487 -1.0501221918140993 -0.14998293396635898 2.405456186585167 0.8430949820341449 0.024905050599321576 -0.38875277290388954 -0.32306934433662726 -0.6098434802055096 -0.06597066408075669 -1.0013557097576895 0.5343361634326804 0.554776629778112 0.809289885505712 -2.491902415554212 0.20949721878083272 0.08255968788984624 0.7361783728187055 -0.9278917478448601 1.750894162745091 -0.133941310377359 0.6063554078103525 -1.7143458963304126 -0.04792947745333126 -0.9266409368776647 0.26793045325585657 0.17171141488815966 0.13284508230256442 -0.07911425029116292 -1.003200449846475 -0.775729370384749 -1.4149396744041196 0.05214617359064877 0.2494499995096115 -0.6524015715429904 0.16511853720567982 1.1277228027856745 -1.049258368137544 -0.4433074094616428 0.4188336136586993 0.19361142096141026 -0.5816612747787004 0.33858393409958276 -0.05783896018711315 -0.02861963727193223 -0.08453613672599458 0.7357214387821824 -0.95339255148959 0.1795724382053835 0.21849441190648677 0.14209801855743653 0.285147509268715 -1.2966790376872936 0.21728643262911662 -0.3130716699212272 -0.3472013585668743 0.4089308375493754 -0.31905514405303 -0.414172972074617 -0.4480118545206917 
-4.906552858843306