-2.1664462703737417 -3.9181986258236137 0.03069573014174365 0.7011359878976222 -1.6921695243522308 4.729170873851555 3.6977523229292686 -2.011777733546327 0.20394231664610896 2.7380476032625323 1.306335523944013 0.730998185484121 -0.401928741670571 0.8135770779063134 2.326175784094416 -1.5422919254874203 0.27188215180521613 0.35541162081496447 1.4941493291485126 1.4382917961487776 0.28991525547102004 -0.9711899768447133 -0.6696647213761878 -0.9474095228204437 0.8466504168998563 0.7497590983915634 1.2616667721558121 -0.020702023496975475 -0.5151689581935815 1.2151911796295232 -2.057944865614549 -1.0316269218984289 0.6806947578586036 -0.04591700722504677 -1.2445255265695265 0.8691461952867339 -0.4318979501282526 -0.279866507329409 -0.7941585453161268 0.7088749504967122 -0.3490497577923084 0.6080149393463595 0.5873366368397152 -0.671727340862818 -0.47730828524736324 0.21116494039119793 -0.27222986194884213 0.902149846064559 0.8502856800700431 -0.1709845354727273 -0.3436225989002717 -0.01632542477778276 0.016182909267085654 -0.3352693458596244 0.04178858302117672 -0.11135043060888361 0.5251081098996659 -0.13965586366575666 -0.24138053741852686 -0.1354009081550937 -0.3596853899571244 -1.182562905375736 -0.6058720293417161 -0.9290156109123475 -0.47769209613540803 -1.0012878796467322 -0.20507343388617094 -0.14577283773616712 0.11183814729609853 -0.11306647810352147 -0.6416737129134342 -0.7989622042446479 -0.3504871148307197 -0.31285055423826214 -0.18214223636174864 
5.1348556305031465