4.271973844417537 -4.792400497692541 2.134515767384866 0.9053795048201001 -2.0977243915805026 -0.59904383424361 -0.49478139460984316 1.1892946971307712 -4.045790855914788 -0.01147722138960472 0.5707109316761841 1.3851756300956528 0.7331780059816544 -0.8359177728262429 1.5018407027044454 -0.975361740665238 0.11461080134772084 -0.9851522722054721 0.543817130717728 -0.029494833388338748 -0.22912376508797228 -0.08846438240478238 -0.19111134156661874 -0.8831534673513064 0.3119042489159098 0.05419834410028629 -0.01023032217835873 0.7170072471126248 -0.7244244619093069 0.18032884894244264 0.02937453197704243 0.5411760817498354 -0.7051799832794907 1.1286006470089218 -0.07869150413554887 0.5558534046053006 0.06995315880102349 -0.47839074729833797 0.5950393932070256 0.8146484293516869 -1.4595035925207833E-4 0.10545698761853613 -0.8784773973598146 -0.13828582517902188 0.24713138748578956 0.7574256053952065 0.2046043816265951 -0.03596154062296025 -0.7002675717171126 -0.49341612765120935 0.09477464812297992 0.011533283625040691 -0.2148906657317189 -0.23573375129258886 0.007571607818972509 0.4957601210988539 0.48520166662293585 -0.3668520953699867 -0.014560159700109168 0.2046896962278103 -0.3158370726963207 -0.05228980046757149 0.041513142305884654 -0.14429504748074282 -0.125329305029561 0.22772040640353447 -0.03999947722424471 -0.13936234740210404 -0.2791826302703872 0.5169135780322068 0.13709339223196793 -0.1096380336296236 0.1355090123597918 -0.026818854291397687 0.5457781741787893 
3.0875408036827903