3.225391673159141 -1.7718447710208416 -2.1573209899305343 -3.8444507590847756 -2.389343388157764 -5.459011671459498 2.800111186629997 1.400833899328368 0.5183408455283303 -2.3125643816883805 -0.44360665000598054 0.14296259228252062 -0.5681171614914664 0.5097015587453341 1.1271240992637175 -0.6778315836162415 0.6038727868867331 1.8941097528945494 0.28143840320373315 -0.4241847426836358 -0.7277618991794732 -0.010015475241393457 -0.1013935180889669 -0.6637500852816975 2.003530497019519 -0.42918151529651705 0.6270190187377096 -0.1040256313055864 1.3559009729994589 -0.035129788423744035 -0.23171584034040904 -1.4205603983167996 -1.6308289337069986 1.5711452918168343 0.9136121223507505 -1.1276366901110297 0.6821615961587304 -0.4040328324056115 -0.2713442760632838 0.04978569946282585 -0.18043380907485354 0.7511739125627972 1.1463235190878955 -0.9083499369234549 0.5967689714485463 1.0678950759612609 0.3888528082246542 1.1407575864617328 0.07435096294432524 0.39843457912512137 -0.0893826342978914 0.14662265994530266 -1.1533136785936973 -0.7930544731893732 -0.22879141774176948 -0.1377032595151243 1.111300132295437 0.0087820019782745 0.394826158271502 0.48152004228662826 -0.15044046546785944 0.19761799162110893 -0.20727838585171254 0.1601594000051083 1.1912388119387072 0.6431526568125798 -0.10178787713960935 -0.11913866647978943 -0.02920895428588255 0.0010633046595966977 1.129213322306109 0.07843439340027947 0.21286036701690714 0.36642694517922214 -0.09028105853974666 
0.9033133122088177