-1.1830523686148524 5.036329534967294 -3.3568321510892067 0.7492974357927626 2.572583628321709 6.286005997921072 -0.5296219062763594 0.19713316532242353 3.2938234006753975 -1.8143118333904162 0.7009351430592159 -2.475787555558887 -0.3571128567277333 0.2907456817958489 -0.8683871824846539 1.2632906407149653 -0.2270088914115096 2.0601593577444293 -5.943877505904523 1.6194460104531014 -0.13985487161084809 0.5901319572044093 0.1819048758872306 1.402665345112714 -1.3609815101117357 1.5020755306706222 0.7604043805936571 -0.2745610066717374 1.4471361765120365 -0.9289175769804638 0.4618291439607256 -2.126389035086055 -1.3369912071851575 -1.9347078103905566 -1.5134066233826229 -2.707270820740412 1.5795044285083009 -1.0861754885384753 -1.3932127464554864 -0.6424854723336819 0.34716269713193226 -0.36583576742310664 1.0965356244461604 1.7664909701966045 0.8209604672337594 -0.4708056571524053 -0.8447469234452347 0.4850116646834759 -0.36177400456085007 -0.1972624444779233 0.1798194809337662 -0.04907312128710495 0.08407559902620054 -1.2394244190397403 -0.9855334323730262 0.25274149346596575 -1.6262376136378878 0.06767222679626417 0.6393180338795754 -0.8502012037998706 1.730481920846903 1.018590279457342 0.2842978159039611 -0.03914626694807305 -0.22704485549102973 0.008316601012296837 -0.5269718531161232 -0.09675203660999687 -0.9059213214219191 0.34782709251039745 0.42749790419883216 0.06897869487439257 0.3461779967041628 -0.09716892049658354 -0.8825121362936962 
-5.917124334561404