-0.6738128231482934 -1.577304586097675 -0.6343739946601921 1.0759014323679534 -2.3490360798459164 0.17204818660814447 3.4422489565059182 0.865155659039675 -3.033626468960179 -1.8420512954314547 0.10312807117416067 0.7906250585223189 2.4381555465725926 0.11625140511931276 0.06196311902855556 1.6613779617930877 0.6592958270623335 0.3905563193792353 -0.8971345104376811 -0.28171365397935433 2.2572270965740078 0.1956092751590871 -0.1611925587063634 -0.893258652833818 0.33739235549665614 -0.14048981488870882 0.34952228284439607 0.044546502616478745 -0.46882591682620167 0.24037306842628997 0.32077748032552716 0.045875784293330724 -0.5551091674436985 0.837198142318499 -0.8208673045890589 0.09941471928792611 -0.09645531634487536 -0.2598239069756585 -0.01579528932317248 0.9019764768609259 0.17261253043521413 -0.16997691058228565 -0.18853078163088544 0.2646378269732309 -0.14854863369830648 0.1463594285521873 -0.3061455500893114 -0.2875431413956038 -0.505929419719129 -0.0184297478324163 0.7200818656842479 0.14176636034483814 -0.2594394607886853 -0.35002587564076415 0.05001427835261485 -0.32480008867214843 -0.5722104304572732 -0.5380323012295135 -0.1203989130047195 -0.8675593417372581 0.49751366166452915 -0.24572136653571014 0.20693061555225545 -0.196695624017445 -0.2388779121969006 -0.0488760136866426 -0.36733227541625 -0.26376988802420365 0.21502176388227667 -0.2287135005951283 0.15816996407755923 0.19840660214229483 0.06566719801362392 0.32813267983601 0.3764930145556145 
5.286090506250053