4.327523259909835 -5.256866826221092 -5.376373314665402 -0.7840322711015744 1.042254656696283 -2.008107988078897 0.4623031674938449 0.389438859149728 2.159860545677505 -0.22630944621737514 -0.5086620498720062 1.3106973138276876 0.989183361761436 -1.1976674636063425 0.20498168330212185 -2.0199429565475153 2.5839072746418243 -0.7578431428559818 -0.786669097433391 0.05483892386330702 0.7224681068816814 -0.755372610551619 -0.26779557061121806 0.3831642785585017 0.07049725771515103 -0.8693475656804995 0.31707443725413326 2.2154076686974644 0.14551158514670898 0.24625973060785764 0.36866536169706116 0.6086051411099792 0.6080922279514882 0.22365797454239056 -0.5513672169470716 0.727408608483204 -0.12834769988231134 1.3644115950243783 0.13867838304947944 -0.03707155855831701 -0.8228091486231254 -0.4401581985665086 0.4323067232414618 0.3512551194266205 0.20516311409587495 0.05803396995118559 0.4897670985065299 -0.005116460036526327 -0.187827459865211 -0.8253947403136964 -0.560991697888187 -0.5917344652213917 0.13794122267239917 0.24911176601273308 -0.02455273246189088 0.08213700537599677 -0.534378505663744 -0.42966748188771364 -0.2110773670917394 -0.3734898753660572 -0.7093952427799687 0.4284930519728092 0.4238609927039132 0.9010302445227398 0.29307495259456423 0.2070352673468896 0.2321198793453645 0.055760641228198515 -0.2910946837031362 0.17907313794072321 -0.2430117820267612 0.16104007463042525 0.6445473579573022 0.24080151704367858 0.3450320807137963 
-0.22165947085998838