6.744800112084366 -1.2582321263727891 0.43669402657499123 0.7676573390553956 -1.095346171181724 0.6934719234026505 -1.484195059771535 0.9169704675420208 0.8525708515511647 -1.7143379910914711 -0.09075586630053856 0.15101381572580763 -0.9345570088509274 -1.6240688738128901 -0.8344112337222418 -1.270450141041183 -1.5141085785295187 -0.06263176199526055 1.439259122874783 1.1697247535885609 -0.09020942083316097 -1.5540025478273378 -0.5928770709314429 -0.34520091880201664 0.09541936423277164 0.966603813362068 -1.0996147250048796 -1.3801698020175264 -0.6035419356015203 -0.07319602808083003 -0.07160881523523976 0.343750518454887 -0.3879717361721955 -0.13179212663666529 -0.24033928708447705 0.6198987984014024 1.005508376005237 0.77099674643782 0.784804048787379 -0.14066989309203848 1.0643903988401253 -0.19865488178458374 1.0406249233758258 -0.6876553600514111 0.44684613737184153 0.2765065437398171 -0.8855803062478168 0.14452442437015411 -0.4476890608692113 -0.49313152798039084 0.5326512067563487 -0.8446952625912414 0.7166273344726418 -0.21536602628771986 -0.7829212488341863 -0.16771426595762368 -0.10829029456787398 0.0016672916646922609 0.5362196999163322 -0.3184715356241389 -0.09650093318143105 0.12930894808908006 0.25874052357150945 1.0301620652130539 -0.19091319464135226 0.28388786262086857 -0.08699327007328062 0.12735209752890742 -0.06303676941545622 -0.4496028560394838 0.0029708869666338344 -0.3533998894540092 0.46827025701277214 0.0014690184858894284 0.16354210551280346 
-3.822455814285281