-3.925943775442261 4.135689260295314 5.021540112860375 0.23084002104765455 -0.8230773883147982 -2.2381389507344913 0.9769728646152496 1.9516104657300155 1.1403329425007298 -0.3684274927439286 0.8569630241245567 1.286544769966772 0.39711172781691906 0.42654041600622433 2.8545474792246823 -0.2087623358610622 0.20736659095535015 0.6039224945476827 -0.618242666542309 0.4479547174075983 0.29566414049407896 -0.5346516940714523 -0.5113272248394125 -0.06855581838369815 -0.43604774139248353 0.10095260265383868 -0.6983418121119646 0.19726509468819003 -1.3006950640700488 -0.08383424697317296 0.3824056006196613 -0.33893218408016723 -0.6200315448201068 -0.3487084408434241 0.06504804344513777 -0.5167121967207273 -0.24278983746540794 0.24737113292247473 -0.35533602127345676 0.4907129184046749 -0.7282093227240872 -0.18230992015261627 -0.11744298269981801 -0.13839905836425648 -0.4429407481337737 0.09921501139546685 -0.17561819042554272 0.026478648454234116 -0.48025763747848244 -0.5972479370389749 -0.03863509628573819 -0.6440881791235945 -0.7833619970065046 -0.13214118421221113 -0.2985517971482146 -0.36781814773000565 -0.24037283058616254 -0.17245098391210684 -0.38053401383804963 -0.23136604152286053 -0.30574897321525685 -0.1189572031998776 -0.26307040195839043 -0.16608860093318234 -0.09443519079219419 -0.209486603119093 -0.13315424216188354 0.23382653382947777 -0.23442107123955386 0.03190987931018318 -0.3009369031769242 -0.06270618262538752 -0.3203283424975406 0.020888722827056283 -0.13003899615695638 
1.547862984350286