1.2720861046758616 -6.882014454362867 0.09833620980209468 1.2545004710196663 1.2893856338706686 1.702900981183123 -1.7655992705424906 0.30530088472690464 -3.460519772282432 1.3109215252465527 3.954188287876467 1.182899067893373 3.1145148294765113 0.01996225155152495 -0.1258773328277617 0.7255197560195719 0.15529474290487455 -1.7949914639510183 0.4787418674729892 2.137722593065021 1.2874402363350803 1.0859539708309955 -0.707238448368265 0.06422803108868819 -0.022158602761812446 -0.6441214718751174 0.44489606570765294 -0.5285947173476064 -0.9258693099595878 0.76099772163231 0.40975391697109953 0.5506481002763544 0.6704103195170683 -0.4690202319486196 -0.08604533615656337 0.8023372890420015 -0.4980547311411324 0.5979518448716847 -0.4855832983784176 0.7862695324068807 -0.5207709840559986 -0.008907393594224565 -0.35416330844081567 0.5689805795071337 -0.19558103370524932 0.25641468500588915 -1.1687200269127676 -1.1436206815981753 -0.45263148141777687 0.5891502947190271 -0.2523861683341479 0.2676822001273182 -0.2129596840274644 -0.7545679139454448 0.2527908779190878 0.214932352297381 -0.16715598028586617 0.5630093989748137 -0.15791693189963213 -0.839301734197906 0.33309316965008157 -0.8836893880636225 0.7472452539512706 -0.7433073114908919 0.18686008259864004 -0.7866256601891636 -0.47542148154930763 -0.9297182821913452 -0.0800293052518168 0.12455901670789504 -0.39161899278264345 -0.2733510860746642 -0.9856483337754304 -0.13444826525799836 -0.25965027597751633 
5.0179909356463215