-0.18716828893404092 1.49458752117223 -3.631862477639401 1.7246623510855914 -4.346197873496882 -4.517244760356488 -0.04673991507354369 -1.232798057569028 -0.8249772313170753 -0.31056354694477484 -2.535818578979896 1.5639003588259848 -0.017875226291328206 0.09242971052234061 1.014401228587138 -0.08614721309339357 1.3589835840228446 1.2268416865898855 -0.707678786583905 -1.5705065403749188 0.6210828308244056 -0.06470341912925692 0.8023774776726343 -1.3018209105084613 1.4344426537592216 0.2151323060737574 -0.4105174047427212 -0.581957869345189 0.8064094893105306 -1.6115104297491782 0.4379161620091575 0.0920646202400113 -1.1015746007128333 1.4705309746842827 0.6445712262375815 -0.05338627873600671 0.11342580592693097 -0.5395654999631296 0.7694171025038524 -0.5288940459076152 1.192096282472833 -0.7158126502481896 1.3236156625102349 0.1825880284389662 0.40383955184188874 0.29418991765361585 -0.1799190666291015 1.376203431639305 0.0722596970832395 0.6458807973004617 0.38499333728633345 0.6990235350343597 -0.33886920432128265 -0.2891040866936504 -0.4104164362216898 0.7535445758360617 0.5752291105553865 0.9088466716899182 0.35301931985598906 0.27312708502429195 -0.22716592392479934 -0.1602229025147363 -0.36837522405066775 -0.24968792135843754 0.3396514420504462 0.8386888316505973 -0.5078376218652291 0.5774503567536395 0.45584934689776524 0.2201725256102998 0.2608240017565978 0.34003527404318357 0.4469557651213264 0.07359996808863789 0.7820583870331085 
0.853271686840644