2.533071436458826 -4.385485361972464 -0.6240006587631441 0.7647369802163357 1.0282679216589816 -2.3388478111203606 0.48032840957234946 -1.8906575867509616 -1.3738476908052633 1.1939342384346014 2.0676166671300873 -0.20011723457933872 -0.39494900001606437 3.4054263704698444 0.24780294647518608 -0.4865722307524566 0.5798110891105046 1.3192371294196497 -0.5930853364217807 -1.4194603972703075 1.0833871358625062 1.0398233955194267 -0.061591528418427854 -0.69509482364401 -1.0422069093250144 1.6560907820692425 -0.6412790739211245 -0.10507415968556755 -1.6455878449746912 -0.8290562911589618 0.560551101411946 -0.29845439385339845 0.22751930581424917 -1.5665333075219765 0.7162950818150079 -0.28230595129607905 0.4286680227134842 0.1198637326841474 0.8823422048350299 0.3349891743101152 -0.46241179958999906 0.2907176606254367 0.9030956643033802 0.3603409076863485 0.5508532846612477 0.19094858696122619 -0.29207883112715405 0.6822425755855962 -0.08737246523043493 -1.4504076103360777 0.8198741628146531 -0.7248010241303068 0.06518136678118674 -0.15383131250074147 -0.1257530162066447 0.7874923946679004 0.1847133591312677 0.4291476326715299 -0.10755511318210598 -0.3449565648237128 -0.35140058374294025 -0.5537402367164413 0.4412523518602468 -0.03777876088409049 0.0049223362455108055 -0.2572952217103033 -0.5219143222963089 -0.7500624166834767 -0.5215464470826836 -0.21038893481659124 0.013039546978012684 -0.1938131711782132 0.4194710489496324 0.15519402967903329 1.0530653889058792 
2.407313245478361