3.915955803925081 -3.744312218406783 -1.8173922953224442 0.9584218497257907 -1.5948750930635225 -2.9713457430308563 0.7884826693702851 -0.018707047557730616 -1.6048113851431447 -0.07413926743099158 -0.03602671284749295 0.45149000060963373 1.0359481967896973 -0.7323749409760599 1.176606128109805 1.0855030898312514 -1.1652019953657753 0.07405182884236122 0.8233119172823657 0.3036515695321878 1.0794005873748003 0.25616130562002876 0.04946982613457329 0.036631296751585996 0.25214785955634084 -0.4746669656032999 -0.38158966228245544 0.28268320449345863 0.26345609697663525 0.20960349861484545 -0.41880043994057925 -0.3329468171748791 -0.06498323025875752 -0.20511212160015696 0.23594344893024058 0.4141701970191217 0.36855491488831393 0.25271803127343906 -0.5521171317734397 0.26064592116923474 0.5899421732617125 0.37269043056991596 -0.18607304959457144 0.19249184188256646 -0.041740146259404975 0.10659035755191809 -0.2894400124089846 0.04299482204012814 0.4180362684598121 -0.6436971794122159 0.2840958908610165 -0.44792319682551923 0.18608137667205613 -0.3271047877003009 -0.14089128174056398 -0.0865027033394705 0.31005146818475593 0.013243360471146548 0.12843065517801083 0.05655205762514566 0.13588019871043455 -0.0028895716889763 0.3227207890698004 0.3263052326080522 0.08929966574797321 -0.025719083332219173 -0.11895004709253115 0.07941652320295121 -0.19118713724245195 -0.08314808681131985 0.10702313185426895 0.17801683401364804 -0.0990001156449958 -0.027689694811806193 0.38648684089732044 
1.8576282242704556