2.360990663112057 -3.6285994359919993 -2.0395945254736083 2.074437069922894 -0.6904752796130431 -1.045411764666044 2.480660367864068 0.9677644087754703 -1.4371820115916112 -0.06576633359471962 0.8289562964425605 -0.7444940266076461 0.09288975647565723 -0.40117073272432524 1.4980714894746483 0.7137327416329897 -0.49296462006070363 0.30763522057655224 0.224659204514564 0.12062499124575743 0.38579396430595514 0.5733452843319439 0.024444433991194114 0.06913932703328751 0.12741405330714617 -0.9591755981271484 -0.7194130194331796 0.4443839726408355 0.13525353546470803 0.23190595697415517 -0.36306666788578645 -0.07480683932820367 -0.020099286097122193 0.16049776612561129 0.44209689179382283 0.318214288210256 0.601435830214013 0.3016285496938942 -0.41807062423993796 0.6616998878724079 0.6454847952099886 -0.2201542109588001 -0.5803866100737672 -0.23723963120921468 -0.09390604444051054 5.445280970772792E-4 -0.6195245977704946 0.05057330788834388 0.32613980681154636 -0.28176316360006637 0.3007815957115224 -0.13312419620778046 0.039718677067929226 0.061824814954495474 -0.3976624225926095 0.0782034884100255 -0.02236080018770631 0.20961133882926858 0.03180220973219526 -0.30909882534213473 0.049072373900575034 -0.17469484432712956 -0.2831567174061972 -0.17315435126392728 -0.0870863515699062 -0.10266156475598964 -0.004154075790441858 -0.22368721302487926 -0.22834855771868373 -0.4748598113857182 -0.10274333265332464 0.06549694168793241 -0.2090250184217622 0.028868423645537267 0.02328485219323792 
2.6990996364547204