-5.190961135729876 2.7120110076473587 -1.2609195549455454 -2.699613562585667 4.567012689241533 -1.6589252114597333 0.08734306307607098 -0.9338374998260729 -1.277826615793177 1.9695480364145266 1.812085098296146 -0.4655488925703266 -2.2785859620884623 -2.56643309624272 2.0565873513832145 -0.9212111914735713 2.4593674488419257 0.09114626864039674 0.38883219992956286 0.3355308829930235 -0.9660295843969574 3.095221309978942 -1.7207400099901289 1.821112245374004 -0.6202353313711111 0.19552262052569028 1.229238775517487 -0.7022758441932008 -1.209983373482442 -1.1024101059507483 0.6251684469467825 1.2124384188934396 0.21137046109013424 1.6892977585330449 0.577801540597742 -0.4577115987847349 -1.3449604350140625 -0.3935995079345645 -0.7905848149452562 1.2922331556104558 1.6298440950364381 0.621707364684226 -0.2024828081078365 0.0904014512287884 -1.1931031322668184 -0.4405671472493786 -0.1609273925709548 -0.4584597536675071 -0.6204152782268271 -0.020243812498933034 0.9245636289502307 -0.5599255266654394 -0.24805321678241596 -0.37310790771000935 -0.5263638677268385 -1.1398519902759783 -0.1578566784236155 0.1860986474363942 0.4575994726112282 0.47806501593483547 0.16898978166053075 0.1379923459360904 -0.2415608917466758 -0.22636156986643777 -0.8435623911341761 0.2423070978985683 0.15012800085568473 0.35132829970368995 0.09485322863226131 0.2611710983165111 0.5040832408324694 0.4421073231857914 0.04114371400078695 0.2974543555251888 0.4665297517370348 
0.9523817700653547