6.231595857147948 -4.040794268525967 -4.684656470699755 -0.4356563634413705 1.554211889366996 3.9973552424203955 2.3266889543549585 0.34732389817631526 -0.7003146353015142 1.5696955746476615 -0.18766525995450656 0.9305166145821547 0.01243143316761594 0.4615612308164433 2.0668422249002627 -1.7873926350797644 0.5398042142579836 -1.4646905940211734 -0.07671068171110135 1.842987432151679 -0.2886949339132131 1.7985608154211343 -1.5788714149755716 -2.813126681552618 -0.877464285495503 -0.3545435730213252 0.2050167237815935 -2.4637014109923987 -0.7138373426360884 0.23647713726199826 0.7339421278810819 -2.6207491977427715 -3.8905511287827497 1.5346303770434935 -0.6893325866398176 1.7143200035233817 0.1499264095287946 0.40567742002747 0.8998053599917164 -0.7506162995640937 -0.04005940752997603 0.6158189406897548 -0.4215839869928084 1.2980848206977187 -0.11995375744264361 0.822460898052495 0.42603725016896365 0.8721065633363135 -0.04396632015008042 -0.984413742539848 -1.7305684480913768 0.6848090703891799 0.34006055129487195 -1.1436291960193645 -0.6376982434533891 0.4894274515662096 -0.2483506285611749 0.48254588020794964 -0.08160488741132582 1.4090560760968447 0.07092025942018139 1.000987401126399 -0.7226173541572654 -0.014064320098537364 0.07409943224484658 0.1567773340503512 0.12529167512553396 -0.5519835600876641 -0.43912354350383265 -0.31442557348071914 -1.0771245914818786 1.1021601292583814 0.773218177714707 -0.8905377288456681 -0.42215779799289527 
-1.6235591515467258