2.486947105509273 -1.8224497989468489 0.8153701827614297 -5.348818082228595 -3.471261833284589 -1.154932044282266 1.1523162741154227 -1.7222391862138753 -3.4124083380107155 1.5659260724341975 0.9458270368864586 -0.8949262083639034 3.9347664819918347 1.7560152928767057 2.5046579318003244 3.0155913503490126 1.1457604719746526 -0.4916062566995939 -0.5275371380181579 0.4694893134013335 -1.8904749481307692 1.4425031069444512 -1.5503519508533743 -2.0519449511926995 0.6141099803882827 -0.5837422341229483 0.8424245257680105 -0.5921257193915953 0.0425644204095621 0.3463478282668294 0.530175256046819 0.27268916615873184 -0.09419145638999549 -0.562942608452274 0.7398891475588627 0.906293113841164 -0.8015624713566574 0.4993552713287254 -0.44913841698699286 1.1022026339071889 -0.9333078223705933 0.10922635890599358 0.7240858553108767 -0.1828704413266492 -0.2333821920627015 0.13633041243549893 -1.4491016279674394 0.705336667295038 -0.08609530124287426 0.3149866137683902 -0.45922643259086104 0.25287091791320826 0.523181402234995 -0.2412556837042003 0.07368414722994665 0.34042850078597636 -0.6628761228692399 0.20886212204557825 0.41895427952911224 -0.09031303790749123 0.162890360344214 -0.9930136625033805 0.3927658922284738 0.07407487095670107 0.8706335955577414 0.2615286656350482 0.7719545067764094 -0.21117066009653712 -0.14762101186080345 0.2569963132387402 0.09672192401522939 -0.23913563449616015 -0.47486908696008767 -0.06270633472718679 0.06286332468558997 
2.263364019103916