5.435761813280045 -1.6713952358882302 -1.0308513710354754 2.6652539221671434 -2.1692742447727698 1.840370024491186 -0.6759376878794026 -2.040687825961259 2.8104924766629935 -3.5814232034352846 -2.190735633500096 -0.692057645539915 1.129964203486271 2.044814406210705 -0.5611114460395483 2.14213144438033 -0.9297661536325745 -2.4739226465703315 -0.13648227358796294 -1.1839906888636795 -0.4244208155521303 -1.2881405809509507 1.0767878698619315 0.3925696493154444 -2.2822853606271747 0.3515065657643606 0.7584916153277117 0.30902226750041983 0.9178756739936689 1.4933051557849448 -1.0335985660051288 -0.6860740536534542 1.1645905638939467 -0.2720448093775931 0.30419615901314306 0.27363460730971334 1.2980918124036513 -0.7648459419369283 0.7937197658919608 -0.8242715495403177 -0.3547116544784656 -1.3332313932366664 1.7708892154573588 -0.29222755576062687 0.08682091198333253 1.1779114138512616 -0.008339792505564658 0.8392852814106666 -0.5829052405579792 -0.16461173928210138 -0.5389996776073087 0.7152137363995408 0.33694796267417326 0.46770076216730294 0.18174636754644347 -0.10018078266691183 -0.2395959789565184 0.4039553242151567 -0.5991564786236895 0.19603020251611147 -0.8267201745244659 -0.08135210199789789 -0.15168165422046154 0.45736068277287967 0.2750411515759002 -0.8048958174897897 0.1952790191801348 -0.031136939314075573 0.1265711416036135 -0.10290098334205473 -0.30611139863168524 -0.29138653576522355 0.4817289809283678 -0.7007029276704657 -0.4908955900396961 
-3.3884424661576196