1.5966076546442096 -4.666244537809288 -2.874721607314841 2.6692845696528282 1.0548120395140375 1.9704367832573224 0.19006150639193375 0.44795466497989367 2.136731652130856 0.9224948872282775 -1.8276038016267537 0.6200554802539178 -0.19894669643510254 0.26383757643050515 1.731264519711762 -0.2771847026995292 0.12124477972081849 -0.09917651606159361 -0.1165460763972681 -0.08973166735814975 0.0949417151426295 -0.06691634934203827 -0.6738605819929895 0.019678555612704346 0.36699874331074533 0.17222944154118275 -1.0346659316958746 -0.406219864117887 0.23430042436438436 0.3290672293269763 -0.5556800872861477 0.13173946601940523 0.3876781211338105 -0.27680094133801814 -0.4333906826522822 -0.006352677174740862 -0.4570291310030803 -0.44628686938568185 -0.21362750553322768 0.7592837810671895 -0.6500480425579331 0.9252169571944726 1.1774228882104354 -0.205232818208554 -0.050635772147120006 0.007308753008102631 -0.5816441961604917 -0.021800261088287254 0.5110974635546668 0.008129505974118989 -0.17447283535103264 -0.07456549577924715 0.3251527131119265 -0.37400684201695444 0.3116547147547022 -0.14064696828277645 0.5633179076098065 0.2210179319597796 -0.17853030275715376 0.3263358564644985 -0.011317423455492602 -0.892794906298031 -0.3869013722749123 -0.7923097470660367 -0.4271396124561012 -0.41822498788459206 -0.21192910208725074 0.24634846403394817 0.20403529205099757 0.402375815114023 -0.3645645516967051 -0.264646524634104 -0.5301523274454679 -0.2472582338127095 0.2696906962085758 
1.089409194486872