2.730642057903645 -3.7629218350582065 -3.9800263896619144 1.3056491053149542 1.161995999798759 1.7569579779409037 0.2402317190336669 -3.1288145091109594 -1.5325075192076003 -0.7609945574433601 -1.3951029137844941 -1.2993972304870922 0.05032507378926204 0.07629874512358892 -1.7498089852301324 0.9218884955786922 0.17169602817312668 -0.552707306004596 0.4314213915621025 -1.252429659112144 -0.6184870166229657 0.13160721491891936 -0.3581492766893104 0.28427618185888537 -0.1999266280533979 0.4781004510274354 1.2155332708744544 0.1727207238886386 0.48237668045295234 0.742190677127765 -0.814214672880221 -0.03024068991944863 1.1244635462399484 0.3838341038438864 -0.1605216409035369 0.201821081555557 0.7959291225767333 -0.011606761142014088 0.5014519986140148 0.6169787477500185 0.20669037616015298 -0.39264258499144516 0.47758284746463814 0.5915516949536754 -0.11973450934512597 0.74851581881961 0.38185129579956584 -0.08278039757218678 -0.09855033557621914 0.27417267506685117 0.010870782551100022 0.30716777062076334 0.23987415090964795 -0.16953724246609714 0.00515293758862842 0.12837323543382353 0.26123166018762717 0.10797718725174782 0.17935013161436697 0.47841478280877714 0.1913181400631817 0.10085584085226076 0.2265178802752899 0.1753245505020235 0.2816790397762893 0.2577193800333132 -0.10021512260299063 0.2809807667527188 0.29768954108323686 -0.07052208123304418 0.22675768501632382 0.2318764601205923 0.052742551801942456 -0.0904837079787198 0.03169399462117259 
-0.2345882430582975