-5.604984018861353 -0.9022647741639105 6.52778040991087 0.5351858682195001 1.7730624948696088 -0.13448663009605766 -1.661633931574292 -2.166417426778641 0.4842755140911059 -2.199723635626932 1.8879824316929759 0.45204558015885565 1.556650585577095 0.8944568721434443 -1.441522557401604 0.17675693469598824 0.08219690937402113 -1.1112742227339176 -0.14854878473604227 1.551156864137468 -0.34915255299158243 0.4674445257532742 -1.966394398185344 1.1337473678446506 0.7222386817176139 -0.978247013872771 -1.0068678417181771 0.8850190432471902 0.984454835520264 -0.3009177323573349 -0.22585601371843222 0.08046112514161674 -1.6013575796174901 1.6195156792803393 0.9134222516658993 1.2667797009405668 -1.1798441460320852 -0.1312634108087658 0.6556931931996951 0.5878512200659247 -0.18297448063347926 -0.2324830620462397 -0.3191968821372071 0.5102756726540248 -0.10197963827374676 0.30467605880978166 -0.17807431638331067 0.5177549466238731 0.305126766024818 -1.1376137022578687 0.30499485005361016 -0.3401028761774615 0.3340453629376492 -0.5276070179777493 -0.8136606946194898 0.4676781959851269 0.17669685855307943 -0.7247100402234703 -0.7714581427898908 -0.2541893605258332 -0.011902598286856692 -0.40161825254503253 -0.17186309791893306 -0.2937189104090531 0.20891312204046675 -0.2091684897363046 -0.6781474159350896 0.6073097954374012 0.5459681395757332 0.21792005655701824 0.20477218058886998 -0.2503003314874736 0.9428281811503677 0.13541479940936907 -0.31102709400991035 
4.158519218369681