-1.324752506923966 -2.0998051262411197 -2.8995016624665357 4.449445587843419 -1.8644196148070646 -0.5328882747263617 1.7947099201088488 0.9152201086994638 -0.8006740436069673 -1.7842876789635984 0.8982527183188453 2.4546010101893456 2.2718329797496026 -0.6560274857755732 -1.0869262044980554 -0.8323881764048027 2.4574836362518324 1.4313005902494136 -0.8437891152297573 -0.6012770404457227 0.44566526378130167 0.5618708527320161 -1.1770690511520634 -0.4730343536314824 -1.1377257936734135 -0.1017798026272143 -0.33854957033620553 0.8980829314980328 1.0201688693805893 -0.0667764636193705 0.16972943038247087 -0.42896973511533704 0.5868657405991078 0.8680253223986582 -0.443309933012664 0.5255962831074978 -0.3463587403534205 1.561586566081843 -1.2657624276655064 0.36588954274467644 -0.15409004282332456 -0.43547752829393527 -0.4116570058796558 -0.3031200216659494 -0.2671797997586732 0.19771909735287507 0.0776447241108941 0.36462274643091197 -0.16246411390795365 -0.359356814812699 0.29928197240586724 -0.12621301681727426 0.138382728432154 -0.4123853276029982 0.2770086858972324 -0.19685322560517055 0.13574558489378627 0.1263921697735873 -0.5589854165923365 -0.05050105723269137 -0.5819412998103822 -0.2716779989133553 0.3670107971329439 -0.11777023936953226 0.03944799147707018 0.006974662395032499 0.013455788474297514 -0.2923355348079601 -0.10915004804373926 0.1826354362822254 0.21933765612858244 -0.19818588442498744 -0.4772737648813947 0.2697320487199712 0.20097149849579032 
4.8078956601772935