4.102646213594696 -3.7213805129704074 0.8278057584146392 -2.2818326723309 -0.02138429944299336 -0.3106055191810819 -0.6338237026615139 0.8108033313657574 -0.6275312981330661 0.8463731727105288 -0.6173489281009754 1.9943274986182309 0.18967735213891146 0.3457348504175526 1.0385285609072885 2.1592406357633176 -0.35904404426456304 0.36825346915024204 -0.2517091216366988 -0.5109636867270442 -0.011511608629689363 1.081311873756907 0.21606929717194961 0.25424582272694907 0.016624936683366065 -0.894153405946357 -0.2609284553992398 0.34892713109980855 -0.5285041971722776 -0.4184170791410204 -1.3038404828672117 -0.43538945870960555 -0.23596455786392267 -0.2517584584447139 0.43993369834192225 0.6435890126000272 0.3582480079594373 0.6469703993568103 -0.6074982966461047 -0.14807113835334373 0.9015649200678366 0.22832399767550066 -0.41276362314290393 0.28299523296397117 0.35950082921095944 0.13935771079019 -0.6026581388558678 -0.18712190878199722 -0.13541950898895655 -0.20210365569505345 -0.5331627174519487 -0.3664547256891864 -0.26874963570477534 -0.47916652554192984 0.020408305389540304 -0.022756867334536635 0.1793529240955608 -0.37322866456034925 -0.33041343282091795 0.1348399813088304 -0.42633951296070893 -0.28212227142622 -0.447247935416601 0.2077903182411618 0.03307194007823051 -0.1772000819104172 -0.4497028590960763 -0.05636646238536741 -0.052405551889149415 0.03695205868886697 0.6116057670503254 4.2328408777059234E-4 -0.02954668536767338 0.08614762503386564 0.3549457721824379 
0.8479135599966225