2.457291031976723 -5.534783616364571 -1.6185330753676608 -1.4282804987424895 -0.08920820939769314 -2.198032234899722 1.0009737118707642 0.4606619659059803 -2.500741096199783 -0.4208552674256185 2.4493018204696604 1.0642980309762398 1.9061445930887775 0.3438988321888389 1.1614242296392305 -0.1284875419820416 0.49359058966703295 0.44812878168363324 0.9543458994259562 0.6942157061858585 -0.08335346632426699 0.7451017953817107 -1.0280869245168318 -0.5507068806164462 1.1667934608825026 -1.0870935016965089 0.734117452948827 -0.44833774015507366 0.2813329405816624 0.6635435125939525 0.32216408494579296 -1.2512655271667166 -0.46900930932079543 0.7660246752936808 1.0497770533383186 -0.40714435057743015 0.4298208687370217 0.017079159795341803 -0.33885115038622565 0.29915857318577066 -0.3257154768000968 0.4516869142843576 0.7921173659847367 -0.21162646387066686 0.26526755168513183 0.7770668205106115 -0.5119015966705434 -0.24589520939354187 -0.090454602852059 0.22881396057693892 -0.7056749979902665 0.43609488782423145 -0.63890602407728 -0.9481821481493056 -0.23316366010783784 0.440702478617959 0.07412120421086066 0.477146451277804 0.4290517973914191 -0.39424989833151824 0.02530711008818637 -0.5574657685388803 0.11872873057345834 -0.4610595754090341 0.8328044573603455 0.0024484442665296813 0.1732129514725972 -0.47740233232746654 -0.238203832283084 0.017834915235290766 0.4388798228653201 -0.07229396713923536 -0.42924801848546745 0.35852093383537154 -0.124781605258307 
4.00860854876212