5.850407825976408 -2.727430597118662 2.0757070966397126 -1.0371404700216587 -2.1125485426521555 0.1345257129666262 3.355417387880209 0.994564161458888 -3.643017867195333 -4.076821581580505 1.3655161999090129 0.4358588382554114 1.876391432845886 0.18174895167518323 -0.1437018364539444 -0.7573923482301033 1.1500225762075287 0.06085302690881833 -2.3021694459154336 2.252871309696097 -0.1519735757110965 0.7945887718819611 -0.9709150200766412 0.8581646208150315 0.8401960706220737 -0.2596910424425272 0.4621676456026442 0.0904362961566414 0.3013078187036694 2.0273640821753087 -0.18136089149620516 -1.5401413011489908 -2.096643900099261 1.2532648983778627 -0.45660147409621943 -2.065748808116325 1.5487635050293214 -0.7654713536105582 -1.2123164934284183 0.9815658408225274 -0.09031723630861999 1.0298971060645357 0.46409501893352934 -0.3677465059092695 1.4328225468303466 0.4101436879777025 0.05131138529249024 0.1901956923157635 -1.1203721762595087 -0.36855802027512663 -0.4334550829620696 0.08016998901962136 -1.8856976732482553 -0.7354802948520485 -0.22963391475427075 0.518044422666602 -0.2734811961290562 0.5065046209101627 -0.21766066219885238 -0.8761301542525304 0.5977946042486302 -0.5060246853102666 -0.6670593648786385 -0.4712715558376104 0.29387858074420314 0.5622957591315336 0.12735474069143882 -0.45235900524934125 -0.6153760521264896 -0.3336108028552015 0.11141920392515026 -0.10217965896474324 0.6294382720022192 0.7382731602727934 -0.38784226986764236 
1.7854926162051994