-0.30854994108001144 -3.550386138938137 1.1922215224945893 3.106134673199568 -2.39885343398087 1.4744143793572175 3.434482050305487 1.3690522729292125 -2.1942511119295847 -1.412353334321897 0.8677141594785656 -1.6518382057833583 -0.8209583144420949 0.7717724101749763 1.485942813152658 0.22156401245118862 0.4733861545229572 0.46215890085240774 0.007938723743267095 0.15871306012005382 1.091523020479418 0.41640348134164507 -0.26625430130055217 -0.7132951026598946 0.36106028915471255 -0.9132926166102093 -0.23774632198267928 -0.44669020092669165 0.09649297665754453 -0.26698970819304874 0.34985113869294504 0.10666427317392202 -0.05147872624345318 0.3257987641889153 0.2536567204518223 -0.058891719852082636 0.3982930471571921 0.26498604106349744 -0.6691246417377072 1.1185125689722675 0.5898408212534647 -0.6637538511268528 -0.9912930871978793 -0.8570564398362644 0.08378997334503424 0.3331758027158125 -1.002227192489503 0.19230545591481035 0.405238122086735 -0.15200960217366621 0.4803812188647203 0.21904522116024913 -0.09776417390664488 0.04797989270182754 -0.30981030222359135 0.06863394180612703 -0.16967904795065863 0.37235395798038456 -0.12324579673640204 -0.1414784570442093 0.3642142785023119 -0.4125703908647585 0.024802174794142873 -0.12835361560827396 -0.42414177087498117 -0.4798241663787519 -0.24485433369270218 -0.1029029314841968 -0.0091133879232273 -0.546169537787899 0.15217408199503257 -0.08483438211238098 -0.48857955471324777 0.1289068391569585 0.1190366057147337 
5.934151757586516