-1.4069371300691653 -3.855110299424502 3.6775517928375385 0.34325411383506654 -3.0021109004451496 -4.831957933346138 0.7442636856131574 -1.1818213868826903 -2.4280783379248376 -2.6567105812015326 -0.6351220787021657 0.11500364805101304 0.9512841345430212 -0.5582778903711553 0.620699863719305 -0.7802782911461479 0.8997996460309141 0.5266552990167317 1.5597685585700563 1.2771409342054356 0.6941279543395789 0.5206707816824725 -1.9879871709768389 0.26824144639363146 1.1038098688408908 0.2985793673215246 -0.4878391951206249 -0.0877852835501065 0.5135797380578582 0.5460784919429963 0.4120739854958394 -0.803289133952161 0.05846960179038224 0.4975033892489843 -0.3805523588170432 1.0883686002525896 0.4886114488686361 0.18210271931548316 0.7980870220130375 0.9654544265439815 0.867039850099646 0.30929172052949405 0.02250522401202429 0.8099441419677704 1.0044704320686704 0.24382660970295192 -0.6806465908711746 -0.35077597925254517 0.2514850714747497 -0.6347866818243331 0.24922877120332815 0.3886941436394134 0.2235088638870234 -0.8491040747908672 -0.0015134220815122557 0.42632400684842703 0.3457119509056217 0.4075833398439561 -0.43013206123042413 -0.12649275278533514 0.29155305862471464 0.37394983679687704 0.535649242700905 -0.04425463207609576 -0.21509010582754567 0.48580249083777144 0.022667600900495598 0.06356387350407057 0.36303626680657725 -0.1516621299649158 0.5885491122723996 0.7646483617130551 0.026775314298633134 0.010811977216681146 0.34051462224960866 
7.2073642708664325