1.2321587013606594 5.5448218988249955 -1.7106420286314192 -2.787312364086008 0.26933585737345145 -2.8677039131662885 -0.30059811380486606 -0.30705971278911215 3.002349308707982 2.3123393675238337 0.8886022916722901 -1.1722714873988447 -2.6957552460356347 -1.3238988517187886 -2.4153261602069005 0.6347938354313883 0.1065799590747136 -0.5860032788915728 -0.9809108765973067 -0.9261011664562485 -1.740510495933201 -0.3042767184278806 -0.08826388811087026 1.833572095043198 1.17579868212794 0.5541536810342341 -0.9924887205658792 1.193370824381074 1.7472491418683747 0.6283802490159589 0.11253157033343449 1.4670628556119103 0.38163853853017626 0.1028944265347924 1.0034231374861629 0.10156556489203829 1.3825645399544109 -0.2685151838713622 0.7568809476185483 -1.4397765938155742 0.7119839193891607 1.29638460582435 1.4646027556067969 0.4110881299816266 -1.0866425977775032 -0.7718405171929646 0.09264345289422936 -1.2311794032905354 -1.6530754589174688 -0.5857154409417132 -0.760124861910252 -0.4386769348914052 0.24277262356278462 0.29301808630989473 -0.22898822415603343 0.26285955790388815 0.24178487489937933 -0.20030918231763378 0.34820457220735507 -0.3801980857566522 -1.668393215105837 -0.10797813926537043 -0.3597212568265555 0.5566072996618312 0.9279935373148449 0.6960138464303594 0.7712882937013799 -0.32058178282813216 -0.3287687349014108 0.2645339285296749 -0.8715758146731645 -0.2393821820114568 0.44427316135018 -0.6474391177073808 -0.670114368990118 
-7.242171886498471