-0.10733996314537819 -5.87640701286297 2.532603031306788 0.9255728949372215 -0.4595542559199224 2.8301627152377806 3.0600741813812338 -1.1382375422561704 -1.6362215594715526 1.4650292309337134 -0.4746758446986271 1.6451813587824806 -0.5964519418436396 1.141287035510403 1.0539604363550168 0.25022070642025085 0.5588042821590093 0.7822422134778682 0.2242679467383648 0.8564590943094962 1.5135542868991116 -1.1386248919397655 -0.21065991445645582 -0.6187636501035252 0.3822316417460794 0.569288318165869 0.15404213046984072 -0.9412200139731772 -0.47478974231332527 0.2416731819726347 -0.3622639041711605 -1.1108025901482739 0.1511658419448243 0.6624329946390595 -0.5190174849581286 0.29700161138900216 -0.7437950558318973 -0.31485090226801815 -1.59487174434962 1.144336661491765 -0.5277838601001603 0.29308388059631524 0.20930307267520398 -0.4243205807988224 0.14890346278363387 0.31802483293338635 -1.0439496809954338 0.5833584139445362 1.085295753533729 -0.09670241981180883 0.2170555019568967 0.6489440741170134 0.09804464579776451 -0.38639510986709635 0.22873063423725348 -0.46380471627826425 0.4674828068390091 -0.04755342052889444 -0.3419881299103603 0.47356048675529105 0.15995626394964396 -1.2977457465544202 -0.4967169687230859 -0.9326172970216144 -0.6055784161533424 -0.685002035980973 -0.46220597876550185 0.252694081199605 0.4278831944902156 -0.37535078932816435 -0.24822332236133193 -0.49929182125482746 -1.259706338754859 -0.16702854728707184 0.6266002931103511 
6.557451782983461