-1.5555412576829442 3.4039104271465632 -4.075149572265577 -0.7662511898998622 -5.8262143751089726 -2.958744183410735 1.4263213418871075 0.36096786215659016 0.2557417740506325 0.37417719976807967 -4.612747992666124 -0.6516855114315034 0.7196925146934863 1.083513612109725 0.8521290309031399 -0.07002546431893059 -1.6093300448185819 3.2108941620868907 -1.0467069407859704 -0.6842585207800798 0.10299090743862127 -1.8595439809001713 -0.011578775555081688 -2.127040982631798 2.647270036324139 0.9560776986749275 0.04350459851363406 0.4199461747371003 1.999036164082688 -2.0816257530688063 -0.24372913694846557 -1.0029549251273062 -0.9092934581415799 0.06142604599179946 0.31502658341035 0.16719165318906165 1.032141929587383 0.29605793845948286 0.5508061341494622 -0.05505200396713439 -0.39022673797127505 0.8327943751078258 1.2350804109052242 0.08818295023175027 0.30040062658312455 0.8730614112576365 1.4716851901771493 1.1074515115078434 0.5094545359287495 -0.057410559180753745 0.07147278006532631 0.07757383143125898 0.6508517081743233 -0.10889287618088567 -0.19342367152319756 0.4920016868351728 0.2929135255272106 -0.7242596729081171 0.7208859974033066 0.43555691206649816 0.06755687881394175 0.47140161122828594 0.34807022275645366 0.5955459513279594 0.6106278773007701 0.8986572856525337 0.22382724831152867 -0.3075159090960705 0.5075458859863653 0.028848630303009937 0.20296305754524008 -0.2725826869479301 0.34668284667908517 0.1458125705412131 0.31605487430822604 
-0.7229741478502838