-0.1877971354717134 -5.820045814916838 2.2143769067810957 3.0043211517450272 0.4002518845817147 -1.2587105195383643 1.3418161507437025 0.2705499022761826 -3.701360946514298 -2.3574955610326294 -0.06607018576590218 1.2634323094072373 2.4567955719005097 -0.6142685783554483 2.4008562928100194 -0.9678010725504184 0.3382594065873148 0.6818440844470202 0.5441467721344463 0.506180389388715 0.6023605879037273 0.42237041517047114 -0.12886566122636778 -0.9581337362413679 -0.1678487558626394 0.631412964415052 0.4349515790080907 0.0765386400861295 -1.191029149485351 0.31440866537431744 -0.4882843915701722 -1.189078185431748 0.41455821559017036 -0.021499007055256453 -0.7964722882423091 -0.2664248174686117 -1.3251171007448461 0.5895386480396068 0.01884975274106668 1.2427021507187739 -1.1399268150502753 -0.6209488316802652 -0.6788143621372832 0.5964561620481946 0.6011734569395321 0.9690150170920834 -0.2745177216997026 0.25709463282105716 0.31138751499785644 0.4160032877706445 0.3961296011796031 -0.18699009217815799 -0.36669263797831153 0.06821120143981996 0.17912708814899125 0.05448092950481599 -0.05741319559523835 0.3160210874504494 -0.36638414093968635 -0.17446683865181442 0.531627267211573 -0.15865409278743087 -0.05338587093733922 -0.43467227613908105 -0.3556534310104138 -0.04555808878726874 -0.8121825530040399 0.5606571866376497 0.476453628332782 0.06257133366579344 0.34907068081991804 0.16052521001151787 0.1055254895868904 0.7312383623786379 -0.08072772383759066 
7.391729278578737