0.9478507735539239 -1.5315871244558927 2.224326472976437 2.847988176402858 -6.819604497670036 0.12691251365321277 1.858304253030659 -1.3882066627924925 -1.4795456474854398 -1.418232572741151 1.4722656927966047 -2.4100076804027664 1.3115828187751855 0.36357324929088486 3.2559146699418253 -3.0783614394694014 -1.0381417490974743 0.4801200523210962 4.042367870706672 0.9798756492202505 0.8719456039025801 -0.06206620035190391 -1.2125260687425579 -2.2724038008870244 1.356327041883168 0.07050144597845563 2.271212946681808 -0.1434622421715967 0.7346489876133995 1.1565183303361357 -1.4630973380616694 -0.7781894351370425 -0.22802591109363668 -1.2815346903072748 -1.8506540433820433 0.8845712857648004 0.937786754576283 0.3865042708312546 0.3856130009128231 -0.03433245886849723 1.4090869150215863 0.7529055484776191 -0.08861294421350163 -0.5471777214341997 -0.549383225256129 0.30937086081863896 -0.19170094774098764 0.13852066404860613 0.5771193121774557 -1.3974002723691086 0.09738236383331361 -1.1723710660198894 0.16157363313873707 -1.1338398648767423 0.3924519588397825 0.11851106889259444 -0.07360687195272256 -0.13940356946530835 0.11917327383932717 -0.3577766949417741 0.4578549027217248 0.005008848955252582 0.8421531084459284 0.3419041922837302 0.1360717178198529 -0.478706798877719 -0.10873405323150491 0.005850713922465264 -0.0929652868601184 0.16059456085242174 0.23230842875518787 0.06632691433996926 0.41625826102625046 -0.9075027896598673 0.022022560656711543 
4.045244383440242