-2.528786539006007 -2.8341018118901715 3.118170237673959 -0.6481405784968279 2.3646351385529276 -6.102140261820487 -0.717935170387749 -0.7330129498694983 -1.3696753830070558 -1.916971292259701 -2.478098272773806 2.05702074019894 0.05294967558635533 -0.9005342548244248 -1.4739283083669024 1.83601181644689 1.6531833365968804 -0.04924095187516514 -1.1165315060898413 0.7226656578317923 0.4294213500062376 0.5847607246177658 -1.1322999799596154 1.3168904169465936 0.10782108955291386 0.25332744025978493 -2.4319721754639474 0.27410054562973196 0.14925873893182162 -0.1998075259858546 1.3635492375528275 -0.3204214923535721 -0.2645628577570769 1.2753415549810745 1.1825706092573482 0.36394679008303044 -0.35524559423201485 0.11594821440533143 0.2562739882690762 1.073514759136406 -0.13245911885949047 -0.007272458346626071 -0.04403588276722048 0.9679334600134708 1.0203429523794658 0.3439590515357047 -0.5280099296030812 -0.2694415359680675 -0.21297584176574735 0.48039756314228554 0.37876770673508064 1.0237260303748181 0.11051933390677396 0.01326200136068181 -0.14992564190670996 0.4663551235043593 0.3060022944605975 0.6828373409978794 -0.21635644092475795 -0.22109213862233096 0.28424065957636446 0.13393546608429316 0.15730698593707082 -0.006575360830600008 -0.44846229689128403 0.6531113053642486 -0.20232407164506358 0.2857697433577915 0.49001091709399097 -0.28371147012995546 0.4471993350213719 0.719715167770614 -0.34204610304416005 0.6799538621725819 0.4413868344176345 
4.907983410394744