-4.386482086447154 -7.478222448561578 4.424990493550676 -1.2393414518626 0.808380583499198 -2.823430171345212 -0.3464966298395096 -0.585166480747427 -4.320120392642776 0.13771309732262405 0.9982577729069879 1.691059718099762 -1.6962043593552054 -1.9770763804596263 3.4982864683994688 -0.9136510862705577 2.6972796854717176 -1.413637404893528 -0.060496340919208635 1.0993456468334333 -2.682073361393002 0.6973177769633128 -1.532914571248596 0.8505606164232831 -0.0318020932778067 0.4497958129208869 -2.748576038241069 2.0039564421344878 -0.5752541756229577 0.059699840735713244 1.7317978882272012 0.044367898841766396 -1.1832860343168856 2.047598058076203 -0.6513953734557411 1.9054519835541908 0.7589892634153135 -0.48651526033239534 1.2955327873121822 1.1863085052876143 0.37951568003581115 -0.09684045874779346 -0.6893850131895976 1.759203360318891 2.0638980388480586 1.0814607169668726 -0.34617882927713695 1.326809172742761 -0.5514755420575032 -1.0298267293573806 -0.3392702983256176 1.5531291179701365 -0.0670313494278082 -0.866628075756775 0.28335056744065396 1.6117656983296236 -0.3960291306371383 0.30199230714049385 -0.39552899256031165 -0.05682562163909034 0.8298448992173164 0.39310574226607825 -0.01237727893016527 -0.8168814474819386 0.45283840810891424 0.6773482355435657 0.12926851216246626 -0.8201620162568349 0.9172058752015267 -0.06314245718263622 0.7190838259063745 -0.02391765457105699 -0.4790013497333612 0.45322264360177433 0.8629112445876578 
9.890295136292107