-0.8146052360002951 -1.347700525100251 3.220475680449899 1.3600061186711225 -0.6832944850428868 -0.01775685069107702 4.929434659148916 -1.7217219040452298 1.681269974880741 2.45010885558099 4.122523106298073 -0.8098939357103463 -0.23102076701821717 3.757615104544964 0.6346033555212112 -2.60011504691583 -0.5636310953407464 -0.46684400931177317 1.034366816042469 -1.9187774295526594 -0.22156990705155977 1.358794453846881 -0.03878113570292985 -1.6689037610910287 0.11884475747020407 1.2489004466016533 1.307372173532244 0.14924453253845027 -2.13806420250062 -0.4927051546935182 -1.6401223230992084 -0.529193050852109 0.006162547012816599 -1.7141644604071882 -0.39920198157725173 -0.12507014746357759 0.9771695108589131 0.026997799763531338 0.4094425983711574 0.34684900177765354 0.04491010245290239 -0.20296131887810243 0.4309522590668392 -0.1727555678788043 -0.15223144658657495 -0.14611854893297282 -0.5037071875459471 0.4706007697249945 0.08656923180538106 -1.937288730676014 0.2746477085487353 -0.6313452627154469 -0.5157158758544715 -0.6895802644489741 0.36530314930995234 0.3252344286423082 -0.16289852714010855 -0.2194291387950571 -0.538241657863729 -0.3375744694151539 -0.5302283827329719 -0.29670420155537364 0.4258637876274671 -0.4110168539704644 -0.1678677373199022 -0.321935140836055 0.06222449351291237 -1.0668637267520116 -0.8775481950567853 -0.5078324933254637 0.004662024192983449 -0.7874643435292347 0.4489314961799233 -0.23994408638132114 -0.5196903766170147 
2.797365955314065