-4.675782261379556 3.1856822500700943 -3.5022872891455377 -2.191121698922025 0.04147466765545227 2.364114917276762 1.6890338759165386 -0.20364810379822795 -2.4370293572850286 3.098140042393884 1.0760006335816117 0.18060542922470368 -0.39832553555938505 -2.6135496871077124 0.4358002209957439 -1.8616304805617547 1.7345573861697288 -0.06832248740323399 -0.11946232138188206 0.8630112302278709 0.5757026604259827 2.415664253358047 -3.082628226134688 -0.011937066631526994 0.0919086661386489 0.18793644229334605 0.07490745457870751 -1.664939134383047 -0.8198271325784176 -1.568313416101513 -0.17351824538964705 -0.7408040503010176 0.016529283226229263 2.129600849029757 1.1302841910015287 -0.39303352108013534 -0.2774348713759621 0.30196466876956324 -0.1557055219900862 1.3347270338166348 0.003038388215022114 2.1307081947324606 0.4075481350409079 0.7762919519201019 -0.5433108266934098 -0.05449370865512826 1.0115232504376004 -0.3339616223561818 -0.5460012898189572 0.38608690500967485 -0.24638456914597284 -0.3751371526881686 0.007518363898178532 -0.24691823061840995 0.29505426692026093 -1.2880606354619857 -0.38491674442321355 -0.15575044812913486 1.007965245026788 0.591689749212155 -0.01822462208893466 0.2895374782864497 -0.0057403807970401455 -0.34984264490983347 -0.6263011238231445 0.33834418379559683 0.5283997443534069 -0.052728912347393575 -0.28264324155750353 -0.20522706677021937 0.04971411298874395 1.0776449296922563 -0.1814365648366267 0.04282768002387938 0.9848414579273771 
1.2883869479385783