-4.466618078403192 -4.660790196556487 2.4956777505070344 0.9905188929643463 1.3879803457265423 -1.6635055074662184 -0.2830997885391575 -1.1867373715275318 -1.9910719427505237 -2.9268147687478194 -0.897622062320033 1.5333506003021524 2.7883374520583404 -0.6100377493820153 1.5029706717448237 -0.9385410550041303 1.2289732231989952 0.6231156179888067 0.8774787512794315 1.7258691704115594 -0.00866651768895288 1.0948349042363068 -1.0853805006415969 -0.49111158835098223 -0.6741850056834208 0.0766776349049399 -0.17958749588002765 0.14468418311208076 -1.0990438868219456 -0.10492520990549145 -0.46329350840351124 -1.2703761023033997 0.19473211635403498 0.6144269646946419 -0.4727658557520714 0.402418563963834 -0.8504781093808064 -0.025341538816077147 0.7240668957137466 1.1587267000010537 0.0268747435015479 -0.641894521501646 -0.8519488933506183 0.9153044733274344 1.497791370279719 0.41096444139090105 -0.4717955830940264 0.29867802729790005 0.6020134777972772 0.5772790616768118 0.3119525208561874 0.6918270061985582 -0.17863845917518129 0.2001522135897707 -0.0684333650567523 0.43681949392023506 0.036404423632196425 0.5709211273335685 -0.5126969382347054 -0.22086592182013298 0.5429272234730925 0.11910125378820502 -0.0014771668945766647 -0.398300945177339 -0.5232881880798008 0.26849375086063754 -0.33420367433254855 0.12374117628879877 0.4977538169365991 -0.12165176512029749 0.8292250014712305 0.4658299940379036 0.03437820234465555 0.886079860437564 0.7658361625595138 
7.761748559677413