0.08565213844075048 0.6794408249871795 -4.783159014700691 -3.206848407144096 2.0939051612512998 -0.775115493506487 -4.032453827602476 0.663870324670794 0.8811453501984481 0.8736101581430745 1.770443312107834 -0.8900011979136505 0.7354384195597081 0.37833410562587133 0.3765398719000523 0.8148003234890027 0.057404956959440034 0.26905249927129804 0.06440134780784429 -0.2509406534782409 -0.6938010952159229 -0.4894566273146995 0.3774468157949392 -0.6632765122989495 0.631991848683844 1.137702533187161 0.18208755555971237 -0.507010569361206 -0.012890964302494201 0.7691159068618855 -0.25185431648558054 0.5241253074493059 -0.38097066561984716 0.4212709137437677 0.009000475821738699 0.054144408205850814 -0.03167237380215237 0.5360324752177226 -0.4881338948686673 -0.191084045340988 -0.06710661666946076 -0.6043076709161537 0.7723054578952876 0.053372443321186125 0.07684679146450496 0.2826012064313387 0.3455609588362497 0.20927642812419917 -0.08379467832285976 0.11401496489915064 0.023829945539587727 0.20776410086857522 0.14961063828639776 0.1446843684206425 -0.17893416503738258 0.05038567322541329 0.28424766118529154 0.28886404922451 -0.011736319574532042 0.41451248915573385 0.14538869470003044 0.031337648439204335 0.16792180403824059 0.15037687650710352 0.30410968353596896 0.03619643940779553 -0.2588458084705924 -0.026172573214159098 -0.4332690297542481 -0.00785295352244969 0.18793541317471368 0.24803877709818983 -0.059275818073166946 0.7440514873117468 -0.44022574351846105 
-3.1119826640941888