1.1261634562357923 2.770364510484141 -0.04728198958224006 3.8712196090523157 -1.117987105959374 -1.3017441492575772 1.7624651376223275 2.575804289561135 -1.6840218646802603 -3.829515608289736 1.233040620993728 -5.10999734065699 0.557027643113416 0.3190345741218156 1.9370684113721865 -0.8619467585414771 -0.0899445258267253 1.3661291721820963 -0.3553148761831255 -1.471896630684244 -1.4422090629083053 1.685081585009492 -0.35758197503561495 0.6967089112611287 -0.3809894042949127 -2.3505912588340068 -0.35756987608463053 -0.29275170176947796 0.3315624593086748 -1.215151285036992 0.3315361600733907 1.2269988279608013 -0.29125212139596357 0.04053196508299384 1.1116137047394326 -0.07053159023955047 1.6226030496282438 0.28039211279313037 0.5974323403449637 -0.06876803182318003 1.6250010951795195 -1.122227064559118 -1.1565420271280484 -0.873757309812013 0.3683758426142328 -0.480733959442907 -0.3664040176384249 -0.9377605238214052 -0.035688385225068286 0.2595998044571512 -0.25505486295329016 -0.056278592215958725 0.049444965002345076 0.2208241208419478 0.7957188503633804 0.6649957258244276 -1.0101851556183583 0.4784069600867997 -0.2962488447562108 -0.01919427816695396 0.3468756701502671 0.08546047401103296 0.12015537042835123 0.5592194824720069 0.06481957374653866 -0.3332385005792675 -0.21470309397603027 -0.3281523753055635 0.01108009129852483 -0.8256890653606166 -0.5037824025359599 -0.13377459594215174 0.39250402521727135 0.24262581592437626 -0.08142419643768059 
-1.1032863687801708