1.0887192751958636 -2.87733835525961 -5.526247942028038 -0.6340239627059763 -1.586024130634951 1.743879638673151 -2.557069838440608 -4.3674566030184385 -1.885799947462898 -0.5206523855271241 -0.3303883043171314 -1.919315551684793 -0.3919147099040128 2.673813022073174 1.565118034109266 0.9560815102741145 1.3801291104767226 1.6507266207434623 0.19934372865683314 -0.7187611961692502 0.8801664228217851 0.1413025797124594 -0.6669024909761769 1.0261827121312013 -2.1531693585528755 0.736486738668168 0.2711845169141327 0.31884690789859305 -0.04385496774547171 0.4934105601517966 -0.9348323789302183 -0.022441529776127882 1.4445359090418601 0.44360448137382047 0.5661005734160431 0.26016811830508635 0.7937661425343354 -0.3113040419375138 1.0829799399275917 1.0972903942652468 -0.8584180777203553 -0.2920420238584331 1.4481807832638949 0.3483858516799857 -0.28591863257695516 1.5372342817749742 0.9343341256309322 0.45837250896440696 -0.40853485697455716 -0.05055422753998906 0.1511564723319252 0.12694893457401304 0.105068361441368 -0.20999074978483656 0.2486728438474668 -0.5236228491344064 0.029061543978187887 0.7184493922823536 -0.23185134025707257 0.49615231480515865 0.20742684855156066 0.2895273527505963 -0.4094715013271637 1.2308393413021381 0.2022870794584542 0.014818726014051653 -0.09470603978684178 0.7096834074966446 0.22040694443886788 0.18973207777520998 0.3196621712575627 0.11579134062866614 0.5027374434079127 -0.8165599785233532 0.210400887534122 
0.4316114663809612