1.5451878516556405 -2.496668923963629 -0.9231749545794505 3.9423336122894543 1.9015018195411955 -0.3042374441050413 -4.826212033342822 1.9663934258452538 3.0981346981532383 -0.8414027318837745 -1.5493617498167653 -1.5453416972025327 0.04795848426862248 1.0120701930809233 2.2924976130855383 0.29143378202165615 -1.0294003037381847 -0.6290899011609179 0.1477647104584947 -1.9788633516040355 -1.155222272106207 0.008607742826503006 -0.38683772942342565 1.123667510438465 0.7629120838839892 -0.22015212636492532 -1.5280930322066988 0.6586339576535569 0.9631233585467801 -0.08477246890321516 0.21794305016185317 1.9408785682608007 1.0067710456219026 -0.9471420463088684 -0.7661563425491181 -1.075708181787419 0.3932549330696352 -0.6060550282807111 0.19770455134502934 -0.12692619970166819 0.09617890937367923 -0.0893609610732396 0.4056308001277338 -0.43523226637982315 -0.2264409672008234 0.04890292511235805 0.2024261058921607 0.03811772911081013 -0.28372867272356217 0.1841057105390731 0.44417382340306033 -0.2570996423197681 -0.17412471972776372 -0.33401839300994873 0.2628828024033367 0.05882998749563395 -0.15489834870057723 -0.10149578741553644 0.04569943000107274 -0.4967599767730208 0.3618125707301044 -0.4795351332775637 0.09327279355906071 -0.4658667315959225 -0.07044587921151546 -0.3387107199668835 0.3589760461566813 0.3700392070609081 -0.1211483699432565 0.7474817678428165 0.6275290041312522 -0.6288493471484726 -0.4688362111756879 0.4018033932931415 -0.11926535176867148 
-2.182558545599018