-3.8223306738139655 2.8162167596938135 -1.129205070804053 2.608006548088855 -2.02728841000061 1.5604885124840169 1.0153390716981492 -0.2221756296325315 0.13059248727967598 -0.3196175077912865 1.536088933392818 0.5817163661407423 0.7820263784609276 0.07997279910556626 -0.08832806574593544 -0.5515355756321358 0.3007672446850709 1.0559871054219174 0.3574860948183199 -0.11379705440587687 -0.5889097357425719 0.6943279625668026 -0.5920176691057728 -0.6649502026057887 -0.5517863760138738 0.09164363065031261 0.19444460863142893 0.47195024030175864 0.18574928757558995 0.29760209596117493 -0.8096274423446661 -0.12323561620526441 0.05919093212482601 -0.02729627131137974 -0.7234091152933022 0.2185013022951079 0.2121491774327615 0.4209708090512075 -0.2731423752725084 -0.2083243996426668 0.26573684133087105 -0.047432664903819394 -0.23320193087826324 -0.4500098709925545 -0.08819376409392826 -0.22447769902979908 0.18021707336523224 0.39971648241790936 0.01033553896103824 -0.19024886125696933 -0.006087085469850068 -0.17099204489394093 -0.12786274052870686 -0.38247749565741673 0.13475995525378182 -0.14425070694439474 0.0747328942453441 -0.10454609582836974 -0.11488998082889246 -0.06564080378454935 -0.1544659302621826 -0.3227448630490057 0.03281690113320723 -0.21937802661332428 -0.028265906792630288 -0.1812155580282403 -0.00629968929729896 -0.06607623108847288 -0.22404870420327044 0.019535561020511114 0.021359235926317444 -0.17333712256907366 -0.19670728844660293 -0.06327718845886365 0.012676613749560889 
1.3716116912472276