-1.487727244928272 0.356340722682023 -3.059643498348525 4.795539981140355 -1.0142722050931123 0.5124547004863708 -0.9188952350991153 1.19495966580761 1.2760096469983742 -0.9685791628839674 -0.22682867688474811 0.9420749485601874 0.9796556457844734 0.5984084144099426 0.09408949238591077 0.0372195873413082 0.13950034341013706 0.6561886227786825 -0.031094038199195984 -0.6882870334379907 -0.8278169953924426 1.2429943776729264 -1.015741488858649 -0.2797803536405811 0.07450286685254785 0.3633386053855337 -1.155601697325397 -0.04211562540077067 0.36554767188944126 0.36958102157736117 0.16504127548345057 0.2594125798521236 0.0879696133941664 0.05636958751111151 -0.6200341949354715 0.3546245343675917 0.17824902402506815 0.046385168158035145 -0.464730975114281 -0.09533947173178647 -0.23553560642321963 0.004168424708583057 -0.22310645448442368 -0.23682842061093373 -0.2904276196313809 -0.093241366721935 0.07166516577391088 -0.018024907046381322 -0.21643774650095948 -0.029328495864742996 0.0560836486954428 -0.12236742857009746 -0.038348178412354536 -0.19841418494949958 0.2802595780730667 -0.29694745982913145 0.07781740014036498 0.1792205962562439 -0.10351278884324389 -0.006304594218025664 -0.13728996761531853 0.023699834039873136 -0.05196982820522161 -0.35832189220517063 -0.022730206733503427 -0.19531801628149148 -0.08561190999725027 0.17277409834126822 -0.2600143389347311 0.3596724496775542 0.008935400315238956 -0.10740969844848178 -0.2448126868639354 -0.10038168513980383 0.18841868582925284 
0.6826202566133036