-2.341929687204308 2.045783072425163 3.4832196423841117 -2.5767960662049996 -1.4830553855378532 1.6595238831147912 1.99693639025348 -0.35524980693812247 -3.9058772824395414 0.28061252841203865 2.383344792498218 1.725394101955109 -0.4196167579716802 -1.0967888609899412 -1.4924026251484395 0.9813990864964425 0.902692766589469 1.1605111691096397 1.6049783867559806 0.9507897805979952 0.7616786474421622 -1.4726163686838463 0.061541211410753444 -0.8510430894683585 -0.3310010517611848 0.43465674763809226 1.3026618733767332 1.298049208011228 -0.042557174064023595 -0.7590163335695899 0.1167863462978194 -1.115457969652369 0.44934420418492177 0.3192806981748834 1.2548582760121136 0.09692960525631894 -0.16089483005239352 -0.18881075440703354 -0.7523649582373785 0.015736602526990717 0.05517819381363244 -0.7702080968441243 -0.8429931026100052 0.7119369006113405 -0.6362059137861111 0.29984223061335585 -1.2216871282791597 0.1541454418582973 0.288109737846987 -0.21161408354464686 0.17021063271604858 0.15575187516847527 -0.9670348587702662 -0.4779066144747986 0.018369103746431192 0.4062615863066331 -0.27449289788102443 -0.2905991737079004 -0.27986338415283263 -0.2129115612811932 -0.25781302393085387 0.13174350742274804 -0.27774187442727183 0.23754078886918142 -0.03414832916908897 -0.07053714249663978 -0.29109317991992534 -0.497320004295506 0.5228196394500499 -0.8706580118048217 -0.6377748799193325 0.17758883217911436 -0.12042911407041244 0.0663292875988884 -0.0940254014286242 
2.9412822780447345