-1.738744359096394 -0.5706583551952953 0.3278188781619429 2.8309602777065255 1.8837870087464879 -4.518602381548861 4.383869029374251 3.215800523388467 0.015511491786242004 0.39839602670100405 -0.8837909907381081 5.1597632269335865 4.798223620701714 -4.397723877321267 0.39371954325455527 1.4059294142000207 -2.2343862229245026 -4.1991022537015645 0.9074185075099268 1.6864856113941253 -1.7808808915186591 1.6451399719432092 -1.6622704512022963 -1.9136022690943442 3.9378885148163176 -1.0593766510176046 4.114232743371902 -0.42475890588311815 -0.16199054053264456 -0.7562015324097995 0.35947356062527125 -0.43808978303615487 -0.7674521776409327 -0.15974257758650778 0.9812376692688811 0.2220329075519737 0.11053437261542984 -0.15380462305114895 -1.429792523239271 -0.2977668961341875 0.7470671402052805 -0.5134612071758836 0.14258117934795744 0.1432474808807207 -1.0811685448434762 0.0870144891444764 -1.8150396805506275 -1.5595191803338024 -0.22733908653583002 0.41408800194799233 -1.6662589963701535 1.2531778022828384 0.7636878061328239 -0.7433929798786384 -0.46757379656601716 1.0555585988130185 -1.3653604585516457 -0.49287072433514906 1.1240565814622467 -0.026097667328296367 -0.4466488880162788 -1.4540483250220575 1.601490915409573 -1.6467559754781587 1.1876158259164082 0.29713582136571465 0.562834720460926 -1.2873644181649695 0.15038825480353535 -0.7474025141773278 -0.14914987491464282 -0.6964901610773706 -1.8010792011765737 0.6849573184314944 -1.2573648932872359 
3.6655459482638313