0.49730401412188385 3.102822897106506 4.088297092622488 -4.784026776092392 -2.4604371430917693 4.618117170047724 1.1406086377617584 0.6950117557003188 -1.0310398858178367 -0.11149746081590206 0.08073671548037253 -1.0450911743745035 1.2404946722963208 0.8522480311210635 0.6028142892930988 3.090796901433391 1.0459096544237705 -0.49904822113681857 1.6126587033062225 -0.3381598953626743 -1.5718787161118262 -0.2843182017089634 -1.218806207838995 -2.1858558659479552 -0.06266900909220108 -0.4134067605512391 -0.5841034271953749 0.28088382261616074 0.7940196197840206 -0.1817055864482816 -0.04676254188457546 0.13857284316829516 0.6262742158664029 -0.5443706326833904 0.9030138790989676 0.14605614720891547 -0.4907016221445557 -0.4462063776272278 -0.815572466472922 0.4511825224478345 -1.0522401205759266 -0.42336085539717816 -0.12752352352651175 0.7246118453787928 -1.1367006550623266 -0.3504271194430433 -1.8425647456675347 0.4353147785521133 -0.36470078730679123 -0.5120213416890385 0.3240684041070972 -0.023344323622245075 -0.9112188286469352 -0.36519680371562235 0.1138669803066637 0.2381086560318363 -0.4862838326611951 -0.1633128403342733 -0.34884100223032055 0.09510987840106311 -0.199817079482795 0.10476684401085651 -0.5504837721237247 -0.07040532201036709 0.3150333172049651 0.11622787724950767 0.11728111181223858 -0.23123766988643746 0.33393579580764793 -0.22197949657474164 -0.6827092824829131 0.29432321947063433 0.18828813816446072 0.03892368206443375 -0.2676567386285107 
-1.0697564328795415