-2.8799041794571973 5.6572634146007985 -0.24163906078622954 -2.789920570845771 -3.1849064015392754 0.6128913074442446 0.9257872858183838 2.9178628823285457 3.1757019528101145 -0.32000967196572705 1.1017795239405104 1.9821230140307593 0.6254339500258272 -0.6295089807353067 1.9838467790667498 -1.1489112760023406 0.3190872659910371 -0.4315866057609402 -0.08515232200592648 1.3986596284807336 0.8523133439780013 0.7846267005389725 -0.5740859346500783 -0.29343063625033555 -0.7852653751577109 0.3133981933132476 -0.8012192220135397 -0.9322271798282767 -1.1940241840034225 -0.4429422934716703 -0.11100995441790268 -1.0476911354650627 -1.2382952153178026 0.3680632044717773 1.0270507630708678 0.04983905259515181 -0.24810511508126643 -0.8453934727029365 0.17417918157912948 -0.01865507124802801 -1.0155260235152181 0.4246395527515026 0.41667996614289926 -0.3475800872081253 0.13970912968261984 -0.5577845404597307 0.5667116534940086 0.18575926163922685 -0.567236788563433 0.060162445841204226 -0.7718860518174019 -0.11349666083889759 -0.20212362924385535 0.17366138633603448 -0.14293712163871405 -0.6710815987649594 -0.08155733763895262 0.011540032339586226 -0.12724554545957192 -0.2925112411838673 -0.41182674132366553 0.2096826981744374 -0.16838148360360206 0.3131319961015577 0.44871366703669446 0.14136923592910633 -0.10606432827996665 -0.3085237254530863 -0.15533455146935993 -0.2208074920902978 -0.39860633457312483 0.5863912292227387 -0.3584867245499248 -0.7059573427113959 0.020779510317448346 
-1.2822272594260893