4.152655918295046 -2.589040257982754 2.3487164777161498 2.0986902682144146 -2.9255937513890973 0.3081641793250942 -0.2921728954497318 -1.8366004378249348 1.763825351801572 1.543189807417984 -0.07356077354923476 -0.31528197737354935 1.0122496585633791 -0.46613645728990477 -0.4500339455866377 0.7272303630842731 -0.9228233036842135 1.2020210744879036 -0.05997939970618055 0.10598158695730513 0.3309746883272089 -1.1507048587320434 -1.1191897100121218 -0.6753443900362959 0.2988578823026868 -0.2896012009295337 -0.23285903024090887 -0.7712972317416853 0.19455867815668737 -0.4736827230783046 -0.05302557849417158 -0.1039593697285019 -0.1686663230329078 -0.18866477518540253 -0.2085512483008357 -0.41172396727976884 0.35039289139702784 0.06266526331805566 -0.28110702430495493 -0.1375025826851063 -0.5477214176681852 0.20644570711183602 -0.12937342865418083 0.21725816411220358 0.291848000570063 0.09366336089267507 0.8111810132273178 -0.27498264983942133 0.006566703925661971 -0.20008743698716255 -0.2979108031096548 -0.12959254597042671 0.09822025125516279 0.08665439280245152 0.46302217602152573 0.4562830716496612 -0.2501655902323778 -0.24814167557034372 0.0898558056556272 0.023001779715514398 -0.007629455906706911 0.30058881613067295 -0.10683101256139921 -0.07737783729266268 0.23166940373118883 -0.2698468028952178 -0.07532059248414719 -0.5910264596576194 -0.06529181099548137 0.025033909538340754 -0.06741320380638124 -0.07781099965421157 -0.19861740991438814 0.039175164042118626 -0.12839746292807508 
-1.1405547908128153