3.4709532784991644 -2.705858201160152 1.2223669600774743 -3.627913314959849 1.175969682179296 -0.7684138153988846 0.2830215487796936 -0.09495526699803465 0.04584610400422627 -0.2659287089194654 0.49585611793773837 -0.800624992947573 -0.2060268709901558 0.2928720658209501 0.7841761072300258 -0.6734490254736891 -0.37862861386297825 -0.7899699486508606 0.21272898690843203 0.23973949158045715 0.1543123137989984 -0.5626188174490655 0.18731565428400726 0.46005895833948807 0.7706545455410833 -0.5324774901829368 0.3587683505222507 -0.37669250724708964 0.04077812567628403 0.32060114690022806 0.02570579035670293 -0.4862634507797013 -0.21288928600385337 -0.019680523076813634 0.47459264517954625 -0.4583061759802625 0.29917026885128745 -0.26301169506077865 0.273093803545603 0.09826359760200769 0.0620001047558144 0.4920032280416749 0.30679925398091595 0.08284134240658816 0.2379763858471631 0.13343815344798793 0.08295600691666861 -0.163675721567325 -0.11469462872893467 0.18244120465002125 -0.12858927696657185 -0.06880576696903377 -0.38790297480630015 0.1362249258281862 -0.12259685310019518 0.11052815597239625 0.04823873283910823 0.2780517494007319 -0.03883931676510887 -0.09313737208514475 0.12514167509547072 0.048437401280255955 -0.221423886263631 0.026965394136009915 0.04357453281756923 0.07658378632225621 0.12591317599497773 0.03043082081620745 0.08348821450480046 -0.07695921887901497 0.09775418582661664 -0.12169971480293479 0.24623286364547778 0.16084235062514798 -0.14367575269066135 
-0.8204747236350328