-4.6426939224890855 2.0724968930325103 0.07103507805486267 -1.0373753873775182 1.3977854268656864 -0.6888188700495657 0.24727559394822501 0.5463114311674756 -1.4845159943164585 -1.0127564403290195 -0.4329091124438882 0.2223857295124059 -0.08654393947285922 0.47108363829809236 0.14168250491080775 -0.3905739750224035 0.4421103796673371 -0.39572040090295824 -0.14577045213862438 0.28416422246931106 -0.0025350879945757743 0.3806759607489318 0.10543520717054687 0.13287125771788377 0.24658610470491743 0.06640983377311518 -0.4777635552684366 0.5284270319647157 -0.08086582475915985 0.25324369011849196 -0.14704848632658798 -0.161210985762511 0.07502016722602681 0.14255006781163654 0.019707102096873885 0.34171489817104184 0.18637977357477709 0.23575581977370252 0.37778420327296214 0.2498704029678736 0.0528821870618745 0.011621507561700543 0.04514787964026271 0.2831491794154803 0.1501683532647466 0.23528173744255254 -0.23119661277681544 0.2240080320623396 0.08589235560548351 0.07448263063512289 0.14580851349838408 0.28439091974434105 0.05152564000522333 -0.12276384366748279 -0.10225936410106076 0.004044435418774223 0.1400310955007023 0.17603722491694734 -0.05007418108825619 -0.1439330799909665 0.010052295028054107 -0.1487454117097783 0.06942259617452518 -0.018346813409614287 -0.10150474861698927 0.16753933251231384 -0.026481245988870507 0.30112414804760584 0.14799175148438795 -0.17521558835066173 0.1370986739626655 0.10278592885210591 -0.04081876261286664 0.04668495267078641 0.16250829744041623 
2.05044432508916