1.8193759283214739 -0.9836133904697615 -5.1430585027302875 3.3865791366804374 -1.8920730717035816 -2.0916062330199185 -0.3270058659977959 -1.452756148685081 -1.411555192516862 1.981751345223279 0.35016678176896476 2.0708572130568976 1.7434875311670515 -0.7748330056324373 1.5075047843028235 1.9253458777843546 0.36310950032337486 -1.0151855564650292 -0.25126938364123275 -0.8535950807432542 0.660205463664925 -0.012827556493507197 1.5191521321016968 0.8032286940108473 0.5701445259933269 -1.3620210151460574 -1.4620928830817934 -0.35796964565130046 -0.3361301935269654 -0.37740410150699405 -1.0247841334681906 -0.5290885832407966 0.042803861719936886 0.8488750820396237 0.7076275500261926 -0.06150281706756788 0.8708166873190246 -0.05931637622379726 -0.14413552129689028 -0.20715489431708 0.7654156899620161 -0.47349618074701416 0.15572610218942162 0.717755291670247 0.18853139195894564 -0.5992245199679709 -0.2062532534994393 0.7497064580980493 0.3505345885472446 -0.27430777127697886 0.28428590783365354 -0.1669545373843542 -0.3218820866864166 -0.33362636252229827 -0.32867678995970534 0.2928221886810005 0.1697341239369129 0.40028409658102837 -0.0028313162415401216 -0.042325549256376854 0.40341406538175734 -0.11103477817330659 -0.6568574888767355 -0.5787369834163526 0.02040176635721233 0.5996497830398426 -0.1833552940555766 0.1570330557250864 -0.48687671864186066 -0.27436758860373656 -0.4667490438445405 0.131416822559543 -0.20311701162528584 0.4372647965450771 0.8466442028344309 
0.31754593909873774