-2.027242877491027 3.3298793303232115 -4.186702553987454 -1.1366962467275887 -1.274710888762312 2.1261662500824055 -2.894893037582168 -0.1551283534125958 0.760231042376696 -2.3878317714397195 -1.435767274470161 -1.2523699148218783 0.7731134796409938 -1.450492942889391 0.31680914074093924 1.1038108343034425 8.761406345692002E-4 0.19058217994238108 0.7631979209584425 0.4066209756546426 -0.9387099191441011 -0.9114929803870022 -0.5199497952619279 1.1559475077703592 -0.34030742108694 -0.6023620194433685 0.7820672483541629 -0.06328278125614453 1.0277834418277938 0.8777967077988524 -0.613711699235014 0.18826133473834042 1.0351201454322312 0.6331799053307733 -0.05166791984618527 -0.17007118249293285 0.6474008716197588 -0.06556584200416901 0.16823382768341488 0.4535513717352818 0.19410687566982604 -0.22710398306891308 0.49992441341814065 0.3969722164181645 -0.39256191115947964 0.14759430263423873 0.9621994837234775 0.2083602395384338 -0.0669283600893978 0.9225832773170874 -0.5935701663770727 0.6169385343822416 0.5215119808234584 0.3223922152972197 -0.49265089319969374 -0.3800926857141128 0.1949572427251351 -0.019706144380282398 0.03293633778270823 0.601460020843662 0.029901151048651774 0.37596211134620117 -0.19794592048868762 0.5380147394116227 0.3177708837165482 -0.19524367883771737 0.18590367366772514 0.6049658590025875 0.42111948335388494 0.24891774362707425 -0.0191824567851398 0.45149793225714485 -0.05091795333689793 -0.4503507006415569 0.02859190086711566 
-3.044393002108365