-2.912767485706537 3.1099787455284726 -1.0340298417329932 0.5601271645584921 -0.4543613846566792 -1.9260789316207256 2.6029230831118277 -2.6930686573210396 -2.3029286012196444 -0.018854837158161386 2.202382323601463 -0.7837569215229709 0.14526529616929157 -1.019428464863743 -1.2432957899528851 -0.6450970400289842 -0.3479439942703576 0.23490721105289458 0.3756874356627862 1.2888408055148082 0.548167303826476 -1.4430791101553357 0.2919947762284188 0.40283092300673673 -0.03360516643518327 0.6052756311690154 0.7027338902388488 0.6207761985174547 -0.3600042268932263 0.22525258822433028 0.8031997360038062 -0.6155460097676941 -0.05400092754173125 0.47005454064072355 -0.010358693005039735 -0.04847457889295054 0.0437149783684892 -0.2934134542623962 -0.20470467004672172 0.05860633721887065 -0.43052695599353086 -0.5896111032073941 -0.24254540411339065 0.16012241888597223 -0.13651843156851878 0.0031356900489163397 0.20881408652929073 0.5104819366400992 0.3814478607791994 0.27512962227994664 0.6380689741012677 0.5463169368119625 0.06340535623818311 0.6614563280742364 -0.23761397388544675 -0.13545777314593016 0.037153753008917906 -0.07187734470743885 0.23444797657333427 -0.10022443617086566 -0.025543607339450408 0.30608681480091193 0.29849589833030565 0.10613661090259484 0.23410698868487617 0.038565486763466716 0.6425934244155653 -0.12384911907088014 0.2975237246498964 -0.3284891124125037 -0.48676624122917445 -0.061641088300422725 0.2753202483381185 0.1908276551327548 0.013106617566918721 
0.6376391617233726