3.6663485756099163 1.5188793261784204 -2.5479574324264536 -0.44199698823676903 1.8800030222969184 2.0446804106839522 -1.245646451358918 -0.72081149759316 3.1202545413754827 -1.4795292752113325 -0.30131763964121117 -1.3547415044295297 1.003051738014205 -0.653628164585711 -1.276809172264021 0.127634770778019 -1.2824244794448183 -0.4012845000432479 0.8704824865196469 0.14959437842705015 -1.7379069206624582 -1.8434497101035792 -0.21094748252632273 1.1010363062900133 -1.0851572434888617 1.1321718503538538 -0.1632694656980136 -0.7493402943967303 -1.2396038399804337 -0.2714929743856901 -1.1751582213333567 0.8926246648202462 0.3861617144259628 0.17598070062417803 -0.1713811245281023 0.44745475158011283 1.3597864756856084 -0.22652613350067585 0.8199127151088654 -0.3840307271963732 0.41320824366968373 -0.3088445629966886 1.6083980318916316 -0.2894908470709301 -0.8139834684593333 0.051575135250675586 0.16694736336508254 0.19028857728958304 -0.7162117669963848 0.2014395152591889 0.17566840259927796 -0.05294490223355314 0.2731008865168404 -0.5024797735421007 -0.7231942293514759 0.30835727950845926 -0.323108109290932 0.3413547987632492 0.05322554009472263 0.4061054877120026 -0.26932300943001247 0.1534559873754936 -0.30110905878509203 0.7857288312485339 -0.07506338509353333 0.16836091510826284 0.5227936381288056 -0.21163752453850446 -0.09428930782624606 -0.052101932289227465 -0.09699210432780936 -0.1121505208178738 0.26557105296173283 -0.46012874671899306 -0.4141736227112288 
-6.73035981994594