-1.1520363659067492 -4.729731303811427 1.9354907243619026 2.3727527148038896 -3.1245710681070085 2.589162918478716 0.6134419017529851 -3.3128865521981723 -2.9835610934275554 -0.6498544652534588 -0.740739741851184 -3.170940978648437 -0.4576816554074967 2.349007028517671 1.296648689076022 -1.768216814194348 1.4925018006884514 3.6451894906679883 -0.8990747425223891 -0.9560707899971148 3.34139196290936 0.3113225882789594 -0.1939293577256196 1.6019761678295426 -3.7965016784619725 0.5545877429224516 -1.8628300029749991 0.8329351771039311 -0.6935260859194201 -2.282856427273867 1.3555880019784219 -0.5401847176246206 1.65556780251919 -0.2716790560102187 0.2605981210675372 1.0474799751644053 0.1647283125087421 0.46856469805927037 2.1615932993585925 2.001089661599739 0.21823396226361436 1.935922592191901 -0.8124328885428203 1.0364874738780907 0.9970554994288465 0.2533315396243827 -0.803054067708415 1.1291559287468163 -0.061024571647404435 -0.26920766401689633 -1.4955274029237051 -0.6649510878801649 -0.10095988455604626 -0.35900154331153467 -0.06705813433838426 0.5188542927650363 0.9613833508977635 -0.8614269421010405 0.30244806102392763 -0.17144627473732324 -0.8954621410449544 0.09024169443720309 -0.874032572489124 -0.43513444929195566 -0.44482515197568634 -0.21499769818891368 0.06341191339923061 -0.16913698848939696 0.5493576042728584 1.0310801717628444 -0.33290555367457797 0.2916289733209332 -0.3383992184254019 -0.22122570502126715 1.7488710000198735 
6.167074638438936