0.5888543487865885 2.2504668594874815 2.346133535016148 -4.182523595338718 1.5730925405877647 2.391860148093243 -1.2925080934286224 1.6828628919871114 2.46797870559436 2.55618317228004 -0.3882200066430559 -2.9719692991917963 -0.3304883950060389 -0.5489654874360403 -1.6088111387064 -1.5737131504280162 -4.083229751281639 1.0089000326508946 -0.22592059673148956 0.9873674884792139 -1.7208623329033492 0.5708434115824929 -0.40492171684803313 0.7087631554542844 -1.6124156025930323 -0.9029242391363449 1.3105974169055248 1.2681040779378283 -0.13127871109744876 1.7409234294984144 0.9427670810915247 0.12332971567860329 -0.8920054006851359 -1.1528688785409718 0.10814421430875332 0.18346783475265616 -0.2038336945273681 -0.3352591707186073 -0.4920861031507613 -0.13790017386189668 -0.37252062856680085 0.20613177746885175 0.37706652728931583 -0.3992764609384656 -1.1258348646629988 0.5767684304490936 0.4454655384184868 -0.4594233483911747 0.27752269730968965 0.20872124520496083 -0.4986225574919042 -0.05691071033762023 0.6624621156274414 0.12853340785897122 0.3814596501922409 -0.05002400671073387 0.8462124131692896 -0.24856057266513037 -0.12426512483153927 -0.7125801947985928 -0.058996829386445904 0.1463655325945855 -0.20669703496544978 1.2055121426500452 -0.06743823481505051 0.07588814595682031 1.0356745960689646 -0.7161295809409456 -0.30396650486769766 0.2490523440180999 0.6354828975378268 -0.09546564054717133 -0.2893541635404051 -0.4820950486289055 -0.8080924766458446 
-4.882302108779759