0.5309590748940352 -0.40759086607408346 -4.481580538072764 1.388102631580772 2.072560516338154 1.9547785425230548 -1.8047036158571501 0.08933166016856237 4.205896144625802 -0.2152717019886876 -0.815687098345569 -0.8980687101381855 -0.4375650748426653 1.748082327053499 0.8332361529210774 -0.27562778717682124 -0.6690718993946945 -0.16799845013583792 -0.5434633573168585 -0.4388988243832399 -0.9035191343107507 0.6473919449245953 -0.6784284210926174 0.4945566652091996 0.482766629442827 0.1473466916948825 -1.1253195706046397 -0.623283251247546 0.5009212528192757 0.24064087056432928 0.4359482867226909 0.09583539322994199 -0.050585253762422844 -0.8589598830321483 -0.19564443712286547 -0.19698069782800964 0.6129058081241863 -0.2435440856769493 -0.2011179926318037 -0.8423245231008859 -0.25352004437066267 0.03853013092337798 0.40867486311947193 0.2886703771510498 -0.5663166883600892 -0.1570700182984036 0.05937690332168774 -0.17417038786647077 0.03914640841771233 0.23677574124834627 -0.2355986606531767 -0.09493926588995144 -0.021178483833081935 0.25887727552216144 0.048087193752851365 -0.08768508802027486 -0.325906053659142 0.5249958417437768 0.07220469435672582 0.07126371196041265 0.33089644916499256 0.5073800006392901 -0.30517912448237744 -0.12768068635268354 0.22707856336629306 -0.17799778969292981 0.04007807654737516 0.22739997002507029 -0.09886366497466664 0.47546111243864214 0.012155317610704514 -0.011468354891877058 -0.2630632636278056 -0.16465150713827126 -0.20778896789778456 
-3.5007305221624803