-1.786383641713849 4.479257329652279 4.3889215124829555 1.3142473058705386 -2.98369585318261 -1.4145577245478027 1.8781958793331692 2.1549762883750816 1.2436312462231447 -0.71530917748568 0.004031655292392078 2.305358903837898 0.04089853997602544 0.4104074902275856 2.227582292782466 -0.3280697730598562 -0.009866730225139286 -0.3194903994050777 -0.38034804644385467 1.8758241891516299 0.6555604780756656 0.06544734443307615 -0.606631371997313 0.20322409642073003 -0.593746972146959 -1.3290866325776636 -0.4777882001298821 0.41911874938780613 -0.5951424653532394 -0.6295803687581768 0.41591299469679543 -0.27661260470040255 -0.693160587833426 -0.4984928258142691 -0.2911535367973601 -1.0092126024889339 0.029900885485802775 -1.5227867887982147 -0.07283219690866173 -0.6868254820165592 -0.3770789435124776 0.18785572316974292 -0.01695653529233654 -0.8328682283088437 -0.4003739373031554 -0.4868215806854669 -0.20233193525753562 -0.3768329281333843 0.11308594857134446 -0.2879667358727969 0.43677794071109155 -0.07526251778177467 0.009813331902579742 0.47424221715212156 -0.6502771788340935 -0.37500229179319794 -0.8033542526389035 -0.14237217177235081 -0.38976768213317714 -0.5748336349193324 -0.27605607860248166 -0.25868433255091894 -0.030867212088885237 0.012015139157908639 0.06178927220192054 -0.3321102314772647 0.35427919278464615 -0.029309836726491803 -0.04228709607981812 -0.12975446612406943 0.05464897708056627 -0.14713163077855781 -0.25913430145629274 -1.1393813072674632 0.04058610533903714 
0.3913943975570975