1.1173296276261206 -3.5370775672560777 -0.38978182591534694 1.5794716657718681 -0.4669299113759684 -0.8893481800122538 2.9007398602797982 0.9232230746516786 -1.6156366697876345 -1.9569111398253767 0.626094344942727 -0.2847536610131236 -0.677028559707642 0.2993274179855114 1.258240362663371 0.43708345733694504 0.8341110602562674 0.2468183281772608 0.21413157471069 0.36757286154229823 0.6540844613823045 0.4803164748953699 -0.46288780129115303 -0.5866052770112393 0.3503938172984601 0.016335984488719105 -0.2227549647921313 -0.2100789168178887 0.43294592068303234 -0.31786342773063325 -0.22794781371305006 0.3648443906684794 0.2770069523977759 0.46741994994613983 -0.09515663557039664 0.28836422807977974 0.35445130626019467 0.35475991200211054 -0.0976743529783207 0.7430082765088405 0.05363668761575702 -0.19986855922469612 -0.8348688231781852 -0.3109026545881989 0.15751492341205411 -0.11181055956251074 -0.6445991834892918 -0.2045471578464121 0.23631039943514281 -0.2775517677641215 0.3963476547640873 -0.0026301610187238617 -0.0013724671265636923 0.026052624731467244 -0.1613549522095067 0.1934184216154832 -0.3113429713036678 0.17356745853683275 0.07939495499186179 -0.15683536827388167 -0.12321933569123972 -0.08814009859567887 0.0501531931351511 -0.1634914299837819 -0.09502673876392205 -0.338698066293133 -0.15786783766237059 0.040524543107313106 0.06763420996508968 -0.3638196630727044 -0.028078937150579547 -0.03831928799721296 -0.20786448904148944 -0.09659332076139177 -0.10538984646849128 
3.991538625677782