-2.386370520782517 4.3599648666700555 1.6733255706166643 1.5737084785726219 -2.860126274634003 -2.8688294140787565 1.8216453343816337 3.6081521007741904 0.05349046296927984 0.4964495837259042 0.555299662284287 2.1802140029447727 0.9866917733240477 1.8727134513821393 2.7296497341207955 -0.9455506414211334 0.11241429076495824 0.049378801204522316 -0.7827275269244623 0.8126316381957406 0.31210428946401225 -0.8352816121509455 -1.0209390887526018 1.133177766638645 -1.3375483899832012 0.3243341256304833 -0.13637797153060266 -0.06283506080184237 -0.7157835052254125 -1.045535002137246 -0.3117683224974407 0.1229368767353595 -0.47043337117409395 -0.49897174714523085 -0.07678455568511555 0.08671246527496124 -1.0452870467637414 -0.7574299296464944 0.4021961380929109 0.539028783868351 -1.0549686703338508 -0.4090856647611354 -0.5481593929231606 -0.7104736444518505 -0.516502907521476 -0.10364166463080937 -0.09822608379166992 -0.7910067795397848 -0.38647752166418076 0.09945534056000316 -0.1235649133137276 -0.34030301873258245 -0.1454411696830094 0.3269169031277149 -0.4687727310574256 -0.0022367003264341517 -0.4701566542025486 0.47478879023725656 -0.41907611100258624 -0.6419560739523038 -0.2530508534322073 -0.22264381409509704 -0.511070286039858 -0.20842932897465272 -0.18841323282505656 -0.014693949506649595 0.19232691926362133 0.02737862664851016 0.12536726445404672 -0.4027034368777742 0.1719189900232404 0.2988228114230092 0.03570969517157957 -0.05514213794399886 -0.3141288156266147 
1.0867685092829964