6.530089228280374 -3.0217740065418344 2.145421599651261 1.781866861504629 -2.4939161071303984 3.380192874818537 -0.5458172837498938 0.4138839020814006 -4.393795826033687 -1.9964720421877584 -0.7029305593693511 -0.467520362992766 -0.7445354639179718 -1.6908423081034025 1.3608542686948504 -0.9729782363318192 1.2878900571385419 -2.2383090547660824 -3.1108439421854244 2.1206057061716 -0.4233420633122049 1.2276042613180913 -0.17365034270889756 0.9840513443489514 0.7770593396124613 1.657234593052981 0.491508158056834 0.8019733316087232 -0.6938336052732949 1.18638635852177 0.7565042249601581 0.603756003403366 -2.73119231266059 0.9847080956701632 -1.5393049309734776 -0.8313916714459634 1.5341565625496059 -1.7779635553847466 -0.051431794810884515 1.1488406035029246 0.34810038217924677 -0.3528490265744747 0.04768939966145047 0.6954172398750886 0.1862103365142237 0.7946928309670964 0.7785035546143582 1.781769567720159 -0.3484711823058076 -1.5460236776935303 -0.8888096439476372 0.22848780435265148 0.11536259735670722 -1.1608932030859878 -0.2213549566529677 1.0086308789811138 -0.9066257149017847 0.06524092766655681 -0.15806020774320698 -0.19047747031416656 0.07320733566595225 0.12090517351436962 0.2334722232106256 -0.6973560995999178 0.4514155453233248 -0.7418251649930864 0.025322402062843974 -0.8071126319535811 0.2488078152451339 0.5969666049851905 0.0420494973622971 0.01945119559869607 -0.03457868305139059 -0.18591427813260109 -0.19409327697371714 
-0.055190221815085094