-1.6305808462748566 -1.3890456475895014 2.173611603480173 6.548026843225906 -3.2611782520527033 0.501420644528769 -0.7285664778030618 -2.4475364108676234 -4.717938872996739 -0.5966051235285598 -0.24105300854970269 1.9250206203368245 1.790112183643422 1.8269599622936916 0.963620332083285 0.42558933183911174 1.6052284456924397 0.19349714224169956 -0.32745487818387553 -2.1224352765109966 2.356399598627549 -0.47141729611761485 0.8643998444082244 -1.4675463984337178 0.7012428238405 -0.8764345966456166 -1.1354017363043278 -3.202840946039144 -0.19427340431770748 -1.380211197270858 0.9420690403303399 -0.2748273108597169 -1.343348847161946 1.735164496964622 0.3611690516260382 -1.2059300684297942 0.3627664913217987 -0.1532964449314853 -0.15974406454751397 -0.13568645321115191 1.9120763276244892 -1.911803220785388 0.14106627472526156 0.7575723987576245 0.5839954420146016 -0.3918438937587445 -1.321079359147956 1.0966580822232501 0.24126484917225272 0.9800396062846937 0.8540495521450242 1.9653328480018393 -1.2824279594031038 -0.7780870012204704 -0.11196781295059233 0.4465294047561835 0.0016360667321514422 1.3110681115173857 -0.5646802707782622 0.3948099014150225 0.5960832215221188 -0.796565332976372 -1.0274916281956403 -1.055592716594616 -0.13923049074532534 0.5835349237598136 -0.9126328681605933 0.7427267392005846 0.3689611284199843 -0.012872471913818573 0.2672570687032897 0.3603293918941826 -0.8884889934231857 0.4228968108914912 1.3539309724367163 
5.759177827200424