1.7930824196111423 -3.235666959065572 2.3936279727658363 1.0075794306512007 -3.058425916631295 -2.874516706296413 1.0971245407590366 0.5515817678125603 -3.054067038921632 -1.5709092506444888 -0.3339642179868745 0.5888587329937098 0.3113466955581732 -0.35958647142272115 0.6354557734139652 0.056466983609395616 0.05321841296329133 0.4874474948154195 1.360679764866243 -0.16482811120570107 1.5271489049722127 0.0922355565386368 -1.0432397144406944 -0.2946768722654125 0.44034008279614545 0.19184816234826507 0.4801933817261091 -0.18017695490565244 0.5260458738578205 0.3402067526779319 0.41175260841762973 -0.1858584288276307 0.3608158087323525 -0.384123126096221 -0.339827338262393 0.22110596261277227 -0.06571414211110133 0.34542964702612755 -0.11584578456870065 0.6536172402653744 0.34746952074665394 0.34602172125775627 -0.08330519051124496 0.09111949561533583 0.0495703799197833 0.27000780636635735 -0.3076412889663631 0.11757847185732043 0.29343068145204554 -0.42879640356573656 0.2820766632439138 -0.6756066675174284 0.32232986751544646 -0.41359121027325385 0.20883796037054697 -0.10492805343579692 0.16698924769816392 0.2551267068219738 9.470390618563362E-4 -0.4107161356639329 0.24337405383083843 -0.10558636910731106 0.438375880324529 0.21457039733514324 0.07357581138463508 -0.054355538647951784 -0.258149208327951 0.16805997911892545 0.15067193191146044 0.09983205490810648 0.26774972595622376 0.21962970521059233 -0.0481234805895471 -0.21612311442169152 -0.1862053790182745 
4.683056000318514