-6.2406891752324 1.6076008943073434 -0.5594646112160595 1.2111847969984806 1.5649032492071036 3.3882612258599103 6.103090095862256 -1.4762421203040086 0.08493809185052248 1.0740255563166696 -2.3786931417414166 4.745171447500472 -0.3186800666852231 -2.519334909824396 1.4153097983885894 -1.187455449114866 1.7562231593821216 -0.2835531111639749 -0.05558893719627256 -1.2424032536047018 3.220782997324286 2.1468580584369787 -1.2931340746738953 2.06726622980794 1.0708302414662112 -2.6653944311886364 0.5426185936431396 -0.6384171541235022 -1.264466292839747 2.4016164229002217 0.6612278221029027 -0.7211627077521328 -0.19412842706581412 -0.8024044701878336 -1.52521347211411 -0.9585108972758718 0.4194785447818277 -1.5796343181357422 -0.05878769092310154 -0.042433118142521487 -0.6349712041881758 0.2938482195805904 -2.180951389234041 -1.6146147607780492 0.016481547467471658 0.6826313202092262 -1.5673667835973264 0.35071551091227043 -0.8632709612802754 2.495644634836758E-7 2.8615335730194253 0.6304643342487315 1.2911882592766921 -0.34858266862482645 -1.0756029469137864 1.5949650264729385 -0.17218288016205008 -1.3215411247526914 -1.6774994142634865 -0.7473531124588815 0.3820166928533943 -0.8666385993675384 -0.15207621141678818 0.754409547551625 0.44923410373578715 -1.142537121583243 -0.16884991405563465 0.9650410267278098 0.23551373296361156 -0.8771690933290007 0.15084130018357494 -0.6629280851518242 -0.537650413785129 -1.3795865758675334 -0.1431065795880269 
4.692585103028969