3.9610286593866952 -5.819022203509693 -4.041396973711938 -1.7174606709852789 2.5931259068612196 0.8824897921688701 0.5296785378749442 -0.5786730955118556 1.4546271604437466 -0.8396265216621963 -0.6690798027064948 0.4373769838515562 2.1190276912018264 -0.2070302962172641 0.0012901778395955077 -1.5142407023788234 1.1226593889339174 -0.2707014482944101 -1.166440821984288 0.595248215139363 -0.2202297348092701 -1.2493445417289142 -0.07116089441913531 1.1453643383019698 -0.004104580778379052 -0.7586369845729721 0.08954168457153713 0.5167289709324902 0.9124039346629945 -0.5582749615955723 0.6190564340740257 -0.1740045737579415 0.23667676162685325 0.23374769646549276 0.15455906955052365 -0.17907258367876677 0.35330971467138345 0.5203212808606867 -0.4851700055332345 0.05995167347166497 -0.02278296076159292 0.402686739368229 0.5694529971099582 0.06533339161991547 -0.18917101615628507 -0.4110644616450161 0.2727108764965036 0.5822985051439951 -0.4339995083806009 -0.9446134348681321 0.036518790568729975 0.1613388082872967 0.06709204151461362 0.19014268192183648 0.20759732006334064 -0.25759385814871005 -0.2006457964775744 0.13857633951748705 0.17430325908339234 0.0735016809433463 -0.11036944591795467 0.29195686949542643 0.006624036486233442 0.7020029070151027 -0.060569660837423434 0.20492523765152512 0.11308451342311937 0.016073284527179987 0.25666040733214324 0.03914166309103048 0.1465453779394129 -0.33594677985468496 -0.013298248936321547 0.2561291781045819 -0.009184409775029212 
-0.3769874179106578