-1.1020773996431448 -0.626551343097546 0.29491580309853527 -5.206969589260916 3.5389725672384027 0.6634643239321456 -1.3527413935853527 -0.2799773230034245 0.6502369574983047 2.108752027835989 -0.9678676843419086 -2.0921477065934413 -0.9262892375237601 0.17799065648235254 1.9491686362306058 -0.4869595492187937 -1.2402188939936911 -1.869716356409925 0.30167016490571624 -0.8999477837249888 2.2370016553298098 -0.6940995229019793 0.21661505590041485 1.1522364711156365 0.8518908572943137 0.3623038326327326 0.4928156596675255 -0.7585952913722088 -0.43323325102522214 0.7386676840163375 0.010923141007082054 -0.6523747678032472 -0.17194776972423959 0.21324160981142803 0.13401614009494553 -0.004160639497620244 0.21991619976241522 -0.6237731578410635 -0.06843149395673565 0.1922958357471527 -0.12853201444746928 0.46458178470362665 -0.016462288732165486 0.11910681174598536 0.31679199029592314 0.25869518687199555 -0.7685356099256484 0.1479184916342755 -0.09479059169849154 0.18176740372847694 0.3739289440435868 0.07919742682615424 0.4143063705580204 0.4774317038084421 -0.07898991113477655 0.7086169874846303 -0.4694467848935075 -0.1291639842484475 -0.5247546423746627 -0.15361904121431472 0.08941675727163349 0.5105808884493438 0.053818653984195386 0.6886639323031126 0.2506743749783391 0.2423956414671127 -0.007147974400230739 0.3254693190725315 0.29168854850190146 -0.08657319889015161 0.2563095469485303 -0.041137208732026545 0.2344983187718239 0.25878945575895707 -0.2945104135993343 
-1.2118489234261143