1.1901961067953852 -2.1081365894781037 0.3893068528531929 3.5746159812584093 -2.7535149820344444 0.9881024759961621 3.085354073606134 1.1579191722754836 -2.3841554899022563 -2.134693970418562 0.11746286437720421 -1.8172843422295495 -0.08973999847534986 -0.3716970013676044 0.8341526657690812 -0.17997340950843582 0.6676382338574898 0.371629857611413 -1.2602497986582406 1.037048619416302 0.47674367616478364 0.9830185019420359 -0.17165609680753557 -0.08465032460420041 0.5538069084757111 0.015753429119202245 -0.31019882146904587 0.36753686168832944 0.0412415822973653 0.4703881223642687 0.2757874579863544 0.43872852034237875 -0.2783859841442464 0.3114719213298407 -0.13751058733081528 -0.12281687168359012 0.7324691308806738 -0.06041019800624281 -0.5490437016244097 1.4673949277471512 0.6884699276441641 -0.34288947740797926 -0.5631274579545282 -0.5316469381084953 0.07886226430421811 0.22405215287522573 -0.7801095617773737 -0.2313904988496193 0.06466452990721916 -0.423935929375633 -0.02384334853885961 -0.06674126089895684 0.036007983833893864 0.1733583904405629 -0.37697160801748536 0.47162225177834993 -0.3585264977638549 0.3685492667540638 0.07338602045867827 -0.6855705504028498 0.11033374574036403 -0.34312458771983 -0.2247375353668215 -0.1639224164752961 -0.07265375748628233 -0.24898301631245257 -0.25159994358357274 -0.31324959491734783 -0.021183546416263577 -0.5214337464357781 -0.1873679825765151 0.062383587804506535 0.0391050949684882 -0.08653635667150072 -0.30489937986416527 
3.783568064412816