2.593755001010069 -4.2576434098388685 -1.5776516682679789 0.4589054013771985 -3.0040455366982735 -2.098082398629708 -1.35257343697153 -0.4062755785091045 -2.861959627753665 -0.40070147429965725 0.835091275103153 -1.237804571187629 0.7827080352343898 0.9768729031795715 1.0269276175940834 -0.18844040372025844 0.621325463961684 1.504853162846981 0.9585458658266247 0.3679391772728707 1.323252733466275 0.08801018803612161 -0.6845704358944938 -0.21640799821846254 -0.2825307044583635 0.4447101757841981 -0.3827983142819683 -0.3191524495884937 0.40290313778183 -0.2299626274004947 0.5930022699874827 -0.25607139259533007 0.46267037172867187 -0.7628001033721187 -0.2598016874105973 0.41188047837695996 0.04931097779675751 0.18602145592264485 0.20512874615834242 0.578808883932971 0.40902362320757885 0.5159701957275913 0.36073184026510374 -0.09047876741008326 0.5024274440782868 0.7687127041455372 -0.17336358425739834 0.23666446445966502 0.5388226892865939 -0.8761969079318842 0.43444103920162347 -0.6641455826784062 0.5139590886136806 -0.171774778017594 -0.19717786526644263 0.13747673657187123 0.5401961034143999 0.34911168403279375 0.322492040342241 -0.209733197907779 0.09707597823660932 -0.1563345076761468 0.6794552993514874 0.7607545521945998 0.07408151840413733 -0.3323933966370944 -0.5199942262062546 0.3364208433836634 0.19112305480277517 0.39873568262531195 0.13580642489136213 0.5784908049403419 0.13851654065810684 -0.4779448546268021 0.7556978124986289 
3.2788007488547057