-2.92485896369811 3.1403051354436915 -1.0244170685878877 0.544427316414074 -0.4521105761369486 -1.9239372718769512 2.6174452034692863 -2.7011099197382267 -2.3169816558406873 -0.020694167045411216 2.2301101602811606 -0.7919532142270187 0.14634838073515163 -1.0442020078500693 -1.2435080431563525 -0.6500093642609378 -0.3419587774167978 0.21844507705079014 0.3716612948727472 1.2838293274481556 0.5484750654612944 -1.4451871680796597 0.30992731738401136 0.3853853520627264 -0.05753570405617767 0.6110099782626757 0.6928307949893799 0.6130864127726279 -0.34841957910331656 0.24006692683071557 0.7883998789704214 -0.5987693266336752 -0.060694353362850895 0.4766101181802999 0.007352827059622258 -0.0657350332330423 0.030489640132786655 -0.29650859596284407 -0.19483652834231474 0.047663533126506286 -0.43177956268915485 -0.5829869197118943 -0.24837090599336628 0.16605258321010838 -0.1395905749406634 0.006280940987055672 0.2119441874165239 0.5055623503867712 0.3817526433234279 0.26225641281407897 0.6296695003546139 0.5402605915072481 0.07772604490230187 0.6632955282045973 -0.23529063648919854 -0.1292381105948464 0.0359143849187164 -0.060402808135163466 0.23639490715917108 -0.09109419361917193 -0.012790087171499931 0.30650265169818297 0.30751482611302783 0.10885959720625454 0.23349239496646362 0.040743781567762316 0.6389267451799174 -0.12435107778473387 0.30529754059089914 -0.3296096079542033 -0.4781562601668534 -0.059027333203675675 0.26920406546721193 0.184392489555953 0.010201488585290033 
0.629779980125466