-3.072498356528487 2.072322107352516 -0.34000989590775066 4.437766830912829 -0.2667107579563228 -0.05448100978741621 2.973520898200456 -2.2244873054217917 0.4516753111456435 -1.3089126054433617 -0.21206957921832248 -2.0430466228709996 0.16120560669752138 -1.4176379784931994 0.10138340600934001 -1.724770887372831 -1.446223107962172 -0.4088499888423549 0.09550365374475611 0.1032512485089786 0.9417517894510978 -0.99993499501577 0.47568568787660415 0.756668662088326 -0.8203471530031783 0.5460479889833556 -0.9174475851382726 0.35631007540802984 0.37995462892981147 0.1286717696418486 0.24253349956268533 0.3049321362116874 0.3158952802973475 0.44341152449355 0.09389027220483485 -0.5121329008017419 -0.40682495813868347 -0.5090257859737933 0.5782319841803274 0.2767143073866146 -0.4397800027475003 0.12679180775037732 -0.4631601413315158 0.6819720852123777 -0.3540922611824161 -0.18253343432975205 0.24524074951234656 0.5061786966108912 0.2934095953977881 0.2711499128929886 0.08988048835361534 -0.18634199020229142 -0.03045447574732158 0.21646608179968221 0.02077462722274273 -0.11961391072451587 0.2453447349254136 -0.05253840341371435 0.4539561512782224 0.005085699335756623 0.3699533470871218 0.24765874883993128 0.27493526174222505 -0.195463503425617 0.11533878187885334 0.18865809946094036 0.5813639095094352 0.2332237730572984 0.02343239365710223 0.30125903312850233 -0.6057660860817374 -0.010591537583486077 -0.12532321821595435 -0.17493015224935815 -0.10340205683014336 
0.48812336098049963