3.279881338673645 -6.186168419459519 2.714413471220389 0.16406359558721217 -2.083104895169237 -0.4963281515790734 0.5637129438506019 1.144648287703004 -4.899300783401048 -0.6788864493639116 1.0154057131010832 2.468431280419977 -1.2335648442494875 -0.5079247423956033 2.2035438631709843 -0.7838180808046267 0.5416103921974069 -0.4570691163704185 0.51576654848549 -0.6118037247974571 1.089476703882548 0.19570316402207755 -1.4939591233514267 -0.070721374070783 0.12045244679264011 0.20563153664036274 0.6039074722976236 -0.03220005531977754 0.020407493717536973 0.09602802286311479 1.3110856368674633 0.42614439330430093 -0.5700896116908436 0.44770191463980447 -0.960111131396612 0.2667467711014071 0.17795669555168542 0.16648365585103453 0.6986329129269597 0.6935070915542116 0.17458795251858528 -0.5485942756752789 -0.4234338385236462 0.8313689770790045 0.5789315555403854 0.40125635667137405 -0.24706468132693601 1.5639963042086416 -0.470922425258377 -0.014620429478878483 0.04092338564451303 0.0975365070543161 -0.1541659083652141 -0.954782200162966 0.18674914671866616 0.02722317077319658 -0.08109693963683923 0.15206172056307027 -0.35098638763849943 -0.10285410610379359 0.1439042672396167 -0.240478001628174 0.11180978742363201 -0.557209779544775 0.45981821863873074 -0.14857841007279116 0.14345793844441262 -0.5386561644063447 0.15624578158718078 -0.08123327936245275 0.3572457892401613 -0.018767815521052555 -0.21332054960947222 -0.04620645806720125 -0.30043805196554857 
5.683931869817368