-3.3905101932700026 0.12521134056985694 -1.4911066309648742 -0.10407883560054187 -3.170894615291015 -2.970029190213173 1.4177441362655525 0.15730803257765014 -0.798778268147855 0.2912608939711153 -1.5595854287069981 0.173560400147037 -0.6989415446882195 1.0157749850614786 1.5795933619492861 0.8990738105569475 0.9149578560792726 0.8313737021909009 -1.17648184450994 -0.6638587811929568 0.5918906160825192 1.1903249065028034 0.3439609965041645 -1.0875373323829256 0.8289515573711099 -0.25280184548223816 1.0125046883711861 0.5307368967534746 1.2322542817416529 -0.2590698267879804 0.6038463837762273 -0.675964421239332 -0.44871179299238073 0.30970441639916835 0.3333429783545265 0.37193717694561307 -0.6344150656611816 -0.5434397659204342 -0.26792633625713563 0.5087768343759047 -0.15862297769492886 0.02020416212724689 -0.15878518601604974 0.4005819344785104 -0.11658041193050006 0.33570961122035226 0.4093255845019527 0.8215282678279765 0.04851896704229562 0.601806993715629 0.17584938177045495 0.041454348570141686 -0.2528824318555924 0.447246118607882 0.19612356067977743 0.2350810625685966 1.0402729323030604 -0.091120265455163 0.08337498346691075 0.31835607002668453 0.08768591713886224 0.5095986580916441 0.6773943527337294 -0.14243470526536514 0.09296983772986654 -0.26961484803288166 -0.743720123898932 -0.34136652114582977 0.48237170845522703 -0.006821162432706793 0.0049521286061796135 0.35953835897478625 -0.3107334544329699 0.12624314502978817 0.006535469255106896 
4.1154080907453565