-2.9271954032444363 1.210322777626267 -3.5189768692153107 0.5984910001225816 2.027513851251967 0.7284441873873724 -1.6404427242137105 2.0313971170735172 -0.3797959056135465 -1.6449356911109239 -1.4287475389110715 -0.2756932304876465 0.477197436951499 2.4304912007369257 1.1182623387047652 -1.1992351438223605 -0.4277617574647994 -0.6581779373696302 0.02063250871112743 -0.49911173156754585 -0.5137506398071721 1.3069503299761012 0.21694479803663516 0.41879625277370514 1.7022607445841438 0.41055787854256875 -1.1507610756174913 0.41300269064414113 -0.11372367677142592 0.5310760490035954 0.4437309090194053 0.07044827697655076 0.4014350839146319 -0.21853322312520618 -0.3998011674817308 0.4512623291909694 0.6028584233968012 -0.39706435586210853 -0.17497878966414332 -0.2448536490440556 -0.26942461409412327 0.07535339211265717 -0.029896710732876308 0.364045896679766 -0.4516917241006769 0.34505718241390715 -0.25624450794171844 -0.0407712820893672 -0.2500827809639745 0.20647301909959853 0.084346449778687 0.09730504880481583 -0.13595905079438877 0.1301319388463068 0.022118009595838095 -0.4458545493444959 -0.014846727134796511 0.2889512244207599 0.13733315318732833 -0.16694658307661342 -0.22732096911613575 -0.16090830853123994 0.08918407784873339 -0.026028084319792588 -0.22654878793644045 0.05397636902568159 0.21662919712562745 0.9193692826484865 -0.23749244802391678 0.21893762522181942 -0.19259701201297785 -0.10692194514745956 -0.01906033207408238 -0.07652728122990948 0.2873761576240327 
0.12993178603110492