-0.60872118390742 2.882537197151848 -9.082255447443531 -1.8577604478714793 -0.49327523844072374 4.200291963032608 -3.0478560553955774 5.687246559328817 2.924722680099727 -0.7040112556140574 1.8673513329927478 3.4417238598830693 -0.09243225010810185 -5.670111620329604 -0.6397304309682976 5.371330308342545 -0.23380610093725807 0.896003702629498 4.420455951839849 0.4305895191011963 -1.6929289223981385 -0.6476390594454919 -0.02286572757448635 0.6480419880131397 1.220534851705247 1.3665020392052543 -0.035443721201316336 4.635741161311005 1.4580242299851423 -2.093616100362145 0.4350037411341696 -0.1077683735358701 3.1440518109212077 -0.8950371650420452 2.0605931742230386 0.8751518253278299 -0.471364898555515 -0.4003264146652219 1.503438526966491 -0.2445700444598593 -1.7979079217685103 -0.35784262288064883 0.7763676631171439 0.13791391246431006 -2.0789410374423642 0.5892584058549533 -2.098576579245331 -2.489678083464213 -0.3321963390894329 -1.4032611428417234 -2.128514341043632 -0.44098064319734 -2.4363432224572543 -0.14255040073902436 0.6489472206497675 1.643710812170594 -1.9800161549572137 -1.4048830083104429 0.48243810151623717 -0.09561037402880579 -2.374056242975681 0.4151798633614139 -2.265583492495923 -0.9731559264515743 1.3885498852767169 1.7601039650515444 0.3617359811401626 -0.24512843210488322 -1.7363650395961914 -0.9718537059875973 -0.8517316008484017 0.7125318095108888 1.605610648831533 -0.10323424299681694 -2.2417536789605848 
-4.46414570308484