-4.037177873213907 3.393059647224171 -1.928163160369849 -1.6858700122106431 0.26130295174144513 1.3781090865730201 -1.7730726735795401 0.45994901142572725 -1.0075212347670954 0.5205862443970288 -0.18846702972047302 -0.6273299757243663 0.002818833592280537 -1.9987089018215431 0.942897752291055 -0.14033130083501882 0.412849461486422 0.6571610577486281 0.4234428187297733 1.000404180877734 -0.5711756509699857 -0.15241154439552718 -0.9163697460362209 0.644346263146357 0.3004329452324569 -0.898548503318799 0.05464639353986625 -0.26531020365047264 0.663743309611007 -0.30073014149368105 0.17820475429837418 0.5282029659974393 0.4282730519003216 1.0962776466165123 -0.3662846500569247 -0.4337795215253508 -0.08112267257719637 0.33920801503049913 -0.4557476681117502 0.4132175689726255 0.22783296139138104 0.48904856528266216 -0.13111907701542014 0.2825111304800994 -0.2648811644697799 -0.1884811435097613 0.6296000845924089 -0.12214286726267565 0.03470907748132585 0.8166939842591472 -0.3211034303657996 0.1654708472360441 0.37109365912382575 0.1088207659065828 -0.3027314947771393 -0.6335151629167746 0.05669795810193133 -0.2205403076651381 0.4996809648005812 0.40485162929053875 0.2959501565618057 0.2556201485411089 -0.18127378437733646 0.10456518991325497 -0.23805413524609745 -0.053275598720686546 0.18220367848706198 0.45096200267038544 0.24857360611939472 0.19701478484983453 0.14215029684413158 0.3438858506384527 -0.09112423342333106 0.016759936525376884 0.1525336245982138 
-0.8436914278363168