-2.491084769528955 3.8450177671730863 -0.2511110295983685 -0.5983868076204617 1.1370994978419082 2.709386184073527 -1.7190385332889746 -0.0961798700922678 1.8361902660296479 2.4240727648998073 0.17760466979281653 -0.8095037035224946 0.18961444359533708 -0.051620399023616814 -0.9323349012622941 -0.6794073791525987 -0.6971266651096164 0.0539669627677658 -0.8878123512018539 -0.5034319001214563 -1.3334787259857448 -0.13518121288102103 0.5347705514466232 0.7550114235775044 -0.543614985523506 -0.6240326157538972 -0.19192362896798135 0.4701589146754593 -0.6840204740698316 0.326840390714066 0.30950909627776213 -0.23631097933623288 -0.22704515077397736 -0.15775761632658636 0.4663270802893098 -0.40040729620120297 -0.23475215955028983 -0.2844426441294073 0.22908367882892955 -0.5209838830850357 0.11771593243992456 -0.3478567534686043 0.5356553575587464 0.07484102700618722 -0.21258159865257098 0.12503426316365074 0.3566595615026381 0.2737567706445585 -0.4193394304679317 0.746728675782036 -0.44764662068674077 0.12231126915411711 -0.29027279249932914 0.4791529189349162 -0.15579801093731763 -0.08717454979564904 0.21117167582805307 -0.03869333257543067 -0.16063451934479145 -0.05974206444128333 -0.0036129031293056224 -0.345442013076284 -0.5335945231376723 -0.28598364218225314 0.06518663577936538 0.34545390408121246 0.26239373587116216 -0.33613116078943206 -0.0585057678202755 -0.01557853254095323 -0.22500064420472807 -0.14155918302121 0.13275199704060026 0.27275813014249245 -0.13008782203376829 
-3.5936535869721213