-0.6619388261970442 4.672390866443479 1.883929991496375 2.428478391196599 -2.47727739361524 3.8364409540051234 -2.9971894812090567 0.770761659081924 0.1894427201265949 2.0669505941508084 -0.9697141953183203 -2.7526494006543816 2.412093576935238 -1.4891418131023229 -1.5419671442331633 -0.6510817338013353 -1.6699566901412104 0.5274072147488849 -2.5719971018159864 0.47415756436532264 -0.6761453890976978 0.6677928897506762 0.8057231234421696 0.9981724797400278 -0.3216826309091141 2.839083793337305E-4 0.5772982113506693 0.7559758859429194 -0.5816601312707625 0.8520884023384431 0.804537365334125 -0.5101001247398366 -0.9553841825638442 -0.451561465546813 -0.1603716776010068 -1.3658326528975746 0.4158562861273077 -1.1419167922986158 -0.38811656229794134 0.037415914516801485 0.29563767592763474 0.05083496130410409 1.122681801616805 0.07031672623113411 0.37423304108666866 0.03693241864542829 -0.12805833317599938 0.08075427209098551 -0.5879415647736189 -0.18617956320031204 -0.3666413995959603 -0.050354039829460434 -0.1589986214081433 -0.32850212767017045 -0.5964882272192081 0.08796944263875356 -0.07956928961848697 -0.22873288591880914 0.06450157450479607 -0.3847143297649176 0.4730984286111887 -0.11052284532109474 -0.19728597936219527 0.4771202302779382 -0.3056649367114215 0.19948426938374364 -0.028535659212000186 -0.29698036410715467 -0.5867225928837558 0.2662744023103126 -0.04172176547129053 0.008634649101705416 0.5401129161529172 -0.11605283529036348 -0.2104320595112899 
-3.7211359949869247