-1.6333809458843582 0.8590403549648693 4.733000619111715 -1.4458639535905398 -0.5830970166862754 -1.4355691434372895 2.9870099275508366 -1.4859674553664033 -3.715345026573276 0.2531043224751374 1.0747692043044172 0.9671294808764022 -0.6963053056838449 -0.8783037005195574 -0.4284550455542734 0.16546535789823247 0.9722640763759186 0.5634991134933993 -0.10599155395858828 0.5090437200894071 0.5980301125619185 -0.8771007148155057 0.1280576967516473 -0.2729137182250386 -0.6089360300574607 0.17538158468302617 0.8917198888431426 0.6536043239899876 -0.6140139477228745 0.2744566067271597 -0.3236666355034541 -0.5364628563866933 -0.2276006496961257 0.3049243655552981 0.1315685359256165 -0.2382999888363196 -0.6046857581049958 1.0182177835179824 -0.3436513332183353 0.6825795360632451 -0.07858322820617797 -0.48670216121399146 -0.20329760775692968 0.15601662287946028 0.33019958404808925 0.49566167769039154 -0.2826879090738254 0.32729800919831814 0.29565210017697596 -0.15030209074507447 0.3163928242289317 -0.1304631316559319 -0.3298011771248512 -0.20865371964410537 -0.08665625548187691 0.20477378128181023 0.0914139411131461 -0.5563023127749068 0.06711312709415246 -0.23644312517070168 -0.0903862319861149 -0.20310280607219658 0.08183405103644847 0.008876538091355746 0.008947017876013291 0.2166157040143336 -0.2241894406249137 -0.05498099462371741 0.20922178432686045 -0.4032424234107014 -0.0960746766785352 0.0044397530899929205 -0.1284433722816806 0.23272839693347264 0.01587191950833103 
3.565427815336806