-1.3037170437801944 -1.5662791683425503 -0.0565714921348599 3.2633883576977434 -2.6556084230356167 2.221378079842278 3.8231571808185594 0.6344111700951955 -0.8554201372453045 -0.8565022658429682 2.1021671934983166 -2.7583112972736865 -0.28212461591494986 0.4815700198339278 2.555837265307561 -1.4969811268032231 0.045597236818254894 0.6409479420111741 0.9694864983131835 0.34709665283616503 -0.17562388953344765 0.5408751868714645 -0.4221012046153244 -1.1033460632873555 0.48953693441278134 -0.7955191864958242 0.35209118147045915 0.296591106167452 0.26138851091704596 0.29132472471803017 -0.8105609542717434 0.25901565474770066 0.07074691120751853 -0.004646028676165592 -0.3735859044448008 0.40871996337542604 0.7952183218159028 0.3272535890770818 -0.11014348358499787 0.850014565079475 0.9472636310258484 -0.5009701181774169 -0.7725691050719443 -0.895388619148222 -0.19507584564813596 0.1305427648898314 -0.7078539138373751 -0.0594174502145159 0.15806187806582883 -0.15170211939274147 0.005104754578119874 -0.2822566438328095 -0.10175961265620409 0.13389726169407656 -0.16245296417679023 0.24868812158909387 -0.26614280897637804 0.3020699851731347 -0.0984119275336648 -0.5317038345766645 -0.06035122600263232 -0.45125854449486297 -0.21628272231439216 -0.3126258233886435 -0.02393281653050225 -0.4890452250459176 -0.13514018742676676 -0.3223364916017717 -0.0926650682263323 -0.6688413408019632 -0.09706224302589345 -0.2662228738959026 -0.001567155573086662 -0.1709440544130274 -0.2924196226810631 
4.142550288314363