3.227214234228242 -1.772470832620126 -2.170959881629207 -3.833191711531846 -2.365166079111054 -5.483118514895985 2.802998238235195 1.375795684085453 0.520084069033647 -2.3172849609547224 -0.4883263303048455 0.15608285967236313 -0.5637026614651139 0.49308696901890314 1.137843266252572 -0.6985816795244713 0.5957527148977619 1.8944286418280416 0.29650920816766435 -0.4079319054430548 -0.7473658955078193 -3.7790512475810445E-4 -0.11907518716816501 -0.6638104493632435 2.0173330121128132 -0.4259808785347239 0.6230402100253332 -0.09269422426514706 1.3559038822302458 -0.016840120384577606 -0.23891094414862757 -1.434809819939106 -1.651233857766845 1.5553501974565695 0.9370483437250189 -1.1281023998942934 0.6791651545635417 -0.391058165445739 -0.26753481064197443 0.05802225322146404 -0.17148449952047293 0.754644939769747 1.1577193227313534 -0.9069731759308302 0.5884023192856603 1.0565586169960743 0.3851466540652341 1.1520814290875574 0.0631028554083368 0.3974267630503767 -0.07682357894767056 0.14493507497463448 -1.153303055181028 -0.7842556225964964 -0.22637179398390833 -0.14478619208755084 1.119421970882864 0.013653202980769219 0.3857246236862461 0.47939925400514494 -0.1374128570822235 0.18602828770712476 -0.20469414801473573 0.16438942701792225 1.2142386891988437 0.6419478254542808 -0.0973507225167976 -0.11072144668352779 -0.030758005712092307 -0.005236236237821101 1.1504362183269894 0.06979646842948273 0.20320205066015215 0.3665625835162969 -0.09177696582937533 
0.8951946669539296