1.7384575692067852 -4.614835177181622 -0.009655935700204843 1.612751057296387 0.9073404655413801 -3.349941455659218 1.9479285223729201 -0.8423770852352475 -1.2935717747523476 1.4241797584862683 1.2457819862762884 1.274503453844495 1.0586331127791777 1.861711464807561 0.25676056358486776 0.011509356611335675 -0.14874524891313068 0.10617626638222544 -0.04904579244193408 -0.5811104700826842 0.6190874280445473 1.2914347751435775 -0.4794909607768054 -1.367642663093843 0.5511785463946707 0.9045626830220049 0.8907388601082495 -0.03389292663082777 -1.4538068730510678 -0.5380592857444151 0.2678044675766942 -0.5297186821511009 -0.37730932187593513 -0.9056456241166568 1.3834115271106209 0.22601259741829105 -0.05210646699186678 0.08665574605312254 0.3270815745221007 0.3249883876978892 -0.3722334923665941 0.19090902419521277 0.7323292814560135 0.18397706413136783 -0.367563563579961 0.366603999591665 -0.9357164996132483 -0.18396618189443836 -0.21712324634827024 -0.9572744559536561 0.2662141753767151 -0.2071198695319016 -0.06170905788541542 -0.769853183805488 0.2943189087332549 0.9706811262913988 -0.45372828118022657 0.48347515196425395 0.08923844420626603 -0.5398113864853342 0.1538822630989006 -0.7758303172358225 0.5171417337052797 -0.34940758960483714 0.3618631806592436 -0.022620408444605777 -0.05499141882738223 -0.9931344486701648 -0.5743946726916921 -0.28617856184237084 0.1479573772174242 -0.5998571685601563 -0.1530006729386575 0.20447985830870785 0.22070846264195942 
3.916691556177727