-2.0308175095961447 5.128470459405348 -1.4021787886750237 -0.7216473529697356 -3.541919646214193 -1.115132398826382 -1.3576675830796936 0.26005278819772804 2.2745930203027465 2.59269712881541 -2.493234609290671 -1.6118101369197293 0.20510767191267887 -0.6773106201016554 -0.6122024114571155 -1.5339063570929765 -1.0544623087814078 1.4679227562965393 -0.27281393643813623 -1.138005807462617 -1.2905149336451276 -0.44239496613185947 0.5853995137165422 0.10734028665504936 0.4622303407022175 -0.3854490889579378 0.5234010322693196 1.0012048147397827 0.12835393877292994 -0.0335937783695438 0.5744359935552801 -0.586720227059466 -1.2612848615669199 -0.0544023905005796 0.838077575510341 -0.36016066453432677 -0.07564647894085591 -0.6808585842967524 0.21793503280470378 -0.10846297814709205 1.1353266740834742 -0.16739152288064715 1.4184190542652275 -0.4745458013612439 -0.435381379669205 0.7909693200046263 0.5073920916351395 0.7994106254082367 0.07579032520849306 0.35974820645392985 -0.5927269647583812 0.22701436833768196 0.6240685931052103 0.13687915436012418 -0.13885007998392954 -0.0669955631000419 0.6386263187857194 0.09152535616528756 -0.009301561664559616 0.16468756681207386 0.18623358720325134 0.2369493167011193 -0.6047126589584666 0.6304094909765741 0.4423005208688687 0.793235603505831 0.17615076521776096 0.011558509460612293 -0.17758556565290506 -0.0808604461634351 0.511776777103482 0.05697976593947074 0.7081840333992224 0.209958989723178 0.29013259486754966 
-3.3439189436801082