2.840617585524811 0.7830461276351546 -6.163509840491696 -2.433179560976139 1.5907650064496008 -2.7388480066207355 -3.270001781134077 0.7227588972150997 0.7444241327634535 1.0339449684656423 1.423379739375415 0.60264959136015 0.15448118574395808 -0.6616073962151503 0.1281406690060738 0.8617772838020382 0.833665383703166 -0.28421047324729665 -0.06536753357255629 0.38153150818766923 -1.453892618062823 0.2122735047646091 0.2081451731085266 -0.5534564974290355 0.5492263447892375 0.2602466933373953 0.432516627444177 0.517873975537233 0.268824100735528 1.12129775399234 -0.07172322814738638 0.6455612333657966 0.05100069290231102 -0.15427729334368276 -0.3421562252364799 -0.07141143088479701 0.1624513093406438 -0.13770809416701538 0.13742033604791026 -1.1273370931285664 -0.210237476846219 -0.25816213627687995 1.0847622287074459 -0.6029454148197995 0.01218018400665008 0.17623682305762328 0.4956867730845431 -0.5359685856145003 0.04964133468888912 -0.10153847311946448 0.32929742828744246 0.035503392716228724 0.5509727161310176 0.8615430689673472 -0.5336025275406058 0.4395882178943847 -0.32182594407384224 0.1114584431106265 0.3101498347416523 0.16184781606307377 -0.3561188147813242 0.10004445019307762 0.17650702255439055 0.22078666287301602 0.6572660810256994 -0.0060346083312296656 0.0368837265575602 0.03673108126174621 -0.4164500968845718 -0.1726894445384917 0.19080106172273875 0.10852929299007741 0.5889783356348002 0.21175314927333128 -0.5709083546569775 
-4.752960748723531