-3.9677618423333945 1.3623808711622374 -2.426325326971817 1.2700947321962257 2.3639331843224225 -0.18090887520016508 -0.5243657089698623 1.7150068767280489 -1.6676877877634282 -0.9796421178640482 -0.07521985218535998 0.7296610700633118 -1.0033521322318755 0.43939801877769535 -0.17912670987798163 -0.9985702783608696 -0.20972695304706335 -0.11772878165393452 -0.005300385902285876 0.15817565173226195 0.641179150215254 0.2152042890738316 0.9309134276634214 0.4482984562805 0.3847605739760205 0.039344528358812525 0.034405371294067795 0.5120307612165429 -0.15506114203620122 0.12727379192078767 -0.31717459843717094 -0.29477550446094153 0.10195348142297866 -0.026887854090767438 -0.0649376559585059 -0.06103866089982474 0.21710283046062406 0.07027468968585826 0.2908512409490097 -0.03452963674856968 0.04381688968194866 0.0853853900319131 0.09890195546906416 0.11514755664419424 -0.23704687278453435 0.2933752525759282 -0.053043354097206674 -0.10808170223833347 0.04356230219390779 0.037042749393663504 0.09058096807048532 0.2606091732419772 0.009637880774525487 0.026695933097351632 -0.17273348966941565 0.016562542625194465 0.2016451766746926 0.04248693443369081 0.01021680230676869 -0.05014696948979802 -0.10659501919293006 -0.2940811862463174 0.19925425073805725 0.07309063943147348 -0.07706108772202683 0.295612075503358 -0.03568385703857538 0.2861092626169891 0.005642984184647426 -0.1345735997833582 -0.045348593942680177 0.200947154023018 -0.08476955742789746 0.07857018491620588 0.12215003849819472 
1.5397274066507218