-0.6492068833882554 3.1033005663794824 -1.5881977077821605 4.473887372639473 -4.085413729137869 0.9989357086294453 0.21776409114053463 1.8691696966051268 -1.3718157809137934 5.832529027918566 -1.4631316904355685 -0.4374104886150771 2.5847172981923388 1.23168821971347 -1.4418354181038766 -2.8253772197640608 -1.3994604559936166 0.003552268739938802 -0.6843038784120121 -0.87781687885809 -1.6649515856673336 -0.5405110061914415 -0.28601506511815544 2.664098990320188 -1.788433825561589 -0.5333450559634066 0.38176505780238323 1.053028444090343 -0.20384505949875714 0.8665273187552897 0.24323183533318682 0.011285476704407257 -0.07875747793701543 -0.7323907312664214 0.2423875144833238 0.07066936091609502 -1.48528374338202 -0.8918626438834691 1.208945857679849 1.0726776149535595 -0.18665935937764147 -0.5797019592499983 0.4274746412045358 -1.0451735015862331 -0.4125933326669854 0.36869754244274533 -0.31399040312479953 -1.6226883433767347 -0.10987347095272396 0.7650629304867416 -0.7165273577196067 -0.21514887730755833 -0.008833407583948877 0.6751304935720281 -0.4674241508283334 0.18819257005624918 -0.7402124566128191 0.7134139538074185 -0.8437467247524469 -0.6675373484535879 0.09182067770263486 0.11901787180604334 -1.1286385652663622 0.6876504874064467 -0.515858224772926 0.6176180871320516 0.5803705599600687 -0.3669609463724589 -0.15128510028599002 -0.5689433968300781 1.0550115027932514 0.4315474897464053 0.8298535581783744 0.05723628533574146 -0.047097119632430934 
-1.2817748936540208