0.5166605869929519 -3.3382022423597735 -1.8626448611588842 -0.12322937178114846 -0.9441227558752652 -0.5970460046750443 2.7570066952650647 0.45088611883976926 -1.381484275160782 -1.198392211149599 0.17494571670699627 0.9798067264080209 1.8906961603954104 0.26585549045433476 0.23934493754290415 0.2772905792829512 0.9598999410295266 0.1360462131229803 -0.07347646092942045 -0.5233383599303317 1.7305721644391763 -0.17278714940790063 -0.122914800095266 -0.4729306152114956 0.2833470338277647 -0.7170003683765247 0.21779973906099026 0.12382584500218236 -0.2441066019059392 0.04449133122053853 0.3396835479692186 0.01249682498991192 0.02919236954065893 0.6650966334941324 -0.2351641441224924 0.33331156097704534 -0.3896024330397472 0.5240150389196593 -0.09591799730321757 0.5212416467760997 0.11531736471008608 -0.2977652540831879 -0.13479672389582326 0.23462409573069548 -0.2724328398715619 0.14712224826356007 -0.09927440115828025 -0.2110736702513999 -0.07442947225915912 -0.16306569184029068 0.4559890242921182 0.05381095051951307 -0.038043055400192274 -0.03659216840663469 0.1014891506828343 -0.3185181634832984 -0.2501414108434651 -0.2106564907736863 -0.31868344176097174 -0.4544518900118798 0.04904948361949385 -0.1019876701406981 0.21542521617337806 0.04755504639817937 -0.01797559793680588 0.0021312974250430605 0.011225702768628332 -0.2840959205956712 0.47287161415322815 -0.1772691988972038 0.08849775262030829 0.08725659162868243 -0.19562786439181692 0.3354137928555434 0.25794934438529593 
4.205530419773028