3.841110922746191 -3.510843019170695 -2.7946908343937986 1.5041114162648759 1.5019949433149282 1.955955548670474 -2.297011150971575 1.452342307949819 1.8771687914457957 -0.45458875310864943 -0.286105701676122 -0.08178160695223437 0.05590036197489711 0.15729721736094507 2.6817307138654236 -0.5511666641068845 -0.554463479014904 -0.6845883961512257 -0.6713173763828408 -1.2178775832404833 -1.1532862714902592 0.5910833230194521 -0.45454932084901273 -0.03809523273704721 -0.07781902126379864 -0.2991012830896376 -1.437659878182518 -0.387609584097257 0.6399148960579892 -0.10488897986040256 0.09848178285702909 0.5711966654119367 -0.6383921730974292 -0.35531496159433396 -0.7517264871232653 -0.21468739837741949 0.03668115552859033 -0.37183867765073714 0.7753501045118811 -0.4114509911931306 0.030180524813206124 0.656700623844387 0.4751200104198235 0.08058662325904659 0.07900141897339256 0.23588111245356633 0.5274353660395176 -0.3179586480886811 -0.3243950349297506 -0.02745781614409347 -0.601542038829472 0.030009327947943018 0.08406266153444222 -0.7252726704397003 0.11261367736094605 0.5341145078986129 0.04774216789374383 0.09185082735491516 0.1862209304070863 -0.08968825502154112 0.6692565351863384 0.37550842514388794 -0.15966876907585573 0.04824537428323134 -0.09446650811910139 -0.118387841931861 0.19623608854398938 -0.03017149151184377 0.020940087394301983 0.6639249337846984 0.11255899140424071 -0.18079842274178848 -0.24663766460015193 0.07110268177106054 -0.3523130614831061 
-2.213119962661899