-4.472680735084268 -1.8764203060670681 -2.9468911044916255 -1.317827883861736 4.122679454836783 -1.208751504455442 2.3919304376979205 0.0423501411616205 -1.4196711622949527 -2.049231842002449 0.8001434606439414 2.3226523082409134 -0.9503909711736194 0.325233063073322 2.3082281278983943 0.7461942968010649 1.7455426223631376 0.1538376557312101 0.6880243141287585 -1.0088849917924023 2.9904463735430347 -0.02113313387848681 -1.1626171578132738 0.0518498225531798 0.7405441873382654 1.1981265817277733 0.09872282399442273 -0.7420802794609086 0.18420004093081827 0.08692235488882294 -0.5567641647925456 -0.3614229398383202 0.214396540866303 0.6217070290729849 -0.7354476121961621 0.9751171917007546 0.27892010244728516 -0.14137604274390692 -0.9059513113855459 0.47359148522125594 -0.47697268434935214 0.08379769580452046 -1.5694595857998803 -0.03137774057025999 0.5098679616255662 0.7473520815766039 -0.7841054139594729 0.5791177930541802 -0.2977772740501835 -0.1736760051186843 0.8480421022753009 -0.13810125253943317 0.7045692883118231 -0.2723486995613127 0.15803327193573746 0.7159414649229024 -0.14659339463913174 -0.6718831799753228 -1.3187981301729812 -0.4633835373286865 0.2533881709281596 -0.4853847912555187 0.5799524524108938 -0.19195691472479126 0.13287245149568538 -0.10691411737482037 -0.5002532903294766 0.796336230971303 -0.0015337079082790028 -0.20204682238087035 -0.07161674857137501 0.33480123093222075 -0.4773174289477799 0.38432872772456705 -0.13071747794111477 
5.193138596988069