2.866686437235746 -1.6578721951594666 5.189435304549811 0.32937682006860003 4.091735966545201 2.9455359916946167 -2.90572484829414 -1.4234876897722326 2.7865898478908875 -2.2575180935953005 4.166247838574742 1.7130548503308738 -1.8049521737631502 0.5262426136784741 -1.106823008602275 -0.74474653269479 -0.12094025355398852 -1.7451473538197055 -0.7149152732429118 -0.15274831999884186 -2.6517914571272163 1.6345856540820958 -0.5212833258124481 1.3757197348457106 -0.9796430438186285 -1.7976096116394509 0.7033666854085296 0.17959874970294032 0.051396081216925626 0.22930598605649583 -0.15871424014046914 0.7188870180386042 -2.317676985951236 2.5512006739243858 1.6919057558330222 0.7969659642020195 -3.102582742995807 -0.9816570698181211 0.31553471278811557 0.38750044876377876 0.9767146408894667 -0.7667288238651639 -0.41779231911487824 -0.3049243863494093 -1.6611839272166726 -0.5046093721633407 -1.1146298594069937 1.212057421048958 0.396857548188019 -0.3877915460294185 0.3266075005358109 -0.7380647804264202 0.06837884388667614 -0.4202798024080114 -1.634092194151997 -0.38178956995889246 0.4858919784432872 -0.4082623239142125 -1.019177372482736 -0.33274234622315146 -0.12070760871262598 -0.5796713263463684 -0.14053576391555356 0.1081409859764263 0.029288122878343703 -0.9679737816231373 -0.4926327235480928 1.1295188816614323 0.1049257319635184 0.41917025019130283 -0.23314055097430442 -0.19515853151249862 0.7781346686872914 -0.5790054796161458 -0.7398311000219236 
-2.140999939135999