1.5947434417122475 -2.724869627872012 0.9338326423207103 2.7284669013894494 -2.6861868529207586 0.4515157902429354 3.281050900587732 0.676710680413837 -1.3963484854002235 -1.305227496851526 0.3016267325538305 -0.6124502505754199 -0.21385467284482573 -0.21152256078381315 0.8955950090181526 -0.20755869383680545 0.6039623933883536 0.2691443588485506 -0.020440134933956466 0.3816613414921769 0.36499431187177667 0.8118392249038074 -0.21347955378714045 -0.04075078185655545 0.144425558948983 -0.9642547884941508 -0.5012661998418513 0.1070936687053107 0.19394488431748103 -0.3796207232865363 0.2295874635106311 0.043851865490756585 0.1527954096455032 -0.0415412583188306 -0.18903135889333156 0.21187069078851092 0.18849151902442218 -0.16047716170212806 -0.3390153823280247 0.6412087007177374 0.3226962511098571 -0.1564295682162459 -0.645230154287672 -0.43286796816527606 -0.08072838981339647 0.3316740906084693 -0.6291145456497771 -0.5827426903283593 0.18060850178860222 0.15833063826399502 0.4386862552384216 0.124981794251195 0.13024387428557463 0.1634327540330163 -0.3166997353799143 0.1866040565583631 -0.22478355770070735 0.16284494808818498 -0.062378048686012495 -0.086040739847671 0.12490212991284629 -0.42303915694768063 -0.04514653202779351 -0.015474276470380938 0.10608440350563247 -0.300173866139778 -0.1622370722191461 -0.08819093547506007 0.10333484315414748 -0.48382348322199287 -0.05373582480881925 -0.4885057865769762 -0.12856422220273378 -0.24767097057184978 0.11863547857391894 
3.6643143651415953