3.4703017488499146 2.1579104828185596 2.122777984114369 -5.479518790340836 -0.3604449320890444 -2.5177996904187925 3.020229860859513 -0.41700319371351924 1.0871257360174518 0.28924050647876687 3.5165729455489054 -0.16644592390468604 -2.879353104932779 0.487089465941254 -1.3180183656321869 0.04804815058374534 0.48572454627806283 -0.8904480791884661 -0.2059710505599549 -1.0318599527354633 -1.0554729956665097 -0.8224054469634471 -0.9468600121811181 1.200708880127572 2.3635948382698193 -1.3862880439014145 -1.2379842209839318 -0.1848063941815784 2.2640487451228526 1.9549082641465136 0.2083071350311739 -0.24088737349133246 -1.2481295677876578 0.9211923086260485 0.9463141513170557 -1.095974564157137 2.1963306794694497 -0.15475598043314176 -0.8418176466266751 -0.4341253938774918 0.23266406649557206 1.5489865051162222 1.5314412009529534 -0.8548291394721936 -0.3068934598533285 -0.1949917739381879 0.12383169905511932 -0.5676224947134021 -1.2047161891679057 -0.2827802912291034 -0.7231286103449417 -0.02567058814491463 -1.4037049735828846 -0.9920729441184822 -0.11545181955469563 0.0898186541899994 0.813990834788937 0.1854162377648177 0.07450591727209083 -0.007290373885549775 -0.9150063040196627 -0.2579277050000413 -0.3629060258680076 0.0041405911852149535 0.8609766334314902 0.3787476338448714 0.5444159157048293 -0.13381876163258932 -0.6612354056153658 -0.41573824717537944 0.051194856796490246 -0.05311712005150504 -0.5009045673946623 0.137032190637271 -0.4214118483069602 
-3.4442821381651303