-2.7239285581578834 3.9460809947675823 0.4852699424888247 0.379240895373014 -1.386218528220612 3.151034919531627 -1.266102190406633 -0.6494069371143195 1.749084716322952 2.3649238471469824 0.8097630837480978 -2.0206089428989404 0.7785278962438912 0.1304924086155923 0.0668376078257581 -1.7810563513577329 -1.1337129507144286 0.14287986534062236 0.5841174769026749 -0.1247615698247086 -1.2112447628662306 -0.2608143238580809 0.15699431893591664 0.06198619594947261 -0.1356887391744353 -0.6860244965569395 0.773039570344703 0.5130477670702698 -0.3758761290629804 0.8445333851610219 -0.39053348898681717 -0.3490685065521226 -0.33047310615393377 -0.7307453682947387 -0.244967801099938 -0.14115454709555653 0.18926916144649142 -0.18298177640731894 0.21582289231909657 -0.3653593534954095 0.6721579767605095 -0.12867104295171447 0.6234104721070322 -0.3563892484528012 -0.4309070760902443 0.029366066960026083 0.29218672839032306 0.3735228354147735 0.04022602747023605 0.1478869713424132 -0.547056351196135 -0.17892665341008404 -0.12763486540018412 0.07559858878533626 0.009065026052830452 -0.16816956976659983 0.1715976512888756 -0.09652733121633503 -0.18593030263390614 -0.17681830516006083 0.056642528312304236 -0.07640344757012363 -0.43057197924155816 0.19797001160924246 0.11243900946607994 0.05570539622560933 0.24529360703572559 -0.4509409598133886 -0.32376531322490165 0.047038642273000884 -0.07547352722415102 -0.1796490399466616 0.22731942172648936 -0.20898953186255603 -0.08682093329422916 
-2.6415310129519987