-2.5575490730067765 2.256689652058393 -0.6935986359451616 4.550532810556728 -2.3249660633770617 0.7813730024109355 0.6073443314809763 0.9436460695376093 -1.4206888338212753 -1.4489568684422038 0.5676457754856415 1.2306162449323401 1.344547569733416 -0.6925379601239621 -0.9258068143792941 0.6016427867071044 0.8237839566435552 1.3489172978137918 -1.1877545577047495 0.09527330838361917 -0.08340725149082573 0.9678570911553153 -0.5356823189257401 -0.1576597085968936 -0.7243169436243091 0.5853933513180868 0.030608292780214152 0.4189320687344125 0.29923193307597995 0.07292552944370853 -0.06138120559681584 0.004623550396342324 -0.3309440857856539 0.1963998852509018 -0.7163460487267403 -0.09692565770265926 0.2650941092532091 -0.10876815921559702 -0.8853702853641544 0.2661159564356629 -0.13604073860415225 -0.20488246767660356 -0.23866830491207403 -0.08556771327798163 0.3491076351288845 -0.03240409887464324 -0.07376158452953924 0.18947693702315843 -0.2638665615535857 -0.4155396566194558 0.12482476492825195 -0.055210600023785056 -0.044591505658317654 -0.6737568251113443 -0.01574727622450106 -0.014243656215875394 0.00715137718529113 -0.2630000008335912 0.07475747231164179 -0.19888911013690688 0.17661179885850078 -0.4374095063057999 0.16449940481952652 -0.17761177726433636 -0.2887261297898907 -0.15492221024705027 -0.3298121519323247 -0.008069872876640877 -0.35159953154410795 0.12852362895751096 -0.019630972411954273 -0.01271744233709532 -0.03124999389339352 -0.0201011690166778 0.026533736900780702 
2.20708240067411