2.57329022067872 -2.4724880807653786 3.339287864157535 1.8358531700057745 -2.0766944969893544 0.19902787345238138 1.4065397991622954 -1.6900725350645251 1.9599851608864225 0.6402023402893637 -0.5266891637013627 -0.3293994391818995 0.15945672391602295 -1.1107610111266484 -0.38092052972347723 0.018592196523538135 -0.28923910774354566 0.5431987320018083 0.3507767213684728 -0.36698366195724197 0.502404239305632 -0.2841357755310796 -0.7037728883524879 0.388471709424817 -0.7248018784329533 -0.11757113698275257 -0.02997670543893996 -0.17541159656101168 -0.04970501274005312 -0.7067059121376416 0.16081751988108745 -0.1421044598055483 0.02234373400113243 0.020344407278009236 0.09802701763857782 -0.014675631242113907 -0.21632957479080037 -0.08327044003685913 0.09093312315992558 0.37522082238132426 -0.01899745073343434 0.2275006534213033 -0.4040084794298098 0.14209858596873726 0.20088793211510164 -0.3370220626370646 -0.02726362956497841 -0.1673463392102903 -0.16673888757419736 -0.1327395270895314 -0.6218224975344914 -0.27496314455065907 -0.27807520548384607 -0.18973736888902243 0.48077652831898454 0.06788470126634272 -0.1279617281133063 -0.22975374470036627 0.005500611402140157 -0.024900394968320638 0.019199205107852224 0.1957844342623036 -0.23080787941704206 -0.26200730448440124 -0.062245982372068714 -0.10451781980794603 0.18963739913272598 -0.3562306329078094 0.13866537594286987 0.10003860725984105 -0.09113392411905502 0.15969530413018238 -0.06877779451861227 -0.04256725742299017 0.09888537999368796 
0.45635430019808276