-2.2474540650513894 3.9189457208798757 -4.218973510150235 -3.2832742367726553 -0.9587694906034248 -1.5442465409647148 1.6908707574806332 -0.8618193003174497 3.4485751159567943 0.4782218720835558 -1.4250710288331938 -0.29142882097826917 -1.7952444589265086 0.9028903191256858 0.2739808236151198 -0.2276385961839813 0.05786851356039202 1.9656905365209565 -0.9268344659469836 -0.7655450411144745 -0.9110552099902463 -0.20899386944895593 -0.09639099590348005 0.0301396587676033 0.21689552065864315 0.35698046411899775 0.2920410994058486 0.0037753139224495635 1.2994050873737348 -1.180900302771122 0.28127938828990895 -1.0583628366650237 -0.6344852208462963 -0.2525465859596817 0.013276418998950712 -0.372321117104917 0.317769711293162 -0.040361495930629876 0.17335108690418466 -1.0924350154274811 0.6913082348811976 0.004017164926354844 1.1305680863967074 0.21352825036621148 -0.02248139864804155 0.018838856076445643 0.2964886294764506 0.997937244305043 0.7307554034493826 0.08958900399704195 -0.3969078030863348 0.27545348066636455 0.664433501982262 -0.068368498275507 -0.2599434005610296 0.48769927658599876 -0.4937344494464045 0.4362309292629428 0.39596867087345344 0.27245435313848726 0.4438110765208365 0.6059675957613933 -0.1988782692986415 0.2658999114056216 0.3666729640147415 0.16245309474469205 0.37294326038074765 0.5313478804937957 0.649610739770494 -0.46238631801166397 0.09937558712230177 0.020184318356744724 0.17554287742458685 0.41289256786425943 -0.23707802598235678 
-2.7755148094502795