1.0074249148152434 -3.6203389231686174 3.5633910233473376 1.7013515069167093 0.6321301251419182 -3.078658961363441 3.642498120366245 -0.6436844851638835 -1.1066360789981315 0.5801695855193516 1.4492695570588308 0.4033981673196889 0.081799405305859 1.3517796036418206 0.01786571560532557 -0.1649677667533273 0.39591794817262493 -0.10658640832045285 -0.5085172732198028 -1.3528167901760488 0.8178876340514818 0.7716213320238106 -0.059991222745289785 -0.7791627838580322 0.3153431636212959 1.3820390073192907 -0.2798862074528357 0.1865327479678868 -1.0571656084511156 -0.106452520010876 -0.0834951821058616 -0.44655054767237135 -0.024032055860702672 -0.41224396993769225 0.25961855165798997 -0.20174548976629111 -0.17087399597960348 0.13127046284292287 0.0367197771255065 0.7455981857856864 -0.37251005465988296 -0.386291929985496 -0.0983129721847707 0.3646986481022493 -0.15192614628474443 0.6166215843007186 -0.6222901442457051 -0.26978317127079016 -0.31885485551721915 -0.8227725298162994 0.4104798731436208 -0.5331076911798501 -0.5168234491469095 -0.5793198334321495 -0.0053388451124858904 0.4837621737040519 -0.09054735715771262 -0.006323214883077244 -0.2350202014311058 -0.31782060522301425 -0.23237521044086673 -0.4426432572342467 0.3118746760607103 -0.3396949478919044 -0.27509003348709876 0.09910570427490337 -0.36183737783554154 -0.14235733994468525 -0.28382784507754444 -0.3267233792738079 0.026379842011979737 -0.3037644688271563 0.16645026749850864 0.39124688711585465 -0.10508305927097505 
4.57350176396572