-0.809819918866653 -1.3728472218411198 3.2146705848518247 1.381487206701721 -0.7016181324351543 -0.028545930023805788 4.918265300887104 -1.6824820541754342 1.6836887757842796 2.4776279955016918 4.128398466388603 -0.8148626576007292 -0.2268171694543054 3.8045412724683896 0.6243579508660148 -2.6017547367385756 -0.557409060422279 -0.46564544616174985 1.0582168127545604 -1.9280429383570228 -0.22790950898812312 1.3605562435266738 -0.06511075931836252 -1.6620039262237758 0.1164193982612981 1.2327865099664927 1.3140593350743481 0.15709343663068287 -2.1478846990316245 -0.4913167640435997 -1.6401584567754397 -0.551573823581952 -0.0014928384051335897 -1.7055348816971563 -0.4129291378830804 -0.13159112600942208 0.978122777697175 0.048898192630030035 0.4176324483703741 0.36424652539039437 0.04799094627083045 -0.2073746328772087 0.4198680630143058 -0.15825619017117087 -0.1631542868383673 -0.14269845145033022 -0.5110974620868719 0.47858072912805727 0.09481008646735387 -1.9272006709373792 0.2763835931495382 -0.6310438586495932 -0.5064683140055597 -0.6775261161364587 0.3577309044161877 0.3168066635367045 -0.17131138829270343 -0.23685590948600022 -0.5369886648241469 -0.3338109892256528 -0.5303712270196869 -0.2945664713841477 0.41567624336452647 -0.4039206410842672 -0.16562814528827355 -0.32679897177979284 0.04059701314669595 -1.0721612746615268 -0.8670621398155685 -0.5016675269834088 -0.006425692554152707 -0.7864917191031967 0.4489883917563814 -0.26277367039376287 -0.5294962649184853 
2.8212531123392512