-3.537896414247256 2.049331611125906 -1.6315297015171784 3.240368705277854 -1.9000222458273903 1.9544309786984175 0.46616817661242704 1.0240614084485578 -0.7913926814904979 -0.9288905399110348 1.1394238972900819 2.0656923534075418 0.6136178150281367 -0.4903842271646529 -0.6543619174474091 0.9294729272244537 0.5750376307147658 1.2203242213027417 0.6287719858326788 -0.27724334028483466 -0.22370940339980305 0.30324675988365735 -0.7419359909866912 -0.5680075321465637 -0.4771306271472382 0.23414016381656966 -0.35264161178022413 0.40659787597644864 0.5103844906298812 -0.31615250396253114 0.08752156441585818 -0.06069274479792586 0.36330040809819497 0.018824929757592757 0.12451633589024674 0.18766329413177935 -0.1251000426317754 0.2370192568403729 -0.6308741476981493 0.22524518103692992 -0.11004360491653854 -0.42258968869992175 -0.4077353303901382 -0.14501241628819023 -0.258700138964102 0.09534565019807861 -0.5315432515418137 0.18360789070923667 0.08615983487477219 -0.30883128525468173 0.08465918057764976 0.15144933288946155 -0.5331960862987793 -0.6421317013826545 0.3059819690373989 0.0010570787789891678 0.09182454492683179 -0.19492273706863397 -0.27103321395783986 -0.0656696129526593 -0.16407130428259564 -0.22817483851476922 -0.11003027849372127 -0.25624125364134687 -0.19347523873306133 0.01118402829806077 -0.22623862302699807 -0.1634272797296648 -0.09310864443256328 -0.2705875598161977 -0.17946517365642237 -0.045114381960157185 -0.25043851423277824 0.06402062606068581 0.09929572288513949 
2.365242607888188