4.669300881356339 -1.6412621638253881 0.6440283970437668 1.6414168380632912 -1.2679140388147854 -2.054090318123987 -0.39470668257269903 1.584142971763332 -3.5938848161389103 -2.8895794874335365 -3.574667231381951 1.2152017477588353 0.39468979831891426 -1.5733498103817147 -2.7017156834751104 2.8073881689524867 1.3438194095162919 -0.2196823467354314 -4.710348327352051 1.7028823458264173 1.204514416863169 0.6439114972677786 0.3861455262884247 1.8988816968017939 0.0904430292769498 1.5173692339873437 -1.1984238677062407 0.016375373350844602 -0.31292838389649136 0.002069758718459519 2.1382837263119296 0.7605089323681811 -0.5516713997961582 0.92383197498208 0.19507043939448743 -0.6930777778227204 -0.1516390889663739 -0.852501493032304 -1.0896596833691978 1.425017181364829 -0.48757876236758985 -0.24898888085946666 0.12021229457664884 0.7125613529243986 0.9832497491708451 0.29718982279125106 -0.5542018102164351 -0.43380912112710396 -0.4504176491838995 -0.5826920310241775 -0.06785537428905797 0.5035313871311846 0.2923959158580995 0.1356634465973692 -0.1794745556655592 0.5605405815426424 -0.2831876027246837 0.10957390285317326 0.21456367494984593 -0.3068265180562522 0.3003052709661979 0.07684046355154006 0.00844893796914814 0.28192388715872474 -0.015076927376576859 0.6217251462486605 -0.37286291042217534 -0.11526844082399001 0.17425429365576617 -0.051765492588582276 -0.22700222472497567 0.6159182035230439 0.11536179209402599 0.19086561315274198 0.32769181998431085 
0.7810206430063109