-2.155607436422624 -3.8964637828824387 0.0846235723501354 0.6507361037902943 -1.722519761711239 4.7359709706731135 3.696411853591602 -1.9740013414010806 0.18447172646581933 2.747255895723132 1.3597585339729772 0.7778282098955316 -0.44360763881153975 0.7660506782331759 2.361494631172677 -1.5835894113735325 0.22930626678465682 0.3314924708399749 1.5411114061282898 1.4205046493209026 0.28243220510256917 -0.942579004872153 -0.6658407782001636 -0.9565640560800373 0.8524267648025563 0.7750782972408625 1.2483924297428213 -0.08388442524823558 -0.508395634478771 1.229520197696241 -2.0965221137925796 -1.057268506594448 0.7239469101700151 -0.04331018823069499 -1.2453799747463083 0.8351224368264893 -0.39990614050982687 -0.29753697652912514 -0.8321932925541355 0.7390721847167807 -0.3326910073483753 0.6114782340532268 0.6291897145028531 -0.664851419418276 -0.4332509665670463 0.24187566323098353 -0.24213540363998542 0.9218950118219836 0.8509957640948015 -0.18785393724239463 -0.3912778522855783 0.022569295840529857 0.02482265501686476 -0.34078153097528796 -1.256048169822055E-4 -0.10920197203402404 0.5539326462548658 -0.15281930211684924 -0.3022535086906186 -0.13820209146989476 -0.3534399683080783 -1.1709397945101285 -0.5909130164442882 -0.8810209503285477 -0.49890307572587966 -1.0477231721651115 -0.19523943071274985 -0.15288221528433676 0.10231892408006926 -0.1169012244957714 -0.6560671181874493 -0.8204755177278944 -0.330753895872991 -0.2682420831535609 -0.24796978017575033 
5.132756727564672