-2.021939513436129 3.3418226747083786 -4.194825257045132 -1.1701845841235272 -1.2447050380152407 2.151959444237926 -2.867332659650632 -0.19455286243566056 0.7276632073798552 -2.4151131645494432 -1.422881121874769 -1.2738776879761768 0.8304302362658915 -1.487608922865557 0.30915333263227457 1.1188685357133403 -0.011731414121006645 0.1976973008872008 0.7751627263133244 0.44127603189995457 -0.9267147478927 -0.9074722177930403 -0.4847333700466987 1.1524501035698838 -0.31351371092193914 -0.6232229972344988 0.7368009692852125 -0.11727708431810197 1.034886106322799 0.8891120699392093 -0.6203460602907076 0.23624471808419115 1.0614557970774343 0.6124012386814204 -0.030285904174353073 -0.17335883071638625 0.5867006799562619 -0.10598120275769454 0.13802534021315832 0.4269328495981226 0.18999085110182762 -0.18535260413939256 0.5417826793354403 0.3835659695871697 -0.36606262126145334 0.1025219687757497 0.96570316577534 0.2862140255664946 -0.0460197732724104 0.9227837051462526 -0.5780393057836808 0.6334634161593392 0.5255390441658878 0.3240245281527223 -0.4778564998024607 -0.37098136957107875 0.15573699343830638 0.005297440730682279 0.06179980741314235 0.5667130994300643 -0.0012611908636955965 0.36586723394627024 -0.20855489070390487 0.5581545337990149 0.26770813293167206 -0.2179908802625062 0.2097008621081874 0.5648462578846712 0.412697468333604 0.2848464367617124 -0.013766212515078924 0.3897507007975859 -0.03550178243699886 -0.41601953695814436 0.03731333570322887 
-3.0641863532146214