3.4865442204157615 1.1828990626403977 0.4846601209640591 1.1933248227820417 -3.536101981079251 2.847748442289022 -2.739898186051122 0.487868276248962 4.125356015323088 1.0863516919094491 -1.5300058716405531 -0.9696408194426004 1.5121978768989583 0.7517924089371175 -2.3933258498094205 -0.49117707183558945 -2.4197001136553244 -0.654443909224718 -0.014732730031420282 -0.533785802701354 -1.345598008624785 -0.8392070338521108 2.7393820581271378 0.33241786633463005 -0.9053379156463941 -0.7960366345326068 -0.09016598071862619 0.6639815157891709 0.27991811346884676 2.2466483284911187 0.6979568395177087 -0.6517374610441813 -1.0275570825973486 -1.4059197192603996 0.36881447699535563 0.017138045716681927 0.2680596079886561 -0.5929837776602322 0.7524580751195258 -1.4149016674448496 -0.3667525883518143 -1.4194910752552132 0.888301068655285 -0.72072511639856 0.43225783271288454 -0.2566637542799225 -0.6102044219715157 0.33778520168016263 0.20065390052632262 0.4434051349678759 -0.9086372711759043 0.34818515152927104 -0.1995988621765448 0.45977544835073353 -0.08778448632855174 0.801891830402831 0.6186754765383664 0.20090589211536464 -0.749378770356832 -0.5413832436604806 -0.33370490541308295 -0.07172477413744421 -0.41166642720022906 1.0235760053749345 0.8390875663460737 0.19861695856959155 0.09312828487654926 -0.35426734776159247 -0.14043230078383934 0.024260558949328746 -0.15231682365471472 -0.4057143291389334 0.40217856359074533 -0.40830150940253096 -0.3471971168434286 
-5.104156225879111