5.310436110720611 -1.6034632286976773 -4.0550998416605255 0.3830977456671796 0.5101895591589849 0.39536364573133487 0.3311297287108297 0.45989102325075526 -0.36055752289191023 1.3438585049752696 0.44161607871071495 0.5377935020455666 0.4850801119873906 -0.40486946375680977 0.9439180080520051 0.9385645016721713 -1.675351348184551 0.06827163305121398 -0.26484965168903546 -0.6922426415003846 0.17754520266165952 0.14964278429439404 0.9169810016264937 0.22902823303583197 -0.16983218794989852 -0.6720677058001833 -0.03581308342067774 0.17131021938171312 -0.15592268045085794 -0.033186984464492725 -0.658664106516292 0.11536139925232353 -0.0881769052073309 -0.10170167457843493 0.292454437675491 -0.16772728873805726 0.17913282496618468 0.05804537032606122 -0.5051666431287172 -0.22640556446263382 0.1988533089969692 0.05231432550069595 -0.048298719705778204 -0.010149518435209393 -0.5928493175285918 -0.44195557695186427 0.07649876046813162 0.11551209324606457 0.25771089158802113 -0.13987309131102799 -0.10147874984112626 -0.40442931292203804 -0.06259208927022436 0.08441943096833755 -0.3262428088438404 -0.2644403112801514 0.009696343247796058 -0.18570852218136835 0.22693924229266446 0.21689848387549565 -0.12463752899642562 -0.01449478414596539 -0.17564272793829327 0.08805533813060301 0.15247726502935446 -0.09060722449432632 0.08360686986145949 -0.2632627664558592 -0.49291572500342073 -0.0762819468451093 -0.2130549963100182 -0.16394266587271103 -0.25841649962543806 0.09030608786281963 0.2303733390346926 
-2.7954655775988715