-0.5956221096274774 0.04327822798614811 2.975929055323599 1.4917176207969742 0.31872478211787936 7.99839787876335 -2.24097491649367 -0.09458272694743664 0.20232742700192663 -1.6190754447785518 2.828821173742146 2.336930854997302 0.12265356637219793 0.5733452983104675 -0.9732276893488586 1.3186203252028181 -1.6377263850832713 -0.5454444465294117 0.6724513110870729 0.4776431497906265 -0.7506091011551721 -0.40727382752608876 -1.386563573267614 0.01019200169619544 1.383821138675713 -1.436091152710213 -0.14534615935827322 0.6627522133059176 1.0422073524630506 -1.4261068529558767 0.197304085383954 0.2731747593582188 -0.8735276242100183 0.4395258332194346 2.024709430282643 0.05337777016860301 -1.3563198186317205 -0.762051485068118 -0.08014433609614156 0.8388020514369967 -0.40444655394515283 -0.7392406175292078 -0.3430552635141824 0.12929184249842918 -2.067400637482533 -0.14666732559314244 -1.0175347657911202 0.25415297014257077 0.13950047854790804 -1.3526365126062943 0.14394530248706466 -0.4512368303257858 -0.2520784619806517 -1.012516014220392 -0.9430127023956225 0.5524979378101045 -0.6439133943891012 -0.8023898029306905 -0.6214838161041221 0.008199790381712757 -0.5961184435583882 -0.2914952967365849 -0.23882642612919536 -0.3857749672837133 -0.2184933166279599 -0.5317072423192275 -0.527551567392668 0.019610970571264763 -0.014887532890247468 0.44178841327757495 0.1767477624414457 0.06212056674354546 0.8649552206353315 -0.026414699910509487 -1.119948721575721 
-0.2285590109702893