-6.15470324940793 2.970134668355099 -1.3605221309533737 -1.1318914716312722 1.699194902012683 3.263752360186855 -0.030536296125088125 1.0433222201591401 -2.2881054199825868 1.8068909672041633 1.4816173248433402 0.1817912197211653 0.06748743371829016 -1.820133825316104 0.7302525817991273 0.575069178817652 0.5409065158240849 1.2113066779779769 1.124773369337523 0.3926906098722663 0.12419842399584269 0.511561015953828 -2.02046206265449 -0.16602174061347325 0.9330333012791033 -0.08160819350417486 0.272799515626774 0.09034937802486497 -0.4047753947132569 -1.9352333255795338 0.22387883178841664 0.15283457465096195 0.9151201757195357 0.656341206651041 0.8056983991974013 -0.937307949564312 -0.20663195967675344 -0.16729089982893358 -0.9222435112703272 1.3817818750065671 -0.030686743832183117 0.5146451468288711 -0.12106385133030312 1.1304850332729375 -1.347174771201955 0.05661485951731943 -0.5410782828300021 -0.39049643814648627 0.20085995002997167 -0.36451659492683813 0.49891444206110513 -0.08662887307840535 -0.977148109408619 -1.0319800717109815 0.024332019032342833 -0.31636457926628675 -0.32266380955687546 0.02325013929756911 0.6172679064587938 0.2917635805985408 0.016782857941531615 0.2253054902578564 -0.7846532592389596 -0.24513906922604564 -0.6521344384576657 0.5433648319267659 -0.02476800017904321 -0.1821478053048714 0.014959325415602298 -0.27528405552583446 -0.2034692407464684 0.20057560059419346 -0.4787169060248817 0.4370030130555246 0.05067140680172877 
1.8434918147155825