-5.719641599202873 0.7976005701720883 0.9479032363821536 -2.220652227600033 1.461185830672067 -1.3013571561440251 2.2532845665895618 -0.12714422414584053 -5.3552515231056645 0.7532514714323462 0.8812851322971915 1.4888015874142442 -0.6225311567509799 -2.070132249032723 1.5753943544393456 -0.369074910480668 1.2116819641420813 2.172364764128568 0.5153821412827808 -0.9092960636385289 1.4587655841042313 1.0303423529153046 -2.801938182616758 0.08295064586660172 1.1152306128124976 -0.06145034269940994 0.4858620470825333 -0.5363018011567737 -0.7642020764290086 -1.2135174413593777 0.7953107490808162 0.7251781526101913 1.0782746547372506 1.2565751433271195 -0.6215093319978686 -0.3006358539844119 -0.689773679289168 0.09655540499818002 0.12214638808446004 1.4788594818532168 0.09327820269475678 0.8466515956238763 -0.7592116872581067 1.1970234197850358 -0.030614343868914956 -0.3227091626615471 0.20646628214801072 0.3292882870299324 -0.12974268496290955 0.5743574713007007 0.12481726204371396 -0.8422346694348827 -0.00115802470871669 -0.5246779801422461 0.02692059411155713 -0.2903586671953348 0.0020078408520197988 0.20627313659768767 0.5292329834817937 -0.0745440605951865 0.527891605476448 0.14094643064675913 0.08741748274088096 0.09520668609576227 -0.10523047009461284 0.49321859936854867 -0.24061112791803965 -0.1339004499182681 -0.18955435036156987 -0.2848359444075673 0.6288726179141686 -0.21764828269129227 -0.24538291839863502 0.19665848034621547 -0.01389117043073379 
5.81724953306315