-3.1522530286424573 4.705796809921264 3.1614342123070287 0.7839835189259576 -0.23461545331731948 2.3868901495770767 2.5127899356742844 0.7249758470350753 3.2185492631250376 -0.3455584914855967 0.19717766782194662 -0.20223687028781345 0.25260839449773975 -0.5749377940700682 0.21323642892844108 -1.2037912391605659 -1.345687138470915 -1.5280091383201853 1.4852363946053593 0.22621068860252472 -1.4930652753702636 -0.27753038684804254 -0.09321289598392801 -0.5974231024177734 1.1718969963784243 -0.6068467006527785 1.9628065934228127 0.3529472869899943 -0.1822407364150903 0.9482379526218367 -1.5690820243214079 -0.6163870682419863 -0.4815254212511688 -0.17101874492633629 -0.7506421422917959 -0.17080799154115522 0.6052867737664179 -0.18893834050456848 -0.2780071729857072 -0.5338133464067301 0.5633421379700218 -0.18693310885044234 -0.19319578700901663 -0.2362013951043349 -0.8202135336730662 -1.078101092830083 0.1657312058274506 -0.007227244163841573 0.21612604299164967 -0.032672932762010665 -0.5649540535580315 -0.12365489125580853 -0.4690241696557554 -0.40519529352399064 0.07551234222860997 -0.34246609638036474 -0.6501900189866476 -0.7257695968035578 -0.17621709352504086 0.2579691253705298 -0.14060252990266742 0.16915177853091767 0.21025716766477598 -0.5565787237310309 -0.034920662679292905 -0.2544240464263279 0.512458400367671 -0.5371382103595279 -0.20392552868455704 -0.3519792834516842 -0.47457462502921505 -0.6993616227273238 -0.06742204247787781 0.02274615403240232 -1.1727851817200723 
-1.8884110758132626