2.0032096605992713 -4.926633884520026 1.1718256731470071 1.8233858868422583 -1.8118002449999757 3.11110862998248 3.2012402907200963 -1.2257572968276365 -2.57939623195285 0.05918702016790944 -1.126629831559389 1.622111234571428 0.4238230404481209 -0.9930423448611201 0.4278890409269487 0.14883458314640596 0.7799323312376063 0.796541537358042 -2.428202011109945 2.4241553179894266 1.1435719989586635 -0.23511513983503907 0.018478971090122087 0.27093656686422096 0.6906852710251132 2.0111800287134023 0.2746287918214211 -0.07750377932848096 -0.7327579129016305 0.960486425820298 -0.6294714381046225 -0.9233284176726316 -0.059323284028133916 0.5142483518385266 -0.7605311807029154 0.0029660925536514338 -0.11065830078088001 -0.9997843811878465 -1.562091041466324 1.8704147989623374 -0.6198144632513991 0.8295958731555104 0.7076418430174041 -0.014308452059655363 0.13886833472133975 0.15783646458948453 -0.9333185401439792 0.5410783805645294 0.21247436245191786 -0.5182526991811444 -0.17371634983645845 0.39456775109066183 0.5770641196617894 -0.5128948386172325 0.07824916627018408 0.3053426058627941 0.5105754117459704 0.029619782627094193 -0.0602574447217914 -0.33925976283624387 -0.4106692107529647 -1.0928206621479732 -0.43225405478557943 -1.0066189575490885 -0.7419681337548214 -0.7111394865840948 -0.7135281934036184 0.11579985771044976 0.2770813786553816 -0.23428774373670902 -0.5294903037396583 -0.3630760468275699 -0.4250295115953826 0.03150004174228882 0.35659465871325 
5.004602831607509