2.8818270481503507 -3.2908198578808143 -2.1445343655428846 3.9819283475479166 -1.2351905018821858 -0.837442447322444 -1.5605498487860192 1.905309484942057 1.4723248525523585 -1.2497383294639746 -1.837240932983035 -0.8670367410476234 0.07332888712683469 -0.12870673016244266 1.6489750905799703 -0.014607175833575847 -0.620089961731554 -0.6285761462759177 0.7144908776229517 -0.45640295966616695 0.7907260813403314 0.5892868948882315 -0.697445836745415 -0.8171040881730005 0.3361128530470394 -0.4111678688428764 -0.8491718981776564 -0.7040176663932889 1.1666473982121288 0.14580523069299053 0.08699395085770867 0.6119410815297546 0.08945492568727065 -0.894069399217187 -0.3439533194136769 -0.05200139374035867 -0.10009600178301976 0.23851285947003042 0.42626398332662074 0.5251446303569052 0.27541808932802075 0.8178765193269806 0.6148870955498269 -0.2749318515422457 0.06778271951603854 0.1217195815265002 -0.08615572316374315 -0.2844987941731893 -0.13073709910517997 -0.35965790262416597 0.11226158737761638 -0.6572376810284608 0.2944549691696047 -0.559864596478276 0.12477685019039456 -0.021941448417420795 0.33580997431639 0.23111197169593006 0.040005012642690296 0.09526591929191157 0.4520219440419931 -0.026775538914467684 0.4391074510575167 0.2461190924567329 -0.10721751975499627 0.03498215841939947 -0.13831754704459315 0.26838810340847175 -0.29909723116920706 0.49573358837224046 0.189419459255652 0.2210058155167244 -0.14447309332873445 -0.19687842188221077 -0.13547446070009017 
0.26485399871288096