3.5051797457493663 -3.8971722607978467 2.682211202245307 -0.4905374187869286 -1.55679917248339 -2.454609005702462 1.231188604728171 1.2496610862560895 -3.0610610734099373 -1.5883632214042183 1.3715395868329854 0.7920201826078368 1.4954383686111177 -0.3944813133144241 0.3541496394014435 -0.6235733865785139 0.32893233469437155 -0.36263797746686743 1.1450502009537202 0.10670037327868959 0.29256094293225443 0.14377971969656533 -0.5065964326714134 -0.3035197780882006 0.8608212208955225 -0.6061893695967743 0.2070379102150044 0.054492295106581434 -0.181405722514294 0.849667131536709 -0.3650391141789257 -0.5128409606194579 -0.33628878069281676 1.1858365625213225 0.5094412653678849 -0.2156413028266564 0.30609373040459514 -0.1464228380543654 -0.10040581615356103 0.8459597298230397 -0.27924408333646367 0.6266200996239353 -0.27302190810981686 -0.7181945897332166 0.5261790394296072 0.3980616952589956 0.13762334500443124 -0.28484042104193924 -0.5566198311884032 -0.09863372067634019 0.13465142029409516 -0.16316082849145291 -0.7522280856848276 -0.2428910622736664 0.04448432992323126 -0.03571888232395154 0.7753421697977301 0.08770964624671795 -0.20927504353952642 -0.10514943761440845 -0.4423971452188986 -0.37117041536574846 -0.27253793742918475 -0.34739717957732696 -0.020156117927256023 0.10553421859455075 -0.008838502878668525 0.03911863177189795 -0.332141488752322 0.05822383158882144 0.2150858848733933 -0.21765260021152988 0.23905786577443042 0.28583350449079914 0.2435667101847841 
3.432932234335866