-1.0016310766881986 -1.2727021217946017 -3.0465389069069024 5.725638060970756 0.1500336726638083 -1.515158886855136 -1.7086313471788854 -0.5581636169823917 -1.0901754885290096 -0.22317031078912059 0.1081530731889771 2.2993597565690855 -0.561919799621621 -0.7231238072859771 -0.14405948707403715 -1.0235990971099667 0.19751661277663013 0.0704746853621065 0.0357344903566188 -0.3755027459619882 1.6340409105619382 -0.08267677438991611 0.647827513506868 0.168668135781042 0.6225305335287026 -0.07112451490385321 -0.2118955618976964 -0.4853936361285297 -0.07477624808367192 -0.641473014151927 0.01551606127639154 0.019449282795398856 -0.13215336844654568 0.9064275862792771 0.15587682889116947 -0.35982866539519964 0.33584958045661983 -0.37517161388681874 0.5097520308748874 -0.5084929234660799 0.9507547895732786 -0.39518446966539134 0.33243519627849355 0.3600720617152804 0.19538643185285393 0.05528082510907162 0.07647857262548974 -0.10464629776564247 0.23592312939815 0.30691679273076977 0.04780960581905164 0.47948317969304055 -0.43054849060470257 -0.27772301351472756 -0.1514720092891496 0.5105860550985856 0.14192212478933566 0.7060997008347965 -0.05099624158375275 -0.1923144761002688 -0.20351694178336352 -0.24901207706930603 -0.15911005793644986 -0.28552379547542983 -0.02189005747672071 0.1712084083876835 -0.3878854208846434 0.126408570426904 0.0417558425115436 0.08527595796797281 0.09211186952005579 0.0967951570579294 0.023829290613247983 0.08698726289548758 0.37081672193835896 
1.7606128682907736