-3.6526382244567985 -0.3060255680287538 4.90390232378544 2.916083526593571 -2.149615521951852 4.945728953153034 2.747782691088737 0.0991193375291588 0.008778031236110095 -1.7847712543755967 -1.4418638851738916 0.9148105331027365 -0.784338586361693 -0.5540877259203082 0.04323935556255293 0.709027652984772 -1.1505776098070388 0.5314983351367214 0.876808456048768 -0.28444078163912767 1.240091134319145 -0.6918317177817351 -0.001225660887658575 0.7627161667822495 -0.4078159264210216 -0.14389382394955783 -0.7399300184596815 0.6270667612668211 0.0894148580225399 -2.0186283442188344 0.12188352928613069 -0.6150080999089058 1.0622012181544878 0.08221024321344234 1.0512218670065916 0.24495906385495597 -0.534037742125975 -0.08482064744067908 -0.030008125763698407 1.2365659034215197 -0.19288456423032652 0.21854418040517015 -1.167612596300832 0.6947679501652874 -1.0131137811076405 0.17653235144491908 -1.031872872279401 0.14400288432398248 0.05824884095855973 -0.38314315865944165 -0.8716782543219016 -0.2845703065199504 -1.31393878429617 -0.9460009422693338 0.6265077881579435 0.36687167758097666 0.06943806235459071 -0.42312787457778567 -0.07115970928334678 -0.07012156492136572 -0.42111392267866427 -0.033468028362360736 -0.5869560639601281 -0.4316056752138674 -0.5281588579414169 0.4384267560508144 -0.1703868872620776 0.07022228679383904 0.07141452801002057 -0.035636413817045555 -0.4426001330420422 -0.056451667755987256 -0.167755567710487 -0.14750573399856443 0.016335377387397543 
4.589438853932932