-1.9390691116393555 2.2687514555569015 -4.698121811151993 2.414896710084806 -1.6004851584037598 -0.5687689692636231 -1.4818590229071078 0.9944418588951512 -0.750618978153855 -0.47380357380822047 2.000974665098562 2.0843324220839006 0.9178142654765792 0.16189775477223975 -0.611474292653938 0.9279131505478548 1.0590082541657826 1.0847263781742371 -0.002403287713239499 0.14037526598603936 -1.1801375799059608 0.8519966311260889 -0.7167234299954461 -0.9195817957004645 -0.21123900032985066 0.4108343301977852 -0.2232837270705828 0.05274279479098151 0.45336877709937706 0.8603738698611836 -0.2216170435946906 0.3085292706142454 -0.3137101387808616 0.3813308967626033 -0.6673020052686086 -0.028759533668545334 -0.05826048804241743 0.4583201402656617 -0.9607350759338962 -0.4321072933814254 0.09019001098075315 -0.7394155262627916 0.14520412450809805 -0.548318163729037 -0.04676236677800305 0.10640807686739961 0.3637102658474449 0.20226717638648542 0.10533815346667935 -0.07637453045984482 0.8321267959307391 0.264796114072225 0.26789385207904526 0.03049743330731118 -0.19365371806040224 0.046624270069357154 0.1900416155876283 0.1536231970105748 -0.04470462016071933 0.1206487775573234 0.026943733984788873 -0.45247146633917346 0.27033078297960517 0.08016458985428074 0.181193719401479 -0.19838626521647337 -0.3913713076519886 -0.04090911249586204 -0.33339584645725484 -0.04521720909194503 0.22748939490579445 -0.10690874654934507 -0.19570678621734128 0.046436797173504574 -0.11090079069249048 
0.34626846589189086