-1.1463140987546616 0.4874791100686031 -4.653262223604431 -0.5602318056639198 2.2956296953880004 -2.530454674369929 0.7379191878025086 -0.9308930395448991 -3.2810810713577196 4.51913811563007 1.7530643291529624 -0.018678955595089364 -0.15227579679636927 -2.120357562590369 2.8304378931683623 1.7694517950654745 -1.210860315234216 0.424568437301291 -0.8325743602434704 0.31452730902836756 0.41425905591363776 1.5266395424074375 -1.1820499615913098 1.5382886679981675 -0.005754326294207385 -1.2409227660634805 -0.8004902044105924 -0.19187556981653403 -0.6178558151714145 -1.0160560940065113 -1.1239718161969106 -0.17319646530503977 0.22059831275537234 0.5922780664319036 0.7980604532085562 -0.09957074426441323 0.7780861616428948 0.677898152434238 -1.2799617505644991 0.6876128328804575 1.0713369479343617 1.1845389321769013 -0.3730384207368027 0.898324391360831 -0.6855997233934814 0.03576213717676463 0.9272758360173821 -0.19950568664186016 -0.0688723667817438 -0.5268262693356837 0.5857816063383807 -0.5329090964646422 0.2687841286453512 -0.9331362671475926 -0.18388094374120711 -0.8657221117121072 -0.04188946205469521 -0.4407928892034336 0.2900309635337486 0.21089066762900543 0.8321469798650566 0.4685738266767807 -0.31514330958616704 -0.6746739796083049 -0.8410297411044281 0.18957049792081376 1.0492089635914423 -3.788788930596809E-4 0.1734815678194888 -0.11297331015474342 -0.018455906431840766 0.556768526315888 -0.31860008303561316 0.49287013607109664 0.7008346361158457 
0.34469708653114034