-2.66815257626668 1.78711331488795 -3.3984674261475396 2.787583166522465 -2.8548007097408936 1.2784396962776876 1.7029672934978954 0.643247396677037 -0.41793588862636355 -0.7551817987565757 0.8310035299910693 2.312333132632256 0.8219799722984908 -0.7313951545486447 -1.291614258234003 -0.21534778451852432 1.2748046213920554 0.8333723143841187 0.3700157923178583 -0.13064295510787052 -0.09828908887469945 1.3442018702274192 -0.9106268949924059 -0.5077643200941758 -0.879550176552156 0.4481438934803046 -0.5344552287599903 -0.19258753686546182 0.28848688862063265 0.1652433845584639 -0.19979055723249095 -0.48271049581707726 -0.3157109877821004 0.5356684213503974 0.21189215500470943 0.5667824740256399 -0.032012442250790085 0.3056619095628814 -0.39418380122492563 0.1987759730752463 -0.3514813842010332 0.018640162252309744 -0.24311899910817136 -0.22162805377424538 0.36990153608430454 -0.2647666970336604 0.3823197177815234 0.2573264036879058 -0.1378142459473211 0.20933895205386444 -0.23474064302316744 -0.06229626353432219 -0.16135875279237183 -0.3251177660458735 0.2590214215419181 -0.19326135963442015 0.14053541825811516 -0.15242699470101762 0.008731221889931352 0.06959192479824777 -0.19164731661906872 -0.5136296146015299 0.1449449165893642 0.037628594929821735 0.07968101311166387 0.015457450932850433 -0.2177214415465743 -0.169474104875459 -0.12365030171659713 -0.0809790512118488 -0.183832847435413 0.2714172222149751 -0.26724176685083517 -0.16110311682536727 0.2962576469603166 
2.2683859071368535