0.41159403016725626 0.17318504391764034 -3.312191732404882 4.345160949721584 -2.2726295330386694 -3.027858845054014 1.4384417356912491 -1.312650570548532 -1.6758886569208693 -1.8331683980072495 1.4592682220961601 -2.2278253752998705 0.4359532413702632 -1.426114855168276 0.23608551737567407 -1.2579628285600897 -0.792165882874003 -0.7102307385795489 1.3602214933367738 0.767041735377149 0.94049447942154 -0.7360541642026596 -0.4740194030918434 -0.2932748375654529 0.24153066629371278 0.655895113670989 -0.10495525704526937 -0.31834553679898187 0.47739675380843344 1.0087753936888837 1.0042381320364464 -0.08855336825789065 -0.07459652725490168 0.2236720806943907 -0.11951360309657937 -0.31566577854550054 -0.07402275176903328 -0.23141040286302678 0.75167584022827 0.04403965395830034 -0.2996427146960968 0.21037337167620196 -0.009841714905740429 0.5310729757176129 -0.08387687471615551 0.21725881178693418 0.15503952043247005 -0.004099842673832427 0.418543104912237 -0.507765254297324 0.35784958448941523 0.12971675519096737 0.5837057001782477 0.05467525848572796 -0.16257556075057147 -0.049626522729191186 0.17102196358264551 0.4592863588629923 0.2114370956652953 0.2650951777021163 0.8023068591950481 0.5374639957234613 0.8712018530331636 0.2841700817953998 0.21896934771741675 0.191459203151343 0.6527748559311434 0.18880024739885604 0.3572356962160682 0.16700920177530254 -0.09733995144687702 0.21895448304726114 0.12690102391907992 -0.3366212620985407 -0.12650386517966533 
0.8198276574341327