-1.177270326668049 -2.3257201839461707 0.7647602400123277 -0.41633722903065573 -1.854874509696252 -0.9602232556909089 4.0347011485616555 1.3191313150082744 -3.319990734403154 -0.19309572278323817 0.7805402312216555 1.9674466291453587 0.949837084393147 0.276099997777814 0.7457193575857168 0.8688511677495978 0.9858854680084801 0.17414306666684953 0.047329963123369234 -0.5648906005437769 2.521943972413372 -0.13103752890071707 0.3030547744902533 -1.457610869812738 1.0776152728347346 -0.8494261374930451 -0.5523869577296308 0.08094504850758 -0.22768249152407044 0.2235382434313666 1.0240788582134754 0.0038449401022234153 -1.0964691642318802 0.948667232932946 -0.9210933703024476 0.6761643544366276 -0.962783341990723 0.8282441587276677 -0.007803772455110269 0.21984028084192642 0.0765242191006813 -0.09053512768231842 -0.7005354078085626 -0.20185845534454783 -0.10606996711567801 0.006179685352543096 -0.46141636006149145 -0.951835099947092 0.24596664995621112 -0.026991220671756855 0.7424322435004617 -0.0016774334576917793 -0.48359889309342236 0.023174196207878917 0.4945837281708749 -0.6220590429629385 -0.40531968666578727 -0.8282249784341479 -0.2588363677020507 -0.965226706588387 0.5656374849625518 -0.36008497642162807 0.10542337558955239 -0.5090487406759359 0.1046540770894766 -0.08463161371230335 -0.3785282757016509 -0.31026293428466634 0.543024735614885 -0.3319873881824981 0.2353832930865976 0.44390060363048095 -0.14249694478382718 0.23871467366973564 0.591940046382624 
6.6390348840338405