2.913956899126916 -4.435325532679137 1.3893342985177863 -6.4886580399892 5.28290375539634 -1.3582134905370316 0.3311997266432769 1.9413603108459556 2.8846954517183043 7.516567227858379 0.44545139477844664 1.3209308179726502 -1.8877820660483637 -0.9960564374975605 -1.2805329297501649 -4.462130863276482 0.0387424690503444 -0.015453259950060083 -1.4398309323105836 7.5067904685710145 -1.4088291276713303 -1.270170886833161 1.4345168871774643 0.6954563295718674 3.5001978917280723 -2.6440606114027667 -4.754411331576156 0.16912682705906446 3.8508608008342566 -2.288394075072116 2.609717536364493 0.09794361338865146 -5.789690378916883 -0.9502000271752999 -0.5131490546098387 0.472380586461425 -0.7554719168433699 0.7703575473892326 -0.4416106282141873 -2.041947736852663 1.8463045747778577 2.4841745338924635 -1.2241923185076526 -3.293239597520514 0.12538971887834016 -3.6158249125645865 -1.4843519697217955 1.2397404475751284 1.2536223954601802 -1.68648213221985 0.30838872045032106 -0.679527406212759 -1.02680391185059 -0.4994831848109998 1.577780828839158 0.43769958978854273 0.47592825201876 -0.4285074960150439 1.7446284847483273 -1.1620024524574375 2.053199836726899 0.180622884857502 0.687208346303497 -0.451846147936404 -1.4604706991881957 -0.016385788858626738 0.09935866823803396 -0.37430125001251824 -0.4106874160907976 1.195162261947281 -0.11282211566312172 0.5543812442203068 0.23401667466984938 0.7093951884353027 0.7693546345555762 
-2.218257226723757