0.0924068306764827 -3.0240079399592936 0.7194017647623472 1.5582067028510993 -0.6199658375764079 1.7928370099465987 4.360235235688178 3.447657759184525 0.18482300800501505 -1.0464905252393684 1.1635925171675237 -3.7948003514157915 -1.0929815359284691 0.2509282921926713 1.377203564067743 -0.28599533730839394 -0.06779619989637942 0.8401004669747709 0.5296785834990005 1.2928670681523715 -0.863237211184618 0.31082772818397464 -0.7974452308100753 -0.07832131291432498 0.16551441265491396 -0.3041141767443576 0.06025680402441169 0.8784843605048684 0.3944986415736912 0.5687772797907444 -0.15917116730919645 -0.3515026616535732 0.47180978169713117 -0.6151624613884734 0.10304655751481052 0.40037212887200435 0.3718065623469313 0.6262560494598732 -0.9042022628633446 2.020156545093049 -0.06495549092404196 0.010792782144049995 -1.5674913949654732 -1.2113643172251625 -0.33989813655316614 0.43505372374379214 -0.6078030172078694 -0.9046103447019446 0.044969300324759987 -0.5464430336950157 -0.044872979128174784 -0.8808983657700108 0.559897875158043 0.5717884985715059 -0.3901467978114571 -0.4234002040327236 -0.19405032588006765 -0.4736432828101198 0.22484627205904328 -0.1398540868478937 0.23330965469187037 -0.09167234237004518 0.2185471758626895 0.0161142559931452 -0.002808479749802001 -0.5882870400518209 -0.25654068973982325 -0.5380241472429577 -0.09432551551476209 -1.3226839781639381 -0.36805655283422334 -0.4068625488288329 -0.23161304233804006 -0.043303144391953596 -0.5582617224622762 
3.682169354769652