-2.0067482657239033 -4.576824007360436 -1.2962090962267707 0.6358567181974135 -1.220679978923859 -1.2957352702933105 2.329770160238062 0.3226472287019434 -1.8065710623832043 -0.2158291631773248 0.028366313322611192 0.926750034236486 1.090538745118343 0.7440350370783408 1.2641282624504178 -0.17280843221903242 1.8745878305839851 -0.048193386162155294 -1.3249343184000355 -0.8372905018582804 1.9888973790644586 1.303008970951992 -0.40546902798071677 -0.45914193432275363 0.20955893912231005 -1.4496549926385216 1.1680575712768437 0.9076656146314873 0.9960491004211806 0.17070068123365112 0.8372372836938935 -1.1933371695368193 0.5352314530806689 0.4441340133883084 0.15992437118627423 -0.2235661807805267 -0.6856544944927784 0.3187813872204122 -0.255037368346472 0.8467251250430703 -0.17817480352355014 -0.5879641534451331 -1.0087370088206236 1.0430439101557467 0.23537453351936222 0.21308479311534034 0.11732065857394475 0.33342742443132617 0.12292718003540798 -0.5218100296890024 0.05396611808940921 0.048432153865219596 0.1744750104327626 0.7285117751722993 0.09806249997845695 -0.016570776977079205 0.46206301479450207 -0.14635809443699033 -0.5599230429738417 -0.33828534155924883 -0.30961875928981686 0.21140995853767253 0.4746208651192507 -0.0684780148211721 0.037263805067847974 -0.21128254182023476 -0.8710505810468108 -0.15280576294730502 0.5437759468522437 -0.24172133754187333 -0.2741147786182384 -0.0787017198982009 -0.2850550311276319 0.908377723489276 0.4155468378914376 
7.073340653538894