3.318372239897517 -4.352560954211878 -0.6938703500503622 1.5327872984105662 -0.8649999986936097 -0.6648894074266606 0.48976317784934614 -1.0396546351442277 -2.2348166039824995 -0.4993634182293039 -0.6861571182962793 -0.68579017395188 0.14747118309758006 -0.2370016603699527 -0.9619598202758505 -0.028098546885266744 0.1741116647285911 0.0843718074949341 1.0035795466504758 -0.12639418763463478 0.3596722825407824 0.12418864054036945 -0.19107745044171087 -0.43708806039194514 0.5721918610876273 0.07259338830910084 0.2763991626713777 -0.1038118632854174 0.6992435548860472 0.1583629548998775 0.20021966511963185 -0.21597863910596599 0.36474484154020514 -0.1759984360125207 -0.2365119088848081 0.39575242950046896 0.1941167811495235 0.200316530343837 -0.2693627048750906 0.2604616177665121 0.3960901149865369 0.4562880518196558 -0.008152847938966118 0.023145697684772183 0.19403351093006388 0.19568945553756256 -0.26839735525349184 -0.17965345295190036 0.29250900339959257 -0.27884100660007527 0.3061636723894911 -0.3125632568671687 0.11966090963743309 -0.20931430296805978 0.08881640791884687 0.19304343505885227 0.28521293390798347 0.03699825800723409 0.02383072524829188 0.0794646576468766 0.2559329760811816 0.06125359895108235 0.5892353516078943 0.23980044536700157 0.013756067251777585 -0.008929742637436823 -0.049593743941211466 0.2926322801191712 0.1509718319308705 0.12434812752253918 0.3573662751136667 0.3100310583288295 0.1891785855736827 -0.019112687466824332 0.13577027426973634 
2.058083182140447