-4.5413529915614514 2.6686956256467322 1.090607116406623 -0.463316017156724 -1.9588643516999413 -2.9368490361762905 2.200201277189127 -1.5189935410394755 -1.0216574773440934 2.0454276789391117 -0.1689766290556417 -0.47890246972685824 -1.5698358815913853 0.9386061218804461 0.32753869027682514 1.631551051643398 1.0319469024861838 -0.27539122877134903 -1.085463648715335 -1.1656595403516419 1.4387671403466598 1.4028662671828473 -0.5333986203684333 -0.2209580621390301 0.9104780208811427 -0.7237567537113254 0.25539818498679334 0.8030379362862692 2.287733996069757 0.9186053359280455 1.0467941152184483 0.2540348789797495 0.23776736827782707 -0.23083874161316453 0.7008218681273997 -0.07612305213774206 0.20645000035515373 -0.6408529732826658 -1.0189731871829437 0.21793672253151697 -0.05767697900882984 0.018947434600765978 -0.3744217680492999 0.3028281373516256 -0.5363051006310934 -0.2148989887007603 1.3273594531055015 0.12415834189947794 0.10219698710307051 -0.5690965003125417 -0.7382400666829597 -0.043429485121491335 -0.9874579831994317 0.09744560779636557 0.4848657889238337 0.1343010240468141 0.5682394507733651 -0.4416572543928205 -0.3437497716856747 0.22163093024692723 -0.11365614893016762 -0.0633982191649706 0.1234286021066705 -0.3616372702048968 0.3268592077227125 -0.6259598098194216 -0.21985933832844906 0.3552425225931566 -0.2647111605809052 -0.11375060561600066 -0.14745195567210204 0.21019744906180265 -0.39185250856530884 0.18834881145434845 0.038059069866112516 
2.930793154741971