-3.305006887789986 4.209442953222577 -4.198445131926145 1.0793012616029247 2.3057926361209393 3.801778081429565 -2.6226402539521168 -2.0722372500721677 2.786718892412951 2.2342169414888087 -2.9360924712652046 -1.3035721152519235 -0.0523477199863831 -0.09671915791773089 -0.37262341475093574 1.32053014688617 -1.2292106067367627 -0.3164375090978402 -1.615516673190434 0.5422880423736027 -0.8255147779385315 -0.601591059359571 0.9733817205932662 0.922017888776473 -1.2312205081888195 1.1070395316151915 -0.464353652775911 0.11566732783371092 0.4245095121340451 -2.1952962741884443 0.5334498523082907 1.7182739837893644 0.5410203895318244 -0.7234350612068177 -0.5884698409112292 1.0209240525809662 -0.2618483685666137 -0.9610711026795176 0.6897220126071963 -0.33842991830327973 0.5317555456575427 0.08735559373007518 0.6346615820728346 -0.1341271769754826 -0.6766012226345117 -0.8867825086087222 0.2517802363954378 0.43334758669195295 0.46171036135341675 -0.547710298639816 -0.21853361897908985 0.3008321599104658 1.2948200440414617 0.5970986792962238 0.5423769843809405 -0.6587757459787941 -0.7467291977907518 -0.3225479646849536 0.6806992645607483 0.20260216559554264 0.5165680235424108 0.4227682617437011 0.21986065096603413 1.057022642622724 -1.1320500336748576 -0.1992178526084506 -0.010911837667560431 -0.23399267732883866 0.5141180796358379 0.2205043365256945 -0.58945377105715 -0.4767946864178838 0.31841478889598596 -0.6289208868808163 0.16085702105720778 
-5.318899339935655