0.6868224714671687 -5.945256780609064 -5.605440935422333 -1.568370453778428 -0.6411916448350601 -6.587647109324342 -0.7880032229708922 -0.18429939425742337 -1.9835151698894622 1.8103204938699444 0.5640649864300297 2.8521361469468935 1.6919626517294177 -2.632013923964679 1.791726836508934 0.5419425804403266 1.1045043272789719 -0.030884052999021888 1.1180978273696536 1.5969179678296452 0.2922954946975902 1.9941966713106922 -1.027592215660662 -0.9146766706206233 0.7093915847401606 0.0209734860452402 0.8776257325823624 1.610833829666604 0.5557502785835027 0.19279757848162926 0.15796127190087694 1.007333527557987 1.4347562878403881 0.21066899157526708 -0.19476150661798425 1.8008249483671102 -0.32871229801067764 0.4978441986137654 1.3541944414366323 0.1857483723100659 -0.5322522125978558 0.23740742996668823 1.0685617386704878 -0.2483235095762934 0.06053809754087236 1.1806605668836243 -0.7652827906024516 -0.6071220061072785 0.05591451630033428 0.2033478258119023 -1.6092573420627523 -0.1747916397130898 0.5045155710933774 -0.012406317305906786 0.10253766093023242 1.1230877169473805 -0.7429975056020394 -0.3576393834799744 0.5779150748463483 -0.9345661136811662 -0.34208014896479727 -0.2861994764808945 0.9234478409791675 -0.21992157582120814 1.269570737838375 0.3081682392714859 0.23969948020041348 -0.2835404684800526 -0.28880523964647625 0.42366998646871734 -0.38792178189803106 0.10010437915378567 0.8345914128228706 0.19497389020832323 0.15506773946564556 
4.677029517083618