-5.815795121623679 1.0244026745263115 3.1434217007601046 -2.988723815764205 1.4671015239095198 -0.9349431704476625 -1.9250293520045827 -1.8148398246412962 1.9198266035971037 -1.4077344728721144 -0.07160331463126524 -1.3685504402238986 -0.03586267941194904 -1.376027212544759 -0.524053000692444 1.2183349037208735 0.5371769148648777 -0.37384028547732073 0.5585145986498786 0.9400493633222985 0.42049322334491224 0.4624254624183007 0.11074688388080071 -0.3967798319285712 0.6488168123393842 -0.18250773042640317 -0.7390303626697201 0.300046410726713 -0.32138847677040633 0.35954750266560703 0.33123831530392633 -0.10608729259831323 -0.4470771906171782 0.5612537762576251 0.32314876774317447 0.029392394377694586 0.9417537710202298 0.4523383535066171 -0.376733992927061 -0.24573720333312615 0.4850051772420867 0.4609063302411913 0.3469932385347161 0.5462209993500167 0.7459775732965273 0.13979291953585177 0.18315389024882056 0.8462197065896089 0.20668196441480055 -0.43568346047220974 0.27689678364063564 0.8250309599850904 -0.003912201265129256 -0.37277195471311475 0.20500162286465384 0.11889329222155157 0.5436388271651962 -0.20068242937594227 0.05422479381133772 0.28040528658177444 0.08767920148962138 0.11143702164089689 0.19031615039254246 -0.04815522824593002 0.47745975397443846 -0.08045989317227421 -0.4469315079969338 0.07248105121582937 0.05670578828375937 0.13475010773851048 -0.245211043526297 -0.07935871501655332 -0.03860679357733949 0.042972520987298035 0.21524308058493805 
1.7565494961885866