-2.451783808441943 3.4435533344036955 -3.771246944820931 3.8081133160271197 -0.14158068038466107 -0.3898802389367007 1.114894126688644 -2.1215788588704174 -0.5137316042405223 -0.3779696787035466 1.2249463614074645 -2.1166890655665647 1.1296536833128619 -0.638791107912465 -0.059418329144489294 -0.8023117282328212 -1.5543888698764126 -0.5023451182057893 0.08998914476665097 0.39102407947097434 0.4021863158789764 -1.5401656011022171 0.009007665228818577 -0.5089181655241111 0.3466894111719646 0.4551196474553781 -0.8754469580300948 0.04203974836671333 0.6022737231840588 0.33773119233266996 0.47450839270162876 0.20735544903950764 0.011401607524039355 -0.06498342945071564 -0.032417452002232 -0.6372054510098378 0.18341482342140628 -0.184531798123409 0.3711451497058954 -0.298849473883855 -1.0857904165403955 0.2533269249387069 0.19651660385281372 0.4684214966979736 -0.17352801669254564 -0.017765120566497674 0.8507343745287311 -0.10461880410192494 0.2311248363525921 -0.24994178361103012 -0.0321820532710394 0.16218137692685847 0.6618874720482508 0.38223825630511427 -0.011615234632226256 0.17542533232059113 -0.33147784255241924 0.038355648963363596 0.44293185762508297 -0.034419910895809105 0.5561980485890518 0.38194461931109275 0.5260417847542722 0.18515886011921784 0.18830595046729218 0.15937130534958516 0.7189252944357861 -0.16397013819859116 0.40853964242005564 0.3215893664651723 -0.1840860256770692 -0.10186631018277069 -0.05426051795970421 0.29881269808108973 -0.12332238529539194 
-1.9701151703023643