3.8992622118706786 -3.741800343878152 -1.8321554067711412 0.9900813710908821 -1.6035344218062877 -2.9407379774030593 0.7717932190173424 -0.050982620255115796 -1.6144086609631947 -0.08732276451186893 -0.03297559355309851 0.46240079404338486 1.0060985017565653 -0.7372286995875393 1.1852586341391214 1.0945212503992137 -1.1657701734003776 0.0845445060904198 0.8038110285282856 0.3001984743027184 1.0873863212303299 0.2517066450147676 0.041940873051072525 0.020689033746517344 0.2613333387070544 -0.4516960600811902 -0.398131969375563 0.28514529376926556 0.2602864890761598 0.20579501233557576 -0.4272409607862704 -0.3313980346273345 -0.08300788497546907 -0.23297210413259112 0.23890256900283735 0.4029355506712277 0.3685925733280837 0.2658311083307052 -0.5386330413448719 0.25045078519026487 0.6059291851122639 0.3681099253688995 -0.2041420597690901 0.208716656160607 -0.015972593539964136 0.12558916285913968 -0.31254044007906073 0.03655834893283144 0.39042375600170903 -0.6089048573774678 0.27458438950254876 -0.44030083919526125 0.1788185422063271 -0.31273111297805034 -0.13433782209526646 -0.11291636638663217 0.32147161955494286 0.006985605367122588 0.11251649912068101 0.0757270435651457 0.10883351398975084 -0.006908494443255017 0.3204829478036908 0.3447925322570235 0.10017345997682936 -0.03860308886588114 -0.10330037004833736 0.07633290749910271 -0.16746709886916455 -0.06273003851394879 0.1266309380614528 0.17474701242355695 -0.06859296927410145 -0.014457911115264982 0.37751314954778126 
1.8655346853245502