0.5413582696856363 -4.180877422163489 -1.2188321282238532 2.2864810580599366 -1.5404283477488927 -0.8799862864672021 1.9103677332869307 1.221385300890911 -2.2611919573919894 -0.3561335467078275 1.0505893493199554 -0.737168096907477 0.5304354107303471 0.05703271128833609 1.4000422827269854 -0.08081657521940966 0.43641273491181276 0.5664714648270947 0.5012128434804479 0.5671299667759429 0.38662469799926313 0.7814647835603786 -0.7043161560248843 -0.7505675208352715 0.6164125348477192 -0.5908977691889613 0.15321573216071754 0.0786057786938475 0.2302532375937844 0.04349778875798599 0.38158711810238044 0.014343560506730496 0.07423540537023088 0.2211411041882464 0.5309920425107915 0.38269153809630435 0.19390844741198382 0.3095941218656749 -0.10543895804294312 0.9518921244993104 0.5438185193880407 -0.2998713429615995 -0.2174042058775687 -0.396115389733201 -0.14825787303737487 0.43320389885373145 -1.025826535636324 -0.19693330778089235 0.13297348865608993 -0.006613109558493979 -0.008492608002738988 0.12914951648917894 0.20497350782730392 -0.08379616521115435 -0.3566948644797622 0.36170619898655465 -0.2338781028735052 0.45103772879183357 0.21350930174843896 -0.5170570500525152 0.08574842844898857 -0.5249468260851158 0.0967570632768735 -0.21146411763185854 0.1610620143191766 -0.24385222809132698 -0.07639034296532016 -0.3505110021432005 -0.022852493940664576 -0.3744642297680274 0.0035089357378927377 -0.04165790770288158 -0.3072066803072391 -0.06309238522059746 -0.12279421069023425 
4.970874301939511