-2.979422486689149 3.5946972533336288 -3.7652707118389936 0.6242933927386148 -1.8794125757080458 4.492423365216317 -0.3886540170540149 -2.1779702193235666 2.5367782884630548 -2.043043773964516 1.6657168928445143 -2.6222071812105208 1.3300379636723252 1.1257803248785496 1.164068083757056 -0.9639930073467694 -0.8250695768025075 0.343879332886431 1.2827092225859975 -1.7918159075394997 -1.2620888978973295 -0.2551262538263624 -0.7920490968753107 -0.5013373195819456 -0.07253480987566317 0.581069929661217 2.369206717338629 0.18818563595271523 -0.7686161473309614 1.2882852790176966 -3.0491411269455813 -0.06633757909194503 0.9968715350956208 -1.1386086223395844 -0.4178548417069324 -0.17444463857948028 1.0745276601950786 -0.5091802790170774 1.3058461872212812 0.6833560206705753 0.8035937826937107 0.2419690052362276 0.30609285814148696 0.13039173850895053 -1.2431052662756648 0.09108824153180806 1.0666890447669262 0.8262927819747513 -0.1217017095781945 -0.4463136577818274 -0.7115095882776961 0.680298392303941 -0.445246958302513 0.030854043218457826 -0.16510974508622192 0.1399966138610731 -0.028176719832793476 -0.17283468642524302 0.34870247490767486 -0.22056015726312497 0.1363094026628685 0.1587656726605159 -0.051589020424646 0.21815512698982278 0.5830505981279196 -0.3435946392379621 0.5533079855931663 0.16814426681097144 -0.010879657226463224 -0.19239638963562328 0.12288586027903672 -0.2573802284610265 0.14396714608391828 -0.48779662650167904 -0.05591400102608138 
-2.6591700707016703