-4.184889783658278 2.2431534428956477 4.177498826673327 2.28808557226695 -1.5084367731322799 0.529384355968093 3.010533110761077 -1.6520520589297771 1.6123114080446048 -2.1460305038447265 -2.4548127482090862 -0.5900118902450175 0.15672670068300826 -0.2928985974489198 -0.9107493872534318 -8.345166981918277E-5 -1.1502811916447673 0.8890065260038729 -0.5215313410019733 -0.5482017040619998 1.512169019125141 0.17704064966517769 0.7304349757246944 1.037661769780894 -0.48488248359205643 -0.09727829266494778 -0.4134875177536249 0.10834293730534736 -0.22445637879362756 -0.618066421467927 -0.6750245078493962 0.018114327926592927 1.6001688053509717 0.21009719830955553 0.6030021703421758 0.07524120930213024 -0.5922466393767224 0.4788052810555245 -0.26232721627918254 0.5458162613019008 0.06090560384118001 0.5698352025998747 -0.4846582351857603 0.31644323296808463 -0.17863711175430225 -0.4734145330802192 -0.4947654284782619 -0.5268723645812297 0.24659474304700157 0.448342678282552 -0.3056184860544035 -0.7434465545606108 -0.33031377771039033 0.04569891307645496 0.08169933510662925 -0.04209439551514499 0.4573345126018072 -0.3796670895817512 0.2261368025799136 -0.3170684189938845 -0.1848492316277466 -0.29247917173153665 -0.16219543833229277 -0.0414191207538849 -0.06958979125799264 0.1519078301057644 -0.3168490047229619 0.5102310868818618 -0.259302789313972 0.12422066608208185 -0.08687652084526257 0.05317699182485919 -0.1324306143217565 -0.255424650081024 0.1095994698772153 
2.48969901116986