4.072651101543883 -2.6186621541202264 -3.424222690037497 -2.722544050467117 0.2381612821379564 0.40823499012140285 5.440381496226156 0.29870109680516554 0.6927806780694752 -1.6871860643310692 2.016822466066503 0.8643696331255697 0.9833192826581407 0.8921441894173527 -0.18752227740354943 -1.302086572514832 0.7856753405233938 0.1423041890024046 -0.2504331644548352 1.2433630415261037 0.3202475660382884 1.2329854887378668 -1.377268866269338 -1.8224359853171022 0.805115147600532 -1.7146990884085214 0.49351397440862316 -2.483092587215657 -0.3319540799519267 1.6593686721940641 -0.3496856777597174 -3.023866887033727 -2.0150152220982607 1.4566896598742476 0.297619818481397 0.04519293835975424 0.3269373000420274 0.93022647332877 -0.3845317079285851 -0.13462557445452683 -0.6565509702501635 1.7808002660293532 0.6485391848772792 0.10545818240023286 0.7404556501634211 0.3356911134383309 -0.2740952419007546 -1.0736461939613844 0.38808203178303446 -0.24487950931750657 -1.5015740695733821 0.26677761253757987 -1.2603040318080638 -0.8084032920104776 -0.5565195405828947 -0.3350033288125531 1.0549186206325074 0.9849664179171334 0.08691100871136459 0.9019497172914976 -0.321131814211136 0.9908621187832677 -1.0018899145684985 0.02427636199805505 0.025685836157391062 0.7036951206508862 -0.30126744403210326 -0.29187565816858185 -0.6816913477917471 -0.3416959305045211 -0.742860080153176 1.085114725663291 0.9308565517906944 -0.0924118724071501 -0.3862134572938549 
0.3308945781948827