4.7314857978178715 -5.502892763461918 2.5872086389107403 1.7464305500544974 -3.0710906082662817 -5.272179880006124 0.456112747933175 1.024422578023708 -1.8021968771490142 -2.420368764881171 0.3967127215132642 0.2704667312568956 -1.1888556633735363 -1.6537122862410594 0.6031187804773199 -0.5452729724321956 1.1382380901056082 -0.20766881345926744 2.085058744745025 0.9212892568207776 1.32744145096745 1.1108777918224788 -0.7164882849537348 -0.30718103339243774 -0.23440388172705612 -0.512115190465318 0.5569153456975804 -0.035189973588585194 0.2968628880211939 0.5925538873488794 0.5291447840684453 -0.12269979870672972 0.38325205788515776 -0.44628730083809875 0.26214888053878926 0.9628031737433301 -0.6614051352558803 -0.5976871086463487 -0.6009561289856477 0.5411334950300656 1.8093677137137 0.0623933349240942 -0.4239312953416127 -0.27225669330130403 0.062069078162891644 0.4620472062792082 -1.7570116399121196 0.6611271736434712 -0.1491027383045358 -0.2647412971868466 1.213984992782314 -0.5237882338384315 -0.15292258449303034 -0.2040224013334866 -0.56100984458221 -0.27627404536841693 0.9059698791389976 0.9200716124892223 -0.17137187045717545 0.3599981173969078 0.0032016001335382904 0.1340589686906184 0.89356559411618 1.1589542706010363 -0.46133573529173494 0.2396052146324424 -0.3404954508108077 0.35251371017817296 -0.04537277961569941 -0.16221817136602434 0.22541444565422092 0.2758126963244476 0.3032792489536317 -0.9769711795144544 0.07436517595093944 
5.096533992801575