-4.092348688393459 2.3463311351159897 -1.6721529129122619 -1.346221579622136 2.998347310629204 1.663794492035718 -0.09804337455119483 -0.1884813208230346 1.0614966667012902 1.2874723325025543 0.07231632193302617 0.3366516830498706 -0.08131762870072445 -0.04254126151149423 0.11021891410261664 -0.004376311518765552 0.1514679569065826 -0.07444351002794652 -0.7043431452242923 -0.88851527905439 0.12725491836358138 -0.04539162005578662 0.12138102424951314 0.7044783693853992 -0.18175707291383764 -0.033983933654089804 0.08841944577782393 -0.19509157008786612 -0.430280173401707 0.41684936508914733 -0.16313957023717118 0.10798624845184399 -0.05910400549158845 0.37998367206700734 -0.032670702009726424 -0.13009165544169704 -0.024384929142998557 -0.033992577885827546 -0.07741018445656461 0.030352224619304313 -0.3863706242124135 -0.2744708457533228 -0.3131833017459655 -0.1794050869301419 0.10190728776096594 -0.14929729441463024 -0.1425573482950623 0.3495882365037527 -0.460881849779032 0.3861603577044912 0.09712337211411481 0.21924959475296954 -0.023738044616907067 0.08280694407459804 0.061550737451132126 0.314513522690339 -0.05001006236727046 -0.1497151876029395 -0.06425795557926423 -0.04644209695888179 -0.13825544246989038 -0.02709197394644261 -0.37656064651189064 -0.29438554027741054 0.18055286424019587 -0.08587934013941464 0.14129930611716163 -0.038137314558312055 0.11574012522796856 -0.05724232716619489 -0.015415626220280254 -0.22563081311639016 -0.0070657313454663695 0.20081321692803125 -0.15003018542009536 
-0.847085448027773