3.048655357459001 -3.31720896908147 4.568326093394562 -3.235543316464166 0.48290139645779284 -2.219867441346327 2.8828101196462743 1.3042665552219763 -1.9944192445440851 0.5514507565743316 2.7999267936432934 1.88579120124699 -1.2232811541577895 0.2149336928727128 1.3418771851435223 -2.0828985184692987 0.7394734825847151 -0.3506966233839459 0.1969649417192587 1.1877220268528335 0.02887674013056918 -0.04676149413071218 -0.25500408713764144 -0.1805828442592534 1.019189679793238 -1.6305543864407994 -0.6182948805403464 -0.19311010658581335 1.0960498361158568 0.5313442586924395 0.8026697468917828 -1.4232312842160486 -1.7221063064546616 1.1519813052281243 -0.342109149360559 -0.6207284566223722 0.38030348621655674 0.6916083759848467 -0.843766274975529 -0.567329239544816 -0.3267107651326875 0.2869041525579349 -0.24858409971339157 -1.034446613965112 1.0415856328317212 0.5038667171004192 -0.36901032426814634 -0.8277425594477165 -0.10283815756406345 0.48369576010846943 0.07599686081856827 -1.1814114478298257 -1.0415696951871807 -0.6057379672459415 0.4803580412932602 0.005074909366919456 0.2679399154069594 0.1982375990120946 -0.5102739139314291 0.09083460625105116 0.050019102825663575 -0.1216006013133295 -0.33928671785090236 -0.8170257136416235 0.015886956048154433 0.15470305362052283 -0.25627239638726157 -0.37597363586276955 -0.1730169390535402 0.055973842425804665 0.04958540261949618 0.03231119445216191 0.1659688233663394 0.3508973150475483 -0.01796759091323691 
2.883653393863727