-4.546850920652623 -1.2810273674276633 -2.4625067053063017 -1.591518748440864 0.23429187778869176 -2.760030275885975 0.5673814783156588 -0.4241712394290611 -4.436500272877212 2.9911217216657096 1.9375225754480314 0.9245549652547593 1.2382853567525238 -1.5450390857147762 1.612709103496354 -0.18850408240320504 1.0719413861702072 1.0911114941319522 0.1309822745779189 1.4622907931872442 0.9977606978974545 1.8622509662836708 -2.3727058960024845 -0.1932529055685698 1.271703890153169 0.12538966930760992 1.036214813984825 -0.46568080408688606 -0.4216305018843516 -1.9078810639349018 0.25611449716533335 0.9030626802335142 0.5804724964835613 0.5215930067034289 0.14404905455714612 -0.018961235310394398 -0.3727423389508138 0.3502812568732193 -0.4152464556839402 1.337484817720098 0.4113856254204184 1.0849356563168224 -0.23844649360966907 0.3749325530839179 -0.6800913748979274 0.5821863720042588 -0.141471257086755 -0.6945788601424064 -0.2556136438567989 0.4651715321386609 -0.058713473300250674 -0.01049663302455478 0.29521454958700316 -0.7931598218026253 -0.10404522797900392 0.07142533186727829 -0.285769022045591 -0.024276127176206447 0.3106456968567499 0.14146378589113864 0.6085099084686922 -0.33077219276339387 0.4421097213052342 -0.13890167977490375 0.03569741533078229 0.22410463088045235 0.03872365814851908 0.09931574156510689 0.23076594162863695 -0.039047132071685364 0.5138004132271089 -0.09078616664056927 -0.3695809046790163 0.5773390260048142 0.5037014765337406 
5.634413416096863