-0.4095390926987186 4.818242114677048 -5.06546780827084 -1.9152363686600937 -1.3308437988679156 -2.8604526388946185 0.32200038415093335 0.16358634335252087 4.62519994883411 1.5958366724962145 -2.497389017280797 -1.9922104328059795 -0.032207282869804565 0.39583554028632817 -0.1749823003617723 -0.67903582382453 0.20139791242819172 1.4149878024677058 -0.3918435151205868 0.13685380972548855 -1.9938477662812248 -0.4297614614998424 1.335918573716555 -1.406454567890648 0.7258398238208621 0.3969928663629786 0.012667291864499719 0.5819002090467154 0.6394590584440476 -1.7425032464626806 -0.526205088207413 -0.9823068736187176 -1.3574968560088625 0.9834221665196636 0.6591370754837991 0.1071313957743174 0.31518348005278196 -1.3732517086601628 0.13639569471693835 -1.0842945390581287 0.8339900486360358 0.3531058400695733 0.6606311545618826 -0.8330176787140691 -0.1404109475679196 0.30631997502949826 0.6601128621348192 0.1985216559970816 0.463471779105185 -0.5580514255428793 -0.47009543875132387 0.41930967782227235 0.5161942103986685 0.19433528579611167 -0.6993799693144191 1.078948956123969 0.1591877689587604 -0.2753116136852273 0.5938732956427046 1.139385442034256 -0.41945775282855724 0.6874829583337727 -0.060589710291526044 0.48381188425541266 -0.23556047179580397 0.5570782749599712 0.49598665764251926 1.022410938444871 0.16601026428252896 -0.36531416549292284 -0.17847275183473543 -0.1321049633050072 0.8507070570012107 0.25287823427750333 0.9513546907374597 
-5.46242962630856