3.1693517971083516 -5.621441604481046 -3.87030945807202 -2.7739093551099896 3.5482134365876643 -1.0886933972662192 3.043814074426951 -1.093415492394235 -0.7091548760036783 -4.002935637747976 0.33631347110137333 2.378344833777917 -0.9659654732377758 1.2322972595593475 1.5399427332359 1.4067286621600645 1.6487184218294348 -0.2690145965546691 0.05609731580430832 1.5334203919090987 0.1265956754316102 -0.887904596479514 -1.2836953679392338 0.19270613241700185 0.3129834141598422 0.5580008515228609 -0.6382114373552534 -0.18310364100934629 1.5461648953575242 -1.8863854499747026 -0.5835263798434489 -0.19578303565400135 0.32237918074126837 0.30225867871908063 -0.5040373849305042 0.7139021413551159 0.7238183066926573 -0.5841463727223836 -0.02971876808735377 0.10238808735299187 -0.03517331926605988 1.0907329255491451 -0.22405926362348572 0.08670951364784008 0.18094023517561553 -0.6340075413291169 0.3748320414990015 0.7049740471748576 -0.1988522377014177 -0.9123616545597911 0.49099264837275636 -0.27600554924689846 -0.12464934787106208 -0.0016935055536998755 0.45250975927972104 -0.41616939789205687 -0.08069189797571286 0.09134311114357652 1.0674252320751978 0.12249198230004751 0.3750308168162233 -0.39239238789348757 0.7977581606538975 -0.46474000034753227 -0.41504533010083394 -0.20780836974955963 -0.10972631031504304 0.6532591210349366 0.7799485477116856 0.11683667018099937 -0.1984995965126778 -0.3548673371092827 -0.05739422139526676 0.1259817419598206 -0.03071672251934876 
1.8162497846255081