6.686507295011146 1.1266293972463375 -2.163918436744255 2.0759128362697807 -2.8542640595634663 4.558298411990078 0.024466162592898466 1.8797835197108925 -1.592567789693988 -0.8537842802841487 -0.03480037704457131 -0.9760195886361852 0.636899239019277 -0.4837714552618923 -0.7052578860742964 0.2849633460660092 -0.949582759570259 0.023719397241218798 -2.88431852578186 0.2859615891608555 0.4844159715035741 0.36641798115664725 1.6792548393843447 0.11617516830678147 0.2994341035121841 1.0746925200979938 1.3672568312048676 -0.39622116123006496 -0.29749527855630803 0.19871249984862221 0.20819053329636297 0.4386487974910918 -0.47020910386057446 -0.5133262489025716 -0.48537398233775275 -1.1448640060614987 0.4365966701945852 -0.9107634154757648 -1.0289671049880846 0.42797503568947026 -0.23535262291312103 0.22301672877200568 0.022054720834548652 -0.5727675621338202 -0.6001953235716132 -0.350143137889392 0.2852502051022036 -0.25736587945788114 -0.5650563002804992 -0.4993953064793981 -0.47525413461540106 -0.7278101325398971 0.1683783708726166 -0.06455133229151351 -0.12484789825951122 0.12110793852632681 -0.47968123219468717 -0.5341813163824495 0.4769798778544632 -0.1631706998774546 -0.04044695164935025 0.11020982909627393 -0.06360297051850924 0.00813684785482343 -0.028748906312540963 -0.36210694315621605 -0.034626899450279525 -0.4873832159132154 -0.449680822720927 0.4511800259159993 -0.4485844894543601 -0.27738852390147484 0.3263305393658834 0.055968913058430936 -0.34167808121747334 
-4.353679871000782