-0.7652102326350345 -1.6122682293085937 -6.688833576023113 3.752867413272436 3.7367032863412515 0.3881349921713748 -2.0362224632422325 -0.491169455013198 1.7037960634479035 0.13928593121390653 -0.0014204777200821361 2.0790859739765013 -1.8206120483532602 -0.8034951229582605 -0.819349808724394 -1.9224208814703914 -1.5524484001853263 0.34155146610011866 -0.054533117277450804 1.0280571336058921 0.10301572712969254 -0.55750146660057 -0.01105961075409545 1.8794385950534591 0.5132839005813794 -0.3288034989597665 0.24412862472143743 0.4739711443429483 0.7311229703273276 -0.9096081991755074 -0.37791109588627203 -0.30258986178674563 0.11135952485922518 0.5465102028254565 0.08606155997552153 -0.19037711114953093 0.9626579234797223 -1.1860925678910321 0.1504220895289611 -0.2510055386958987 0.7734105271046543 1.1760256332402708 1.1455572483137866 -0.09681315282361935 -0.09253775275057174 -0.6252649398584034 0.892808381792163 -0.33824438249808175 0.16796483347984836 -0.40233609029154804 -0.5430487306714484 0.708835838653304 -0.07910057760740663 0.08646766134123197 -0.04996255823346529 -0.1367360141109153 -0.03191653528116034 0.4202738655072107 0.5335042267722836 0.008418315764770895 0.2946435813347445 0.17276264875424474 0.14790210312716345 0.3624046808787039 -0.4274800754050172 -0.09371761020151337 -0.10771101945441014 -0.14689852849234852 0.30189946215134955 -0.0621979785682456 0.08507146692609369 -0.5403208121660645 0.1858951994823899 -0.054895326443759496 0.07681465109002361 
-1.730391782863482