-2.7137260144385174 -0.015539344527580212 -2.5038432260236494 4.194930889606489 -4.631104493538188 0.7981242831341078 0.030375086903832837 -3.705615173940883 -3.634761062705709 0.49302467861655597 3.4221615545650117 1.1295757543106975 1.9533017943628965 2.5370763536860346 2.48314429848027 -3.2287873328753953 -0.36245709735315934 0.40905574152334107 2.147731690076486 -2.3848077333924285 1.1520706587577507 0.6644202973748746 -1.0773971738907828 -2.2356105949646254 0.38939034684427476 -1.4250927692190465 0.5074375197339624 -1.573073443598919 -0.2766019556702409 -0.13350802442843793 -0.8821673759383825 1.0602930355414653 -0.8612766923820971 1.1224402632916637 -1.030105167630109 0.07658303942756867 1.2958463307530486 -0.4876061372947925 1.9491917278366835 -1.497115689981421 3.1583858920877685 -2.292388108799579 2.241877891959014 0.3828347799237545 0.08241075092951078 -0.7108615579114271 -0.16195312774218906 2.4248044218903617 1.350951958694192 0.9234177229935987 0.1385720907009712 1.8553538640434006 -2.0601601816499184 -0.768993096192798 -0.21562005863517636 1.5495178847765767 0.1128605662275799 1.7931859236482435 -0.8316672103492615 -0.2196720520364397 -0.6574583454930343 -0.8730033399965514 -1.576321843020453 -0.9082895867101243 0.4957400027630951 -0.11324807759759214 0.05337585210208573 0.11026077099059128 -0.30187879188146427 1.4523128531439908 -0.5303280308417873 0.16220209598437935 0.952261419063814 -1.0241813278292524 0.8497191537315796 
4.098180919218911