4.629811369649425 -2.161482971742286 -1.0753834500020363 2.1845401313505812 0.18393486901910983 2.1420826752851037 1.6615231196052012 2.083392038828509 0.8529574241566444 -1.8018498664706382 0.9609224696278107 -2.472244631744858 -0.4588174387521531 -0.9055141826963482 0.2431094723001308 -0.816741440266697 -0.46362789646525826 0.659491690493113 0.5301435457702977 0.9355963543587172 -1.135848932245449 -1.0740925737830092 -0.2604742958898105 0.34076863704683824 0.17681951848160005 0.1883135498582676 -1.2652703615263825 -0.5958452218197643 -0.7033537713384026 -0.5478327488155477 -0.47262101361328324 0.8113780082170434 -0.17021497219008008 0.5259557303037552 0.26373639770804197 0.5071085212142319 0.8042153393277136 0.5260958687470121 0.2055708648525713 0.38162788074117127 0.7864546455963325 -0.4980782225999914 -0.058653556475276813 -1.2172257850391353 0.38385435809396407 0.03612064061585263 -1.031857192668665 -0.5712712309604197 -0.25787505728635346 -0.12053487817925923 0.17722160704870293 -0.05963874427408862 0.38837949197077587 -0.21017164671139343 -0.5210690838871488 0.1261168614439308 -0.5416256255689507 0.4384046287674255 0.055473274741852756 -0.3984731099372083 -0.13585347044755514 -0.5649832749806013 -0.36510920724212154 0.2944163681260183 -0.18488971143285166 0.18365480343897128 -0.025243704564845176 -0.08169640783454926 0.22524164079607928 -0.6171958906548435 -0.23364920071020348 -0.6134089548238721 0.3058188455411364 -0.2981652491470521 -0.2123676683355604 
-1.5721387604489603