0.9124350597400124 -3.111521715187216 -3.2075146592016597 3.9021107773787387 2.1735748417143794 -3.030454820979821 -1.4604174686851108 1.2025988373166583 -0.29820346841697365 -0.7350891802610162 -0.8084044949424949 2.4409557830294095 -1.5822437567545928 -1.718266209568914 -1.537755777634494 0.012300192226046391 -0.48420815319504706 0.4850906715130747 -0.9416767788666616 0.5534651613105371 1.815059871075802 -0.11371830306191821 0.619884524103634 1.0893516358748763 0.19630584648372773 0.5141438320178519 -0.4236781763171797 -0.04444465600911629 0.33488625227240015 -1.0099941413918039 1.2237076252550498 -0.1470940108396443 0.30888091999966916 0.7681075932141517 0.5349833139978012 -0.12489156497108922 -0.21300009639440137 -0.4048745791868037 -0.040505868992890326 0.1856586261711819 0.25739966714904194 0.02389945720839054 -0.39015779757781877 0.2653206805816898 0.7961295023530562 0.3518246097719968 0.23937240553184636 -0.9037614235313126 0.351247124358631 0.013296284237780842 0.3377228853931753 0.07029675537338764 0.12902576449527425 -0.25283592548270367 0.028158378079292834 0.0808656063320371 0.1830838430182138 0.3777828066569928 0.15034637800608042 -0.058691474017166956 -0.5858941599565967 -0.07493686032689362 0.12746260778669127 0.03022418927634024 -0.37268824511695453 -0.004319024112458103 -0.14072171748162032 0.14342441485448176 0.0762314548181755 -0.10984080163624947 0.5136679315200541 0.09962351177062556 -0.19152766579212638 0.21781519798088356 0.3856101546416181 
1.3718468861036108