0.6393660518678201 0.735096663913783 -5.489786877950645 4.035627045285974 2.1806220960404175 -0.9471968152586443 0.9820690083788515 -2.5836373425952264 -1.388473943398747 -0.6528079404370916 3.75185201846606 -2.060647238879298 0.11044009887189643 -1.641109860875616 1.7170629193334637 -1.886749284047455 -1.307686642371813 -1.1752599954839102 0.23942221163548205 0.6191279671834593 -0.7305846301633787 -1.6452952302301158 -0.06315187293132252 0.25200185634399075 -0.5120973871391548 0.5248867115233631 -0.9000320028449585 0.266159946522036 0.4487587122694061 0.504304666794539 1.4754224161996015 -0.18857267396309593 -1.3602113050619156 0.6087307149501071 -0.9308353811702159 -0.6270760731767434 0.1491246052117699 -1.2370932003576842 0.9947393695952309 -0.5448890695588002 -0.8007311149668563 -0.1818396786017206 0.05772189009716 0.45559465415206263 -0.3263289428360042 0.3543038232745719 1.120009875259163 0.7305073752396822 0.01459470238898318 0.1132334634593585 -0.0038454262502849446 0.8842399730191168 0.38460117460045984 0.12460588474426476 -0.3151141738749118 0.44307737244227063 -0.0858644826350402 0.29195309684608417 0.5442220892820282 -0.05208165677762053 1.02393246308868 0.9351707432070123 0.5080964829643239 0.16733235126423446 0.3433133839112116 -0.13993232462040536 1.3581556842446332 -0.23648553857638321 0.585317609920415 0.3857221842788634 -0.45772949993015555 -0.3330907602247924 -0.09963888904949952 0.259405227212927 -0.414049329045257 
-2.686678174996727