-3.743256974216452 2.7729566625515236 1.5755098124710047 0.8291204076221566 0.4983174588556356 0.7921792842933588 6.895521221038773 -0.755270517912071 -3.113884682334223 2.144757320874315 -1.3457635723011776 2.6334426809075513 -1.8491308216445523 -4.271322878136256 1.2457545071174416 -1.440390710758211 2.333617100627199 1.8143370267905163 0.47125954539563797 0.9050277406331363 0.5166939640748865 2.361336801498938 -4.007874982067197 0.7871975639515485 1.1855287411936695 -3.0637290866073497 -0.19251336968894045 0.23605287281827814 -2.5138636490620083 -0.6904005900642125 0.5416208173365413 0.055524464501418784 -0.06729479083511097 0.9076707664136281 -1.3898024358564396 -1.8241105695855178 -0.40965926051725543 -2.0773258840721542 0.1597910053120184 1.7620981106810267 -0.14208118046438242 1.685283431349407 -0.8914038885352742 0.9625490117837506 -1.0250781072446309 -0.5523355463900975 0.20493798615452932 -0.9937221571234425 0.2311052751388327 0.57817902743365 1.6302877455220897 -0.45087921557662103 0.5019483715925178 -0.06635005827358303 -0.832696969697651 -0.7752292779918776 -0.6614149007772163 -0.5426954480112423 1.095432959069437 0.9446421820668962 0.2055969971872796 -0.14932845969245487 0.36504352321801076 0.46404710762055307 -1.1504854103057378 0.32454115478357337 -0.7844352987589915 0.41850083431024354 0.13645597573739005 -0.5664999603079216 1.0497512343667046 -0.2850231681208946 -0.9344920963231808 -0.6541559202519895 -0.009716854788681561 
3.541929252236001