3.3212660810145227 -2.6720772053275814 1.150850520722953 1.2549060209311558 -2.032612416922614 -1.0460972825170622 -0.04669285607577589 -0.8629128166317244 0.693643426673851 0.11049105092682532 0.051133400541056334 -0.11021860077707918 0.31292840088347584 -0.6538949940975589 0.09785736844472465 0.2734275576405784 -0.15778115033885345 0.3601063063830123 0.5371934676245242 0.170002396220655 0.35842399712737055 -0.25360315021603425 -0.6359279137024381 -0.26195338388072065 -0.011635022007933399 0.07018613390466275 0.19038278208128048 -0.33953230243953725 0.22447721630546683 -0.06916747943762448 0.20582958993546485 -0.050586716600764775 -0.11099557453755513 -0.08166306396012593 -0.036331850895178756 -0.021458518410473915 -0.0199215070153353 -0.009433575439727754 -0.24666295844362066 0.03888686985203843 0.2075148604966464 0.14532235935483448 -0.0492677635354597 -0.10711565432329306 0.10081303287957463 0.0339691118018115 0.0020140661680290023 -0.15192019600521725 0.051261815358169954 -0.25048880754361647 0.0152099958892907 -0.2165785212346555 0.09405628538748174 -0.1374455392709714 0.12026591372170158 0.08266045255493938 0.006824006601279686 0.044502627360083494 0.01227673073173026 0.001987799438313961 0.11532887031847941 0.1949866986857834 0.21273221388152275 0.13124203893122732 0.04230702773184956 -0.14119667667578106 -0.15651125499390722 -0.06405099464208025 3.562536719000156E-4 0.046068330488599596 0.03643965070364645 0.047981720653362196 -0.017090880257989553 -0.1303501124827594 -0.014937709382833592 
0.3479880995129829