-4.477947528132552 0.5067249074683167 -3.2422919263053407 3.295851499907943 3.542435800955245 -0.9389549810591392 -1.2381289692286614 0.3328991525280459 -0.9722819050914686 1.1424011107050824 0.8174168914136872 0.7304757768228087 -1.632754465887313 -1.4091391034013774 0.04496893446706729 -1.41268298824761 -0.19255985051066793 1.1953383701314788 0.11394530186911678 0.4799666494088697 0.8046405463764639 0.4452719615310443 -0.8196611197490244 0.9722828962416706 0.6316661532656308 -0.07487096283789263 0.6882705844787231 -0.0795149724404979 -0.9902576369258 -0.7395586042296403 -0.46651366501967795 0.12844511404407588 0.07468698340793878 0.7807337559292025 0.023018838616060605 -0.7698491900318793 0.049129047179781005 0.06355286790837306 -0.18754690631724402 0.4214710482364038 0.2171102343418462 0.7733894320639628 0.014805196031923262 0.5003720356500938 -0.6221338142973374 0.11651143294010485 0.7648723219535386 -0.5629690135185428 0.13737918295582907 -0.017106975624084822 0.14219749677224547 0.10726085561300958 0.036109983495839104 -0.307445835207464 -0.19735057041294773 -0.19453374229188602 0.006937260179328664 0.05058160578425144 0.4987420750644737 0.3981099683290237 0.1017718158287928 0.1493077441967 0.06892346936018637 -0.18010961625872798 -0.4202381449251918 0.5128449645862624 -0.2743408021870896 -0.040716136212309656 0.07804466343292021 -0.07557809826513928 0.19949105675121942 0.36333935302482745 -0.4019336165766298 0.20128236983732534 0.21399243010643945 
1.3249551542662001