-5.143837768687579 -0.4973921741033358 5.665726547231315 -0.3859330758599968 1.026429487890132 -4.003422072191254 -1.5845203902886107 -1.1292699936070996 -1.0249381672755806 -1.1694808183599743 -0.004671393018991221 -0.11120955164248603 -0.08735752875496194 -0.23717539010090827 0.532203541003663 0.6618920444605069 0.6643240550027585 0.10162819338938478 0.36926142311462495 0.12198326895529904 -0.5563776910356637 -0.6315192863362671 -0.5686147020838429 1.4257115467700032 0.1406773491593012 0.10150537318328179 -0.9183212498627153 1.5715036185468059 0.268006751260243 0.08787386523456985 -0.0030036978687066895 0.7398986677947508 0.5487707422696271 0.16972845360537048 -0.2992854018256345 -0.29614654221672865 0.4428772765927455 -0.1144329400803984 0.27575630528316925 0.4698933920216808 0.4689912881402312 -0.6261260052289555 -0.20111490833539736 0.27184196014308526 0.46993419077410403 0.4216639237673181 -0.15405456639686094 0.5706662684939064 -0.05406965679222858 -0.011419432018910047 0.8410364119591169 0.5638635070480342 -0.09187823975111431 -0.15167051803624546 0.23937030960514027 0.5511567164666513 0.0035952331042984342 0.06728624376048298 -0.3175529845954326 -0.7002711843067957 0.2419155228005725 -0.46648577347651 0.31478312023885957 -0.3696185424815002 0.03083860285969464 -0.10445544413538366 0.010170983646721476 0.40013082695633095 0.4840435545476479 -0.15169327238559377 0.8946869789039167 -0.3296768164105488 -0.3937999800612887 0.43165090389114424 0.2275187097369603 
4.3205344862980954