-0.5652076642014494 4.732536706162071 -2.139644361048687 -2.4871865439120304 2.8217451738686163 1.5008812228809087 0.2962562499933563 -1.7701301074201379 3.593909734590176 2.6134468996461777 -0.1553550199916683 -1.6292826297914804 -2.533632475320649 0.986343351765465 -2.3437347737969336 1.7833800322205413 -0.4115483385523503 -1.6390477366695215 -1.6427397975378315 0.5869302603761292 -1.3253305444566061 -1.186471436043824 0.24260203495393262 1.1976462027249306 0.7688396345474299 0.28356074527521424 -1.2420335290010565 0.17644415122574064 1.8309465838396515 0.17449354601694897 0.37654036707598004 1.5428431722493492 -1.0192853404313416 -0.0926453483552902 1.038246932704321 -0.9723522871830168 1.5120588011540141 -0.8573179339209402 -0.14515426398549192 -1.484150030007221 1.1219390693410283 1.6364030538753724 1.6297684772890726 -0.6977798407327953 -1.2985052567051172 -0.8995017351006217 -0.507895521146187 -0.35513829795283347 -1.719632513164455 -0.7153333479974597 -0.7617954046756892 0.24084044572616453 -0.09147524620943823 -0.5586432426494955 0.5992268761758462 -0.37114544206210076 0.3781143762470299 -0.4138068245935149 0.9059166613110615 -0.020133393070375934 -0.14939611854189624 0.4633967434414743 0.09990989522774602 0.9899253568685507 0.3990370278934376 0.20546826523159537 0.8594886793509119 -0.45772859813021904 -0.4557222486596396 -0.19507873520782715 -0.28172008501377654 -0.37798187261698346 -0.3128971152373008 -0.8607286998278777 -0.4447970303270616 
-7.155900716975511