-0.4801521466698446 0.18384984058946863 -1.749272455904275 4.775945898510759 -3.634301503052301 0.003226729833980091 0.9512449090125155 1.2320795738900667 1.033047648540856 -2.471053428002839 0.43920120070480306 2.6385749655938344 1.4456817161211961 0.508816962270149 -1.9156802754923206 0.9559194072997766 0.4091497632305976 0.8510660217591441 0.10904444256417023 -0.8220951664203602 -0.7583707402590698 0.09997235318959363 0.3505054666427147 -0.8192374825427258 -1.1701508467790027 0.29312682278719554 -0.694580794295342 0.9866652208893087 0.6322970104976209 1.0426904600392197 -0.2763995694125489 -0.44978738395456197 -0.19051311309668428 0.026981724313658195 -0.7246236427352494 0.6925582850374481 -0.08554976992987115 0.516716498263998 -0.17976331165642973 -0.42287762998997236 -0.5034705152289416 -0.9428366851282991 -0.3525461990986345 -0.7037844993880631 0.4430645644482499 -0.1776789011628267 -0.4841483400775297 0.6983979053297846 0.19817696082206632 0.007545839328252674 -0.11087804561581688 0.2352611996430122 -0.08332141878896383 -0.07856558442942865 0.5325229031801142 0.42040574628667265 0.381282622824062 0.0743552818227595 -0.15293230428700116 -0.12451828159586117 -0.36872685739930955 -0.5876825861131327 0.17076317478068626 -0.022134764914960414 0.2178675648647444 -0.2704213810654325 -0.3934772321943387 -0.08836258492866736 -0.34424176054214806 0.02287628002044309 -0.19764521746809244 -0.22310308825855107 -0.16260577796070858 -0.20886134732748962 -0.15453033176536196 
2.1208788403074292