-3.413975170776146 3.413744266106267 -2.8256624228676577 -0.9402993632868064 2.525340445765649 6.262322011371269 0.5195708543530202 -2.2814950004800933 3.4531545384726323 1.2958145835060635 1.5922485882321313 -2.9714691832771565 1.0982163633477662 1.2526454332258927 1.527858480956423 -1.502017017786158 -0.8562168419808105 -0.5210673087423716 1.1644913436652378 1.9198029130744145 -2.5723922708301656 -0.5908321261686581 -0.2043333639900854 -0.3142200114852028 -0.5882648661132566 -0.26900699953970597 1.083446723691659 -0.4990687468448276 0.16923050912325233 0.46845561063693675 -1.6261969208596827 -0.47890691642973965 -0.635356350322627 -1.2299188950399838 -0.9189249317781818 -0.4982054566676405 1.1092612065200709 -0.853765917145517 0.3733969305680706 -0.5672307520820798 0.9667842429368297 0.765380644271243 1.0974971667898052 -1.2475853021970837 -0.38961214978606373 -0.6632172922186744 0.6885179988939483 1.399949083112589 0.2975921093488071 -0.9936155643913241 -1.3079119116979676 -0.2654581060195687 -0.3702783684594086 -0.6733265983138631 0.7952691457834156 -0.554604503792711 0.11339435752290666 -0.27519477556309 0.25844415143881466 0.15674532480077719 -0.04109785651731823 0.38133864874940654 0.1473071819398747 0.48982347171415375 -0.05856639791218818 -0.8445608327927132 0.7913179855118386 -0.3362138179763785 -0.16540084408391797 -0.47884168071166733 0.05088265672187248 -0.8191299752377093 0.5200904415173273 -0.812106927044748 -0.6937856744593507 
-4.599907271134016