-4.384137810629458 2.479650288450707 5.735803386535627 0.6321026257254919 -0.8291467238523199 2.268913897290399 -2.2740659798083627 -1.2834069725050767 0.47287149186413496 0.6780317116642687 3.739878657417191 -2.9805148658360228 -0.13879439087905301 1.261901178718611 2.9036813239924117 -1.871178431409898 -1.2221639327000808 0.671963917770622 2.239989397646366 -1.1202329386936056 -2.127320027511227 -1.7196779841194396 0.3357841053999808 0.7812344947442319 0.37467023777779124 -0.3048861484244334 1.82600381639078 2.50697542030677 0.3801232987847416 0.6522472982322309 -2.461638264500767 1.3087406544346232 1.0179758350526744 -1.4117487256574939 -1.7046280535251703 -1.4051751615332062 1.4006141151931295 -0.7261122628939771 0.4375508170504726 -0.3321259292761232 1.158983685123013 -0.6568661893540073 -0.08981388798010267 -1.331948746229441 -0.6968932532737624 -0.38863914007799855 0.605875486335211 1.2010077876838183 0.016126902527694158 -0.040640550786525065 0.6760674823408612 -0.6809540879268047 -0.6997265808473314 -0.21207564115789793 0.4093181112895845 -0.10625440346596939 -0.5243493354723747 -0.753426668888354 -0.36453606581255527 -0.9998406348220408 0.2301020118368343 -0.8034022115158449 0.5225295269151018 -0.47538677964423226 0.08634416642439603 -0.9269573269205282 0.6707057450729255 -0.3179909865038889 -0.015499303333485613 0.3436964557398693 0.805346502545474 -1.7646108050489073 -0.6634574872350706 0.34404412425130726 -0.3666312684764943 
-0.0315151074600869