4.330166631669132 -1.96981669772652 0.006369883636102802 1.1895757765590278 -0.7733957024060274 0.3575574178231973 -0.821726093708981 -2.080337555524019 3.938967101187875 1.792428177284214 0.10613490948122944 -0.9343268243967136 0.40778992557105265 -0.5850879086558249 -0.422809271172471 0.461847135159308 -0.27353267950325577 0.31277198705931303 0.23228597515050747 0.3653186081789897 -1.1069732204861138 -0.5061191174430859 -0.26006399663340024 0.021227572273849332 -0.40111295512224077 -0.17468339194939775 -0.01090232016001269 -0.3694179750202838 0.0031886302189742116 -0.22128158446421847 -0.16671271958735948 -0.008428711458823054 -0.6717574308618147 -0.16568330419868654 0.19990048579310513 -0.4706104164735282 0.005755698433173265 -0.2672254731467783 -0.37153213025466403 -0.24587531096518367 0.0451068960640765 0.02687754754972352 0.0987725260067901 -0.26239908328288786 -0.18447791271023026 -0.2169968745634917 0.3793109274839429 -0.46519670150751724 -0.11935318399952778 -0.22719331531149944 -0.026647869553127868 0.14010361515940736 -0.03605347004887466 0.2411816837151921 0.19367747813316893 0.17493264137477182 -0.3206463634221762 -0.19577373494422592 0.06911530335274303 0.1649170289468057 -0.0017444400199218696 0.19558277786012487 -0.10037509283635948 0.13111643065647544 0.04783726136807868 -0.2051974877783085 0.04849386702190506 -0.320857169871433 -0.08314496716562836 0.2671360341665645 -0.01971473529272122 0.10407165472391566 0.06322957231410108 0.007912600299221473 -0.06547656804874308 
-3.504709083218752