7.242047862510862 -3.601233965372618 -0.5608522148810318 0.8248650470037661 -2.4133484185652474 2.0353792626469662 -1.4279499374948532 -0.47375184075895094 3.381724573618545 -1.9801439295554337 -1.486836905777997 0.19389337827378306 0.35616140193453116 1.9997794098682091 -1.1857543904130665 0.6247003708822427 -1.6570110272649599 -2.93660491569903 -0.9299152100848931 1.0666078456764945 -0.7867873251639108 -1.7000264008807306 1.547946595563435 0.9447674275649611 -1.440027052484705 -0.04880878933514926 -0.5193417226336816 0.42024581778068437 2.0849039384833543 0.9125349277540321 -0.17501007418395442 -0.628574763518221 -0.4703312116171361 -1.1485201534780352 0.1717225554700969 0.37773222184828503 1.1332806327156122 -0.3184431703942828 0.29009869599435434 -1.2491434960121413 0.3776633626891518 -0.17520548827974736 1.4115490438373763 -1.4699000699712226 0.3394721101304964 -0.21810175737224524 -0.2293780453995784 0.8376183058013547 -0.07720127492278506 -1.1367080345861003 -0.2606214713138264 1.0112281447645493 -0.18685976239058977 0.7739238830443262 0.4642142080066117 -0.11560808702753006 0.29415836639061355 0.3967429380576629 -0.08530938068345931 -0.2958762088111426 0.09337390819901425 0.0684468524637416 -0.18244546956219487 -0.14302674139201713 -0.04763225286361228 -0.6142080117279762 0.4389427538331946 0.2808225527951385 0.30448217363532526 0.03260126599604292 -0.4782493325541972 -0.013085797360397833 0.5429310147860748 -0.11945651536117796 -0.2892722328710594 
-4.006716528737445