-3.568371090357651 -4.179676285944046 -4.626244122222314 -1.2082161935935498 3.1561711047842698 0.10879472480860525 0.2410354647420646 0.2659653673775688 0.33565500458645237 0.5559765060177142 -0.18133467599732414 0.8080796050836301 2.1030326256350835 -0.3223205884692659 1.5764892133844923 -2.0903881759835694 1.4361738864115012 -0.3814445829324691 -0.47258965107337925 -2.0301850898156637 3.5727692136042424 -0.19013497780859814 -0.8171061157594854 1.3587321937873218 -0.042124481915036774 0.10813919869836945 0.9053454341477944 -0.2973849701475216 0.7778618321510365 1.1456583979007664 0.527865601795059 -0.8500246499158743 0.3319398194513935 1.2598066397743786 -0.10122481572691493 0.7434670533873727 0.040151647026339304 1.1805460669489345 -1.8905342283128057 0.49919775006905126 -0.5247109076399811 0.39192149244730284 -0.7682961041354388 0.1517345431353519 0.31748198105473524 0.9467254573166404 -1.0384547453876638 0.6666578347615668 -0.2067125763544435 -0.42986706554866716 0.8105899490901941 -0.04730608337785811 0.7822171417490648 -0.07160395859121267 0.05772209327220201 0.9292489525937045 -0.6453043888924656 -0.7447587999589114 -2.389679191344321 -0.2391127492644739 -0.43273505394427647 -0.2051648317092148 0.4872789591996669 1.3032516538836505 0.1726826515122773 0.3960489803535364 -0.11985906432446268 0.31288684386870724 -0.10252577303451482 -0.1516738684012143 0.5427534882082549 0.14962662870870194 -0.6157879365200738 0.7756915781546576 -0.25051678647901643 
4.777836047279357