-2.2720222694144834 -0.5043489467029563 -6.114082746952622 -0.7967949003003572 2.613068295282673 -0.9966876885830802 0.6588029464487406 -0.34125757708606963 -0.4237864156839186 2.8089514228757153 0.5639899527034342 1.0251157198600802 0.7883518602665127 -1.0886987297600625 2.1039754493382348 1.8047984244885575 -1.5172563115923294 -0.026260654903999925 -0.19444842854694672 -1.7800971581476128 1.7908231538578134 0.1965353717495365 -0.06847776330490551 1.5461109270441873 -0.048610574657333094 -0.6777540679382594 -0.4483755699096244 0.14919802709382365 -0.517889392391879 1.174806086787009 -0.7695457440083422 -0.7597063867013483 -0.1027088060613578 0.35623118765422357 -0.09694521893262992 0.6397911917041591 0.6442337577668521 -0.021474803226535444 -0.8917063353853969 0.2966705455475842 0.13588772358824933 -0.08477176766665992 -0.9512990788744116 0.018428202784170983 0.6629958993231799 0.19555783639725488 -0.6640387593787316 0.8562398308693449 0.03377624950678959 0.060597164872413206 0.7244484244564955 -0.27201171817731207 0.6181612263939492 -0.5091740129467879 -0.14158605917828798 0.6873111539013227 0.030725657715312577 -0.4809016605978831 -0.341482296338882 -0.3277968108773679 0.27694028863816816 0.17961834731616977 -0.02792768792231004 0.025535648539264655 0.1303329095325323 -0.0050845900546098305 0.05714520009826973 0.5071046769470545 -0.029801872372918592 -0.3681888737131404 -0.0011550345243266369 0.254729025474494 0.32861450719461394 -0.2001187191061664 -0.08132886209632587 
0.9831790917681613