0.3596949403403613 -3.4215511526913502 0.9041320568376905 2.053029724340184 -2.326619035768262 -0.6043778735168611 2.937488021199105 1.144106462158716 -2.766879145444261 -1.4442960281533364 0.49358215035446196 -0.3533904792516567 -0.37331302665055344 0.11579209140637708 1.320806391642206 -0.0013894747986820666 0.15597302208506147 0.6956855314379167 0.1515864866883082 -0.22683362061729329 0.7547940049886817 0.4327093730997495 -0.8100506326846557 -0.2090224793835384 0.23082108695146342 -0.36056095581444747 -0.12347048312051387 0.07461351873436523 0.3543354238639383 0.08779879133718439 0.26515923751374987 0.2911461328576961 0.3974369119197954 0.3908599910084241 0.0977191862384139 0.2815181073532707 0.20462828780915063 0.4953202859723092 -0.10267350388889462 1.3016078646240588 0.4078319676825944 -0.4564967563591324 -0.6626452256745702 -0.2043275873485859 0.17243844621067195 0.26592130349332943 -0.5843178825662104 -0.0886583545876326 0.06428375354831894 0.18947915590030606 0.16389291940391304 -0.2452522817648203 0.08765375731713446 0.18543698063316005 0.03864996727211171 0.06716345807280583 -0.07775662532499567 0.4729336557810884 -0.23920572318310318 -0.43914213911664596 0.18434421664166167 -0.3927903000948471 -0.148149768996163 -0.3081469122144078 0.1276958161588259 -0.1284858960035509 -0.29825200072681624 -0.11325556130344491 0.14006906684130263 -0.47393488783260346 0.026054864373924846 -0.143440119288663 -0.19123591150692248 0.06429509149745888 -0.33056767791384967 
5.492787207694031