-3.1468364174946135 2.908876069037335 -1.3738255008521019 0.6938596326478476 0.9734072870660371 -0.5887565463219762 1.8950881107831443 2.361184362294976 -3.8181607172230123 -0.34045761645556283 -0.7764670341303621 0.5404624102395157 0.1538621891378702 1.9711149048926324 0.2586701535537216 -1.067420766857492 0.3017722611045732 -0.5145204993095591 -0.2860645248313882 0.13936491595466197 0.11561191235140367 -0.05169250859371699 0.3304805716020729 0.8149441212533528 0.1461817492716273 0.30607137622904446 -0.23570537398208458 0.3925659215167141 0.20054458407160686 -0.10125409920215281 -0.5551800897019653 -0.07936929040703378 0.43214024623354486 -0.3817017680954974 -0.2238405982173768 0.27232767155595483 -0.28108239395313717 0.02203141708882339 0.3415042318693392 0.24062509030719204 -0.2740586828086915 0.04063395154904731 -0.23766730651221896 -0.08156682103382018 -0.30122579406323263 0.030677261371957254 -0.3942958678226285 0.12349926877909517 0.018621639524092834 0.31847335178304453 0.2063484648113013 0.1591589468648189 -0.03175054589115159 -0.11353656408961083 -0.45597803269928566 -0.0641177331773129 0.10586191637733178 0.06500027738384867 -0.14042997101077262 -0.3312559663928115 -0.25227700976885054 -0.5129038187175524 -0.08710270078738902 -0.14764462373004936 -0.17109374332439337 0.18143647462331086 -0.18939099802423442 0.2987948026009634 0.12195152768777473 -0.2213215313445749 0.04603769133125185 0.1360608650880447 0.08047071394913757 0.09737377971713346 -0.013138666677503075 
1.798592789101471