-5.498631751119394 5.468694833296439 5.788929696726726 2.266958428417815 -2.9325818584467065 1.369454316880975 -1.544284042072512 -0.20689851551000604 0.010380624722204246 5.493706046945725 -0.17281359855362766 -3.0536302635707053 2.2286234497955473 -2.0498219017522676 -0.7122000542021649 -1.4909422768493492 -1.7053834929132639 0.4580391819219449 -1.0406568074916862 -1.1146312495581532 -1.8211626973834458 0.019158600227895395 1.0254637098691473 0.9222889626471983 -0.07239401044751004 -0.267842284607495 -0.06657220253558616 0.4958818510420533 -0.694910307831528 3.0946875790777892 1.236081463635339 -0.3179499237388588 -0.8841442920993519 -0.17250839401469675 0.2574076013778107 -1.8503832639890883 -0.2147633855093295 0.7630865180111644 -0.3559768567677284 1.1074432713585272 -0.6633098581241934 -1.477342635201758 1.1284019234213578 0.5799159076006466 -0.9115683121641952 0.6255262206408208 -0.4557535513322446 -0.8587838598615187 0.009969439490422394 0.3799075279158959 -1.0537625373402175 -0.30101133442332445 -0.44232098144145615 -0.5962781059373091 -0.6672359883339705 0.6144689354584566 0.762022876196494 -0.12289289801202219 -0.570567568760308 -0.43309610064307097 -0.35783952340125785 -0.1740744942021435 -1.1295937684869894 1.1593394283362788 -0.0404194414979846 0.27854377883662007 0.10115637757934133 0.33337407681621994 -0.674445719213763 -0.15440583270200187 0.27787283195035306 -0.1902114677168424 0.7024977149849956 0.3524153198318396 0.20429891474698403 
-0.06342254678628645