1.5870225108446532 -1.60198379151534 -6.095982283102942 -2.5137316051989336 2.4892622606421226 -1.9650750044874497 -1.7108657268609868 -0.2079175885882237 0.39760843825038567 2.114503710581794 1.588343047641192 -0.5569094911742012 1.4283497824462035 -1.0140945981979583 1.4340882660319796 2.2077393338969 -1.9607801597084225 0.44102768805022624 -0.4064221564709782 -1.2994708554432648 -0.351437658148633 -0.025726148155171248 0.9327204100184014 0.6804676376118404 -0.15174057000860725 0.0364352652037621 -0.6332432342635161 0.3667903891846099 -0.6829195366495575 0.015648186144445707 -1.0831795131109103 -0.057784669549316124 0.248792813365719 0.4797099040560219 0.9874531145083063 0.9450703115969419 0.33728277900408776 1.1436716048248607 -0.31187760314042684 0.3453621530854095 0.3655867489481544 -0.36208244307261833 -0.1409026393161506 0.874772843158301 0.06996915958173766 0.04312145867990224 0.5606449859953255 0.844418975897263 -0.07099439309091525 -0.271230812760217 -0.22142107936555672 -0.4352078073813055 -0.08570666810882342 -0.5368682477363707 -0.053475638959553304 0.16728191102636958 0.9362406725574204 0.1420592336014387 0.4983910058567449 0.14416048710083476 0.14071408008144218 0.5584730023431519 -0.5146842066268653 -0.2511561064522566 0.20532391782445072 0.1653742315546182 -0.25155537039322445 0.17454733729722247 -0.5245724236390136 -0.3399792949698206 -0.14572683848330514 0.20761774949352518 0.2858653159302638 0.4463827408830939 -0.20158930067027053 
-2.0373227599309636