2.3427707530088693 -3.6241804960583597 -2.041456871613998 2.0678296555189397 -0.6854196028747532 -1.0374637309181947 2.480272858413585 0.9732006583433146 -1.4403562074943856 -0.06973090862754194 0.8218605595824353 -0.7406936507459969 0.1101402401491609 -0.40970400701230736 1.494748455497191 0.711785682208288 -0.4921567605198538 0.3124418775080928 0.22721053131928182 0.12338239889764313 0.392194698142617 0.5704948857520145 0.014912349820772164 0.07299425972703799 0.12800865632902858 -0.9605668767431272 -0.7131585051926635 0.44829549791645085 0.12757998856100833 0.22438715323792346 -0.3597052310365013 -0.06390669335315552 -0.011264852935716552 0.17533647358995386 0.4483813590283677 0.31365448532515044 0.5923313831042994 0.29791021226944714 -0.41164420094957754 0.6532773205113862 0.6467381660483443 -0.21880363116407014 -0.5778240703568958 -0.2322593694572884 -0.10243782637906246 0.0016924843352579266 -0.6205458017106038 0.05169858254912768 0.3298344574250254 -0.2828437197773583 0.30290710311467167 -0.1340645753613877 0.03586450451023748 0.06956617336031233 -0.4102951370748351 0.07987059072849884 -0.021572930460646678 0.21086817017816828 0.03263255470611087 -0.3047362538015934 0.04042752516712525 -0.18424280237549018 -0.2845872343734008 -0.17163313295139235 -0.07395270465134193 -0.1013554617608782 -0.02032637922774605 -0.22207465756066397 -0.24517036721264301 -0.4774696712913651 -0.0963534809368804 0.05962359675515044 -0.20917451204180448 0.030812624812381284 0.03519338855081089 
2.704932180955927