1.139543467118994 -2.9445517686013183 -2.131603493011114 3.1746678775385733 -1.830103400918916 1.1146395725405118 4.463521319517509 1.3250122067890562 -1.1163600575505042 -1.039164678683274 0.45223810363156725 -1.407713465897627 -0.263370562618533 0.0018465003531593638 0.9997014700846716 -0.9322379318482338 0.7086864386672738 0.37981838180574634 0.37325311453926413 0.8410382442976265 0.7574939783240833 1.3970829428896323 -0.7510173467777851 -1.4770115831541377 0.24263168882264163 -0.6843746851757945 -0.5207589249627569 -0.6018246919171979 0.19489318310020742 0.32400409726508594 0.26522911317068565 -0.6141841762019586 -0.46654279828758916 0.4166677837164654 0.4352263712746995 0.7525321569639298 0.36672327653536374 0.6256592535902012 -0.20243275268537447 1.185163176543698 0.6450733318174107 -0.02217964610122969 -0.6116408766073853 -0.5031935671967058 -0.003854043148459718 0.10814611119333106 -1.0201449940569092 -0.43442365941992334 0.36407683626484233 -0.20754117920186188 -0.1706785679578302 -0.07606701301426175 0.07383844303258374 0.28958547585171157 -0.6553577221135707 0.0549363552503469 -0.05296578476277203 0.6017904585367881 0.14336042399315166 -0.23875979757521693 -0.1774014693189112 -0.027118561308027478 -0.49354531574744276 -8.758089790460444E-4 -0.11880765627102187 -0.0817169070709668 -0.29629900569907 -0.31847467927247436 -0.2629523670160442 -0.7979758141193024 -0.4932762252919154 0.5300417017034512 0.15096727458085268 -0.4881646293875753 -0.36242252237506944 
3.944901207776814