-3.95755732131751 4.828794227075486 1.3036495072443226 -0.1458822316215782 -1.4734453693148948 1.9581967960855668 -0.10153888999360627 -1.1058926745353466 0.5762053506744598 0.9394112930854817 1.215921249718019 -1.0613326051604037 -0.8265222270494776 0.7088501836601135 0.5556473549022042 0.07747806260998036 -1.2774908624402608 0.11544682240972126 1.2856197015645456 0.149496796381755 -1.242330293716545 0.4097783562760503 -0.10898176140617533 -0.4937518151640702 0.17391398867559457 0.4033202189154973 0.49364477809503493 -0.2459267647587816 -0.25029593934488725 0.5545781851075752 -0.9650111751379218 0.0858814417771188 -0.03104429832230085 -0.5089029692940766 -0.6313676118399743 -0.024563376164857653 0.38205145487770553 -0.579639576330797 0.6921127351162165 -0.3328835848630186 0.38175983860188006 0.43364585207487605 -0.004202866089996371 -0.5157501007016974 -0.17175510263600924 -0.22060728301745325 0.055509185840189434 0.24634374853032603 0.08398792768349236 0.37818782702073317 -0.18188026582315217 -0.29921062401783616 -0.18797366427089912 -0.21611635469941332 0.06978045951709952 -0.08906345379529038 -0.05234962049925357 -0.21263081471582776 0.1029434667256554 0.1223644445210682 0.22742079674731594 -0.1000524621595819 -0.179685970871227 -0.28380996745618037 0.09498306109576764 -0.253646502873197 0.05798559458447927 -0.08854404800474062 -0.4094487561019303 0.03173695999706795 -0.04748876042865274 -0.10929426550449153 0.13522422572166587 -0.17376661882153505 -0.17023304264919617 
-1.3155055671744915