2.8783890481911527 1.5833414248662443 -4.728215285025445 0.8336533692361394 -0.21677995624694724 0.20478070237252233 -2.361823495459796 -0.48509515195564235 0.5606776739125561 5.357442929883149 -0.05510057425424031 -0.7972133808190502 2.4677643825229385 -1.8483072331942318 0.6933751343269243 0.8600188799274501 -3.7367260561309013 -0.02282691610603127 -0.4547220083296286 -0.4279090333986088 -0.7987523598973341 0.7562764278154486 1.5717728272152267 1.992797678635383 -0.9195837490289627 -2.5535889486685908 -0.6513739739106057 1.3985172895178402 -0.8686317759066773 1.1764833836646313 -0.5472042677946092 -0.6229850164735489 -1.3300890009015816 -0.5994013744538791 1.2087360148987074 -0.2911130647039618 0.4278593769469494 -0.12112492909151762 -0.7111574233881612 -0.5211604545024009 1.0559849857383408 -0.5727050098775042 0.8847239097654322 0.792368369702661 -1.1244699566177712 -0.07341620370360147 -0.0031806676254849675 0.40640866437284906 0.3174898747804218 0.03077284393115587 -0.7861120895412915 -0.35157455675915905 -0.1098263636963274 0.2898654933147091 -0.48129808286316456 -0.5166512131590442 1.6205320016669074 0.06649305702798325 0.2565213956981399 -0.21449535787949767 -0.22409658313559322 -0.5245693451435837 -0.8450125868169607 0.45547673018800927 0.5515857054998321 0.5766646992549145 0.3848859968644055 -0.489407339962995 -0.5524155809411514 -0.452756450146127 -0.02338250429504113 0.015191024297920186 0.16052881600844662 0.4702355496159307 0.7086396601453612 
-5.260140966404181