2.383078258800434 2.732846754417329 0.1267867905679514 -0.375864986542655 0.6804077450698665 2.029354566074648 -2.714060734783489 0.22631299271186855 2.339391818417932 1.2794430761017912 -0.23833373185354112 -1.266206744618965 0.5535723580275862 -0.9358663142498538 -1.4213917877158455 -1.266798590370545 -1.433729125057836 0.25093497642930107 0.31724771947136277 0.6786303164785074 -1.638501231004581 -1.2227040522635002 0.5070720391074011 0.8119124171737747 -0.41799529979318756 0.26473085680382746 -0.5191911788025074 -0.4777697619565567 -0.8368763125338143 0.10370858153470539 0.013564137673646948 0.45166943358429223 -0.37956886682691515 -0.4195120763217373 0.25478137019988656 -0.23099355804444677 0.4554142769853967 0.2939432760555155 0.12367374112016122 -0.8695566274762001 0.05941604402626688 -0.023546118217551065 1.1688584758096132 -0.5084137004709917 -0.3185337088357898 0.03817732265233642 -0.11670218988609338 -0.101047190597648 -0.24693150478778525 0.17965625175027128 -0.17735715379261707 -0.3115969572073255 -0.1791972897147796 -0.2746952223709662 -0.25142927029769235 5.082268268337409E-4 -0.1347440023812323 0.04483514606602074 0.3550322114159465 -0.03450096965746448 0.008797814779931107 -0.4541404019849039 -0.4033614848741229 0.4151500417840157 0.06891683453570079 0.541258026090975 0.8553236939022013 0.08379657854992745 -0.20743209829702175 0.21865337088486442 0.13933969198758184 -0.1192876489007198 0.19181473312897288 -0.48937532291431596 -0.23079875159344712 
-6.246182608741426