3.3844425029721243 0.6027105618914934 -2.058391807719015 -1.7844249928072493 2.3983707325072787 2.39228199616091 -1.4932126498452662 0.12170730505200145 2.696489752863216 -0.1722687491632814 -0.4226132685517815 -0.4679083596229301 0.010205474228429323 -0.4744650739119035 -1.216476938253993 -0.9651188459481328 -0.9896970245167607 -0.6846960903481506 0.4945868698686019 1.13295779030625 -1.5053369615285828 -1.958515969729976 0.11527052267948612 0.857121642119408 -0.18538296366605822 0.5505364061373907 -0.9249339276397014 -0.3128693824464889 -0.4239011840313377 -0.4254168593544824 -0.5741909980720097 0.8406127741359934 -0.26608541739852465 -0.22524329058850523 -0.16854206452184525 -7.633677372637093E-4 0.7837884346863172 0.1461445961584973 0.20894631629550808 -0.6836353649005056 0.34882251485233295 0.3665317281889949 0.7316389425641707 -0.8290826459692665 -0.03517022155799032 -0.5114619329793768 0.055368987087661775 0.22653576578670814 -0.3577691112764934 -0.627472033867287 0.26080671223935037 0.3263150902328523 0.0033060554962032473 -0.16799768623345818 -0.2697738414450833 -0.014626898806605393 -0.3550339586124241 0.23076468497141417 0.721693248959491 0.10431744662874498 0.29399211758558375 0.181363071282236 -0.3757003595561964 0.5711499680445252 0.06105030708015832 0.3108843035975578 0.5310709101134681 0.08697009477512813 -0.19005357050824628 0.21114496793142645 0.13413439904254842 -0.10011141790029415 0.5217281709790853 -0.4041795642635745 -0.39323837022250535 
-6.0224148143631515