0.7004733080923842 -9.249815974683244 -5.982254402534175 -3.680125582792506 2.739585673044159 -5.064859180298794 -1.5356195926968255 -1.150948507758398 0.645556084792533 5.077229420515449 0.9292636446891249 -0.15380492333561246 5.768614965258086 -1.7585251208830992 0.9025509520670516 -0.12449629586026023 0.12264992290271737 -0.955467975802013 0.7077689840671026 6.093610333678989 -1.9459269292101906 1.8831576694338477 0.9780372614200632 -2.429926194174268 0.36462992087750257 0.16920465043999566 -0.4126041048144503 0.459133383770134 1.4415245871343694 -1.4002491508107577 -2.1367709035638915 0.5206304109400484 0.26211859745175947 0.6675125137263973 0.28966439452316906 1.3438639369411534 0.25427221545573475 -0.9413892940858244 -0.8326506353105717 0.02080905691005297 0.7727135655082368 0.7711432397654341 -0.03834513802736872 -1.340446803463654 -1.340954312586723 2.051000909990744 -1.3287306965904242 -1.0301276979682696 0.3542178552593699 0.07240588157469963 -0.7831712378370768 2.0764658206807125 0.26576688927964665 0.6673719333494808 0.1733324111572826 1.9576177267545867 -0.34330985101811007 -0.34062454935739916 -0.7897545343737713 0.5777067121732131 -0.11022435967850441 0.489822346519855 1.765844142713956 -0.33835427013997177 -0.17138367133475263 0.7331706645154578 -0.9585179979616352 0.3512287160831732 0.7538777105337975 0.9820107621653318 -1.0341536269301441 -0.4498892658762381 0.38613411637448797 1.0197330276545804 1.5899964615731441 
3.87725453031515