-0.18525535156839634 3.920188935217265 -2.1799931206947187 -1.1038817962244778 -0.5414954324499335 -4.1623671925161645 0.21141927579275976 2.3742717785684566 2.449483698632144 1.3985096014340046 1.9155125738828436 2.138087180616973 1.671333411683748 -0.7781876972420618 5.012306843702669 2.6478798857317942 -2.3973707022054658 0.29377910078900216 -1.1097353533136924 0.5808587629566733 0.6231321177825981 0.06709559666405934 0.5054564696881907 1.1192204996935566 -0.9842014195839088 -1.225462374765018 -1.7164979825578925 0.9832339806532315 -1.7860351438233315 -0.7629890501156821 -1.197178671453018 -0.5096651884850746 -1.2610633025511087 -0.625587485242768 0.8813775838556396 -0.21226247252095765 0.4861397067154847 -0.2856799439781349 -0.5420973795005013 -0.48385883028077004 0.05473866909581482 0.006845853589463852 -0.27834326495034145 0.1652713115962873 -0.1639577245041778 -0.6335825931272366 0.028841642399409062 0.3110981248809235 -0.2773384743012486 -0.5753075385134414 -0.12971757669746858 -0.5173311929321913 -0.39804312205953174 0.041674218065576765 -0.700540423344615 -0.8820705538199668 0.33569741660154956 -0.2045955869337371 -0.25168354017958666 -0.050090414465829194 -0.6365438847462386 0.3764034852000646 -0.5364758881313536 0.09144179956441721 0.2984623473246458 -0.5626151768824579 0.5468489412547636 0.0032381156979047754 -0.10801391825303455 -0.2921325552378292 0.008289715248592514 0.19935554462779703 0.23579534781548128 -0.4129716805403277 -0.32106853633007837 
-2.402516294277729