0.06597379015062721 3.247155735493793 4.93642895443973 -0.4899809275814373 0.7376883122845923 2.623606075653732 -1.062255153984796 -2.425769136408631 2.2028053240706313 0.6611062754522326 3.044161811607359 0.4859275630654887 -2.415212192654359 1.4958932529303604 -1.8834309981695367 0.6683517555607943 -1.4553031236413347 -0.9563459801675074 -1.7982698617235622 -1.406806549141328 -1.4145410543048258 -0.8835299973526416 -0.675006870497607 0.8627438373270718 1.505433364980429 -0.8007234687997022 -1.1369563690264446 0.4582812386005548 1.961752607285746 -0.0030923975692335737 0.008106306687088116 1.1345603911830509 -1.2104285049291812 0.9688176061003542 1.5108235792774474 0.36720074413464915 -0.013894557083650505 -0.7020055847326011 -0.20274294729173464 -0.42801311869693426 0.4778987506785848 0.5526645644093744 1.029660752942915 -0.26306017274743565 -1.2759637297691937 -1.015220826977414 0.10676757357052258 -0.5180252034038312 -0.8111113497686387 -0.7157986158243532 -0.2824454255566471 -0.5457152969502482 0.972645664946008 -0.868313344928362 -0.7550277441790199 -0.06399473103776754 -0.08139282828873351 -1.343428362585027 -0.04695736325969796 -0.7198526458166025 -0.645597337799569 -0.3139015546153042 -0.10118491637438054 0.6195208298028458 0.5768460621465732 -0.16916599637025545 0.2470998253798583 0.1369432707698391 -0.11415756721582893 0.22071477806941342 -0.872535031494496 -0.1954447417790557 0.0821589464988407 -0.43967274430586656 -0.44746322069571554 
-3.896518855925771